#include <polimidl/layers/alignment.hpp>
alignas(polimidl::layers::buffer_alignment::byte_alignment) const float weight11[] = {-0.24895101785659790039062500000000f,-0.22128914296627044677734375000000f,0.09479327499866485595703125000000f,-0.00526397908106446266174316406250f,0.08439254015684127807617187500000f,-1.05079829692840576171875000000000f,0.58581835031509399414062500000000f,-0.74272775650024414062500000000000f,0.13535550236701965332031250000000f,-0.14376391470432281494140625000000f,0.26009333133697509765625000000000f,-0.26149255037307739257812500000000f,-0.43610876798629760742187500000000f,-0.09648239612579345703125000000000f,-0.33820581436157226562500000000000f,-0.26673385500907897949218750000000f,0.50742810964584350585937500000000f,-0.57992398738861083984375000000000f,0.41342741250991821289062500000000f,0.25744631886482238769531250000000f,-0.49612870812416076660156250000000f,-0.05767922475934028625488281250000f,0.17522266507148742675781250000000f,-0.03419205918908119201660156250000f,1.39426171779632568359375000000000f,1.38783061504364013671875000000000f,0.69326978921890258789062500000000f,0.08248365670442581176757812500000f,0.08523372560739517211914062500000f,-1.13925898075103759765625000000000f,-0.41712254285812377929687500000000f,0.30343174934387207031250000000000f,-0.14738841354846954345703125000000f,0.14011053740978240966796875000000f,0.59825146198272705078125000000000f,0.11984281241893768310546875000000f,-0.23249760270118713378906250000000f,-0.33240595459938049316406250000000f,1.22819769382476806640625000000000f,1.03575372695922851562500000000000f,2.55844998359680175781250000000000f,0.28037774562835693359375000000000f,-0.08498845994472503662109375000000f,0.08621791750192642211914062500000f,-2.05428171157836914062500000000000f,0.17011947929859161376953125000000f,-0.36341226100921630859375000000000f,-0.32939362525939941406250000000000f,0.02170937135815620422363281250000f,-0.75868678092956542968750000000000f,-0.64132589101791381835937500000000f,-0.22929346561431884765625000000000f,-0.01872880756855010986328125000000f,-0.38287886977195739746093750000000f,0.12500424683094024658203125000000f,0.19157066941261291503906250000000f,-0.15307357907295227050781250000000f,2.04194903373718261718750000000000f,0.10844447463750839233398437500000f,0.30944237112998962402343750000000f,-0.01431940682232379913330078125000f,0.52703016996383666992187500000000f,0.56136506795883178710937500000000f,0.58944100141525268554687500000000f,0.57080566883087158203125000000000f,-0.63203144073486328125000000000000f,-0.13312003016471862792968750000000f,-0.56778407096862792968750000000000f,-0.85839366912841796875000000000000f,0.95331382751464843750000000000000f,-0.63294786214828491210937500000000f,-0.64330744743347167968750000000000f,-0.11798503994941711425781250000000f,0.15000875294208526611328125000000f,-0.92686957120895385742187500000000f,-0.16913263499736785888671875000000f,-0.75782972574234008789062500000000f,-0.88985961675643920898437500000000f,-0.01064065564423799514770507812500f,-1.87233984470367431640625000000000f,-0.30653437972068786621093750000000f,-0.28031745553016662597656250000000f,0.20715343952178955078125000000000f,-1.34066164493560791015625000000000f,0.77652597427368164062500000000000f,0.20400653779506683349609375000000f,0.26363769173622131347656250000000f,0.73205959796905517578125000000000f,1.95818376541137695312500000000000f,0.02996829897165298461914062500000f,-0.56628346443176269531250000000000f,-0.64671558141708374023437500000000f,1.11421072483062744140625000000000f,-0.29030197858810424804687500000000f,0.11141326278448104858398437500000f,-0.29321223497390747070312500000000f,-0.37771606445312500000000000000000f,0.18702203035354614257812500000000f,1.43136835098266601562500000000000f,0.68265092372894287109375000000000f,-0.37599870562553405761718750000000f,0.46530795097351074218750000000000f,0.35208171606063842773437500000000f,-0.39870280027389526367187500000000f,-0.19398371875286102294921875000000f,-0.93446201086044311523437500000000f,-0.51465278863906860351562500000000f,1.07425332069396972656250000000000f,0.03021940961480140686035156250000f,0.06295288354158401489257812500000f,-0.49472752213478088378906250000000f,-0.27175784111022949218750000000000f,-0.31186598539352416992187500000000f,-0.34579709172248840332031250000000f,2.61921596527099609375000000000000f,0.00363938556984066963195800781250f,-0.02250935882329940795898437500000f,-0.67947995662689208984375000000000f,-0.15627789497375488281250000000000f,-0.40048110485076904296875000000000f,-1.17709457874298095703125000000000f,-1.92220699787139892578125000000000f,-0.19090630114078521728515625000000f,0.23636479675769805908203125000000f,0.05539816990494728088378906250000f,0.44712769985198974609375000000000f,1.29811823368072509765625000000000f,1.04467821121215820312500000000000f,0.39437371492385864257812500000000f,-0.57432258129119873046875000000000f,0.45602974295616149902343750000000f,-1.88936066627502441406250000000000f,0.80301636457443237304687500000000f,-0.66676563024520874023437500000000f,-0.72328203916549682617187500000000f,-1.08368217945098876953125000000000f,-0.43703985214233398437500000000000f,-0.75775378942489624023437500000000f,-0.56605362892150878906250000000000f,0.89828360080718994140625000000000f,0.52769321203231811523437500000000f,0.66693425178527832031250000000000f,0.71559315919876098632812500000000f,0.16472192108631134033203125000000f,-2.30810809135437011718750000000000f,1.80441331863403320312500000000000f,-0.66079890727996826171875000000000f,-0.80133402347564697265625000000000f,1.77814483642578125000000000000000f,-0.90743339061737060546875000000000f,-0.35306447744369506835937500000000f,-2.76859116554260253906250000000000f,-1.68931937217712402343750000000000f,1.56915652751922607421875000000000f,1.92720651626586914062500000000000f,-0.15600270032882690429687500000000f,1.73422491550445556640625000000000f,-2.50596666336059570312500000000000f,2.63457298278808593750000000000000f,-2.11114454269409179687500000000000f,0.31134486198425292968750000000000f,1.75190758705139160156250000000000f,-1.21543705463409423828125000000000f,1.39276897907257080078125000000000f,0.45717933773994445800781250000000f,2.74538660049438476562500000000000f,-1.12619316577911376953125000000000f,3.43357396125793457031250000000000f,-1.80477833747863769531250000000000f,-1.49157094955444335937500000000000f,1.07199382781982421875000000000000f,2.70561695098876953125000000000000f,-0.14693845808506011962890625000000f,0.22130039334297180175781250000000f,-0.21572968363761901855468750000000f,-0.84255933761596679687500000000000f,-0.26334711909294128417968750000000f,0.19718861579895019531250000000000f,-0.16382375359535217285156250000000f,0.50229543447494506835937500000000f,-0.05071279406547546386718750000000f,-0.90189588069915771484375000000000f,0.46399533748626708984375000000000f,-0.85498404502868652343750000000000f,0.00715971505269408226013183593750f,-1.35055744647979736328125000000000f,2.94895100593566894531250000000000f,0.37349727749824523925781250000000f,1.12828493118286132812500000000000f,-1.88702249526977539062500000000000f,-1.40126442909240722656250000000000f,1.65598750114440917968750000000000f,2.01837491989135742187500000000000f,-0.79600125551223754882812500000000f,-0.18421176075935363769531250000000f,2.02616715431213378906250000000000f,-0.62944090366363525390625000000000f,1.92474472522735595703125000000000f,0.92897087335586547851562500000000f,-0.87049311399459838867187500000000f,-1.54303264617919921875000000000000f,1.27655768394470214843750000000000f,-0.71004039049148559570312500000000f,0.69353801012039184570312500000000f,0.60531413555145263671875000000000f,0.96710050106048583984375000000000f,-0.01464055851101875305175781250000f,-1.13452887535095214843750000000000f,-0.19383653998374938964843750000000f,0.73327720165252685546875000000000f,-0.54486835002899169921875000000000f,-1.56593120098114013671875000000000f,0.81468963623046875000000000000000f,-0.21728475391864776611328125000000f,3.13277792930603027343750000000000f,0.80736279487609863281250000000000f,-0.44585925340652465820312500000000f,1.93454933166503906250000000000000f,-1.23323452472686767578125000000000f,-0.27316904067993164062500000000000f,2.25653409957885742187500000000000f,-0.17750737071037292480468750000000f,-0.52760791778564453125000000000000f,-0.10498308390378952026367187500000f,-0.56842213869094848632812500000000f,1.77537131309509277343750000000000f,-2.04143190383911132812500000000000f,1.01893556118011474609375000000000f,0.40228202939033508300781250000000f,-2.29142069816589355468750000000000f,-0.33570462465286254882812500000000f,-0.57568651437759399414062500000000f,-0.66493141651153564453125000000000f,3.50072598457336425781250000000000f,0.99389189481735229492187500000000f,2.47657918930053710937500000000000f,-1.02283191680908203125000000000000f,-0.47564366459846496582031250000000f,-0.20443518459796905517578125000000f,-0.47104430198669433593750000000000f,0.74981892108917236328125000000000f,-0.79647886753082275390625000000000f,-0.64338040351867675781250000000000f,-0.03367612883448600769042968750000f,-0.15954381227493286132812500000000f,-1.34033966064453125000000000000000f,2.49505019187927246093750000000000f,1.26366078853607177734375000000000f,-2.33497524261474609375000000000000f,-0.16528850793838500976562500000000f,-0.36468625068664550781250000000000f,-0.78162151575088500976562500000000f,0.91641139984130859375000000000000f,3.22857046127319335937500000000000f,-3.43079280853271484375000000000000f,2.76915383338928222656250000000000f,-0.48857986927032470703125000000000f,0.01747279055416584014892578125000f,-0.32620313763618469238281250000000f,0.41467469930648803710937500000000f,-0.21289458870887756347656250000000f,-0.13394935429096221923828125000000f,-0.34839138388633728027343750000000f,0.55407410860061645507812500000000f,-0.07903185486793518066406250000000f,0.10490851849317550659179687500000f,0.08310526609420776367187500000000f,1.24757790565490722656250000000000f,0.10148452967405319213867187500000f,-0.13822044432163238525390625000000f,-0.60296493768692016601562500000000f,0.30230215191841125488281250000000f,0.26462087035179138183593750000000f,-0.57382118701934814453125000000000f,0.19418592751026153564453125000000f,-0.06046082451939582824707031250000f,-0.96960455179214477539062500000000f,-0.07480716705322265625000000000000f,0.36055466532707214355468750000000f,0.18219554424285888671875000000000f,0.23968403041362762451171875000000f,0.09985380619764328002929687500000f,0.04706267267465591430664062500000f,0.00553183630108833312988281250000f,0.05919145047664642333984375000000f,-0.31727910041809082031250000000000f,-1.22763454914093017578125000000000f,1.18905508518218994140625000000000f,-0.13884258270263671875000000000000f,-0.36732110381126403808593750000000f,0.31646966934204101562500000000000f,0.01397779677063226699829101562500f,-0.40312436223030090332031250000000f,0.12327063828706741333007812500000f,-0.06750984489917755126953125000000f,-0.40423521399497985839843750000000f,-0.66183865070343017578125000000000f,0.31331992149353027343750000000000f,-0.23172140121459960937500000000000f,-0.97992509603500366210937500000000f,1.91627097129821777343750000000000f,-0.06538891792297363281250000000000f,-0.31800547242164611816406250000000f,-0.13551077246665954589843750000000f,0.14206513762474060058593750000000f,0.90514373779296875000000000000000f,-0.13234081864356994628906250000000f,-0.24898834526538848876953125000000f,0.10848048329353332519531250000000f,-0.08498553186655044555664062500000f,0.01738131977617740631103515625000f,0.25153562426567077636718750000000f,-0.10296297818422317504882812500000f,-0.33481940627098083496093750000000f,0.14048224687576293945312500000000f,0.73167848587036132812500000000000f,-0.26974520087242126464843750000000f,0.74741721153259277343750000000000f,-0.05870368331670761108398437500000f,-0.30774345993995666503906250000000f,-0.04552798718214035034179687500000f,0.04114634543657302856445312500000f,-0.29313603043556213378906250000000f,-1.11242604255676269531250000000000f,-0.02263119630515575408935546875000f,0.29823711514472961425781250000000f,0.35262602567672729492187500000000f,-0.77324312925338745117187500000000f,0.72818040847778320312500000000000f,0.41948652267456054687500000000000f,-0.82661092281341552734375000000000f,-0.07879798859357833862304687500000f,0.46224397420883178710937500000000f,0.92583525180816650390625000000000f,-0.12780843675136566162109375000000f,-1.07259416580200195312500000000000f,0.21937707066535949707031250000000f,-0.64708513021469116210937500000000f,0.43281996250152587890625000000000f,-0.74326014518737792968750000000000f,-1.49503195285797119140625000000000f,-0.15419320762157440185546875000000f,-0.54931539297103881835937500000000f,-0.43518546223640441894531250000000f,-1.29523301124572753906250000000000f,-0.13415804505348205566406250000000f,-0.04274439439177513122558593750000f,-0.35159492492675781250000000000000f,0.10961974412202835083007812500000f,-0.29553869366645812988281250000000f,0.47634810209274291992187500000000f,0.74413502216339111328125000000000f,-0.68606168031692504882812500000000f,0.18859013915061950683593750000000f,0.55486148595809936523437500000000f,-0.55825912952423095703125000000000f,0.17209331691265106201171875000000f,0.60476332902908325195312500000000f,0.04565870016813278198242187500000f,0.30170091986656188964843750000000f,-0.22574591636657714843750000000000f,-1.27118742465972900390625000000000f,0.22040149569511413574218750000000f,-0.34294405579566955566406250000000f,0.48804235458374023437500000000000f,-0.32923468947410583496093750000000f,-0.34519776701927185058593750000000f,-0.06235235556960105895996093750000f,-0.44722351431846618652343750000000f,-0.50318884849548339843750000000000f,-0.81607407331466674804687500000000f,0.02403538115322589874267578125000f,-0.32473209500312805175781250000000f,-0.05079087987542152404785156250000f,-0.19078530371189117431640625000000f,-1.18321120738983154296875000000000f,-0.03358295559883117675781250000000f,1.37208437919616699218750000000000f,-0.11415343731641769409179687500000f,0.33472195267677307128906250000000f,-0.14278878271579742431640625000000f,-0.64885884523391723632812500000000f,1.00771725177764892578125000000000f,0.02780725061893463134765625000000f,-0.15844668447971343994140625000000f,-0.26005354523658752441406250000000f,0.55048823356628417968750000000000f,-0.24759046733379364013671875000000f,0.56396645307540893554687500000000f,-1.12409043312072753906250000000000f,1.08654093742370605468750000000000f,-0.47575062513351440429687500000000f,-1.15637314319610595703125000000000f,-1.35633969306945800781250000000000f,-0.98218953609466552734375000000000f,-2.22693991661071777343750000000000f,0.22345454990863800048828125000000f,-0.64259666204452514648437500000000f,0.09201278537511825561523437500000f,-0.26548650860786437988281250000000f,-0.00199778121896088123321533203125f,0.78817379474639892578125000000000f,-0.37066844105720520019531250000000f,3.15327930450439453125000000000000f,1.79317891597747802734375000000000f,1.09940850734710693359375000000000f,-0.40588584542274475097656250000000f,0.09054069966077804565429687500000f,1.50294959545135498046875000000000f,1.49068713188171386718750000000000f,-0.14946866035461425781250000000000f,0.30121603608131408691406250000000f,-0.38801130652427673339843750000000f,1.28574597835540771484375000000000f,-2.48914456367492675781250000000000f,-1.43707323074340820312500000000000f,1.84538829326629638671875000000000f,2.46831154823303222656250000000000f,-0.67763447761535644531250000000000f,-0.68808865547180175781250000000000f,-0.21239444613456726074218750000000f,-1.23497080802917480468750000000000f,-2.15665936470031738281250000000000f,-1.32227683067321777343750000000000f,-1.46525585651397705078125000000000f,1.26711833477020263671875000000000f,0.46522679924964904785156250000000f,0.68351733684539794921875000000000f,0.15479944646358489990234375000000f,1.36081194877624511718750000000000f,-0.06621406227350234985351562500000f,-0.48286077380180358886718750000000f,-0.57406133413314819335937500000000f,-0.41761782765388488769531250000000f,-0.52104425430297851562500000000000f,-0.21600213646888732910156250000000f,0.16320660710334777832031250000000f,-0.49328801035881042480468750000000f,0.07315979152917861938476562500000f,-1.15543508529663085937500000000000f,1.31588029861450195312500000000000f,4.34225559234619140625000000000000f,-0.52438783645629882812500000000000f,-0.48622977733612060546875000000000f,-0.04106398671865463256835937500000f,-3.11251187324523925781250000000000f,2.41113305091857910156250000000000f,-0.43798759579658508300781250000000f,-0.35576871037483215332031250000000f,-0.41516497731208801269531250000000f,0.21335193514823913574218750000000f,-2.07732391357421875000000000000000f,-0.46293866634368896484375000000000f,-0.80860584974288940429687500000000f,0.17105922102928161621093750000000f,-1.14006555080413818359375000000000f,-0.12252440303564071655273437500000f,-0.24485874176025390625000000000000f,-0.33386057615280151367187500000000f,0.21386693418025970458984375000000f,0.72729623317718505859375000000000f,1.25465059280395507812500000000000f,-1.08832597732543945312500000000000f,1.75164365768432617187500000000000f,-2.40378928184509277343750000000000f,-0.01372871454805135726928710937500f,1.23503816127777099609375000000000f,1.60666990280151367187500000000000f,1.65154957771301269531250000000000f,-0.26901242136955261230468750000000f,-1.16145515441894531250000000000000f,2.54259848594665527343750000000000f,-0.19478866457939147949218750000000f,-0.01987813599407672882080078125000f,-0.20205339789390563964843750000000f,0.40848860144615173339843750000000f,-1.14596951007843017578125000000000f,0.26141524314880371093750000000000f,-1.21618568897247314453125000000000f,-0.48575675487518310546875000000000f,-0.16846108436584472656250000000000f,-1.52749991416931152343750000000000f,-1.78410780429840087890625000000000f,-0.13261108100414276123046875000000f,-1.88133788108825683593750000000000f,-1.17070913314819335937500000000000f,-0.86950427293777465820312500000000f,-0.50104081630706787109375000000000f,0.28844299912452697753906250000000f,2.34673333168029785156250000000000f,0.47088491916656494140625000000000f,0.36811885237693786621093750000000f,-0.39829906821250915527343750000000f,-0.28270733356475830078125000000000f,-1.56894516944885253906250000000000f,-1.30336081981658935546875000000000f,-1.15403294563293457031250000000000f,-0.45578992366790771484375000000000f,-2.57765650749206542968750000000000f,-2.38524937629699707031250000000000f,0.45435276627540588378906250000000f,-0.29299268126487731933593750000000f,-0.57894027233123779296875000000000f,-2.48598861694335937500000000000000f,2.28971242904663085937500000000000f,-3.33769488334655761718750000000000f,-1.14822196960449218750000000000000f,-0.58027148246765136718750000000000f,-0.11897800117731094360351562500000f,0.12013396620750427246093750000000f,-1.26278603076934814453125000000000f,-1.54616200923919677734375000000000f,4.93019914627075195312500000000000f,-0.88503956794738769531250000000000f,1.32937598228454589843750000000000f,2.99507617950439453125000000000000f,2.44721007347106933593750000000000f,0.17570336163043975830078125000000f,-1.16018903255462646484375000000000f,-0.52416849136352539062500000000000f,-1.56580936908721923828125000000000f,3.93324470520019531250000000000000f,-2.82965397834777832031250000000000f,-0.01109397411346435546875000000000f,3.28085541725158691406250000000000f,2.50541806221008300781250000000000f,4.02111864089965820312500000000000f,-0.41150802373886108398437500000000f,2.81244587898254394531250000000000f,-2.92907214164733886718750000000000f,-0.57127964496612548828125000000000f,-2.21393585205078125000000000000000f,2.10057950019836425781250000000000f,3.13357496261596679687500000000000f,-1.05458760261535644531250000000000f,3.41669583320617675781250000000000f,-1.61019003391265869140625000000000f,1.91900122165679931640625000000000f,-1.32540774345397949218750000000000f,1.63825726509094238281250000000000f,-0.94865655899047851562500000000000f,3.50666952133178710937500000000000f,0.89032757282257080078125000000000f,-3.15719342231750488281250000000000f,-0.17004545032978057861328125000000f,-0.01071042101830244064331054687500f,-2.14972424507141113281250000000000f,-1.69188332557678222656250000000000f,2.35068655014038085937500000000000f,1.37728238105773925781250000000000f,2.43412661552429199218750000000000f,-1.85144805908203125000000000000000f,0.33822765946388244628906250000000f,1.16397178173065185546875000000000f,1.88856935501098632812500000000000f,-2.54528069496154785156250000000000f,0.45773994922637939453125000000000f,1.65765893459320068359375000000000f,3.12135958671569824218750000000000f,3.79746723175048828125000000000000f,-2.14956140518188476562500000000000f,-1.93171858787536621093750000000000f,-0.90134960412979125976562500000000f,3.21895718574523925781250000000000f,-2.77093935012817382812500000000000f,-1.02020907402038574218750000000000f,1.23486030101776123046875000000000f,3.58989262580871582031250000000000f,0.68090617656707763671875000000000f,-4.00720071792602539062500000000000f,-1.96992707252502441406250000000000f,-1.02261531352996826171875000000000f,2.18035531044006347656250000000000f,6.88088941574096679687500000000000f,0.71235322952270507812500000000000f,1.60045897960662841796875000000000f,-2.69279742240905761718750000000000f,1.91328501701354980468750000000000f,2.12352728843688964843750000000000f,2.32341051101684570312500000000000f,-0.60166543722152709960937500000000f,-1.59740626811981201171875000000000f,2.68203258514404296875000000000000f,3.41274833679199218750000000000000f,-0.40570998191833496093750000000000f,0.90041702985763549804687500000000f,1.83903825283050537109375000000000f,2.73867416381835937500000000000000f,-2.60950422286987304687500000000000f,-3.37996268272399902343750000000000f,2.58294367790222167968750000000000f,2.08126616477966308593750000000000f,3.19318389892578125000000000000000f,4.20977640151977539062500000000000f,-2.86726140975952148437500000000000f,2.59959268569946289062500000000000f,2.15093421936035156250000000000000f,3.25574970245361328125000000000000f,-0.43813082575798034667968750000000f,0.04275685921311378479003906250000f,-0.45345947146415710449218750000000f,-3.25778818130493164062500000000000f,3.68525147438049316406250000000000f,2.87154102325439453125000000000000f,-2.30304002761840820312500000000000f,2.87497997283935546875000000000000f,3.15918040275573730468750000000000f,-1.52493202686309814453125000000000f,5.15503978729248046875000000000000f,-0.78349423408508300781250000000000f,2.47458958625793457031250000000000f,2.10067176818847656250000000000000f,2.23872637748718261718750000000000f,3.20339822769165039062500000000000f,-3.95695543289184570312500000000000f,-0.29940137267112731933593750000000f,2.34661030769348144531250000000000f,2.15027093887329101562500000000000f,1.80483698844909667968750000000000f,1.04542291164398193359375000000000f,-1.56167888641357421875000000000000f,-0.76570171117782592773437500000000f,-0.03663713112473487854003906250000f,-0.40942490100860595703125000000000f,2.79205656051635742187500000000000f,-0.95943570137023925781250000000000f,0.01480177696794271469116210937500f,3.36591029167175292968750000000000f,2.31473207473754882812500000000000f,-0.81188935041427612304687500000000f,-0.81575620174407958984375000000000f,1.29347920417785644531250000000000f,2.86612725257873535156250000000000f,-0.02738823927938938140869140625000f,-0.99328839778900146484375000000000f,-1.80844283103942871093750000000000f,2.18043923377990722656250000000000f,1.66011548042297363281250000000000f,1.72507524490356445312500000000000f,-2.02104306221008300781250000000000f,-1.35973298549652099609375000000000f,-0.03190921247005462646484375000000f,-0.36939913034439086914062500000000f,-0.15420860052108764648437500000000f,-0.26119863986968994140625000000000f,-1.15080106258392333984375000000000f,-0.59875673055648803710937500000000f,0.19235609471797943115234375000000f,0.17789292335510253906250000000000f,-0.96620762348175048828125000000000f,-0.68293470144271850585937500000000f,1.37981307506561279296875000000000f,-0.70593106746673583984375000000000f,-0.69593608379364013671875000000000f,-1.14865982532501220703125000000000f,2.35365247726440429687500000000000f,-0.07272729277610778808593750000000f,1.31991052627563476562500000000000f,0.10392753034830093383789062500000f,0.22133345901966094970703125000000f,-1.53385841846466064453125000000000f,0.55003595352172851562500000000000f,0.08448994904756546020507812500000f,0.02477042190730571746826171875000f,1.41769886016845703125000000000000f,0.09127984195947647094726562500000f,-0.34628152847290039062500000000000f,-0.34014511108398437500000000000000f,-0.33564159274101257324218750000000f,-0.38437613844871520996093750000000f,1.14173269271850585937500000000000f,2.82483434677124023437500000000000f,-1.52612197399139404296875000000000f,-1.80046141147613525390625000000000f,0.23266668617725372314453125000000f,-0.42318320274353027343750000000000f,-0.10020679980516433715820312500000f,0.02366100251674652099609375000000f,-0.11720037460327148437500000000000f,-0.81945312023162841796875000000000f,0.87678152322769165039062500000000f,-0.66086888313293457031250000000000f,-0.23867690563201904296875000000000f,0.19179326295852661132812500000000f,-0.58720165491104125976562500000000f,0.42246407270431518554687500000000f,-0.15309120714664459228515625000000f,-1.29970180988311767578125000000000f,0.74528920650482177734375000000000f,-0.72797572612762451171875000000000f,-0.38861280679702758789062500000000f,0.02951315417885780334472656250000f,0.56796962022781372070312500000000f,0.47546485066413879394531250000000f,0.01227008737623691558837890625000f,-1.34603893756866455078125000000000f,-0.51503258943557739257812500000000f,-0.76878654956817626953125000000000f,-0.53307646512985229492187500000000f,-1.14783442020416259765625000000000f,-0.05729119852185249328613281250000f,-4.12505769729614257812500000000000f,-0.31563201546669006347656250000000f,-0.09610067307949066162109375000000f,0.01751041971147060394287109375000f,0.19864612817764282226562500000000f,0.18756344914436340332031250000000f,0.00786547083407640457153320312500f,0.03309957683086395263671875000000f,-0.49732780456542968750000000000000f,-0.53700518608093261718750000000000f,0.36803799867630004882812500000000f,0.18294969201087951660156250000000f,-1.58825480937957763671875000000000f,-0.60391342639923095703125000000000f,0.03901841118931770324707031250000f,0.55611312389373779296875000000000f,0.60048973560333251953125000000000f,-0.31218749284744262695312500000000f,-0.87039893865585327148437500000000f,-0.07341837137937545776367187500000f,-0.68911433219909667968750000000000f,1.38249456882476806640625000000000f,-0.45762643218040466308593750000000f,-1.35137438774108886718750000000000f,-0.23212592303752899169921875000000f,0.23177354037761688232421875000000f,-1.80003857612609863281250000000000f,0.33937656879425048828125000000000f,0.13592040538787841796875000000000f,-0.38018766045570373535156250000000f,0.04670392349362373352050781250000f,-0.05882075056433677673339843750000f,-0.10805330425500869750976562500000f,-1.86406850814819335937500000000000f,0.38512730598449707031250000000000f,-0.80768811702728271484375000000000f,0.68151110410690307617187500000000f,-0.49486407637596130371093750000000f,0.12559343874454498291015625000000f,0.16744264960289001464843750000000f,-0.49102845788002014160156250000000f,-0.38517567515373229980468750000000f,-0.86862766742706298828125000000000f,0.35167783498764038085937500000000f,-2.52270698547363281250000000000000f,-0.39893439412117004394531250000000f,-0.28288117051124572753906250000000f,1.35094034671783447265625000000000f,0.05555426329374313354492187500000f,-0.22070115804672241210937500000000f,0.21074704825878143310546875000000f,-1.39581310749053955078125000000000f,-0.78383690118789672851562500000000f,-1.58551764488220214843750000000000f,-0.79516339302062988281250000000000f,-0.88798534870147705078125000000000f,-0.19882579147815704345703125000000f,0.10805983096361160278320312500000f,1.99252569675445556640625000000000f,-1.84163939952850341796875000000000f,4.84340810775756835937500000000000f,-0.55576586723327636718750000000000f,0.77902066707611083984375000000000f,-0.32051756978034973144531250000000f,-0.55248355865478515625000000000000f,-0.22280803322792053222656250000000f,-0.68435227870941162109375000000000f,-0.43017268180847167968750000000000f,-0.18313121795654296875000000000000f,-0.16242548823356628417968750000000f,0.12915776669979095458984375000000f,-0.23742170631885528564453125000000f,-0.85152167081832885742187500000000f,0.85000437498092651367187500000000f,-0.01262015569955110549926757812500f,0.08072488009929656982421875000000f,0.17577798664569854736328125000000f,0.48013675212860107421875000000000f,-0.78200352191925048828125000000000f,-0.05032194405794143676757812500000f,-0.14840625226497650146484375000000f,-0.43039247393608093261718750000000f,-0.24362868070602416992187500000000f,-0.22270126640796661376953125000000f,-0.09064020961523056030273437500000f,0.01580219343304634094238281250000f,0.06264502555131912231445312500000f,-0.92501103878021240234375000000000f,0.19722168147563934326171875000000f,-0.18015630543231964111328125000000f,-0.08475907146930694580078125000000f,-0.27836108207702636718750000000000f,0.07888212800025939941406250000000f,-0.28609374165534973144531250000000f,0.05837319791316986083984375000000f,-0.16634187102317810058593750000000f,-0.55773311853408813476562500000000f,0.49770724773406982421875000000000f,0.17203578352928161621093750000000f,-0.07160398364067077636718750000000f,-0.69349414110183715820312500000000f,0.17674043774604797363281250000000f,0.24337449669837951660156250000000f,-0.48670896887779235839843750000000f,-0.91632348299026489257812500000000f,0.97932910919189453125000000000000f,-0.63293194770812988281250000000000f,-0.64637917280197143554687500000000f,-1.12636625766754150390625000000000f,-0.00784057471901178359985351562500f,-0.96016097068786621093750000000000f,1.62213587760925292968750000000000f,0.05164675414562225341796875000000f,-0.23787675797939300537109375000000f,-0.40956580638885498046875000000000f,-0.06597333401441574096679687500000f,0.85610240697860717773437500000000f,0.04094940796494483947753906250000f,-0.05739479511976242065429687500000f,0.09977705031633377075195312500000f,0.16497707366943359375000000000000f,0.04594419524073600769042968750000f,-0.00334977731108665466308593750000f,0.44461464881896972656250000000000f,-0.29653868079185485839843750000000f,-0.08093872666358947753906250000000f,0.19397009909152984619140625000000f,-0.04434582963585853576660156250000f,0.93219393491744995117187500000000f,-0.99078553915023803710937500000000f,-1.67066061496734619140625000000000f,0.14152811467647552490234375000000f,-0.06510714441537857055664062500000f,-0.16095586121082305908203125000000f,0.12506017088890075683593750000000f,-0.07665560394525527954101562500000f,-0.27256378531455993652343750000000f,0.41522520780563354492187500000000f,-0.77065771818161010742187500000000f,-0.03281410411000251770019531250000f,0.11064420640468597412109375000000f,-0.52611792087554931640625000000000f,-0.09431106597185134887695312500000f,0.15264408290386199951171875000000f,0.37687933444976806640625000000000f,0.01556322351098060607910156250000f,1.17701101303100585937500000000000f,0.22656024992465972900390625000000f,-0.42668795585632324218750000000000f,0.13869076967239379882812500000000f,-0.62730717658996582031250000000000f,-1.31331992149353027343750000000000f,-0.24115824699401855468750000000000f,-0.53977268934249877929687500000000f,-0.31634363532066345214843750000000f,0.08186205476522445678710937500000f,0.00636605452746152877807617187500f,-0.14879915118217468261718750000000f,-0.72293341159820556640625000000000f,0.04535081237554550170898437500000f,-0.28373593091964721679687500000000f,-0.00265643396414816379547119140625f,-0.28574952483177185058593750000000f,-0.62263149023056030273437500000000f,-0.52552407979965209960937500000000f,0.20148397982120513916015625000000f,-0.21453745663166046142578125000000f,0.00003076018401770852506160736084f,-0.06965308636426925659179687500000f,0.26391902565956115722656250000000f,0.06498094648122787475585937500000f,-0.27665457129478454589843750000000f,-0.64902293682098388671875000000000f,0.22412665188312530517578125000000f,0.05439081788063049316406250000000f,-0.02388197183609008789062500000000f,-0.34838294982910156250000000000000f,-0.38522595167160034179687500000000f,-0.06558160483837127685546875000000f,-0.24785621464252471923828125000000f,-0.46483749151229858398437500000000f,-1.18632352352142333984375000000000f,0.04562900960445404052734375000000f,-0.28695553541183471679687500000000f,-0.16226758062839508056640625000000f,0.55604940652847290039062500000000f,0.45391318202018737792968750000000f,-0.32963302731513977050781250000000f,-1.37338364124298095703125000000000f,0.23681828379631042480468750000000f,0.55423378944396972656250000000000f,0.05809272080659866333007812500000f,0.11191089451313018798828125000000f,-0.37580922245979309082031250000000f,0.29452103376388549804687500000000f,-1.03070175647735595703125000000000f,-0.28811013698577880859375000000000f,-0.28223717212677001953125000000000f,-0.38859251141548156738281250000000f,0.09063594043254852294921875000000f,-0.63032299280166625976562500000000f,-0.14796191453933715820312500000000f,-0.18606525659561157226562500000000f,0.20014108717441558837890625000000f,-0.70217943191528320312500000000000f,3.96386790275573730468750000000000f,-0.16279785335063934326171875000000f,-0.41664451360702514648437500000000f,0.12957231700420379638671875000000f,-0.54787373542785644531250000000000f,-0.72021353244781494140625000000000f,0.29174661636352539062500000000000f,0.44160881638526916503906250000000f,-0.19501648843288421630859375000000f,-0.31248667836189270019531250000000f,0.38571110367774963378906250000000f,-0.68006592988967895507812500000000f,-0.38465756177902221679687500000000f,-0.51354086399078369140625000000000f,-0.85025769472122192382812500000000f,0.53526765108108520507812500000000f,-0.46666151285171508789062500000000f,0.42563843727111816406250000000000f,0.21775962412357330322265625000000f,0.61281961202621459960937500000000f,-0.86407792568206787109375000000000f,0.35384899377822875976562500000000f,-0.48168295621871948242187500000000f,-2.06829905509948730468750000000000f,0.26729568839073181152343750000000f,0.06304306536912918090820312500000f,0.36780431866645812988281250000000f,-1.23048341274261474609375000000000f,-1.11787867546081542968750000000000f,0.15030297636985778808593750000000f,0.99839740991592407226562500000000f,0.32089164853096008300781250000000f,-0.18611887097358703613281250000000f,-0.03519619256258010864257812500000f,-0.63186848163604736328125000000000f,-0.01127456407994031906127929687500f,-0.29185897111892700195312500000000f,0.68610596656799316406250000000000f,-1.13701558113098144531250000000000f,1.81124138832092285156250000000000f,-0.14067447185516357421875000000000f,0.58087658882141113281250000000000f,-0.13641221821308135986328125000000f,-0.44289878010749816894531250000000f,-0.01122983451932668685913085937500f,-0.07918076217174530029296875000000f,0.11219477653503417968750000000000f,0.14870326220989227294921875000000f,-0.08232784271240234375000000000000f,-0.27834427356719970703125000000000f,0.14717543125152587890625000000000f,-2.32929372787475585937500000000000f,0.42889851331710815429687500000000f,-1.16430807113647460937500000000000f,0.20052696764469146728515625000000f,0.35216331481933593750000000000000f,-0.30604588985443115234375000000000f,-0.05816288664937019348144531250000f,-0.20864000916481018066406250000000f,0.43199479579925537109375000000000f,-0.34101384878158569335937500000000f,0.50371021032333374023437500000000f,-0.26039960980415344238281250000000f,0.51475363969802856445312500000000f,0.07933390885591506958007812500000f,0.18531821668148040771484375000000f,0.74155467748641967773437500000000f,0.86629015207290649414062500000000f,-0.22085005044937133789062500000000f,1.43064606189727783203125000000000f,-0.32345169782638549804687500000000f,-0.50803947448730468750000000000000f,-0.37805184721946716308593750000000f,0.68050420284271240234375000000000f,-1.07493960857391357421875000000000f,-0.05570089071989059448242187500000f,-1.27625298500061035156250000000000f,-1.39362835884094238281250000000000f,0.07648775726556777954101562500000f,1.31964111328125000000000000000000f,-0.04109939187765121459960937500000f,-0.53123974800109863281250000000000f,1.04299294948577880859375000000000f,-0.49218791723251342773437500000000f,-0.25777891278266906738281250000000f,-0.35242140293121337890625000000000f,-0.72767192125320434570312500000000f,-0.82876425981521606445312500000000f,-0.26672041416168212890625000000000f,0.13831910490989685058593750000000f,-0.17638316750526428222656250000000f,-0.08574974536895751953125000000000f,-0.02798256650567054748535156250000f,-0.28829035162925720214843750000000f,-0.57140344381332397460937500000000f,-1.27006685733795166015625000000000f,-0.47569784522056579589843750000000f,0.14688967168331146240234375000000f,0.21845632791519165039062500000000f,0.10667764395475387573242187500000f,-0.45010986924171447753906250000000f,0.10297206044197082519531250000000f,0.46919441223144531250000000000000f,-0.49888068437576293945312500000000f,1.15295398235321044921875000000000f,-0.02769250795245170593261718750000f,0.81000810861587524414062500000000f,-0.43911442160606384277343750000000f,-0.71685868501663208007812500000000f,-0.96055543422698974609375000000000f,1.41168081760406494140625000000000f,-0.51191371679306030273437500000000f,0.21055862307548522949218750000000f,-0.21472227573394775390625000000000f,0.14153897762298583984375000000000f,-0.06558007746934890747070312500000f,1.43338131904602050781250000000000f,0.18255101144313812255859375000000f,0.31174203753471374511718750000000f,0.06947526335716247558593750000000f,-0.21522219479084014892578125000000f,-0.29890584945678710937500000000000f,-0.09162468463182449340820312500000f,-0.03648913279175758361816406250000f,0.07366092503070831298828125000000f,0.38987100124359130859375000000000f,-0.04284569248557090759277343750000f,-0.06994743645191192626953125000000f,0.53813362121582031250000000000000f,0.01616200059652328491210937500000f,-0.07313612848520278930664062500000f,-0.12030874937772750854492187500000f,-0.28830799460411071777343750000000f,-0.30240145325660705566406250000000f,-0.07073289901018142700195312500000f,-0.25316271185874938964843750000000f,0.00968232378363609313964843750000f,-0.31674090027809143066406250000000f,-0.77667737007141113281250000000000f,-0.12888109683990478515625000000000f,0.33172205090522766113281250000000f,-0.18316277861595153808593750000000f,0.75146621465682983398437500000000f,-0.09499546885490417480468750000000f,-0.10092590004205703735351562500000f,-0.44328340888023376464843750000000f,-0.12519463896751403808593750000000f,-0.13991011679172515869140625000000f,0.09338089823722839355468750000000f,1.92519092559814453125000000000000f,0.29438120126724243164062500000000f,0.57573801279067993164062500000000f,-0.00684089260175824165344238281250f,0.26778659224510192871093750000000f,-0.07306431233882904052734375000000f,-0.23823271691799163818359375000000f,0.15514951944351196289062500000000f,0.08872849494218826293945312500000f,-0.20961131155490875244140625000000f,0.08489479124546051025390625000000f,0.00853161606937646865844726562500f,0.07494041323661804199218750000000f,-1.07837748527526855468750000000000f,-0.13661985099315643310546875000000f,-0.20522227883338928222656250000000f,-0.48506328463554382324218750000000f,0.70541495084762573242187500000000f,0.01006066799163818359375000000000f,-0.12465909868478775024414062500000f,-0.15408164262771606445312500000000f,0.10854227840900421142578125000000f,0.11471889913082122802734375000000f,-0.29321140050888061523437500000000f,-0.15372624993324279785156250000000f,-0.21116970479488372802734375000000f,0.28148943185806274414062500000000f,-0.05688069015741348266601562500000f,-0.30553933978080749511718750000000f,-0.04848379641771316528320312500000f,1.06359124183654785156250000000000f,-0.14735993742942810058593750000000f,-0.58484542369842529296875000000000f,0.01864352449774742126464843750000f,0.12228819727897644042968750000000f,-0.27377414703369140625000000000000f,-0.23166468739509582519531250000000f,0.30536079406738281250000000000000f,-0.21685028076171875000000000000000f,-0.39552828669548034667968750000000f,0.15329314768314361572265625000000f,-0.07758766412734985351562500000000f,-0.11507600545883178710937500000000f,-0.31241533160209655761718750000000f,-0.27180999517440795898437500000000f,0.01305129937827587127685546875000f,-0.50907260179519653320312500000000f,-0.26165035367012023925781250000000f,-0.91248494386672973632812500000000f,0.02853917889297008514404296875000f,-0.19484035670757293701171875000000f,0.18875531852245330810546875000000f,-0.17255340516567230224609375000000f,-0.14618808031082153320312500000000f,-0.19391134381294250488281250000000f,0.02473661303520202636718750000000f,0.64764761924743652343750000000000f,0.00229368614964187145233154296875f,-0.03738345950841903686523437500000f,-0.14524313807487487792968750000000f,-0.34208032488822937011718750000000f,-0.20412874221801757812500000000000f,-0.24567122757434844970703125000000f,0.25719147920608520507812500000000f,0.17768852412700653076171875000000f,-0.08505799621343612670898437500000f,0.03586716949939727783203125000000f,-0.15053083002567291259765625000000f,-0.15085124969482421875000000000000f,-0.03018980100750923156738281250000f,-0.23761485517024993896484375000000f,0.23759572207927703857421875000000f,-0.02627414464950561523437500000000f,-0.28591406345367431640625000000000f,-0.91618621349334716796875000000000f,-0.41038593649864196777343750000000f,-0.09831598401069641113281250000000f,0.84493488073348999023437500000000f,-0.33664229512214660644531250000000f,-0.17553977668285369873046875000000f,0.21184170246124267578125000000000f,-0.19203253090381622314453125000000f,-0.14319773018360137939453125000000f,1.27623569965362548828125000000000f,0.01536086853593587875366210937500f,-0.63247668743133544921875000000000f,0.05398970097303390502929687500000f,0.05829094350337982177734375000000f,-0.01541270595043897628784179687500f,-0.77885878086090087890625000000000f,1.23903763294219970703125000000000f,0.09788353741168975830078125000000f,0.01505261939018964767456054687500f,0.02836995385587215423583984375000f,-0.02895945310592651367187500000000f,-0.87204253673553466796875000000000f,0.36675560474395751953125000000000f}; 
