#include <polimidl/layers/alignment.hpp>
alignas(polimidl::layers::buffer_alignment::byte_alignment) const float weight15[] = {0.72023278474807739257812500000000f,0.57280749082565307617187500000000f,-0.47848808765411376953125000000000f,-0.56166982650756835937500000000000f,-0.36956226825714111328125000000000f,0.59624183177947998046875000000000f,0.10338858515024185180664062500000f,0.59946101903915405273437500000000f,-0.71169424057006835937500000000000f,0.68552076816558837890625000000000f,0.67016106843948364257812500000000f,-0.41229751706123352050781250000000f,-0.66814583539962768554687500000000f,0.58997613191604614257812500000000f,-0.55558431148529052734375000000000f,0.50000542402267456054687500000000f,-0.35349676012992858886718750000000f,-0.54297095537185668945312500000000f,0.68767774105072021484375000000000f,-0.60506099462509155273437500000000f,0.65801000595092773437500000000000f,-0.27645009756088256835937500000000f,-0.48555877804756164550781250000000f,0.52641636133193969726562500000000f,-0.68578815460205078125000000000000f,0.79553419351577758789062500000000f,0.39900156855583190917968750000000f,0.29704537987709045410156250000000f,-0.52647912502288818359375000000000f,0.66841578483581542968750000000000f,-0.46520057320594787597656250000000f,0.58085501194000244140625000000000f,-0.48329058289527893066406250000000f,0.44651845097541809082031250000000f,1.03952515125274658203125000000000f,0.72707384824752807617187500000000f,0.77219206094741821289062500000000f,-0.54763430356979370117187500000000f,0.61806893348693847656250000000000f,0.57136005163192749023437500000000f,0.78415232896804809570312500000000f,-1.22775113582611083984375000000000f,-0.52733188867568969726562500000000f,-1.19814300537109375000000000000000f,-0.63696324825286865234375000000000f,0.97156614065170288085937500000000f,-0.56443589925765991210937500000000f,-0.52449941635131835937500000000000f,0.84309923648834228515625000000000f,0.61473292112350463867187500000000f,-0.55127209424972534179687500000000f,0.54083490371704101562500000000000f,-0.48149150609970092773437500000000f,0.55664139986038208007812500000000f,-0.46390300989151000976562500000000f,-0.66325128078460693359375000000000f,0.43088698387145996093750000000000f,-0.67326509952545166015625000000000f,0.54532611370086669921875000000000f,-0.60803705453872680664062500000000f,-0.27053284645080566406250000000000f,0.27243852615356445312500000000000f,-0.88086903095245361328125000000000f,0.61697310209274291992187500000000f,-0.53820341825485229492187500000000f,0.63128906488418579101562500000000f,-0.47202274203300476074218750000000f,0.73996138572692871093750000000000f,-0.75892055034637451171875000000000f,-0.40963524580001831054687500000000f,-0.69478136301040649414062500000000f,-0.55239439010620117187500000000000f,0.50480794906616210937500000000000f,0.90544754266738891601562500000000f,0.56390827894210815429687500000000f,0.50790125131607055664062500000000f,1.00100827217102050781250000000000f,-0.75480306148529052734375000000000f,0.56837129592895507812500000000000f,0.64088267087936401367187500000000f,-0.56030982732772827148437500000000f,0.78276520967483520507812500000000f,0.52215391397476196289062500000000f,0.80337655544281005859375000000000f,0.91717439889907836914062500000000f,-0.43082872033119201660156250000000f,-0.36044514179229736328125000000000f,0.57919263839721679687500000000000f,0.73832774162292480468750000000000f,0.59148317575454711914062500000000f,0.46048390865325927734375000000000f,0.47645059227943420410156250000000f,-0.49009874463081359863281250000000f,1.24625551700592041015625000000000f,0.14501468837261199951171875000000f,-0.64686995744705200195312500000000f,-1.08073401451110839843750000000000f,0.76143181324005126953125000000000f,-0.64433109760284423828125000000000f,-0.54718822240829467773437500000000f,0.48857849836349487304687500000000f,0.55569660663604736328125000000000f,0.59845620393753051757812500000000f,0.51541793346405029296875000000000f,-0.75299894809722900390625000000000f,0.92994719743728637695312500000000f,-0.65176063776016235351562500000000f,0.65064918994903564453125000000000f,-1.31540954113006591796875000000000f,0.76002269983291625976562500000000f,-0.50000017881393432617187500000000f,-0.63304990530014038085937500000000f,-0.48671248555183410644531250000000f,0.61984455585479736328125000000000f,0.58036041259765625000000000000000f,-0.49943137168884277343750000000000f,-0.62761694192886352539062500000000f,0.55781555175781250000000000000000f,0.52934676408767700195312500000000f,-0.61894309520721435546875000000000f,-0.66900938749313354492187500000000f,-0.68507438898086547851562500000000f,0.44553381204605102539062500000000f,0.61246496438980102539062500000000f,-0.69216364622116088867187500000000f,1.09982132911682128906250000000000f,0.54446262121200561523437500000000f,-0.75561243295669555664062500000000f,0.91334193944931030273437500000000f,0.81070578098297119140625000000000f,-0.81507080793380737304687500000000f,-0.76866865158081054687500000000000f,-0.66159403324127197265625000000000f,1.02435767650604248046875000000000f,-0.61816847324371337890625000000000f,0.78863501548767089843750000000000f,-1.03999936580657958984375000000000f,0.91189748048782348632812500000000f,0.74369585514068603515625000000000f,-0.79044348001480102539062500000000f,-0.79378557205200195312500000000000f,0.80847889184951782226562500000000f,-0.73478966951370239257812500000000f,0.75710129737854003906250000000000f,-0.82695263624191284179687500000000f,-0.69849729537963867187500000000000f,0.93357783555984497070312500000000f,-0.80894953012466430664062500000000f,1.02680790424346923828125000000000f,-0.73398262262344360351562500000000f,-0.90630215406417846679687500000000f,0.80799138545989990234375000000000f,-0.91638332605361938476562500000000f,0.95667535066604614257812500000000f,0.77681463956832885742187500000000f,-0.63097339868545532226562500000000f,-0.53680372238159179687500000000000f,0.98484700918197631835937500000000f,-0.70855861902236938476562500000000f,0.89277064800262451171875000000000f,1.11763310432434082031250000000000f,0.92131191492080688476562500000000f,1.27180087566375732421875000000000f,0.94106036424636840820312500000000f,0.88245725631713867187500000000000f,-0.75284069776535034179687500000000f,0.96533489227294921875000000000000f,0.82551598548889160156250000000000f,0.99895387887954711914062500000000f,1.25923562049865722656250000000000f,-0.72080415487289428710937500000000f,-1.08397293090820312500000000000000f,-0.80924624204635620117187500000000f,0.68297070264816284179687500000000f,-0.78553926944732666015625000000000f,-0.80635946989059448242187500000000f,0.95718693733215332031250000000000f,0.91716003417968750000000000000000f,-0.89484035968780517578125000000000f,0.81606489419937133789062500000000f,-0.75178974866867065429687500000000f,0.82338535785675048828125000000000f,-0.62949550151824951171875000000000f,-0.71387290954589843750000000000000f,0.81616950035095214843750000000000f,-0.88717699050903320312500000000000f,0.82697260379791259765625000000000f,-0.79236805438995361328125000000000f,-0.87839198112487792968750000000000f,0.14463926851749420166015625000000f,-0.45813471078872680664062500000000f,0.91898137331008911132812500000000f,-0.76337051391601562500000000000000f,0.85430842638015747070312500000000f,-0.86950987577438354492187500000000f,0.90066325664520263671875000000000f,-0.76579731702804565429687500000000f,-0.75395214557647705078125000000000f,-1.10753858089447021484375000000000f,-0.80651581287384033203125000000000f,0.77929073572158813476562500000000f,1.29812002182006835937500000000000f,0.82886564731597900390625000000000f,0.80344045162200927734375000000000f,0.94127959012985229492187500000000f,-1.17344844341278076171875000000000f,0.85295832157135009765625000000000f,0.93560212850570678710937500000000f,-0.37961289286613464355468750000000f,0.96678483486175537109375000000000f,0.94540524482727050781250000000000f,1.07768380641937255859375000000000f,0.92890977859497070312500000000000f,-0.75092923641204833984375000000000f,-0.62054848670959472656250000000000f,0.79488444328308105468750000000000f,0.87636506557464599609375000000000f,0.68589895963668823242187500000000f,0.79591947793960571289062500000000f,0.87892228364944458007812500000000f,-0.60672897100448608398437500000000f,0.86214429140090942382812500000000f,-1.19158840179443359375000000000000f,-0.85562896728515625000000000000000f,-1.37040615081787109375000000000000f,0.89958977699279785156250000000000f,-0.91977047920227050781250000000000f,-0.75197309255599975585937500000000f,0.81826031208038330078125000000000f,1.07281863689422607421875000000000f,0.81669628620147705078125000000000f,0.90875613689422607421875000000000f,-0.88866943120956420898437500000000f,1.07389616966247558593750000000000f,-0.76598912477493286132812500000000f,-0.24428614974021911621093750000000f,0.72304129600524902343750000000000f,0.47454917430877685546875000000000f,-0.88822913169860839843750000000000f,-0.79224872589111328125000000000000f,-0.70207059383392333984375000000000f,0.91096985340118408203125000000000f,0.75023323297500610351562500000000f,-0.74103516340255737304687500000000f,-0.87851077318191528320312500000000f,0.83454775810241699218750000000000f,0.85625082254409790039062500000000f,-0.87164837121963500976562500000000f,-0.77811372280120849609375000000000f,-0.86679726839065551757812500000000f,0.63405311107635498046875000000000f,0.97364014387130737304687500000000f,0.52866637706756591796875000000000f,1.47359251976013183593750000000000f,0.65711861848831176757812500000000f,-0.88212162256240844726562500000000f,0.51771748065948486328125000000000f,0.41574704647064208984375000000000f,-0.46190527081489562988281250000000f,-0.35847067832946777343750000000000f,-0.35138317942619323730468750000000f,0.55787348747253417968750000000000f,-0.57931703329086303710937500000000f,0.36598947644233703613281250000000f,-0.44723957777023315429687500000000f,0.24521462619304656982421875000000f,0.24502164125442504882812500000000f,-0.34236243367195129394531250000000f,-0.24436344206333160400390625000000f,0.39886286854743957519531250000000f,-0.33164417743682861328125000000000f,0.31200739741325378417968750000000f,-0.65217709541320800781250000000000f,-0.26421031355857849121093750000000f,0.44793665409088134765625000000000f,-0.33837699890136718750000000000000f,0.51712727546691894531250000000000f,-0.54529118537902832031250000000000f,-0.50358593463897705078125000000000f,0.39827999472618103027343750000000f,-0.32750055193901062011718750000000f,0.35155582427978515625000000000000f,0.46622744202613830566406250000000f,-0.83232849836349487304687500000000f,-0.19337694346904754638671875000000f,0.45735844969749450683593750000000f,-0.39805588126182556152343750000000f,0.41548317670822143554687500000000f,-0.81833952665328979492187500000000f,0.58250927925109863281250000000000f,0.54689794778823852539062500000000f,0.39668971300125122070312500000000f,0.24304765462875366210937500000000f,-0.28739279508590698242187500000000f,0.35258048772811889648437500000000f,0.38579285144805908203125000000000f,0.44914078712463378906250000000000f,0.18345709145069122314453125000000f,-0.30621489882469177246093750000000f,-0.30124214291572570800781250000000f,-0.34651389718055725097656250000000f,-0.36769026517868041992187500000000f,-0.30669787526130676269531250000000f,-0.36232671141624450683593750000000f,0.24949140846729278564453125000000f,0.41279733180999755859375000000000f,-0.37418994307518005371093750000000f,0.38181048631668090820312500000000f,-0.38407480716705322265625000000000f,0.36328363418579101562500000000000f,-0.33217793703079223632812500000000f,-0.32361230254173278808593750000000f,0.44565102458000183105468750000000f,-0.48661488294601440429687500000000f,0.44297555088996887207031250000000f,-0.39116221666336059570312500000000f,-0.21897315979003906250000000000000f,-0.05836991220712661743164062500000f,0.44499769806861877441406250000000f,0.48035374283790588378906250000000f,-0.41265618801116943359375000000000f,0.37918734550476074218750000000000f,-0.12554720044136047363281250000000f,0.34332093596458435058593750000000f,-0.40329191088676452636718750000000f,-0.47453251481056213378906250000000f,-0.73929381370544433593750000000000f,-0.43730866909027099609375000000000f,0.42141196131706237792968750000000f,0.50730472803115844726562500000000f,0.32358011603355407714843750000000f,0.36292913556098937988281250000000f,0.38329082727432250976562500000000f,-0.89170914888381958007812500000000f,0.37128287553787231445312500000000f,0.51816248893737792968750000000000f,-0.07142354547977447509765625000000f,0.40663415193557739257812500000000f,0.58966070413589477539062500000000f,0.44986209273338317871093750000000f,0.27253615856170654296875000000000f,-0.40126737952232360839843750000000f,-0.33856740593910217285156250000000f,0.32220885157585144042968750000000f,0.43581965565681457519531250000000f,0.30445042252540588378906250000000f,0.45935904979705810546875000000000f,0.52485519647598266601562500000000f,-0.36664775013923645019531250000000f,0.04902274161577224731445312500000f,0.29495716094970703125000000000000f,-0.41365754604339599609375000000000f,-0.46378019452095031738281250000000f,0.31574231386184692382812500000000f,-0.41466474533081054687500000000000f,-0.34297454357147216796875000000000f,0.39197522401809692382812500000000f,0.61289721727371215820312500000000f,0.36679229140281677246093750000000f,0.49126505851745605468750000000000f,-0.35715824365615844726562500000000f,0.35126206278800964355468750000000f,-0.30561172962188720703125000000000f,-0.51784604787826538085937500000000f,0.50341773033142089843750000000000f,-0.34925577044486999511718750000000f,-0.53227877616882324218750000000000f,-0.37988796830177307128906250000000f,-0.29830566048622131347656250000000f,0.36753031611442565917968750000000f,0.37041240930557250976562500000000f,-0.26782029867172241210937500000000f,-0.40891355276107788085937500000000f,0.37049233913421630859375000000000f,0.38985568284988403320312500000000f,-0.55395370721817016601562500000000f,-0.24100938439369201660156250000000f,-0.32897800207138061523437500000000f,0.26431471109390258789062500000000f,0.54731285572052001953125000000000f,0.42208173871040344238281250000000f,0.53814607858657836914062500000000f,0.35748565196990966796875000000000f,-0.37128946185111999511718750000000f,0.83606159687042236328125000000000f,0.75685441493988037109375000000000f,-0.76123172044754028320312500000000f,-0.89733403921127319335937500000000f,-0.65943491458892822265625000000000f,0.84618246555328369140625000000000f,1.25404560565948486328125000000000f,0.84494626522064208984375000000000f,-0.98998123407363891601562500000000f,1.03266835212707519531250000000000f,0.69108402729034423828125000000000f,-0.65298378467559814453125000000000f,-1.01672434806823730468750000000000f,1.00656962394714355468750000000000f,-0.78446406126022338867187500000000f,0.70874524116516113281250000000000f,-0.87863028049468994140625000000000f,-0.78011965751647949218750000000000f,0.85226762294769287109375000000000f,-0.86366832256317138671875000000000f,1.03361856937408447265625000000000f,-0.69210588932037353515625000000000f,-0.72833210229873657226562500000000f,0.98577296733856201171875000000000f,-0.83885008096694946289062500000000f,0.92685151100158691406250000000000f,0.79450547695159912109375000000000f,-0.42586094141006469726562500000000f,-0.56306016445159912109375000000000f,0.87358629703521728515625000000000f,-0.74828600883483886718750000000000f,0.92231780290603637695312500000000f,-0.57545179128646850585937500000000f,0.93106168508529663085937500000000f,1.44172394275665283203125000000000f,0.90602767467498779296875000000000f,1.14910483360290527343750000000000f,-0.99576616287231445312500000000000f,0.89580422639846801757812500000000f,0.82493883371353149414062500000000f,0.83421748876571655273437500000000f,-1.59234213829040527343750000000000f,-0.78718084096908569335937500000000f,-0.98352438211441040039062500000000f,-0.75679624080657958984375000000000f,0.93745476007461547851562500000000f,-0.87236535549163818359375000000000f,-0.85047644376754760742187500000000f,1.02681672573089599609375000000000f,0.93274754285812377929687500000000f,-0.53433096408843994140625000000000f,0.77073889970779418945312500000000f,-0.91680836677551269531250000000000f,0.78654205799102783203125000000000f,-0.67781364917755126953125000000000f,-0.81756514310836791992187500000000f,0.87079632282257080078125000000000f,-0.75776708126068115234375000000000f,0.83520954847335815429687500000000f,-0.87695348262786865234375000000000f,-0.37860032916069030761718750000000f,0.71887212991714477539062500000000f,-0.49040889739990234375000000000000f,0.81359738111495971679687500000000f,-0.62852078676223754882812500000000f,0.79958075284957885742187500000000f,-0.77804934978485107421875000000000f,0.70900046825408935546875000000000f,-0.93780940771102905273437500000000f,-0.74727094173431396484375000000000f,-0.74155151844024658203125000000000f,-0.70415401458740234375000000000000f,0.75412428379058837890625000000000f,1.32966804504394531250000000000000f,0.78640133142471313476562500000000f,0.87658387422561645507812500000000f,1.13304853439331054687500000000000f,0.79826086759567260742187500000000f,0.79679578542709350585937500000000f,0.79928207397460937500000000000000f,-1.18729233741760253906250000000000f,0.98710930347442626953125000000000f,-0.63808149099349975585937500000000f,1.24252021312713623046875000000000f,1.02922260761260986328125000000000f,-0.76761496067047119140625000000000f,-0.67023491859436035156250000000000f,0.87426745891571044921875000000000f,0.89201712608337402343750000000000f,0.56794035434722900390625000000000f,0.74077999591827392578125000000000f,0.86326372623443603515625000000000f,0.63753587007522583007812500000000f,1.06894123554229736328125000000000f,0.91104733943939208984375000000000f,-0.85276710987091064453125000000000f,0.40966734290122985839843750000000f,1.01123845577239990234375000000000f,-0.80293184518814086914062500000000f,-0.70452105998992919921875000000000f,0.85454040765762329101562500000000f,0.54380983114242553710937500000000f,0.99707072973251342773437500000000f,0.87913388013839721679687500000000f,-0.96806299686431884765625000000000f,1.05764448642730712890625000000000f,-0.77077597379684448242187500000000f,1.09125268459320068359375000000000f,-1.65922904014587402343750000000000f,0.89478856325149536132812500000000f,-0.76593399047851562500000000000000f,-0.72808521986007690429687500000000f,-0.81542819738388061523437500000000f,0.91657620668411254882812500000000f,0.85166275501251220703125000000000f,-0.80516320466995239257812500000000f,-0.91429829597473144531250000000000f,0.85804176330566406250000000000000f,0.77547115087509155273437500000000f,-0.92587757110595703125000000000000f,-0.89896076917648315429687500000000f,-0.86115550994873046875000000000000f,0.72749066352844238281250000000000f,0.91301327943801879882812500000000f,-1.22494637966156005859375000000000f,-0.10596770048141479492187500000000f,0.87705761194229125976562500000000f,-0.94045597314834594726562500000000f,0.90219372510910034179687500000000f,1.02903473377227783203125000000000f,-1.08368301391601562500000000000000f,-1.17555463314056396484375000000000f,-1.11485266685485839843750000000000f,1.59591054916381835937500000000000f,0.21072970330715179443359375000000f,1.22587907314300537109375000000000f,-1.31814098358154296875000000000000f,1.38208377361297607421875000000000f,1.02232551574707031250000000000000f,-1.10024988651275634765625000000000f,-1.20233726501464843750000000000000f,1.32589983940124511718750000000000f,-1.13846111297607421875000000000000f,1.07369613647460937500000000000000f,-1.05671012401580810546875000000000f,-1.09953308105468750000000000000000f,1.21573162078857421875000000000000f,-1.12226283550262451171875000000000f,1.60286498069763183593750000000000f,-0.99998277425765991210937500000000f,-1.05917179584503173828125000000000f,1.36209523677825927734375000000000f,-1.29780912399291992187500000000000f,1.24873208999633789062500000000000f,1.18047642707824707031250000000000f,-1.12475216388702392578125000000000f,-0.83095449209213256835937500000000f,1.25694179534912109375000000000000f,-1.00406694412231445312500000000000f,1.22393870353698730468750000000000f,1.76762938499450683593750000000000f,1.46347165107727050781250000000000f,1.77713799476623535156250000000000f,1.17706274986267089843750000000000f,1.53857946395874023437500000000000f,-1.31100583076477050781250000000000f,1.35810697078704833984375000000000f,1.15278971195220947265625000000000f,1.23378682136535644531250000000000f,1.74911272525787353515625000000000f,-0.98733419179916381835937500000000f,0.68116825819015502929687500000000f,-1.16519689559936523437500000000000f,-0.29430529475212097167968750000000f,-1.06961023807525634765625000000000f,-1.26836907863616943359375000000000f,1.27451670169830322265625000000000f,1.34051465988159179687500000000000f,-1.03160548210144042968750000000000f,1.09547066688537597656250000000000f,-1.33270502090454101562500000000000f,1.15050220489501953125000000000000f,-0.88849890232086181640625000000000f,-0.98464494943618774414062500000000f,1.50836229324340820312500000000000f,-1.03561007976531982421875000000000f,1.08455169200897216796875000000000f,-1.13957059383392333984375000000000f,-1.37667059898376464843750000000000f,0.98092490434646606445312500000000f,0.69201183319091796875000000000000f,1.17409026622772216796875000000000f,-0.95014375448226928710937500000000f,0.93992799520492553710937500000000f,-1.35905539989471435546875000000000f,1.13659679889678955078125000000000f,-0.95448118448257446289062500000000f,-1.10712110996246337890625000000000f,-0.54755520820617675781250000000000f,-1.00498998165130615234375000000000f,1.11276161670684814453125000000000f,1.83010590076446533203125000000000f,1.17591834068298339843750000000000f,1.22446751594543457031250000000000f,0.80478310585021972656250000000000f,0.37811148166656494140625000000000f,1.11985957622528076171875000000000f,1.14808988571166992187500000000000f,-0.73811894655227661132812500000000f,1.29438245296478271484375000000000f,0.10864128172397613525390625000000f,1.62368583679199218750000000000000f,1.07233202457427978515625000000000f,-1.00682008266448974609375000000000f,-0.96838372945785522460937500000000f,1.13321328163146972656250000000000f,1.23855137825012207031250000000000f,0.66907334327697753906250000000000f,1.16207516193389892578125000000000f,1.14340794086456298828125000000000f,0.85854434967041015625000000000000f,0.59860628843307495117187500000000f,-1.20112478733062744140625000000000f,-1.12080812454223632812500000000000f,0.25664433836936950683593750000000f,1.32392573356628417968750000000000f,-1.23102021217346191406250000000000f,-0.91786533594131469726562500000000f,1.15747869014739990234375000000000f,1.34078860282897949218750000000000f,1.26807963848114013671875000000000f,1.34093928337097167968750000000000f,-1.16446995735168457031250000000000f,1.27489352226257324218750000000000f,-1.04206311702728271484375000000000f,-0.16416651010513305664062500000000f,0.13027839362621307373046875000000f,-0.31123292446136474609375000000000f,-1.24631869792938232421875000000000f,-1.19685328006744384765625000000000f,-1.17563784122467041015625000000000f,1.31761491298675537109375000000000f,1.04661691188812255859375000000000f,-1.18094599246978759765625000000000f,-1.28105688095092773437500000000000f,1.18022215366363525390625000000000f,1.21096408367156982421875000000000f,-1.03199839591979980468750000000000f,-1.26508986949920654296875000000000f,-1.29567587375640869140625000000000f,1.04139125347137451171875000000000f,1.15008592605590820312500000000000f,0.56130421161651611328125000000000f,-0.40749818086624145507812500000000f,0.94073873758316040039062500000000f,-1.14612495899200439453125000000000f,0.48977887630462646484375000000000f,0.52184927463531494140625000000000f,-0.65146523714065551757812500000000f,-0.58927381038665771484375000000000f,-0.57734811305999755859375000000000f,0.83278995752334594726562500000000f,-0.70781672000885009765625000000000f,0.59468770027160644531250000000000f,-0.52480119466781616210937500000000f,0.38811552524566650390625000000000f,0.50156646966934204101562500000000f,-0.48917475342750549316406250000000f,-0.51565736532211303710937500000000f,0.54058718681335449218750000000000f,-0.51041197776794433593750000000000f,0.53297513723373413085937500000000f,-0.48780053853988647460937500000000f,-0.46616077423095703125000000000000f,0.56575661897659301757812500000000f,-0.48132970929145812988281250000000f,0.67691564559936523437500000000000f,-0.63032317161560058593750000000000f,-0.48485508561134338378906250000000f,0.61614423990249633789062500000000f,-0.61272847652435302734375000000000f,0.49565681815147399902343750000000f,0.63904935121536254882812500000000f,-0.69015496969223022460937500000000f,-0.54519337415695190429687500000000f,0.46206235885620117187500000000000f,-0.51765280961990356445312500000000f,0.53459137678146362304687500000000f,-1.44132435321807861328125000000000f,0.71182453632354736328125000000000f,0.73205083608627319335937500000000f,0.53531569242477416992187500000000f,0.61041182279586791992187500000000f,-0.48856410384178161621093750000000f,0.53124421834945678710937500000000f,0.53193444013595581054687500000000f,0.72150772809982299804687500000000f,0.10260730981826782226562500000000f,-0.47749608755111694335937500000000f,0.96493268013000488281250000000000f,-0.60202270746231079101562500000000f,-0.83478188514709472656250000000000f,-0.43011346459388732910156250000000f,-0.60805273056030273437500000000000f,0.44968611001968383789062500000000f,0.56757706403732299804687500000000f,-0.65760999917984008789062500000000f,0.50870990753173828125000000000000f,-0.65517228841781616210937500000000f,0.58812016248703002929687500000000f,-0.45396009087562561035156250000000f,-0.46367463469505310058593750000000f,0.69899839162826538085937500000000f,-0.62430423498153686523437500000000f,0.49865442514419555664062500000000f,-0.55834585428237915039062500000000f,-0.34775072336196899414062500000000f,0.32134228944778442382812500000000f,1.30733287334442138671875000000000f,0.62390738725662231445312500000000f,-0.58271014690399169921875000000000f,0.39951366186141967773437500000000f,-0.14853304624557495117187500000000f,0.59654623270034790039062500000000f,-0.39307591319084167480468750000000f,-0.56637251377105712890625000000000f,-0.22062382102012634277343750000000f,-0.63117921352386474609375000000000f,0.54378825426101684570312500000000f,0.71549844741821289062500000000000f,0.55225259065628051757812500000000f,0.47953796386718750000000000000000f,0.12449201941490173339843750000000f,-0.26978954672813415527343750000000f,0.47021976113319396972656250000000f,0.62435781955718994140625000000000f,-0.04537247121334075927734375000000f,0.48167285323143005371093750000000f,0.43292462825775146484375000000000f,0.63281935453414916992187500000000f,0.30293482542037963867187500000000f,-0.45907315611839294433593750000000f,-0.50307196378707885742187500000000f,0.43445202708244323730468750000000f,0.65905946493148803710937500000000f,0.23064713180065155029296875000000f,0.63528823852539062500000000000000f,0.42504766583442687988281250000000f,0.45154196023941040039062500000000f,-0.13259090483188629150390625000000f,-0.30327498912811279296875000000000f,-0.58132302761077880859375000000000f,-0.13908486068248748779296875000000f,0.55808442831039428710937500000000f,-0.63908571004867553710937500000000f,-0.50944113731384277343750000000000f,0.51219236850738525390625000000000f,0.82493376731872558593750000000000f,0.49333396553993225097656250000000f,0.67541772127151489257812500000000f,-0.50648385286331176757812500000000f,0.45880904793739318847656250000000f,-0.56051343679428100585937500000000f,-1.07536876201629638671875000000000f,0.38973370194435119628906250000000f,-1.09442675113677978515625000000000f,-0.66160464286804199218750000000000f,-0.80217206478118896484375000000000f,-0.51920944452285766601562500000000f,0.52779561281204223632812500000000f,0.48185220360755920410156250000000f,-0.54180544614791870117187500000000f,-0.53613507747650146484375000000000f,0.56025767326354980468750000000000f,0.57646548748016357421875000000000f,-0.46649044752120971679687500000000f,-0.60653328895568847656250000000000f,-0.60765987634658813476562500000000f,0.39045011997222900390625000000000f,0.49384129047393798828125000000000f,0.63887667655944824218750000000000f,-0.59868443012237548828125000000000f,0.40479901432991027832031250000000f,-0.55948364734649658203125000000000f,0.40082398056983947753906250000000f,0.38504368066787719726562500000000f,-0.41888552904129028320312500000000f,-0.43474334478378295898437500000000f,-0.40691575407981872558593750000000f,0.42357769608497619628906250000000f,1.33677351474761962890625000000000f,0.29207208752632141113281250000000f,-0.53899729251861572265625000000000f,0.47051870822906494140625000000000f,0.18798205256462097167968750000000f,-0.18541701138019561767578125000000f,-0.55741357803344726562500000000000f,0.53148001432418823242187500000000f,-0.34539228677749633789062500000000f,0.35811692476272583007812500000000f,-0.54918283224105834960937500000000f,-0.44773980975151062011718750000000f,0.26698160171508789062500000000000f,-0.45888522267341613769531250000000f,0.51894032955169677734375000000000f,-0.57087337970733642578125000000000f,-0.37419581413269042968750000000000f,0.61120438575744628906250000000000f,-0.29155445098876953125000000000000f,0.35075497627258300781250000000000f,0.50993323326110839843750000000000f,-0.61435723304748535156250000000000f,-0.13694661855697631835937500000000f,0.27943649888038635253906250000000f,-0.41054800152778625488281250000000f,0.47354829311370849609375000000000f,-0.15820918977260589599609375000000f,0.59485894441604614257812500000000f,0.58575248718261718750000000000000f,0.46777996420860290527343750000000f,0.51553285121917724609375000000000f,-0.52516186237335205078125000000000f,0.30645096302032470703125000000000f,0.36561995744705200195312500000000f,0.26623308658599853515625000000000f,-0.65191030502319335937500000000000f,-0.41941484808921813964843750000000f,-0.13151222467422485351562500000000f,-0.30178368091583251953125000000000f,0.42412894964218139648437500000000f,-0.45672622323036193847656250000000f,-0.43399721384048461914062500000000f,0.31559962034225463867187500000000f,0.45113888382911682128906250000000f,-0.23080410063266754150390625000000f,0.41599515080451965332031250000000f,-0.57197016477584838867187500000000f,0.39513495564460754394531250000000f,-0.34164369106292724609375000000000f,-0.39498257637023925781250000000000f,0.45878425240516662597656250000000f,-0.32889783382415771484375000000000f,0.49810504913330078125000000000000f,-0.41424062848091125488281250000000f,-0.28994047641754150390625000000000f,0.50623011589050292968750000000000f,0.23094895482063293457031250000000f,0.32539290189743041992187500000000f,-0.26638597249984741210937500000000f,0.32309570908546447753906250000000f,-0.07526486366987228393554687500000f,0.20076279342174530029296875000000f,-0.27448409795761108398437500000000f,-0.35839638113975524902343750000000f,1.34944665431976318359375000000000f,-0.32616782188415527343750000000000f,0.33487167954444885253906250000000f,0.54962307214736938476562500000000f,0.32262071967124938964843750000000f,0.47684207558631896972656250000000f,0.51646083593368530273437500000000f,0.87191760540008544921875000000000f,0.36692562699317932128906250000000f,0.32937821745872497558593750000000f,-1.03385913372039794921875000000000f,0.45198047161102294921875000000000f,-0.76688373088836669921875000000000f,0.62949466705322265625000000000000f,0.31166973710060119628906250000000f,-0.57619345188140869140625000000000f,-0.41600182652473449707031250000000f,0.37406668066978454589843750000000f,0.35243672132492065429687500000000f,0.17604175209999084472656250000000f,0.32223260402679443359375000000000f,0.49585679173469543457031250000000f,-0.34359145164489746093750000000000f,0.30046811699867248535156250000000f,0.81568247079849243164062500000000f,-0.52202957868576049804687500000000f,0.68608719110488891601562500000000f,0.39836513996124267578125000000000f,-0.28811165690422058105468750000000f,-0.37097501754760742187500000000000f,0.50048738718032836914062500000000f,0.17150186002254486083984375000000f,0.51431697607040405273437500000000f,0.47383773326873779296875000000000f,-0.38346874713897705078125000000000f,0.31681534647941589355468750000000f,-0.25600540637969970703125000000000f,0.60713708400726318359375000000000f,-0.67474979162216186523437500000000f,0.38588714599609375000000000000000f,-0.25785857439041137695312500000000f,-0.33054715394973754882812500000000f,-0.44494324922561645507812500000000f,0.43375936150550842285156250000000f,0.48860764503479003906250000000000f,-0.30247780680656433105468750000000f,-0.36669147014617919921875000000000f,0.42586237192153930664062500000000f,0.33017924427986145019531250000000f,-0.32615679502487182617187500000000f,-0.35371214151382446289062500000000f,-0.31410890817642211914062500000000f,0.29756405949592590332031250000000f,0.43735179305076599121093750000000f,-0.79134535789489746093750000000000f,-0.66713786125183105468750000000000f,0.51905333995819091796875000000000f,-0.36259481310844421386718750000000f,0.42465099692344665527343750000000f,0.50581812858581542968750000000000f,-0.61276143789291381835937500000000f,-0.64255559444427490234375000000000f,-0.63265937566757202148437500000000f,0.70969581604003906250000000000000f,0.67271727323532104492187500000000f,0.64016771316528320312500000000000f,-0.69684070348739624023437500000000f,0.62762433290481567382812500000000f,0.49861532449722290039062500000000f,-0.28252914547920227050781250000000f,-0.73389333486557006835937500000000f,0.59735178947448730468750000000000f,-0.55685460567474365234375000000000f,0.51864039897918701171875000000000f,-0.46235626935958862304687500000000f,-0.62410914897918701171875000000000f,0.42649295926094055175781250000000f,-0.64015549421310424804687500000000f,0.65868425369262695312500000000000f,-0.58993458747863769531250000000000f,-0.37455159425735473632812500000000f,0.73788017034530639648437500000000f,-0.55149900913238525390625000000000f,0.49095752835273742675781250000000f,0.58832699060440063476562500000000f,-0.55521661043167114257812500000000f,-0.50145030021667480468750000000000f,0.40659260749816894531250000000000f,-0.55833321809768676757812500000000f,0.59687989950180053710937500000000f,0.81211900711059570312500000000000f,0.73727816343307495117187500000000f,0.74726206064224243164062500000000f,0.58910417556762695312500000000000f,0.83872842788696289062500000000000f,-0.61167162656784057617187500000000f,0.46712523698806762695312500000000f,0.54008597135543823242187500000000f,0.60233199596405029296875000000000f,0.69243377447128295898437500000000f,-0.56875127553939819335937500000000f,1.10962414741516113281250000000000f,-0.51091384887695312500000000000000f,-0.79121875762939453125000000000000f,-0.51625019311904907226562500000000f,-0.65012556314468383789062500000000f,0.54710549116134643554687500000000f,0.58896470069885253906250000000000f,-0.40012156963348388671875000000000f,0.46316242218017578125000000000000f,-0.78968858718872070312500000000000f,0.57015675306320190429687500000000f,-0.45424905419349670410156250000000f,-0.48432219028472900390625000000000f,0.79545295238494873046875000000000f,-0.42415255308151245117187500000000f,0.52029532194137573242187500000000f,-0.52040076255798339843750000000000f,-0.65463328361511230468750000000000f,0.90369987487792968750000000000000f,1.05524504184722900390625000000000f,0.43240198493003845214843750000000f,-0.43644678592681884765625000000000f,0.37122875452041625976562500000000f,-0.11314150691032409667968750000000f,0.53697538375854492187500000000000f,-0.38187828660011291503906250000000f,-0.54215234518051147460937500000000f,1.53216218948364257812500000000000f,-0.48836642503738403320312500000000f,0.47871690988540649414062500000000f,0.69264239072799682617187500000000f,0.50995850563049316406250000000000f,0.56141597032546997070312500000000f,0.22956533730030059814453125000000f,0.85924315452575683593750000000000f,0.45113423466682434082031250000000f,0.49664458632469177246093750000000f,-0.52959477901458740234375000000000f,0.52418088912963867187500000000000f,-0.89593601226806640625000000000000f,0.80038768053054809570312500000000f,0.24872605502605438232421875000000f,-0.69040465354919433593750000000000f,-0.53740119934082031250000000000000f,0.45293906331062316894531250000000f,0.66125887632369995117187500000000f,0.03729484975337982177734375000000f,0.52211463451385498046875000000000f,0.45305636525154113769531250000000f,-0.45735222101211547851562500000000f,-0.01589789986610412597656250000000f,-0.54940605163574218750000000000000f,-0.65092200040817260742187500000000f,0.71818464994430541992187500000000f,0.59136712551116943359375000000000f,-0.51145172119140625000000000000000f,-0.48943197727203369140625000000000f,0.57108002901077270507812500000000f,0.57030779123306274414062500000000f,0.59919917583465576171875000000000f,0.67392396926879882812500000000000f,-0.47913068532943725585937500000000f,0.50768899917602539062500000000000f,-0.40930846333503723144531250000000f,0.03139945864677429199218750000000f,-0.25483900308609008789062500000000f,-0.86574494838714599609375000000000f,-0.32977330684661865234375000000000f,-0.72825771570205688476562500000000f,-0.64379048347473144531250000000000f,0.60343539714813232421875000000000f,0.59954500198364257812500000000000f,-0.50472623109817504882812500000000f,-0.54304015636444091796875000000000f,0.54815483093261718750000000000000f,0.50416094064712524414062500000000f,-0.24499794840812683105468750000000f,-0.65496551990509033203125000000000f,-0.57251781225204467773437500000000f,0.42278099060058593750000000000000f,0.32199275493621826171875000000000f,0.10131063312292098999023437500000f,-0.91847002506256103515625000000000f,0.44827947020530700683593750000000f,-0.54593235254287719726562500000000f,0.20751941204071044921875000000000f,0.29119771718978881835937500000000f,-0.25673723220825195312500000000000f,-0.30104663968086242675781250000000f,-0.27229896187782287597656250000000f,0.44863563776016235351562500000000f,-0.10144571214914321899414062500000f,0.36184826493263244628906250000000f,-0.32743349671363830566406250000000f,0.23000217974185943603515625000000f,0.31274777650833129882812500000000f,-0.00936452485620975494384765625000f,-0.27425625920295715332031250000000f,0.26028516888618469238281250000000f,-0.28757673501968383789062500000000f,0.26372024416923522949218750000000f,-0.09469642490148544311523437500000f,-0.24915888905525207519531250000000f,0.22386403381824493408203125000000f,-0.28071027994155883789062500000000f,0.27599146962165832519531250000000f,-0.21990185976028442382812500000000f,-0.06557225435972213745117187500000f,0.23254463076591491699218750000000f,-0.30350497364997863769531250000000f,0.23085422813892364501953125000000f,0.28960174322128295898437500000000f,0.07507883012294769287109375000000f,-0.43382853269577026367187500000000f,0.12317543476819992065429687500000f,-0.22501073777675628662109375000000f,0.27232497930526733398437500000000f,-0.89416915178298950195312500000000f,0.23254434764385223388671875000000f,0.30636823177337646484375000000000f,0.28218746185302734375000000000000f,0.45471462607383728027343750000000f,-0.21406558156013488769531250000000f,0.19228750467300415039062500000000f,0.29406493902206420898437500000000f,0.40499851107597351074218750000000f,-0.02735209837555885314941406250000f,-0.22195528447628021240234375000000f,0.82101708650588989257812500000000f,-0.28762876987457275390625000000000f,-0.57507419586181640625000000000000f,-0.17841568589210510253906250000000f,-0.26711472868919372558593750000000f,0.28989633917808532714843750000000f,0.22240345180034637451171875000000f,-0.30841284990310668945312500000000f,0.12156888097524642944335937500000f,-0.32032817602157592773437500000000f,0.28065437078475952148437500000000f,-0.20493170619010925292968750000000f,-0.18233954906463623046875000000000f,0.41815194487571716308593750000000f,-0.24006424844264984130859375000000f,0.17151854932308197021484375000000f,-0.20787632465362548828125000000000f,-0.16626192629337310791015625000000f,0.40330627560615539550781250000000f,0.97280389070510864257812500000000f,0.22781756520271301269531250000000f,-0.23362086713314056396484375000000f,0.16835992038249969482421875000000f,-0.01217154413461685180664062500000f,0.32034617662429809570312500000000f,-0.12153160572052001953125000000000f,-0.21529832482337951660156250000000f,0.75688284635543823242187500000000f,-0.26176035404205322265625000000000f,0.24517799913883209228515625000000f,0.24763724207878112792968750000000f,0.30385473370552062988281250000000f,0.18017388880252838134765625000000f,-0.04875922948122024536132812500000f,0.29100728034973144531250000000000f,0.17462264001369476318359375000000f,0.30455780029296875000000000000000f,0.01759350672364234924316406250000f,0.22399733960628509521484375000000f,-0.51706558465957641601562500000000f,0.28323858976364135742187500000000f,0.06338207423686981201171875000000f,-0.18197675049304962158203125000000f,-0.22534672915935516357421875000000f,0.11541387438774108886718750000000f,0.32473921775817871093750000000000f,0.01705268211662769317626953125000f,0.23073586821556091308593750000000f,-0.00275671086274087429046630859375f,-0.24963101744651794433593750000000f,-0.28270894289016723632812500000000f,-0.75495970249176025390625000000000f,-0.33228474855422973632812500000000f,0.28729334473609924316406250000000f,0.31876608729362487792968750000000f,-0.32704010605812072753906250000000f,-0.26016619801521301269531250000000f,0.19809673726558685302734375000000f,0.39623877406120300292968750000000f,0.19231154024600982666015625000000f,0.24394339323043823242187500000000f,-0.25234127044677734375000000000000f,0.21520610153675079345703125000000f,-0.28689527511596679687500000000000f,-0.69581961631774902343750000000000f,0.14376249909400939941406250000000f,-0.80112236738204956054687500000000f,-0.19208508729934692382812500000000f,-0.44902825355529785156250000000000f,-0.26272982358932495117187500000000f,0.23759005963802337646484375000000f,0.22347874939441680908203125000000f,-0.20333130657672882080078125000000f,-0.21864564716815948486328125000000f,0.22506467998027801513671875000000f,0.22223278880119323730468750000000f,-0.00880329776555299758911132812500f,-0.41388288140296936035156250000000f,-0.34600684046745300292968750000000f,0.12947987020015716552734375000000f,0.03527871891856193542480468750000f,0.35468554496765136718750000000000f,-0.35712894797325134277343750000000f,0.11926122009754180908203125000000f,-0.27886828780174255371093750000000f}; 
