#include <polimidl/layers/alignment.hpp>
alignas(polimidl::layers::buffer_alignment::byte_alignment) const float weight17[] = {-0.07174884527921676635742187500000f,-0.40626811981201171875000000000000f,0.08451071381568908691406250000000f,-0.00268389075063169002532958984375f,-0.01337397843599319458007812500000f,0.35349297523498535156250000000000f,-0.04554269835352897644042968750000f,0.02990854531526565551757812500000f,0.01573907025158405303955078125000f,0.09348118305206298828125000000000f,0.00454474845901131629943847656250f,0.09119007736444473266601562500000f,-0.00470945052802562713623046875000f,0.02418854273855686187744140625000f,-0.00996364839375019073486328125000f,0.06163229048252105712890625000000f,0.04149835929274559020996093750000f,0.01379735954105854034423828125000f,0.00292152375914156436920166015625f,0.09077007323503494262695312500000f,0.92503571510314941406250000000000f,0.01675520092248916625976562500000f,-0.03878091648221015930175781250000f,0.00806032679975032806396484375000f,-0.02771259471774101257324218750000f,-0.00772148882970213890075683593750f,0.03845399618148803710937500000000f,0.00459254579618573188781738281250f,0.01073057483881711959838867187500f,0.08164411038160324096679687500000f,-0.10829468816518783569335937500000f,-0.00849249120801687240600585937500f,0.01443237997591495513916015625000f,-0.00642906315624713897705078125000f,-0.01291394140571355819702148437500f,-0.26113593578338623046875000000000f,0.00539833679795265197753906250000f,0.02771208621561527252197265625000f,-0.01186988689005374908447265625000f,-0.01554103288799524307250976562500f,0.00683371862396597862243652343750f,-0.00408955663442611694335937500000f,-0.01364860497415065765380859375000f,-0.02814164012670516967773437500000f,-0.05863743275403976440429687500000f,0.01851226761937141418457031250000f,-0.01738121174275875091552734375000f,0.00834226235747337341308593750000f,0.02860919013619422912597656250000f,-0.05844508484005928039550781250000f,-0.02744048461318016052246093750000f,0.02279152721166610717773437500000f,0.01107254438102245330810546875000f,0.03068198822438716888427734375000f,0.12662538886070251464843750000000f,0.06485866755247116088867187500000f,0.48355361819267272949218750000000f,0.07998555898666381835937500000000f,-0.04553390294313430786132812500000f,-0.01574700698256492614746093750000f,-0.00266451621428132057189941406250f,0.00306810741312801837921142578125f,-0.04316632822155952453613281250000f,0.00589533522725105285644531250000f,-0.02611656486988067626953125000000f,-0.01891940087080001831054687500000f,-0.01746006496250629425048828125000f,0.00230753398500382900238037109375f,0.01272546593099832534790039062500f,-0.04441624507308006286621093750000f,-0.01117349974811077117919921875000f,-0.02365228533744812011718750000000f,0.01870483346283435821533203125000f,-0.00508795352652668952941894531250f,-0.02921158261597156524658203125000f,0.06139293313026428222656250000000f,-0.12215039879083633422851562500000f,0.00602031219750642776489257812500f,0.04296456649899482727050781250000f,-0.00734201539307832717895507812500f,-0.03552929311990737915039062500000f,0.32552579045295715332031250000000f,0.01292072329670190811157226562500f,-0.12499574571847915649414062500000f,0.00641568982973694801330566406250f,-0.00481058889999985694885253906250f,-0.00494816852733492851257324218750f,-0.01995705626904964447021484375000f,0.00998623110353946685791015625000f,-0.02157572843134403228759765625000f,-0.03432064503431320190429687500000f,-0.00492315879091620445251464843750f,0.00528042763471603393554687500000f,-0.03780813887715339660644531250000f,0.01319095771759748458862304687500f,0.03700210526585578918457031250000f,0.03819046914577484130859375000000f,0.01053437031805515289306640625000f,-0.08008427917957305908203125000000f,-0.04911737516522407531738281250000f,0.03515600040555000305175781250000f,0.06079064309597015380859375000000f,0.03150957822799682617187500000000f,0.03180243819952011108398437500000f,-0.07402232289314270019531250000000f,0.02283651567995548248291015625000f,-0.00870409887284040451049804687500f,-0.00329082063399255275726318359375f,0.05287941545248031616210937500000f,0.04031235352158546447753906250000f,0.04657657444477081298828125000000f,0.00159662100486457347869873046875f,-0.02967564761638641357421875000000f,0.09126947820186614990234375000000f,0.12312935292720794677734375000000f,0.11888305097818374633789062500000f,0.00036612706026062369346618652344f,-0.01786061003804206848144531250000f,-0.04755517840385437011718750000000f,-0.01751320809125900268554687500000f,-0.00361618003807961940765380859375f,0.06848153471946716308593750000000f,-0.09817814826965332031250000000000f,-0.03002453036606311798095703125000f,0.01035212446004152297973632812500f,0.00666782772168517112731933593750f,0.03380889073014259338378906250000f,0.01497331634163856506347656250000f,-0.05539444088935852050781250000000f,0.07716099917888641357421875000000f,-0.04482380300760269165039062500000f,-0.01440580654889345169067382812500f,0.03442805632948875427246093750000f,-0.28893592953681945800781250000000f,0.03584768623113632202148437500000f,0.01771852001547813415527343750000f,0.03679709881544113159179687500000f,-0.23297962546348571777343750000000f,-0.00929010193794965744018554687500f,0.01689555309712886810302734375000f,0.00055283732945099472999572753906f,0.02544845454394817352294921875000f,-0.00068676279624924063682556152344f,-0.12993943691253662109375000000000f,0.03264533355832099914550781250000f,0.02654328569769859313964843750000f,0.00848376005887985229492187500000f,-0.01688565127551555633544921875000f,-0.27564975619316101074218750000000f,0.04096442833542823791503906250000f,-0.02056946232914924621582031250000f,0.01641303487122058868408203125000f,0.01029356382787227630615234375000f,0.03840309381484985351562500000000f,-0.02294838428497314453125000000000f,-0.03566152229905128479003906250000f,0.04484882205724716186523437500000f,-0.02014164626598358154296875000000f,0.05305798351764678955078125000000f,0.00183248834218829870223999023438f,0.00685821473598480224609375000000f,-0.02609082497656345367431640625000f,0.01948751881718635559082031250000f,0.03503245860338211059570312500000f,-0.03035865724086761474609375000000f,0.05029384791851043701171875000000f,0.03338706865906715393066406250000f,0.02245067059993743896484375000000f,-0.01684400998055934906005859375000f,0.01783164590597152709960937500000f,0.02065476588904857635498046875000f,0.06542038172483444213867187500000f,-0.02217837609350681304931640625000f,0.01566317677497863769531250000000f,0.03181042149662971496582031250000f,-0.02233292348682880401611328125000f,0.02359258756041526794433593750000f,-0.03356193006038665771484375000000f,0.00967359542846679687500000000000f,-0.00553345540538430213928222656250f,0.01742940954864025115966796875000f,-0.02689178846776485443115234375000f,0.01495047193020582199096679687500f,-0.02888369932770729064941406250000f,0.00344243622384965419769287109375f,-0.00015993129636626690626144409180f,-0.12631481885910034179687500000000f,-0.00735279172658920288085937500000f,-0.03528286144137382507324218750000f,-0.00858230236917734146118164062500f,0.02517846971750259399414062500000f,0.02043383009731769561767578125000f,-0.00134219694882631301879882812500f,-0.10760476440191268920898437500000f,0.09190505743026733398437500000000f,-0.00592772103846073150634765625000f,0.02406996861100196838378906250000f,-0.07418764382600784301757812500000f,0.00918379519134759902954101562500f,0.01346941571682691574096679687500f,-0.03739380836486816406250000000000f,-0.01528278272598981857299804687500f,-0.01434999704360961914062500000000f,-0.02427626959979534149169921875000f,0.04238624870777130126953125000000f,0.01996308751404285430908203125000f,0.01276584342122077941894531250000f,-0.00443803891539573669433593750000f,-0.01608671434223651885986328125000f,-0.22108960151672363281250000000000f,-0.04160097613930702209472656250000f,-0.00188820587936788797378540039062f,0.14017230272293090820312500000000f,0.01076195295900106430053710937500f,-0.02317727729678153991699218750000f,0.02165442518889904022216796875000f,-0.01213915646076202392578125000000f,-0.07414979487657546997070312500000f,0.03108089230954647064208984375000f,-0.00611450709402561187744140625000f,0.01794748008251190185546875000000f,0.30558601021766662597656250000000f,-0.00143518240656703710556030273438f,0.00160197564400732517242431640625f,-0.02727966941893100738525390625000f,-0.01429703552275896072387695312500f,-0.03253322839736938476562500000000f,-0.06959269195795059204101562500000f,-0.00639668246731162071228027343750f,0.00738712353631854057312011718750f,-0.04102284833788871765136718750000f,0.03528615459799766540527343750000f,-0.01518368534743785858154296875000f,-0.01398536935448646545410156250000f,-0.02047795057296752929687500000000f,0.00410957820713520050048828125000f,-0.06026371195912361145019531250000f,0.03432894498109817504882812500000f,0.01054205466061830520629882812500f,0.04918414726853370666503906250000f,0.06360592693090438842773437500000f,-0.05563629046082496643066406250000f,0.03309421241283416748046875000000f,0.12153946608304977416992187500000f,0.00511589413508772850036621093750f,0.00112651067320257425308227539062f,-0.05098119005560874938964843750000f,0.00893098209053277969360351562500f,0.00772449327632784843444824218750f,0.07140110433101654052734375000000f,0.35174763202667236328125000000000f,-0.01180734671652317047119140625000f,0.00616019545122981071472167968750f,0.02638039737939834594726562500000f,0.05363269895315170288085937500000f,0.02572165243327617645263671875000f,-0.11364639550447463989257812500000f,-0.03813350573182106018066406250000f,0.10690102726221084594726562500000f,0.01689422503113746643066406250000f,0.01250906940549612045288085937500f,-0.01188489887863397598266601562500f,0.02390219271183013916015625000000f,-0.02539807558059692382812500000000f,0.02948361635208129882812500000000f,-0.14394026994705200195312500000000f,0.03206521645188331604003906250000f,-0.10251406580209732055664062500000f,-0.10274959355592727661132812500000f,0.01637234166264533996582031250000f,0.03662026301026344299316406250000f,-0.05704496428370475769042968750000f,0.05744475871324539184570312500000f,0.02663492970168590545654296875000f,-0.00192312081344425678253173828125f,-0.22447700798511505126953125000000f,0.06551350653171539306640625000000f,-0.08557868003845214843750000000000f,-0.02454457432031631469726562500000f,0.03171076998114585876464843750000f,-0.07173335552215576171875000000000f,0.05768477544188499450683593750000f,-0.03234094753861427307128906250000f,-0.02308471500873565673828125000000f,-0.00976341031491756439208984375000f,-0.01186667382717132568359375000000f,0.18237964808940887451171875000000f,0.01697364822030067443847656250000f,0.01929556950926780700683593750000f,-0.00677709421142935752868652343750f,0.02355974540114402770996093750000f,0.18147721886634826660156250000000f,-0.02269511856138706207275390625000f,0.01762088015675544738769531250000f,-0.07663774490356445312500000000000f,0.01022981666028499603271484375000f,0.01238236855715513229370117187500f,0.01707322895526885986328125000000f,0.01797796040773391723632812500000f,0.02161023393273353576660156250000f,-0.04575910791754722595214843750000f,0.03941746801137924194335937500000f,0.00248982594348490238189697265625f,0.04005580022931098937988281250000f,0.03115830384194850921630859375000f,-0.00882863439619541168212890625000f,-0.02282277680933475494384765625000f,0.06387585401535034179687500000000f,0.00380573142319917678833007812500f,0.01645075529813766479492187500000f,-0.16475057601928710937500000000000f,-0.00482456386089324951171875000000f,0.02463116869330406188964843750000f,-0.26654830574989318847656250000000f,0.34619921445846557617187500000000f,-0.18741498887538909912109375000000f,0.04157767072319984436035156250000f,0.06395374983549118041992187500000f,0.06565853208303451538085937500000f,0.01338483579456806182861328125000f,0.09614583104848861694335937500000f,0.01632232032716274261474609375000f,-0.07280091941356658935546875000000f,-0.00784488115459680557250976562500f,-0.09029120951890945434570312500000f,-0.01763880625367164611816406250000f,-0.02297756820917129516601562500000f,0.04701761156320571899414062500000f,-0.07103014737367630004882812500000f,0.00952909979969263076782226562500f,0.00866585224866867065429687500000f,0.06026238203048706054687500000000f,-0.03798602893948554992675781250000f,0.00024331985332537442445755004883f,0.04825323447585105895996093750000f,-0.00287199066951870918273925781250f,-0.02128558047115802764892578125000f,0.04899599030613899230957031250000f,0.00398979289457201957702636718750f,-0.04231238365173339843750000000000f,-0.02928624860942363739013671875000f,0.00780830020084977149963378906250f,-0.03987319767475128173828125000000f,0.01300064288079738616943359375000f,-0.04700749367475509643554687500000f,-0.02451688610017299652099609375000f,-0.21303661167621612548828125000000f,0.02436389774084091186523437500000f,-0.01738131232559680938720703125000f,0.07515241205692291259765625000000f,0.00747031066566705703735351562500f,0.05887051671743392944335937500000f,-0.03938746452331542968750000000000f,-0.01998613215982913970947265625000f,0.07787647843360900878906250000000f,0.06086189299821853637695312500000f,-0.06816983968019485473632812500000f,-0.02732661180198192596435546875000f,-0.07332568615674972534179687500000f,0.02757886052131652832031250000000f,-0.02312183938920497894287109375000f,0.00309058465063571929931640625000f,0.01133950985968112945556640625000f,0.02723502553999423980712890625000f,-0.01452758908271789550781250000000f,0.01368705369532108306884765625000f,0.05788985267281532287597656250000f,0.00949229672551155090332031250000f,-0.00575067335739731788635253906250f,0.05482191964983940124511718750000f,-0.19182041287422180175781250000000f,-0.16433624923229217529296875000000f,-0.06588298082351684570312500000000f,-0.01693776994943618774414062500000f,-0.02135231718420982360839843750000f,-0.06240982562303543090820312500000f,0.00027447260799817740917205810547f,-0.01240188349038362503051757812500f,-0.15668185055255889892578125000000f,0.01728123240172863006591796875000f,0.02602411620318889617919921875000f,-0.02207648009061813354492187500000f,-0.16611120104789733886718750000000f,-0.09595984965562820434570312500000f,0.02121617272496223449707031250000f,0.05262360721826553344726562500000f,-0.03451231122016906738281250000000f,0.01949965022504329681396484375000f,0.19632768630981445312500000000000f,-0.02558245696127414703369140625000f,0.01977570727467536926269531250000f,-0.04029157385230064392089843750000f,-0.04554815590381622314453125000000f,0.04478484019637107849121093750000f,-0.09109504520893096923828125000000f,0.04742864146828651428222656250000f,0.04718698561191558837890625000000f,0.05277288705110549926757812500000f,0.08770483732223510742187500000000f,-0.02525581791996955871582031250000f,-0.00589435640722513198852539062500f,-0.02839096821844577789306640625000f,-0.07148879766464233398437500000000f,-0.04938267916440963745117187500000f,0.01320980768650770187377929687500f,0.00499561009928584098815917968750f,-0.03957488387823104858398437500000f,-0.04497081041336059570312500000000f,0.25662603974342346191406250000000f,-0.07472848147153854370117187500000f,-0.05837649479508399963378906250000f,-0.04540010541677474975585937500000f,-0.00954917166382074356079101562500f,-0.09259262681007385253906250000000f,0.00779717415571212768554687500000f,0.02933904342353343963623046875000f,0.02245932444930076599121093750000f,-0.03796612471342086791992187500000f,0.08071669936180114746093750000000f,-0.01572178862988948822021484375000f,-0.04126746207475662231445312500000f,0.01828958839178085327148437500000f,0.10640905797481536865234375000000f,-0.00699276058003306388854980468750f,-0.16532535851001739501953125000000f,0.04293414577841758728027343750000f,0.01203319150954484939575195312500f,-0.02208598703145980834960937500000f,0.02539887838065624237060546875000f,-0.00030407716985791921615600585938f,0.04902698844671249389648437500000f,-0.01749862171709537506103515625000f,0.01583274640142917633056640625000f,0.13646696507930755615234375000000f,0.06372383981943130493164062500000f,-0.13790366053581237792968750000000f,0.03637445718050003051757812500000f,0.04324239864945411682128906250000f,-0.00534067163243889808654785156250f,0.09235944598913192749023437500000f,0.03162563219666481018066406250000f,0.04952237382531166076660156250000f,0.02045887336134910583496093750000f,-0.01439245231449604034423828125000f,-0.04546508193016052246093750000000f,-0.03128868713974952697753906250000f,0.02676499448716640472412109375000f,-0.04626543819904327392578125000000f,0.03683996945619583129882812500000f,-0.02200242877006530761718750000000f,0.07461976259946823120117187500000f,-0.10928829759359359741210937500000f,0.20834106206893920898437500000000f,-0.03919329121708869934082031250000f,-0.03577156364917755126953125000000f,0.06763513386249542236328125000000f,-0.02368508465588092803955078125000f,0.03384007140994071960449218750000f,0.03543522953987121582031250000000f,-0.04540362954139709472656250000000f,-0.01250736508518457412719726562500f,0.00051444361452013254165649414062f,-0.01805673539638519287109375000000f,0.01439903955906629562377929687500f,0.03818874806165695190429687500000f,0.01342461537569761276245117187500f,-0.01487310230731964111328125000000f,0.03925983235239982604980468750000f,-0.04254971444606781005859375000000f,0.01757083646953105926513671875000f,-0.03101192973554134368896484375000f,-0.04287442937493324279785156250000f,0.05797722563147544860839843750000f,0.04181574285030364990234375000000f,-0.01271551754325628280639648437500f,-0.08954501897096633911132812500000f,-0.03584085777401924133300781250000f,-0.02155512385070323944091796875000f,0.00322587299160659313201904296875f,-0.02822985313832759857177734375000f,0.01803098246455192565917968750000f,-0.16897709667682647705078125000000f,-0.01830742321908473968505859375000f,0.00506129814311861991882324218750f,-0.10693201422691345214843750000000f,0.06351879239082336425781250000000f,0.04115223139524459838867187500000f,0.03454140946269035339355468750000f,-0.18318766355514526367187500000000f,0.02734723128378391265869140625000f,-0.04557977989315986633300781250000f,-0.04614225402474403381347656250000f,-0.00628336099907755851745605468750f,-0.01874586194753646850585937500000f,0.01919173449277877807617187500000f,0.06552754342555999755859375000000f,0.00589915411546826362609863281250f,-0.04691636562347412109375000000000f,-0.00472095608711242675781250000000f,0.03081692196428775787353515625000f,0.12662167847156524658203125000000f,-0.03887287899851799011230468750000f,0.07026702165603637695312500000000f,0.05006310716271400451660156250000f,0.10284774005413055419921875000000f,-0.03776396065950393676757812500000f,0.02332125976681709289550781250000f,-0.11780038475990295410156250000000f,-0.02669224888086318969726562500000f,0.02521094493567943572998046875000f,-0.02108581364154815673828125000000f,0.00301758246496319770812988281250f,0.02462435699999332427978515625000f,0.00795479398220777511596679687500f,-0.01976567693054676055908203125000f,-0.01326291635632514953613281250000f,0.08583872020244598388671875000000f,-0.04101132974028587341308593750000f,-0.06399071961641311645507812500000f,0.00557242054492235183715820312500f,0.02653797157108783721923828125000f,-0.00607725838199257850646972656250f,0.05049499496817588806152343750000f,0.10176580399274826049804687500000f,0.05056964233517646789550781250000f,-0.13542169332504272460937500000000f,-0.06708294898271560668945312500000f,0.00644214916974306106567382812500f,-0.07229434698820114135742187500000f,-0.05170980468392372131347656250000f,0.09036792814731597900390625000000f,0.04406784847378730773925781250000f,0.00633892882615327835083007812500f,-0.04458777233958244323730468750000f,-0.01194191630929708480834960937500f,-0.09841350466012954711914062500000f,-0.02968599647283554077148437500000f,-0.11267059296369552612304687500000f,-0.17215998470783233642578125000000f,-0.07908837497234344482421875000000f,0.04779806733131408691406250000000f,0.02763971500098705291748046875000f,-0.01442309282720088958740234375000f,-0.09527225792407989501953125000000f,-0.01105019543319940567016601562500f,-0.05634225904941558837890625000000f,0.03631630167365074157714843750000f,0.03292330354452133178710937500000f,-0.02065458148717880249023437500000f,-0.04129326343536376953125000000000f,-0.03806078061461448669433593750000f,-0.01083193626254796981811523437500f,0.03923784941434860229492187500000f,-0.00243795919232070446014404296875f,0.03103321231901645660400390625000f,-0.03507510945200920104980468750000f,-0.00485567934811115264892578125000f,-0.17093540728092193603515625000000f,0.01648057438433170318603515625000f,0.06138600036501884460449218750000f,0.04630804434418678283691406250000f,-0.02801785431802272796630859375000f,-0.05435478687286376953125000000000f,-0.08834201842546463012695312500000f,0.11227322369813919067382812500000f,0.06130106374621391296386718750000f,-0.00549740390852093696594238281250f,0.06108310818672180175781250000000f,-0.02151618897914886474609375000000f,-0.00134720886126160621643066406250f,0.02725426293909549713134765625000f,-0.01529949996620416641235351562500f,-0.05410963296890258789062500000000f,0.04432373866438865661621093750000f,0.22263365983963012695312500000000f,0.05086832493543624877929687500000f,0.03471786901354789733886718750000f,-0.06014667823910713195800781250000f,0.00063695444259792566299438476562f,0.06480167806148529052734375000000f,-0.01899143122136592864990234375000f,0.04211195558309555053710937500000f,-0.06783477216958999633789062500000f,0.02155098877847194671630859375000f,-0.01725216396152973175048828125000f,0.00523787550628185272216796875000f,0.00221171136945486068725585937500f,-0.11816887557506561279296875000000f,-0.01949590817093849182128906250000f,-0.02782944403588771820068359375000f,-0.11108636856079101562500000000000f,-0.00603743642568588256835937500000f,0.08415937423706054687500000000000f,0.05494353547692298889160156250000f,0.03669372946023941040039062500000f,-0.00577085092663764953613281250000f,0.00781350303441286087036132812500f,0.04534680023789405822753906250000f,-0.01452396903187036514282226562500f,0.01022629439830780029296875000000f,0.03438808396458625793457031250000f,-0.03191655874252319335937500000000f,0.02708621509373188018798828125000f,-0.09731240570545196533203125000000f,-0.04894531890749931335449218750000f,0.01840524934232234954833984375000f,-0.03581700846552848815917968750000f,0.00327724707312881946563720703125f,-0.02216709777712821960449218750000f,0.04520990699529647827148437500000f,-0.01759097725152969360351562500000f,0.00000933584033191436901688575745f,-0.09837563335895538330078125000000f,0.14066112041473388671875000000000f,-0.08840258419513702392578125000000f,-0.08600933104753494262695312500000f,-0.01300670951604843139648437500000f,0.00529588200151920318603515625000f,0.00142689724452793598175048828125f,0.05421591550111770629882812500000f,0.02986096777021884918212890625000f,0.00178692839108407497406005859375f,0.13003897666931152343750000000000f,0.11595448106527328491210937500000f,-0.01744865812361240386962890625000f,0.04451533406972885131835937500000f,0.03951597213745117187500000000000f,0.00142590957693755626678466796875f,-0.00970664992928504943847656250000f,-0.00547660281881690025329589843750f,-0.00825831294059753417968750000000f,-0.02412818931043148040771484375000f,-0.04512594267725944519042968750000f,-0.01968506164848804473876953125000f,-0.05704110860824584960937500000000f,-0.11724711209535598754882812500000f,0.01604545861482620239257812500000f,-0.01412804797291755676269531250000f,0.03811299800872802734375000000000f,-0.00728179560974240303039550781250f,-0.02995600923895835876464843750000f,0.01835265569388866424560546875000f,0.01411404553800821304321289062500f,0.04094273597002029418945312500000f,0.04963575303554534912109375000000f,-0.01471991091966629028320312500000f,0.15544083714485168457031250000000f,-0.02326063066720962524414062500000f,-0.05890132114291191101074218750000f,0.04084859043359756469726562500000f,-0.11686163395643234252929687500000f,-0.01013905648142099380493164062500f,0.01356043107807636260986328125000f,-0.03519696369767189025878906250000f,0.10279362648725509643554687500000f,-0.00083482038462534546852111816406f,0.06947505474090576171875000000000f,-0.03259675949811935424804687500000f,0.01305039972066879272460937500000f,-0.02247076481580734252929687500000f,0.00272722169756889343261718750000f,0.05195217579603195190429687500000f,-0.08076719939708709716796875000000f,0.03560187667608261108398437500000f,0.14081007242202758789062500000000f,0.00164224475156515836715698242188f,-0.03990808501839637756347656250000f,-0.01436616759747266769409179687500f,0.03654539957642555236816406250000f,-0.01265856903046369552612304687500f,-0.00043788115726783871650695800781f,0.01143900584429502487182617187500f,-0.05889178067445755004882812500000f,-0.00264890980906784534454345703125f,0.11977226287126541137695312500000f,-0.02090485766530036926269531250000f,-0.03072085231542587280273437500000f,0.03590794652700424194335937500000f,-0.04948682337999343872070312500000f,0.00595279317349195480346679687500f,-0.09215334802865982055664062500000f,-0.03103701956570148468017578125000f,-0.02543267048895359039306640625000f,-0.01031201053410768508911132812500f,0.08091016858816146850585937500000f,0.03178579360246658325195312500000f,0.02980574965476989746093750000000f,-0.01075939275324344635009765625000f,-0.03649289906024932861328125000000f,0.08435145020484924316406250000000f,0.12975980341434478759765625000000f,0.00558254914358258247375488281250f,-0.03003831394016742706298828125000f,0.03337569162249565124511718750000f,-0.00520201725885272026062011718750f,0.04617145657539367675781250000000f,0.01957137882709503173828125000000f,0.02366727218031883239746093750000f,-0.02093324065208435058593750000000f,-0.01597110740840435028076171875000f,-0.04631356522440910339355468750000f,-0.10443843901157379150390625000000f,-0.07018660753965377807617187500000f,0.01566466875374317169189453125000f,0.01835176348686218261718750000000f,-0.06920965760946273803710937500000f,-0.00569543940946459770202636718750f,-0.08513087034225463867187500000000f,0.09408585727214813232421875000000f,0.04091889783740043640136718750000f,-0.02598115056753158569335937500000f,0.10650105029344558715820312500000f,0.02011023461818695068359375000000f,0.01870951615273952484130859375000f,0.04714166373014450073242187500000f,0.05539234355092048645019531250000f,0.00023302603221964091062545776367f,0.04956044629216194152832031250000f,0.01078395172953605651855468750000f,-0.02091373689472675323486328125000f,-0.01659726724028587341308593750000f,0.03945447131991386413574218750000f,-0.06384707242250442504882812500000f,-0.05733281373977661132812500000000f,0.00177450978662818670272827148438f,-0.03461588174104690551757812500000f,0.03427091240882873535156250000000f,0.02565088495612144470214843750000f,0.03153307735919952392578125000000f,0.03196995332837104797363281250000f,0.00549476314336061477661132812500f,-0.07341146469116210937500000000000f,0.01976152695715427398681640625000f,0.09846283495426177978515625000000f,-0.03423168882727622985839843750000f,-0.00062229501781985163688659667969f,0.04799656197428703308105468750000f,-0.14254914224147796630859375000000f,0.00369511870667338371276855468750f,0.00353152072057127952575683593750f,0.00768281612545251846313476562500f,-0.02666006609797477722167968750000f,-0.04504667595028877258300781250000f,0.01251920871436595916748046875000f,-0.13701218366622924804687500000000f,-0.01059240009635686874389648437500f,-0.04123645648360252380371093750000f,-0.12596955895423889160156250000000f,-0.06052796170115470886230468750000f,0.02106083557009696960449218750000f,-0.05786126479506492614746093750000f,0.02810527384281158447265625000000f,-0.00889733713120222091674804687500f,-0.01817352324724197387695312500000f,0.00997217744588851928710937500000f,0.00447063008323311805725097656250f,0.03708793222904205322265625000000f,-0.00788456480950117111206054687500f,0.00162066775374114513397216796875f,0.04718077555298805236816406250000f,0.10117159783840179443359375000000f,-0.01711037196218967437744140625000f,0.01472344528883695602416992187500f,-0.07264167070388793945312500000000f,-0.00288434606045484542846679687500f,-0.06282687932252883911132812500000f,-0.02986071631312370300292968750000f,-0.02921663224697113037109375000000f,-0.04167343676090240478515625000000f,0.05961309000849723815917968750000f,0.00707966648042201995849609375000f,-0.21434846520423889160156250000000f,-0.04042564332485198974609375000000f,0.02016093209385871887207031250000f,0.00329192983917891979217529296875f,-0.05344378948211669921875000000000f,0.07335004210472106933593750000000f,0.10648954659700393676757812500000f,-0.03013213910162448883056640625000f,-0.09453642368316650390625000000000f,-0.09814985096454620361328125000000f,0.19865126907825469970703125000000f,-0.21852070093154907226562500000000f,0.06836143881082534790039062500000f,0.02558858133852481842041015625000f,0.04450496658682823181152343750000f,-0.09393405914306640625000000000000f,-0.09216026216745376586914062500000f,0.02480184659361839294433593750000f,0.06990641355514526367187500000000f,-0.12044890224933624267578125000000f,0.05290854722261428833007812500000f,0.10163843631744384765625000000000f,-0.05362540483474731445312500000000f,0.16484172642230987548828125000000f,-0.09903583675622940063476562500000f,-0.04654085263609886169433593750000f,0.00310803926549851894378662109375f,0.03464943543076515197753906250000f,0.08954119682312011718750000000000f,-0.09784156829118728637695312500000f,0.00395777169615030288696289062500f,-0.16031566262245178222656250000000f,-0.02499809488654136657714843750000f,0.01024794392287731170654296875000f,0.02213061228394508361816406250000f,-0.27345210313796997070312500000000f,0.07863723486661911010742187500000f,-0.18785634636878967285156250000000f,-0.07730069756507873535156250000000f,-0.06778699904680252075195312500000f,0.06123711168766021728515625000000f,0.05903364717960357666015625000000f,-0.00487597845494747161865234375000f,0.08626797795295715332031250000000f,0.13190545141696929931640625000000f,-0.06982104480266571044921875000000f,-0.00887217372655868530273437500000f,0.17905078828334808349609375000000f,0.07068151980638504028320312500000f,-0.10100236535072326660156250000000f,-0.03350985050201416015625000000000f,-0.06859713792800903320312500000000f,-0.05426326766610145568847656250000f,0.12262604385614395141601562500000f,0.12080615013837814331054687500000f,-0.10964434593915939331054687500000f,0.00832184683531522750854492187500f,-0.02321713604032993316650390625000f,-0.04897599294781684875488281250000f,-0.03940863534808158874511718750000f,-0.01224281545728445053100585937500f,0.08440748602151870727539062500000f,0.02691028825938701629638671875000f,-0.03158017620444297790527343750000f,-0.14101673662662506103515625000000f,0.08181399106979370117187500000000f,0.01410849578678607940673828125000f,0.04227378964424133300781250000000f,0.07374339550733566284179687500000f,-0.16961044073104858398437500000000f,0.28178918361663818359375000000000f,-0.04732158035039901733398437500000f,0.15388180315494537353515625000000f,-0.04026965796947479248046875000000f,-0.01486829109489917755126953125000f,0.07823358476161956787109375000000f,-0.04571020603179931640625000000000f,0.01869504153728485107421875000000f,-0.05775985866785049438476562500000f,-0.00977852474898099899291992187500f,0.13560128211975097656250000000000f,-0.06767405569553375244140625000000f,0.02193146944046020507812500000000f,-0.03449873998761177062988281250000f,0.05688682571053504943847656250000f,-0.07306575030088424682617187500000f,0.05556676164269447326660156250000f,-0.09728648513555526733398437500000f,-0.09390851110219955444335937500000f,0.03884479776024818420410156250000f,0.11689700186252593994140625000000f,-0.11453766375780105590820312500000f,0.01680275611579418182373046875000f,0.10945504158735275268554687500000f,0.08119089901447296142578125000000f,0.07392094284296035766601562500000f,-0.04955159127712249755859375000000f,0.09391802549362182617187500000000f,-0.13207861781120300292968750000000f,0.09901830554008483886718750000000f,0.12598083913326263427734375000000f,-0.21974824368953704833984375000000f,-0.04454486444592475891113281250000f,-0.21754305064678192138671875000000f,-0.05624512583017349243164062500000f,-0.05304221063852310180664062500000f,0.02034276723861694335937500000000f,-0.06565766036510467529296875000000f,-0.00177213782444596290588378906250f,-0.04914470762014389038085937500000f,-0.03509438410401344299316406250000f,0.02769797481596469879150390625000f,-0.02506629563868045806884765625000f,-0.00932332966476678848266601562500f,-0.08200202137231826782226562500000f,-0.13917659223079681396484375000000f,0.00020611187210306525230407714844f,0.09377285838127136230468750000000f,-0.13246165215969085693359375000000f,0.15959490835666656494140625000000f,-0.03978772461414337158203125000000f,-0.04875149950385093688964843750000f,0.01801943033933639526367187500000f,-0.00858279317617416381835937500000f,0.00275845453143119812011718750000f,-0.00290871690958738327026367187500f,0.01361632719635963439941406250000f,-0.02335181273519992828369140625000f,0.27650114893913269042968750000000f,0.08860538899898529052734375000000f,-0.03026279807090759277343750000000f,-0.00601178640499711036682128906250f,-0.07364829629659652709960937500000f,-0.33945855498313903808593750000000f,0.07543428987264633178710937500000f,0.03938014060258865356445312500000f,0.04213826358318328857421875000000f,0.07014927268028259277343750000000f,-0.04480122774839401245117187500000f,0.15555389225482940673828125000000f,0.00392909022048115730285644531250f,0.06051306053996086120605468750000f,-0.00546343903988599777221679687500f,0.03537701815366744995117187500000f,-0.00985463708639144897460937500000f,-0.01172626856714487075805664062500f,0.05356660112738609313964843750000f,-0.04865276440978050231933593750000f,-0.03576276451349258422851562500000f,-0.05720750615000724792480468750000f,-0.11586107313632965087890625000000f,-0.03608594834804534912109375000000f,-0.00663831038400530815124511718750f,0.03450921922922134399414062500000f,0.05194946005940437316894531250000f,-0.02330535463988780975341796875000f,-0.02219911664724349975585937500000f,-0.02444334328174591064453125000000f,-0.14630486071109771728515625000000f,-0.13310508430004119873046875000000f,0.01333709433674812316894531250000f,-0.13989712297916412353515625000000f,-0.29974159598350524902343750000000f,-0.01113943941891193389892578125000f,0.09675300121307373046875000000000f,0.03053481876850128173828125000000f,-0.06148129329085350036621093750000f,0.05244580283761024475097656250000f,0.03318640589714050292968750000000f,0.07788638770580291748046875000000f,-0.02709488198161125183105468750000f,-0.00747244153171777725219726562500f,0.20070061087608337402343750000000f,-0.15691487491130828857421875000000f,0.15455730259418487548828125000000f,-0.02137292362749576568603515625000f,0.14237166941165924072265625000000f,0.03173268958926200866699218750000f,0.01580386795103549957275390625000f,-0.03374986350536346435546875000000f,0.02469441480934619903564453125000f,-0.05010717734694480895996093750000f,-0.06007400155067443847656250000000f,-0.00447666505351662635803222656250f,-0.04172196984291076660156250000000f,0.02733155339956283569335937500000f,0.04351520538330078125000000000000f,0.06114719063043594360351562500000f,-0.00208592112176120281219482421875f,-0.00745473103597760200500488281250f,0.00057017308427020907402038574219f,-0.05229804664850234985351562500000f,-0.01475836802273988723754882812500f,-0.02647307515144348144531250000000f,0.06646870076656341552734375000000f,0.02410938218235969543457031250000f,-0.06778313964605331420898437500000f,0.04322857782244682312011718750000f,0.20578648149967193603515625000000f,0.04317263141274452209472656250000f,0.04780257120728492736816406250000f,-0.00575061375275254249572753906250f,-0.00356123107485473155975341796875f,-0.00812904909253120422363281250000f,-0.04350327700376510620117187500000f,0.06573190540075302124023437500000f,0.01787333004176616668701171875000f,0.01829133182764053344726562500000f,-0.42117139697074890136718750000000f,-0.02892007678747177124023437500000f,0.06830196082592010498046875000000f,0.03225307539105415344238281250000f,0.24743618071079254150390625000000f,0.00538035621866583824157714843750f,0.01152515970170497894287109375000f,0.02202674746513366699218750000000f,-0.06311085820198059082031250000000f,0.04352382197976112365722656250000f,0.09277027100324630737304687500000f,-0.05451831966638565063476562500000f,-0.01704051531851291656494140625000f,-0.02732431702315807342529296875000f,0.11181214451789855957031250000000f,-0.02043658867478370666503906250000f,-0.00302578927949070930480957031250f,0.02543611265718936920166015625000f,0.15929722785949707031250000000000f,-0.06799338757991790771484375000000f,-0.04969111457467079162597656250000f,0.14162732660770416259765625000000f,-0.01014082878828048706054687500000f,-0.09361449629068374633789062500000f,-0.05677308142185211181640625000000f,-0.01628840900957584381103515625000f,-0.00457910308614373207092285156250f,-0.20693182945251464843750000000000f,0.00767716672271490097045898437500f,-0.03222380578517913818359375000000f,0.20440228283405303955078125000000f,-0.03970675170421600341796875000000f,-0.02884376794099807739257812500000f,0.01448918227106332778930664062500f,-0.00662488723173737525939941406250f,-0.19388149678707122802734375000000f,0.00043652686872519552707672119141f,-0.06351935863494873046875000000000f,-0.06234752759337425231933593750000f,0.02537431754171848297119140625000f,0.06086551025509834289550781250000f,0.00596232945099472999572753906250f,-0.07571163773536682128906250000000f,-0.00901964772492647171020507812500f,0.00109775306191295385360717773438f,0.01694863289594650268554687500000f,0.01263147965073585510253906250000f,0.00773888593539595603942871093750f,0.00880009867250919342041015625000f,0.00416861334815621376037597656250f,0.07388458400964736938476562500000f,0.13015426695346832275390625000000f,-0.02437404729425907135009765625000f,-0.02951017767190933227539062500000f,0.31285455822944641113281250000000f,0.04693888500332832336425781250000f,-0.04983817413449287414550781250000f,0.02191367559134960174560546875000f,0.09664641320705413818359375000000f,0.03248339518904685974121093750000f,-0.00052009121282026171684265136719f,0.00965704955160617828369140625000f,0.11635389924049377441406250000000f,-0.02229317836463451385498046875000f,0.00379349547438323497772216796875f,0.01688002236187458038330078125000f,-0.01501890365034341812133789062500f,-0.01671414449810981750488281250000f,0.00677712121978402137756347656250f,0.01933644898235797882080078125000f,-0.02899520844221115112304687500000f,0.08821585774421691894531250000000f,0.04155924171209335327148437500000f,-0.01930922456085681915283203125000f,-0.04592278599739074707031250000000f,-0.02161357924342155456542968750000f,0.08068849146366119384765625000000f,0.01352291554212570190429687500000f,0.01331540476530790328979492187500f,0.00034261215478181838989257812500f,0.17790159583091735839843750000000f,0.02818430960178375244140625000000f,-0.02235962823033332824707031250000f,0.21843025088310241699218750000000f,0.00312578212469816207885742187500f,0.10635942220687866210937500000000f,0.01198166515678167343139648437500f,0.00317929382435977458953857421875f,0.00650853523984551429748535156250f,-0.07625188678503036499023437500000f,0.01910629682242870330810546875000f,0.02269017323851585388183593750000f,0.00293481512926518917083740234375f,-0.01863464713096618652343750000000f,-0.03058025799691677093505859375000f,-0.08300527185201644897460937500000f,-0.02637729234993457794189453125000f,-0.03852347657084465026855468750000f,0.07204192876815795898437500000000f,0.01093783508986234664916992187500f,-0.00881181657314300537109375000000f,-0.21147461235523223876953125000000f,-0.02603148855268955230712890625000f,-0.01266018301248550415039062500000f,-0.02819082327187061309814453125000f,0.02742065303027629852294921875000f,0.08974989503622055053710937500000f,0.01449097786098718643188476562500f,0.00068325462052598595619201660156f,-0.05109905079007148742675781250000f,0.06285315752029418945312500000000f,-0.01888257823884487152099609375000f,-0.04296920821070671081542968750000f,0.00753667857497930526733398437500f,-0.06173390895128250122070312500000f,-0.01563725806772708892822265625000f,0.00379018275998532772064208984375f,-0.00001045223780238302424550056458f,0.04667589813470840454101562500000f,-0.01857458055019378662109375000000f,-0.08359042555093765258789062500000f,0.00696985097602009773254394531250f,0.01816913299262523651123046875000f,0.11010551452636718750000000000000f,-0.06241432204842567443847656250000f,0.01373934838920831680297851562500f,0.30640253424644470214843750000000f,-0.00301701924763619899749755859375f,0.01108622364699840545654296875000f,-0.05476773902773857116699218750000f,-0.04847185686230659484863281250000f,-0.06240149587392807006835937500000f,-0.01089569926261901855468750000000f,0.03625309839844703674316406250000f,-0.04861633852124214172363281250000f,-0.00746608059853315353393554687500f,0.01304651051759719848632812500000f,0.01439541578292846679687500000000f,0.05953993275761604309082031250000f,0.02086383476853370666503906250000f,-0.00630415882915258407592773437500f,-0.01233363337814807891845703125000f,-0.02706766314804553985595703125000f,0.02137168869376182556152343750000f,-0.02632892131805419921875000000000f,-0.03313224762678146362304687500000f,-0.06842368096113204956054687500000f,-0.04429866001009941101074218750000f,-0.03963708132505416870117187500000f,0.00517298141494393348693847656250f,-0.00838705059140920639038085937500f,-0.06270314007997512817382812500000f,0.03812976926565170288085937500000f,0.03521841019392013549804687500000f,0.02230591513216495513916015625000f,-0.03321867063641548156738281250000f,-0.02229069545865058898925781250000f,-0.03535179793834686279296875000000f,-0.03733435273170471191406250000000f,-0.00943521037697792053222656250000f,-0.00617516972124576568603515625000f,-0.01348386425524950027465820312500f,-0.01679383963346481323242187500000f,-0.03841919079422950744628906250000f,-0.02157039381563663482666015625000f,-0.03443372622132301330566406250000f,0.03722095862030982971191406250000f,0.02976682595908641815185546875000f,0.13175772130489349365234375000000f,0.04333041608333587646484375000000f,0.02593993209302425384521484375000f,0.05850395560264587402343750000000f,0.03949504718184471130371093750000f,-0.03019415959715843200683593750000f,-0.02030130475759506225585937500000f,-0.01548823900520801544189453125000f,-0.00198042206466197967529296875000f,-0.03721817955374717712402343750000f,0.03463840484619140625000000000000f,0.02411356568336486816406250000000f,0.03840838000178337097167968750000f,0.00673149572685360908508300781250f,0.02066085860133171081542968750000f,0.05997990816831588745117187500000f,-0.01038427837193012237548828125000f,0.01879587396979331970214843750000f,0.01229889411479234695434570312500f,0.01768428273499011993408203125000f,-0.04072606563568115234375000000000f,0.05289604887366294860839843750000f,-0.23940476775169372558593750000000f,-0.10456882417201995849609375000000f,0.06437087059020996093750000000000f,0.00258032209239900112152099609375f,-0.02028390578925609588623046875000f,0.05014452710747718811035156250000f,0.01116999518126249313354492187500f,0.00349076790735125541687011718750f,0.02811075560748577117919921875000f,0.03586497530341148376464843750000f,0.06350918114185333251953125000000f,0.01981104351580142974853515625000f,-0.12854924798011779785156250000000f,0.02707767300307750701904296875000f,-0.04665105044841766357421875000000f,0.01906860992312431335449218750000f,0.00771259190514683723449707031250f,0.01190424431115388870239257812500f,-0.04797818139195442199707031250000f,0.01650738529860973358154296875000f,0.02727243676781654357910156250000f,-0.03896943107247352600097656250000f,0.04305249080061912536621093750000f,-0.01442500390112400054931640625000f,-0.01205002516508102416992187500000f,0.02893768996000289916992187500000f,-0.00054806278785690665245056152344f,-0.03790353238582611083984375000000f,-0.00082660274347290396690368652344f,0.04813725501298904418945312500000f,0.01149921584874391555786132812500f,0.02376877889037132263183593750000f,-0.02693587727844715118408203125000f,0.00281673902645707130432128906250f,-0.04766874760389328002929687500000f,0.03600040450692176818847656250000f,-0.02146508544683456420898437500000f,0.04214694723486900329589843750000f,0.17592135071754455566406250000000f,-0.07429906725883483886718750000000f,0.06764657050371170043945312500000f,0.02213312126696109771728515625000f,0.05683608725666999816894531250000f,0.00507588312029838562011718750000f,-0.07291698455810546875000000000000f,0.05798912420868873596191406250000f,0.19725465774536132812500000000000f,0.01712935976684093475341796875000f,0.02663205005228519439697265625000f,0.01673275418579578399658203125000f,-0.03493996337056159973144531250000f,-0.04716315865516662597656250000000f,0.01641517505049705505371093750000f,-0.02489337697625160217285156250000f,0.01319865789264440536499023437500f,-0.03503330051898956298828125000000f,-0.07323505729436874389648437500000f,0.00542742572724819183349609375000f,0.12311261892318725585937500000000f,-0.01869443990290164947509765625000f,0.03574301674962043762207031250000f,0.13604223728179931640625000000000f,0.01077647227793931961059570312500f,-0.00211626896634697914123535156250f,-0.01689220219850540161132812500000f,-0.00163435668218880891799926757812f,0.01850773207843303680419921875000f,0.05816056206822395324707031250000f,-0.00775128416717052459716796875000f,-0.11209207773208618164062500000000f,0.00683998223394155502319335937500f,-0.00745616760104894638061523437500f,0.00063554191729053854942321777344f,-0.02566185407340526580810546875000f,-0.10879631340503692626953125000000f,0.00947339832782745361328125000000f,-0.00077158014755696058273315429688f,0.01951155811548233032226562500000f,-0.02599989995360374450683593750000f,-0.01523911487311124801635742187500f,-0.02892092801630496978759765625000f,0.01697268150746822357177734375000f,-0.03971126303076744079589843750000f,-0.01336398813873529434204101562500f,0.00493451440706849098205566406250f,0.10332824289798736572265625000000f,0.04902177304029464721679687500000f,0.03545725345611572265625000000000f,-0.02722224965691566467285156250000f,-0.01587663218379020690917968750000f,0.05575194582343101501464843750000f,0.04484043270349502563476562500000f,-0.02680585533380508422851562500000f,0.02974673733115196228027343750000f,-0.01393301319330930709838867187500f,0.31749844551086425781250000000000f,0.07030987739562988281250000000000f,-0.01974367909133434295654296875000f,0.02754058502614498138427734375000f,0.01358748134225606918334960937500f,-0.04678229242563247680664062500000f,-0.05385456979274749755859375000000f,0.00520792743191123008728027343750f,-0.02988161146640777587890625000000f,-0.02005923353135585784912109375000f,-0.01758050359785556793212890625000f,0.00359909678809344768524169921875f,0.00933717098087072372436523437500f,-0.05482720956206321716308593750000f,-0.02061904221773147583007812500000f,-0.02632866986095905303955078125000f,-0.00955520477145910263061523437500f,0.00379247451201081275939941406250f,0.02484191022813320159912109375000f,-0.12453677505254745483398437500000f,0.06784759461879730224609375000000f,0.00366320158354938030242919921875f,-0.05701536685228347778320312500000f,-0.10294636338949203491210937500000f,0.05663964897394180297851562500000f,0.01084102876484394073486328125000f,0.05076414719223976135253906250000f,0.00152078131213784217834472656250f,0.05582014471292495727539062500000f,-0.07471113651990890502929687500000f,-0.14672641456127166748046875000000f,-0.00643663201481103897094726562500f,-0.12182714045047760009765625000000f,-0.02484467625617980957031250000000f,0.08745338767766952514648437500000f,-0.03398160263895988464355468750000f,-0.01961878687143325805664062500000f,-0.02981187589466571807861328125000f,-0.07814538478851318359375000000000f,-0.19103586673736572265625000000000f,0.00524553097784519195556640625000f,0.15757703781127929687500000000000f,0.02861616574227809906005859375000f,0.10538996756076812744140625000000f,-0.07203315198421478271484375000000f,0.02566925249993801116943359375000f,0.04337417334318161010742187500000f,-0.04272107407450675964355468750000f,-0.17016586661338806152343750000000f,-0.00313887069933116436004638671875f,-0.15232840180397033691406250000000f,-0.01613788679242134094238281250000f,0.10618774592876434326171875000000f,0.41478884220123291015625000000000f,-0.06162881106138229370117187500000f,0.01813434623181819915771484375000f,0.01404297817498445510864257812500f,-0.12082697451114654541015625000000f,0.02711596898734569549560546875000f,0.05028217285871505737304687500000f,-0.02022208832204341888427734375000f,-0.00034285578294657170772552490234f,-0.09624460339546203613281250000000f,-0.12663349509239196777343750000000f,0.04257949814200401306152343750000f,-0.27830684185028076171875000000000f,-0.00143721094354987144470214843750f,0.00673769973218441009521484375000f,0.19192968308925628662109375000000f,0.03923009708523750305175781250000f,-0.00160835846327245235443115234375f,-0.04332173988223075866699218750000f,0.10832419246435165405273437500000f,-0.01249604579061269760131835937500f,0.01087134424597024917602539062500f,0.03447504341602325439453125000000f,0.00786052364856004714965820312500f,0.01204202231019735336303710937500f,-0.07658511400222778320312500000000f,0.05678258836269378662109375000000f,-0.03946467489004135131835937500000f,0.00533634331077337265014648437500f,0.03545133769512176513671875000000f,0.05047814920544624328613281250000f,0.05726603418588638305664062500000f,0.04942982271313667297363281250000f,0.07237379252910614013671875000000f,0.02270453423261642456054687500000f,-0.02218560688197612762451171875000f,-0.54402667284011840820312500000000f,-0.16564841568470001220703125000000f,0.02283670566976070404052734375000f,0.02339800447225570678710937500000f,-0.05189380422234535217285156250000f,0.07656857371330261230468750000000f,-0.00335347559303045272827148437500f,-0.03480789437890052795410156250000f,0.01126809976994991302490234375000f,-0.02283563278615474700927734375000f,0.39567059278488159179687500000000f,0.08590172231197357177734375000000f,-0.02422986552119255065917968750000f,-0.09031598269939422607421875000000f,-0.03723525628447532653808593750000f,-0.00177161430474370718002319335938f,-0.03559553995728492736816406250000f,0.03930066153407096862792968750000f,0.16510185599327087402343750000000f,-0.07469106465578079223632812500000f,0.06217072904109954833984375000000f,0.02017966099083423614501953125000f,-0.01684269495308399200439453125000f,-0.02335436828434467315673828125000f,0.08056996017694473266601562500000f,0.06058916822075843811035156250000f,0.03403405845165252685546875000000f,-0.05251124501228332519531250000000f,-0.23567996919155120849609375000000f,-0.01922658830881118774414062500000f,0.03788368403911590576171875000000f,0.17777536809444427490234375000000f,-0.01846770755946636199951171875000f,0.24012164771556854248046875000000f,-0.09167879819869995117187500000000f,-0.00932544842362403869628906250000f,0.01013567484915256500244140625000f,0.10289056599140167236328125000000f,-0.06382026523351669311523437500000f,-0.11404752731323242187500000000000f,-0.16818526387214660644531250000000f,0.01360892970114946365356445312500f,0.00470773316919803619384765625000f,0.00920255854725837707519531250000f,0.10337756574153900146484375000000f,0.29975163936614990234375000000000f,0.05166253820061683654785156250000f,0.15806575119495391845703125000000f,-0.05124282091856002807617187500000f,0.00566630158573389053344726562500f,0.00573161058127880096435546875000f,-0.05052698403596878051757812500000f,-0.06321680545806884765625000000000f,0.01333595812320709228515625000000f,0.01148807816207408905029296875000f,0.00397323397919535636901855468750f,0.06163639947772026062011718750000f,-0.03238957375288009643554687500000f,0.00315572670660912990570068359375f,0.04522337764501571655273437500000f,0.05267406627535820007324218750000f,0.00049989181570708751678466796875f,-0.02502994425594806671142578125000f,0.09016127139329910278320312500000f,0.02862978540360927581787109375000f,-0.11289349198341369628906250000000f,-0.01551974471658468246459960937500f,0.03343487158417701721191406250000f,0.01426158566027879714965820312500f,-0.00689604505896568298339843750000f,-0.03483486548066139221191406250000f,-0.00984676834195852279663085937500f,-0.03527154773473739624023437500000f,-0.01894287019968032836914062500000f,0.04401623457670211791992187500000f,0.05879364162683486938476562500000f,0.01283352449536323547363281250000f,-0.04746875911951065063476562500000f,-0.01255670096725225448608398437500f,-0.00713259773328900337219238281250f,0.00036140205338597297668457031250f,-0.04963327571749687194824218750000f,-0.05084761604666709899902343750000f,-0.01115155406296253204345703125000f,0.00259190122596919536590576171875f,0.01549381762742996215820312500000f,-0.05752970278263092041015625000000f,-0.04931483045220375061035156250000f,0.00521591957658529281616210937500f,0.06269019097089767456054687500000f,0.32320222258567810058593750000000f,-0.01183289755135774612426757812500f,0.01507448218762874603271484375000f,-0.00347818643786013126373291015625f,0.09670463204383850097656250000000f,0.03098078630864620208740234375000f,-0.03315661102533340454101562500000f,0.02020626701414585113525390625000f,-0.01107951346784830093383789062500f,0.03378941863775253295898437500000f,0.00467074941843748092651367187500f,-0.01298857759684324264526367187500f,-0.00563080376014113426208496093750f,-0.03100687079131603240966796875000f,-0.00720210699364542961120605468750f,0.00144278153311461210250854492188f,-0.06606214493513107299804687500000f,0.00964272394776344299316406250000f,0.01908293738961219787597656250000f,-0.00619985628873109817504882812500f,-0.06634877622127532958984375000000f,-0.03626130521297454833984375000000f,0.03355474770069122314453125000000f,-0.02462188154458999633789062500000f,-0.08342604339122772216796875000000f,-0.01442565582692623138427734375000f,0.04591237381100654602050781250000f,-0.08024717867374420166015625000000f,0.07512708008289337158203125000000f,0.06435628980398178100585937500000f,0.00246461713686585426330566406250f,0.03846468031406402587890625000000f,0.01231136545538902282714843750000f,0.01699676364660263061523437500000f,0.01962865330278873443603515625000f,0.00515202013775706291198730468750f,-0.05644761398434638977050781250000f,-0.01000975258648395538330078125000f,-0.04131842777132987976074218750000f,-0.04597306624054908752441406250000f,-0.12832306325435638427734375000000f,-0.00530429137870669364929199218750f,0.04100464656949043273925781250000f,0.11315044015645980834960937500000f,-0.08787304908037185668945312500000f,0.02165555395185947418212890625000f,0.06328152120113372802734375000000f,-0.05096904560923576354980468750000f,-0.03347385302186012268066406250000f,0.11775501072406768798828125000000f,-0.07627622783184051513671875000000f,-0.00287141790613532066345214843750f,0.00466721411794424057006835937500f,0.15878328680992126464843750000000f,-0.05363293364644050598144531250000f,-0.01698910444974899291992187500000f,0.01773683726787567138671875000000f,0.00810617301613092422485351562500f,0.07268079370260238647460937500000f,0.03264325484633445739746093750000f,0.00590583728626370429992675781250f,0.05624276027083396911621093750000f,-0.04405212402343750000000000000000f,-0.04468136653304100036621093750000f,-0.16685387492179870605468750000000f,-0.02109581790864467620849609375000f,-0.08444563299417495727539062500000f,-0.05703976005315780639648437500000f,0.07278213649988174438476562500000f,-0.00761655531823635101318359375000f,0.10867375135421752929687500000000f,-0.04390841722488403320312500000000f,0.03675132617354393005371093750000f,0.00931253749877214431762695312500f,0.01642297953367233276367187500000f,0.00124324555508792400360107421875f,0.00376023096032440662384033203125f,0.03773835673928260803222656250000f,-0.01248254906386137008666992187500f,-0.05367401614785194396972656250000f,0.05775253847241401672363281250000f,0.02273613959550857543945312500000f,-0.02040884084999561309814453125000f,-0.02202337607741355895996093750000f,0.02479714900255203247070312500000f,0.02816672809422016143798828125000f,0.08134385943412780761718750000000f,-0.04666359722614288330078125000000f,0.03995393216609954833984375000000f,0.03107432089745998382568359375000f,-0.03368448093533515930175781250000f,-0.05840837955474853515625000000000f,0.04177299886941909790039062500000f,-0.03751052916049957275390625000000f,-0.06312530487775802612304687500000f,-0.04719831794500350952148437500000f,0.04199859872460365295410156250000f,-0.00268687237985432147979736328125f,-0.05548015981912612915039062500000f,0.01971334591507911682128906250000f,-0.01040936168283224105834960937500f,0.02425695396959781646728515625000f,0.13802371919155120849609375000000f,0.02582188323140144348144531250000f,-0.01186461467295885086059570312500f,0.02918246574699878692626953125000f,0.03924970701336860656738281250000f,0.03412380442023277282714843750000f,-0.07379133254289627075195312500000f,-0.01362802553921937942504882812500f,-0.01317448262125253677368164062500f,-0.08118902146816253662109375000000f,0.17179563641548156738281250000000f,-0.17264401912689208984375000000000f,-0.05225023999810218811035156250000f,0.03183702379465103149414062500000f,0.00412633828818798065185546875000f,-0.00710005499422550201416015625000f,0.00518296798691153526306152343750f,0.00504273222759366035461425781250f,-0.02454114146530628204345703125000f,-0.01898156479001045227050781250000f,-0.06640172749757766723632812500000f,0.25924906134605407714843750000000f,-0.01618668437004089355468750000000f,-0.01641197688877582550048828125000f,0.00770403351634740829467773437500f,0.01034609228372573852539062500000f,0.06211967021226882934570312500000f,0.03688566759228706359863281250000f,0.03298528864979743957519531250000f,0.03262440487742424011230468750000f,0.05615745484828948974609375000000f,0.02936403825879096984863281250000f,-0.01692603528499603271484375000000f,-0.16177535057067871093750000000000f,-0.00347384321503341197967529296875f,-0.03534313291311264038085937500000f,0.04690599814057350158691406250000f,0.02019752934575080871582031250000f,0.03779836744070053100585937500000f,-0.02370580099523067474365234375000f,0.04478602111339569091796875000000f,-0.02536203153431415557861328125000f,-0.00617163488641381263732910156250f,-0.01819371245801448822021484375000f,-0.01963577978312969207763671875000f,-0.24799184501171112060546875000000f,-0.03523236140608787536621093750000f,0.24323996901512145996093750000000f,0.08681263774633407592773437500000f,-0.20697113871574401855468750000000f,-0.11364504694938659667968750000000f,-0.01766048371791839599609375000000f,0.10571131110191345214843750000000f,0.11215857416391372680664062500000f,-0.02931179851293563842773437500000f,-0.22779208421707153320312500000000f,-0.09248922020196914672851562500000f,-0.05498816445469856262207031250000f,-0.03464665636420249938964843750000f,0.03980353847146034240722656250000f,0.00524774333462119102478027343750f,0.00611549150198698043823242187500f,-0.02626873552799224853515625000000f,-0.01737375371158123016357421875000f,0.03871404007077217102050781250000f,-0.01221373118460178375244140625000f,-0.05974773317575454711914062500000f,0.05823410302400588989257812500000f,0.03654997423291206359863281250000f,-0.00291412603110074996948242187500f,0.04673702269792556762695312500000f,-0.00435116654261946678161621093750f,0.04692564532160758972167968750000f,-0.01761866919696331024169921875000f,-0.01922378502786159515380859375000f,0.19809445738792419433593750000000f,-0.01792716979980468750000000000000f,-0.03732067346572875976562500000000f,-0.01878924109041690826416015625000f,-0.00010215885413344949483871459961f,-0.03467614948749542236328125000000f,0.51390755176544189453125000000000f,0.01013119053095579147338867187500f,0.01829986833035945892333984375000f,0.04550004377961158752441406250000f,0.00071060762275010347366333007812f,0.12939937412738800048828125000000f,0.00109028141014277935028076171875f,-0.03210316225886344909667968750000f,0.07854609936475753784179687500000f,-0.01357991527765989303588867187500f,-0.06670495122671127319335937500000f,0.02137038670480251312255859375000f,0.01783295907080173492431640625000f,-0.05653894692659378051757812500000f,0.01447807159274816513061523437500f,0.08422085642814636230468750000000f,0.03944157063961029052734375000000f,-0.01679902523756027221679687500000f,-0.00534942559897899627685546875000f,-0.02492520213127136230468750000000f,-0.00747024267911911010742187500000f,-0.02113086171448230743408203125000f,0.04215500503778457641601562500000f,-0.06470824033021926879882812500000f,-0.12700127065181732177734375000000f,0.14210306107997894287109375000000f,-0.02681192755699157714843750000000f,0.01866075582802295684814453125000f,0.01140062324702739715576171875000f,0.01775645092129707336425781250000f,0.00247624609619379043579101562500f,0.01294135488569736480712890625000f,0.17992894351482391357421875000000f,-0.01925792358815670013427734375000f,-0.03116074204444885253906250000000f,-0.01842076517641544342041015625000f,0.15948745608329772949218750000000f,-0.00357288261875510215759277343750f,0.04649086669087409973144531250000f,-0.19467505812644958496093750000000f,0.10685323923826217651367187500000f,0.00548534048721194267272949218750f,0.02848063968122005462646484375000f,0.24486838281154632568359375000000f,-0.06556930392980575561523437500000f,0.01011300832033157348632812500000f,0.03097507730126380920410156250000f,0.10661883652210235595703125000000f,-0.01564085483551025390625000000000f,-0.06335499137639999389648437500000f,-0.02795997448265552520751953125000f,-0.01501658000051975250244140625000f,-0.01279879361391067504882812500000f,-0.02440015040338039398193359375000f,-0.03913267329335212707519531250000f,-0.04804357513785362243652343750000f,-0.00366917857900261878967285156250f,-0.04825755208730697631835937500000f,-0.04321174323558807373046875000000f,0.01199921872466802597045898437500f,-0.02790203876793384552001953125000f,0.02141871117055416107177734375000f,0.01628507301211357116699218750000f,-0.03514872118830680847167968750000f,-0.04176788404583930969238281250000f,0.00667055230587720870971679687500f,0.01675787195563316345214843750000f,0.02674604766070842742919921875000f,0.01582837291061878204345703125000f,0.01779563724994659423828125000000f,0.03357573598623275756835937500000f,-0.02872815914452075958251953125000f,-0.01008554641157388687133789062500f,-0.00415948964655399322509765625000f,-0.01869898661971092224121093750000f,0.03959411010146141052246093750000f,0.07326002418994903564453125000000f,0.00456878729164600372314453125000f,0.04221096262335777282714843750000f,0.03317864984273910522460937500000f,0.06341468542814254760742187500000f,0.13277669250965118408203125000000f,-0.01092612836509943008422851562500f,0.01350271608680486679077148437500f,-0.00727770803496241569519042968750f,0.02161407470703125000000000000000f,-0.01586790010333061218261718750000f,-0.05335104092955589294433593750000f,-0.01757110655307769775390625000000f,0.00879017356783151626586914062500f,0.01578952558338642120361328125000f,0.04264841228723526000976562500000f,0.10019782185554504394531250000000f,0.01520241238176822662353515625000f,0.07755750417709350585937500000000f,-0.03615242242813110351562500000000f,-0.29113817214965820312500000000000f,0.08563930541276931762695312500000f,-0.04313172399997711181640625000000f,0.00719621265307068824768066406250f,-0.06076025962829589843750000000000f,0.01961231976747512817382812500000f,0.06570645421743392944335937500000f,0.05021434649825096130371093750000f,-0.05728010833263397216796875000000f,0.00705949403345584869384765625000f,0.02376308292150497436523437500000f,-0.04003059864044189453125000000000f,0.01523863431066274642944335937500f,-0.03584214299917221069335937500000f,0.00075334461871534585952758789062f,-0.04317388683557510375976562500000f,-0.01977780833840370178222656250000f,0.06410226225852966308593750000000f,-0.06227609142661094665527343750000f,0.01509515848010778427124023437500f,-0.04634256288409233093261718750000f,-0.14448101818561553955078125000000f,-0.02309152856469154357910156250000f,0.03004627674818038940429687500000f,0.04233844205737113952636718750000f,-0.03782635927200317382812500000000f,-0.00709779607132077217102050781250f,0.01444347575306892395019531250000f,0.02037431299686431884765625000000f,0.02646751143038272857666015625000f,-0.00566540798172354698181152343750f,0.00688912905752658843994140625000f,0.16257286071777343750000000000000f,-0.00045823637628927826881408691406f,0.03555154055356979370117187500000f,-0.00048742472426965832710266113281f,0.03473616391420364379882812500000f,-0.17820034921169281005859375000000f,0.00981311220675706863403320312500f,-0.00674440106377005577087402343750f,-0.14004305005073547363281250000000f,-0.05768374353647232055664062500000f,0.03001896478235721588134765625000f,-0.02749371528625488281250000000000f,-0.02968405932188034057617187500000f,-0.02663751132786273956298828125000f,-0.06311496347188949584960937500000f,0.03631128370761871337890625000000f,-0.00599806103855371475219726562500f,0.00967778172343969345092773437500f,0.03057838417589664459228515625000f,0.04706782102584838867187500000000f,0.00527268834412097930908203125000f,-0.05232070758938789367675781250000f,-0.00510044815018773078918457031250f,0.00540531007573008537292480468750f,0.33675894141197204589843750000000f,0.00892095733433961868286132812500f,-0.00999899581074714660644531250000f,-0.09083489328622817993164062500000f,-0.00810581538826227188110351562500f,-0.02046636864542961120605468750000f,-0.01969010755419731140136718750000f,0.00298446626402437686920166015625f,0.00007355003617703914642333984375f,0.04525911808013916015625000000000f,0.00400724448263645172119140625000f,-0.00093410484259948134422302246094f,-0.06810683757066726684570312500000f,-0.03482452407479286193847656250000f,-0.02011721953749656677246093750000f,-0.01121102180331945419311523437500f,0.03854675963521003723144531250000f,-0.00146235770080238580703735351562f,0.00527736777439713478088378906250f,0.01716379076242446899414062500000f,0.01812922395765781402587890625000f,-0.03459786251187324523925781250000f,-0.19267383217811584472656250000000f,0.00094962521689012646675109863281f,0.00653934152796864509582519531250f,-0.11308174580335617065429687500000f,-0.10922763496637344360351562500000f,0.04573096334934234619140625000000f,0.20086984336376190185546875000000f,-0.01787277497351169586181640625000f,-0.06872338056564331054687500000000f,0.01875427365303039550781250000000f,-0.00687528355047106742858886718750f,-0.05135966464877128601074218750000f,0.01626673713326454162597656250000f,-0.03551294282078742980957031250000f,0.04491378366947174072265625000000f,-0.02228689566254615783691406250000f,-0.07937681674957275390625000000000f,-0.04137860611081123352050781250000f,0.05177239328622817993164062500000f,0.07889813184738159179687500000000f,-0.00328128878027200698852539062500f,0.08767917752265930175781250000000f,0.00402538850903511047363281250000f,0.04749806597828865051269531250000f,-0.02832329273223876953125000000000f,0.00716769974678754806518554687500f,0.00934106949716806411743164062500f,0.02442836761474609375000000000000f,-0.01301997154951095581054687500000f,0.08972827345132827758789062500000f,0.05624888464808464050292968750000f,-0.09763772040605545043945312500000f,0.08226414769887924194335937500000f,-0.03657043352723121643066406250000f,-0.01192248612642288208007812500000f,0.01484608557075262069702148437500f,0.00445863930508494377136230468750f,0.04589450359344482421875000000000f,-0.00667530903592705726623535156250f,0.01347386650741100311279296875000f,-0.00692007131874561309814453125000f,0.06951479613780975341796875000000f,-0.05261861160397529602050781250000f,0.01177596021443605422973632812500f,-0.01104697305709123611450195312500f,0.03149489685893058776855468750000f,-0.01041551679372787475585937500000f,0.01137554924935102462768554687500f,-0.01914956793189048767089843750000f,0.03064326941967010498046875000000f,-0.01050210651010274887084960937500f,0.03096640855073928833007812500000f,-0.03023755550384521484375000000000f,-0.03853948786854743957519531250000f,0.03582013770937919616699218750000f,0.00023480755044147372245788574219f,0.03498980775475502014160156250000f,0.01689733937382698059082031250000f,0.02328449673950672149658203125000f,0.06311265379190444946289062500000f,-0.04989996179938316345214843750000f,0.00735643552616238594055175781250f,0.00332646584138274192810058593750f,0.01300581730902194976806640625000f,0.18701337277889251708984375000000f,-0.11459634453058242797851562500000f,0.10178763419389724731445312500000f,0.07988949120044708251953125000000f,0.00439970614388585090637207031250f,0.06414762884378433227539062500000f,0.06918341666460037231445312500000f,-0.06734117865562438964843750000000f,-0.06830038130283355712890625000000f,0.01735923811793327331542968750000f,0.01893594674766063690185546875000f,-0.14224545657634735107421875000000f,0.00033614729181863367557525634766f,-0.06444766372442245483398437500000f,-0.03524759784340858459472656250000f,-0.08814851194620132446289062500000f,-0.08338715136051177978515625000000f,-0.04585165530443191528320312500000f,-0.02055963128805160522460937500000f,0.11066704988479614257812500000000f,0.00948705431073904037475585937500f,-0.06027317419648170471191406250000f,-0.04727546125650405883789062500000f,0.01174554694443941116333007812500f,0.02544938586652278900146484375000f,0.13907372951507568359375000000000f,-0.01538421120494604110717773437500f,0.01557614374905824661254882812500f,0.03322361409664154052734375000000f,-0.00162734952755272388458251953125f,0.00665519526228308677673339843750f,0.00881198886781930923461914062500f,0.03214266151189804077148437500000f,0.02031002752482891082763671875000f,0.13285116851329803466796875000000f,-0.01351926010102033615112304687500f,-0.05764194205403327941894531250000f,0.00331369810737669467926025390625f,-0.12203688919544219970703125000000f,0.01183111779391765594482421875000f,-0.04091189801692962646484375000000f,0.04209396615624427795410156250000f,-0.03101043403148651123046875000000f,0.01226266846060752868652343750000f,0.01723346300423145294189453125000f,-0.00199839426204562187194824218750f,-0.07530628889799118041992187500000f,0.09759234637022018432617187500000f,-0.07128448784351348876953125000000f,-0.08576875925064086914062500000000f,0.05588218197226524353027343750000f,0.09577512741088867187500000000000f,-0.02063066326081752777099609375000f,-0.04763199016451835632324218750000f,0.03726768121123313903808593750000f,0.01244009938091039657592773437500f,-0.04394341632723808288574218750000f,-0.01587673276662826538085937500000f,-0.02991503104567527770996093750000f,0.23365044593811035156250000000000f,-0.12531799077987670898437500000000f,0.02929081954061985015869140625000f,0.02131532505154609680175781250000f,-0.16913506388664245605468750000000f,0.08463397622108459472656250000000f,-0.06032864749431610107421875000000f,0.10484725236892700195312500000000f,-0.05241223797202110290527343750000f,-0.09345373511314392089843750000000f,0.01175195351243019104003906250000f,0.11643495410680770874023437500000f,0.03145110607147216796875000000000f,0.02481041476130485534667968750000f,0.08088990300893783569335937500000f,0.11313983052968978881835937500000f,-0.03010859712958335876464843750000f,-0.00211901264265179634094238281250f,0.03447117656469345092773437500000f,-0.07087275385856628417968750000000f,0.17142260074615478515625000000000f,0.21837723255157470703125000000000f,0.09240955859422683715820312500000f,-0.01535038929432630538940429687500f,0.02884237654507160186767578125000f,-0.03532269597053527832031250000000f,0.03124870173633098602294921875000f,0.00046733504859730601310729980469f,-0.11500465869903564453125000000000f,-0.03844678774476051330566406250000f,-0.10528478026390075683593750000000f,-0.09537495672702789306640625000000f,0.02436567284166812896728515625000f,0.17751131951808929443359375000000f,-0.01573170162737369537353515625000f,0.10020484775304794311523437500000f,-0.05209076404571533203125000000000f,0.00495220487937331199645996093750f,-0.04387971013784408569335937500000f,-0.06790383160114288330078125000000f,-0.04476587474346160888671875000000f,-0.16790945827960968017578125000000f,-0.13041228055953979492187500000000f,0.06096343696117401123046875000000f,-0.10418272018432617187500000000000f,0.32057142257690429687500000000000f,-0.01947094872593879699707031250000f,-0.04834206402301788330078125000000f,0.42523550987243652343750000000000f,-0.18705317378044128417968750000000f,0.07765927910804748535156250000000f,-0.02074753306806087493896484375000f,0.05664151906967163085937500000000f,0.00302377319894731044769287109375f,0.02015984989702701568603515625000f,-0.04529170319437980651855468750000f,-0.00202078977599740028381347656250f,-0.08430405706167221069335937500000f,-0.03761437162756919860839843750000f,-0.04859272018074989318847656250000f,0.00059202458942309021949768066406f,0.08517532795667648315429687500000f,0.01989905722439289093017578125000f,-0.04453638568520545959472656250000f,-0.01220316253602504730224609375000f,0.04015154391527175903320312500000f,0.17372326552867889404296875000000f,0.04499584436416625976562500000000f,0.03094947338104248046875000000000f,-0.05072869732975959777832031250000f,0.03031213954091072082519531250000f,-0.07139618694782257080078125000000f,-0.07283046096563339233398437500000f,-0.04935903847217559814453125000000f,0.08209182322025299072265625000000f,-0.04725794121623039245605468750000f,-0.00215974473394453525543212890625f,0.04581902548670768737792968750000f,-0.03138007596135139465332031250000f,-0.13705389201641082763671875000000f,-0.01242936681956052780151367187500f,-0.02625311166048049926757812500000f,-0.02692541293799877166748046875000f,-0.10370028018951416015625000000000f,-0.23149251937866210937500000000000f,-0.19334296882152557373046875000000f,-0.00241283210925757884979248046875f,0.00448087370023131370544433593750f,0.04635836929082870483398437500000f,0.04476319998502731323242187500000f,-0.01869597658514976501464843750000f,0.00398647831752896308898925781250f,-0.00445597199723124504089355468750f,0.00937343854457139968872070312500f,-0.34339052438735961914062500000000f,-0.02454984188079833984375000000000f,-0.00103440403472632169723510742188f,0.27644371986389160156250000000000f,0.05076168105006217956542968750000f,-0.02181212976574897766113281250000f,0.18268179893493652343750000000000f,-0.13068832457065582275390625000000f,0.14391326904296875000000000000000f,-0.02409009076654911041259765625000f,0.01717903278768062591552734375000f,-0.05388878285884857177734375000000f,-0.11149456351995468139648437500000f,-0.02815691009163856506347656250000f,-0.06854078173637390136718750000000f,-0.02969907037913799285888671875000f,-0.12463784962892532348632812500000f,-0.01609293743968009948730468750000f,-0.05818693339824676513671875000000f,-0.06852398812770843505859375000000f,0.05871284753084182739257812500000f,0.14025162160396575927734375000000f,0.00895615480840206146240234375000f,0.16504217684268951416015625000000f,-0.02093482017517089843750000000000f,-0.03014514409005641937255859375000f,-0.02793272584676742553710937500000f,-0.01082731317728757858276367187500f,-0.00060331984423100948333740234375f,0.02828176878392696380615234375000f,-0.00287293666042387485504150390625f,-0.02288665436208248138427734375000f,-0.00438297772780060768127441406250f,0.02563467621803283691406250000000f,-0.03320556133985519409179687500000f,0.01790770702064037322998046875000f,0.03829990327358245849609375000000f,0.04501720145344734191894531250000f,-0.08104842901229858398437500000000f,0.01141998823732137680053710937500f,-0.06084709614515304565429687500000f,0.08991735428571701049804687500000f,0.03304231911897659301757812500000f,0.05930292978882789611816406250000f,-0.09562764316797256469726562500000f,-0.04698831215500831604003906250000f,-0.01951902359724044799804687500000f,-0.10220550745725631713867187500000f,0.05642196163535118103027343750000f,0.03803936392068862915039062500000f,0.02552854642271995544433593750000f,0.00577610824257135391235351562500f,-0.05022366717457771301269531250000f,-0.05221232771873474121093750000000f,0.01717577502131462097167968750000f,0.06231829151511192321777343750000f,-0.08395563066005706787109375000000f,-0.06503213942050933837890625000000f,-0.00792695768177509307861328125000f,0.04497782513499259948730468750000f,0.06558291614055633544921875000000f,-0.03007416054606437683105468750000f,-0.06495296210050582885742187500000f,0.00966522749513387680053710937500f,-0.09331747144460678100585937500000f,-0.03848982229828834533691406250000f,0.01548403501510620117187500000000f,0.09022032469511032104492187500000f,-0.12403050065040588378906250000000f,0.07045623660087585449218750000000f,0.04246933385729789733886718750000f,0.04583010077476501464843750000000f,0.01974636875092983245849609375000f,-0.00863110553473234176635742187500f,-0.01911904476583003997802734375000f,-0.08695930987596511840820312500000f,-0.00335899181663990020751953125000f,-0.04482868313789367675781250000000f,0.04103354364633560180664062500000f,0.15054464340209960937500000000000f,-0.03927023336291313171386718750000f,-0.04360667988657951354980468750000f,0.01526322402060031890869140625000f,0.00317751802504062652587890625000f,0.08697704225778579711914062500000f,-0.00805166736245155334472656250000f,0.00858057662844657897949218750000f,-0.04357225820422172546386718750000f,-0.01295739971101284027099609375000f,0.01974421925842761993408203125000f,-0.02256168052554130554199218750000f,0.00330193783156573772430419921875f,-0.02145457826554775238037109375000f,0.00401787785813212394714355468750f,0.03609499335289001464843750000000f,-0.02059849537909030914306640625000f,-0.01522569172084331512451171875000f,0.01914525777101516723632812500000f,0.06550452113151550292968750000000f,-0.01334779523313045501708984375000f,0.10336162894964218139648437500000f,-0.04747711867094039916992187500000f,-0.02381852641701698303222656250000f,-0.01097927149385213851928710937500f,0.02394767105579376220703125000000f,-0.04287584498524665832519531250000f,-0.07359036058187484741210937500000f,-0.02197422459721565246582031250000f,0.00745304301381111145019531250000f,-0.10830423980951309204101562500000f,0.03332020342350006103515625000000f,0.16214548051357269287109375000000f,-0.00408947421237826347351074218750f,-0.03682545572519302368164062500000f,-0.00930402893573045730590820312500f,0.05779072642326354980468750000000f,0.06959914416074752807617187500000f,-0.01145211514085531234741210937500f,0.05995566025376319885253906250000f,0.07938004285097122192382812500000f,-0.01729437895119190216064453125000f,0.03751647844910621643066406250000f,-0.12429487705230712890625000000000f,-0.03538760542869567871093750000000f,0.04704478755593299865722656250000f,0.04407278820872306823730468750000f,0.02289268374443054199218750000000f,-0.02554854564368724822998046875000f,-0.15699073672294616699218750000000f,0.06191433593630790710449218750000f,0.01550428569316864013671875000000f,-0.03499665856361389160156250000000f,0.08982926607131958007812500000000f,-0.05924899503588676452636718750000f,-0.02017381787300109863281250000000f,0.11800960451364517211914062500000f,-0.00131515681277960538864135742188f,-0.03059906326234340667724609375000f,0.05090789869427680969238281250000f,0.02838640473783016204833984375000f,-0.01204426400363445281982421875000f,0.13565012812614440917968750000000f,0.08135702461004257202148437500000f,0.05340473353862762451171875000000f,-0.06718947738409042358398437500000f,0.00568790826946496963500976562500f,-0.00002553115336922928690910339355f,0.01775696873664855957031250000000f,-0.00003960729736718349158763885498f,0.00011165225441800430417060852051f,-0.10519873350858688354492187500000f,0.02477554976940155029296875000000f,0.00462235743179917335510253906250f,-0.08404016494750976562500000000000f,-0.01492428872734308242797851562500f,0.04759690910577774047851562500000f,-0.00930924713611602783203125000000f,0.01830582320690155029296875000000f,0.00193853885866701602935791015625f,-0.07169704884290695190429687500000f,-0.00979370344430208206176757812500f,0.00579397147521376609802246093750f,-0.01809151843190193176269531250000f,-0.02599087171256542205810546875000f,-0.00773996254429221153259277343750f,-0.12122825533151626586914062500000f,0.01068211905658245086669921875000f,-0.08109939843416213989257812500000f,0.04625084623694419860839843750000f,-0.03103407472372055053710937500000f,-0.01144087500870227813720703125000f,-0.02336694300174713134765625000000f,0.11156271398067474365234375000000f,0.00824030023068189620971679687500f,0.02229169011116027832031250000000f,0.04062770679593086242675781250000f,0.05336197838187217712402343750000f,-0.01944530196487903594970703125000f,0.05445742234587669372558593750000f,0.01255089510232210159301757812500f,-0.02856327220797538757324218750000f,0.04514258354902267456054687500000f,-0.01108564715832471847534179687500f,0.09562119841575622558593750000000f,0.03496474400162696838378906250000f,0.14833006262779235839843750000000f,-0.15083551406860351562500000000000f,0.05435820296406745910644531250000f,-0.01905402541160583496093750000000f,0.00268396455794572830200195312500f,0.04274514317512512207031250000000f,-0.04053993523120880126953125000000f,-0.01314094383269548416137695312500f,0.02678176015615463256835937500000f,-0.06875672936439514160156250000000f,0.00172367249615490436553955078125f,0.09298108518123626708984375000000f,-0.03442016988992691040039062500000f,0.07334201782941818237304687500000f,0.09448579698801040649414062500000f,-0.05131460726261138916015625000000f,0.04302079975605010986328125000000f,0.01372189354151487350463867187500f,0.07283369451761245727539062500000f,-0.07655472308397293090820312500000f,-0.03823665156960487365722656250000f,-0.06117475032806396484375000000000f,-0.13611960411071777343750000000000f,0.07468596100807189941406250000000f,-0.07207075506448745727539062500000f,-0.10419594496488571166992187500000f,-0.01504546683281660079956054687500f,0.02179304510354995727539062500000f,-0.00335513777099549770355224609375f,0.04166020825505256652832031250000f,-0.00805950909852981567382812500000f,0.02473426423966884613037109375000f,0.03328484669327735900878906250000f,-0.01320832129567861557006835937500f,0.02763800136744976043701171875000f,0.01102711353451013565063476562500f,-0.05496912822127342224121093750000f,-0.08028884977102279663085937500000f,-0.02205823175609111785888671875000f,-0.02017559669911861419677734375000f,-0.00668007228523492813110351562500f,0.06967063248157501220703125000000f,-0.10977680981159210205078125000000f,0.10832101106643676757812500000000f,-0.02101244963705539703369140625000f,-0.00178948976099491119384765625000f,0.01688987389206886291503906250000f,0.02796496078372001647949218750000f,-0.08517570048570632934570312500000f,-0.04380711913108825683593750000000f,0.01137727033346891403198242187500f,-0.05984225496649742126464843750000f,0.01616043783724308013916015625000f,-0.02586240880191326141357421875000f,-0.07097872346639633178710937500000f,-0.02408531680703163146972656250000f,-0.02982414886355400085449218750000f,-0.08136027306318283081054687500000f,0.09524342417716979980468750000000f,0.01328299194574356079101562500000f,-0.03368339315056800842285156250000f,0.06623946875333786010742187500000f,0.43940845131874084472656250000000f,-0.04477110132575035095214843750000f,-0.03005605190992355346679687500000f,-0.03591939434409141540527343750000f,-0.07449140399694442749023437500000f,0.06189587339758872985839843750000f,0.12143471091985702514648437500000f,-0.03530299291014671325683593750000f,0.11047046631574630737304687500000f,-0.10167501866817474365234375000000f,-0.00819981750100851058959960937500f,0.03431260213255882263183593750000f,-0.00874398089945316314697265625000f,-0.03557099029421806335449218750000f,0.10689947009086608886718750000000f,0.01174738910049200057983398437500f,0.07838321477174758911132812500000f,0.02230187878012657165527343750000f,-0.02075939625501632690429687500000f,-0.05037500336766242980957031250000f,0.20714393258094787597656250000000f,-0.00785486679524183273315429687500f,0.05014552175998687744140625000000f,0.01638299785554409027099609375000f,0.10091019421815872192382812500000f,-0.03447841480374336242675781250000f,-0.03345716372132301330566406250000f,0.02153091691434383392333984375000f,-0.04318704828619956970214843750000f,0.00815457198768854141235351562500f,0.05223143100738525390625000000000f,-0.01243414636701345443725585937500f,-0.00679614255204796791076660156250f,-0.02106538787484169006347656250000f,-0.01038352958858013153076171875000f,0.07665206491947174072265625000000f,-0.06211901828646659851074218750000f,-0.02694094367325305938720703125000f,-0.08725655078887939453125000000000f,-0.24110172688961029052734375000000f,0.01027273107320070266723632812500f,0.00916689354926347732543945312500f,0.03971116244792938232421875000000f,0.01804174110293388366699218750000f,-0.01528300717473030090332031250000f,0.02041672728955745697021484375000f,0.04907340556383132934570312500000f,-0.02594592049717903137207031250000f,0.00634925113990902900695800781250f,0.10143932700157165527343750000000f,0.05030921474099159240722656250000f,-0.08760306239128112792968750000000f,0.02410887740552425384521484375000f,-0.02318472601473331451416015625000f,-0.11505255848169326782226562500000f,0.00930926948785781860351562500000f,0.04345300421118736267089843750000f,-0.05695810914039611816406250000000f,-0.01621177420020103454589843750000f,0.02661836706101894378662109375000f,0.05376570671796798706054687500000f,0.03508324176073074340820312500000f,-0.01885166764259338378906250000000f,-0.01700927317142486572265625000000f,-0.00667316373437643051147460937500f,0.07172162830829620361328125000000f,0.02823035046458244323730468750000f,0.01216249633580446243286132812500f,-0.03755632415413856506347656250000f,0.03975244611501693725585937500000f,-0.02765034511685371398925781250000f,-0.01533001288771629333496093750000f,0.03212270885705947875976562500000f,0.02197727188467979431152343750000f,0.05995850265026092529296875000000f,0.05325810983777046203613281250000f,0.02263291925191879272460937500000f,-0.08579665422439575195312500000000f,0.13131129741668701171875000000000f,0.06269583106040954589843750000000f,0.05410588905215263366699218750000f,0.03640044853091239929199218750000f,-0.01901901140809059143066406250000f,0.03178886696696281433105468750000f,-0.01252151280641555786132812500000f,0.13296748697757720947265625000000f,-0.04183366522192955017089843750000f,-0.05040659755468368530273437500000f,0.06778898090124130249023437500000f,-0.05001855269074440002441406250000f,-0.02910480462014675140380859375000f,-0.04941708967089653015136718750000f,0.02188090048730373382568359375000f,0.01154263596981763839721679687500f,-0.01834778301417827606201171875000f,-0.07772160321474075317382812500000f,-0.04667846858501434326171875000000f,-0.10184812545776367187500000000000f,0.01584258675575256347656250000000f,-0.02830075472593307495117187500000f,0.00050175271462649106979370117188f,-0.03639391437172889709472656250000f,0.09442964196205139160156250000000f,0.05194542929530143737792968750000f,-0.06584702432155609130859375000000f,0.01393348164856433868408203125000f,-0.01751169003546237945556640625000f,0.00342269963584840297698974609375f,-0.07244442403316497802734375000000f,-0.02201192080974578857421875000000f,-0.04440310597419738769531250000000f,-0.01685645990073680877685546875000f,-0.12571464478969573974609375000000f,0.08104034513235092163085937500000f,-0.02856311947107315063476562500000f,-0.03875778988003730773925781250000f,0.01978675089776515960693359375000f,0.05229519680142402648925781250000f,0.00230704993009567260742187500000f,-0.00520786317065358161926269531250f,0.06616219133138656616210937500000f,0.03247779980301856994628906250000f,-0.05100435018539428710937500000000f,0.15073050558567047119140625000000f,0.08168683946132659912109375000000f,0.03262284770607948303222656250000f,0.00831016059964895248413085937500f,-0.03511167690157890319824218750000f,0.03282649070024490356445312500000f,-0.06148665770888328552246093750000f,0.01210046187043190002441406250000f,0.13999505341053009033203125000000f,-0.07186309248208999633789062500000f,0.10906400531530380249023437500000f,0.02203525044023990631103515625000f,-0.04627425223588943481445312500000f,0.03938276693224906921386718750000f,0.02542875148355960845947265625000f,0.02974734269082546234130859375000f,-0.01323943957686424255371093750000f,-0.06747394800186157226562500000000f,0.12086607515811920166015625000000f,0.01559734903275966644287109375000f,0.01313690189272165298461914062500f,0.13799421489238739013671875000000f,-0.04531459510326385498046875000000f,-0.14760738611221313476562500000000f,0.08584374934434890747070312500000f,0.03320217877626419067382812500000f,0.04387785866856575012207031250000f,0.08952093869447708129882812500000f,-0.01727585680782794952392578125000f,-0.01863312907516956329345703125000f,-0.01625842787325382232666015625000f,-0.00067289336584508419036865234375f,-0.02970894426107406616210937500000f,-0.09036607295274734497070312500000f,0.00565128820016980171203613281250f,0.04641755297780036926269531250000f,-0.07310610264539718627929687500000f,0.02100434340536594390869140625000f,0.08435270935297012329101562500000f,0.01697617955505847930908203125000f,0.04005080834031105041503906250000f,0.02508664317429065704345703125000f,-0.02069348841905593872070312500000f,0.01404013484716415405273437500000f,0.05264554917812347412109375000000f,0.05558862537145614624023437500000f,0.08857039362192153930664062500000f,-0.05914562940597534179687500000000f,-0.09043189883232116699218750000000f,0.05342978984117507934570312500000f,-0.00814514886587858200073242187500f,-0.05603385344147682189941406250000f,-0.04799814522266387939453125000000f,-0.10108458250761032104492187500000f,0.00292338617146015167236328125000f,-0.00252141710370779037475585937500f,-0.02101707644760608673095703125000f,0.10307374596595764160156250000000f,-0.01562504842877388000488281250000f,0.01881731301546096801757812500000f,0.02402077801525592803955078125000f,0.06065967306494712829589843750000f,-0.07871696352958679199218750000000f,0.02099712565541267395019531250000f,-0.01326262578368186950683593750000f,0.04534571245312690734863281250000f,0.05240170285105705261230468750000f,-0.09975652396678924560546875000000f,-0.06876885145902633666992187500000f,0.00475958734750747680664062500000f,0.03042661957442760467529296875000f,0.03730877116322517395019531250000f,0.01563550345599651336669921875000f,-0.00742897903546690940856933593750f,-0.05417258292436599731445312500000f,0.01445054635405540466308593750000f,-0.07635112106800079345703125000000f,0.04366778209805488586425781250000f,-0.09994186460971832275390625000000f,-0.10856239497661590576171875000000f,0.07765129953622817993164062500000f,-0.12924595177173614501953125000000f,0.04462695494294166564941406250000f,-0.09514687210321426391601562500000f,0.05892465263605117797851562500000f,0.02146991901099681854248046875000f,-0.00621466618031263351440429687500f,0.00719534559175372123718261718750f,0.00491884537041187286376953125000f,0.06919213384389877319335937500000f,-0.02349427528679370880126953125000f,-0.02117347158491611480712890625000f,-0.04960656911134719848632812500000f,0.05391525104641914367675781250000f,0.20273134112358093261718750000000f,-0.00170261308085173368453979492188f,0.04901413246989250183105468750000f,0.07196749746799468994140625000000f,-0.04801404103636741638183593750000f,-0.00291965459473431110382080078125f,0.00836059078574180603027343750000f,0.12070364505052566528320312500000f,-0.01478547044098377227783203125000f,0.10969810187816619873046875000000f,0.04455040767788887023925781250000f,-0.01672150567173957824707031250000f,0.01154637429863214492797851562500f,-0.00986891426146030426025390625000f,0.03994094207882881164550781250000f,0.02900980971753597259521484375000f,0.09840591996908187866210937500000f,-0.08368147164583206176757812500000f,-0.00969535484910011291503906250000f,0.02824007533490657806396484375000f,0.07292416691780090332031250000000f,0.03547464683651924133300781250000f,-0.05210713669657707214355468750000f,-0.51524138450622558593750000000000f,0.04066751524806022644042968750000f,-0.00600765785202383995056152343750f,-0.01093442831188440322875976562500f,-0.00355218630284070968627929687500f,0.02614377066493034362792968750000f,0.04376949742436408996582031250000f,-0.01273664273321628570556640625000f,0.03124468587338924407958984375000f,0.07067854702472686767578125000000f,-0.00033469937625341117382049560547f,0.66214972734451293945312500000000f,-0.02350834757089614868164062500000f,0.05078179389238357543945312500000f,-0.02422997727990150451660156250000f,-0.01222052238881587982177734375000f,-0.02515413612127304077148437500000f,-0.05737466365098953247070312500000f,0.07813733071088790893554687500000f,0.05736319720745086669921875000000f,0.05517860129475593566894531250000f,-0.04118556901812553405761718750000f,-0.01857390813529491424560546875000f,0.01388023048639297485351562500000f,-0.00545600010082125663757324218750f,0.10391453653573989868164062500000f,-0.03203466162085533142089843750000f,0.01452766638249158859252929687500f,0.05081640183925628662109375000000f,0.00066981633426621556282043457031f,-0.02200173214077949523925781250000f,-0.03776894137263298034667968750000f,-0.10996020585298538208007812500000f,-0.01756653375923633575439453125000f,-0.20790310204029083251953125000000f,-0.01249159500002861022949218750000f,-0.01540097780525684356689453125000f,-0.03477437421679496765136718750000f,0.15397834777832031250000000000000f,0.05237127467989921569824218750000f,-0.12495091557502746582031250000000f,0.56249839067459106445312500000000f,-0.02146005444228649139404296875000f,-0.03151799738407135009765625000000f,-0.27152603864669799804687500000000f,0.05870055407285690307617187500000f,0.08692318946123123168945312500000f,0.18281784653663635253906250000000f,0.06557716429233551025390625000000f,-0.03774708509445190429687500000000f,-0.00075815379386767745018005371094f,-0.04620128124952316284179687500000f,0.03008411265909671783447265625000f,-0.01166200172156095504760742187500f,0.01613687537610530853271484375000f,0.04332289844751358032226562500000f,-0.02491222880780696868896484375000f,-0.01626995392143726348876953125000f,0.03497542068362236022949218750000f,-0.01735741831362247467041015625000f,0.03049263544380664825439453125000f,-0.01938762515783309936523437500000f,-0.04844658449292182922363281250000f,0.09050306677818298339843750000000f,-0.00572577398270368576049804687500f,0.08631152659654617309570312500000f,-0.02348415739834308624267578125000f,0.03083020634949207305908203125000f,-0.12738150358200073242187500000000f,0.17350457608699798583984375000000f,0.07734172791242599487304687500000f,-0.04936249926686286926269531250000f,-0.05440533906221389770507812500000f,-0.15159149467945098876953125000000f,0.06368062645196914672851562500000f,-0.10103978216648101806640625000000f,0.01726729050278663635253906250000f,-0.00064741063397377729415893554688f,-0.06516291201114654541015625000000f,-0.00287445192225277423858642578125f,0.06833554804325103759765625000000f,-0.02339876070618629455566406250000f,-0.06902720779180526733398437500000f,0.02665712498128414154052734375000f,-0.03985455632209777832031250000000f,0.00498670991510152816772460937500f,-0.01399758551269769668579101562500f,-0.02424293011426925659179687500000f,0.01276938989758491516113281250000f,0.02135187759995460510253906250000f,0.00492376601323485374450683593750f,0.02323536016047000885009765625000f,0.00642011500895023345947265625000f,-0.06919421255588531494140625000000f,0.06565737724304199218750000000000f,-0.01247947569936513900756835937500f,0.07401955872774124145507812500000f,0.01129234116524457931518554687500f,-0.11158102750778198242187500000000f,0.00522059481590986251831054687500f,0.02952879667282104492187500000000f,0.03771115839481353759765625000000f,-0.04073019698262214660644531250000f,-0.02723091468214988708496093750000f,0.02062095887959003448486328125000f,-0.07533989101648330688476562500000f,0.07404807209968566894531250000000f,0.02666097320616245269775390625000f,-0.00339883728884160518646240234375f,-0.01042881514877080917358398437500f,-0.04718955606222152709960937500000f,0.10866929590702056884765625000000f,0.00290997861884534358978271484375f,0.03848261013627052307128906250000f,0.00598284648731350898742675781250f,0.03255939111113548278808593750000f,-0.07771285623311996459960937500000f,-0.12631636857986450195312500000000f,-0.10803626477718353271484375000000f,0.05720499902963638305664062500000f,-0.03068875148892402648925781250000f,0.05645552650094032287597656250000f,-0.00480846827849745750427246093750f,-0.00099030300043523311614990234375f,0.06051295995712280273437500000000f,-0.00158012006431818008422851562500f,-0.07354310154914855957031250000000f,-0.01638009212911128997802734375000f,0.00549649680033326148986816406250f,-0.05394188314676284790039062500000f,-0.00189892726484686136245727539062f,0.20223939418792724609375000000000f,-0.00943240430206060409545898437500f,-0.05910105630755424499511718750000f,-0.25977146625518798828125000000000f,-0.01328117307275533676147460937500f,0.08651779592037200927734375000000f,-0.02911722660064697265625000000000f,-0.05144251137971878051757812500000f,-0.01243805047124624252319335937500f,0.06002090498805046081542968750000f,0.09299564361572265625000000000000f,-0.03163661807775497436523437500000f,0.06347584724426269531250000000000f,-0.05528500676155090332031250000000f,-0.03883156552910804748535156250000f,-0.03700901940464973449707031250000f,-0.04122741520404815673828125000000f,-0.03010501153767108917236328125000f,-0.02315754070878028869628906250000f,0.03885908797383308410644531250000f,0.11913171410560607910156250000000f,-0.10105639696121215820312500000000f,0.03934120014309883117675781250000f,-0.00918109063059091567993164062500f,0.13035491108894348144531250000000f,0.00106427643913775682449340820312f,0.00138500786852091550827026367188f,-0.02684765867888927459716796875000f,-0.19876290857791900634765625000000f,0.05220600962638854980468750000000f,0.00686796149238944053649902343750f,-0.02642180398106575012207031250000f,0.04691057652235031127929687500000f,0.03560750558972358703613281250000f,0.05680506303906440734863281250000f,-0.04194675013422966003417968750000f,0.02692619338631629943847656250000f,0.12733983993530273437500000000000f,0.01374810934066772460937500000000f,-0.03842757642269134521484375000000f,-0.00690634874626994132995605468750f,0.02367534302175045013427734375000f,-0.04098146408796310424804687500000f,0.00972593016922473907470703125000f,0.06573652476072311401367187500000f,0.00346147408708930015563964843750f,0.02643351443111896514892578125000f,0.04690446704626083374023437500000f,-0.01275141723453998565673828125000f,0.01414092537015676498413085937500f,-0.03104485757648944854736328125000f,-0.01355784945189952850341796875000f,-0.00638227257877588272094726562500f,0.06928858160972595214843750000000f,-0.00348656089045107364654541015625f,0.00387487234547734260559082031250f,0.15555860102176666259765625000000f,0.15878021717071533203125000000000f,0.02526685968041419982910156250000f,-0.05034981667995452880859375000000f,0.02825017273426055908203125000000f,-0.06637957692146301269531250000000f,-0.04055962339043617248535156250000f,0.03689378127455711364746093750000f,-0.05430632084608078002929687500000f,0.02658615447580814361572265625000f,-0.01775695942342281341552734375000f,0.16870614886283874511718750000000f,-0.05518919229507446289062500000000f,-0.18274283409118652343750000000000f,-0.02600551396608352661132812500000f,-0.11939688771963119506835937500000f,0.06163410842418670654296875000000f,-0.02033551409840583801269531250000f,-0.09767906367778778076171875000000f,-0.05408388003706932067871093750000f,-0.16012355685234069824218750000000f,0.22231929004192352294921875000000f,0.06036035344004631042480468750000f,-0.00066340668126940727233886718750f,-0.07487938553094863891601562500000f,-0.02043693885207176208496093750000f,-0.06946188211441040039062500000000f,0.03618168458342552185058593750000f,0.00137992762029170989990234375000f,0.29858571290969848632812500000000f,0.28421097993850708007812500000000f,0.11205079406499862670898437500000f,0.02554851956665515899658203125000f,0.22560425102710723876953125000000f,-0.24430772662162780761718750000000f,0.23367391526699066162109375000000f,0.02986242249608039855957031250000f,0.01664643362164497375488281250000f,0.14152207970619201660156250000000f,0.05029292404651641845703125000000f,-0.02429849654436111450195312500000f,-0.13216173648834228515625000000000f,0.03625627607107162475585937500000f,-0.26882845163345336914062500000000f,0.13299480080604553222656250000000f,