#include <polimidl/layers/alignment.hpp>
alignas(polimidl::layers::buffer_alignment::byte_alignment) const float weight19[] = {-0.10174958407878875732421875000000f,0.75042295455932617187500000000000f,-0.25852042436599731445312500000000f,-0.68655395507812500000000000000000f,0.44911986589431762695312500000000f,0.43881881237030029296875000000000f,-0.28325742483139038085937500000000f,-0.45631945133209228515625000000000f,-0.41188323497772216796875000000000f,0.22950530052185058593750000000000f,0.07325827330350875854492187500000f,-0.20208474993705749511718750000000f,-0.18605625629425048828125000000000f,-0.07327315956354141235351562500000f,-0.94236695766448974609375000000000f,0.58267956972122192382812500000000f,-0.15545158088207244873046875000000f,0.04374580085277557373046875000000f,-0.52981323003768920898437500000000f,-0.20998251438140869140625000000000f,-0.91948056221008300781250000000000f,0.11245764791965484619140625000000f,-0.32655948400497436523437500000000f,-0.05934258922934532165527343750000f,0.25170868635177612304687500000000f,0.78961950540542602539062500000000f,0.36105710268020629882812500000000f,-0.21628330647945404052734375000000f,-0.33330219984054565429687500000000f,-0.27196845412254333496093750000000f,-0.94017362594604492187500000000000f,-0.51828092336654663085937500000000f,0.06434412300586700439453125000000f,1.73393106460571289062500000000000f,0.16762894392013549804687500000000f,-0.23108835518360137939453125000000f,-0.02806009538471698760986328125000f,-0.82912307977676391601562500000000f,-0.35471203923225402832031250000000f,-0.32150831818580627441406250000000f,0.36326032876968383789062500000000f,0.22432558238506317138671875000000f,-0.89481842517852783203125000000000f,-0.16161490976810455322265625000000f,0.17387932538986206054687500000000f,0.39899569749832153320312500000000f,0.50209659337997436523437500000000f,-0.00500587048009037971496582031250f,0.10475999861955642700195312500000f,-0.73082494735717773437500000000000f,0.58974993228912353515625000000000f,-0.81255245208740234375000000000000f,-0.62863284349441528320312500000000f,-0.18366199731826782226562500000000f,-0.36920478940010070800781250000000f,-0.15679754316806793212890625000000f,-0.61765265464782714843750000000000f,-0.08318845927715301513671875000000f,-0.49468311667442321777343750000000f,-0.22640867531299591064453125000000f,0.16570410132408142089843750000000f,-0.15987400710582733154296875000000f,0.02745771966874599456787109375000f,0.23640435934066772460937500000000f,0.01738626509904861450195312500000f,-0.24207696318626403808593750000000f,-0.18536131083965301513671875000000f,0.23467165231704711914062500000000f,-0.41784536838531494140625000000000f,-0.01439400576055049896240234375000f,-0.35328063368797302246093750000000f,-0.03523520007729530334472656250000f,0.12483261525630950927734375000000f,-0.37697139382362365722656250000000f,-0.65020251274108886718750000000000f,-0.00073255988536402583122253417969f,-0.44995796680450439453125000000000f,-0.24758602678775787353515625000000f,-0.67314881086349487304687500000000f,-0.66126871109008789062500000000000f,1.12402999401092529296875000000000f,-0.18423263728618621826171875000000f,-0.14282093942165374755859375000000f,0.45501524209976196289062500000000f,-0.21895627677440643310546875000000f,1.04244172573089599609375000000000f,-0.02556110545992851257324218750000f,0.66288536787033081054687500000000f,0.14189459383487701416015625000000f,0.08079549670219421386718750000000f,-0.41216862201690673828125000000000f,-0.07283802330493927001953125000000f,0.74439829587936401367187500000000f,0.34046289324760437011718750000000f,-0.19892804324626922607421875000000f,0.05905632302165031433105468750000f,0.15218870341777801513671875000000f,-0.05307459458708763122558593750000f,-0.46264061331748962402343750000000f,0.01372314244508743286132812500000f,-0.39461618661880493164062500000000f,0.02061763778328895568847656250000f,-0.12645010650157928466796875000000f,0.33775621652603149414062500000000f,-0.20848867297172546386718750000000f,-0.42305222153663635253906250000000f,-0.56458550691604614257812500000000f,-0.13343811035156250000000000000000f,0.84378284215927124023437500000000f,1.79812240600585937500000000000000f,0.11403521895408630371093750000000f,-0.32877260446548461914062500000000f,-0.26282152533531188964843750000000f,-0.12784586846828460693359375000000f,-0.27680414915084838867187500000000f,-0.63594728708267211914062500000000f,-0.49460381269454956054687500000000f,-0.37597420811653137207031250000000f,0.63845556974411010742187500000000f,-0.22621162235736846923828125000000f,-0.38242039084434509277343750000000f,0.07367064803838729858398437500000f,-0.76495575904846191406250000000000f,0.60160958766937255859375000000000f,2.32996773719787597656250000000000f,-0.61911553144454956054687500000000f,0.12291078269481658935546875000000f,0.02621785737574100494384765625000f,0.70775365829467773437500000000000f,-0.13729988038539886474609375000000f,-0.64857065677642822265625000000000f,-0.35757869482040405273437500000000f,-0.29249286651611328125000000000000f,-0.04445674270391464233398437500000f,-0.11862056702375411987304687500000f,-0.07259017974138259887695312500000f,1.46885025501251220703125000000000f,-0.00110089778900146484375000000000f,-0.22028362751007080078125000000000f,-0.03083563968539237976074218750000f,0.55708086490631103515625000000000f,0.15329785645008087158203125000000f,0.06678589433431625366210937500000f,-0.43372175097465515136718750000000f,0.14036507904529571533203125000000f,-0.09938387572765350341796875000000f,-0.49455374479293823242187500000000f,-0.37971511483192443847656250000000f,0.62049514055252075195312500000000f,-0.12216039746999740600585937500000f,0.07186685502529144287109375000000f,-0.98990994691848754882812500000000f,1.86469018459320068359375000000000f,0.10834661871194839477539062500000f,1.31128740310668945312500000000000f,-0.28119790554046630859375000000000f,0.65804892778396606445312500000000f,-0.81089615821838378906250000000000f,-0.57301282882690429687500000000000f,-0.54250520467758178710937500000000f,-0.23547288775444030761718750000000f,-0.50617712736129760742187500000000f,-0.25338968634605407714843750000000f,0.41056150197982788085937500000000f,0.25924283266067504882812500000000f,-0.46380975842475891113281250000000f,0.17474749684333801269531250000000f,0.05151849985122680664062500000000f,-0.96579498052597045898437500000000f,-0.34478729963302612304687500000000f,-0.10300813615322113037109375000000f,0.29443126916885375976562500000000f,-0.51932317018508911132812500000000f,-0.07227850705385208129882812500000f,0.26430210471153259277343750000000f,-0.34631392359733581542968750000000f,0.65538841485977172851562500000000f,-0.69272565841674804687500000000000f,0.51311051845550537109375000000000f,-1.32665419578552246093750000000000f,-0.08956949412822723388671875000000f,-1.07547056674957275390625000000000f,-0.14191767573356628417968750000000f,-0.27575162053108215332031250000000f,0.28119620680809020996093750000000f,0.65098130702972412109375000000000f,0.87121820449829101562500000000000f,-0.32716456055641174316406250000000f,0.23694577813148498535156250000000f,0.36954811215400695800781250000000f,-0.14714814722537994384765625000000f,0.63510370254516601562500000000000f,-0.86318731307983398437500000000000f,0.37768575549125671386718750000000f,-0.58297681808471679687500000000000f,-0.10659165680408477783203125000000f,-0.41850787401199340820312500000000f,0.24410615861415863037109375000000f,0.38454303145408630371093750000000f,-0.76804083585739135742187500000000f,0.01858070120215415954589843750000f,-0.50038719177246093750000000000000f,0.40874037146568298339843750000000f,-0.90032523870468139648437500000000f,-0.23795697093009948730468750000000f,-0.48412343859672546386718750000000f,-0.29140377044677734375000000000000f,-0.11227504909038543701171875000000f,-0.43337267637252807617187500000000f,-0.20292125642299652099609375000000f,0.13466073572635650634765625000000f,0.29695689678192138671875000000000f,-0.36918255686759948730468750000000f,-0.40670108795166015625000000000000f,-1.13411450386047363281250000000000f,0.52244132757186889648437500000000f,0.75329804420471191406250000000000f,0.43789520859718322753906250000000f,-0.93392372131347656250000000000000f,0.69733661413192749023437500000000f,-0.34653055667877197265625000000000f,0.43982446193695068359375000000000f,0.15062427520751953125000000000000f,-0.17068749666213989257812500000000f,-0.51978075504302978515625000000000f,0.07178429514169692993164062500000f,-0.69154208898544311523437500000000f,-0.29520681500434875488281250000000f,0.80675798654556274414062500000000f,-0.04946767911314964294433593750000f,-0.42936977744102478027343750000000f,-0.01866073720157146453857421875000f,0.16952893137931823730468750000000f,0.28499546647071838378906250000000f,0.07705091685056686401367187500000f,-0.12245614826679229736328125000000f,-1.32942581176757812500000000000000f,-0.23622134327888488769531250000000f,-0.26273030042648315429687500000000f,-0.13817298412322998046875000000000f,-0.08578824251890182495117187500000f,-1.18348455429077148437500000000000f,-0.48340427875518798828125000000000f,0.93206781148910522460937500000000f,-0.21762360632419586181640625000000f,-0.01066172216087579727172851562500f,-0.08772251754999160766601562500000f,-0.91140103340148925781250000000000f,0.05497986078262329101562500000000f,-0.07368935644626617431640625000000f,-0.29783681035041809082031250000000f,-0.42526778578758239746093750000000f,-0.52059859037399291992187500000000f,0.10283835977315902709960937500000f,0.14019389450550079345703125000000f,0.02735743857920169830322265625000f,-0.26276671886444091796875000000000f,-0.24199892580509185791015625000000f,-0.55068397521972656250000000000000f,-0.09358028322458267211914062500000f,1.97666704654693603515625000000000f,-0.79686778783798217773437500000000f,0.38566419482231140136718750000000f,0.76337581872940063476562500000000f,-0.68198877573013305664062500000000f,1.92371559143066406250000000000000f,0.19537019729614257812500000000000f,-0.34560036659240722656250000000000f,-0.31326949596405029296875000000000f,-0.53979802131652832031250000000000f,-0.58360219001770019531250000000000f,-0.98710697889328002929687500000000f,-1.44267940521240234375000000000000f,0.42544287443161010742187500000000f,-0.68334174156188964843750000000000f,-0.22707000374794006347656250000000f,-1.29777097702026367187500000000000f,-0.45492711663246154785156250000000f,-0.52534478902816772460937500000000f,0.02173170633614063262939453125000f,0.60881096124649047851562500000000f,2.56617879867553710937500000000000f,-1.16471958160400390625000000000000f,0.67719358205795288085937500000000f,-0.33131191134452819824218750000000f,-0.83536493778228759765625000000000f,-0.56016665697097778320312500000000f,-0.20476904511451721191406250000000f,0.35987922549247741699218750000000f,-2.81896376609802246093750000000000f,-0.56997871398925781250000000000000f,-0.08678057044744491577148437500000f,-0.52148544788360595703125000000000f,-0.82627302408218383789062500000000f,-0.36402395367622375488281250000000f,-1.01332461833953857421875000000000f,2.52763581275939941406250000000000f,-0.68148034811019897460937500000000f,-0.21762856841087341308593750000000f,-0.68381971120834350585937500000000f,-2.02129244804382324218750000000000f,-0.63664472103118896484375000000000f,-0.22866725921630859375000000000000f,0.46765062212944030761718750000000f,-0.57258832454681396484375000000000f,1.26053142547607421875000000000000f,1.69749331474304199218750000000000f,0.85250878334045410156250000000000f,-0.99950671195983886718750000000000f,-0.89371609687805175781250000000000f,-0.11280797421932220458984375000000f,-0.60018146038055419921875000000000f,-0.29044535756111145019531250000000f,-0.55844616889953613281250000000000f,-0.47474610805511474609375000000000f,-0.18193596601486206054687500000000f,-1.11234295368194580078125000000000f,-0.42475309967994689941406250000000f,-0.34919685125350952148437500000000f,0.76941454410552978515625000000000f,-0.67030149698257446289062500000000f,-0.48734468221664428710937500000000f,0.49742665886878967285156250000000f,-0.70848888158798217773437500000000f,0.00183691503480076789855957031250f,0.08134181797504425048828125000000f,0.65011078119277954101562500000000f,-0.25809976458549499511718750000000f,0.33286887407302856445312500000000f,-0.61029857397079467773437500000000f,-0.15607790648937225341796875000000f,-1.22653794288635253906250000000000f,-0.32382142543792724609375000000000f,-0.37344473600387573242187500000000f,0.55230337381362915039062500000000f,-0.16688907146453857421875000000000f,-1.07415437698364257812500000000000f,-0.05359727516770362854003906250000f,0.37480261921882629394531250000000f,2.41056036949157714843750000000000f,-1.56930804252624511718750000000000f,-0.38665440678596496582031250000000f,0.59237718582153320312500000000000f,-0.86209237575531005859375000000000f,-0.40518367290496826171875000000000f,-0.48533722758293151855468750000000f,0.02683809027075767517089843750000f,0.51341986656188964843750000000000f,0.88241553306579589843750000000000f,-0.10223145037889480590820312500000f,-2.78998589515686035156250000000000f,0.66134792566299438476562500000000f,-0.58809715509414672851562500000000f,0.38721206784248352050781250000000f,-0.50623703002929687500000000000000f,0.40186753869056701660156250000000f,-0.43230053782463073730468750000000f,0.27490407228469848632812500000000f,0.30846515297889709472656250000000f,1.66938173770904541015625000000000f,-0.49472233653068542480468750000000f,-0.52516281604766845703125000000000f,-0.16730755567550659179687500000000f,-0.63141411542892456054687500000000f,1.31022071838378906250000000000000f,-1.87014615535736083984375000000000f,0.19404773414134979248046875000000f,-1.14810943603515625000000000000000f,0.18129853904247283935546875000000f,-0.62139487266540527343750000000000f,-0.61431378126144409179687500000000f,-0.06465353071689605712890625000000f,1.14839470386505126953125000000000f,0.60447907447814941406250000000000f,-0.78435820341110229492187500000000f,-0.50516957044601440429687500000000f,0.13523660600185394287109375000000f,0.85157454013824462890625000000000f,0.96508592367172241210937500000000f,-0.23404504358768463134765625000000f,0.23319749534130096435546875000000f,-0.16890622675418853759765625000000f,0.49952429533004760742187500000000f,-0.50215816497802734375000000000000f,-1.06090247631072998046875000000000f,-0.65650242567062377929687500000000f,-0.28966525197029113769531250000000f,-1.17601609230041503906250000000000f,-1.02539300918579101562500000000000f,-1.10198509693145751953125000000000f,-0.39837962388992309570312500000000f,-0.08267163485288619995117187500000f,-0.95253890752792358398437500000000f,-0.54488128423690795898437500000000f,0.17015334963798522949218750000000f,-0.60876578092575073242187500000000f,2.59295010566711425781250000000000f,-1.29096531867980957031250000000000f,0.22424404323101043701171875000000f,-0.27379447221755981445312500000000f,-0.44934901595115661621093750000000f,-0.39615631103515625000000000000000f,-0.46135014295578002929687500000000f,-1.02368271350860595703125000000000f,1.13433539867401123046875000000000f,-0.78799682855606079101562500000000f,1.43719983100891113281250000000000f,-0.99595826864242553710937500000000f,-1.30789768695831298828125000000000f,-0.75943726301193237304687500000000f,0.03927865251898765563964843750000f,0.18447867035865783691406250000000f,2.81340861320495605468750000000000f,-1.32117891311645507812500000000000f,-1.08859968185424804687500000000000f,-0.23157864809036254882812500000000f,-0.31591656804084777832031250000000f,-1.91715860366821289062500000000000f,-0.34053632616996765136718750000000f,1.85519993305206298828125000000000f,1.06001734733581542968750000000000f,-0.22965504229068756103515625000000f,-0.95926082134246826171875000000000f,0.08020238578319549560546875000000f,1.23286831378936767578125000000000f,-2.39198565483093261718750000000000f,0.10234464704990386962890625000000f,0.32487270236015319824218750000000f,0.02070548571646213531494140625000f,0.54473006725311279296875000000000f,0.46005025506019592285156250000000f,-0.60003811120986938476562500000000f,0.21311727166175842285156250000000f,0.74668622016906738281250000000000f,2.04999971389770507812500000000000f,0.59073084592819213867187500000000f,-0.09798789769411087036132812500000f,-0.43178397417068481445312500000000f,0.06628739088773727416992187500000f,-0.46929445862770080566406250000000f,0.56420654058456420898437500000000f,-0.30405405163764953613281250000000f,0.62291872501373291015625000000000f,0.19109390676021575927734375000000f,1.51772034168243408203125000000000f,1.56796872615814208984375000000000f,0.02401438169181346893310546875000f,-0.89647597074508666992187500000000f,-0.71733653545379638671875000000000f,-0.06065599620342254638671875000000f,-0.03943083062767982482910156250000f,0.25655022263526916503906250000000f,-0.49980348348617553710937500000000f,-0.60148680210113525390625000000000f,0.74465543031692504882812500000000f,-1.65710937976837158203125000000000f,-0.62848758697509765625000000000000f,-0.39063671231269836425781250000000f,-0.46037471294403076171875000000000f,-0.18479862809181213378906250000000f,-0.51525872945785522460937500000000f,-0.30796554684638977050781250000000f,0.19787110388278961181640625000000f,0.26920625567436218261718750000000f,-0.89360022544860839843750000000000f,-0.72731769084930419921875000000000f,0.60211724042892456054687500000000f,1.84859466552734375000000000000000f,0.71679759025573730468750000000000f,-0.25137338042259216308593750000000f,-0.95829057693481445312500000000000f,-0.91806703805923461914062500000000f,-0.94156944751739501953125000000000f,2.03992009162902832031250000000000f,0.03987294808030128479003906250000f,2.21752190589904785156250000000000f,-0.56783276796340942382812500000000f,-0.53083091974258422851562500000000f,-0.27988559007644653320312500000000f,-0.61563199758529663085937500000000f,-0.39896026253700256347656250000000f,-1.09472799301147460937500000000000f,-0.25846913456916809082031250000000f,-0.03484056517481803894042968750000f,-1.15985798835754394531250000000000f,-0.49691742658615112304687500000000f,-0.71085017919540405273437500000000f,0.34248852729797363281250000000000f,0.05732123553752899169921875000000f,0.46959343552589416503906250000000f,-0.17434336245059967041015625000000f,0.06276915222406387329101562500000f,0.90280485153198242187500000000000f,0.05875447019934654235839843750000f,-0.04165825247764587402343750000000f,-0.79425346851348876953125000000000f,1.27031302452087402343750000000000f,1.11804592609405517578125000000000f,-0.39175748825073242187500000000000f,1.89089930057525634765625000000000f,-0.28152510523796081542968750000000f,0.09070360660552978515625000000000f,-0.40399950742721557617187500000000f,-0.59023201465606689453125000000000f,0.69808417558670043945312500000000f,-0.32575139403343200683593750000000f,0.44233399629592895507812500000000f,-0.93896245956420898437500000000000f,-0.08348844200372695922851562500000f,0.17347916960716247558593750000000f,-1.63830626010894775390625000000000f,-0.21276807785034179687500000000000f,-0.07378776371479034423828125000000f,0.70002830028533935546875000000000f,-0.09747648239135742187500000000000f,-0.50449454784393310546875000000000f,-0.11251404136419296264648437500000f,0.30820396542549133300781250000000f,-0.16292351484298706054687500000000f,-0.64410406351089477539062500000000f,-0.42990553379058837890625000000000f,-0.01588509418070316314697265625000f,0.05731137096881866455078125000000f,-0.40665733814239501953125000000000f,-0.04919742792844772338867187500000f,-0.15885268151760101318359375000000f,-0.57160216569900512695312500000000f,0.09492602944374084472656250000000f,-0.21552912890911102294921875000000f,-0.10619279742240905761718750000000f,0.90959495306015014648437500000000f,-0.02644411101937294006347656250000f,-0.56350708007812500000000000000000f,0.05082657933235168457031250000000f,0.08825264126062393188476562500000f,-0.25981104373931884765625000000000f,-0.66156929731369018554687500000000f,0.69426709413528442382812500000000f,-0.06374963372945785522460937500000f,-0.48322147130966186523437500000000f,-0.13901257514953613281250000000000f,-0.28953516483306884765625000000000f,0.50168013572692871093750000000000f,0.60632830858230590820312500000000f,-0.03273178637027740478515625000000f,0.92496013641357421875000000000000f,0.24631862342357635498046875000000f,-0.37169671058654785156250000000000f,0.20179897546768188476562500000000f,0.30387654900550842285156250000000f,-0.32738062739372253417968750000000f,0.13867406547069549560546875000000f,0.69700825214385986328125000000000f,0.25353756546974182128906250000000f,-0.38474074006080627441406250000000f,0.25107419490814208984375000000000f,-0.25904101133346557617187500000000f,0.09278357028961181640625000000000f,-0.81151396036148071289062500000000f,-0.09378872066736221313476562500000f,-0.08124070614576339721679687500000f,-0.65610146522521972656250000000000f,0.41766411066055297851562500000000f,0.02750315703451633453369140625000f,-0.29217737913131713867187500000000f,-0.44041731953620910644531250000000f,0.93949216604232788085937500000000f,-0.07870274782180786132812500000000f,-0.43526580929756164550781250000000f,0.05608825013041496276855468750000f,0.38213327527046203613281250000000f,0.13878725469112396240234375000000f,1.01135587692260742187500000000000f,-0.03304756805300712585449218750000f,-0.20670844614505767822265625000000f,0.00999890174716711044311523437500f,0.56487065553665161132812500000000f,-0.14359223842620849609375000000000f,-0.39079040288925170898437500000000f,0.65323758125305175781250000000000f,0.25027433037757873535156250000000f,-0.07201700657606124877929687500000f,-0.25107744336128234863281250000000f,0.15147818624973297119140625000000f,-0.02466654404997825622558593750000f,-0.04256479814648628234863281250000f,-0.57759922742843627929687500000000f,-0.08056964725255966186523437500000f,-0.12426592409610748291015625000000f,-0.13472992181777954101562500000000f,0.16763117909431457519531250000000f,-0.58355468511581420898437500000000f,-0.47506624460220336914062500000000f,-0.31341087818145751953125000000000f,-0.06930997222661972045898437500000f,0.24291035532951354980468750000000f,0.07673916220664978027343750000000f,-0.30845865607261657714843750000000f,-0.10395258665084838867187500000000f,0.16133870184421539306640625000000f,0.25867986679077148437500000000000f,0.16499580442905426025390625000000f,-0.36488637328147888183593750000000f,-0.21111947298049926757812500000000f,-0.43030309677124023437500000000000f,-0.49114370346069335937500000000000f,-1.14120292663574218750000000000000f,-0.70434653759002685546875000000000f,0.20260022580623626708984375000000f,-0.26787996292114257812500000000000f,-0.27609744668006896972656250000000f,0.09933635592460632324218750000000f,-0.15918534994125366210937500000000f,-0.09860479086637496948242187500000f,-0.04557538405060768127441406250000f,0.55129957199096679687500000000000f,0.84737074375152587890625000000000f,-0.35915946960449218750000000000000f,-0.35996580123901367187500000000000f,-0.13634632527828216552734375000000f,0.00760891661047935485839843750000f,-0.56276047229766845703125000000000f,-0.09388970583677291870117187500000f,0.40911516547203063964843750000000f,0.02342777326703071594238281250000f,-0.03574035316705703735351562500000f,-0.06752238422632217407226562500000f,-0.51333439350128173828125000000000f,0.01109023112803697586059570312500f,-0.00413226289674639701843261718750f,0.16387137770652770996093750000000f,-0.11096742749214172363281250000000f,-0.33343645930290222167968750000000f,0.13059994578361511230468750000000f,0.23876722157001495361328125000000f,-0.57400381565093994140625000000000f,0.03597295656800270080566406250000f,-0.20289286971092224121093750000000f,-0.11598322540521621704101562500000f,-0.03677901998162269592285156250000f,-0.15583612024784088134765625000000f,0.21751564741134643554687500000000f,-0.51075571775436401367187500000000f,-0.11252117156982421875000000000000f,0.00290729338303208351135253906250f,0.51962167024612426757812500000000f,-0.02026813291013240814208984375000f,-0.10273585468530654907226562500000f,0.00810130499303340911865234375000f,-0.25702080130577087402343750000000f,0.02000211551785469055175781250000f,0.26047495007514953613281250000000f,0.33168470859527587890625000000000f,0.20949016511440277099609375000000f,-0.03699237108230590820312500000000f,0.56224209070205688476562500000000f,0.11244633048772811889648437500000f,-0.01707321032881736755371093750000f,0.22538249194622039794921875000000f,-0.28066116571426391601562500000000f,-0.82088261842727661132812500000000f,-0.40334144234657287597656250000000f,-1.04151737689971923828125000000000f,0.49861916899681091308593750000000f,-0.97960186004638671875000000000000f,-0.01530954521149396896362304687500f,-0.56691455841064453125000000000000f,-0.33109304308891296386718750000000f,0.25238963961601257324218750000000f,-0.37162798643112182617187500000000f,-0.12289628386497497558593750000000f,-0.32167682051658630371093750000000f,-0.07988570630550384521484375000000f,-0.86426216363906860351562500000000f,0.48380634188652038574218750000000f,0.53280073404312133789062500000000f,-0.26388186216354370117187500000000f,-0.40536373853683471679687500000000f,-0.25195676088333129882812500000000f,-0.02807106636464595794677734375000f,0.28158152103424072265625000000000f,-0.84701067209243774414062500000000f,0.01153012644499540328979492187500f,0.10523954033851623535156250000000f,-0.64970129728317260742187500000000f,-0.08591904491186141967773437500000f,0.24363476037979125976562500000000f,-0.45791476964950561523437500000000f,0.50842386484146118164062500000000f,0.66078966856002807617187500000000f,0.21550574898719787597656250000000f,1.26610517501831054687500000000000f,-0.26077544689178466796875000000000f,0.30278682708740234375000000000000f,-0.12517347931861877441406250000000f,-0.14217060804367065429687500000000f,0.17725296318531036376953125000000f,-0.46687284111976623535156250000000f,-0.63882958889007568359375000000000f,-0.73848140239715576171875000000000f,-0.43543007969856262207031250000000f,-0.62319654226303100585937500000000f,-0.12912292778491973876953125000000f,0.17345786094665527343750000000000f,0.04913258180022239685058593750000f,1.16669487953186035156250000000000f,0.62960731983184814453125000000000f,-0.21304960548877716064453125000000f,-0.45402473211288452148437500000000f,-0.08701679855585098266601562500000f,-0.00452078739181160926818847656250f,-0.42977830767631530761718750000000f,-0.42899662256240844726562500000000f,0.70935851335525512695312500000000f,-0.44545212388038635253906250000000f,0.16544304788112640380859375000000f,-0.02313098870217800140380859375000f,-0.72507047653198242187500000000000f,0.15170417726039886474609375000000f,-0.14091356098651885986328125000000f,1.01156568527221679687500000000000f,-0.06938257813453674316406250000000f,-0.10984554886817932128906250000000f,-0.03065977990627288818359375000000f,-0.28036740422248840332031250000000f,-0.48077005147933959960937500000000f,0.69010859727859497070312500000000f,0.11997710913419723510742187500000f,-0.08579902350902557373046875000000f,-0.29014894366264343261718750000000f,0.67053031921386718750000000000000f,0.34149417281150817871093750000000f,-0.06119623780250549316406250000000f,-0.72793525457382202148437500000000f,-0.16638894379138946533203125000000f,-0.03331914916634559631347656250000f,-0.20666256546974182128906250000000f,0.13055574893951416015625000000000f,-0.09691758453845977783203125000000f,-0.21336658298969268798828125000000f,-0.02159398607909679412841796875000f,0.03985564410686492919921875000000f,-0.06772506237030029296875000000000f,-0.07047054916620254516601562500000f,0.02432429976761341094970703125000f,0.13819609582424163818359375000000f,-0.19105099141597747802734375000000f,-0.17715241014957427978515625000000f,0.59230905771255493164062500000000f,-0.20059016346931457519531250000000f,-0.10045390576124191284179687500000f,0.33007985353469848632812500000000f,0.59114354848861694335937500000000f,0.27952873706817626953125000000000f,-0.29298058152198791503906250000000f,0.19350142776966094970703125000000f,-0.54359269142150878906250000000000f,-0.03310620039701461791992187500000f,0.05275322124361991882324218750000f,-0.17719662189483642578125000000000f,-0.14131236076354980468750000000000f,-0.02504546195268630981445312500000f,-0.60124647617340087890625000000000f,-0.53437477350234985351562500000000f,-0.48790755867958068847656250000000f,-0.00317799998447299003601074218750f,0.01359914243221282958984375000000f,0.00758850481361150741577148437500f,-0.18624933063983917236328125000000f,-0.02708155103027820587158203125000f,-0.66806393861770629882812500000000f,0.46691641211509704589843750000000f,0.49788969755172729492187500000000f,0.97538977861404418945312500000000f,0.74708646535873413085937500000000f,0.80066138505935668945312500000000f,-0.64229512214660644531250000000000f,0.91975903511047363281250000000000f,0.21113082766532897949218750000000f,-0.35769981145858764648437500000000f,-0.49832040071487426757812500000000f,-0.55115860700607299804687500000000f,0.08315806835889816284179687500000f,-0.38808479905128479003906250000000f,-1.14554810523986816406250000000000f,-0.62228745222091674804687500000000f,-0.63700437545776367187500000000000f,-0.06586843729019165039062500000000f,0.50158727169036865234375000000000f,-0.65041881799697875976562500000000f,-0.52167218923568725585937500000000f,-0.67491888999938964843750000000000f,0.31220558285713195800781250000000f,-0.88724505901336669921875000000000f,1.90979611873626708984375000000000f,-0.58846712112426757812500000000000f,-0.46239727735519409179687500000000f,-0.69520330429077148437500000000000f,-0.13570301234722137451171875000000f,-2.15278077125549316406250000000000f,0.22486807405948638916015625000000f,-1.53201353549957275390625000000000f,-0.50821268558502197265625000000000f,0.03720805421471595764160156250000f,-0.52984428405761718750000000000000f,0.97343194484710693359375000000000f,-0.47922015190124511718750000000000f,-0.94222468137741088867187500000000f,-1.16411447525024414062500000000000f,3.09718394279479980468750000000000f,0.30919638276100158691406250000000f,-0.88030552864074707031250000000000f,-0.95735728740692138671875000000000f,1.20042645931243896484375000000000f,-0.98191547393798828125000000000000f,0.61763954162597656250000000000000f,-0.64916908740997314453125000000000f,0.17260876297950744628906250000000f,0.41726887226104736328125000000000f,-0.91040849685668945312500000000000f,-1.04342305660247802734375000000000f,-1.09950220584869384765625000000000f,-0.00224443804472684860229492187500f,-0.85701441764831542968750000000000f,-0.51270496845245361328125000000000f,-0.53973996639251708984375000000000f,-2.53923726081848144531250000000000f,-1.73257756233215332031250000000000f,-0.14795981347560882568359375000000f,-0.57071769237518310546875000000000f,-0.65048289299011230468750000000000f,-0.63640147447586059570312500000000f,0.94247579574584960937500000000000f,-0.52666628360748291015625000000000f,0.79392623901367187500000000000000f,0.86745303869247436523437500000000f,-2.46448063850402832031250000000000f,0.29508498311042785644531250000000f,-1.23990345001220703125000000000000f,2.19284152984619140625000000000000f,0.22239112854003906250000000000000f,0.01102238148450851440429687500000f,-0.48239076137542724609375000000000f,1.39361786842346191406250000000000f,-0.74484854936599731445312500000000f,-1.09746789932250976562500000000000f,-0.74984920024871826171875000000000f,-0.27442559599876403808593750000000f,1.99323177337646484375000000000000f,-0.19554179906845092773437500000000f,0.32462364435195922851562500000000f,-0.52218592166900634765625000000000f,0.08245442062616348266601562500000f,1.59213781356811523437500000000000f,-0.06023187562823295593261718750000f,1.25152456760406494140625000000000f,-0.37347435951232910156250000000000f,-0.52695995569229125976562500000000f,-0.15164102613925933837890625000000f,0.64450615644454956054687500000000f,1.30646514892578125000000000000000f,1.66081058979034423828125000000000f,0.27498379349708557128906250000000f,0.89433902502059936523437500000000f,-0.60566282272338867187500000000000f,0.08569085597991943359375000000000f,-0.52508050203323364257812500000000f,-0.81299871206283569335937500000000f,-0.47170469164848327636718750000000f,0.48194172978401184082031250000000f,0.05974292010068893432617187500000f,0.48070615530014038085937500000000f,-0.33625233173370361328125000000000f,-0.43530398607254028320312500000000f,-0.43381828069686889648437500000000f,-0.38257002830505371093750000000000f,1.00693500041961669921875000000000f,-1.46664679050445556640625000000000f,0.07978712022304534912109375000000f,-1.09420323371887207031250000000000f,0.07344215363264083862304687500000f,-0.60881423950195312500000000000000f,-0.57385057210922241210937500000000f,-0.03987557068467140197753906250000f,-2.20928812026977539062500000000000f,0.46481829881668090820312500000000f,-0.86566567420959472656250000000000f,-0.41851776838302612304687500000000f,0.03501350060105323791503906250000f,1.12529599666595458984375000000000f,0.90759187936782836914062500000000f,1.96352863311767578125000000000000f,0.21166695654392242431640625000000f,-0.39164957404136657714843750000000f,0.62339240312576293945312500000000f,-1.55210316181182861328125000000000f,-0.56453567743301391601562500000000f,-0.70678472518920898437500000000000f,-0.36562457680702209472656250000000f,-1.24520087242126464843750000000000f,-0.32510438561439514160156250000000f,1.86315631866455078125000000000000f,-0.99123805761337280273437500000000f,-1.02117156982421875000000000000000f,-0.77721637487411499023437500000000f,1.52874255180358886718750000000000f,0.53280621767044067382812500000000f,-0.70423126220703125000000000000000f,-0.70149111747741699218750000000000f,-0.21200129389762878417968750000000f,0.22025167942047119140625000000000f,-1.08180141448974609375000000000000f,-0.39208456873893737792968750000000f,-0.29443392157554626464843750000000f,-0.27943381667137145996093750000000f,0.62157440185546875000000000000000f,1.17276561260223388671875000000000f,-0.60122030973434448242187500000000f,-0.62652236223220825195312500000000f,-0.50586616992950439453125000000000f,-1.22979080677032470703125000000000f,-0.52815574407577514648437500000000f,-1.91262888908386230468750000000000f,-0.08522396534681320190429687500000f,-0.55778115987777709960937500000000f,0.56169104576110839843750000000000f,-1.15239584445953369140625000000000f,-0.33590075373649597167968750000000f,-0.40539374947547912597656250000000f,0.48802739381790161132812500000000f,-1.25891053676605224609375000000000f,-0.67649990320205688476562500000000f,0.28796279430389404296875000000000f,-0.29131686687469482421875000000000f,1.84071362018585205078125000000000f,0.10823273658752441406250000000000f,1.00886213779449462890625000000000f,0.33559960126876831054687500000000f,0.03476319462060928344726562500000f,0.39206892251968383789062500000000f,-0.02290337532758712768554687500000f,0.83076167106628417968750000000000f,-1.35603976249694824218750000000000f,-0.61591827869415283203125000000000f,0.43881025910377502441406250000000f,-0.80707901716232299804687500000000f,-0.79009091854095458984375000000000f,1.34153592586517333984375000000000f,-0.02508389018476009368896484375000f,-0.21800474822521209716796875000000f,0.07442020624876022338867187500000f,-0.33986783027648925781250000000000f,0.34253537654876708984375000000000f,2.49541044235229492187500000000000f,-0.67806392908096313476562500000000f,0.15807028114795684814453125000000f,0.46498712897300720214843750000000f,1.88574481010437011718750000000000f,0.07120840251445770263671875000000f,1.00976383686065673828125000000000f,-0.70594853162765502929687500000000f,-0.53912031650543212890625000000000f,-1.41919231414794921875000000000000f,0.14572069048881530761718750000000f,-0.31159508228302001953125000000000f,-1.88429284095764160156250000000000f,0.03992738947272300720214843750000f,0.89358025789260864257812500000000f,-0.27595520019531250000000000000000f,-0.81999492645263671875000000000000f,1.66918885707855224609375000000000f,-0.73199230432510375976562500000000f,-0.30272251367568969726562500000000f,-0.67766141891479492187500000000000f,1.53207647800445556640625000000000f,1.24553668498992919921875000000000f,1.72396910190582275390625000000000f,-0.52164644002914428710937500000000f,0.33309608697891235351562500000000f,-0.30806919932365417480468750000000f,0.70832872390747070312500000000000f,-0.32559743523597717285156250000000f,1.20649492740631103515625000000000f,0.86172264814376831054687500000000f,2.57009887695312500000000000000000f,-1.86086213588714599609375000000000f,0.14631512761116027832031250000000f,-0.42713031172752380371093750000000f,-0.67356884479522705078125000000000f,0.85196703672409057617187500000000f,-0.32075780630111694335937500000000f,-0.70197337865829467773437500000000f,-0.27615571022033691406250000000000f,-1.17774271965026855468750000000000f,-0.48875993490219116210937500000000f,0.04529596492648124694824218750000f,-0.10620541125535964965820312500000f,-0.47953864932060241699218750000000f,-0.50368487834930419921875000000000f,0.14553961157798767089843750000000f,0.12185750901699066162109375000000f,0.64063185453414916992187500000000f,-0.23410351574420928955078125000000f,0.18116848170757293701171875000000f,0.29098734259605407714843750000000f,-0.62862730026245117187500000000000f,0.14921963214874267578125000000000f,-1.27118360996246337890625000000000f,-1.45972049236297607421875000000000f,0.71976906061172485351562500000000f,-0.32816159725189208984375000000000f,-0.62612855434417724609375000000000f,-0.60775417089462280273437500000000f,0.23093451559543609619140625000000f,-0.52730834484100341796875000000000f,-0.01348702516406774520874023437500f,0.42908754944801330566406250000000f,-0.28909784555435180664062500000000f,0.18839293718338012695312500000000f,-0.64912152290344238281250000000000f,-0.05928450822830200195312500000000f,0.27481919527053833007812500000000f,0.19370810687541961669921875000000f,-0.33367100358009338378906250000000f,2.92053127288818359375000000000000f,-0.75093930959701538085937500000000f,-0.76614254713058471679687500000000f,3.48199057579040527343750000000000f,-2.39062261581420898437500000000000f,0.99994659423828125000000000000000f,2.14682054519653320312500000000000f,1.85686838626861572265625000000000f,-1.28052961826324462890625000000000f,-0.48901316523551940917968750000000f,1.88792419433593750000000000000000f,-0.20903356373310089111328125000000f,-1.11022818088531494140625000000000f,-0.68402767181396484375000000000000f,3.98122525215148925781250000000000f,-2.03225326538085937500000000000000f,0.25178605318069458007812500000000f,1.89184796810150146484375000000000f,-0.54009544849395751953125000000000f,3.80743169784545898437500000000000f,1.33236765861511230468750000000000f,-2.39954948425292968750000000000000f,-0.70964622497558593750000000000000f,2.64969158172607421875000000000000f,2.10091400146484375000000000000000f,-1.39227521419525146484375000000000f,-0.95301234722137451171875000000000f,1.58900845050811767578125000000000f,0.18433547019958496093750000000000f,2.90500617027282714843750000000000f,-1.61824679374694824218750000000000f,0.28793504834175109863281250000000f,1.10613071918487548828125000000000f,1.90115022659301757812500000000000f,-0.99953132867813110351562500000000f,-1.31768155097961425781250000000000f,-1.68564069271087646484375000000000f,-0.72186917066574096679687500000000f,0.07639145106077194213867187500000f,3.71736836433410644531250000000000f,-1.33167898654937744140625000000000f,-1.85635292530059814453125000000000f,3.14435625076293945312500000000000f,-0.59819686412811279296875000000000f,0.02011048980057239532470703125000f,-1.73281753063201904296875000000000f,-0.10566875338554382324218750000000f,1.56231093406677246093750000000000f,-0.95783901214599609375000000000000f,3.16791963577270507812500000000000f,-0.28099840879440307617187500000000f,2.53096222877502441406250000000000f,2.46213674545288085937500000000000f,-1.23060739040374755859375000000000f,-1.65895771980285644531250000000000f,-1.04093647003173828125000000000000f,0.11763510107994079589843750000000f,-1.26709091663360595703125000000000f,2.42422771453857421875000000000000f,1.12516415119171142578125000000000f,-2.01723670959472656250000000000000f,-1.57409429550170898437500000000000f,-1.24253511428833007812500000000000f,-1.88821864128112792968750000000000f,-1.95553445816040039062500000000000f,-0.83777660131454467773437500000000f,2.26445150375366210937500000000000f,-2.26240015029907226562500000000000f,2.65858650207519531250000000000000f,1.81971776485443115234375000000000f,1.51760649681091308593750000000000f,-2.23391485214233398437500000000000f,1.51149952411651611328125000000000f,-1.00068116188049316406250000000000f,3.39885306358337402343750000000000f,-0.92852872610092163085937500000000f,-0.30548864603042602539062500000000f,2.68376994132995605468750000000000f,1.10971879959106445312500000000000f,3.50321340560913085937500000000000f,-1.03252243995666503906250000000000f,3.28885388374328613281250000000000f,1.24790489673614501953125000000000f,-1.54420804977416992187500000000000f,-1.33720064163208007812500000000000f,-1.68633532524108886718750000000000f,1.49216771125793457031250000000000f,-1.88291311264038085937500000000000f,-1.42923200130462646484375000000000f,-1.33908915519714355468750000000000f,2.72007822990417480468750000000000f,1.78459739685058593750000000000000f,-0.10651778429746627807617187500000f,-0.04709253832697868347167968750000f,2.18310761451721191406250000000000f,2.55187177658081054687500000000000f,-1.33136796951293945312500000000000f,1.84300160408020019531250000000000f,0.18480244278907775878906250000000f,-2.59307909011840820312500000000000f,-0.11045464128255844116210937500000f,1.66665232181549072265625000000000f,1.59948480129241943359375000000000f,-0.40768271684646606445312500000000f,-1.57816863059997558593750000000000f,-0.09170158952474594116210937500000f,-0.68262231349945068359375000000000f,3.38087534904479980468750000000000f,-0.71737855672836303710937500000000f,0.63402032852172851562500000000000f,1.83322763442993164062500000000000f,-0.67417782545089721679687500000000f,1.60177838802337646484375000000000f,-0.69630157947540283203125000000000f,-0.83738797903060913085937500000000f,0.17153193056583404541015625000000f,1.66374361515045166015625000000000f,1.35718595981597900390625000000000f,-1.84324538707733154296875000000000f,-0.99878847599029541015625000000000f,3.45065259933471679687500000000000f,-3.51643943786621093750000000000000f,1.39038062095642089843750000000000f,-0.26009839773178100585937500000000f,-0.99320703744888305664062500000000f,-0.23827007412910461425781250000000f,1.27556407451629638671875000000000f,3.86458683013916015625000000000000f,2.52278256416320800781250000000000f,-0.99058508872985839843750000000000f,4.05797433853149414062500000000000f,3.17535066604614257812500000000000f,1.64261364936828613281250000000000f,-2.34372401237487792968750000000000f,-1.09557878971099853515625000000000f,-0.48408904671669006347656250000000f,0.23362579941749572753906250000000f,0.62042695283889770507812500000000f,1.73355162143707275390625000000000f,-1.65371286869049072265625000000000f,-1.94493401050567626953125000000000f,-2.56367444992065429687500000000000f,2.16076755523681640625000000000000f,-0.43984708189964294433593750000000f,3.13174748420715332031250000000000f,-1.04405868053436279296875000000000f,2.15451598167419433593750000000000f,2.12064814567565917968750000000000f,-2.10755228996276855468750000000000f,-0.38816595077514648437500000000000f,1.73917686939239501953125000000000f,2.90243458747863769531250000000000f,0.82954037189483642578125000000000f,2.88387370109558105468750000000000f,1.44864010810852050781250000000000f,-1.29488134384155273437500000000000f,-2.21330857276916503906250000000000f,1.85366904735565185546875000000000f,0.11729688197374343872070312500000f,-1.33439612388610839843750000000000f,-0.82746201753616333007812500000000f,1.73223996162414550781250000000000f,-0.52912354469299316406250000000000f,-0.38521161675453186035156250000000f,1.80200743675231933593750000000000f,-0.09139536321163177490234375000000f,-1.02021622657775878906250000000000f,2.66871285438537597656250000000000f,0.35834878683090209960937500000000f,2.31093788146972656250000000000000f,-2.07332897186279296875000000000000f,1.60157859325408935546875000000000f,3.37006211280822753906250000000000f,2.38451385498046875000000000000000f,-0.80263674259185791015625000000000f,0.23382368683815002441406250000000f,0.27535599470138549804687500000000f,-0.69824606180191040039062500000000f,-1.86448824405670166015625000000000f,-0.36900988221168518066406250000000f,2.25259137153625488281250000000000f,-0.48550009727478027343750000000000f,2.48785066604614257812500000000000f,-1.15122747421264648437500000000000f,1.46831107139587402343750000000000f,-0.53861224651336669921875000000000f,-1.79010570049285888671875000000000f,3.78160190582275390625000000000000f,0.60671496391296386718750000000000f,-1.25644540786743164062500000000000f,1.53285586833953857421875000000000f,-1.30745887756347656250000000000000f,2.17971730232238769531250000000000f,-2.59975028038024902343750000000000f,0.09062188863754272460937500000000f,2.94606542587280273437500000000000f,0.04048840701580047607421875000000f,-0.33732965588569641113281250000000f,1.36764502525329589843750000000000f,1.19193649291992187500000000000000f,-0.21233096718788146972656250000000f,-0.35018521547317504882812500000000f,-0.15996986627578735351562500000000f,-0.94742691516876220703125000000000f,-0.97506260871887207031250000000000f,0.08115579187870025634765625000000f,-3.24806427955627441406250000000000f,1.66197657585144042968750000000000f,-1.30887484550476074218750000000000f,-1.33985745906829833984375000000000f,1.57024168968200683593750000000000f,-1.58349537849426269531250000000000f,2.08087706565856933593750000000000f,2.19547319412231445312500000000000f,1.08023142814636230468750000000000f,-1.19267880916595458984375000000000f,-1.78664338588714599609375000000000f,-0.51858645677566528320312500000000f,-1.11728835105895996093750000000000f,-1.69630324840545654296875000000000f,-1.39788830280303955078125000000000f,1.24029910564422607421875000000000f,3.67427301406860351562500000000000f,-0.42560550570487976074218750000000f,0.34943374991416931152343750000000f,-0.45426806807518005371093750000000f,-0.31564429402351379394531250000000f,-1.50557565689086914062500000000000f,1.56924247741699218750000000000000f,-1.16190814971923828125000000000000f,-0.20422349870204925537109375000000f,1.76089262962341308593750000000000f,2.24024415016174316406250000000000f,0.87688612937927246093750000000000f,2.61832523345947265625000000000000f,2.59457087516784667968750000000000f,-1.41028070449829101562500000000000f,-1.10392189025878906250000000000000f,3.45365858078002929687500000000000f,-1.31152129173278808593750000000000f,0.85942125320434570312500000000000f,0.56462448835372924804687500000000f,-0.27961060404777526855468750000000f,-1.11310935020446777343750000000000f,3.88592028617858886718750000000000f,1.19721364974975585937500000000000f,-0.96094584465026855468750000000000f,2.26065969467163085937500000000000f,2.01587367057800292968750000000000f,-1.26567482948303222656250000000000f,2.85528254508972167968750000000000f,4.18241453170776367187500000000000f,2.93811845779418945312500000000000f,2.62055921554565429687500000000000f,2.69014263153076171875000000000000f,-1.62877070903778076171875000000000f,0.04168039932847023010253906250000f,-0.08861026167869567871093750000000f,-0.45354014635086059570312500000000f,-0.55424010753631591796875000000000f,-0.32641705870628356933593750000000f,-1.82719218730926513671875000000000f,-0.09990985691547393798828125000000f,0.21652078628540039062500000000000f,-0.68733125925064086914062500000000f,-0.80930000543594360351562500000000f,-0.11583681404590606689453125000000f,-0.32620593905448913574218750000000f,-0.01688656210899353027343750000000f,-0.46568429470062255859375000000000f,-0.73313868045806884765625000000000f,0.32938131690025329589843750000000f,0.90035420656204223632812500000000f,-0.09041284024715423583984375000000f,1.58652734756469726562500000000000f,-0.78884285688400268554687500000000f,0.42382884025573730468750000000000f,-0.21319551765918731689453125000000f,-0.25169587135314941406250000000000f,-0.54403734207153320312500000000000f,-0.04356349259614944458007812500000f,-0.50989621877670288085937500000000f,-0.55586725473403930664062500000000f,-1.02659666538238525390625000000000f,-0.35416069626808166503906250000000f,-0.41350746154785156250000000000000f,-0.42530643939971923828125000000000f,2.04073810577392578125000000000000f,0.10297646373510360717773437500000f,-0.11674426496028900146484375000000f,-0.22401551902294158935546875000000f,0.15731209516525268554687500000000f,-0.07221498340368270874023437500000f,-0.93461298942565917968750000000000f,-0.47849521040916442871093750000000f,-1.50304806232452392578125000000000f,-0.03014866262674331665039062500000f,-0.74616420269012451171875000000000f,-0.34371724724769592285156250000000f,-0.70800197124481201171875000000000f,0.45124733448028564453125000000000f,0.27685424685478210449218750000000f,-0.21242329478263854980468750000000f,-0.27873539924621582031250000000000f,0.67796832323074340820312500000000f,-0.10459478944540023803710937500000f,-0.88338148593902587890625000000000f,-1.61431241035461425781250000000000f,0.58874863386154174804687500000000f,0.11406882852315902709960937500000f,-0.36158007383346557617187500000000f,-0.29921147227287292480468750000000f,-0.66659587621688842773437500000000f,-0.27458420395851135253906250000000f,0.56981122493743896484375000000000f,0.89785909652709960937500000000000f,1.73630547523498535156250000000000f,0.12754428386688232421875000000000f,-0.17335015535354614257812500000000f,-0.40144163370132446289062500000000f,1.24002206325531005859375000000000f,-0.21150615811347961425781250000000f,-0.25863748788833618164062500000000f,1.17579293251037597656250000000000f,0.31378802657127380371093750000000f,-0.15299677848815917968750000000000f,0.81136763095855712890625000000000f,0.01536781620234251022338867187500f,-0.03061738982796669006347656250000f,-0.58369803428649902343750000000000f,-0.68835306167602539062500000000000f,-0.78794604539871215820312500000000f,-0.63581556081771850585937500000000f,-0.34533515572547912597656250000000f,-0.09687481820583343505859375000000f,-0.68477088212966918945312500000000f,0.29824063181877136230468750000000f,-0.34544223546981811523437500000000f,-0.10194708406925201416015625000000f,-0.36981979012489318847656250000000f,1.06914997100830078125000000000000f,0.15140625834465026855468750000000f,0.16628365218639373779296875000000f,0.59835010766983032226562500000000f,-0.06782341003417968750000000000000f,-0.10884853452444076538085937500000f,-0.56075507402420043945312500000000f,0.24392737448215484619140625000000f,-0.76337748765945434570312500000000f,-0.78533709049224853515625000000000f,0.12538893520832061767578125000000f,0.16252787411212921142578125000000f,-0.17598874866962432861328125000000f,-0.06226932629942893981933593750000f,-0.22266918420791625976562500000000f,-0.44209811091423034667968750000000f,-0.36775955557823181152343750000000f,0.20655322074890136718750000000000f,-0.03087907284498214721679687500000f,-0.61100864410400390625000000000000f,2.49512338638305664062500000000000f,-0.40605393052101135253906250000000f,-0.20602729916572570800781250000000f,-1.00972414016723632812500000000000f,-1.07655143737792968750000000000000f,0.67632406949996948242187500000000f,-0.16698560118675231933593750000000f,1.64586961269378662109375000000000f,0.37560671567916870117187500000000f,-0.46442550420761108398437500000000f,-0.38366776704788208007812500000000f,-0.19844990968704223632812500000000f,0.80485826730728149414062500000000f,-0.44002988934516906738281250000000f,-0.38112142682075500488281250000000f,-0.19719253480434417724609375000000f,-0.49630820751190185546875000000000f,1.13629186153411865234375000000000f,-0.12337383627891540527343750000000f,-1.44075989723205566406250000000000f,-0.59371608495712280273437500000000f,-0.32372936606407165527343750000000f,0.36388033628463745117187500000000f,-1.26775443553924560546875000000000f,-0.92998278141021728515625000000000f,-0.23049210011959075927734375000000f,-1.00487673282623291015625000000000f,0.60353928804397583007812500000000f,0.01998803205788135528564453125000f,-1.04446196556091308593750000000000f,-0.28343296051025390625000000000000f,0.10652861744165420532226562500000f,-0.19567677378654479980468750000000f,-1.32672667503356933593750000000000f,-0.16547486186027526855468750000000f,-0.13488760590553283691406250000000f,-0.31081065535545349121093750000000f,0.31277886033058166503906250000000f,-0.22502511739730834960937500000000f,1.47774231433868408203125000000000f,-0.51831477880477905273437500000000f,0.03196999803185462951660156250000f,-0.57962870597839355468750000000000f,0.18203686177730560302734375000000f,-0.19779136776924133300781250000000f,0.26528787612915039062500000000000f,-0.48524013161659240722656250000000f,-0.39928853511810302734375000000000f,1.79427289962768554687500000000000f,0.27110478281974792480468750000000f,1.08791923522949218750000000000000f,0.15525890886783599853515625000000f,-0.27215996384620666503906250000000f,0.29003906250000000000000000000000f,0.74515700340270996093750000000000f,-0.19306154549121856689453125000000f,-0.21682673692703247070312500000000f,0.02912150137126445770263671875000f,1.87059164047241210937500000000000f,0.12940810620784759521484375000000f,-0.22602428495883941650390625000000f,-0.23658663034439086914062500000000f,-0.96120685338973999023437500000000f,-0.24061165750026702880859375000000f,-0.73817402124404907226562500000000f,-0.18736600875854492187500000000000f,-0.01375800929963588714599609375000f,-0.03688561916351318359375000000000f,-0.80228215456008911132812500000000f,-0.05437713488936424255371093750000f,-1.04236459732055664062500000000000f,-0.52442777156829833984375000000000f,0.16752941906452178955078125000000f,1.22625935077667236328125000000000f,-0.17289650440216064453125000000000f,-0.76028239727020263671875000000000f,0.62159210443496704101562500000000f,-0.50341522693634033203125000000000f,-0.46549952030181884765625000000000f,-0.19939446449279785156250000000000f,-0.21506232023239135742187500000000f,-0.78483557701110839843750000000000f,0.19739082455635070800781250000000f,0.09238516539335250854492187500000f,0.33961927890777587890625000000000f,-0.89512151479721069335937500000000f,0.19410116970539093017578125000000f,0.44047236442565917968750000000000f,0.09905547648668289184570312500000f,0.01868346519768238067626953125000f,1.36402869224548339843750000000000f,-0.41251251101493835449218750000000f,-0.11281044781208038330078125000000f,1.95035803318023681640625000000000f,0.01142392214387655258178710937500f,-0.12625770270824432373046875000000f,-0.26066395640373229980468750000000f,1.28356003761291503906250000000000f,-1.31635749340057373046875000000000f,-0.73655927181243896484375000000000f,-0.24431511759757995605468750000000f,-0.43344753980636596679687500000000f,1.23774480819702148437500000000000f,0.22651413083076477050781250000000f,-0.63344162702560424804687500000000f,-0.13408905267715454101562500000000f,-0.00240380153991281986236572265625f,0.56976562738418579101562500000000f,0.11234530061483383178710937500000f,-0.82227933406829833984375000000000f,0.72710150480270385742187500000000f,0.52686846256256103515625000000000f,-0.73015123605728149414062500000000f,0.00061449198983609676361083984375f,-0.41582188010215759277343750000000f,-0.46681162714958190917968750000000f,0.20832797884941101074218750000000f,-0.36860838532447814941406250000000f,-0.26701450347900390625000000000000f,-0.54307371377944946289062500000000f,-0.30797296762466430664062500000000f,1.59907472133636474609375000000000f,-0.56413805484771728515625000000000f,-0.16367498040199279785156250000000f,-1.09316611289978027343750000000000f,-0.05686035007238388061523437500000f,-0.51685959100723266601562500000000f,-0.14672997593879699707031250000000f,-0.23018664121627807617187500000000f,0.42972064018249511718750000000000f,-0.25759872794151306152343750000000f,-0.42372688651084899902343750000000f,0.18617367744445800781250000000000f,-0.36416193842887878417968750000000f,-0.38585963845252990722656250000000f,0.79157429933547973632812500000000f,0.30456385016441345214843750000000f,-0.94173377752304077148437500000000f,-0.27133911848068237304687500000000f,-0.33871120214462280273437500000000f,-0.11066956818103790283203125000000f,0.11271649599075317382812500000000f,-0.10672512650489807128906250000000f,0.40807294845581054687500000000000f,-0.11896358430385589599609375000000f,-0.02979269810020923614501953125000f,-0.25007361173629760742187500000000f,-0.43658372759819030761718750000000f,-0.76141834259033203125000000000000f,-0.35326197743415832519531250000000f,-0.16966183483600616455078125000000f,0.09357951581478118896484375000000f,-0.21742822229862213134765625000000f,0.65248984098434448242187500000000f,-0.06375592947006225585937500000000f,-0.60973596572875976562500000000000f,-0.78424859046936035156250000000000f,-0.72914069890975952148437500000000f,-0.33602342009544372558593750000000f,-0.44012698531150817871093750000000f,1.02111053466796875000000000000000f,-0.44182384014129638671875000000000f,-0.06592555344104766845703125000000f,-0.67803025245666503906250000000000f,-0.12474251538515090942382812500000f,-0.05968720093369483947753906250000f,-0.56684470176696777343750000000000f,-0.01838749647140502929687500000000f,0.27542808651924133300781250000000f,0.09218037873506546020507812500000f,-0.33044916391372680664062500000000f,-0.05568534135818481445312500000000f,0.27899032831192016601562500000000f,0.17060710489749908447265625000000f,0.02475741319358348846435546875000f,-0.23153842985630035400390625000000f,-0.51926833391189575195312500000000f,-0.11350076645612716674804687500000f,0.42884182929992675781250000000000f,-0.06873711198568344116210937500000f,-0.09691976755857467651367187500000f,-0.17081543803215026855468750000000f,0.25414139032363891601562500000000f,-0.22897394001483917236328125000000f,0.01687390729784965515136718750000f,-0.70493495464324951171875000000000f,0.20246103405952453613281250000000f,-0.46083983778953552246093750000000f,0.26958030462265014648437500000000f,0.34839728474617004394531250000000f,-0.35089963674545288085937500000000f,0.06408663839101791381835937500000f,-0.48418986797332763671875000000000f,0.00364310364238917827606201171875f,-0.61513835191726684570312500000000f,-0.13423047959804534912109375000000f,0.51979809999465942382812500000000f,-0.07124273478984832763671875000000f,-0.47452154755592346191406250000000f,-0.09869813919067382812500000000000f,0.14442948997020721435546875000000f,-0.05488061532378196716308593750000f,-0.14987421035766601562500000000000f,0.42291194200515747070312500000000f,-0.47927767038345336914062500000000f,-0.41234457492828369140625000000000f,1.17985105514526367187500000000000f,0.15050180256366729736328125000000f,-0.22202007472515106201171875000000f,0.04243765026330947875976562500000f,-0.73396283388137817382812500000000f,-0.09079278260469436645507812500000f,0.16044206917285919189453125000000f,0.09873689711093902587890625000000f,0.61610704660415649414062500000000f,0.39609786868095397949218750000000f,0.28568276762962341308593750000000f,-0.08397579193115234375000000000000f,-0.44184151291847229003906250000000f,0.31873694062232971191406250000000f,-0.54646646976470947265625000000000f,-0.12428444623947143554687500000000f,-0.45029923319816589355468750000000f,0.08631135523319244384765625000000f,0.08066406846046447753906250000000f,0.51760631799697875976562500000000f,-0.38788071274757385253906250000000f,0.85637468099594116210937500000000f,-0.08987364917993545532226562500000f,-0.07426462322473526000976562500000f,-0.35995236039161682128906250000000f,-0.53614652156829833984375000000000f,0.10185915231704711914062500000000f,-0.19080841541290283203125000000000f,-0.16001392900943756103515625000000f,-0.06193687766790390014648437500000f,-0.22259965538978576660156250000000f,0.22025035321712493896484375000000f,0.03815554082393646240234375000000f,0.02589774504303932189941406250000f,0.28355690836906433105468750000000f,0.14371858537197113037109375000000f,-0.20240239799022674560546875000000f,-0.22872917354106903076171875000000f,-0.00703591713681817054748535156250f,0.17438168823719024658203125000000f,0.01211415883153676986694335937500f,-0.68765467405319213867187500000000f,0.16824129223823547363281250000000f,-0.13418655097484588623046875000000f,-0.24210523068904876708984375000000f,0.53344643115997314453125000000000f,-0.24188175797462463378906250000000f,-0.00466586882248520851135253906250f,-0.04420566931366920471191406250000f,-0.11837209016084671020507812500000f,0.05754879117012023925781250000000f,-0.33915060758590698242187500000000f,-0.18623125553131103515625000000000f,-0.29977422952651977539062500000000f,-0.10544843226671218872070312500000f,-0.91843295097351074218750000000000f,-0.00835620518773794174194335937500f,-0.20970802009105682373046875000000f,-0.15314376354217529296875000000000f,0.02007541805505752563476562500000f,-0.21610091626644134521484375000000f,-0.69486236572265625000000000000000f,-0.09846960008144378662109375000000f,0.09999746084213256835937500000000f,0.07550009340047836303710937500000f,-0.14261549711227416992187500000000f,-0.32451406121253967285156250000000f,0.02796085737645626068115234375000f,0.14725945889949798583984375000000f,0.48593571782112121582031250000000f,-0.18176691234111785888671875000000f,-0.27626335620880126953125000000000f,-0.05497941002249717712402343750000f,0.15898153185844421386718750000000f,-0.39553791284561157226562500000000f,0.23104664683341979980468750000000f,-0.43334889411926269531250000000000f,-0.39002782106399536132812500000000f,0.13090538978576660156250000000000f,1.60490214824676513671875000000000f,-0.24080143868923187255859375000000f,-0.16563710570335388183593750000000f,-0.71220517158508300781250000000000f,0.02226533927023410797119140625000f,0.03609803691506385803222656250000f,0.28184366226196289062500000000000f,-0.09923022240400314331054687500000f,0.10058994591236114501953125000000f,-0.03752895072102546691894531250000f,-0.50648778676986694335937500000000f,-0.00937298499047756195068359375000f,-0.04669752717018127441406250000000f,0.40455570816993713378906250000000f,-0.41847798228263854980468750000000f,-0.83352166414260864257812500000000f,-0.09912553429603576660156250000000f,-0.66920191049575805664062500000000f,0.26801970601081848144531250000000f,-0.10003866255283355712890625000000f,-0.17430798709392547607421875000000f,0.26098403334617614746093750000000f,-0.18701499700546264648437500000000f,-0.13392236828804016113281250000000f,-0.09216447174549102783203125000000f,0.17846706509590148925781250000000f,-0.22942087054252624511718750000000f,-0.15924349427223205566406250000000f,0.22372469305992126464843750000000f,-0.23567308485507965087890625000000f,-0.32249802350997924804687500000000f,-0.01018636953085660934448242187500f,-0.40096038579940795898437500000000f,0.69929432868957519531250000000000f,-0.09106058627367019653320312500000f,0.43832567334175109863281250000000f,0.08699274063110351562500000000000f,0.14468741416931152343750000000000f,0.21176351606845855712890625000000f,-0.67209178209304809570312500000000f,-0.26765263080596923828125000000000f,0.56118339300155639648437500000000f,-0.35952338576316833496093750000000f,0.38740664720535278320312500000000f,0.01062416564673185348510742187500f,0.08481851220130920410156250000000f,-0.10981304943561553955078125000000f,-0.21641847491264343261718750000000f,0.27052828669548034667968750000000f,-0.11406150460243225097656250000000f,-0.27757161855697631835937500000000f,0.08015254884958267211914062500000f,0.29492267966270446777343750000000f,-0.42801508307456970214843750000000f,-0.59970021247863769531250000000000f,-0.07307090610265731811523437500000f,-0.13755053281784057617187500000000f,-0.24380485713481903076171875000000f,0.04550705477595329284667968750000f,0.22078104317188262939453125000000f,1.24112224578857421875000000000000f,-0.54831957817077636718750000000000f,-0.14038839936256408691406250000000f,-0.38586190342903137207031250000000f,-0.12917992472648620605468750000000f,-0.11664133518934249877929687500000f,0.21771684288978576660156250000000f,-0.51984858512878417968750000000000f,-0.31433948874473571777343750000000f,0.60632234811782836914062500000000f,0.50621628761291503906250000000000f,-0.08589609712362289428710937500000f,-0.29273912310600280761718750000000f,0.47208756208419799804687500000000f,-0.32231315970420837402343750000000f,-0.19629448652267456054687500000000f,-0.01678998582065105438232421875000f,0.13305784761905670166015625000000f,-0.16896562278270721435546875000000f,-0.24428655207157135009765625000000f,-0.46804136037826538085937500000000f,0.65934967994689941406250000000000f,0.12412600219249725341796875000000f,0.49631398916244506835937500000000f,0.39988440275192260742187500000000f,0.55792468786239624023437500000000f,-0.14321742951869964599609375000000f,-0.02026165463030338287353515625000f,-0.31236979365348815917968750000000f,0.06709784269332885742187500000000f,-0.07243160903453826904296875000000f,-0.36611148715019226074218750000000f,-0.29016065597534179687500000000000f,-0.05027713254094123840332031250000f,-0.28032958507537841796875000000000f,-0.31080257892608642578125000000000f,0.09612036496400833129882812500000f,-0.24443788826465606689453125000000f,-0.05437371134757995605468750000000f,-0.07058047503232955932617187500000f,0.13915142416954040527343750000000f,-0.17138239741325378417968750000000f,-0.18414264917373657226562500000000f,1.14308190345764160156250000000000f,0.76709830760955810546875000000000f,-0.28970134258270263671875000000000f,0.64905762672424316406250000000000f,-1.15307641029357910156250000000000f,0.48297014832496643066406250000000f,-0.36359459161758422851562500000000f,-0.14020235836505889892578125000000f,-0.17329406738281250000000000000000f,-0.01618366315960884094238281250000f,0.02343785203993320465087890625000f,0.06801091134548187255859375000000f,-0.07042453438043594360351562500000f,-0.08369507640600204467773437500000f,-0.48286187648773193359375000000000f,-0.27155938744544982910156250000000f,-0.43804401159286499023437500000000f,0.00002390378540439996868371963501f,-0.39097130298614501953125000000000f,0.08298029750585556030273437500000f,0.09658382833003997802734375000000f,0.04455373063683509826660156250000f,-0.38723126053810119628906250000000f,-0.88046759366989135742187500000000f,0.73613500595092773437500000000000f,0.70607632398605346679687500000000f,-0.24987353384494781494140625000000f,0.24006216228008270263671875000000f,2.38034653663635253906250000000000f,-0.92057299613952636718750000000000f,-0.11476120352745056152343750000000f,-0.35714212059974670410156250000000f,-0.07437104731798171997070312500000f,-0.62488883733749389648437500000000f,-1.26582813262939453125000000000000f,0.09820821881294250488281250000000f,1.21809399127960205078125000000000f,-0.45132857561111450195312500000000f,-0.38597536087036132812500000000000f,-1.13251745700836181640625000000000f,0.81467288732528686523437500000000f,0.17665857076644897460937500000000f,-0.34131234884262084960937500000000f,0.03626767173409461975097656250000f,-0.17274281382560729980468750000000f,-1.05354881286621093750000000000000f,0.30298113822937011718750000000000f,0.24412882328033447265625000000000f,-0.45478636026382446289062500000000f,-0.13690370321273803710937500000000f,0.05627682432532310485839843750000f,-0.16408899426460266113281250000000f,-0.07438253611326217651367187500000f,0.85593771934509277343750000000000f,-0.25780183076858520507812500000000f,0.45855677127838134765625000000000f,0.01166231092065572738647460937500f,1.85018897056579589843750000000000f,-0.35226738452911376953125000000000f,-1.33258366584777832031250000000000f,-0.26725822687149047851562500000000f,-0.13751299679279327392578125000000f,-0.70452827215194702148437500000000f,-0.34689500927925109863281250000000f,1.92437255382537841796875000000000f,0.03657673299312591552734375000000f,-0.21572880446910858154296875000000f,-0.12788760662078857421875000000000f,0.56122511625289916992187500000000f,-0.44194638729095458984375000000000f,-1.29346966743469238281250000000000f,-0.40827524662017822265625000000000f,-0.09521336108446121215820312500000f,-0.17510820925235748291015625000000f,-0.03445060551166534423828125000000f,-0.22786810994148254394531250000000f,-0.74455142021179199218750000000000f,0.10779814422130584716796875000000f,0.34927541017532348632812500000000f,-0.16994431614875793457031250000000f,-0.68046760559082031250000000000000f,0.10583975166082382202148437500000f,1.44823789596557617187500000000000f,1.20790827274322509765625000000000f,-0.68146675825119018554687500000000f,-0.15024098753929138183593750000000f,-0.22001205384731292724609375000000f,-0.38759693503379821777343750000000f,-0.10988605022430419921875000000000f,-0.17823390662670135498046875000000f,-0.04944796115159988403320312500000f,0.00041701571899466216564178466797f,-0.09778876602649688720703125000000f,1.58282995223999023437500000000000f,-0.75969165563583374023437500000000f,0.75755995512008666992187500000000f,-0.37253347039222717285156250000000f,-0.46720781922340393066406250000000f,0.35928952693939208984375000000000f,-0.86265307664871215820312500000000f,-1.49800109863281250000000000000000f,-0.06158345565199851989746093750000f,0.09358136355876922607421875000000f,-0.67255365848541259765625000000000f,0.17829522490501403808593750000000f,-0.50156414508819580078125000000000f,-0.45625430345535278320312500000000f,-0.40730354189872741699218750000000f,-0.03783082589507102966308593750000f,-0.13489730656147003173828125000000f,-0.66977888345718383789062500000000f,0.06310223788022994995117187500000f,-0.89468383789062500000000000000000f,0.11792492866516113281250000000000f,0.86617481708526611328125000000000f,-0.35983294248580932617187500000000f,-0.15866984426975250244140625000000f,-0.05453058332204818725585937500000f,-0.40744134783744812011718750000000f,1.27997231483459472656250000000000f,-0.46799126267433166503906250000000f,-0.15581338107585906982421875000000f,0.00333653087727725505828857421875f,-1.00484681129455566406250000000000f,-0.47965580224990844726562500000000f,-0.33087193965911865234375000000000f,-0.10789265483617782592773437500000f,-0.61913526058197021484375000000000f,-1.22672116756439208984375000000000f,0.96387898921966552734375000000000f,-0.23750805854797363281250000000000f,0.57268142700195312500000000000000f,-0.11318223923444747924804687500000f,-0.41338685154914855957031250000000f,-0.20993900299072265625000000000000f,-0.18496577441692352294921875000000f,-0.95586955547332763671875000000000f,-0.13250827789306640625000000000000f,-0.20241479575634002685546875000000f,-0.31987604498863220214843750000000f,-0.68134599924087524414062500000000f,0.87809711694717407226562500000000f,-0.06350538134574890136718750000000f,-0.06067606806755065917968750000000f,-0.61629420518875122070312500000000f,-0.27105465531349182128906250000000f,0.08546776324510574340820312500000f,-0.94931030273437500000000000000000f,-0.76943039894104003906250000000000f,-0.12515078485012054443359375000000f,-1.08711230754852294921875000000000f,0.61668932437896728515625000000000f,0.36866092681884765625000000000000f,0.80476689338684082031250000000000f,-0.02640537917613983154296875000000f,-0.46428066492080688476562500000000f,1.24386358261108398437500000000000f,0.02885979227721691131591796875000f,-0.30852824449539184570312500000000f,-0.22734497487545013427734375000000f,-0.54355418682098388671875000000000f,0.10247199237346649169921875000000f,-0.17602238059043884277343750000000f,-0.01990690082311630249023437500000f,-0.42723903059959411621093750000000f,0.07323586195707321166992187500000f,-0.50831478834152221679687500000000f,-0.35659244656562805175781250000000f,-0.14135016500949859619140625000000f,-0.49562224745750427246093750000000f,0.54309874773025512695312500000000f,-0.54385036230087280273437500000000f,-0.31166407465934753417968750000000f,0.28374287486076354980468750000000f,-1.42502868175506591796875000000000f,-0.04980469495058059692382812500000f,-0.42712911963462829589843750000000f,0.00184185511898249387741088867188f,1.70653569698333740234375000000000f,-0.10240931063890457153320312500000f,-0.10231661796569824218750000000000f,0.49912509322166442871093750000000f,-0.36604261398315429687500000000000f,-1.22677040100097656250000000000000f,-0.01826021820306777954101562500000f,-0.28157588839530944824218750000000f,0.67480045557022094726562500000000f,-0.25221341848373413085937500000000f,-0.96843385696411132812500000000000f,0.53825426101684570312500000000000f,-0.09093296527862548828125000000000f,0.14673633873462677001953125000000f,-0.82695537805557250976562500000000f,-0.10412166267633438110351562500000f,0.21199633181095123291015625000000f,-0.49839475750923156738281250000000f,0.36108130216598510742187500000000f,-0.75837290287017822265625000000000f,-0.18878367543220520019531250000000f,-0.04143323376774787902832031250000f,0.11967953294515609741210937500000f,-0.60111165046691894531250000000000f,-0.50875324010848999023437500000000f,-0.24926495552062988281250000000000f,-0.07540770620107650756835937500000f,-0.39152827858924865722656250000000f,1.24621486663818359375000000000000f,-0.30125072598457336425781250000000f,-0.44018951058387756347656250000000f,-1.05475044250488281250000000000000f,0.10383889824151992797851562500000f,-0.19098347425460815429687500000000f,0.32521730661392211914062500000000f,0.47393232583999633789062500000000f,-0.07942979037761688232421875000000f,-0.56232845783233642578125000000000f,-0.43764954805374145507812500000000f,0.47733470797538757324218750000000f,-0.73616003990173339843750000000000f,0.55948042869567871093750000000000f,-0.37509784102439880371093750000000f,-0.18832351267337799072265625000000f,0.11816995590925216674804687500000f,-0.26288309693336486816406250000000f,-0.29834562540054321289062500000000f,-0.59198611974716186523437500000000f,-0.12838454544544219970703125000000f,0.09574161469936370849609375000000f,0.97077882289886474609375000000000f,-0.17841811478137969970703125000000f,0.01144071482121944427490234375000f,-0.48527178168296813964843750000000f,-0.01331001240760087966918945312500f,-0.61698561906814575195312500000000f,-1.46362173557281494140625000000000f,-0.53102892637252807617187500000000f,-0.39951449632644653320312500000000f,-0.40059062838554382324218750000000f,0.47532257437705993652343750000000f,-0.68315172195434570312500000000000f,0.11116918921470642089843750000000f,0.51451790332794189453125000000000f,-0.49345266819000244140625000000000f,-0.50627952814102172851562500000000f,-0.34821277856826782226562500000000f,0.59576278924942016601562500000000f,-0.49087497591972351074218750000000f,-0.01333700679242610931396484375000f,0.76810497045516967773437500000000f,-0.12066561728715896606445312500000f,-0.42202320694923400878906250000000f,-0.20598414540290832519531250000000f,-0.49536475539207458496093750000000f,0.15962249040603637695312500000000f,-0.51451903581619262695312500000000f,-0.39228460192680358886718750000000f,0.03208796307444572448730468750000f,1.15143954753875732421875000000000f,-0.51000630855560302734375000000000f,0.34481424093246459960937500000000f,-1.51540076732635498046875000000000f,-1.09880852699279785156250000000000f,-0.19104179739952087402343750000000f,-0.83207470178604125976562500000000f,-0.64728182554244995117187500000000f,-0.10928443074226379394531250000000f,-0.00499725388363003730773925781250f,0.42763465642929077148437500000000f,-0.31163060665130615234375000000000f,0.01221893541514873504638671875000f,0.07998658716678619384765625000000f,-0.96642625331878662109375000000000f,-0.76996761560440063476562500000000f,-0.64691543579101562500000000000000f,-1.03756260871887207031250000000000f,0.10700006037950515747070312500000f,0.11036749184131622314453125000000f,0.57338428497314453125000000000000f,-0.00868910457938909530639648437500f,-0.40752857923507690429687500000000f,0.14215327799320220947265625000000f,0.27284598350524902343750000000000f,-0.29585427045822143554687500000000f,-0.45858410000801086425781250000000f,0.72129750251770019531250000000000f,-0.10613568127155303955078125000000f,0.05629489198327064514160156250000f,-0.10149452835321426391601562500000f,-0.06458564847707748413085937500000f,-0.19662341475486755371093750000000f,-0.51282900571823120117187500000000f,0.14978863298892974853515625000000f,0.41352888941764831542968750000000f,-0.10599292814731597900390625000000f,0.24008481204509735107421875000000f,0.11763508617877960205078125000000f,0.14216025173664093017578125000000f,0.06486847251653671264648437500000f,-0.18526268005371093750000000000000f,-0.01890381984412670135498046875000f,0.04047081246972084045410156250000f,-0.21932670474052429199218750000000f,-0.24298143386840820312500000000000f,-0.12234949320554733276367187500000f,0.00328135327436029911041259765625f,-0.10005280375480651855468750000000f,-0.02560710906982421875000000000000f,0.38325175642967224121093750000000f,-0.07374342530965805053710937500000f,-0.16624027490615844726562500000000f,0.19722184538841247558593750000000f,-0.26643607020378112792968750000000f,0.19092965126037597656250000000000f,0.03269927203655242919921875000000f,-0.27731180191040039062500000000000f,-0.03695443272590637207031250000000f,-0.11254110932350158691406250000000f,0.06871251016855239868164062500000f,-0.33360302448272705078125000000000f,0.27084857225418090820312500000000f,0.10226767510175704956054687500000f,-0.01817469298839569091796875000000f,0.42777061462402343750000000000000f,-0.06596281379461288452148437500000f,0.80561035871505737304687500000000f,-0.30923464894294738769531250000000f,-0.54434245824813842773437500000000f,-0.14056773483753204345703125000000f,0.45158714056015014648437500000000f,-0.11623628437519073486328125000000f,-0.15685316920280456542968750000000f,0.08976155519485473632812500000000f,-0.06934405118227005004882812500000f,-0.05452574789524078369140625000000f,0.18844336271286010742187500000000f,0.04784808680415153503417968750000f,0.38076972961425781250000000000000f,0.16924630105495452880859375000000f,0.55190718173980712890625000000000f,0.61612063646316528320312500000000f,0.21571733057498931884765625000000f,-0.17443691194057464599609375000000f,-0.31469854712486267089843750000000f,0.18759560585021972656250000000000f,0.11193156987428665161132812500000f,-0.09459501504898071289062500000000f,-0.20528279244899749755859375000000f,-0.06914244592189788818359375000000f,0.04271979257464408874511718750000f,0.29375395178794860839843750000000f,-0.29146027565002441406250000000000f,-0.09241292625665664672851562500000f,-0.01919913291931152343750000000000f,0.01453860290348529815673828125000f,0.06825674325227737426757812500000f,-0.51816272735595703125000000000000f,0.25180742144584655761718750000000f,-0.17160667479038238525390625000000f,-0.17681744694709777832031250000000f,0.03352786600589752197265625000000f,-0.21118849515914916992187500000000f,0.15685656666755676269531250000000f,-0.18143546581268310546875000000000f,0.32955911755561828613281250000000f,0.22041097283363342285156250000000f,0.12994521856307983398437500000000f,-0.18998827040195465087890625000000f,-0.19041521847248077392578125000000f,-0.56342524290084838867187500000000f,-0.17008930444717407226562500000000f,0.48659074306488037109375000000000f,-0.20644238591194152832031250000000f,0.15721584856510162353515625000000f,-0.22462992370128631591796875000000f,-0.26149493455886840820312500000000f,0.14838075637817382812500000000000f,-0.01422289293259382247924804687500f,-0.08243779093027114868164062500000f,-0.06481786072254180908203125000000f,-0.63586646318435668945312500000000f,-0.05584916472434997558593750000000f,-0.12940822541713714599609375000000f,-0.15840537846088409423828125000000f,0.13001900911331176757812500000000f,-0.18252153694629669189453125000000f,0.00598558597266674041748046875000f,0.00646436447277665138244628906250f,0.70028871297836303710937500000000f,-0.26435151696205139160156250000000f,0.12175048142671585083007812500000f,-0.08497632294893264770507812500000f,-0.50059562921524047851562500000000f,0.54633718729019165039062500000000f,-0.01882117800414562225341796875000f,0.46710461378097534179687500000000f,0.03271588310599327087402343750000f,-0.14970630407333374023437500000000f,-0.16474723815917968750000000000000f,-0.29060930013656616210937500000000f,-0.50153839588165283203125000000000f,-0.06380850821733474731445312500000f,-0.06059090420603752136230468750000f,-0.14009462296962738037109375000000f,0.17959181964397430419921875000000f,0.50906836986541748046875000000000f,0.27870395779609680175781250000000f,0.02723386883735656738281250000000f,0.26045665144920349121093750000000f,0.17092838883399963378906250000000f,-0.12927004694938659667968750000000f,0.01722025126218795776367187500000f,-0.14903558790683746337890625000000f,-0.01433623954653739929199218750000f,-0.16765567660331726074218750000000f,-0.02811328135430812835693359375000f,0.05942341685295104980468750000000f,-0.09029352664947509765625000000000f,0.07421103864908218383789062500000f,0.02256023883819580078125000000000f,0.63437682390213012695312500000000f,0.04196923226118087768554687500000f,-0.04622823372483253479003906250000f,-0.04208359494805335998535156250000f,-0.15184533596038818359375000000000f,0.77602106332778930664062500000000f,-0.00474305590614676475524902343750f,0.26138761639595031738281250000000f,-0.76789289712905883789062500000000f,-0.02056840062141418457031250000000f,0.11498607695102691650390625000000f,0.22596319019794464111328125000000f,-0.21665196120738983154296875000000f,-0.12142725288867950439453125000000f,-0.06477896124124526977539062500000f,0.43107888102531433105468750000000f,-0.16655862331390380859375000000000f,-0.13386002182960510253906250000000f,0.21941933035850524902343750000000f,0.49599301815032958984375000000000f,-0.32265779376029968261718750000000f,-0.07243993133306503295898437500000f,-0.24755486845970153808593750000000f,0.17265376448631286621093750000000f,-0.07597981393337249755859375000000f,-0.12572227418422698974609375000000f,0.30648636817932128906250000000000f,0.08511542528867721557617187500000f,0.23122592270374298095703125000000f,-0.26106169819831848144531250000000f,-0.34934729337692260742187500000000f,0.38276973366737365722656250000000f,-0.30746877193450927734375000000000f,0.20832821726799011230468750000000f,0.16980530321598052978515625000000f,0.04824252799153327941894531250000f,-0.01795391738414764404296875000000f,0.28445115685462951660156250000000f,-0.04269756749272346496582031250000f,-0.05104468390345573425292968750000f,-0.13012577593326568603515625000000f,0.17415185272693634033203125000000f,-0.17145131528377532958984375000000f,0.33465272188186645507812500000000f,-0.34599030017852783203125000000000f,-0.03388894721865653991699218750000f,0.32088667154312133789062500000000f,-0.06046622619032859802246093750000f,-0.13155709207057952880859375000000f,-0.19866815209388732910156250000000f,0.16433651745319366455078125000000f,0.52498072385787963867187500000000f,-0.09090898185968399047851562500000f,-0.13063344359397888183593750000000f,0.25922951102256774902343750000000f,-0.26822322607040405273437500000000f,0.21797902882099151611328125000000f,-0.13782604038715362548828125000000f,0.41937658190727233886718750000000f,-0.42533206939697265625000000000000f,0.01460679806768894195556640625000f,0.00703288195654749870300292968750f,-0.04145624861121177673339843750000f,-0.08511622250080108642578125000000f,-0.25072118639945983886718750000000f,-0.62089025974273681640625000000000f,-0.11271534115076065063476562500000f,0.03766507282853126525878906250000f,-0.13778857886791229248046875000000f,-0.44627624750137329101562500000000f,-0.13293047249317169189453125000000f,-0.71258598566055297851562500000000f,0.13180059194564819335937500000000f,-0.09118282049894332885742187500000f,0.13055823743343353271484375000000f,-0.41675400733947753906250000000000f,0.09137921035289764404296875000000f,-0.30484384298324584960937500000000f,0.28615310788154602050781250000000f,-0.17508299648761749267578125000000f,-0.04251749068498611450195312500000f,-0.28065592050552368164062500000000f,0.14892916381359100341796875000000f,-0.28330081701278686523437500000000f,-0.20915888249874114990234375000000f,-0.69111698865890502929687500000000f,0.05593333020806312561035156250000f,-0.06822392344474792480468750000000f,-0.08782988041639328002929687500000f,-0.05377394706010818481445312500000f,-0.02594735659658908843994140625000f,-0.18400008976459503173828125000000f,-0.11734418570995330810546875000000f,-0.75231218338012695312500000000000f,0.41966590285301208496093750000000f,-0.10746949911117553710937500000000f,-0.16725423932075500488281250000000f,-0.41937214136123657226562500000000f,-0.04977926984429359436035156250000f,-0.25207209587097167968750000000000f,0.03732789307832717895507812500000f,-0.13409206271171569824218750000000f,-0.01678690873086452484130859375000f,0.01889725960791110992431640625000f,-0.04236192256212234497070312500000f,-0.09328534454107284545898437500000f,-0.08764191716909408569335937500000f,-0.34375259280204772949218750000000f,-0.11706344783306121826171875000000f,-0.19390484690666198730468750000000f,0.08677639812231063842773437500000f,0.23408095538616180419921875000000f,0.02702501416206359863281250000000f}; 
