#include <polimidl/layers/alignment.hpp>
alignas(polimidl::layers::buffer_alignment::byte_alignment) const float weight1[] = {0.00003392604776308871805667877197f,-0.00002465346551616676151752471924f,-0.00005938420872553251683712005615f,0.00004883182555204257369041442871f,-0.00001583081757416948676109313965f,-0.00005132298247190192341804504395f,0.00005172329110791906714439392090f,-0.00001802469341782853007316589355f,-0.00005928338214289397001266479492f,-0.00000101734269719599978998303413f,-0.00007499849016312509775161743164f,-0.00009117922309087589383125305176f,0.00001479154889238998293876647949f,-0.00005056203008280135691165924072f,-0.00007910685235401615500450134277f,-0.00001387730935675790533423423767f,-0.00008150088251568377017974853516f,-0.00009705566480988636612892150879f,0.00000006205910807466352707706392f,-0.00005389337093220092356204986572f,-0.00009219762432621791958808898926f,-0.00002708019928832072764635086060f,-0.00007483441731892526149749755859f,-0.00009708414290798828005790710449f,-0.00003960718095186166465282440186f,-0.00009585195221006870269775390625f,-0.00009678150672698393464088439941f,-0.37700325250625610351562500000000f,-0.43580266833305358886718750000000f,-0.20466595888137817382812500000000f,-0.21133632957935333251953125000000f,-0.29109856486320495605468750000000f,-0.12122936546802520751953125000000f,0.15093946456909179687500000000000f,0.11947697401046752929687500000000f,0.07447369396686553955078125000000f,-0.08164474368095397949218750000000f,-0.05505864694714546203613281250000f,0.00184465025085955858230590820312f,-0.13973030447959899902343750000000f,-0.12511366605758666992187500000000f,-0.06459624320268630981445312500000f,-0.05855152010917663574218750000000f,-0.03417165204882621765136718750000f,-0.04923488199710845947265625000000f,-0.02825641073286533355712890625000f,-0.00928417965769767761230468750000f,-0.05306987464427947998046875000000f,-0.03644257038831710815429687500000f,-0.06372836232185363769531250000000f,-0.00440690480172634124755859375000f,0.02440180256962776184082031250000f,0.02213337458670139312744140625000f,0.04885043948888778686523437500000f,0.15067517757415771484375000000000f,-0.13332736492156982421875000000000f,-0.13800913095474243164062500000000f,0.27584215998649597167968750000000f,-0.16617101430892944335937500000000f,-0.17029751837253570556640625000000f,0.10379702597856521606445312500000f,-0.02660089358687400817871093750000f,-0.06558018922805786132812500000000f,0.32050195336341857910156250000000f,-0.15301480889320373535156250000000f,-0.14254006743431091308593750000000f,0.44345706701278686523437500000000f,-0.15550705790519714355468750000000f,-0.15852236747741699218750000000000f,0.09583715349435806274414062500000f,-0.09557792544364929199218750000000f,-0.07641512900590896606445312500000f,0.15467296540737152099609375000000f,-0.08324214071035385131835937500000f,-0.09651985764503479003906250000000f,0.15762223303318023681640625000000f,-0.11276267468929290771484375000000f,-0.08381673693656921386718750000000f,-0.03263146057724952697753906250000f,-0.00156123680062592029571533203125f,-0.04865089431405067443847656250000f,0.00001155685095000080764293670654f,0.00002588754978205543011426925659f,0.00004216445449856109917163848877f,0.00000620530590822454541921615601f,0.00002518690962460823357105255127f,0.00002454946843499783426523208618f,0.00001064819480234291404485702515f,0.00002283948924741707742214202881f,0.00002978653719765134155750274658f,-0.00002509095247660297900438308716f,-0.00002522353861422743648290634155f,0.00000848556737764738500118255615f,-0.00002111507637891918420791625977f,-0.00001164116474683396518230438232f,0.00000926103621168294921517372131f,-0.00000641635824649711139500141144f,0.00001102701935451477766036987305f,0.00002705669430724810808897018433f,-0.00004347405774751678109169006348f,-0.00002757348192972131073474884033f,-0.00000607038100497447885572910309f,-0.00003833040318568237125873565674f,-0.00004173770867055281996726989746f,-0.00001878344664874020963907241821f,-0.00002829969525919295847415924072f,-0.00003464753899606876075267791748f,-0.00001987587711482774466276168823f,0.00517422193661332130432128906250f,0.02257369086146354675292968750000f,-0.00054329301929101347923278808594f,-0.07286641746759414672851562500000f,-0.09419061988592147827148437500000f,-0.03726724162697792053222656250000f,0.25401702523231506347656250000000f,0.33669912815093994140625000000000f,0.11766839772462844848632812500000f,0.00101656687911599874496459960938f,0.00677524646744132041931152343750f,-0.01029932592064142227172851562500f,-0.45378559827804565429687500000000f,-0.67045062780380249023437500000000f,-0.19185480475425720214843750000000f,0.18823847174644470214843750000000f,0.26324450969696044921875000000000f,0.08240192383527755737304687500000f,0.08441713452339172363281250000000f,0.12178631871938705444335937500000f,0.03652906790375709533691406250000f,-0.23086787760257720947265625000000f,-0.25154766440391540527343750000000f,-0.07079121470451354980468750000000f,0.17376354336738586425781250000000f,0.17583903670310974121093750000000f,0.07310517132282257080078125000000f,-0.04346563294529914855957031250000f,-0.04349488765001296997070312500000f,-0.01349878497421741485595703125000f,0.14985641837120056152343750000000f,0.25396016240119934082031250000000f,0.08487889170646667480468750000000f,-0.05935145169496536254882812500000f,-0.15572482347488403320312500000000f,-0.02813327126204967498779296875000f,0.03736417740583419799804687500000f,0.05871267616748809814453125000000f,0.04346845671534538269042968750000f,0.34184861183166503906250000000000f,0.49244698882102966308593750000000f,0.13684032857418060302734375000000f,-0.24349941313266754150390625000000f,-0.31291282176971435546875000000000f,-0.10701239109039306640625000000000f,0.04998866468667984008789062500000f,-0.01162574347108602523803710937500f,0.02696463651955127716064453125000f,0.24376063048839569091796875000000f,0.24435772001743316650390625000000f,0.08516990393400192260742187500000f,-0.14146481454372406005859375000000f,-0.09811444580554962158203125000000f,-0.07171794772148132324218750000000f,-0.00213932944461703300476074218750f,0.00065491214627400040626525878906f,-0.00811257492750883102416992187500f,-0.01177888829261064529418945312500f,-0.00711361179128289222717285156250f,-0.01520156953483819961547851562500f,-0.00173711986280977725982666015625f,-0.00041441543726250529289245605469f,-0.01150326058268547058105468750000f,-0.00050375552382320165634155273438f,0.00342383165843784809112548828125f,-0.00348038133233785629272460937500f,-0.01253188308328390121459960937500f,-0.00673453137278556823730468750000f,-0.01397637743502855300903320312500f,0.00235010683536529541015625000000f,0.00365894334390759468078613281250f,-0.00656925048679113388061523437500f,0.00535322632640600204467773437500f,0.00502199679613113403320312500000f,-0.00404617097228765487670898437500f,-0.00200619618408381938934326171875f,-0.00136487581767141819000244140625f,-0.01077796053141355514526367187500f,0.00766304787248373031616210937500f,0.00373819074593484401702880859375f,-0.01001762691885232925415039062500f,-0.04469030722975730895996093750000f,-0.12225750833749771118164062500000f,0.48521280288696289062500000000000f,-0.13226315379142761230468750000000f,-0.31978869438171386718750000000000f,0.58208465576171875000000000000000f,-0.01480561122298240661621093750000f,-0.26012355089187622070312500000000f,0.23187655210494995117187500000000f,-0.09640128165483474731445312500000f,-0.13574409484863281250000000000000f,0.54071235656738281250000000000000f,-0.02941646613180637359619140625000f,-0.23193651437759399414062500000000f,0.67895162105560302734375000000000f,0.07987092435359954833984375000000f,-0.23436328768730163574218750000000f,0.22278307378292083740234375000000f,-0.15586835145950317382812500000000f,-0.08825071901082992553710937500000f,0.26621046662330627441406250000000f,-0.04110846295952796936035156250000f,-0.23120656609535217285156250000000f,0.35572537779808044433593750000000f,0.13816450536251068115234375000000f,-0.18806803226470947265625000000000f,0.03740814328193664550781250000000f,-0.00001303399221797008067369461060f,-0.00003297424336778931319713592529f,-0.00002585099173302296549081802368f,-0.00001082497965398943051695823669f,-0.00002172451786464080214500427246f,-0.00001850034277595113962888717651f,-0.00000928460576687939465045928955f,-0.00002042326013906858861446380615f,-0.00000941676444199401885271072388f,-0.00000910744984139455482363700867f,-0.00002683022830751724541187286377f,-0.00002769917409750632941722869873f,-0.00001849500586104113608598709106f,-0.00003177126200171187520027160645f,-0.00002709858927119057625532150269f,-0.00002280325679748784750699996948f,-0.00003464844121481291949748992920f,-0.00001770663766365032643079757690f,-0.00000639630707155447453260421753f,-0.00002314002449566032737493515015f,-0.00000875383375387173146009445190f,-0.00002778734960884321480989456177f,-0.00003571133493096567690372467041f,-0.00003317694790894165635108947754f,-0.00002547728217905387282371520996f,-0.00002327620313735678791999816895f,-0.00002498286085028667002916336060f,0.00003991553239757195115089416504f,-0.00000840713983052410185337066650f,0.00000671255975248641334474086761f,0.00006907586066517978906631469727f,0.00002452182525303214788436889648f,0.00002883977867895737290382385254f,0.00006228043639566749334335327148f,0.00000960324996412964537739753723f,0.00003189086419297382235527038574f,0.00002535764178901445120573043823f,-0.00001083093684428604319691658020f,-0.00001255484676221385598182678223f,0.00005443111149361357092857360840f,0.00002179853436246048659086227417f,-0.00000540809969606925733387470245f,0.00007933950837468728423118591309f,0.00002375513759034220129251480103f,0.00001012852681014919653534889221f,0.00000400654562326963059604167938f,-0.00003839572309516370296478271484f,-0.00003175391611875966191291809082f,0.00004170014653936959803104400635f,0.00001454858374927425757050514221f,-0.00000887483838596381247043609619f,0.00002646845132403541356325149536f,-0.00000457697569800075143575668335f,-0.00002493325155228376388549804688f,-0.00000561377100893878377974033356f,0.00003673009268823079764842987061f,0.00003053637556149624288082122803f,-0.00002408542786724865436553955078f,-0.00001324832101090578362345695496f,-0.00002263415444758720695972442627f,-0.00003355270018801093101501464844f,-0.00000841361179482191801071166992f,-0.00001067509674612665548920631409f,-0.00001845205224526580423116683960f,-0.00000492391927764401771128177643f,-0.00000093290003633228479884564877f,-0.00003094117346336133778095245361f,0.00000126377392462018178775906563f,-0.00000638521851215045899152755737f,0.00001210145001095952466130256653f,0.00004223962605465203523635864258f,0.00005460939428303390741348266602f,-0.00001353167590423254296183586121f,0.00000335353524860693141818046570f,-0.00000173289618032868020236492157f,-0.00001155685276899021118879318237f,0.00002157175913453102111816406250f,0.00001588481063663493841886520386f,0.00000595338315179105848073959351f,0.00001478862941439729183912277222f,0.00000868037386680953204631805420f,-0.51403754949569702148437500000000f,-0.80816704034805297851562500000000f,-0.24165484309196472167968750000000f,0.47426101565361022949218750000000f,0.67895537614822387695312500000000f,0.22722396254539489746093750000000f,0.02530302107334136962890625000000f,0.06620471179485321044921875000000f,0.00151285296306014060974121093750f,-0.44592702388763427734375000000000f,-0.63026440143585205078125000000000f,-0.16924744844436645507812500000000f,0.49426776170730590820312500000000f,0.67493426799774169921875000000000f,0.18878695368766784667968750000000f,0.01043941173702478408813476562500f,0.04193147271871566772460937500000f,0.00675536924973130226135253906250f,-0.07052586972713470458984375000000f,-0.10769370943307876586914062500000f,-0.00924117583781480789184570312500f,0.14695170521736145019531250000000f,0.08376394212245941162109375000000f,0.04188994690775871276855468750000f,-0.08323735743761062622070312500000f,-0.08215035498142242431640625000000f,-0.02989496849477291107177734375000f,-0.24628791213035583496093750000000f,0.06659296154975891113281250000000f,0.32190263271331787109375000000000f,-0.30242881178855895996093750000000f,0.04086035490036010742187500000000f,0.28240612149238586425781250000000f,-0.20512253046035766601562500000000f,0.00145603902637958526611328125000f,0.20677982270717620849609375000000f,-0.34780207276344299316406250000000f,-0.01113149989396333694458007812500f,0.26764667034149169921875000000000f,-0.40300488471984863281250000000000f,-0.03393576666712760925292968750000f,0.20981802046298980712890625000000f,-0.17950789630413055419921875000000f,0.01925441995263099670410156250000f,0.22493176162242889404296875000000f,-0.13614593446254730224609375000000f,0.03766472637653350830078125000000f,0.24657753109931945800781250000000f,-0.18277695775032043457031250000000f,0.00702058384194970130920410156250f,0.16034804284572601318359375000000f,-0.09040568768978118896484375000000f,-0.01375362370163202285766601562500f,0.14128138124942779541015625000000f,0.34250807762145996093750000000000f,-0.87296617031097412109375000000000f,0.53617143630981445312500000000000f,0.45673617720603942871093750000000f,-0.87163996696472167968750000000000f,0.42337858676910400390625000000000f,0.12359233200550079345703125000000f,-0.33857136964797973632812500000000f,0.20936027169227600097656250000000f,0.36945492029190063476562500000000f,-0.90479230880737304687500000000000f,0.51574319601058959960937500000000f,0.53670912981033325195312500000000f,-0.76319718360900878906250000000000f,0.19959901273250579833984375000000f,-0.03996988758444786071777343750000f,-0.18397374451160430908203125000000f,0.20109038054943084716796875000000f,0.27715727686882019042968750000000f,-0.72943091392517089843750000000000f,0.44398942589759826660156250000000f,0.31408402323722839355468750000000f,-0.54483586549758911132812500000000f,0.21777987480163574218750000000000f,-0.11512400209903717041015625000000f,0.01523836329579353332519531250000f,0.09807348251342773437500000000000f,-0.00074748194310814142227172851562f,-0.00078387162648141384124755859375f,-0.00075456802733242511749267578125f,-0.00047124185948632657527923583984f,-0.00067489454522728919982910156250f,-0.00063564477022737264633178710938f,-0.00077169254655018448829650878906f,-0.00105966906994581222534179687500f,-0.00105130358133465051651000976562f,-0.00099779851734638214111328125000f,-0.00101140874903649091720581054688f,-0.00102483469527214765548706054688f,-0.00095298903761431574821472167969f,-0.00108763296157121658325195312500f,-0.00109281076584011316299438476562f,-0.00113484414760023355484008789062f,-0.00139720179140567779541015625000f,-0.00140991166699677705764770507812f,-0.00064799649408087134361267089844f,-0.00038557045627385377883911132812f,-0.00026408952544443309307098388672f,-0.00038872312870807945728302001953f,-0.00010980381921399384737014770508f,-0.00008912439807318150997161865234f,-0.00031514011789113283157348632812f,-0.00008993189112516120076179504395f,-0.00018141645705327391624450683594f,0.13635312020778656005859375000000f,0.21633435785770416259765625000000f,0.05765689909458160400390625000000f,0.13961875438690185546875000000000f,0.23268604278564453125000000000000f,0.05444030463695526123046875000000f,-0.00598544953390955924987792968750f,-0.01392348203808069229125976562500f,0.00940863694995641708374023437500f,-0.44488614797592163085937500000000f,-0.67059606313705444335937500000000f,-0.19161848723888397216796875000000f,-0.43433013558387756347656250000000f,-0.66551268100738525390625000000000f,-0.16070035099983215332031250000000f,-0.07625152915716171264648437500000f,-0.12006524950265884399414062500000f,-0.06267558783292770385742187500000f,0.09699113667011260986328125000000f,0.13161203265190124511718750000000f,0.05135099589824676513671875000000f,0.11877160519361495971679687500000f,0.22284565865993499755859375000000f,0.04302460700273513793945312500000f,-0.04192796349525451660156250000000f,-0.01907047443091869354248046875000f,0.00096132652834057807922363281250f,-0.10879388451576232910156250000000f,-0.04881891235709190368652343750000f,-0.09456836432218551635742187500000f,0.33441928029060363769531250000000f,0.40298441052436828613281250000000f,0.19130234420299530029296875000000f,0.03105017915368080139160156250000f,-0.02775474265217781066894531250000f,-0.08356403559446334838867187500000f,-0.03057448938488960266113281250000f,-0.06482431292533874511718750000000f,-0.07455018907785415649414062500000f,0.24676971137523651123046875000000f,0.17928323149681091308593750000000f,0.04486846178770065307617187500000f,0.12989392876625061035156250000000f,-0.00393284857273101806640625000000f,-0.00077976594911888241767883300781f,0.05892626941204071044921875000000f,-0.02144135721027851104736328125000f,0.05865299701690673828125000000000f,0.01194494403898715972900390625000f,-0.16831551492214202880859375000000f,-0.10197383910417556762695312500000f,0.04214532300829887390136718750000f,-0.14508219063282012939453125000000f,0.01404729764908552169799804687500f,0.64806091785430908203125000000000f,-0.04537020623683929443359375000000f,-0.07643732428550720214843750000000f,0.63973867893218994140625000000000f,-0.25611600279808044433593750000000f,-0.18918381631374359130859375000000f,0.28755882382392883300781250000000f,-0.19911158084869384765625000000000f,-0.18998198211193084716796875000000f,0.56597399711608886718750000000000f,-0.14303450286388397216796875000000f,-0.15968644618988037109375000000000f,0.62365931272506713867187500000000f,-0.28596776723861694335937500000000f,-0.14441040158271789550781250000000f,0.32199236750602722167968750000000f,-0.16745713353157043457031250000000f,-0.05498026311397552490234375000000f,0.24621286988258361816406250000000f,-0.12221680581569671630859375000000f,-0.17023704946041107177734375000000f,0.24897544085979461669921875000000f,-0.22009322047233581542968750000000f,-0.04461787268519401550292968750000f,0.17969557642936706542968750000000f,-0.10386255383491516113281250000000f,0.03044013120234012603759765625000f,-0.23781241476535797119140625000000f,-0.00989154819399118423461914062500f,0.35285905003547668457031250000000f,-0.26515370607376098632812500000000f,-0.05331097915768623352050781250000f,0.36209461092948913574218750000000f,-0.26521161198616027832031250000000f,-0.07532288134098052978515625000000f,0.23842364549636840820312500000000f,-0.33601146936416625976562500000000f,-0.04544626176357269287109375000000f,0.38032406568527221679687500000000f,-0.34896972775459289550781250000000f,-0.07577234506607055664062500000000f,0.39943817257881164550781250000000f,-0.26704683899879455566406250000000f,-0.01668671518564224243164062500000f,0.35767295956611633300781250000000f,-0.27128052711486816406250000000000f,-0.02369686216115951538085937500000f,0.23262715339660644531250000000000f,-0.27417662739753723144531250000000f,-0.05703198909759521484375000000000f,0.23690305650234222412109375000000f,-0.18103729188442230224609375000000f,0.03655655682086944580078125000000f,0.25799039006233215332031250000000f,-0.13301627337932586669921875000000f,-0.21108824014663696289062500000000f,-0.05861523747444152832031250000000f,0.14012272655963897705078125000000f,0.26479268074035644531250000000000f,0.08779662102460861206054687500000f,-0.02301150560379028320312500000000f,-0.08043130487203598022460937500000f,-0.03935882076621055603027343750000f,0.47570586204528808593750000000000f,0.74606287479400634765625000000000f,0.34411951899528503417968750000000f,-0.50789052248001098632812500000000f,-0.83302223682403564453125000000000f,-0.44956383109092712402343750000000f,0.02164885215461254119873046875000f,0.10151548683643341064453125000000f,0.11598864942789077758789062500000f,0.18188595771789550781250000000000f,0.23341530561447143554687500000000f,-0.04897425696253776550292968750000f,-0.42436197400093078613281250000000f,-0.52108454704284667968750000000000f,0.01638717390596866607666015625000f,0.26081988215446472167968750000000f,0.31747835874557495117187500000000f,0.01958793587982654571533203125000f,-0.00037864386104047298431396484375f,-0.00027376218349672853946685791016f,-0.00014583564188797026872634887695f,-0.00042919226689264178276062011719f,-0.00027355761267244815826416015625f,-0.00014609235222451388835906982422f,-0.00044804220669902861118316650391f,-0.00028243887936696410179138183594f,-0.00011416229972383007407188415527f,-0.00030716584296897053718566894531f,-0.00024955379194580018520355224609f,-0.00024705214309506118297576904297f,-0.00030008098110556602478027343750f,-0.00021792104234918951988220214844f,-0.00023695843992754817008972167969f,-0.00034265307476744055747985839844f,-0.00023352667631115764379501342773f,-0.00022369563521351665258407592773f,-0.00015932925452943891286849975586f,-0.00012869328202214092016220092773f,-0.00016962701920419931411743164062f,-0.00015952260582707822322845458984f,-0.00010816265421453863382339477539f,-0.00015737643116153776645660400391f,-0.00014650470984634011983871459961f,-0.00006914532423252239823341369629f,-0.00012799765681847929954528808594f,-0.20372700691223144531250000000000f,-0.29669401049613952636718750000000f,-0.30215355753898620605468750000000f,0.43046173453330993652343750000000f,0.39677420258522033691406250000000f,0.16894213855266571044921875000000f,0.38732385635375976562500000000000f,0.33855369687080383300781250000000f,0.15772348642349243164062500000000f,0.45903238654136657714843750000000f,0.47635310888290405273437500000000f,0.43333128094673156738281250000000f,-0.30827605724334716796875000000000f,-0.31731781363487243652343750000000f,-0.07249053567647933959960937500000f,-0.72385764122009277343750000000000f,-0.75194358825683593750000000000000f,-0.33667203783988952636718750000000f,-0.24278719723224639892578125000000f,-0.21588551998138427734375000000000f,-0.16119873523712158203125000000000f,-0.11224022507667541503906250000000f,-0.02147175744175910949707031250000f,-0.07627258449792861938476562500000f,0.31613814830780029296875000000000f,0.39351448416709899902343750000000f,0.18253473937511444091796875000000f,-0.00000405019909521797671914100647f,-0.00000393735081161139532923698425f,-0.00010367821960244327783584594727f,-0.00001848836473072879016399383545f,-0.00001578275623614899814128875732f,-0.00011061352415708824992179870605f,0.00000658927183394553139805793762f,0.00000551910261492594145238399506f,-0.00008000697562238201498985290527f,-0.00002534988925617653876543045044f,-0.00001616447661945130676031112671f,-0.00012654947931878268718719482422f,-0.00001653692561376374214887619019f,-0.00002108775333908852189779281616f,-0.00010808663500938564538955688477f,0.00001708947092993184924125671387f,0.00000841556811792543157935142517f,-0.00008228396472986787557601928711f,0.00000449521985501633025705814362f,0.00000767928941058926284313201904f,-0.00010078440391225740313529968262f,0.00001231136047863401472568511963f,0.00000217030924432037863880395889f,-0.00009834706725087016820907592773f,0.00001964393231901340186595916748f,0.00000299538987746927887201309204f,-0.00007532888412242755293846130371f,-0.49298980832099914550781250000000f,-0.64455658197402954101562500000000f,-0.19741584360599517822265625000000f,-0.30994954705238342285156250000000f,-0.40128272771835327148437500000000f,-0.14255633950233459472656250000000f,0.02229991368949413299560546875000f,0.01254398189485073089599609375000f,-0.00219501485116779804229736328125f,-0.28097966313362121582031250000000f,-0.38647681474685668945312500000000f,-0.11974099278450012207031250000000f,-0.16863635182380676269531250000000f,-0.23580425977706909179687500000000f,-0.07962416112422943115234375000000f,0.00472191534936428070068359375000f,-0.00436308840289711952209472656250f,0.01768568158149719238281250000000f,0.17547827959060668945312500000000f,0.16741330921649932861328125000000f,0.08002460002899169921875000000000f,0.09348405897617340087890625000000f,0.11467719823122024536132812500000f,0.03203138709068298339843750000000f,-0.02394272014498710632324218750000f,-0.01107390597462654113769531250000f,0.00180725671816617250442504882812f,-0.00001726266418700106441974639893f,-0.00006602412759093567728996276855f,-0.00005810010407003574073314666748f,-0.00003690004450618289411067962646f,-0.00006785293226130306720733642578f,-0.00003379931149538606405258178711f,-0.00001049005277309333905577659607f,-0.00003953929626732133328914642334f,-0.00000509196934217470698058605194f,-0.00010545450641075149178504943848f,-0.00012354673526715487241744995117f,-0.00009069735097000375390052795410f,-0.00010463426588103175163269042969f,-0.00011841816012747585773468017578f,-0.00006937442230992019176483154297f,-0.00007986719720065593719482421875f,-0.00009091716492548584938049316406f,-0.00003934081905754283070564270020f,-0.00004881654240307398140430450439f,-0.00007984840340213850140571594238f,-0.00005913259155931882560253143311f,-0.00002962401595141272991895675659f,-0.00005083087671664543449878692627f,-0.00003476409256109036505222320557f,-0.00000397508847527205944061279297f,-0.00004485495446715503931045532227f,-0.00000502221155329607427120208740f,-0.05701455473899841308593750000000f,0.01072617992758750915527343750000f,0.00893164984881877899169921875000f,-0.05456690862774848937988281250000f,0.13407269120216369628906250000000f,0.09741178154945373535156250000000f,0.04008070006966590881347656250000f,0.27325984835624694824218750000000f,0.22816859185695648193359375000000f,0.04270815849304199218750000000000f,0.05642219632863998413085937500000f,0.03110043145716190338134765625000f,0.17841500043869018554687500000000f,0.27667775750160217285156250000000f,0.17899867892265319824218750000000f,0.07627630978822708129882812500000f,0.25782957673072814941406250000000f,0.15228006243705749511718750000000f,-0.02486323937773704528808593750000f,-0.06775426864624023437500000000000f,-0.04699375480413436889648437500000f,-0.11686857789754867553710937500000f,-0.00176195974927395582199096679688f,-0.01068724785000085830688476562500f,-0.10270652920007705688476562500000f,0.15437228977680206298828125000000f,0.16599947214126586914062500000000f,0.20487049221992492675781250000000f,-0.53470093011856079101562500000000f,0.01312510482966899871826171875000f,0.27282395958900451660156250000000f,-0.66839027404785156250000000000000f,0.23538187146186828613281250000000f,0.18298470973968505859375000000000f,-0.31189253926277160644531250000000f,0.18052734434604644775390625000000f,0.29043725132942199707031250000000f,-0.54831844568252563476562500000000f,0.01228528749197721481323242187500f,0.31610530614852905273437500000000f,-0.78929579257965087890625000000000f,0.16268675029277801513671875000000f,0.23859390616416931152343750000000f,-0.45340713858604431152343750000000f,0.16102245450019836425781250000000f,0.12039250880479812622070312500000f,-0.18259176611900329589843750000000f,-0.05152155458927154541015625000000f,0.19167631864547729492187500000000f,-0.43754929304122924804687500000000f,0.15641269087791442871093750000000f,0.11750949919223785400390625000000f,-0.17348399758338928222656250000000f,0.15047259628772735595703125000000f,0.00002944836705864872783422470093f,-0.00000543171881872694939374923706f,-0.00004528261342784389853477478027f,0.00002361892984481528401374816895f,-0.00000606275261816335842013359070f,-0.00005565652099903672933578491211f,0.00002144948848581407219171524048f,-0.00000268198232333816122263669968f,-0.00004961988815921358764171600342f,0.00005115193198435008525848388672f,0.00002299643165315501391887664795f,-0.00001897687434393446892499923706f,0.00003163154906360432505607604980f,0.00000278308539236604701727628708f,-0.00004149801316088996827602386475f,0.00002121223405993077903985977173f,0.00000149857623910065740346908569f,-0.00003980299152317456901073455811f,0.00004305884067434817552566528320f,-0.00000060755417052860138937830925f,-0.00004980103767593391239643096924f,0.00004622740380000323057174682617f,0.00001186833287647459656000137329f,-0.00003091102553298696875572204590f,0.00003488306901999749243259429932f,0.00001688115480646956712007522583f,-0.00002880228566937148571014404297f,-0.33851617574691772460937500000000f,-0.58394396305084228515625000000000f,-0.13158115744590759277343750000000f,-0.25416797399520874023437500000000f,-0.44058448076248168945312500000000f,-0.12895014882087707519531250000000f,0.19754804670810699462890625000000f,0.25480693578720092773437500000000f,0.07952091097831726074218750000000f,0.24463813006877899169921875000000f,0.42247483134269714355468750000000f,0.15369106829166412353515625000000f,0.03407859429717063903808593750000f,0.11126513034105300903320312500000f,0.05060119926929473876953125000000f,-0.01238016132265329360961914062500f,-0.08961281925439834594726562500000f,-0.01707572489976882934570312500000f,0.13097065687179565429687500000000f,0.15029381215572357177734375000000f,0.00358522636815905570983886718750f,0.20533932745456695556640625000000f,0.31189966201782226562500000000000f,0.07739590853452682495117187500000f,-0.15841062366962432861328125000000f,-0.17179270088672637939453125000000f,-0.06604570895433425903320312500000f,-0.04403936490416526794433593750000f,-0.03783968463540077209472656250000f,-0.01253582909703254699707031250000f,0.03498499095439910888671875000000f,0.02994129061698913574218750000000f,0.06154702976346015930175781250000f,-0.01335911825299263000488281250000f,-0.06577904522418975830078125000000f,-0.00653216429054737091064453125000f,0.00841913558542728424072265625000f,0.07210025191307067871093750000000f,0.03767657279968261718750000000000f,-0.00965680740773677825927734375000f,0.07841153442859649658203125000000f,0.07534891366958618164062500000000f,-0.02461533062160015106201171875000f,0.01779936440289020538330078125000f,0.03667176514863967895507812500000f,0.00638676900416612625122070312500f,0.08911935240030288696289062500000f,-0.00676822988316416740417480468750f,0.03849169239401817321777343750000f,0.16535559296607971191406250000000f,0.10604988783597946166992187500000f,0.05174737423658370971679687500000f,0.12900945544242858886718750000000f,0.09312509745359420776367187500000f,0.00001423532012267969548702239990f,-0.00002491738086973782628774642944f,-0.00000782523784437216818332672119f,0.00002426787432341370731592178345f,-0.00002782824958558194339275360107f,0.00000196545329345099162310361862f,0.00001892174077511299401521682739f,-0.00001892848922580014914274215698f,0.00000613765541856992058455944061f,0.00001557362156745512038469314575f,-0.00001772471478034276515245437622f,-0.00001169895313068991526961326599f,0.00002700621189433149993419647217f,-0.00001981648347282316535711288452f,-0.00000010508441050660621840506792f,0.00001603213058842811733484268188f,-0.00002698099160625133663415908813f,0.00000314879798679612576961517334f,0.00001898694063129369169473648071f,-0.00001292392789764562621712684631f,-0.00000336182165483478456735610962f,0.00004213349529891274869441986084f,0.00000207462335310992784798145294f,0.00002276157283631619065999984741f,0.00003266202838858589529991149902f,-0.00000911881943466141819953918457f,0.00000336291395797161385416984558f,0.00731928180903196334838867187500f,0.10289823263883590698242187500000f,-0.01018669828772544860839843750000f,0.45658957958221435546875000000000f,0.67397207021713256835937500000000f,0.20516167581081390380859375000000f,0.46963173151016235351562500000000f,0.60768187046051025390625000000000f,0.23375743627548217773437500000000f,-0.03773401305079460144042968750000f,-0.05724083259701728820800781250000f,0.00037118259933777153491973876953f,-0.10642202943563461303710937500000f,-0.19563595950603485107421875000000f,-0.04623267054557800292968750000000f,-0.07804313302040100097656250000000f,-0.13671496510505676269531250000000f,-0.03836847469210624694824218750000f,-0.01381453871726989746093750000000f,0.01992049068212509155273437500000f,-0.02771092765033245086669921875000f,0.00447137700393795967102050781250f,-0.00335641880519688129425048828125f,0.00222255568951368331909179687500f,-0.00441484851762652397155761718750f,-0.01973634772002696990966796875000f,0.00361010292544960975646972656250f}; 
