#include <polimidl/layers/alignment.hpp>
alignas(polimidl::layers::buffer_alignment::byte_alignment) const float weight21[] = {-0.01007411815226078033447265625000f,0.02973720058798789978027343750000f,0.03171430900692939758300781250000f,-0.04973155632615089416503906250000f,-0.00678084837272763252258300781250f,-0.01650656014680862426757812500000f,0.09348013252019882202148437500000f,-0.26874619722366333007812500000000f,-0.00290998932905495166778564453125f,-0.01095671113580465316772460937500f,0.12269731611013412475585937500000f,0.02859734185039997100830078125000f,0.01939915865659713745117187500000f,-0.00937599968165159225463867187500f,-0.12240141630172729492187500000000f,0.04896936565637588500976562500000f,-0.01695284992456436157226562500000f,-0.06057250499725341796875000000000f,0.12219385802745819091796875000000f,0.14521753787994384765625000000000f,0.04894230887293815612792968750000f,-0.11876008659601211547851562500000f,-0.01891911961138248443603515625000f,0.00766564300283789634704589843750f,-0.15245528519153594970703125000000f,0.01858903653919696807861328125000f,-0.02678057365119457244873046875000f,0.01935712620615959167480468750000f,0.08720752596855163574218750000000f,0.00737769994884729385375976562500f,-0.18277086317539215087890625000000f,-0.03298185020685195922851562500000f,0.06426234543323516845703125000000f,-0.02797607146203517913818359375000f,0.02936044521629810333251953125000f,0.03965542837977409362792968750000f,0.08199124038219451904296875000000f,-0.03444302827119827270507812500000f,-0.05837533622980117797851562500000f,0.09725114703178405761718750000000f,0.02021253108978271484375000000000f,0.13454212248325347900390625000000f,-0.05333611741662025451660156250000f,0.07072658836841583251953125000000f,0.02629006654024124145507812500000f,0.02606742084026336669921875000000f,-0.10276447981595993041992187500000f,-0.02587229199707508087158203125000f,0.04022052884101867675781250000000f,0.06618990749120712280273437500000f,0.01229015178978443145751953125000f,0.00463454052805900573730468750000f,-0.01569896563887596130371093750000f,-0.32768571376800537109375000000000f,-0.01690511032938957214355468750000f,-0.08051948249340057373046875000000f,-0.05716338381171226501464843750000f,0.11079931259155273437500000000000f,-0.00979501008987426757812500000000f,0.06912758201360702514648437500000f,-0.01501187589019536972045898437500f,-0.04451449587941169738769531250000f,0.02028695680201053619384765625000f,0.03498608991503715515136718750000f,0.00682367803528904914855957031250f,0.01837422698736190795898437500000f,-0.02240000665187835693359375000000f,-0.01135425455868244171142578125000f,0.02457553893327713012695312500000f,-0.04948529228568077087402343750000f,-0.00641499133780598640441894531250f,0.09837459027767181396484375000000f,-0.00614726264029741287231445312500f,-0.00991524383425712585449218750000f,-0.02310626767575740814208984375000f,-0.01125892624258995056152343750000f,0.09972472488880157470703125000000f,0.01104043330997228622436523437500f,-0.02037400566041469573974609375000f,-0.00876684579998254776000976562500f,0.01233713980764150619506835937500f,0.25037017464637756347656250000000f,-0.04964835941791534423828125000000f,0.12155319750308990478515625000000f,-0.01968403905630111694335937500000f,-0.01682136952877044677734375000000f,-0.01545252744108438491821289062500f,0.00430918904021382331848144531250f,0.00282839941792190074920654296875f,0.01270830910652875900268554687500f,0.06690981239080429077148437500000f,-0.00374750467017292976379394531250f,-0.01891378685832023620605468750000f,0.04872735217213630676269531250000f,0.01327869947999715805053710937500f,-0.05117788910865783691406250000000f,0.04296276345849037170410156250000f,-0.08744239807128906250000000000000f,-0.03494787216186523437500000000000f,-0.00039054837543517351150512695312f,-0.06544344872236251831054687500000f,-0.09865432232618331909179687500000f,0.03378036990761756896972656250000f,-0.01301112398505210876464843750000f,0.01209899969398975372314453125000f,0.00940646231174468994140625000000f,0.04228525981307029724121093750000f,0.00312165031209588050842285156250f,0.02779874578118324279785156250000f,0.00398366525769233703613281250000f,-0.01505516469478607177734375000000f,-0.03631806001067161560058593750000f,-0.01005522627383470535278320312500f,-0.10341953486204147338867187500000f,0.04360453411936759948730468750000f,0.10767747461795806884765625000000f,-0.02121528424322605133056640625000f,0.01150704454630613327026367187500f,0.00713805621489882469177246093750f,-0.01622796989977359771728515625000f,-0.02334316261112689971923828125000f,-0.04858265817165374755859375000000f,-0.08968351781368255615234375000000f,0.01751223206520080566406250000000f,0.08874236792325973510742187500000f,-0.03970300778746604919433593750000f,0.03300515189766883850097656250000f,-0.16664172708988189697265625000000f,-0.01555091422051191329956054687500f,-0.02537726424634456634521484375000f,0.02991292253136634826660156250000f,0.02911848947405815124511718750000f,-0.04912487789988517761230468750000f,-0.00822213664650917053222656250000f,0.01679217070341110229492187500000f,0.04114669561386108398437500000000f,0.02294825389981269836425781250000f,0.05286522209644317626953125000000f,-0.01313399244099855422973632812500f,0.21430319547653198242187500000000f,-0.00015559751773253083229064941406f,-0.06664100289344787597656250000000f,-0.12091888487339019775390625000000f,0.01284425891935825347900390625000f,-0.04119263216853141784667968750000f,-0.09074836969375610351562500000000f,0.04519996419548988342285156250000f,0.06102890521287918090820312500000f,0.00233592651784420013427734375000f,0.03381086513400077819824218750000f,0.02997053228318691253662109375000f,0.07419342547655105590820312500000f,-0.10152233392000198364257812500000f,-0.01755071245133876800537109375000f,-0.02309507317841053009033203125000f,-0.12440197169780731201171875000000f,0.06826685369014739990234375000000f,0.04261178523302078247070312500000f,-0.02977131865918636322021484375000f,0.08001014590263366699218750000000f,0.02899685688316822052001953125000f,0.05683945491909980773925781250000f,0.00332908635027706623077392578125f,-0.00859697349369525909423828125000f,0.01479655690491199493408203125000f,-0.03432710096240043640136718750000f,-0.00344618782401084899902343750000f,0.09247420728206634521484375000000f,0.04494239017367362976074218750000f,0.03530174866318702697753906250000f,-0.00398551905527710914611816406250f,0.03109454549849033355712890625000f,0.08885322511196136474609375000000f,0.09143058210611343383789062500000f,0.04459072276949882507324218750000f,-0.34493491053581237792968750000000f,-0.02297508716583251953125000000000f,-0.01795660704374313354492187500000f,0.06457248330116271972656250000000f,-0.07107110321521759033203125000000f,-0.00899759773164987564086914062500f,0.06699945032596588134765625000000f,-0.03227620944380760192871093750000f,0.10338395833969116210937500000000f,0.16900044679641723632812500000000f,-0.02225036360323429107666015625000f,-0.00504575530067086219787597656250f,0.24834407866001129150390625000000f,-0.01404433324933052062988281250000f,-0.01611710153520107269287109375000f,0.00127466314006596803665161132812f,-0.06312378495931625366210937500000f,0.00003654303509392775595188140869f,-0.04172735661268234252929687500000f,0.05537826567888259887695312500000f,-0.08623860031366348266601562500000f,-0.08894457668066024780273437500000f,0.12270045280456542968750000000000f,-0.00470639578998088836669921875000f,0.04100029543042182922363281250000f,-0.05044518038630485534667968750000f,-0.00958003848791122436523437500000f,0.00044000125490128993988037109375f,-0.06370474398136138916015625000000f,0.03334240615367889404296875000000f,-0.00517222052440047264099121093750f,0.03020009957253932952880859375000f,-0.00677153887227177619934082031250f,-0.01382535137236118316650390625000f,-0.03320946916937828063964843750000f,0.02253422141075134277343750000000f,0.00179091340396553277969360351562f,0.25739684700965881347656250000000f,0.08152269572019577026367187500000f,0.01460655964910984039306640625000f,-0.02723653055727481842041015625000f,-0.00279749953188002109527587890625f,0.03083941899240016937255859375000f,-0.00799774937331676483154296875000f,-0.02368244715034961700439453125000f,0.17611315846443176269531250000000f,0.01549053471535444259643554687500f,-0.09092175215482711791992187500000f,-0.00462546944618225097656250000000f,-0.01382299326360225677490234375000f,-0.02390431053936481475830078125000f,-0.05372853949666023254394531250000f,-0.00752817792817950248718261718750f,-0.00381219759583473205566406250000f,0.06404434889554977416992187500000f,-0.05844299122691154479980468750000f,0.08467873930931091308593750000000f,-0.04813011735677719116210937500000f,-0.04179184883832931518554687500000f,-0.00111315899994224309921264648438f,-0.01796994917094707489013671875000f,-0.00026560589321888983249664306641f,0.08030109107494354248046875000000f,-0.28102496266365051269531250000000f,0.01977799646556377410888671875000f,-0.00799680687487125396728515625000f,-0.00173573836218565702438354492188f,0.01592028886079788208007812500000f,0.05559406429529190063476562500000f,-0.06388647854328155517578125000000f,0.03529687970876693725585937500000f,-0.11098145693540573120117187500000f,0.02568680979311466217041015625000f,-0.00115318398457020521163940429688f,-0.02243512682616710662841796875000f,-0.11040035635232925415039062500000f,0.11562414467334747314453125000000f,0.01695729047060012817382812500000f,0.03647994622588157653808593750000f,-0.00004690825153375044465065002441f,-0.09740603715181350708007812500000f,-0.02902979031205177307128906250000f,-0.10437189787626266479492187500000f,-0.04555498063564300537109375000000f,0.07931797951459884643554687500000f,-0.08766627311706542968750000000000f,-0.02951281145215034484863281250000f,-0.15515080094337463378906250000000f,-0.07949166744947433471679687500000f,0.00218953914009034633636474609375f,-0.10196533799171447753906250000000f,-0.10529182851314544677734375000000f,-0.02234060131013393402099609375000f,0.01297848206013441085815429687500f,0.05030643939971923828125000000000f,-0.04887900501489639282226562500000f,0.03913495317101478576660156250000f,-0.10835625976324081420898437500000f,0.05681164562702178955078125000000f,0.06510372459888458251953125000000f,0.01252652239054441452026367187500f,-0.03082296438515186309814453125000f,-0.10808501392602920532226562500000f,-0.01767509803175926208496093750000f,0.05331392213702201843261718750000f,0.05757264420390129089355468750000f,0.01703267917037010192871093750000f,0.03715906292200088500976562500000f,-0.01665050908923149108886718750000f,0.04106074944138526916503906250000f,-0.00270618591457605361938476562500f,0.03715462982654571533203125000000f,-0.05296973139047622680664062500000f,0.02588230744004249572753906250000f,-0.09597500413656234741210937500000f,-0.02435652725398540496826171875000f,0.03805566206574440002441406250000f,0.01111155562102794647216796875000f,-0.02271623536944389343261718750000f,0.01034485176205635070800781250000f,-0.02234344556927680969238281250000f,0.11654452979564666748046875000000f,0.04684345796704292297363281250000f,-0.10729257762432098388671875000000f,-0.02850658074021339416503906250000f,-0.09449708461761474609375000000000f,-0.00518547417595982551574707031250f,-0.08479844033718109130859375000000f,-0.04916813969612121582031250000000f,-0.14114093780517578125000000000000f,-0.06905657052993774414062500000000f,-0.13095159828662872314453125000000f,0.02343386970460414886474609375000f,-0.00145704159513115882873535156250f,-0.00695190159603953361511230468750f,0.13443170487880706787109375000000f,-0.02191979251801967620849609375000f,0.10028900951147079467773437500000f,0.00983143318444490432739257812500f,0.01888825558125972747802734375000f,0.01804290711879730224609375000000f,0.02036642655730247497558593750000f,0.01277878601104021072387695312500f,-0.04186405614018440246582031250000f,-0.01071662083268165588378906250000f,-0.05549269914627075195312500000000f,0.01673383451998233795166015625000f,-0.02545120567083358764648437500000f,-0.06442832201719284057617187500000f,0.06468585133552551269531250000000f,-0.02248170599341392517089843750000f,0.00312498351559042930603027343750f,0.04956637695431709289550781250000f,-0.03351647406816482543945312500000f,-0.02547632902860641479492187500000f,-0.04918858408927917480468750000000f,0.06547861546277999877929687500000f,-0.07473117113113403320312500000000f,0.02555414289236068725585937500000f,-0.00808979291468858718872070312500f,0.01991493441164493560791015625000f,0.01269141770899295806884765625000f,0.08905252814292907714843750000000f,0.00283909565769135951995849609375f,0.01077224873006343841552734375000f,0.03845008835196495056152343750000f,-0.04018643870949745178222656250000f,0.01772084645926952362060546875000f,-0.01213381905108690261840820312500f,0.00064926024060696363449096679688f,-0.08722277730703353881835937500000f,0.01952544413506984710693359375000f,-0.02497943863272666931152343750000f,-0.05884039029479026794433593750000f,0.03094874694943428039550781250000f,-0.02907826565206050872802734375000f,0.15973782539367675781250000000000f,-0.04097300022840499877929687500000f,0.07459651678800582885742187500000f,0.00237556826323270797729492187500f,-0.02302582189440727233886718750000f,-0.00795515347272157669067382812500f,-0.05476035550236701965332031250000f,0.01777898892760276794433593750000f,-0.11506656557321548461914062500000f,0.02332596667110919952392578125000f,-0.03272243216633796691894531250000f,0.04507081210613250732421875000000f,0.03364349529147148132324218750000f,-0.08315305411815643310546875000000f,-0.11554604768753051757812500000000f,0.01204267702996730804443359375000f,-0.08591996878385543823242187500000f,-0.00542587321251630783081054687500f,0.00003729843228938989341259002686f,-0.05598628520965576171875000000000f,0.04796022549271583557128906250000f,-0.03456742689013481140136718750000f,-0.00915932375937700271606445312500f,-0.04608224704861640930175781250000f,-0.05315003916621208190917968750000f,0.02661672793328762054443359375000f,-0.08739536255598068237304687500000f,-0.10426458716392517089843750000000f,0.05935359746217727661132812500000f,-0.07079646736383438110351562500000f,-0.02416137978434562683105468750000f,-0.01930024847388267517089843750000f,-0.01183631364256143569946289062500f,0.02386950887739658355712890625000f,-0.02200443856418132781982421875000f,0.10350901633501052856445312500000f,-0.03577479347586631774902343750000f,-0.12162747234106063842773437500000f,0.01367022003978490829467773437500f,-0.01717474311590194702148437500000f,-0.08648833632469177246093750000000f,-0.00294769392348825931549072265625f,-0.00805111415684223175048828125000f,-0.01729420572519302368164062500000f,0.04099848866462707519531250000000f,0.00455169472843408584594726562500f,0.05819652974605560302734375000000f,-0.02128733508288860321044921875000f,0.04916242137551307678222656250000f,-0.02451904863119125366210937500000f,-0.05181234702467918395996093750000f,0.03951296582818031311035156250000f,-0.00560535117983818054199218750000f,0.00364974909462034702301025390625f,-0.04495188593864440917968750000000f,-0.04523689672350883483886718750000f,0.01453126966953277587890625000000f,-0.04242174327373504638671875000000f,0.00365994754247367382049560546875f,-0.01512785442173480987548828125000f,-0.04759952053427696228027343750000f,-0.01714631728827953338623046875000f,-0.00087012472795322537422180175781f,-0.04266382008790969848632812500000f,0.03268004581332206726074218750000f,-0.00473064370453357696533203125000f,-0.00051457463996484875679016113281f,0.08861983567476272583007812500000f,-0.06592044979333877563476562500000f,-0.01475887652486562728881835937500f,-0.02979031577706336975097656250000f,0.08904413878917694091796875000000f,-0.06368869543075561523437500000000f,-0.03431886434555053710937500000000f,0.00244425400160253047943115234375f,-0.03493545204401016235351562500000f,-0.03543063998222351074218750000000f,0.02481755800545215606689453125000f,-0.11363407969474792480468750000000f,-0.03747254610061645507812500000000f,0.03234412521123886108398437500000f,-0.01006637234240770339965820312500f,0.06760121881961822509765625000000f,-0.03143390268087387084960937500000f,0.19652555882930755615234375000000f,-0.02997451648116111755371093750000f,0.08263681828975677490234375000000f,0.06399045139551162719726562500000f,0.00938830804079771041870117187500f,0.04271033406257629394531250000000f,-0.02230487577617168426513671875000f,0.07290257513523101806640625000000f,0.15808935463428497314453125000000f,-0.03768407180905342102050781250000f,-0.11226546764373779296875000000000f,-0.00165619153995066881179809570312f,0.00400046538561582565307617187500f,-0.09632736444473266601562500000000f,0.11961112171411514282226562500000f,0.04991951957345008850097656250000f,0.00056683411821722984313964843750f,0.02070096880197525024414062500000f,0.05156294256448745727539062500000f,0.00042204841156490147113800048828f,0.03405719995498657226562500000000f,-0.08162641525268554687500000000000f,0.02541399747133255004882812500000f,0.06965937465429306030273437500000f,0.12384118884801864624023437500000f,0.05461292713880538940429687500000f,-0.03325361758470535278320312500000f,0.03667766600847244262695312500000f,0.03772464394569396972656250000000f,0.03958029672503471374511718750000f,-0.06242351606488227844238281250000f,0.02215034887194633483886718750000f,0.11219989508390426635742187500000f,-0.01821595616638660430908203125000f,0.05358400940895080566406250000000f,-0.02486135810613632202148437500000f,0.04971421882510185241699218750000f,0.09899846464395523071289062500000f,0.05267855152487754821777343750000f,0.04429613426327705383300781250000f,-0.04107329621911048889160156250000f,0.06483355164527893066406250000000f,-0.00759658543393015861511230468750f,0.01413029339164495468139648437500f,0.03626896813511848449707031250000f,-0.03944784775376319885253906250000f,0.03135614469647407531738281250000f,0.04814084246754646301269531250000f,0.01411625836044549942016601562500f,-0.02192583121359348297119140625000f,-0.01705481670796871185302734375000f,0.01417515520006418228149414062500f,0.01188019756227731704711914062500f,0.05999625474214553833007812500000f,0.01682598888874053955078125000000f,-0.00661092856898903846740722656250f,0.00904429145157337188720703125000f,0.02671776525676250457763671875000f,-0.01725565269589424133300781250000f,0.05277127027511596679687500000000f,-0.10174999386072158813476562500000f,0.02231099270284175872802734375000f,-0.00486935721710324287414550781250f,0.04392122104763984680175781250000f,-0.05471443757414817810058593750000f,0.08160182088613510131835937500000f,-0.01708361320197582244873046875000f,-0.00030824312125332653522491455078f,-0.10287587344646453857421875000000f,-0.07045359164476394653320312500000f,-0.03466002643108367919921875000000f,0.02609841525554656982421875000000f,0.15932717919349670410156250000000f,0.05992191284894943237304687500000f,-0.03104054555296897888183593750000f,0.16607627272605895996093750000000f,-0.03164137154817581176757812500000f,-0.05212702602148056030273437500000f,-0.03105936385691165924072265625000f,-0.05726097896695137023925781250000f,-0.02145780622959136962890625000000f,0.11808282881975173950195312500000f,0.07373780757188796997070312500000f,-0.05801841244101524353027343750000f,0.00187404139433056116104125976562f,-0.02521605789661407470703125000000f,-0.01103783678263425827026367187500f,-0.01851567253470420837402343750000f,-0.02688864059746265411376953125000f,-0.00456416327506303787231445312500f,-0.00253395875915884971618652343750f,-0.00983815267682075500488281250000f,-0.07874206453561782836914062500000f,0.02182954363524913787841796875000f,0.02404330484569072723388671875000f,0.13318330049514770507812500000000f,0.03801080584526062011718750000000f,-0.04703341424465179443359375000000f,-0.00766231911256909370422363281250f,-0.03045320510864257812500000000000f,0.07280646264553070068359375000000f,0.04092397540807723999023437500000f,0.05697263777256011962890625000000f,0.19983378052711486816406250000000f,0.02129574120044708251953125000000f,0.02246333099901676177978515625000f,-0.01976851560175418853759765625000f,-0.07090438157320022583007812500000f,0.00032834275043569505214691162109f,0.00019348567002452909946441650391f,0.02281193993985652923583984375000f,-0.05173877254128456115722656250000f,-0.00127194251399487257003784179688f,-0.04826685413718223571777343750000f,0.05789628252387046813964843750000f,-0.04588836431503295898437500000000f,0.01036242395639419555664062500000f,-0.02967891469597816467285156250000f,0.01801596209406852722167968750000f,-0.10697427392005920410156250000000f,0.04620161280035972595214843750000f,-0.00833295285701751708984375000000f,0.02086543850600719451904296875000f,-0.03672082722187042236328125000000f,-0.02961369603872299194335937500000f,-0.06826482713222503662109375000000f,-0.09644513577222824096679687500000f,-0.02720813825726509094238281250000f,-0.02196122333407402038574218750000f,-0.00148445356171578168869018554688f,-0.03182305023074150085449218750000f,0.10056091845035552978515625000000f,-0.02100567705929279327392578125000f,-0.01933389902114868164062500000000f,0.02778475359082221984863281250000f,-0.04010201990604400634765625000000f,-0.00768510112538933753967285156250f,-0.06692296266555786132812500000000f,0.00711016263812780380249023437500f,-0.00395857822149991989135742187500f,-0.07625279575586318969726562500000f,-0.03318228200078010559082031250000f,-0.01371072418987751007080078125000f,0.04338836669921875000000000000000f,-0.03954967856407165527343750000000f,-0.03738974034786224365234375000000f,-0.01347398571670055389404296875000f,0.02516424842178821563720703125000f,-0.00708289956673979759216308593750f,0.00811923947185277938842773437500f,0.01495755556970834732055664062500f,0.04706887155771255493164062500000f,0.08927364647388458251953125000000f,0.01662712730467319488525390625000f,-0.03533183783292770385742187500000f,-0.03657316416501998901367187500000f,0.03900129348039627075195312500000f,-0.07445593923330307006835937500000f,-0.02073147706687450408935546875000f,-0.02650665305554866790771484375000f,0.01678192242980003356933593750000f,0.01718425750732421875000000000000f,0.00212625646963715553283691406250f,-0.02421252802014350891113281250000f,-0.08123601227998733520507812500000f,-0.04228265583515167236328125000000f,-0.04147272184491157531738281250000f,0.00997934862971305847167968750000f,0.00246883556246757507324218750000f,-0.09120763838291168212890625000000f,-0.01348402630537748336791992187500f,0.02588011883199214935302734375000f,-0.00932588335126638412475585937500f,-0.07205102592706680297851562500000f,0.00771188456565141677856445312500f,0.01767528802156448364257812500000f,0.02420428954064846038818359375000f,0.01515638548880815505981445312500f,-0.00474269594997167587280273437500f,-0.01445383206009864807128906250000f,-0.04234063625335693359375000000000f,0.04675928130745887756347656250000f,-0.03066999837756156921386718750000f,0.04158972576260566711425781250000f,-0.01638133637607097625732421875000f,-0.06959879398345947265625000000000f,-0.02956990338861942291259765625000f,0.05480419471859931945800781250000f,0.01054695807397365570068359375000f,0.00034734079963527619838714599609f,-0.03717631846666336059570312500000f,0.00639351597055792808532714843750f,-0.01667417585849761962890625000000f,0.00570984045043587684631347656250f,-0.05887291580438613891601562500000f,-0.12610392272472381591796875000000f,0.00359699549153447151184082031250f,0.02980235032737255096435546875000f,-0.11254281550645828247070312500000f,-0.13113865256309509277343750000000f,0.05036081373691558837890625000000f,-0.07660314440727233886718750000000f,-0.01108043827116489410400390625000f,-0.04220039770007133483886718750000f,0.01707402057945728302001953125000f,0.00009892381785903126001358032227f,0.01453939080238342285156250000000f,0.03668249398469924926757812500000f,-0.01845288090407848358154296875000f,-0.08354976028203964233398437500000f,0.13079129159450531005859375000000f,0.05298781022429466247558593750000f,0.00152401090599596500396728515625f,0.04777117073535919189453125000000f,-0.01229750737547874450683593750000f,-0.01255144923925399780273437500000f,0.01865517720580101013183593750000f,0.04085531085729598999023437500000f,0.04844707250595092773437500000000f,-0.03898475319147109985351562500000f,0.02141291275620460510253906250000f,-0.02883237414062023162841796875000f,0.01751919649541378021240234375000f,-0.02395210042595863342285156250000f,-0.11021761596202850341796875000000f,-0.03343160450458526611328125000000f,0.05033959448337554931640625000000f,0.09260152280330657958984375000000f,-0.04828513041138648986816406250000f,0.00426529627293348312377929687500f,-0.05981399491429328918457031250000f,-0.11071823537349700927734375000000f,0.02005079947412014007568359375000f,0.01185920648276805877685546875000f,-0.04332835599780082702636718750000f,-0.09730847924947738647460937500000f,0.03342009708285331726074218750000f,0.01040130667388439178466796875000f,0.04623986780643463134765625000000f,0.05334981903433799743652343750000f,0.01828999258577823638916015625000f,0.03718137368559837341308593750000f,0.01727998629212379455566406250000f,0.08752172440290451049804687500000f,0.04892005398869514465332031250000f,-0.01714099384844303131103515625000f,0.03177991881966590881347656250000f,-0.02325048111379146575927734375000f,-0.01689731515944004058837890625000f,-0.02412268146872520446777343750000f,-0.01472353469580411911010742187500f,-0.03095278702676296234130859375000f,-0.06637006253004074096679687500000f,-0.05843530222773551940917968750000f,-0.01705818623304367065429687500000f,-0.11594762653112411499023437500000f,0.04302701726555824279785156250000f,0.04341126605868339538574218750000f,0.06252121925354003906250000000000f,0.01035790424793958663940429687500f,0.01988619193434715270996093750000f,0.02654905803501605987548828125000f,0.02283378690481185913085937500000f,-0.13627023994922637939453125000000f,0.12089594453573226928710937500000f,0.01304722670465707778930664062500f,-0.05441289022564888000488281250000f,-0.03409752994775772094726562500000f,-0.02284494228661060333251953125000f,-0.09859204292297363281250000000000f,-0.05717643722891807556152343750000f,0.02108727395534515380859375000000f,0.00850604753941297531127929687500f,-0.00929190590977668762207031250000f,-0.00174036365933716297149658203125f,0.00222298060543835163116455078125f,-0.03956691175699234008789062500000f,-0.02075817249715328216552734375000f,0.02093377895653247833251953125000f,0.09646914154291152954101562500000f,0.10739993304014205932617187500000f,0.02607511170208454132080078125000f,0.00004927628833684138953685760498f,0.10537898540496826171875000000000f,-0.03154549002647399902343750000000f,0.01665087044239044189453125000000f,0.00278639397583901882171630859375f,0.01521237846463918685913085937500f,0.03773122653365135192871093750000f,-0.08208789676427841186523437500000f,0.02871955744922161102294921875000f,-0.01099937409162521362304687500000f,0.03716704994440078735351562500000f,0.00690678460523486137390136718750f,0.01625627093017101287841796875000f,0.00713758589699864387512207031250f,0.00610942533239722251892089843750f,0.12564773857593536376953125000000f,0.05048511177301406860351562500000f,0.03111285716295242309570312500000f,-0.00769739225506782531738281250000f,-0.00935497973114252090454101562500f,0.03466679900884628295898437500000f,-0.04337961971759796142578125000000f,0.02287828922271728515625000000000f,0.01524441316723823547363281250000f,-0.01948117092251777648925781250000f,0.03892023116350173950195312500000f,0.05534642562270164489746093750000f,0.01584808155894279479980468750000f,0.05475931614637374877929687500000f,0.05439862236380577087402343750000f,0.02137085795402526855468750000000f,0.07751518487930297851562500000000f,-0.02752729691565036773681640625000f,0.06241993606090545654296875000000f,-0.07034144550561904907226562500000f,0.03310039266943931579589843750000f,-0.02874928899109363555908203125000f,-0.04034621268510818481445312500000f,-0.05869163945317268371582031250000f,0.04846400395035743713378906250000f,0.00769202364608645439147949218750f,0.02263561449944972991943359375000f,-0.10685886442661285400390625000000f,-0.03598400950431823730468750000000f,-0.02151957713067531585693359375000f,-0.03528697043657302856445312500000f,0.09715504199266433715820312500000f,0.05155189707875251770019531250000f,-0.04448022693395614624023437500000f,-0.10164441168308258056640625000000f,-0.00221822946332395076751708984375f,-0.09360133856534957885742187500000f,0.02057109773159027099609375000000f,0.00083640828961506485939025878906f,0.00823038630187511444091796875000f,0.03009104356169700622558593750000f,-0.02832227572798728942871093750000f,0.02495098859071731567382812500000f,-0.00067782803671434521675109863281f,-0.04518540576100349426269531250000f,-0.06625678390264511108398437500000f,0.00866794493049383163452148437500f,-0.03054131008684635162353515625000f,0.09063956886529922485351562500000f,0.06914269179105758666992187500000f,-0.01050677895545959472656250000000f,-0.02914028614759445190429687500000f,-0.01191261503845453262329101562500f,0.04584284499287605285644531250000f,0.00165744929108768701553344726562f,0.03801697865128517150878906250000f,-0.00024446565657854080200195312500f,0.03002320043742656707763671875000f,-0.02564540132880210876464843750000f,0.00746460491791367530822753906250f,0.00337019865401089191436767578125f,-0.06015615910291671752929687500000f,0.01085116155445575714111328125000f,0.04948746785521507263183593750000f,-0.02206474356353282928466796875000f,-0.12039081752300262451171875000000f,0.03103776462376117706298828125000f,0.00520533742383122444152832031250f,-0.01566782779991626739501953125000f,-0.00854192487895488739013671875000f,-0.06590304523706436157226562500000f,-0.00032715286943130195140838623047f,0.03849963843822479248046875000000f,0.00692314608022570610046386718750f,0.04576425254344940185546875000000f,0.04792210087180137634277343750000f,0.02805857546627521514892578125000f,0.00310248043388128280639648437500f,-0.02806170098483562469482421875000f,0.00860741827636957168579101562500f,-0.03073647804558277130126953125000f,0.01320119015872478485107421875000f,0.01640329323709011077880859375000f,0.01539016235619783401489257812500f,-0.06893546879291534423828125000000f,0.01155356783419847488403320312500f,-0.01688226312398910522460937500000f,0.01128572039306163787841796875000f,-0.00406762817874550819396972656250f,-0.01514338422566652297973632812500f,-0.01044421084225177764892578125000f,0.07863172888755798339843750000000f,0.04319858923554420471191406250000f,0.04091678187251091003417968750000f,-0.16002494096755981445312500000000f,0.01849430240690708160400390625000f,-0.00763878505676984786987304687500f,-0.12594804167747497558593750000000f,0.01409195736050605773925781250000f,-0.03572982922196388244628906250000f,0.07350298017263412475585937500000f,0.09250626713037490844726562500000f,-0.02442788705229759216308593750000f,-0.04910189285874366760253906250000f,0.23584647476673126220703125000000f,-0.00551749346777796745300292968750f,-0.01380922738462686538696289062500f,-0.00725875934585928916931152343750f,0.03992529958486557006835937500000f,-0.02300839498639106750488281250000f,-0.06896585226058959960937500000000f,0.03087177872657775878906250000000f,-0.00183079927228391170501708984375f,0.11406888812780380249023437500000f,0.05579526722431182861328125000000f,0.01812295801937580108642578125000f,0.01640868186950683593750000000000f,-0.00028860944439657032489776611328f,-0.00248384592123329639434814453125f,-0.00012235174654051661491394042969f,0.03853790462017059326171875000000f,0.00739872502163052558898925781250f,-0.03593636304140090942382812500000f,0.01330914255231618881225585937500f,-0.05362063273787498474121093750000f,-0.08386940509080886840820312500000f,-0.00183874287176877260208129882812f,-0.00949872657656669616699218750000f,0.04803524538874626159667968750000f,-0.00274332938715815544128417968750f,-0.09213424474000930786132812500000f,-0.00712162582203745841979980468750f,0.04673387482762336730957031250000f,0.00382763566449284553527832031250f,-0.04450059309601783752441406250000f,0.02258311025798320770263671875000f,-0.06653237342834472656250000000000f,-0.07671001553535461425781250000000f,-0.03367308899760246276855468750000f,0.09626093506813049316406250000000f,0.00374329811893403530120849609375f,-0.06659388542175292968750000000000f,0.00438571581616997718811035156250f,-0.04782290756702423095703125000000f,0.07216040790081024169921875000000f,0.04952194541692733764648437500000f,0.07144251465797424316406250000000f,0.03480044007301330566406250000000f,0.02116230316460132598876953125000f,-0.02106405794620513916015625000000f,-0.00949135888367891311645507812500f,-0.06948913633823394775390625000000f,0.01645010896027088165283203125000f,-0.03258708119392395019531250000000f,0.01206769794225692749023437500000f,-0.04397545009851455688476562500000f,-0.01958684250712394714355468750000f,0.03244692087173461914062500000000f,0.03278871253132820129394531250000f,-0.03572476655244827270507812500000f,0.00610886281356215476989746093750f,0.01007837429642677307128906250000f,-0.02445838972926139831542968750000f,0.00751962745562195777893066406250f,0.00289219524711370468139648437500f,0.05998588725924491882324218750000f,0.05126959085464477539062500000000f,-0.00694867083802819252014160156250f,-0.04185680672526359558105468750000f,-0.03259652107954025268554687500000f,-0.00571090495213866233825683593750f,-0.07087291032075881958007812500000f,-0.00546461157500743865966796875000f,0.02591125667095184326171875000000f,0.03034880012273788452148437500000f,-0.02144335769116878509521484375000f,-0.00499346479773521423339843750000f,-0.00287922006100416183471679687500f,-0.04779005423188209533691406250000f,-0.07393146306276321411132812500000f,0.01831987500190734863281250000000f,0.05486131832003593444824218750000f,0.00409973831847310066223144531250f,0.05417693778872489929199218750000f,-0.00892580952495336532592773437500f,0.06870811432600021362304687500000f,0.02297189086675643920898437500000f,0.01390475872904062271118164062500f,-0.00921226106584072113037109375000f,-0.12298192083835601806640625000000f,0.00986038614064455032348632812500f,0.11123107373714447021484375000000f,-0.02685872092843055725097656250000f,0.06129305064678192138671875000000f,0.03327012807130813598632812500000f,-0.20373180508613586425781250000000f,0.03102025948464870452880859375000f,0.01171212550252676010131835937500f,-0.08297009766101837158203125000000f,-0.07003236562013626098632812500000f,0.00891467649489641189575195312500f,0.11854977160692214965820312500000f,0.04128812626004219055175781250000f,0.00222589378245174884796142578125f,0.03246784210205078125000000000000f,0.16717755794525146484375000000000f,-0.02854127809405326843261718750000f,0.03100005909800529479980468750000f,0.07182993739843368530273437500000f,0.01032944582402706146240234375000f,0.03154638782143592834472656250000f,-0.05074316635727882385253906250000f,-0.01210270356386899948120117187500f,0.02049047127366065979003906250000f,0.01120399869978427886962890625000f,-0.00799438823014497756958007812500f,-0.02235561795532703399658203125000f,0.08372338116168975830078125000000f,-0.04056763276457786560058593750000f,-0.03716485947370529174804687500000f,-0.03431951627135276794433593750000f,0.00511310948058962821960449218750f,-0.02255674451589584350585937500000f,0.00672131078317761421203613281250f,-0.03989312425255775451660156250000f,-0.01824371516704559326171875000000f,-0.21145768463611602783203125000000f,0.01401051040738821029663085937500f,-0.02664957009255886077880859375000f,0.02587292902171611785888671875000f,-0.02032404951751232147216796875000f,-0.05769928544759750366210937500000f,-0.11502038687467575073242187500000f,0.02146603539586067199707031250000f,-0.06710404902696609497070312500000f,0.02196368947625160217285156250000f,-0.01036734879016876220703125000000f,0.02806275896728038787841796875000f,0.00691217230632901191711425781250f,0.03376179561018943786621093750000f,0.02522164955735206604003906250000f,0.03188136592507362365722656250000f,0.03376108780503273010253906250000f,-0.02234124764800071716308593750000f,-0.00048107697512023150920867919922f,-0.09637653082609176635742187500000f,0.01456999033689498901367187500000f,0.02007366903126239776611328125000f,0.04249527677893638610839843750000f,-0.04454268515110015869140625000000f,0.01669703423976898193359375000000f,-0.01192741934210062026977539062500f,-0.01528897322714328765869140625000f,-0.01135719567537307739257812500000f,0.12419950217008590698242187500000f,-0.01894821785390377044677734375000f,-0.07046443969011306762695312500000f,-0.06044511124491691589355468750000f,-0.14828100800514221191406250000000f,0.02224616147577762603759765625000f,-0.06682433933019638061523437500000f,0.02045733481645584106445312500000f,-0.00471374485641717910766601562500f,0.02206575497984886169433593750000f,-0.01536678802222013473510742187500f,-0.01032692100852727890014648437500f,0.02569217421114444732666015625000f,-0.02014162205159664154052734375000f,0.14943651854991912841796875000000f,0.00875324849039316177368164062500f,0.03263582289218902587890625000000f,0.04109672084450721740722656250000f,-0.01638592407107353210449218750000f,-0.00602038577198982238769531250000f,0.01528768613934516906738281250000f,-0.04235447570681571960449218750000f,-0.02497021108865737915039062500000f,0.09711742401123046875000000000000f,-0.03358853980898857116699218750000f,0.00425941264256834983825683593750f,0.09065952897071838378906250000000f,0.00893322471529245376586914062500f,0.06882199645042419433593750000000f,0.01023589167743921279907226562500f,0.01138169039040803909301757812500f,0.11392583698034286499023437500000f,-0.02997076325118541717529296875000f,0.05425357073545455932617187500000f,0.02235706523060798645019531250000f,-0.02683334797620773315429687500000f,0.00284406985156238079071044921875f,-0.27087327837944030761718750000000f,0.00138922908809036016464233398438f,0.01259088143706321716308593750000f,0.02797381579875946044921875000000f,0.04711893200874328613281250000000f,-0.00233096070587635040283203125000f,-0.00428303750231862068176269531250f,-0.02688934281468391418457031250000f,0.01889034919440746307373046875000f,-0.09081036597490310668945312500000f,0.03916434571146965026855468750000f,0.01336219534277915954589843750000f,0.07416976243257522583007812500000f,-0.04402659460902214050292968750000f,-0.05776279792189598083496093750000f,-0.01028664503246545791625976562500f,0.01556316390633583068847656250000f,-0.01126819290220737457275390625000f,0.04322162270545959472656250000000f,-0.00769493356347084045410156250000f,0.00037972000427544116973876953125f,-0.00858011934906244277954101562500f,-0.03643217682838439941406250000000f,0.03088861331343650817871093750000f,-0.01794143766164779663085937500000f,0.01697598211467266082763671875000f,-0.11272583156824111938476562500000f,-0.01747022010385990142822265625000f,-0.00712280068546533584594726562500f,0.03115140087902545928955078125000f,-0.29785072803497314453125000000000f,0.01706068962812423706054687500000f,0.01984826475381851196289062500000f,-0.07576877623796463012695312500000f,0.01900791190564632415771484375000f,-0.06496161222457885742187500000000f,0.08722898364067077636718750000000f,-0.01152925845235586166381835937500f,0.02816724777221679687500000000000f,-0.08073468506336212158203125000000f,-0.03933914750814437866210937500000f,-0.01127493754029273986816406250000f,-0.01206042524427175521850585937500f,-0.01658627390861511230468750000000f,-0.00145687651820480823516845703125f,-0.00967987626791000366210937500000f,-0.01184975914657115936279296875000f,0.04434540122747421264648437500000f,0.04554773494601249694824218750000f,-0.04793569073081016540527343750000f,-0.03593489155173301696777343750000f,0.05158703401684761047363281250000f,-0.03537093475461006164550781250000f,0.07058381289243698120117187500000f,-0.01418435014784336090087890625000f,0.05967240780591964721679687500000f,-0.11964013427495956420898437500000f,-0.03218887373805046081542968750000f,0.04802396148443222045898437500000f,-0.03141943365335464477539062500000f,-0.12494021654129028320312500000000f,0.02540104277431964874267578125000f,0.00083292962517589330673217773438f,-0.05343799665570259094238281250000f,-0.01271783281117677688598632812500f,0.01308054197579622268676757812500f,-0.00412222137674689292907714843750f,-0.06049689650535583496093750000000f,0.00297689880244433879852294921875f,-0.05403637513518333435058593750000f,-0.04206591844558715820312500000000f,0.02884776704013347625732421875000f,0.00610563671216368675231933593750f,0.00172236515209078788757324218750f,0.29226982593536376953125000000000f,0.01728114858269691467285156250000f,0.01529824361205101013183593750000f,0.04147810488939285278320312500000f,-0.08007113635540008544921875000000f,-0.06235221028327941894531250000000f,0.03012173436582088470458984375000f,0.03403727710247039794921875000000f,-0.00527217006310820579528808593750f,0.04122871533036231994628906250000f,0.02516444772481918334960937500000f,0.00327527383342385292053222656250f,0.02466079592704772949218750000000f,0.00035060540540143847465515136719f,-0.00377336936071515083312988281250f,0.00752066634595394134521484375000f,-0.09759616851806640625000000000000f,0.02039057761430740356445312500000f,-0.00891319103538990020751953125000f,-0.01316641271114349365234375000000f,-0.21178652346134185791015625000000f,0.02422821894288063049316406250000f,0.00530838547274470329284667968750f,0.08646121621131896972656250000000f,-0.04485812038183212280273437500000f,-0.03273331373929977416992187500000f,0.00154755800031125545501708984375f,0.02225538156926631927490234375000f,-0.05569983273744583129882812500000f,-0.02388867735862731933593750000000f,0.01468150597065687179565429687500f,0.03731356561183929443359375000000f,-0.02354656532406806945800781250000f,-0.06306734681129455566406250000000f,0.07986439019441604614257812500000f,-0.03992822021245956420898437500000f,0.01432995311915874481201171875000f,0.04507627338171005249023437500000f,0.05436011403799057006835937500000f,-0.01602998934686183929443359375000f,-0.02387011982500553131103515625000f,-0.02070000953972339630126953125000f,0.03032564371824264526367187500000f,-0.02035663649439811706542968750000f,0.02640507556498050689697265625000f,-0.00230807228945195674896240234375f,-0.09583659470081329345703125000000f,-0.01356652285903692245483398437500f,-0.01507626846432685852050781250000f,-0.01261936686933040618896484375000f,0.01165802497416734695434570312500f,-0.00668383575975894927978515625000f,0.02502563223242759704589843750000f,-0.00498801097273826599121093750000f,0.08007114380598068237304687500000f,-0.03344004601240158081054687500000f,0.00510820746421813964843750000000f,0.08557318896055221557617187500000f,-0.03291969001293182373046875000000f,-0.09409967809915542602539062500000f,0.02608284913003444671630859375000f,0.04974049702286720275878906250000f,-0.02667913027107715606689453125000f,0.00014889606973156332969665527344f,0.10892190784215927124023437500000f,0.01384025625884532928466796875000f,-0.05177683010697364807128906250000f,0.36769750714302062988281250000000f,-0.01483709923923015594482421875000f,-0.16881506145000457763671875000000f,0.03391145914793014526367187500000f,-0.03376926854252815246582031250000f,0.06291035562753677368164062500000f,-0.00394335016608238220214843750000f,0.04566338658332824707031250000000f,-0.01905266940593719482421875000000f,0.01976181380450725555419921875000f,0.00020594192028511315584182739258f,-0.02407289110124111175537109375000f,-0.00884751789271831512451171875000f,-0.02406877651810646057128906250000f,-0.00939886178821325302124023437500f,-0.02244280278682708740234375000000f,0.02174200676381587982177734375000f,0.00429135002195835113525390625000f,0.02984206192195415496826171875000f,-0.10036516934633255004882812500000f,-0.00201476109214127063751220703125f,-0.00970601849257946014404296875000f,-0.07556609809398651123046875000000f,-0.00985072366893291473388671875000f,0.03544089570641517639160156250000f,-0.12018025666475296020507812500000f,0.00583839789032936096191406250000f,-0.02282151393592357635498046875000f,0.01158978231251239776611328125000f,-0.02886852622032165527343750000000f,0.00343501311726868152618408203125f,-0.16363187134265899658203125000000f,0.12561768293380737304687500000000f,-0.02782933786511421203613281250000f,-0.01577709428966045379638671875000f,-0.01365504320710897445678710937500f,-0.13024577498435974121093750000000f,-0.03852674365043640136718750000000f,0.00334889814257621765136718750000f,0.01084617897868156433105468750000f,-0.09059154987335205078125000000000f,-0.00452966615557670593261718750000f,0.03794492781162261962890625000000f,-0.03809774667024612426757812500000f,-0.02706013433635234832763671875000f,0.08502675592899322509765625000000f,-0.01622799411416053771972656250000f,0.01286058593541383743286132812500f,-0.00263224937953054904937744140625f,-0.03573929145932197570800781250000f,-0.08253732323646545410156250000000f,0.05186359211802482604980468750000f,0.02340900152921676635742187500000f,-0.04376546293497085571289062500000f,0.05815627798438072204589843750000f,-0.09607664495706558227539062500000f,-0.00485640903934836387634277343750f,-0.00257135648280382156372070312500f,-0.01093845348805189132690429687500f,0.01717653498053550720214843750000f,-0.01027860864996910095214843750000f,0.06381014734506607055664062500000f,0.05104865878820419311523437500000f,0.01767858490347862243652343750000f,0.03459284082055091857910156250000f,-0.02480488270521163940429687500000f,-0.01542037632316350936889648437500f,0.04782820120453834533691406250000f,-0.04806673526763916015625000000000f,0.03792594373226165771484375000000f,-0.01633147522807121276855468750000f,0.06464612483978271484375000000000f,-0.04016442596912384033203125000000f,-0.17602615058422088623046875000000f,-0.00795820727944374084472656250000f,-0.02656678482890129089355468750000f,0.13758082687854766845703125000000f,-0.02066912688314914703369140625000f,-0.01764201931655406951904296875000f,-0.00710392929613590240478515625000f,0.03423330187797546386718750000000f,-0.09293235093355178833007812500000f,-0.07652445137500762939453125000000f,-0.21405734121799468994140625000000f,-0.08904879540205001831054687500000f,0.30963179469108581542968750000000f,0.01563832350075244903564453125000f,0.02106637321412563323974609375000f,0.01433031074702739715576171875000f,0.00039055832894518971443176269531f,0.08848602324724197387695312500000f,0.00839977432042360305786132812500f,-0.07898275554180145263671875000000f,-0.04323446750640869140625000000000f,0.03879319876432418823242187500000f,-0.09731779992580413818359375000000f,-0.03015727922320365905761718750000f,0.05869531258940696716308593750000f,0.04369909316301345825195312500000f,-0.04094297438859939575195312500000f,0.00181406328920274972915649414062f,-0.01167962700128555297851562500000f,-0.02427150495350360870361328125000f,0.03146662935614585876464843750000f,0.07719767093658447265625000000000f,-0.01951089501380920410156250000000f,0.01417174469679594039916992187500f,-0.05306174233555793762207031250000f,0.05763699859380722045898437500000f,0.05177557840943336486816406250000f,-0.05612258985638618469238281250000f,0.01190875004976987838745117187500f,0.15797735750675201416015625000000f,-0.04642267152667045593261718750000f,-0.05353335663676261901855468750000f,-0.01330301631242036819458007812500f,0.01275338605046272277832031250000f,0.12482905387878417968750000000000f,0.00401241192594170570373535156250f,0.03334813192486763000488281250000f,0.00197260384447872638702392578125f,-0.01652345806360244750976562500000f,-0.00222998415119946002960205078125f,-0.00533346273005008697509765625000f,-0.07118413597345352172851562500000f,-0.03280927985906600952148437500000f,-0.06186884641647338867187500000000f,-0.04177015647292137145996093750000f,0.06677483767271041870117187500000f,0.07961834967136383056640625000000f,0.02742404118180274963378906250000f,-0.00533889839425683021545410156250f,-0.06198545545339584350585937500000f,-0.01620278507471084594726562500000f,-0.05456623435020446777343750000000f,-0.02329644560813903808593750000000f,0.03502544760704040527343750000000f,-0.00810355786234140396118164062500f,0.19007201492786407470703125000000f,-0.00959348864853382110595703125000f,-0.00639929156750440597534179687500f,0.09362391382455825805664062500000f,-0.05785271897912025451660156250000f,-0.03172972425818443298339843750000f,-0.02524354681372642517089843750000f,0.03752959892153739929199218750000f,-0.01078819110989570617675781250000f,0.01595358178019523620605468750000f,0.00071110390126705169677734375000f,0.04996359720826148986816406250000f,-0.03108375519514083862304687500000f,0.02994542196393013000488281250000f,-0.02683180570602416992187500000000f,-0.02444227412343025207519531250000f,-0.03501081839203834533691406250000f,-0.05402761325240135192871093750000f,-0.01160097680985927581787109375000f,-0.05431411787867546081542968750000f,0.00275148078799247741699218750000f,0.03689693287014961242675781250000f,-0.05432643368840217590332031250000f,0.01662928424775600433349609375000f,-0.00721801072359085083007812500000f,-0.02597654983401298522949218750000f,0.01115658693015575408935546875000f,0.07109893113374710083007812500000f,-0.04569325596094131469726562500000f,-0.05884839221835136413574218750000f,0.02039171569049358367919921875000f,0.00972811412066221237182617187500f,-0.03125760331749916076660156250000f,-0.01037012133747339248657226562500f,-0.02559038065373897552490234375000f,-0.06917022913694381713867187500000f,-0.02107822708785533905029296875000f,0.00964467879384756088256835937500f,-0.01210639905184507369995117187500f,-0.02860491536557674407958984375000f,0.02378348261117935180664062500000f,-0.04125567898154258728027343750000f,-0.01197491306811571121215820312500f,0.04352505132555961608886718750000f,-0.03327687829732894897460937500000f,0.00972312409430742263793945312500f,0.05482849851250648498535156250000f,-0.02528056688606739044189453125000f,0.00485366676002740859985351562500f,-0.01637589372694492340087890625000f,0.06564024090766906738281250000000f,-0.02433489449322223663330078125000f,0.00635955203324556350708007812500f,-0.01963525265455245971679687500000f,-0.00666162511333823204040527343750f,0.02496269345283508300781250000000f,-0.00742432428523898124694824218750f,0.01563302800059318542480468750000f,-0.05004499107599258422851562500000f,-0.00853802729398012161254882812500f,-0.00433981558308005332946777343750f,-0.02233310788869857788085937500000f,0.02915404364466667175292968750000f,0.01757584884762763977050781250000f,0.01596204191446304321289062500000f,-0.08163098990917205810546875000000f,0.02993724495172500610351562500000f,0.03439771011471748352050781250000f,-0.03818002343177795410156250000000f,-0.06782292574644088745117187500000f,0.04000137001276016235351562500000f,0.07606073468923568725585937500000f,-0.04047937318682670593261718750000f,0.01357749756425619125366210937500f,-0.02794949337840080261230468750000f,-0.11358732730150222778320312500000f,0.00029014982283115386962890625000f,-0.03694811835885047912597656250000f,0.00175415189005434513092041015625f,0.06871356070041656494140625000000f,0.08958386629819869995117187500000f,0.00015931161760818213224411010742f,-0.03618728369474411010742187500000f,0.03412585705518722534179687500000f,0.06552773714065551757812500000000f,0.04361548647284507751464843750000f,-0.01217382121831178665161132812500f,0.00775872590020298957824707031250f,0.00477410992607474327087402343750f,0.01522536017000675201416015625000f,0.07385481894016265869140625000000f,0.00107410643249750137329101562500f,-0.04525167867541313171386718750000f,-0.05588650330901145935058593750000f,0.08815877884626388549804687500000f,0.04736775904893875122070312500000f,0.00843855366110801696777343750000f,0.09816229343414306640625000000000f,0.04010245949029922485351562500000f,-0.01148387137800455093383789062500f,0.01940398849546909332275390625000f,-0.05208259448409080505371093750000f,-0.04298918321728706359863281250000f,-0.04095846787095069885253906250000f,-0.02435949072241783142089843750000f,-0.00071522599318996071815490722656f,-0.04030067473649978637695312500000f,-0.01479449681937694549560546875000f,0.03739843517541885375976562500000f,-0.00221626157872378826141357421875f,-0.09501221776008605957031250000000f,-0.01036199834197759628295898437500f,-0.00352068827487528324127197265625f,-0.02901660650968551635742187500000f,0.02788406237959861755371093750000f,0.02631209231913089752197265625000f,0.00577318854629993438720703125000f,0.00256884330883622169494628906250f,-0.03757918253540992736816406250000f,0.02567030303180217742919921875000f,-0.03563572466373443603515625000000f,-0.02194459550082683563232421875000f,0.05161333456635475158691406250000f,-0.04499046877026557922363281250000f,0.00310524925589561462402343750000f,-0.05683013051748275756835937500000f,0.00042593685793690383434295654297f,-0.01329139806330204010009765625000f,0.01583359204232692718505859375000f,-0.00903689395636320114135742187500f,-0.03364285081624984741210937500000f,0.05145856738090515136718750000000f,-0.00304457871243357658386230468750f,-0.09326545149087905883789062500000f,-0.04236175119876861572265625000000f,0.04175547510385513305664062500000f,-0.03976891189813613891601562500000f,-0.05388087779283523559570312500000f,0.01346395350992679595947265625000f,-0.02661632746458053588867187500000f,-0.02225266210734844207763671875000f,-0.03210571035742759704589843750000f,0.13714253902435302734375000000000f,0.02843630686402320861816406250000f,-0.00598566001281142234802246093750f,0.00115947669837623834609985351562f,0.00050153816118836402893066406250f,-0.04132093861699104309082031250000f,-0.01053290348500013351440429687500f,0.00518103269860148429870605468750f,0.00477507431060075759887695312500f,0.02844709903001785278320312500000f,0.01482558436691761016845703125000f,-0.00981625542044639587402343750000f,0.04035675525665283203125000000000f,0.00715023698285222053527832031250f,0.03333573788404464721679687500000f,-0.02408297732472419738769531250000f,0.00994692090898752212524414062500f,-0.02643872797489166259765625000000f,0.01196528971195220947265625000000f,-0.08956802636384963989257812500000f,-0.01311395782977342605590820312500f,0.03563417866826057434082031250000f,-0.05840259045362472534179687500000f,-0.01795585453510284423828125000000f,-0.06733396649360656738281250000000f,0.01425104029476642608642578125000f,-0.08058918267488479614257812500000f,-0.07083030790090560913085937500000f,0.05195000767707824707031250000000f,-0.02786358259618282318115234375000f,0.07947190850973129272460937500000f,0.06885349005460739135742187500000f,-0.06881412863731384277343750000000f,-0.03580528497695922851562500000000f,-0.01270950492471456527709960937500f,-0.08935881406068801879882812500000f,-0.01245823036879301071166992187500f,-0.01367212925106287002563476562500f,-0.01563028059899806976318359375000f,-0.05453846976161003112792968750000f,-0.07703337818384170532226562500000f,-0.02462110109627246856689453125000f,-0.05970145389437675476074218750000f,-0.00915175676345825195312500000000f,0.05287454649806022644042968750000f,0.01230658311396837234497070312500f,-0.03496852517127990722656250000000f,0.02394695207476615905761718750000f,0.01116832904517650604248046875000f,0.11427547037601470947265625000000f,0.01895915530622005462646484375000f,0.04992247745394706726074218750000f,0.06111066788434982299804687500000f,-0.02517393417656421661376953125000f,0.03434726223349571228027343750000f,-0.04805472493171691894531250000000f,0.05259048193693161010742187500000f,-0.02461147867143154144287109375000f,0.40217405557632446289062500000000f,0.01155728753656148910522460937500f,0.02954613976180553436279296875000f,-0.04723029956221580505371093750000f,-0.00571053056046366691589355468750f,-0.11236879229545593261718750000000f,0.00395268341526389122009277343750f,-0.01970670744776725769042968750000f,-0.00748997414484620094299316406250f,-0.02138901688158512115478515625000f,0.03872425481677055358886718750000f,-0.00149909174069762229919433593750f,0.00247142068110406398773193359375f,-0.06473382562398910522460937500000f,-0.04535326734185218811035156250000f,0.00545421708375215530395507812500f,0.00297306175343692302703857421875f,0.00154463900253176689147949218750f,-0.03148837760090827941894531250000f,-0.00925129279494285583496093750000f,0.06816300004720687866210937500000f,-0.04767275229096412658691406250000f,-0.17750969529151916503906250000000f,-0.07197969406843185424804687500000f,-0.04290957003831863403320312500000f,-0.08250226080417633056640625000000f,0.00673600612208247184753417968750f,-0.01961948908865451812744140625000f,0.01210760325193405151367187500000f,0.04363681748509407043457031250000f,-0.06088795885443687438964843750000f,0.00570292258635163307189941406250f,-0.02235278300940990447998046875000f,-0.06806962937116622924804687500000f,0.00636371038854122161865234375000f,-0.02668346650898456573486328125000f,0.06480537354946136474609375000000f,-0.02710632048547267913818359375000f,-0.01620797999203205108642578125000f,-0.00022437327424995601177215576172f,0.02649679593741893768310546875000f,-0.02750602550804615020751953125000f,0.09763865917921066284179687500000f,-0.02196983993053436279296875000000f,-0.01391240861266851425170898437500f,-0.11039941757917404174804687500000f,0.01988534070551395416259765625000f,0.11058097332715988159179687500000f,0.03812965750694274902343750000000f,-0.01461134385317564010620117187500f,0.02418594993650913238525390625000f,-0.00992955453693866729736328125000f,-0.00456516118720173835754394531250f,0.00898702722042798995971679687500f,0.05912917852401733398437500000000f,-0.00985893607139587402343750000000f,-0.00303387129679322242736816406250f,-0.01634711585938930511474609375000f,-0.04576440900564193725585937500000f,0.07642826437950134277343750000000f,0.00316965510137379169464111328125f,0.00490779476240277290344238281250f,-0.02789814211428165435791015625000f,0.02728066407144069671630859375000f,0.05653052404522895812988281250000f,-0.01066142134368419647216796875000f,0.10570401698350906372070312500000f,-0.00471757678315043449401855468750f,-0.04038929194211959838867187500000f,-0.12389785796403884887695312500000f,-0.03568714484572410583496093750000f,0.00433302391320466995239257812500f,0.03166542947292327880859375000000f,0.04760107770562171936035156250000f,0.02491815201938152313232421875000f,0.05427275225520133972167968750000f,-0.01495891157537698745727539062500f,-0.00664493488147854804992675781250f,-0.01409831456840038299560546875000f,-0.00827414821833372116088867187500f,0.01896917447447776794433593750000f,0.02780894003808498382568359375000f,-0.02972205542027950286865234375000f,-0.03812352567911148071289062500000f,-0.02096589654684066772460937500000f,0.00221883086487650871276855468750f,0.08504127711057662963867187500000f,0.02682411670684814453125000000000f,0.00498203188180923461914062500000f,0.06368419528007507324218750000000f,0.01305332966148853302001953125000f,-0.01902886852622032165527343750000f,0.05723729729652404785156250000000f,0.04546507820487022399902343750000f,0.00830452796071767807006835937500f,-0.04330904036760330200195312500000f,0.05016287788748741149902343750000f,-0.03918560966849327087402343750000f,-0.05125461891293525695800781250000f,0.26532664895057678222656250000000f,0.03775173425674438476562500000000f,-0.04236594587564468383789062500000f,-0.00906779058277606964111328125000f,-0.01125886105000972747802734375000f,0.01014411542564630508422851562500f,0.03557246923446655273437500000000f,0.06098219007253646850585937500000f,0.08792693912982940673828125000000f,0.03970004990696907043457031250000f,0.03251162171363830566406250000000f,-0.01740052364766597747802734375000f,-0.01131936442106962203979492187500f,0.01080992631614208221435546875000f,-0.08907665312290191650390625000000f,-0.00460633309558033943176269531250f,0.06734392791986465454101562500000f,0.02404540404677391052246093750000f,-0.05279998481273651123046875000000f,0.03855729848146438598632812500000f,-0.04218921810388565063476562500000f,-0.01566450111567974090576171875000f,-0.02061378955841064453125000000000f,0.05692107975482940673828125000000f,-0.07379168272018432617187500000000f,0.02065623365342617034912109375000f,0.01818411611020565032958984375000f,0.08703097701072692871093750000000f,-0.05821482464671134948730468750000f,-0.00038781043258495628833770751953f,-0.04057950899004936218261718750000f,-0.03844007849693298339843750000000f,0.00614769477397203445434570312500f,-0.01869819872081279754638671875000f,-0.01040666736662387847900390625000f,-0.04197349026799201965332031250000f,0.00642158882692456245422363281250f,0.07707920670509338378906250000000f,0.05582983046770095825195312500000f,0.00574835296720266342163085937500f,0.02167635597288608551025390625000f,-0.01061354111880064010620117187500f,-0.00354056549258530139923095703125f,0.03223001956939697265625000000000f,-0.03449980169534683227539062500000f,-0.00758009310811758041381835937500f,-0.05242442712187767028808593750000f,0.05338103324174880981445312500000f,0.01344261877238750457763671875000f,0.05253159999847412109375000000000f,0.04594887048006057739257812500000f,0.02262712456285953521728515625000f,-0.07951349020004272460937500000000f,0.04295125231146812438964843750000f,0.02501679211854934692382812500000f,-0.04561994597315788269042968750000f,-0.02388685382902622222900390625000f,-0.02577400952577590942382812500000f,-0.06504875421524047851562500000000f,0.01560175046324729919433593750000f,-0.01974010653793811798095703125000f,0.03249795362353324890136718750000f,0.01167843304574489593505859375000f,-0.02427916415035724639892578125000f,-0.00430271262302994728088378906250f,-0.00865751504898071289062500000000f,0.00651478534564375877380371093750f,-0.04365949705243110656738281250000f,0.02629801630973815917968750000000f,-0.00669992994517087936401367187500f,-0.02960130386054515838623046875000f,-0.04758074507117271423339843750000f,0.13247765600681304931640625000000f,-0.07881597429513931274414062500000f,0.04687157273292541503906250000000f,-0.01730268634855747222900390625000f,0.01139274891465902328491210937500f,0.07476276904344558715820312500000f,0.02875249087810516357421875000000f,0.02544884197413921356201171875000f,-0.07524771988391876220703125000000f,0.04054066538810729980468750000000f,0.00447218259796500205993652343750f,0.11568605899810791015625000000000f,0.04930183663964271545410156250000f,-0.01713375374674797058105468750000f,0.04818033054471015930175781250000f,-0.01816522888839244842529296875000f,0.02022234909236431121826171875000f,-0.01187065988779067993164062500000f,0.18313990533351898193359375000000f,-0.00152471230830997228622436523438f,-0.01064566243439912796020507812500f,-0.03479992225766181945800781250000f,-0.04922734573483467102050781250000f,0.00712892599403858184814453125000f,-0.04520255327224731445312500000000f,0.09634242951869964599609375000000f,-0.03740318492054939270019531250000f,0.03676086664199829101562500000000f,0.07921724021434783935546875000000f,0.03957597911357879638671875000000f,0.06508322805166244506835937500000f,-0.00282968347892165184020996093750f,-0.01198633480817079544067382812500f,0.05208573862910270690917968750000f,0.02987777628004550933837890625000f,0.00504121184349060058593750000000f,-0.00191810750402510166168212890625f,-0.03839414566755294799804687500000f,0.02883225865662097930908203125000f,0.05716254934668540954589843750000f,0.04150231927633285522460937500000f,0.00607806444168090820312500000000f,-0.02382739447057247161865234375000f,0.07538794726133346557617187500000f,0.04762764275074005126953125000000f,0.00305015384219586849212646484375f,0.00107288372237235307693481445312f,0.02480459585785865783691406250000f,-0.00708124926313757896423339843750f,0.01129992492496967315673828125000f,0.06526662409305572509765625000000f,-0.04571563005447387695312500000000f,-0.00800762511789798736572265625000f,-0.02228233031928539276123046875000f,-0.01881829462945461273193359375000f,0.03831451386213302612304687500000f,-0.05150043219327926635742187500000f,-0.03987837582826614379882812500000f,-0.10410119593143463134765625000000f,-0.06144109368324279785156250000000f,0.01550988573580980300903320312500f,0.04735901579260826110839843750000f,-0.06990287452936172485351562500000f,-0.02656345255672931671142578125000f,-0.02178546227514743804931640625000f,0.03078558109700679779052734375000f,0.00411095377057790756225585937500f,-0.02624007500708103179931640625000f,-0.01728111505508422851562500000000f,0.02684257365763187408447265625000f,-0.02710872143507003784179687500000f,0.07289988547563552856445312500000f,0.09063450992107391357421875000000f,0.02281138673424720764160156250000f,-0.00740404287353157997131347656250f,0.03409542888402938842773437500000f,-0.02055532112717628479003906250000f,-0.01266527362167835235595703125000f,-0.01412087585777044296264648437500f,0.05162429064512252807617187500000f,-0.00580518087372183799743652343750f,0.00964470207691192626953125000000f,-0.01460373122245073318481445312500f,-0.06739495694637298583984375000000f,0.01140165980905294418334960937500f,-0.15135839581489562988281250000000f,-0.08098856359720230102539062500000f,0.01977789402008056640625000000000f,0.01807621866464614868164062500000f,-0.02311526425182819366455078125000f,0.09403137117624282836914062500000f,-0.03684736043214797973632812500000f,-0.01712854951620101928710937500000f,0.05069372057914733886718750000000f,-0.02539289183914661407470703125000f,0.12523789703845977783203125000000f,-0.00660396460443735122680664062500f,0.10871113836765289306640625000000f,0.00440797908231616020202636718750f,0.03324758261442184448242187500000f,0.02231506071984767913818359375000f,0.04373679682612419128417968750000f,-0.04592030867934226989746093750000f,0.01151107810437679290771484375000f,-0.01044038590043783187866210937500f,-0.08472945541143417358398437500000f,0.00876767653971910476684570312500f,0.20124655961990356445312500000000f,-0.06848950684070587158203125000000f,-0.05638105794787406921386718750000f,-0.01424358971416950225830078125000f,0.05383118614554405212402343750000f,0.15805143117904663085937500000000f,0.04098342359066009521484375000000f,-0.03178105503320693969726562500000f,-0.05259620770812034606933593750000f,0.03290893509984016418457031250000f,0.00298819015733897686004638671875f,-0.19732041656970977783203125000000f,-0.02958598360419273376464843750000f,0.02881620451807975769042968750000f,0.07905999571084976196289062500000f,-0.01238803099840879440307617187500f,-0.04049931466579437255859375000000f,0.00289936596527695655822753906250f,0.03508783876895904541015625000000f,0.00564902555197477340698242187500f,-0.00974811520427465438842773437500f,0.16051641106605529785156250000000f,0.02041090838611125946044921875000f,0.06327550113201141357421875000000f,0.00711427209898829460144042968750f,-0.05902589857578277587890625000000f,-0.02959355153143405914306640625000f,0.02551852166652679443359375000000f,-0.01193045824766159057617187500000f,0.03155383095145225524902343750000f,-0.02780049107968807220458984375000f,-0.07496357709169387817382812500000f,0.08812562376260757446289062500000f,0.09000871330499649047851562500000f,-0.11727989464998245239257812500000f,0.02749912254512310028076171875000f,-0.00760665256530046463012695312500f,0.03826322779059410095214843750000f,-0.00141952733974903821945190429688f,0.08269543200731277465820312500000f,0.08901266753673553466796875000000f,0.05109265074133872985839843750000f,0.02745592407882213592529296875000f,-0.01252241898328065872192382812500f,-0.01296463515609502792358398437500f,0.00781910307705402374267578125000f,-0.02101488411426544189453125000000f,-0.01312352437525987625122070312500f,0.03520659357309341430664062500000f,-0.03145034238696098327636718750000f,0.02894648723304271697998046875000f,-0.02133308723568916320800781250000f,-0.03978405892848968505859375000000f,0.06387528032064437866210937500000f,0.00994981080293655395507812500000f,-0.00419423170387744903564453125000f,-0.07527077198028564453125000000000f,0.01769455336034297943115234375000f,-0.01097202207893133163452148437500f,0.11644753813743591308593750000000f,-0.03752651810646057128906250000000f,-0.02840737812221050262451171875000f,0.03483810275793075561523437500000f,-0.00152618496213108301162719726562f,0.08926050364971160888671875000000f,-0.00939343776553869247436523437500f,0.03880584239959716796875000000000f,0.04236905649304389953613281250000f,0.02512337081134319305419921875000f,-0.04732104018330574035644531250000f,0.04819577187299728393554687500000f,0.04173294454813003540039062500000f,0.06701286882162094116210937500000f,0.10450877249240875244140625000000f,-0.00087024975800886750221252441406f,0.01372520066797733306884765625000f,0.05280903354287147521972656250000f,-0.02870971150696277618408203125000f,-0.06667385995388031005859375000000f,0.01601839251816272735595703125000f,0.01816447824239730834960937500000f,-0.01512126065790653228759765625000f,0.03027684241533279418945312500000f,-0.05901527404785156250000000000000f,0.07027618587017059326171875000000f,0.06241725385189056396484375000000f,0.01463695615530014038085937500000f,-0.01447770185768604278564453125000f,0.00869910977780818939208984375000f,0.00122785766143351793289184570312f,0.05619411543011665344238281250000f,0.08502978086471557617187500000000f,0.03598532453179359436035156250000f,0.06540780514478683471679687500000f,0.08332100510597229003906250000000f,-0.05220758169889450073242187500000f,0.01887030713260173797607421875000f,0.03040342777967453002929687500000f,0.00889463908970355987548828125000f,0.02522837556898593902587890625000f,0.02073864266276359558105468750000f,0.02783936448395252227783203125000f,0.01976474188268184661865234375000f,0.20859195291996002197265625000000f,0.04588165879249572753906250000000f,0.03824666142463684082031250000000f,-0.00501053780317306518554687500000f,-0.04187366366386413574218750000000f,-0.00814045313745737075805664062500f,-0.14560241997241973876953125000000f,-0.05571699887514114379882812500000f,-0.01215021684765815734863281250000f,0.03707919269800186157226562500000f,-0.05170614644885063171386718750000f,0.05065857619047164916992187500000f,0.01523889321833848953247070312500f,0.03885883837938308715820312500000f,-0.02268813364207744598388671875000f,-0.05822774022817611694335937500000f,0.08688471466302871704101562500000f,0.02699226327240467071533203125000f,0.00724811805412173271179199218750f,-0.00076690746936947107315063476562f,-0.07789079099893569946289062500000f,-0.11097527295351028442382812500000f,-0.01520107407122850418090820312500f,-0.07404019683599472045898437500000f,0.05638906359672546386718750000000f,-0.03630667179822921752929687500000f,-0.02508279867470264434814453125000f,-0.03149276971817016601562500000000f,-0.08588066697120666503906250000000f,0.03002928011119365692138671875000f,-0.00249877385795116424560546875000f,-0.03256350383162498474121093750000f,-0.05421571061015129089355468750000f,-0.00093902001390233635902404785156f,-0.04907663539052009582519531250000f,-0.06216954812407493591308593750000f,0.03380169719457626342773437500000f,-0.00250369799323379993438720703125f,0.01332879997789859771728515625000f,0.03715508431196212768554687500000f,-0.01381235383450984954833984375000f,0.02013276703655719757080078125000f,-0.00338618992827832698822021484375f,-0.17153623700141906738281250000000f,-0.15286439657211303710937500000000f,-0.01792290434241294860839843750000f,-0.08124089241027832031250000000000f,-0.10352985560894012451171875000000f,0.00230778637342154979705810546875f,-0.00343840592540800571441650390625f,-0.05721722915768623352050781250000f,-0.03748548775911331176757812500000f,-0.07310803979635238647460937500000f,0.04944753274321556091308593750000f,0.08898345381021499633789062500000f,-0.03732035309076309204101562500000f,-0.04317879676818847656250000000000f,0.02291079424321651458740234375000f,-0.01933426968753337860107421875000f,-0.01048306748270988464355468750000f,-0.02026537805795669555664062500000f,-0.00321171409450471401214599609375f,0.00733716599643230438232421875000f,-0.01902944222092628479003906250000f,-0.04144757986068725585937500000000f,0.02530167065560817718505859375000f,0.09645424783229827880859375000000f,-0.02673587389290332794189453125000f,0.00980584789067506790161132812500f,-0.00257428991608321666717529296875f,0.07976623624563217163085937500000f,-0.03784637525677680969238281250000f,0.05639414116740226745605468750000f,-0.37005916237831115722656250000000f,-0.03637476265430450439453125000000f,-0.03107913956046104431152343750000f,0.05796781554818153381347656250000f,-0.00539171928539872169494628906250f,0.04843783006072044372558593750000f,-0.04053445905447006225585937500000f,-0.02579456940293312072753906250000f,0.06493087112903594970703125000000f,0.00485310098156332969665527343750f,-0.08367676287889480590820312500000f,-0.00190520100295543670654296875000f,-0.02192193083465099334716796875000f,0.04973985999822616577148437500000f,0.01175347343087196350097656250000f,-0.01548380590975284576416015625000f,0.01878823712468147277832031250000f,0.04088727012276649475097656250000f,-0.01565912738442420959472656250000f,-0.07950387150049209594726562500000f,0.04358416795730590820312500000000f,-0.00796370487660169601440429687500f,0.01084112562239170074462890625000f,0.04501055926084518432617187500000f,0.01777199655771255493164062500000f,-0.02535012550652027130126953125000f,0.02470252104103565216064453125000f,0.03031033836305141448974609375000f,0.05597196146845817565917968750000f,-0.05070316791534423828125000000000f,-0.06227319687604904174804687500000f,0.04948367178440093994140625000000f,0.02423272095620632171630859375000f,0.05609016120433807373046875000000f,0.00837584771215915679931640625000f,0.05763794854283332824707031250000f,-0.10050186514854431152343750000000f,-0.01419810764491558074951171875000f,-0.03500797972083091735839843750000f,-0.03590979799628257751464843750000f,-0.46934628486633300781250000000000f,0.03615411743521690368652343750000f,-0.01404469739645719528198242187500f,0.00292461435310542583465576171875f,0.05023370310664176940917968750000f,0.03092744760215282440185546875000f,0.07256356626749038696289062500000f,0.09135762602090835571289062500000f,0.03456337004899978637695312500000f,0.06064476072788238525390625000000f,0.00364779890514910221099853515625f,0.01341008301824331283569335937500f,-0.01099701505154371261596679687500f,0.00994277838617563247680664062500f,0.02970148064196109771728515625000f,-0.00117699184920638799667358398438f,-0.06936504691839218139648437500000f,0.08947555720806121826171875000000f,0.06954052299261093139648437500000f,0.04522572830319404602050781250000f,0.00180589244700968265533447265625f,-0.00292143411934375762939453125000f,-0.05821650475263595581054687500000f,0.01618782617151737213134765625000f,-0.03880384936928749084472656250000f,0.00888621155172586441040039062500f,0.02849050983786582946777343750000f,-0.14172920584678649902343750000000f,-0.02583334781229496002197265625000f,-0.00283255707472562789916992187500f,-0.09030029922723770141601562500000f,-0.01952340826392173767089843750000f,-0.00675263395532965660095214843750f,0.00708552449941635131835937500000f,-0.05383661389350891113281250000000f,-0.02470488287508487701416015625000f,0.03857995197176933288574218750000f,0.06319115310907363891601562500000f,-0.00011518098472151905298233032227f,-0.00732687208801507949829101562500f,-0.01261035911738872528076171875000f,0.02011688239872455596923828125000f,0.05701108276844024658203125000000f,-0.05869311094284057617187500000000f,-0.03490412607789039611816406250000f,0.02608606033027172088623046875000f,-0.06067404150962829589843750000000f,0.04832861199975013732910156250000f,-0.03321041166782379150390625000000f,-0.08344525098800659179687500000000f,0.01037839986383914947509765625000f,0.03042931668460369110107421875000f,0.01464774366468191146850585937500f,-0.05437681823968887329101562500000f,-0.00695519382134079933166503906250f,-0.08653047680854797363281250000000f,0.02217349037528038024902343750000f,0.00879129953682422637939453125000f,0.03615001961588859558105468750000f,-0.06208649277687072753906250000000f,-0.00626506470143795013427734375000f,-0.01999119482934474945068359375000f,0.09654136747121810913085937500000f,-0.02419656887650489807128906250000f,-0.00471633672714233398437500000000f,-0.01237868145108222961425781250000f,-0.18076257407665252685546875000000f,0.01800816319882869720458984375000f,-0.00282073835842311382293701171875f,0.00618202192708849906921386718750f,-0.14831613004207611083984375000000f,-0.10486682504415512084960937500000f,-0.01437828224152326583862304687500f,0.03473087027668952941894531250000f,0.02110168524086475372314453125000f,0.02007694728672504425048828125000f,0.04734332859516143798828125000000f,-0.00399804487824440002441406250000f,0.01028139796108007431030273437500f,-0.01070552971214056015014648437500f,0.00933546200394630432128906250000f,0.01618188805878162384033203125000f,-0.02422078698873519897460937500000f,0.01948828622698783874511718750000f,-0.00217827386222779750823974609375f,-0.05058328062295913696289062500000f,-0.00957408268004655838012695312500f,0.05460437014698982238769531250000f,-0.09303856641054153442382812500000f,-0.04064609482884407043457031250000f,-0.00796688068658113479614257812500f,0.05157620459794998168945312500000f,0.01178859826177358627319335937500f,0.07262803614139556884765625000000f,0.03575213626027107238769531250000f,-0.00208735908381640911102294921875f,0.01397607754915952682495117187500f,0.01279016025364398956298828125000f,-0.09053424745798110961914062500000f,0.00530454376712441444396972656250f,-0.00649428134784102439880371093750f,-0.03861776366829872131347656250000f,0.02631810866296291351318359375000f,0.02776761539280414581298828125000f,0.05221432819962501525878906250000f,0.03418109565973281860351562500000f,-0.01235331967473030090332031250000f,-0.00314559787511825561523437500000f,-0.08142989873886108398437500000000f,0.04681794345378875732421875000000f,0.02271518297493457794189453125000f,0.07289554178714752197265625000000f,0.03443026170134544372558593750000f,0.01690655015408992767333984375000f,0.04483120888471603393554687500000f,0.01109047699719667434692382812500f,-0.01805232092738151550292968750000f,-0.01229336671531200408935546875000f,-0.03505389392375946044921875000000f,0.03954757377505302429199218750000f,0.04487846419215202331542968750000f,-0.06352721899747848510742187500000f,-0.01851552911102771759033203125000f,-0.03372484073042869567871093750000f,0.01790940016508102416992187500000f,-0.01971401460468769073486328125000f,0.15664891898632049560546875000000f,-0.03628930449485778808593750000000f,0.13236039876937866210937500000000f,0.01602678187191486358642578125000f,0.03620094060897827148437500000000f,0.01619601249694824218750000000000f,0.01172634959220886230468750000000f,-0.10682291537523269653320312500000f,-0.03908139467239379882812500000000f,0.08981098234653472900390625000000f,0.21362973749637603759765625000000f,-0.05995347723364830017089843750000f,-0.00338718621060252189636230468750f,-0.04432745650410652160644531250000f,0.02107119001448154449462890625000f,0.04227249324321746826171875000000f,0.01044400129467248916625976562500f,-0.14154382050037384033203125000000f,0.01588213071227073669433593750000f,0.01748993806540966033935546875000f,0.00520620215684175491333007812500f,0.00505179120227694511413574218750f,0.03469815477728843688964843750000f,0.01502468436956405639648437500000f,-0.04632795602083206176757812500000f,-0.04685715213418006896972656250000f,0.06473407149314880371093750000000f,0.13594797253608703613281250000000f,-0.00638375710695981979370117187500f,0.02093350701034069061279296875000f,-0.04058191180229187011718750000000f,0.01740438863635063171386718750000f,-0.07876539230346679687500000000000f,0.03014010004699230194091796875000f,-0.04677186533808708190917968750000f,-0.05094572901725769042968750000000f,0.00895011518150568008422851562500f,-0.05052079260349273681640625000000f,0.06448862701654434204101562500000f,-0.09997670352458953857421875000000f,0.04762065783143043518066406250000f,0.06725763529539108276367187500000f,-0.01683557219803333282470703125000f,0.02176313288509845733642578125000f,0.00703009171411395072937011718750f,0.03375348076224327087402343750000f,0.04043532162904739379882812500000f,-0.09976598620414733886718750000000f,0.01935962587594985961914062500000f,0.04523602873086929321289062500000f,0.01638832502067089080810546875000f,-0.02126900665462017059326171875000f,-0.07388569414615631103515625000000f,-0.00342205492779612541198730468750f,-0.01769168674945831298828125000000f,-0.00531773408874869346618652343750f,-0.00437376322224736213684082031250f,0.05352545157074928283691406250000f,-0.02896926179528236389160156250000f,0.05426691100001335144042968750000f,0.04623130708932876586914062500000f,-0.01675795949995517730712890625000f,-0.05561407282948493957519531250000f,0.06165337935090065002441406250000f,-0.06395196169614791870117187500000f,0.06794040650129318237304687500000f,0.03435514122247695922851562500000f,0.00940345600247383117675781250000f,-0.12130504846572875976562500000000f,-0.04224267601966857910156250000000f,0.01662037707865238189697265625000f,-0.06820529699325561523437500000000f,0.08621607720851898193359375000000f,0.00729891890659928321838378906250f,-0.05818400904536247253417968750000f,0.04866605252027511596679687500000f,-0.02546140365302562713623046875000f,0.04473005980253219604492187500000f,-0.05648436024785041809082031250000f,0.00584792159497737884521484375000f,-0.00326979183591902256011962890625f,0.03549353778362274169921875000000f,0.04403017088770866394042968750000f,0.03175878524780273437500000000000f,-0.03939855098724365234375000000000f,0.00683353468775749206542968750000f,0.00737395137548446655273437500000f,0.01914089731872081756591796875000f,0.02492226846516132354736328125000f,0.04019078984856605529785156250000f,0.03929232805967330932617187500000f,0.00754584930837154388427734375000f,0.03384224325418472290039062500000f,0.18163749575614929199218750000000f,0.03798188641667366027832031250000f,0.04372806474566459655761718750000f,0.03217529505491256713867187500000f,0.00768602872267365455627441406250f,0.08090294152498245239257812500000f,-0.02394936047494411468505859375000f,-0.06483507156372070312500000000000f,0.06275634467601776123046875000000f,-0.03768987208604812622070312500000f,-0.01934680528938770294189453125000f,0.06498938053846359252929687500000f,-0.02406147681176662445068359375000f,0.05022933334112167358398437500000f,-0.05047802254557609558105468750000f,-0.02772002108395099639892578125000f,0.01866482011973857879638671875000f,-0.08395881205797195434570312500000f,0.00940926745533943176269531250000f,-0.00529101118445396423339843750000f,0.16869188845157623291015625000000f,-0.03913713619112968444824218750000f,0.06399857252836227416992187500000f,0.00624155113473534584045410156250f,-0.04541352018713951110839843750000f,-0.01635135896503925323486328125000f,-0.13782247900962829589843750000000f,0.03580179810523986816406250000000f,-0.01129280123859643936157226562500f,-0.13861143589019775390625000000000f,0.01517749764025211334228515625000f,-0.00462078955024480819702148437500f,0.01503498386591672897338867187500f,-0.00535985501483082771301269531250f,-0.01257535070180892944335937500000f,-0.00040140651981346309185028076172f,-0.04831670969724655151367187500000f,-0.01541145239025354385375976562500f,-0.12369920313358306884765625000000f,0.00706011755391955375671386718750f,-0.05552338436245918273925781250000f,-0.01482593081891536712646484375000f,-0.09292709827423095703125000000000f,-0.01570575684309005737304687500000f,0.04282149672508239746093750000000f,0.17867006361484527587890625000000f,0.03399650007486343383789062500000f,0.02715802937746047973632812500000f,-0.06106316670775413513183593750000f,-0.00456221261993050575256347656250f,0.04545899853110313415527343750000f,-0.03748644515872001647949218750000f,0.01842437312006950378417968750000f,-0.17170365154743194580078125000000f,-0.02580235898494720458984375000000f,0.05193641409277915954589843750000f,0.02391844987869262695312500000000f,-0.07683239132165908813476562500000f,-0.04560134187340736389160156250000f,0.01471697725355625152587890625000f,-0.04009293019771575927734375000000f,-0.03526238352060317993164062500000f,0.04554609209299087524414062500000f,-0.00766942324116826057434082031250f,-0.07663112878799438476562500000000f,-0.00896474346518516540527343750000f,0.10281943529844284057617187500000f,0.08271797746419906616210937500000f,-0.02872333861887454986572265625000f,-0.01393010467290878295898437500000f,0.12070789188146591186523437500000f,0.09768735617399215698242187500000f,-0.01086427271366119384765625000000f,-0.02933886647224426269531250000000f,-0.03663149103522300720214843750000f,-0.00707249436527490615844726562500f,0.03088724240660667419433593750000f,0.01016463153064250946044921875000f,-0.00724821072071790695190429687500f,0.03073999285697937011718750000000f,0.00890178047120571136474609375000f,-0.04028107225894927978515625000000f,0.01051684003323316574096679687500f,0.01688558794558048248291015625000f,0.09593683481216430664062500000000f,-0.06253588944673538208007812500000f,0.07267701625823974609375000000000f,0.09037483483552932739257812500000f,0.02066949196159839630126953125000f,0.03491672500967979431152343750000f,0.08083637058734893798828125000000f,0.03004116006195545196533203125000f,-0.02037136070430278778076171875000f,0.01276560220867395401000976562500f,0.01113484520465135574340820312500f,-0.01063561998307704925537109375000f,-0.01261614542454481124877929687500f,-0.04655762389302253723144531250000f,-0.01877653039991855621337890625000f,-0.08249422907829284667968750000000f,0.00007959695358294993638992309570f,-0.03680540621280670166015625000000f,0.00559286773204803466796875000000f,-0.00879291072487831115722656250000f,-0.01213063206523656845092773437500f,-0.04378893971443176269531250000000f,0.06550706177949905395507812500000f,0.04439036548137664794921875000000f,0.05254119634628295898437500000000f,0.02261570841073989868164062500000f,-0.07316695898771286010742187500000f,-0.04658372327685356140136718750000f,0.00560595886781811714172363281250f,-0.09843941777944564819335937500000f,-0.03272251784801483154296875000000f,-0.04692225903272628784179687500000f,0.02213034220039844512939453125000f,0.09087181091308593750000000000000f,-0.09326401352882385253906250000000f,-0.00676109082996845245361328125000f,0.02194329909980297088623046875000f,-0.05923527479171752929687500000000f,-0.03807767853140830993652343750000f,-0.04261546954512596130371093750000f,0.02506280876696109771728515625000f,-0.01216979511082172393798828125000f,-0.00945837609469890594482421875000f,0.00538615975528955459594726562500f,0.03052443638443946838378906250000f,-0.02344997972249984741210937500000f,-0.03004833869636058807373046875000f,-0.01981844939291477203369140625000f,0.01123844645917415618896484375000f,0.04069658368825912475585937500000f,0.06991526484489440917968750000000f,-0.00704498030245304107666015625000f,0.03762589022517204284667968750000f,-0.00605412246659398078918457031250f,-0.05717952176928520202636718750000f,0.01080420892685651779174804687500f,0.08790063858032226562500000000000f,-0.04259195923805236816406250000000f,-0.03396990522742271423339843750000f,0.02486806176602840423583984375000f,-0.06219223886728286743164062500000f,0.04690025374293327331542968750000f,-0.02967719733715057373046875000000f,0.06597422063350677490234375000000f,0.11484224349260330200195312500000f,-0.04731130227446556091308593750000f,0.00253844726830720901489257812500f,-0.01365177333354949951171875000000f,0.05444528162479400634765625000000f,0.03532065078616142272949218750000f,-0.05344013497233390808105468750000f,-0.00595927238464355468750000000000f,-0.04139844700694084167480468750000f,0.01770204491913318634033203125000f,-0.06267261505126953125000000000000f,0.01734951138496398925781250000000f,0.03709033504128456115722656250000f,-0.06634384393692016601562500000000f,0.03200500831007957458496093750000f,-0.02140827849507331848144531250000f,-0.02385341003537178039550781250000f,0.04344056174159049987792968750000f,0.03813190013170242309570312500000f,-0.05858913064002990722656250000000f,-0.01295820064842700958251953125000f,0.03098182193934917449951171875000f,-0.05239536985754966735839843750000f,-0.01392237842082977294921875000000f,0.00710855145007371902465820312500f,0.09163802117109298706054687500000f,0.00625873776152729988098144531250f,-0.03168973326683044433593750000000f,0.00809053704142570495605468750000f,0.01515440270304679870605468750000f,0.13913297653198242187500000000000f,-0.01604784280061721801757812500000f,0.02378429844975471496582031250000f,0.00748802116140723228454589843750f,-0.04268497601151466369628906250000f,0.01226126588881015777587890625000f,-0.05292478576302528381347656250000f,-0.05241428688168525695800781250000f,0.02048462256789207458496093750000f,0.05020898953080177307128906250000f,-0.04664813727140426635742187500000f,-0.04299654811620712280273437500000f,0.03965600207448005676269531250000f,-0.03882458806037902832031250000000f,0.01835173368453979492187500000000f,-0.05742643401026725769042968750000f,-0.02596995979547500610351562500000f,-0.00136750959791243076324462890625f,-0.09000977128744125366210937500000f,-0.00873328745365142822265625000000f,0.03806699067354202270507812500000f,0.06396789103746414184570312500000f,-0.04775438085198402404785156250000f,0.01588195748627185821533203125000f,0.01575259119272232055664062500000f,-0.01283856574445962905883789062500f,0.03909724578261375427246093750000f,-0.03363826498389244079589843750000f,0.01667433604598045349121093750000f,-0.01485214568674564361572265625000f,0.15515185892581939697265625000000f,0.05236725509166717529296875000000f,0.04968646541237831115722656250000f,-0.05873964726924896240234375000000f,-0.01104183122515678405761718750000f,0.00031545688398182392120361328125f,0.05375827103853225708007812500000f,-0.03748413175344467163085937500000f,-0.01469092816114425659179687500000f,-0.01403745729476213455200195312500f,-0.04880335554480552673339843750000f,0.08189696073532104492187500000000f,-0.01143681630492210388183593750000f,-0.08222950249910354614257812500000f,-0.00130842521321028470993041992188f,-0.02501406148076057434082031250000f,-0.15564665198326110839843750000000f,-0.05071238055825233459472656250000f,0.09219782054424285888671875000000f,-0.04688389226794242858886718750000f,0.03427472338080406188964843750000f,0.00908787734806537628173828125000f,-0.11022759974002838134765625000000f,-0.06364862620830535888671875000000f,-0.02280024997889995574951171875000f,-0.01235269568860530853271484375000f,-0.15500594675540924072265625000000f,0.05388235300779342651367187500000f,-0.03102391585707664489746093750000f,0.03512177243828773498535156250000f,0.00792014040052890777587890625000f,-0.02634268440306186676025390625000f,0.09980628639459609985351562500000f,-0.09017112851142883300781250000000f,-0.03565043210983276367187500000000f,0.00726397149264812469482421875000f,-0.00105957232881337404251098632812f,0.01082465890794992446899414062500f,0.09437918663024902343750000000000f,-0.03896256163716316223144531250000f,-0.25758707523345947265625000000000f,0.05971539393067359924316406250000f,-0.01178837101906538009643554687500f,-0.05087472870945930480957031250000f,-0.00112276454456150531768798828125f,0.05319212749600410461425781250000f,0.08154521882534027099609375000000f,0.00818602181971073150634765625000f,0.05211248621344566345214843750000f,-0.04449523985385894775390625000000f,-0.03508818894624710083007812500000f,-0.02918354980647563934326171875000f,0.03927316516637802124023437500000f,0.19608390331268310546875000000000f,-0.01159342844039201736450195312500f,-0.02096832357347011566162109375000f,-0.03929222747683525085449218750000f,-0.07612480968236923217773437500000f,-0.04074621573090553283691406250000f,0.06828647851943969726562500000000f,-0.07651654630899429321289062500000f,-0.01540451031178236007690429687500f,-0.00698291324079036712646484375000f,0.29463210701942443847656250000000f,-0.09528645873069763183593750000000f,-0.08275902271270751953125000000000f,0.04693004488945007324218750000000f,-0.02186977118253707885742187500000f,0.00566963432356715202331542968750f,-0.10809066146612167358398437500000f,-0.00996421463787555694580078125000f,-0.00552375568076968193054199218750f,-0.03933751583099365234375000000000f,0.02032003924250602722167968750000f,-0.03528209030628204345703125000000f,0.03734548389911651611328125000000f,0.12317864596843719482421875000000f,-0.03349914774298667907714843750000f,-0.05117564648389816284179687500000f,0.00992665719240903854370117187500f,-0.01766288094222545623779296875000f,0.10252019017934799194335937500000f,0.01293738279491662979125976562500f,-0.01559071149677038192749023437500f,0.05833348631858825683593750000000f,0.00842088181525468826293945312500f,0.02548262849450111389160156250000f,0.04214593395590782165527343750000f,0.03632823005318641662597656250000f,0.03190881386399269104003906250000f,-0.05300431698560714721679687500000f,-0.08967663347721099853515625000000f,-0.06992938369512557983398437500000f,0.10082700103521347045898437500000f,-0.07312243431806564331054687500000f,0.03711602091789245605468750000000f,0.03687558695673942565917968750000f,0.04792469739913940429687500000000f,0.05320439487695693969726562500000f,0.09730571508407592773437500000000f,-0.02020303718745708465576171875000f,0.11102826148271560668945312500000f,-0.02940210700035095214843750000000f,0.05022720620036125183105468750000f,0.10339656472206115722656250000000f,0.00203918875195086002349853515625f,0.04757916182279586791992187500000f,0.06913539767265319824218750000000f,-0.03565540537238121032714843750000f,0.00468562636524438858032226562500f,-0.01819950900971889495849609375000f,-0.11071743816137313842773437500000f,-0.12867221236228942871093750000000f,-0.07939581573009490966796875000000f,-0.20922055840492248535156250000000f,0.03354412689805030822753906250000f,-0.35810935497283935546875000000000f,-0.03373122215270996093750000000000f,0.04622126743197441101074218750000f,-0.02111260406672954559326171875000f,0.05455194041132926940917968750000f,-0.02823740616440773010253906250000f,0.07737234979867935180664062500000f,-0.01380796916782855987548828125000f,-0.01299537438899278640747070312500f,0.15675435960292816162109375000000f,0.02458642609417438507080078125000f,0.00064106908394023776054382324219f,-0.02190316095948219299316406250000f,0.11054755002260208129882812500000f,0.03257449343800544738769531250000f,-0.05040398612618446350097656250000f,-0.05959003046154975891113281250000f,0.02317884191870689392089843750000f,-0.16878993809223175048828125000000f,0.07279165834188461303710937500000f,0.02002456970512866973876953125000f,-0.00027163923368789255619049072266f,-0.06374688446521759033203125000000f,0.06997859477996826171875000000000f,-0.03826982900500297546386718750000f,-0.01102027017623186111450195312500f,-0.03242271021008491516113281250000f,0.03264342993497848510742187500000f,-0.01274791359901428222656250000000f,0.02179852500557899475097656250000f,0.04942057654261589050292968750000f,-0.01228631194680929183959960937500f,-0.00311017362400889396667480468750f,0.00872063264250755310058593750000f,0.03915412724018096923828125000000f,0.02820401266217231750488281250000f,-0.00399953080341219902038574218750f,-0.00779476063326001167297363281250f,-0.05327271297574043273925781250000f,-0.04427317902445793151855468750000f,-0.13020993769168853759765625000000f,0.03552906215190887451171875000000f,0.00254979799501597881317138671875f,-0.34874871373176574707031250000000f,-0.02684160321950912475585937500000f,-0.06851421296596527099609375000000f,-0.01699927821755409240722656250000f,0.01015785336494445800781250000000f,-0.06646233052015304565429687500000f,-0.03366499394178390502929687500000f,0.10553151369094848632812500000000f,0.00624287920072674751281738281250f,-0.12121558189392089843750000000000f,0.00759359076619148254394531250000f,0.01197575405240058898925781250000f,0.07430689781904220581054687500000f,-0.04847605526447296142578125000000f,-0.03669913113117218017578125000000f,-0.01728785410523414611816406250000f,-0.03265276551246643066406250000000f,-0.00459468830376863479614257812500f,0.07167795300483703613281250000000f,0.00502190040424466133117675781250f,0.01504786312580108642578125000000f,0.00360741559416055679321289062500f,-0.03131538257002830505371093750000f,-0.06834903359413146972656250000000f,0.00773498229682445526123046875000f,0.05890903994441032409667968750000f,-0.02266542799770832061767578125000f,0.00319743994623422622680664062500f,-0.01909236237406730651855468750000f,-0.00055314565543085336685180664062f,0.04389350116252899169921875000000f,-0.02736081928014755249023437500000f,-0.02408473752439022064208984375000f,0.02449647523462772369384765625000f,0.00230793328955769538879394531250f,0.01243835128843784332275390625000f,-0.02538106963038444519042968750000f,-0.06935640424489974975585937500000f,-0.06787754595279693603515625000000f,0.01688021048903465270996093750000f,0.02520650625228881835937500000000f,0.02820581384003162384033203125000f,-0.11186464130878448486328125000000f,0.04479290544986724853515625000000f,0.02562765963375568389892578125000f,-0.01463845558464527130126953125000f,-0.02491406910121440887451171875000f,-0.00102775928098708391189575195312f,0.34535375237464904785156250000000f,0.00369250844232738018035888671875f,0.05070710182189941406250000000000f,-0.05741350725293159484863281250000f,-0.02115630358457565307617187500000f,-0.02952661179006099700927734375000f,-0.02442592382431030273437500000000f,-0.02108810655772686004638671875000f,-0.04548427462577819824218750000000f,0.04415778815746307373046875000000f,-0.05476591363549232482910156250000f,-0.05753915384411811828613281250000f,-0.14186321198940277099609375000000f,0.00752610852941870689392089843750f,0.06227039918303489685058593750000f,-0.07907691597938537597656250000000f,-0.00954170431941747665405273437500f,-0.04090403392910957336425781250000f,0.01298802066594362258911132812500f,-0.01713543944060802459716796875000f,-0.02295839600265026092529296875000f,0.00660870224237442016601562500000f,0.10272024571895599365234375000000f,0.01393581088632345199584960937500f,0.01285333372652530670166015625000f,-0.01335544232279062271118164062500f,0.04650266841053962707519531250000f,0.02480672672390937805175781250000f,0.02269753068685531616210937500000f,0.00686152279376983642578125000000f,0.03680482506752014160156250000000f,0.03087344206869602203369140625000f,0.07439111918210983276367187500000f,-0.02144066430628299713134765625000f,0.00477314088493585586547851562500f,0.04959328472614288330078125000000f,-0.07976002246141433715820312500000f,0.09753673523664474487304687500000f,-0.02342281118035316467285156250000f,-0.00493390997871756553649902343750f,0.01556325610727071762084960937500f,-0.06838040053844451904296875000000f,-0.35280635952949523925781250000000f,0.02241357602179050445556640625000f,-0.01973357237875461578369140625000f,-0.02010374516248703002929687500000f,-0.08309692144393920898437500000000f,0.22737927734851837158203125000000f,0.01266234647482633590698242187500f,0.07313456386327743530273437500000f,-0.03295242413878440856933593750000f,-0.14420425891876220703125000000000f,0.03081667982041835784912109375000f,-0.07280730456113815307617187500000f,0.00960721820592880249023437500000f,0.02461440861225128173828125000000f,0.10272938758134841918945312500000f,0.09609579294919967651367187500000f,-0.01778665184974670410156250000000f,-0.00571101345121860504150390625000f,0.14274829626083374023437500000000f,0.12112768739461898803710937500000f,-0.01707251369953155517578125000000f,0.00736856041476130485534667968750f,0.33173033595085144042968750000000f,-0.26545545458793640136718750000000f,-0.00383435585536062717437744140625f,-0.03632747009396553039550781250000f,-0.06566563993692398071289062500000f,0.01039495971053838729858398437500f,0.02036700025200843811035156250000f,-0.01317122019827365875244140625000f,-0.02728786133229732513427734375000f,-0.10215383023023605346679687500000f,-0.02703692205250263214111328125000f,-0.07040065526962280273437500000000f,0.00194522133097052574157714843750f,-0.02572382800281047821044921875000f,-0.02635164931416511535644531250000f,0.02273030765354633331298828125000f,-0.05979983881115913391113281250000f,0.03166114911437034606933593750000f,-0.07232181727886199951171875000000f,0.00351871829479932785034179687500f,0.01193560101091861724853515625000f,-0.00793645251542329788208007812500f,0.02212552912533283233642578125000f,0.04301683232188224792480468750000f,0.04083954915404319763183593750000f,-0.01505552697926759719848632812500f,-0.04647187143564224243164062500000f,-0.02327838726341724395751953125000f,0.01087808329612016677856445312500f,0.01687435619533061981201171875000f,-0.12370728701353073120117187500000f,0.07571172714233398437500000000000f,-0.01196928322315216064453125000000f,-0.00388167146593332290649414062500f,0.07530280947685241699218750000000f,0.01014310307800769805908203125000f,-0.02689650654792785644531250000000f,0.00948394089937210083007812500000f,0.04968709498643875122070312500000f,0.00518494704738259315490722656250f,0.02081642486155033111572265625000f,