#include <polimidl/layers/alignment.hpp>
alignas(polimidl::layers::buffer_alignment::byte_alignment) const float weight23[] = {0.60375159978866577148437500000000f,-0.09375613927841186523437500000000f,0.38516861200332641601562500000000f,-0.35992237925529479980468750000000f,-0.43270012736320495605468750000000f,-0.04930829629302024841308593750000f,-0.35843247175216674804687500000000f,-0.45376303791999816894531250000000f,-0.40159302949905395507812500000000f,-0.44934970140457153320312500000000f,0.36354276537895202636718750000000f,0.52016878128051757812500000000000f,-0.45350423455238342285156250000000f,-0.42735329270362854003906250000000f,-0.46946081519126892089843750000000f,-0.85955476760864257812500000000000f,-0.30063214898109436035156250000000f,-0.43610581755638122558593750000000f,-0.46090185642242431640625000000000f,0.45250278711318969726562500000000f,-0.01696902327239513397216796875000f,-0.58399420976638793945312500000000f,0.46790221333503723144531250000000f,0.51503974199295043945312500000000f,-0.49706777930259704589843750000000f,0.68277829885482788085937500000000f,-0.54546785354614257812500000000000f,-0.45724835991859436035156250000000f,0.47180846333503723144531250000000f,0.60009604692459106445312500000000f,0.53161031007766723632812500000000f,-0.14512392878532409667968750000000f,-0.82008153200149536132812500000000f,-0.40911874175071716308593750000000f,0.63374054431915283203125000000000f,0.51017570495605468750000000000000f,0.42477959394454956054687500000000f,-0.29594030976295471191406250000000f,0.26118731498718261718750000000000f,-0.33195829391479492187500000000000f,0.77836781740188598632812500000000f,0.53544956445693969726562500000000f,0.50191384553909301757812500000000f,0.64468675851821899414062500000000f,-0.33379989862442016601562500000000f,0.42112705111503601074218750000000f,-0.49846410751342773437500000000000f,-0.43139648437500000000000000000000f,0.51589345932006835937500000000000f,-0.32421267032623291015625000000000f,0.56988441944122314453125000000000f,0.41489619016647338867187500000000f,-0.35478559136390686035156250000000f,-0.57238292694091796875000000000000f,0.60515010356903076171875000000000f,-0.40146249532699584960937500000000f,0.49688428640365600585937500000000f,0.67148977518081665039062500000000f,0.54971182346343994140625000000000f,0.51857799291610717773437500000000f,-0.26289185881614685058593750000000f,0.65269827842712402343750000000000f,-0.47873497009277343750000000000000f,0.39442408084869384765625000000000f,-0.37885081768035888671875000000000f,0.72304850816726684570312500000000f,0.55757135152816772460937500000000f,0.45580717921257019042968750000000f,0.55869078636169433593750000000000f,-0.67669397592544555664062500000000f,0.54499393701553344726562500000000f,0.41868871450424194335937500000000f,-0.45669329166412353515625000000000f,0.64338636398315429687500000000000f,0.59451037645339965820312500000000f,0.65463286638259887695312500000000f,0.51639264822006225585937500000000f,-0.39873394370079040527343750000000f,-0.40746352076530456542968750000000f,0.51416659355163574218750000000000f,0.69966012239456176757812500000000f,-0.50735247135162353515625000000000f,-0.35013246536254882812500000000000f,-0.34380680322647094726562500000000f,0.82735311985015869140625000000000f,-0.46245592832565307617187500000000f,-0.36461031436920166015625000000000f,0.48662462830543518066406250000000f,0.70897936820983886718750000000000f,-0.44440308213233947753906250000000f,-0.42021903395652770996093750000000f,0.37379652261734008789062500000000f,-0.55111265182495117187500000000000f,0.52390182018280029296875000000000f,-0.63345366716384887695312500000000f,0.41743895411491394042968750000000f,-0.46206820011138916015625000000000f,0.47231286764144897460937500000000f,0.39691451191902160644531250000000f,0.56792062520980834960937500000000f,-0.44397073984146118164062500000000f,0.47459056973457336425781250000000f,0.38353306055068969726562500000000f,0.44553124904632568359375000000000f,-0.42006516456604003906250000000000f,0.59456074237823486328125000000000f,0.82741874456405639648437500000000f,0.52303975820541381835937500000000f,-0.39074596762657165527343750000000f,-0.78627973794937133789062500000000f,-0.46719756722450256347656250000000f,-0.82183414697647094726562500000000f,-0.49809715151786804199218750000000f,0.55826425552368164062500000000000f,0.58487641811370849609375000000000f,-0.39644670486450195312500000000000f,0.59586495161056518554687500000000f,0.50917315483093261718750000000000f,-0.39697039127349853515625000000000f,-0.43723127245903015136718750000000f,0.60278445482254028320312500000000f,-0.47198361158370971679687500000000f,-0.19927218556404113769531250000000f,-0.61695635318756103515625000000000f,0.46939337253570556640625000000000f,0.47269412875175476074218750000000f,0.55930149555206298828125000000000f,0.44421932101249694824218750000000f,-0.70418065786361694335937500000000f,-0.60997343063354492187500000000000f,-0.46785011887550354003906250000000f,0.57974916696548461914062500000000f,-0.41679218411445617675781250000000f,0.47237709164619445800781250000000f,-0.44450837373733520507812500000000f,0.68377918004989624023437500000000f,0.48659390211105346679687500000000f,0.54404932260513305664062500000000f,-0.35355642437934875488281250000000f,-0.33784371614456176757812500000000f,-0.38185435533523559570312500000000f,-0.47015407681465148925781250000000f,-0.92641186714172363281250000000000f,0.76661545038223266601562500000000f,-0.30994895100593566894531250000000f,-0.24254415929317474365234375000000f,0.53063541650772094726562500000000f,0.42456343770027160644531250000000f,-0.52127158641815185546875000000000f,0.55202686786651611328125000000000f,0.51786428689956665039062500000000f,0.30760800838470458984375000000000f,-0.47854107618331909179687500000000f,-0.49218881130218505859375000000000f,-0.52457934617996215820312500000000f,-0.40596437454223632812500000000000f,-0.53740304708480834960937500000000f,0.51873761415481567382812500000000f,-0.87775808572769165039062500000000f,1.16758954524993896484375000000000f,-0.41466805338859558105468750000000f,0.62637275457382202148437500000000f,0.43132856488227844238281250000000f,0.52180427312850952148437500000000f,0.53504848480224609375000000000000f,-0.54757446050643920898437500000000f,-0.37529718875885009765625000000000f,-0.51616674661636352539062500000000f,-0.53387051820755004882812500000000f,0.58395773172378540039062500000000f,0.63037180900573730468750000000000f,0.87403541803359985351562500000000f,0.65246260166168212890625000000000f,0.56416481733322143554687500000000f,0.60138082504272460937500000000000f,0.72373753786087036132812500000000f,-0.48978736996650695800781250000000f,0.59272497892379760742187500000000f,0.42335951328277587890625000000000f,-0.48365011811256408691406250000000f,-0.45965641736984252929687500000000f,-0.43672177195549011230468750000000f,-0.41268566250801086425781250000000f,0.56857317686080932617187500000000f,0.59722459316253662109375000000000f,0.51176720857620239257812500000000f,-0.32535791397094726562500000000000f,0.62967169284820556640625000000000f,-0.49356791377067565917968750000000f,0.82898378372192382812500000000000f,0.61578875780105590820312500000000f,0.53544974327087402343750000000000f,0.57330542802810668945312500000000f,0.47497090697288513183593750000000f,0.42430871725082397460937500000000f,-0.58644545078277587890625000000000f,1.06708192825317382812500000000000f,-0.33690062165260314941406250000000f,0.68754339218139648437500000000000f,-0.66661679744720458984375000000000f,-0.38196521997451782226562500000000f,0.69962060451507568359375000000000f,-0.34012845158576965332031250000000f,-0.48328983783721923828125000000000f,-0.51618266105651855468750000000000f,-0.36932745575904846191406250000000f,-0.73423820734024047851562500000000f,-0.43225479125976562500000000000000f,0.58807945251464843750000000000000f,0.63690906763076782226562500000000f,-0.40393972396850585937500000000000f,0.56956905126571655273437500000000f,0.50628304481506347656250000000000f,-0.27158775925636291503906250000000f,-0.44140395522117614746093750000000f,-0.95072072744369506835937500000000f,0.60457122325897216796875000000000f,0.79645758867263793945312500000000f,-0.45943236351013183593750000000000f,0.50902998447418212890625000000000f,0.68704521656036376953125000000000f,0.69267505407333374023437500000000f,-0.49608597159385681152343750000000f,0.53332775831222534179687500000000f,0.15781916677951812744140625000000f,-0.24142947793006896972656250000000f,0.43688416481018066406250000000000f,0.10156923532485961914062500000000f,-0.60205203294754028320312500000000f,0.57248580455780029296875000000000f,0.43832856416702270507812500000000f,1.18739855289459228515625000000000f,-0.31155624985694885253906250000000f,0.62461590766906738281250000000000f,0.08106832951307296752929687500000f,-0.28434345126152038574218750000000f,-0.42749339342117309570312500000000f,-0.40276142954826354980468750000000f,-0.44209656119346618652343750000000f,0.69777488708496093750000000000000f,0.60120975971221923828125000000000f,0.52177828550338745117187500000000f,0.59083211421966552734375000000000f,0.48365938663482666015625000000000f,-0.33811321854591369628906250000000f,-0.41464182734489440917968750000000f,-0.35981002449989318847656250000000f,0.49834570288658142089843750000000f,0.41793957352638244628906250000000f,-1.15518152713775634765625000000000f,0.62079781293869018554687500000000f,-0.37836727499961853027343750000000f,0.63795471191406250000000000000000f,0.49279859662055969238281250000000f,-0.36941075325012207031250000000000f,1.08351647853851318359375000000000f,0.85461622476577758789062500000000f,-0.49953517317771911621093750000000f,0.87383431196212768554687500000000f,-0.50776827335357666015625000000000f,-0.58412426710128784179687500000000f,-0.37355926632881164550781250000000f,-0.50921136140823364257812500000000f,-0.64032250642776489257812500000000f,-0.51487648487091064453125000000000f,-0.60272645950317382812500000000000f,0.63000518083572387695312500000000f,0.58929079771041870117187500000000f,-0.53584676980972290039062500000000f,-0.53235936164855957031250000000000f,-0.55987679958343505859375000000000f,0.36030960083007812500000000000000f,-0.48322850465774536132812500000000f,-0.61265200376510620117187500000000f,-0.64547312259674072265625000000000f,-0.83711123466491699218750000000000f,0.07330182939767837524414062500000f,-0.53365892171859741210937500000000f,0.58988660573959350585937500000000f,0.62307715415954589843750000000000f,-0.58091139793395996093750000000000f,0.75321555137634277343750000000000f,-0.59625446796417236328125000000000f,-0.54598152637481689453125000000000f,0.55557465553283691406250000000000f,0.79105293750762939453125000000000f,0.66951882839202880859375000000000f,-0.64705741405487060546875000000000f,0.06602034717798233032226562500000f,-0.54515206813812255859375000000000f,0.75096219778060913085937500000000f,0.82688951492309570312500000000000f,0.54279440641403198242187500000000f,-0.46860939264297485351562500000000f,0.63901519775390625000000000000000f,-0.50560271739959716796875000000000f,0.92341607809066772460937500000000f,0.68194127082824707031250000000000f,0.69083571434020996093750000000000f,0.10184986144304275512695312500000f,-0.56462943553924560546875000000000f,0.73031646013259887695312500000000f,-0.66160815954208374023437500000000f,0.46425262093544006347656250000000f,0.66685253381729125976562500000000f,-0.45264202356338500976562500000000f,0.70216846466064453125000000000000f,0.81688553094863891601562500000000f,-0.43916574120521545410156250000000f,-0.60533821582794189453125000000000f,0.83274620771408081054687500000000f,-0.54338562488555908203125000000000f,0.63096308708190917968750000000000f,0.74036145210266113281250000000000f,0.75648325681686401367187500000000f,0.38737028837203979492187500000000f,-0.48198249936103820800781250000000f,0.76677060127258300781250000000000f,-0.46521341800689697265625000000000f,0.76378530263900756835937500000000f,-0.54930973052978515625000000000000f,0.23991805315017700195312500000000f,0.64168745279312133789062500000000f,0.58718401193618774414062500000000f,0.73871076107025146484375000000000f,-0.85003256797790527343750000000000f,0.91055804491043090820312500000000f,0.79669755697250366210937500000000f,-0.65241247415542602539062500000000f,0.69517666101455688476562500000000f,0.77167761325836181640625000000000f,0.83129632472991943359375000000000f,0.62646043300628662109375000000000f,-0.71509015560150146484375000000000f,-0.49153596162796020507812500000000f,0.70053017139434814453125000000000f,0.71968883275985717773437500000000f,-0.68319398164749145507812500000000f,-0.51241844892501831054687500000000f,-0.51640993356704711914062500000000f,0.90804427862167358398437500000000f,-0.56755584478378295898437500000000f,-0.53020215034484863281250000000000f,0.63098436594009399414062500000000f,-0.68812435865402221679687500000000f,-0.58602595329284667968750000000000f,-0.57668858766555786132812500000000f,0.52163827419281005859375000000000f,-0.54627037048339843750000000000000f,0.63885897397994995117187500000000f,-0.60532820224761962890625000000000f,0.61040997505187988281250000000000f,-0.53589421510696411132812500000000f,0.68078148365020751953125000000000f,0.61483454704284667968750000000000f,0.79215449094772338867187500000000f,-0.61383289098739624023437500000000f,0.65931820869445800781250000000000f,0.81908309459686279296875000000000f,0.58116048574447631835937500000000f,-0.33031740784645080566406250000000f,0.62020444869995117187500000000000f,0.94088065624237060546875000000000f,0.63613545894622802734375000000000f,-0.53573858737945556640625000000000f,0.57574760913848876953125000000000f,-0.58115094900131225585937500000000f,-0.11424550414085388183593750000000f,-0.62993210554122924804687500000000f,0.82024890184402465820312500000000f,0.75194478034973144531250000000000f,-0.56847971677780151367187500000000f,0.85915392637252807617187500000000f,0.66398066282272338867187500000000f,-0.55850452184677124023437500000000f,-0.54898124933242797851562500000000f,0.80803686380386352539062500000000f,-0.64047831296920776367187500000000f,-0.44679236412048339843750000000000f,-0.76336747407913208007812500000000f,0.62133401632308959960937500000000f,0.65058767795562744140625000000000f,0.77425348758697509765625000000000f,0.56876361370086669921875000000000f,0.34955269098281860351562500000000f,-0.78009861707687377929687500000000f,-0.63355630636215209960937500000000f,0.76823991537094116210937500000000f,-0.57368850708007812500000000000000f,0.62669330835342407226562500000000f,-0.59535658359527587890625000000000f,0.94323575496673583984375000000000f,0.61935943365097045898437500000000f,0.58651208877563476562500000000000f,-0.56093412637710571289062500000000f,-0.52047520875930786132812500000000f,-0.52241551876068115234375000000000f,-0.64780944585800170898437500000000f,-0.45641273260116577148437500000000f,0.91750353574752807617187500000000f,-0.63502651453018188476562500000000f,-0.90950125455856323242187500000000f,-0.10865180194377899169921875000000f,0.77375131845474243164062500000000f,-0.71248960494995117187500000000000f,0.71390938758850097656250000000000f,0.63800036907196044921875000000000f,-0.48125529289245605468750000000000f,-0.59667366743087768554687500000000f,-0.63311886787414550781250000000000f,-0.58242398500442504882812500000000f,-0.53890395164489746093750000000000f,-0.67116665840148925781250000000000f,0.61066162586212158203125000000000f,-0.47076740860939025878906250000000f,1.08173108100891113281250000000000f,-0.62045925855636596679687500000000f,0.82550472021102905273437500000000f,0.58353513479232788085937500000000f,0.71756207942962646484375000000000f,0.72815883159637451171875000000000f,-0.65470898151397705078125000000000f,-0.48535433411598205566406250000000f,-0.60481125116348266601562500000000f,-0.62814724445343017578125000000000f,0.75091981887817382812500000000000f,0.75139921903610229492187500000000f,1.03587877750396728515625000000000f,0.73706865310668945312500000000000f,0.71372157335281372070312500000000f,0.72187542915344238281250000000000f,1.02147912979125976562500000000000f,-0.58846002817153930664062500000000f,-0.38497874140739440917968750000000f,0.51900899410247802734375000000000f,-0.52190482616424560546875000000000f,-0.58062160015106201171875000000000f,-0.49806973338127136230468750000000f,-0.58510702848434448242187500000000f,0.67829769849777221679687500000000f,0.68220108747482299804687500000000f,0.60828238725662231445312500000000f,-0.41642391681671142578125000000000f,0.78151607513427734375000000000000f,-0.53933882713317871093750000000000f,0.35446047782897949218750000000000f,0.87247145175933837890625000000000f,-0.18798382580280303955078125000000f,0.77096182107925415039062500000000f,0.65204375982284545898437500000000f,0.62801003456115722656250000000000f,-0.70956552028656005859375000000000f,0.88416814804077148437500000000000f,-0.55799865722656250000000000000000f,0.72014003992080688476562500000000f,-0.52537393569946289062500000000000f,-0.60654926300048828125000000000000f,0.88394641876220703125000000000000f,-0.49008148908615112304687500000000f,-0.61438024044036865234375000000000f,-0.66546952724456787109375000000000f,-0.54845398664474487304687500000000f,0.36094468832015991210937500000000f,-0.55235487222671508789062500000000f,0.82316827774047851562500000000000f,0.88008010387420654296875000000000f,-0.57660675048828125000000000000000f,0.70260888338088989257812500000000f,0.62411659955978393554687500000000f,-0.60347282886505126953125000000000f,-0.53658318519592285156250000000000f,-1.22176706790924072265625000000000f,0.81099587678909301757812500000000f,0.97128254175186157226562500000000f,-0.60353851318359375000000000000000f,0.67534345388412475585937500000000f,0.83623498678207397460937500000000f,0.85328203439712524414062500000000f,-0.61852318048477172851562500000000f,0.71574687957763671875000000000000f,0.96354222297668457031250000000000f,-0.37588334083557128906250000000000f,0.58084917068481445312500000000000f,0.51868486404418945312500000000000f,-0.63925182819366455078125000000000f,0.76161158084869384765625000000000f,0.52513438463211059570312500000000f,1.33701038360595703125000000000000f,-0.46046271920204162597656250000000f,0.71865749359130859375000000000000f,-0.84301805496215820312500000000000f,-0.44116821885108947753906250000000f,-0.51468038558959960937500000000000f,-0.52518397569656372070312500000000f,-0.61490875482559204101562500000000f,0.58105134963989257812500000000000f,0.77826905250549316406250000000000f,0.64355897903442382812500000000000f,0.74078667163848876953125000000000f,0.66580379009246826171875000000000f,-0.51830846071243286132812500000000f,-0.54450410604476928710937500000000f,-0.52857011556625366210937500000000f,0.72767776250839233398437500000000f,0.68230277299880981445312500000000f,-0.61948490142822265625000000000000f,0.69824409484863281250000000000000f,-0.50816977024078369140625000000000f,0.81194138526916503906250000000000f,0.67668747901916503906250000000000f,-0.46373233199119567871093750000000f,1.12118601799011230468750000000000f,0.41967403888702392578125000000000f,-0.46881532669067382812500000000000f,0.72739899158477783203125000000000f,-0.33411744236946105957031250000000f,-0.38071060180664062500000000000000f,-0.30781713128089904785156250000000f,-0.21343703567981719970703125000000f,-0.40520477294921875000000000000000f,-0.17458239197731018066406250000000f,-0.27230644226074218750000000000000f,0.39968982338905334472656250000000f,0.11842840164899826049804687500000f,-0.18841250240802764892578125000000f,-0.21015654504299163818359375000000f,-0.24985730648040771484375000000000f,0.34595155715942382812500000000000f,-0.27661460638046264648437500000000f,-0.27217432856559753417968750000000f,-0.30882605910301208496093750000000f,-0.44413518905639648437500000000000f,0.01055684592574834823608398437500f,-0.14731653034687042236328125000000f,0.29192566871643066406250000000000f,0.29443544149398803710937500000000f,-0.28673323988914489746093750000000f,0.31897047162055969238281250000000f,-0.32084542512893676757812500000000f,-0.29396188259124755859375000000000f,0.24878235161304473876953125000000f,0.34657087922096252441406250000000f,0.30835443735122680664062500000000f,-0.53485530614852905273437500000000f,0.68179911375045776367187500000000f,-0.25918880105018615722656250000000f,0.29714563488960266113281250000000f,0.43581482768058776855468750000000f,0.28426086902618408203125000000000f,-0.18586784601211547851562500000000f,0.45166558027267456054687500000000f,-0.40538340806961059570312500000000f,0.50042945146560668945312500000000f,0.29381728172302246093750000000000f,0.33731919527053833007812500000000f,-0.66966348886489868164062500000000f,-0.28491547703742980957031250000000f,0.49215391278266906738281250000000f,-0.27168497443199157714843750000000f,0.55336809158325195312500000000000f,0.30273419618606567382812500000000f,-0.24151487648487091064453125000000f,0.34721851348876953125000000000000f,0.40704488754272460937500000000000f,-0.26453015208244323730468750000000f,-0.25917771458625793457031250000000f,0.35036477446556091308593750000000f,-0.28461322188377380371093750000000f,0.28219524025917053222656250000000f,0.35917448997497558593750000000000f,0.39816570281982421875000000000000f,0.05462931096553802490234375000000f,-0.31038373708724975585937500000000f,0.44487693905830383300781250000000f,-0.17176669836044311523437500000000f,0.41596910357475280761718750000000f,-0.32357534766197204589843750000000f,-0.52032250165939331054687500000000f,0.38350552320480346679687500000000f,0.26555177569389343261718750000000f,0.36485543847084045410156250000000f,-0.26217973232269287109375000000000f,0.44614568352699279785156250000000f,0.56171804666519165039062500000000f,-0.35552394390106201171875000000000f,0.25818806886672973632812500000000f,0.36520376801490783691406250000000f,0.44458079338073730468750000000000f,0.31998115777969360351562500000000f,-0.54186469316482543945312500000000f,-0.35720172524452209472656250000000f,0.31914368271827697753906250000000f,0.29389700293540954589843750000000f,-0.38872352242469787597656250000000f,-0.31069570779800415039062500000000f,-0.28895986080169677734375000000000f,0.38013318181037902832031250000000f,-0.20687188208103179931640625000000f,-0.16595177352428436279296875000000f,0.23425544798374176025390625000000f,-0.26149645447731018066406250000000f,-0.34290364384651184082031250000000f,-0.32592514157295227050781250000000f,0.29766747355461120605468750000000f,-0.23717609047889709472656250000000f,0.28432556986808776855468750000000f,-0.13578316569328308105468750000000f,0.30731171369552612304687500000000f,-0.25326523184776306152343750000000f,0.32883879542350769042968750000000f,0.31456252932548522949218750000000f,0.42928937077522277832031250000000f,-0.28814488649368286132812500000000f,0.31775248050689697265625000000000f,0.57884579896926879882812500000000f,0.31972706317901611328125000000000f,0.15345039963722229003906250000000f,0.29287272691726684570312500000000f,0.35202598571777343750000000000000f,0.32467424869537353515625000000000f,-0.22836898267269134521484375000000f,0.07246994972229003906250000000000f,-0.31025224924087524414062500000000f,0.15471346676349639892578125000000f,-0.27400454878807067871093750000000f,0.38808739185333251953125000000000f,0.32197189331054687500000000000000f,-0.34902569651603698730468750000000f,0.44682931900024414062500000000000f,0.26771381497383117675781250000000f,-0.31189337372779846191406250000000f,-0.17947469651699066162109375000000f,0.40919235348701477050781250000000f,-0.30330941081047058105468750000000f,-0.22987967729568481445312500000000f,-0.28987565636634826660156250000000f,0.25121784210205078125000000000000f,0.29373911023139953613281250000000f,0.37229871749877929687500000000000f,0.25837957859039306640625000000000f,0.61401069164276123046875000000000f,-0.31705293059349060058593750000000f,-0.31061062216758728027343750000000f,0.36050471663475036621093750000000f,-0.26063069701194763183593750000000f,0.22662866115570068359375000000000f,-0.28785821795463562011718750000000f,0.39789316058158874511718750000000f,0.26164829730987548828125000000000f,0.26584804058074951171875000000000f,-0.30333948135375976562500000000000f,-0.21314257383346557617187500000000f,-0.25122857093811035156250000000000f,-0.27564340829849243164062500000000f,0.22225034236907958984375000000000f,0.39391440153121948242187500000000f,-0.44864335656166076660156250000000f,-0.10365665704011917114257812500000f,-0.22165513038635253906250000000000f,0.44245821237564086914062500000000f,-0.42414176464080810546875000000000f,0.30541867017745971679687500000000f,0.29956814646720886230468750000000f,-0.32894101738929748535156250000000f,-0.26023700833320617675781250000000f,-0.26729732751846313476562500000000f,-0.30096533894538879394531250000000f,-0.41836410760879516601562500000000f,-0.39811363816261291503906250000000f,0.25246426463127136230468750000000f,0.07955943048000335693359375000000f,-0.37907180190086364746093750000000f,-0.32898908853530883789062500000000f,0.37672278285026550292968750000000f,0.31368911266326904296875000000000f,0.31645250320434570312500000000000f,0.37347894906997680664062500000000f,-0.29216423630714416503906250000000f,-0.21481509506702423095703125000000f,-0.31753146648406982421875000000000f,-0.26031464338302612304687500000000f,0.33626917004585266113281250000000f,0.36519196629524230957031250000000f,0.46153888106346130371093750000000f,0.30000382661819458007812500000000f,0.32722824811935424804687500000000f,0.35043570399284362792968750000000f,0.51694148778915405273437500000000f,-0.22492109239101409912109375000000f,-0.56214916706085205078125000000000f,0.23971833288669586181640625000000f,-0.28017070889472961425781250000000f,-0.30706915259361267089843750000000f,-0.22611099481582641601562500000000f,-0.26485130190849304199218750000000f,0.34531337022781372070312500000000f,0.31617304682731628417968750000000f,0.36574757099151611328125000000000f,-0.20336706936359405517578125000000f,0.36641696095466613769531250000000f,-0.33881041407585144042968750000000f,-0.14124643802642822265625000000000f,0.46143180131912231445312500000000f,-0.41380944848060607910156250000000f,0.40186503529548645019531250000000f,0.33209890127182006835937500000000f,0.38105371594429016113281250000000f,-0.40690392255783081054687500000000f,-0.12084838002920150756835937500000f,-0.38370859622955322265625000000000f,0.25750681757926940917968750000000f,-0.19085273146629333496093750000000f,-0.23019710183143615722656250000000f,0.32006868720054626464843750000000f,-0.24357554316520690917968750000000f,-0.32989791035652160644531250000000f,-0.27657330036163330078125000000000f,-0.27864271402359008789062500000000f,0.53882580995559692382812500000000f,-0.23368573188781738281250000000000f,0.46760442852973937988281250000000f,0.37819406390190124511718750000000f,-0.32312303781509399414062500000000f,0.32855829596519470214843750000000f,0.25387310981750488281250000000000f,-0.51116341352462768554687500000000f,-0.29237416386604309082031250000000f,-0.67240643501281738281250000000000f,0.32357802987098693847656250000000f,0.40812471508979797363281250000000f,-0.33192867040634155273437500000000f,0.34334698319435119628906250000000f,0.39044708013534545898437500000000f,0.42050939798355102539062500000000f,-0.28975707292556762695312500000000f,0.40546488761901855468750000000000f,0.88856118917465209960937500000000f,-0.35801541805267333984375000000000f,0.32617762684822082519531250000000f,0.56966888904571533203125000000000f,-0.25679850578308105468750000000000f,0.37987971305847167968750000000000f,0.26383224129676818847656250000000f,0.62082362174987792968750000000000f,-0.27841028571128845214843750000000f,0.15752574801445007324218750000000f,-0.83615916967391967773437500000000f,-0.27258226275444030761718750000000f,-0.23164023458957672119140625000000f,-0.34271585941314697265625000000000f,-0.28398343920707702636718750000000f,-0.25946637988090515136718750000000f,0.37388867139816284179687500000000f,0.33728593587875366210937500000000f,0.35095775127410888671875000000000f,0.28954225778579711914062500000000f,-0.27487114071846008300781250000000f,-0.26840192079544067382812500000000f,-0.25670626759529113769531250000000f,0.41190177202224731445312500000000f,0.37641280889511108398437500000000f,0.26771336793899536132812500000000f,0.30609142780303955078125000000000f,-0.31194758415222167968750000000000f,0.44647544622421264648437500000000f,0.34558448195457458496093750000000f,-0.23485997319221496582031250000000f,0.28641521930694580078125000000000f,0.89212059974670410156250000000000f,-0.51787942647933959960937500000000f,-0.08382818102836608886718750000000f,-0.48312300443649291992187500000000f,-0.62120866775512695312500000000000f,-0.35254606604576110839843750000000f,-0.59765809774398803710937500000000f,-0.53819465637207031250000000000000f,-0.56348347663879394531250000000000f,-0.60460329055786132812500000000000f,0.58185106515884399414062500000000f,0.54462713003158569335937500000000f,-0.72438412904739379882812500000000f,-0.57137340307235717773437500000000f,-0.63814663887023925781250000000000f,-1.07739233970642089843750000000000f,-0.45165517926216125488281250000000f,-0.65827852487564086914062500000000f,-0.58472722768783569335937500000000f,0.84194350242614746093750000000000f,-0.78592669963836669921875000000000f,-0.68596130609512329101562500000000f,0.62851059436798095703125000000000f,0.55425173044204711914062500000000f,-0.59563928842544555664062500000000f,0.64774459600448608398437500000000f,-0.64333921670913696289062500000000f,-0.58234190940856933593750000000000f,0.58941566944122314453125000000000f,0.82406294345855712890625000000000f,0.78238815069198608398437500000000f,-0.57793068885803222656250000000000f,-1.05689287185668945312500000000000f,-0.59188061952590942382812500000000f,0.78220337629318237304687500000000f,0.67389309406280517578125000000000f,0.65404611825942993164062500000000f,-0.48677933216094970703125000000000f,0.64638185501098632812500000000000f,-0.61539721488952636718750000000000f,0.94859158992767333984375000000000f,0.75884234905242919921875000000000f,0.66890704631805419921875000000000f,0.87956494092941284179687500000000f,-0.50830060243606567382812500000000f,0.63696724176406860351562500000000f,-0.64380276203155517578125000000000f,0.53728836774826049804687500000000f,0.70884943008422851562500000000000f,-0.52263414859771728515625000000000f,0.72769826650619506835937500000000f,-0.69882220029830932617187500000000f,-0.48600253462791442871093750000000f,-0.55381983518600463867187500000000f,0.87836140394210815429687500000000f,-0.61932563781738281250000000000000f,0.74790942668914794921875000000000f,0.69994860887527465820312500000000f,0.80839645862579345703125000000000f,0.52664512395858764648437500000000f,-0.53336393833160400390625000000000f,0.78908944129943847656250000000000f,-0.55194014310836791992187500000000f,0.79285562038421630859375000000000f,-0.58285325765609741210937500000000f,0.86797535419464111328125000000000f,0.69697773456573486328125000000000f,0.62207382917404174804687500000000f,0.66087341308593750000000000000000f,-0.66534799337387084960937500000000f,0.40960147976875305175781250000000f,0.68763363361358642578125000000000f,-0.62828218936920166015625000000000f,0.68520087003707885742187500000000f,0.78257519006729125976562500000000f,0.89693564176559448242187500000000f,0.61963093280792236328125000000000f,-0.83265489339828491210937500000000f,-0.52620762586593627929687500000000f,0.72043174505233764648437500000000f,0.79096466302871704101562500000000f,-0.68003463745117187500000000000000f,-0.55697834491729736328125000000000f,-0.49476090073585510253906250000000f,0.67305850982666015625000000000000f,-0.57057392597198486328125000000000f,-0.54050582647323608398437500000000f,0.79673302173614501953125000000000f,0.99806410074234008789062500000000f,-0.54378765821456909179687500000000f,-0.53501760959625244140625000000000f,0.72367727756500244140625000000000f,-0.59934329986572265625000000000000f,0.62977302074432373046875000000000f,-0.53648060560226440429687500000000f,0.62670087814331054687500000000000f,-0.56903940439224243164062500000000f,0.69331705570220947265625000000000f,0.60857975482940673828125000000000f,0.74298071861267089843750000000000f,-0.60647636651992797851562500000000f,0.64813125133514404296875000000000f,0.81379085779190063476562500000000f,0.57531392574310302734375000000000f,-0.62272548675537109375000000000000f,0.73174810409545898437500000000000f,0.91765296459197998046875000000000f,0.62786281108856201171875000000000f,-0.57191109657287597656250000000000f,-1.06383740901947021484375000000000f,-0.62310439348220825195312500000000f,-0.37914118170738220214843750000000f,-0.69813948869705200195312500000000f,0.79900640249252319335937500000000f,0.85189354419708251953125000000000f,-0.60069775581359863281250000000000f,0.66647279262542724609375000000000f,0.68848651647567749023437500000000f,-0.57987964153289794921875000000000f,-0.82261788845062255859375000000000f,0.87396824359893798828125000000000f,-0.48664349317550659179687500000000f,-0.48141655325889587402343750000000f,-0.79970794916152954101562500000000f,0.63862687349319458007812500000000f,0.71464532613754272460937500000000f,0.70858234167098999023437500000000f,0.60088169574737548828125000000000f,-0.67022109031677246093750000000000f,-0.65646642446517944335937500000000f,-0.71029055118560791015625000000000f,0.74298936128616333007812500000000f,-0.60116738080978393554687500000000f,0.61263608932495117187500000000000f,-0.58675646781921386718750000000000f,1.02020609378814697265625000000000f,0.63746488094329833984375000000000f,0.75030493736267089843750000000000f,-0.45484822988510131835937500000000f,-0.45273596048355102539062500000000f,-0.50312882661819458007812500000000f,-0.68105918169021606445312500000000f,-0.99355298280715942382812500000000f,-0.39489558339118957519531250000000f,-0.55231559276580810546875000000000f,-0.84151828289031982421875000000000f,0.79554176330566406250000000000000f,0.77802485227584838867187500000000f,-0.52653443813323974609375000000000f,0.75353628396987915039062500000000f,0.64315414428710937500000000000000f,0.86891734600067138671875000000000f,-0.54627078771591186523437500000000f,-0.60882902145385742187500000000000f,-0.61647069454193115234375000000000f,-0.62842482328414916992187500000000f,-0.74017655849456787109375000000000f,0.64398169517517089843750000000000f,-0.88595706224441528320312500000000f,0.76502460241317749023437500000000f,-0.58281320333480834960937500000000f,0.61903345584869384765625000000000f,0.59043693542480468750000000000000f,0.72234863042831420898437500000000f,0.76015514135360717773437500000000f,-0.66189521551132202148437500000000f,-0.58105617761611938476562500000000f,-0.64237660169601440429687500000000f,-0.67532449960708618164062500000000f,0.74518114328384399414062500000000f,0.80055481195449829101562500000000f,1.04954600334167480468750000000000f,0.74668562412261962890625000000000f,0.61165851354598999023437500000000f,0.71284729242324829101562500000000f,1.03991484642028808593750000000000f,-0.62623035907745361328125000000000f,0.89486861228942871093750000000000f,0.53946167230606079101562500000000f,-0.57464343309402465820312500000000f,-0.64295607805252075195312500000000f,-0.59253710508346557617187500000000f,-0.54714024066925048828125000000000f,0.60897684097290039062500000000000f,0.74413877725601196289062500000000f,0.61708766222000122070312500000000f,-0.54570990800857543945312500000000f,0.78678041696548461914062500000000f,-0.60202914476394653320312500000000f,0.81518453359603881835937500000000f,0.78620970249176025390625000000000f,0.97082650661468505859375000000000f,0.65611141920089721679687500000000f,0.66749167442321777343750000000000f,0.75055688619613647460937500000000f,-0.74760860204696655273437500000000f,0.38287252187728881835937500000000f,-0.57969176769256591796875000000000f,0.84986674785614013671875000000000f,-0.52107506990432739257812500000000f,-0.61627984046936035156250000000000f,-0.19413995742797851562500000000000f,-0.53473222255706787109375000000000f,-0.60211098194122314453125000000000f,-0.71474647521972656250000000000000f,-0.50268059968948364257812500000000f,-1.32380354404449462890625000000000f,-0.49491262435913085937500000000000f,0.88338905572891235351562500000000f,0.87047314643859863281250000000000f,-0.55785143375396728515625000000000f,0.70927256345748901367187500000000f,0.65199583768844604492187500000000f,-0.30165463685989379882812500000000f,-0.61282896995544433593750000000000f,0.25105968117713928222656250000000f,0.88686227798461914062500000000000f,0.89545148611068725585937500000000f,-0.60549944639205932617187500000000f,0.66739135980606079101562500000000f,-0.53386139869689941406250000000000f,0.17030794918537139892578125000000f,-0.62158387899398803710937500000000f,0.76009631156921386718750000000000f,-0.79995375871658325195312500000000f,-0.47218862175941467285156250000000f,0.60282188653945922851562500000000f,0.06906839460134506225585937500000f,-0.68738150596618652343750000000000f,0.71847593784332275390625000000000f,0.86957633495330810546875000000000f,-0.95121181011199951171875000000000f,-0.46467840671539306640625000000000f,0.77387118339538574218750000000000f,0.35370814800262451171875000000000f,-0.56142729520797729492187500000000f,-0.55729866027832031250000000000000f,-0.60936516523361206054687500000000f,-0.62661373615264892578125000000000f,0.86111265420913696289062500000000f,0.74165934324264526367187500000000f,0.64990347623825073242187500000000f,0.74370115995407104492187500000000f,0.66296637058258056640625000000000f,-0.51660090684890747070312500000000f,-0.51144635677337646484375000000000f,-0.59991085529327392578125000000000f,0.74584972858428955078125000000000f,0.76519393920898437500000000000000f,-0.71484380960464477539062500000000f,0.67426139116287231445312500000000f,-0.56827735900878906250000000000000f,0.85956668853759765625000000000000f,0.68367797136306762695312500000000f,-0.54796671867370605468750000000000f,0.87354022264480590820312500000000f,1.21910738945007324218750000000000f,-0.79198884963989257812500000000000f,0.67479944229125976562500000000000f,-0.66451084613800048828125000000000f,-0.70075613260269165039062500000000f,-0.96121543645858764648437500000000f,-0.61279493570327758789062500000000f,-0.73838686943054199218750000000000f,-0.70707279443740844726562500000000f,-0.79045230150222778320312500000000f,0.88036578893661499023437500000000f,0.67182403802871704101562500000000f,-0.77739888429641723632812500000000f,-0.71731841564178466796875000000000f,-0.80618345737457275390625000000000f,0.46642807126045227050781250000000f,-0.60951662063598632812500000000000f,-0.86147010326385498046875000000000f,-0.80432593822479248046875000000000f,-0.91118305921554565429687500000000f,-0.95136559009552001953125000000000f,-0.82476246356964111328125000000000f,0.80810672044754028320312500000000f,0.70432150363922119140625000000000f,-0.76093459129333496093750000000000f,0.95129138231277465820312500000000f,-0.66543042659759521484375000000000f,-0.69577002525329589843750000000000f,0.69987267255783081054687500000000f,1.00807774066925048828125000000000f,1.06019747257232666015625000000000f,-0.97672146558761596679687500000000f,0.06081260368227958679199218750000f,-0.74662804603576660156250000000000f,0.94202262163162231445312500000000f,1.01659309864044189453125000000000f,0.83735346794128417968750000000000f,-0.66259443759918212890625000000000f,0.97362339496612548828125000000000f,-0.66646683216094970703125000000000f,1.08890867233276367187500000000000f,0.95342904329299926757812500000000f,0.87474662065505981445312500000000f,0.82398462295532226562500000000000f,-0.85171550512313842773437500000000f,0.89526885747909545898437500000000f,-0.88330179452896118164062500000000f,0.98555153608322143554687500000000f,0.87265050411224365234375000000000f,-0.75875687599182128906250000000000f,0.88016825914382934570312500000000f,-0.63142985105514526367187500000000f,-0.62369501590728759765625000000000f,-0.59179919958114624023437500000000f,1.10964524745941162109375000000000f,-0.83475458621978759765625000000000f,0.93407964706420898437500000000000f,0.98790812492370605468750000000000f,1.06773710250854492187500000000000f,0.63570517301559448242187500000000f,-0.96914350986480712890625000000000f,0.97535204887390136718750000000000f,-0.76615798473358154296875000000000f,0.92736154794692993164062500000000f,-0.77998381853103637695312500000000f,-0.18369780480861663818359375000000f,0.74540120363235473632812500000000f,0.82235938310623168945312500000000f,0.88100481033325195312500000000000f,-0.96342194080352783203125000000000f,0.90654307603836059570312500000000f,0.99742084741592407226562500000000f,-0.69399428367614746093750000000000f,0.98541581630706787109375000000000f,0.98651552200317382812500000000000f,1.01784634590148925781250000000000f,0.71916997432708740234375000000000f,-0.90002548694610595703125000000000f,-0.57484418153762817382812500000000f,0.99718552827835083007812500000000f,1.01794087886810302734375000000000f,-0.78357362747192382812500000000000f,-0.71949374675750732421875000000000f,-0.68207758665084838867187500000000f,0.48811513185501098632812500000000f,-0.67953163385391235351562500000000f,-0.80931812524795532226562500000000f,0.92510139942169189453125000000000f,-0.81136471033096313476562500000000f,-0.70346528291702270507812500000000f,-0.74384528398513793945312500000000f,0.91524940729141235351562500000000f,-0.81382608413696289062500000000000f,0.78691476583480834960937500000000f,-0.97745794057846069335937500000000f,0.85400241613388061523437500000000f,-0.72450745105743408203125000000000f,0.94416368007659912109375000000000f,0.93151324987411499023437500000000f,1.09066987037658691406250000000000f,-0.75264096260070800781250000000000f,0.94099807739257812500000000000000f,1.16292083263397216796875000000000f,0.72986805438995361328125000000000f,-0.86130523681640625000000000000000f,0.41638359427452087402343750000000f,1.34794306755065917968750000000000f,0.82385426759719848632812500000000f,-0.72977727651596069335937500000000f,0.84101361036300659179687500000000f,-0.76505434513092041015625000000000f,0.82358753681182861328125000000000f,-0.82071369886398315429687500000000f,1.06821191310882568359375000000000f,1.08537173271179199218750000000000f,-0.73328524827957153320312500000000f,1.05274713039398193359375000000000f,0.91820448637008666992187500000000f,-0.73707604408264160156250000000000f,-0.99360126256942749023437500000000f,1.17878794670104980468750000000000f,-0.59876751899719238281250000000000f,-0.84863346815109252929687500000000f,-1.03290295600891113281250000000000f,0.79680925607681274414062500000000f,0.94116222858428955078125000000000f,0.98368263244628906250000000000000f,0.79915499687194824218750000000000f,0.47170570492744445800781250000000f,-0.78208166360855102539062500000000f,-0.86945587396621704101562500000000f,0.95562511682510375976562500000000f,-0.79573708772659301757812500000000f,0.98860412836074829101562500000000f,-0.74886304140090942382812500000000f,1.21175444126129150390625000000000f,0.80511087179183959960937500000000f,0.69909340143203735351562500000000f,-0.58515489101409912109375000000000f,-0.70093005895614624023437500000000f,-0.66900515556335449218750000000000f,-0.88033372163772583007812500000000f,0.41391283273696899414062500000000f,-0.35163423418998718261718750000000f,-0.88179618120193481445312500000000f,-0.66143709421157836914062500000000f,-0.24693578481674194335937500000000f,0.95677071809768676757812500000000f,-0.71654438972473144531250000000000f,0.95360940694808959960937500000000f,0.80715477466583251953125000000000f,0.48860865831375122070312500000000f,-0.70675206184387207031250000000000f,-0.78148204088211059570312500000000f,-0.71784394979476928710937500000000f,-0.59791922569274902343750000000000f,-0.80605757236480712890625000000000f,0.75653976202011108398437500000000f,-0.30738085508346557617187500000000f,0.53158336877822875976562500000000f,-0.66985702514648437500000000000000f,0.95668256282806396484375000000000f,0.75476557016372680664062500000000f,0.94919472932815551757812500000000f,1.09149098396301269531250000000000f,-0.81622475385665893554687500000000f,-0.77961617708206176757812500000000f,-0.73198139667510986328125000000000f,-0.82363051176071166992187500000000f,0.99192696809768676757812500000000f,0.91604101657867431640625000000000f,1.31938791275024414062500000000000f,1.05778074264526367187500000000000f,0.86860060691833496093750000000000f,0.83467179536819458007812500000000f,1.34827005863189697265625000000000f,-0.74650007486343383789062500000000f,-0.04296994954347610473632812500000f,0.61464750766754150390625000000000f,-0.67485260963439941406250000000000f,-0.86952131986618041992187500000000f,-0.68730461597442626953125000000000f,-0.62353420257568359375000000000000f,0.76880019903182983398437500000000f,0.86016666889190673828125000000000f,0.68474262952804565429687500000000f,-0.63402432203292846679687500000000f,0.90929555892944335937500000000000f,-0.82428151369094848632812500000000f,-0.25824472308158874511718750000000f,1.19833290576934814453125000000000f,-0.14462496340274810791015625000000f,0.93504786491394042968750000000000f,0.88157922029495239257812500000000f,1.08163857460021972656250000000000f,-0.82792210578918457031250000000000f,0.05066168308258056640625000000000f,-0.81003546714782714843750000000000f,1.21118450164794921875000000000000f,-0.66511332988739013671875000000000f,-0.86498302221298217773437500000000f,-0.39792355895042419433593750000000f,-0.77941179275512695312500000000000f,-0.73934358358383178710937500000000f,-0.89450776576995849609375000000000f,-0.67323750257492065429687500000000f,0.37778064608573913574218750000000f,-0.68538117408752441406250000000000f,1.03936135768890380859375000000000f,1.15448093414306640625000000000000f,-0.76018875837326049804687500000000f,0.82777607440948486328125000000000f,0.82186257839202880859375000000000f,-0.66150277853012084960937500000000f,-0.71592551469802856445312500000000f,0.31786569952964782714843750000000f,1.13528490066528320312500000000000f,1.15114653110504150390625000000000f,-0.74404871463775634765625000000000f,0.86311733722686767578125000000000f,-0.64418834447860717773437500000000f,0.12471633404493331909179687500000f,-0.77549910545349121093750000000000f,0.96683132648468017578125000000000f,-0.25581741333007812500000000000000f,-0.69109237194061279296875000000000f,0.80061858892440795898437500000000f,0.65672385692596435546875000000000f,-0.81876558065414428710937500000000f,0.98536545038223266601562500000000f,1.11674463748931884765625000000000f,-1.10751855373382568359375000000000f,-0.71162658929824829101562500000000f,1.03523838520050048828125000000000f,-0.72164887189865112304687500000000f,-0.83453088998794555664062500000000f,-0.73999756574630737304687500000000f,-0.75369364023208618164062500000000f,-0.81220233440399169921875000000000f,0.99095976352691650390625000000000f,0.92141610383987426757812500000000f,0.82937145233154296875000000000000f,0.94764310121536254882812500000000f,0.86725747585296630859375000000000f,-0.73226326704025268554687500000000f,-0.68666690587997436523437500000000f,-0.86554849147796630859375000000000f,1.12630558013916015625000000000000f,1.10473430156707763671875000000000f,0.37691283226013183593750000000000f,0.97615152597427368164062500000000f,-0.76862531900405883789062500000000f,1.13536882400512695312500000000000f,0.87815219163894653320312500000000f,-0.76647019386291503906250000000000f,0.75038820505142211914062500000000f,0.52346760034561157226562500000000f,-0.43038854002952575683593750000000f,0.68910998106002807617187500000000f,-0.38316398859024047851562500000000f,-0.45218348503112792968750000000000f,-0.56154930591583251953125000000000f,-0.26499810814857482910156250000000f,-0.32838338613510131835937500000000f,-0.26958817243576049804687500000000f,-0.44353863596916198730468750000000f,0.50013834238052368164062500000000f,0.18424431979656219482421875000000f,-0.31091335415840148925781250000000f,-0.35373738408088684082031250000000f,-0.34989205002784729003906250000000f,0.47404220700263977050781250000000f,-0.35163879394531250000000000000000f,-0.35520815849304199218750000000000f,-0.40287390351295471191406250000000f,-0.52022033929824829101562500000000f,-0.55537420511245727539062500000000f,-0.41975724697113037109375000000000f,0.38543048501014709472656250000000f,0.36717838048934936523437500000000f,-0.41163504123687744140625000000000f,0.57102465629577636718750000000000f,-0.39291724562644958496093750000000f,-0.44417807459831237792968750000000f,0.31300944089889526367187500000000f,0.42554479837417602539062500000000f,0.51855432987213134765625000000000f,-0.53795629739761352539062500000000f,0.94260901212692260742187500000000f,-0.31260949373245239257812500000000f,0.39295631647109985351562500000000f,0.46731132268905639648437500000000f,0.39370599389076232910156250000000f,-0.40379777550697326660156250000000f,0.50097513198852539062500000000000f,-0.47888359427452087402343750000000f,0.52606600522994995117187500000000f,0.43599557876586914062500000000000f,0.44636893272399902343750000000000f,0.26479396224021911621093750000000f,-0.40197265148162841796875000000000f,0.53766357898712158203125000000000f,-0.39758798480033874511718750000000f,0.63305079936981201171875000000000f,0.36148440837860107421875000000000f,-0.40234428644180297851562500000000f,0.40426269173622131347656250000000f,0.04204180464148521423339843750000f,-0.31052652001380920410156250000000f,-0.26427349448204040527343750000000f,0.44991788268089294433593750000000f,-0.43291789293289184570312500000000f,0.46098461747169494628906250000000f,0.51901888847351074218750000000000f,0.53113645315170288085937500000000f,0.33835551142692565917968750000000f,-0.54017454385757446289062500000000f,0.56336778402328491210937500000000f,-0.40459674596786499023437500000000f,0.29057803750038146972656250000000f,-0.41924336552619934082031250000000f,-0.41274958848953247070312500000000f,0.35877317190170288085937500000000f,0.38933250308036804199218750000000f,0.39886415004730224609375000000000f,-0.34954547882080078125000000000000f,0.68478113412857055664062500000000f,0.55554956197738647460937500000000f,-0.51596248149871826171875000000000f,0.55701297521591186523437500000000f,0.46677803993225097656250000000000f,0.34372368454933166503906250000000f,0.37514796853065490722656250000000f,-0.37032580375671386718750000000000f,-0.44645819067955017089843750000000f,0.46254751086235046386718750000000f,0.51633256673812866210937500000000f,-0.52256405353546142578125000000000f,-0.46301355957984924316406250000000f,-0.40452802181243896484375000000000f,0.08427835255861282348632812500000f,-0.37327539920806884765625000000000f,-0.28261464834213256835937500000000f,0.27451556921005249023437500000000f,-0.34824156761169433593750000000000f,-0.44014957547187805175781250000000f,-0.44302687048912048339843750000000f,0.35803261399269104003906250000000f,-0.48715740442276000976562500000000f,0.39408835768699645996093750000000f,-0.58481788635253906250000000000000f,0.39602723717689514160156250000000f,-0.37351989746093750000000000000000f,0.47680264711380004882812500000000f,0.38527941703796386718750000000000f,0.60415267944335937500000000000000f,-0.36435961723327636718750000000000f,0.47142714262008666992187500000000f,0.59567391872406005859375000000000f,0.43272766470909118652343750000000f,-0.22588202357292175292968750000000f,-0.41202363371849060058593750000000f,0.62082815170288085937500000000000f,0.39248743653297424316406250000000f,-0.28678002953529357910156250000000f,0.22023542225360870361328125000000f,-0.37776699662208557128906250000000f,0.65640991926193237304687500000000f,-0.34587320685386657714843750000000f,0.53521758317947387695312500000000f,0.47577342391014099121093750000000f,-0.40927562117576599121093750000000f,0.52834832668304443359375000000000f,0.42091670632362365722656250000000f,-0.35838568210601806640625000000000f,-0.32957518100738525390625000000000f,0.58697092533111572265625000000000f,-0.25378653407096862792968750000000f,-0.41305765509605407714843750000000f,-0.41341158747673034667968750000000f,0.36639216542243957519531250000000f,0.39672660827636718750000000000000f,0.46667030453681945800781250000000f,0.35280433297157287597656250000000f,0.81320649385452270507812500000000f,-0.19415970146656036376953125000000f,-0.34270790219306945800781250000000f,0.43312156200408935546875000000000f,-0.37816309928894042968750000000000f,0.47951778769493103027343750000000f,-0.36555907130241394042968750000000f,0.45031559467315673828125000000000f,0.36529910564422607421875000000000f,0.18758633732795715332031250000000f,-0.36188143491744995117187500000000f,-0.27850127220153808593750000000000f,-0.36182340979576110839843750000000f,-0.39386114478111267089843750000000f,0.93462139368057250976562500000000f,-0.22762791812419891357421875000000f,-0.50350695848464965820312500000000f,0.45833805203437805175781250000000f,-0.60055941343307495117187500000000f,0.38586616516113281250000000000000f,-0.37200862169265747070312500000000f,0.41644650697708129882812500000000f,0.36048001050949096679687500000000f,0.09722381830215454101562500000000f,-0.29978811740875244140625000000000f,-0.30672973394393920898437500000000f,-0.42760598659515380859375000000000f,-0.44262903928756713867187500000000f,-0.38120520114898681640625000000000f,0.31669545173645019531250000000000f,0.24269598722457885742187500000000f,-0.71870803833007812500000000000000f,-0.39098259806632995605468750000000f,0.57011151313781738281250000000000f,0.40156704187393188476562500000000f,0.41482830047607421875000000000000f,0.51999211311340332031250000000000f,-0.33342289924621582031250000000000f,-0.33492851257324218750000000000000f,-0.39391246438026428222656250000000f,-0.46611839532852172851562500000000f,0.48461571335792541503906250000000f,0.46178317070007324218750000000000f,0.53495401144027709960937500000000f,0.55079293251037597656250000000000f,0.29889687895774841308593750000000f,0.43136569857597351074218750000000f,0.47541671991348266601562500000000f,-0.31175971031188964843750000000000f,-0.95286136865615844726562500000000f,0.29344165325164794921875000000000f,-0.37499299645423889160156250000000f,-0.37591522932052612304687500000000f,-0.24400323629379272460937500000000f,-0.40710359811782836914062500000000f,0.45886033773422241210937500000000f,0.41959205269813537597656250000000f,0.39429962635040283203125000000000f,-0.37445753812789916992187500000000f,0.43871638178825378417968750000000f,-0.55952960252761840820312500000000f,-0.89393329620361328125000000000000f,0.62821900844573974609375000000000f,-0.65313130617141723632812500000000f,0.51109927892684936523437500000000f,0.44327872991561889648437500000000f,0.61141830682754516601562500000000f,-0.48319870233535766601562500000000f,-0.44207736849784851074218750000000f,-0.49017161130905151367187500000000f,0.65397047996520996093750000000000f,-0.38253849744796752929687500000000f,-0.32312676310539245605468750000000f,-0.06143025681376457214355468750000f,-0.37301766872406005859375000000000f,-0.48263475298881530761718750000000f,-0.34382680058479309082031250000000f,-0.35768577456474304199218750000000f,0.80226433277130126953125000000000f,-0.22067561745643615722656250000000f,0.45260956883430480957031250000000f,0.52200448513031005859375000000000f,-0.43761661648750305175781250000000f,0.26829046010971069335937500000000f,0.35515427589416503906250000000000f,-0.52418297529220581054687500000000f,-0.43666136264801025390625000000000f,0.22463274002075195312500000000000f,0.52730292081832885742187500000000f,0.42481610178947448730468750000000f,-0.43255838751792907714843750000000f,0.41025409102439880371093750000000f,-0.39961612224578857421875000000000f,-0.04424541071057319641113281250000f,-0.42340648174285888671875000000000f,0.54414439201354980468750000000000f,0.31319668889045715332031250000000f,-0.51191127300262451171875000000000f,0.44412690401077270507812500000000f,0.74140393733978271484375000000000f,-0.30813673138618469238281250000000f,0.48357680439949035644531250000000f,0.45120406150817871093750000000000f,-0.65786993503570556640625000000000f,-0.41455096006393432617187500000000f,0.55377113819122314453125000000000f,-0.72459852695465087890625000000000f,-0.43896937370300292968750000000000f,-0.33321568369865417480468750000000f,-0.44030725955963134765625000000000f,-0.42624789476394653320312500000000f,0.41093450784683227539062500000000f,0.43060892820358276367187500000000f,0.43655949831008911132812500000000f,0.41203239560127258300781250000000f,0.38738855719566345214843750000000f,-0.37134122848510742187500000000000f,-0.37372744083404541015625000000000f,-0.41623938083648681640625000000000f,0.59755623340606689453125000000000f,0.45118030905723571777343750000000f,0.81689488887786865234375000000000f,0.62146949768066406250000000000000f,-0.51169919967651367187500000000000f,0.58829736709594726562500000000000f,0.41272926330566406250000000000000f,-0.38337403535842895507812500000000f,-0.00855530519038438796997070312500f,0.48566150665283203125000000000000f,-0.43341830372810363769531250000000f,-0.43157693743705749511718750000000f,-0.26905238628387451171875000000000f,-0.31067183613777160644531250000000f,-0.23509742319583892822265625000000f,-0.33094838261604309082031250000000f,-0.26372519135475158691406250000000f,-0.31994622945785522460937500000000f,-0.29419571161270141601562500000000f,0.31412264704704284667968750000000f,0.23845270276069641113281250000000f,-0.31108894944190979003906250000000f,-0.27722775936126708984375000000000f,-0.28765520453453063964843750000000f,-0.34362444281578063964843750000000f,-0.28035190701484680175781250000000f,-0.31954744458198547363281250000000f,-0.25753471255302429199218750000000f,0.43039304018020629882812500000000f,0.71592360734939575195312500000000f,-0.22217248380184173583984375000000f,0.33323681354522705078125000000000f,0.28498283028602600097656250000000f,-0.28423190116882324218750000000000f,0.17423702776432037353515625000000f,-0.35942882299423217773437500000000f,-0.35385569930076599121093750000000f,0.29801562428474426269531250000000f,0.39351931214332580566406250000000f,0.38837319612503051757812500000000f,-0.43356314301490783691406250000000f,-0.53205519914627075195312500000000f,-0.31401154398918151855468750000000f,0.36234679818153381347656250000000f,0.24754849076271057128906250000000f,0.35776153206825256347656250000000f,-0.27652323246002197265625000000000f,0.51304000616073608398437500000000f,-0.36762356758117675781250000000000f,0.48534405231475830078125000000000f,0.41652631759643554687500000000000f,0.34431728720664978027343750000000f,0.35080450773239135742187500000000f,-0.25031483173370361328125000000000f,0.40007749199867248535156250000000f,-0.27156791090965270996093750000000f,0.65525317192077636718750000000000f,0.34887531399726867675781250000000f,-0.29628792405128479003906250000000f,0.38148730993270874023437500000000f,-0.46516987681388854980468750000000f,-0.27878817915916442871093750000000f,-0.30028131604194641113281250000000f,0.46149083971977233886718750000000f,-0.36411061882972717285156250000000f,0.39254266023635864257812500000000f,0.29254886507987976074218750000000f,0.44485613703727722167968750000000f,0.18025207519531250000000000000000f,-0.26709869503974914550781250000000f,0.51529794931411743164062500000000f,-0.28635305166244506835937500000000f,0.46776163578033447265625000000000f,-0.26625153422355651855468750000000f,0.54225480556488037109375000000000f,0.39949348568916320800781250000000f,0.33968099951744079589843750000000f,0.33905985951423645019531250000000f,-0.23682278394699096679687500000000f,0.00103884004056453704833984375000f,0.40175694227218627929687500000000f,-0.38597255945205688476562500000000f,0.27820190787315368652343750000000f,0.37698411941528320312500000000000f,0.50932812690734863281250000000000f,0.33362403512001037597656250000000f,-0.39722937345504760742187500000000f,-0.41480088233947753906250000000000f,0.30820602178573608398437500000000f,0.26542586088180541992187500000000f,-0.32937934994697570800781250000000f,-0.30673500895500183105468750000000f,-0.29583975672721862792968750000000f,0.19684925675392150878906250000000f,-0.24673771858215332031250000000000f,-0.24244035780429840087890625000000f,0.53818351030349731445312500000000f,0.49850201606750488281250000000000f,-0.30799195170402526855468750000000f,-0.29940697550773620605468750000000f,0.45844662189483642578125000000000f,-0.30467149615287780761718750000000f,0.39219716191291809082031250000000f,-0.08322010934352874755859375000000f,0.38973683118820190429687500000000f,-0.26188254356384277343750000000000f,0.32814279198646545410156250000000f,0.29625639319419860839843750000000f,0.42883971333503723144531250000000f,-0.29277154803276062011718750000000f,0.28375172615051269531250000000000f,0.57895874977111816406250000000000f,0.31803721189498901367187500000000f,-0.41872346401214599609375000000000f,0.25485372543334960937500000000000f,0.34693884849548339843750000000000f,0.31261199712753295898437500000000f,-0.27313435077667236328125000000000f,-0.65516966581344604492187500000000f,-0.34565997123718261718750000000000f,-0.02114465646445751190185546875000f,-0.34457591176033020019531250000000f,0.39546623826026916503906250000000f,0.46829086542129516601562500000000f,-0.36955919861793518066406250000000f,0.30551719665527343750000000000000f,0.32252213358879089355468750000000f,-0.28887599706649780273437500000000f,-0.49881973862648010253906250000000f,0.37327370047569274902343750000000f,-0.23397801816463470458984375000000f,-0.29376742243766784667968750000000f,-0.30699706077575683593750000000000f,0.37069869041442871093750000000000f,0.40618106722831726074218750000000f,0.40760791301727294921875000000000f,0.27718865871429443359375000000000f,-0.29153341054916381835937500000000f,-0.17018613219261169433593750000000f,-0.39229848980903625488281250000000f,0.34585863351821899414062500000000f,-0.30142939090728759765625000000000f,0.30460360646247863769531250000000f,-0.28194785118103027343750000000000f,0.48398977518081665039062500000000f,0.30868336558341979980468750000000f,0.36064860224723815917968750000000f,-0.24734894931316375732421875000000f,-0.26741886138916015625000000000000f,-0.24060899019241333007812500000000f,-0.37522760033607482910156250000000f,-0.49180036783218383789062500000000f,-0.58611851930618286132812500000000f,-0.40062263607978820800781250000000f,-0.24952848255634307861328125000000f,0.51521515846252441406250000000000f,0.48179805278778076171875000000000f,-0.17263080179691314697265625000000f,0.37547224760055541992187500000000f,0.34032160043716430664062500000000f,0.66411280632019042968750000000000f,-0.22236250340938568115234375000000f,-0.19238160550594329833984375000000f,-0.29917141795158386230468750000000f,-0.47389319539070129394531250000000f,-0.38099518418312072753906250000000f,0.28869223594665527343750000000000f,-0.34172871708869934082031250000000f,-0.37800693511962890625000000000000f,-0.37700444459915161132812500000000f,0.12749923765659332275390625000000f,0.29846584796905517578125000000000f,0.30354997515678405761718750000000f,0.42541611194610595703125000000000f,-0.31290963292121887207031250000000f,-0.27425301074981689453125000000000f,-0.36031123995780944824218750000000f,-0.30156582593917846679687500000000f,0.34979104995727539062500000000000f,0.44007891416549682617187500000000f,0.49561613798141479492187500000000f,0.25431117415428161621093750000000f,0.14794515073299407958984375000000f,0.38015249371528625488281250000000f,0.55107116699218750000000000000000f,-0.34335714578628540039062500000000f,0.52770441770553588867187500000000f,0.33038383722305297851562500000000f,-0.33903804421424865722656250000000f,-0.35402846336364746093750000000000f,-0.25325140357017517089843750000000f,-0.27954569458961486816406250000000f,0.36481311917304992675781250000000f,0.32668438553810119628906250000000f,0.32238546013832092285156250000000f,-0.46440225839614868164062500000000f,0.36576727032661437988281250000000f,-0.29318860173225402832031250000000f,0.36229726672172546386718750000000f,0.37926167249679565429687500000000f,0.56281870603561401367187500000000f,0.25470083951950073242187500000000f,0.31872630119323730468750000000000f,0.44459438323974609375000000000000f,-0.43413192033767700195312500000000f,-0.55275648832321166992187500000000f,-0.31785023212432861328125000000000f,0.38995298743247985839843750000000f,-0.21645826101303100585937500000000f,-0.30094766616821289062500000000000f,-0.44019770622253417968750000000000f,-0.26150837540626525878906250000000f,-0.35529729723930358886718750000000f,-0.29584661126136779785156250000000f,-0.30051320791244506835937500000000f,-0.72042602300643920898437500000000f,-0.21770760416984558105468750000000f,0.54374277591705322265625000000000f,0.41957679390907287597656250000000f,-0.28757959604263305664062500000000f,0.33440232276916503906250000000000f,0.29541122913360595703125000000000f,-0.08956204354763031005859375000000f,-0.34533113241195678710937500000000f,0.61393374204635620117187500000000f,0.47232922911643981933593750000000f,0.31852951645851135253906250000000f,-0.33229452371597290039062500000000f,0.35184055566787719726562500000000f,-0.14666360616683959960937500000000f,-0.88158482313156127929687500000000f,-0.31634420156478881835937500000000f,0.46130150556564331054687500000000f,-0.52155452966690063476562500000000f,-0.39136499166488647460937500000000f,0.35544377565383911132812500000000f,0.07416883856058120727539062500000f,-0.28820756077766418457031250000000f,0.35794162750244140625000000000000f,0.50399041175842285156250000000000f,-0.27641195058822631835937500000000f,-0.24655911326408386230468750000000f,0.27869614958763122558593750000000f,0.04163227975368499755859375000000f,-0.34143173694610595703125000000000f,-0.30626606941223144531250000000000f,-0.42506381869316101074218750000000f,-0.34983783960342407226562500000000f,0.27376031875610351562500000000000f,0.31440883874893188476562500000000f,0.33725848793983459472656250000000f,0.35473009943962097167968750000000f,0.32553368806838989257812500000000f,-0.25900548696517944335937500000000f,-0.30668359994888305664062500000000f,-0.29894381761550903320312500000000f,0.34219807386398315429687500000000f,0.52422052621841430664062500000000f,0.23070406913757324218750000000000f,0.21734410524368286132812500000000f,-0.32267907261848449707031250000000f,0.38785594701766967773437500000000f,0.36750426888465881347656250000000f,-0.25463962554931640625000000000000f,0.02629302628338336944580078125000f,0.63327944278717041015625000000000f,-0.36645945906639099121093750000000f,0.10690002888441085815429687500000f,-0.36677131056785583496093750000000f,-0.39032176136970520019531250000000f,-0.52029329538345336914062500000000f,-0.30687806010246276855468750000000f,-0.37923225760459899902343750000000f,-0.38754719495773315429687500000000f,-0.44897300004959106445312500000000f,0.39472314715385437011718750000000f,0.23491524159908294677734375000000f,-0.37757694721221923828125000000000f,-0.38807767629623413085937500000000f,-0.32395532727241516113281250000000f,0.09432745724916458129882812500000f,-0.40157365798950195312500000000000f,-0.35977497696876525878906250000000f,-0.37345534563064575195312500000000f,0.00746031710878014564514160156250f,0.86056840419769287109375000000000f,-0.42585635185241699218750000000000f,0.42559441924095153808593750000000f,0.37590098381042480468750000000000f,-0.40918463468551635742187500000000f,0.50371789932250976562500000000000f,-0.43270158767700195312500000000000f,-0.44836410880088806152343750000000f,0.37396851181983947753906250000000f,0.48580238223075866699218750000000f,0.59115058183670043945312500000000f,-0.47340980172157287597656250000000f,0.09070659428834915161132812500000f,-0.35474675893783569335937500000000f,0.44968482851982116699218750000000f,0.41713899374008178710937500000000f,0.47524213790893554687500000000000f,-0.44756501913070678710937500000000f,0.51473623514175415039062500000000f,-0.47379556298255920410156250000000f,0.53753191232681274414062500000000f,0.53753960132598876953125000000000f,0.44213673472404479980468750000000f,0.72200006246566772460937500000000f,-0.40391990542411804199218750000000f,0.44662773609161376953125000000000f,-0.39799341559410095214843750000000f,0.73715573549270629882812500000000f,0.41511374711990356445312500000000f,-0.43655428290367126464843750000000f,0.44480997323989868164062500000000f,-0.53631514310836791992187500000000f,-0.32823607325553894042968750000000f,-0.27654296159744262695312500000000f,0.53577631711959838867187500000000f,-0.47689077258110046386718750000000f,0.46053037047386169433593750000000f,0.51892268657684326171875000000000f,0.57738399505615234375000000000000f,0.49352779984474182128906250000000f,-0.48569703102111816406250000000000f,0.63706195354461669921875000000000f,-0.52681732177734375000000000000000f,0.34025061130523681640625000000000f,-0.35445776581764221191406250000000f,-0.31304177641868591308593750000000f,0.49241477251052856445312500000000f,0.42091616988182067871093750000000f,0.43457135558128356933593750000000f,-0.32930290699005126953125000000000f,0.23672942817211151123046875000000f,0.44193226099014282226562500000000f,-0.51880675554275512695312500000000f,0.57432901859283447265625000000000f,0.51110965013504028320312500000000f,0.46489506959915161132812500000000f,0.35014075040817260742187500000000f,-0.26564103364944458007812500000000f,-0.52427572011947631835937500000000f,0.50222963094711303710937500000000f,0.50567406415939331054687500000000f,-0.48871719837188720703125000000000f,-0.44139492511749267578125000000000f,-0.38422593474388122558593750000000f,0.02896314673125743865966796875000f,-0.36595952510833740234375000000000f,-0.35003235936164855957031250000000f,0.63924640417098999023437500000000f,-0.49469989538192749023437500000000f,-0.44094568490982055664062500000000f,-0.39781406521797180175781250000000f,0.50619715452194213867187500000000f,-0.56570369005203247070312500000000f,0.41990545392036437988281250000000f,-0.50519162416458129882812500000000f,0.46987447142601013183593750000000f,-0.33066317439079284667968750000000f,0.45080488920211791992187500000000f,0.41860899329185485839843750000000f,0.61677592992782592773437500000000f,-0.34440311789512634277343750000000f,0.46407672762870788574218750000000f,0.61967128515243530273437500000000f,0.41501182317733764648437500000000f,-0.75260686874389648437500000000000f,0.04874012619256973266601562500000f,0.68841785192489624023437500000000f,0.42214918136596679687500000000000f,-0.32424920797348022460937500000000f,0.37667319178581237792968750000000f,-0.41363894939422607421875000000000f,0.58350861072540283203125000000000f,-0.37120935320854187011718750000000f,0.51928412914276123046875000000000f,0.57416725158691406250000000000000f,-0.35447880625724792480468750000000f,0.42019048333168029785156250000000f,0.48546856641769409179687500000000f,-0.27567091584205627441406250000000f,-0.59131520986557006835937500000000f,0.49397739768028259277343750000000f,-0.20042110979557037353515625000000f,-0.45848295092582702636718750000000f,-0.43274572491645812988281250000000f,0.43650114536285400390625000000000f,0.46804046630859375000000000000000f,0.51802128553390502929687500000000f,0.36506217718124389648437500000000f,0.31859725713729858398437500000000f,-0.17909130454063415527343750000000f,-0.45497331023216247558593750000000f,0.45237979292869567871093750000000f,-0.41244179010391235351562500000000f,0.55771684646606445312500000000000f,-0.39399984478950500488281250000000f,0.51211744546890258789062500000000f,0.39564847946166992187500000000000f,0.26909944415092468261718750000000f,-0.31037560105323791503906250000000f,-0.43166512250900268554687500000000f,-0.37192374467849731445312500000000f,-0.45915648341178894042968750000000f,0.67670184373855590820312500000000f,-0.67708849906921386718750000000000f,-0.57066458463668823242187500000000f,0.33488452434539794921875000000000f,-0.22186794877052307128906250000000f,0.40052336454391479492187500000000f,-0.27879032492637634277343750000000f,0.48208665847778320312500000000000f,0.39007347822189331054687500000000f,0.68754833936691284179687500000000f,-0.18746030330657958984375000000000f,-0.24664093554019927978515625000000f,-0.39931449294090270996093750000000f,-0.40382480621337890625000000000000f,-0.38556575775146484375000000000000f,0.32760509848594665527343750000000f,0.03276691958308219909667968750000f,-0.67315071821212768554687500000000f,-0.37736073136329650878906250000000f,0.38576981425285339355468750000000f,0.40254524350166320800781250000000f,0.43752849102020263671875000000000f,0.57992565631866455078125000000000f,-0.35573515295982360839843750000000f,-0.37629005312919616699218750000000f,-0.43121510744094848632812500000000f,-0.54015189409255981445312500000000f,0.44699648022651672363281250000000f,0.52582406997680664062500000000000f,0.52976626157760620117187500000000f,0.51575285196304321289062500000000f,0.24061323702335357666015625000000f,0.43513560295104980468750000000000f,0.58189517259597778320312500000000f,-0.46039769053459167480468750000000f,0.23364451527595520019531250000000f,0.38461211323738098144531250000000f,-0.41730046272277832031250000000000f,-0.44077572226524353027343750000000f,-0.28227600455284118652343750000000f,-0.40362370014190673828125000000000f,0.45662537217140197753906250000000f,0.43623366951942443847656250000000f,0.36952242255210876464843750000000f,-0.54066956043243408203125000000000f,0.41174054145812988281250000000000f,-0.53588277101516723632812500000000f,-0.55183130502700805664062500000000f,0.58518892526626586914062500000000f,-0.23805950582027435302734375000000f,0.40348377823829650878906250000000f,0.43216618895530700683593750000000f,0.60456019639968872070312500000000f,-0.47567322850227355957031250000000f,-0.75340175628662109375000000000000f,-0.44126158952713012695312500000000f,0.81733089685440063476562500000000f,-0.58491230010986328125000000000000f,-0.38233846426010131835937500000000f,-0.74298107624053955078125000000000f,-0.40938112139701843261718750000000f,-0.51407730579376220703125000000000f,-0.39685380458831787109375000000000f,-0.39603605866432189941406250000000f,0.22386470437049865722656250000000f,-0.26610046625137329101562500000000f,0.49772569537162780761718750000000f,0.52637320756912231445312500000000f,-0.44042608141899108886718750000000f,0.36862635612487792968750000000000f,0.40433493256568908691406250000000f,-0.20426224172115325927734375000000f,-0.43509426712989807128906250000000f,0.87478101253509521484375000000000f,0.57156056165695190429687500000000f,0.39910721778869628906250000000000f,-0.43082371354103088378906250000000f,0.41168868541717529296875000000000f,-0.19117639958858489990234375000000f,-1.00268435478210449218750000000000f,-0.41181161999702453613281250000000f,0.56880569458007812500000000000000f,-0.56541103124618530273437500000000f,-0.52755647897720336914062500000000f,0.46798512339591979980468750000000f,0.23877982795238494873046875000000f,-0.31180751323699951171875000000000f,0.52690237760543823242187500000000f,0.61224395036697387695312500000000f,-0.30432352423667907714843750000000f,-0.39775311946868896484375000000000f,0.60183250904083251953125000000000f,-0.29154238104820251464843750000000f,-0.47356545925140380859375000000000f,-0.37069153785705566406250000000000f,-0.47123190760612487792968750000000f,-0.46009299159049987792968750000000f,0.58019977807998657226562500000000f,0.38916543126106262207031250000000f,0.43831124901771545410156250000000f,0.44690573215484619140625000000000f,0.45406156778335571289062500000000f,-0.36441162228584289550781250000000f,-0.41684445738792419433593750000000f,-0.44617721438407897949218750000000f,0.55170232057571411132812500000000f,0.64301794767379760742187500000000f,0.77011924982070922851562500000000f,0.50124186277389526367187500000000f,-0.44661122560501098632812500000000f,0.49091073870658874511718750000000f,0.43212208151817321777343750000000f,-0.42392036318778991699218750000000f,-0.24657563865184783935546875000000f,0.28422206640243530273437500000000f,-0.07810129225254058837890625000000f,0.35245084762573242187500000000000f,-0.16972751915454864501953125000000f,-0.14132387936115264892578125000000f,-0.20226451754570007324218750000000f,-0.15129573643207550048828125000000f,-0.16509869694709777832031250000000f,-0.19444710016250610351562500000000f,-0.20499713718891143798828125000000f,0.21444703638553619384765625000000f,0.10316328704357147216796875000000f,-0.14179448783397674560546875000000f,-0.15095172822475433349609375000000f,-0.18778364360332489013671875000000f,0.01266939751803874969482421875000f,-0.19195565581321716308593750000000f,-0.15581445395946502685546875000000f,-0.18362110853195190429687500000000f,-0.06321478635072708129882812500000f,0.46821963787078857421875000000000f,-0.38015624880790710449218750000000f,0.21617674827575683593750000000000f,0.16208007931709289550781250000000f,-0.12611490488052368164062500000000f,0.36600020527839660644531250000000f,-0.13689661026000976562500000000000f,-0.21991224586963653564453125000000f,0.18982417881488800048828125000000f,0.18937073647975921630859375000000f,0.31517711281776428222656250000000f,-0.14606301486492156982421875000000f,0.49166879057884216308593750000000f,-0.16753731667995452880859375000000f,0.18580968677997589111328125000000f,0.20011356472969055175781250000000f,0.21206870675086975097656250000000f,-0.25719615817070007324218750000000f,0.14777629077434539794921875000000f,-0.23746627569198608398437500000000f,0.30161917209625244140625000000000f,0.25997549295425415039062500000000f,0.25574871897697448730468750000000f,0.39405906200408935546875000000000f,-0.17013365030288696289062500000000f,0.19543193280696868896484375000000f,-0.21750597655773162841796875000000f,0.13402362167835235595703125000000f,0.22771701216697692871093750000000f,-0.19080017507076263427734375000000f,0.25237351655960083007812500000000f,-0.05960268154740333557128906250000f,-0.18962138891220092773437500000000f,-0.12847618758678436279296875000000f,0.19817537069320678710937500000000f,-0.22721685469150543212890625000000f,0.23866003751754760742187500000000f,0.36050215363502502441406250000000f,0.32167232036590576171875000000000f,0.34123703837394714355468750000000f,-0.27053141593933105468750000000000f,0.32775408029556274414062500000000f,-0.30171599984169006347656250000000f,-0.09930796921253204345703125000000f,-0.15395551919937133789062500000000f,-0.11260040849447250366210937500000f,0.09973112493753433227539062500000f,0.21818564832210540771484375000000f,0.16852279007434844970703125000000f,-0.13814507424831390380859375000000f,0.29229566454887390136718750000000f,0.17299734055995941162109375000000f,-0.26874831318855285644531250000000f,0.39168974757194519042968750000000f,0.26742044091224670410156250000000f,0.16048532724380493164062500000000f,0.24018302559852600097656250000000f,-0.00617826497182250022888183593750f,-0.32480260729789733886718750000000f,0.25887426733970642089843750000000f,0.33092588186264038085937500000000f,-0.24618092179298400878906250000000f,-0.28096184134483337402343750000000f,-0.22179257869720458984375000000000f,0.00997973326593637466430664062500f,-0.13789509236812591552734375000000f,-0.07763619720935821533203125000000f,0.23893660306930541992187500000000f,-0.23284162580966949462890625000000f,-0.24722677469253540039062500000000f,-0.20947961509227752685546875000000f,0.11288177222013473510742187500000f,-0.23570066690444946289062500000000f,0.20457404851913452148437500000000f,-0.36067655682563781738281250000000f,0.22252792119979858398437500000000f,-0.26205676794052124023437500000000f,0.25366279482841491699218750000000f,0.26025840640068054199218750000000f,0.38650396466255187988281250000000f,-0.17429563403129577636718750000000f,0.21118514239788055419921875000000f,0.20431815087795257568359375000000f,0.19871342182159423828125000000000f,-0.38149675726890563964843750000000f,-0.31358575820922851562500000000000f,0.39921277761459350585937500000000f,0.19199009239673614501953125000000f,-0.17650008201599121093750000000000f,0.07639116048812866210937500000000f,-0.20571102201938629150390625000000f,0.41066652536392211914062500000000f,-0.16698287427425384521484375000000f,0.24871744215488433837890625000000f,0.27059361338615417480468750000000f,-0.20251990854740142822265625000000f,0.16329294443130493164062500000000f,0.24621093273162841796875000000000f,-0.11644121259450912475585937500000f,-0.20233224332332611083984375000000f,0.29850336909294128417968750000000f,-0.08490024507045745849609375000000f,-0.22401493787765502929687500000000f,-0.19095195829868316650390625000000f,0.20185248553752899169921875000000f,0.16741800308227539062500000000000f,0.26607128977775573730468750000000f,0.16677024960517883300781250000000f,0.39671081304550170898437500000000f,-0.02170615643262863159179687500000f,-0.16922597587108612060546875000000f,0.23103438317775726318359375000000f,-0.21118156611919403076171875000000f,0.32029828429222106933593750000000f,-0.19800804555416107177734375000000f,0.17802424728870391845703125000000f,0.22565770149230957031250000000000f,0.13750079274177551269531250000000f,-0.20584097504615783691406250000000f,-0.15896728634834289550781250000000f,-0.13871243596076965332031250000000f,-0.16903534531593322753906250000000f,0.50067025423049926757812500000000f,-0.32057294249534606933593750000000f,-0.26133242249488830566406250000000f,0.56313025951385498046875000000000f,-0.43943303823471069335937500000000f,0.06244184076786041259765625000000f,-0.12250101566314697265625000000000f,0.22550734877586364746093750000000f,0.21310226619243621826171875000000f,0.30587843060493469238281250000000f,-0.07240501791238784790039062500000f,-0.05419063940644264221191406250000f,-0.24264280498027801513671875000000f,-0.23217979073524475097656250000000f,-0.14051745831966400146484375000000f,0.15439029037952423095703125000000f,0.11703334003686904907226562500000f,-0.68590950965881347656250000000000f,-0.19459199905395507812500000000000f,0.30879890918731689453125000000000f,0.23725481331348419189453125000000f,0.24723124504089355468750000000000f,0.27158808708190917968750000000000f,-0.14788262546062469482421875000000f,-0.22504131495952606201171875000000f,-0.18979595601558685302734375000000f,-0.22205089032649993896484375000000f,0.24658903479576110839843750000000f,0.27035480737686157226562500000000f,0.24961118400096893310546875000000f,0.32950878143310546875000000000000f,0.13198928534984588623046875000000f,0.24356545507907867431640625000000f,0.13444533944129943847656250000000f,-0.16105893254280090332031250000000f,-0.65142202377319335937500000000000f,0.20061726868152618408203125000000f,-0.23972404003143310546875000000000f,-0.24287372827529907226562500000000f,-0.11041861027479171752929687500000f,-0.17182783782482147216796875000000f,0.26494291424751281738281250000000f,0.20829525589942932128906250000000f,0.20667234063148498535156250000000f,-0.27828457951545715332031250000000f,0.20844453573226928710937500000000f,-0.32919931411743164062500000000000f,-0.48894000053405761718750000000000f,0.31862133741378784179687500000000f,-0.31799650192260742187500000000000f,0.18728317320346832275390625000000f,0.18856863677501678466796875000000f,0.36875569820404052734375000000000f,-0.25253966450691223144531250000000f,-0.37295186519622802734375000000000f,-0.24214020371437072753906250000000f,0.50466519594192504882812500000000f,-0.43937429785728454589843750000000f,-0.12689352035522460937500000000000f,-0.21306109428405761718750000000000f,-0.21719771623611450195312500000000f,-0.27913832664489746093750000000000f,-0.19355633854866027832031250000000f,-0.19578699767589569091796875000000f,0.40894955396652221679687500000000f,-0.09742066264152526855468750000000f,0.13973468542098999023437500000000f,0.20404705405235290527343750000000f,-0.23933511972427368164062500000000f,0.08724519610404968261718750000000f,0.19388616085052490234375000000000f,-0.15148341655731201171875000000000f,-0.23833467066287994384765625000000f,0.41167104244232177734375000000000f,0.28833943605422973632812500000000f,0.19801266491413116455078125000000f,-0.20618329942226409912109375000000f,0.19243691861629486083984375000000f,-0.11411472409963607788085937500000f,-0.54734176397323608398437500000000f,-0.17758622765541076660156250000000f,0.26315286755561828613281250000000f,-0.05435657873749732971191406250000f,-0.25257813930511474609375000000000f,0.29133778810501098632812500000000f,0.46595734357833862304687500000000f,-0.12720945477485656738281250000000f,0.26304075121879577636718750000000f,0.20750732719898223876953125000000f,-0.13000470399856567382812500000000f,-0.25651013851165771484375000000000f,0.42756548523902893066406250000000f,-0.07376000285148620605468750000000f,-0.27598699927330017089843750000000f,-0.20214858651161193847656250000000f,-0.28328841924667358398437500000000f,-0.22350119054317474365234375000000f,0.45198369026184082031250000000000f,0.15963600575923919677734375000000f,0.23991584777832031250000000000000f,0.22819641232490539550781250000000f,0.23461183905601501464843750000000f,-0.19462294876575469970703125000000f,-0.20333138108253479003906250000000f,-0.20821200311183929443359375000000f,0.24293763935565948486328125000000f,0.22113204002380371093750000000000f,0.43521443009376525878906250000000f,0.38085556030273437500000000000000f,-0.26324126124382019042968750000000f,0.26456266641616821289062500000000f,0.21630398929119110107421875000000f,-0.16014751791954040527343750000000f,-0.27273699641227722167968750000000f}; 
