#include <polimidl/layers/alignment.hpp>
alignas(polimidl::layers::buffer_alignment::byte_alignment) const float weight31[] = {0.21039627492427825927734375000000f,0.08539390563964843750000000000000f,0.00685781659558415412902832031250f,0.26757177710533142089843750000000f,-0.39586523175239562988281250000000f,-0.11132209002971649169921875000000f,-0.13301390409469604492187500000000f,0.27115544676780700683593750000000f,-1.02614200115203857421875000000000f,0.20164324343204498291015625000000f,0.44397252798080444335937500000000f,-0.35628807544708251953125000000000f,-0.14305317401885986328125000000000f,-0.06755721569061279296875000000000f,-0.06558438390493392944335937500000f,0.06179296970367431640625000000000f,0.18539588153362274169921875000000f,-0.37988737225532531738281250000000f,-0.26249578595161437988281250000000f,-0.38109633326530456542968750000000f,0.31296247243881225585937500000000f,0.21241667866706848144531250000000f,-0.03313308954238891601562500000000f,0.34289076924324035644531250000000f,-0.15443123877048492431640625000000f,-0.35857671499252319335937500000000f,0.13428646326065063476562500000000f,-0.16649694740772247314453125000000f,0.66839915513992309570312500000000f,0.38646391034126281738281250000000f,0.91538321971893310546875000000000f,0.20045033097267150878906250000000f,-0.03009095601737499237060546875000f,-0.31145113706588745117187500000000f,-0.13379295170307159423828125000000f,0.02523166686296463012695312500000f,0.38240543007850646972656250000000f,-0.28466296195983886718750000000000f,-0.01898246258497238159179687500000f,-0.15300434827804565429687500000000f,0.16133362054824829101562500000000f,-0.80198454856872558593750000000000f,0.25975933670997619628906250000000f,-0.34864589571952819824218750000000f,0.07486841082572937011718750000000f,0.02399210073053836822509765625000f,0.45135268568992614746093750000000f,0.69909721612930297851562500000000f,-0.23126725852489471435546875000000f,0.24774949252605438232421875000000f,0.16655448079109191894531250000000f,-0.07408097386360168457031250000000f,0.28357404470443725585937500000000f,0.70283043384552001953125000000000f,-0.25294226408004760742187500000000f,-0.20506700873374938964843750000000f,0.14305482804775238037109375000000f,-0.42079856991767883300781250000000f,-0.02240315265953540802001953125000f,0.25141933560371398925781250000000f,-0.39324909448623657226562500000000f,0.18846821784973144531250000000000f,-0.24274554848670959472656250000000f,0.28835901618003845214843750000000f,-0.12704715132713317871093750000000f,0.09592773765325546264648437500000f,0.32500976324081420898437500000000f,-0.10083318501710891723632812500000f,0.38489520549774169921875000000000f,0.14918878674507141113281250000000f,-0.03491511195898056030273437500000f,-0.04477270692586898803710937500000f,-0.49814826250076293945312500000000f,-0.29840883612632751464843750000000f,0.05467712879180908203125000000000f,-0.05117205902934074401855468750000f,-0.24288703501224517822265625000000f,-0.09015002846717834472656250000000f,0.19998399913311004638671875000000f,-0.40975210070610046386718750000000f,-0.13733632862567901611328125000000f,-0.46797710657119750976562500000000f,0.30487370491027832031250000000000f,-0.44191327691078186035156250000000f,-0.02756853774189949035644531250000f,0.18403713405132293701171875000000f,0.20679683983325958251953125000000f,0.24124221503734588623046875000000f,0.12092632800340652465820312500000f,0.40548005700111389160156250000000f,0.05340335890650749206542968750000f,-0.15232169628143310546875000000000f,-0.22722035646438598632812500000000f,0.16683487594127655029296875000000f,0.29374548792839050292968750000000f,0.68036288022994995117187500000000f,-0.21382515132427215576171875000000f,0.10678691416978836059570312500000f,0.09252102673053741455078125000000f,0.69023483991622924804687500000000f,-0.07828147709369659423828125000000f,0.17533954977989196777343750000000f,-0.20500116050243377685546875000000f,0.04125304520130157470703125000000f,-0.02870841138064861297607421875000f,-0.48022416234016418457031250000000f,0.15177731215953826904296875000000f,-0.29096993803977966308593750000000f,0.50957733392715454101562500000000f,0.24512839317321777343750000000000f,-0.03751411288976669311523437500000f,0.11275909096002578735351562500000f,0.02149713784456253051757812500000f,-0.58256024122238159179687500000000f,0.42410469055175781250000000000000f,-0.18905882537364959716796875000000f,0.23712266981601715087890625000000f,0.00105250673368573188781738281250f,-0.15614046156406402587890625000000f,-0.23547388613224029541015625000000f,0.13567583262920379638671875000000f,0.25935149192810058593750000000000f,0.70847284793853759765625000000000f,0.00874060019850730895996093750000f,0.21740740537643432617187500000000f,0.20824603736400604248046875000000f,0.18292503058910369873046875000000f,-0.29124990105628967285156250000000f,-0.18387849628925323486328125000000f,0.11165522783994674682617187500000f,-0.01476307399570941925048828125000f,-0.06984231621026992797851562500000f,-0.27502337098121643066406250000000f,-0.34089377522468566894531250000000f,0.40397298336029052734375000000000f,-0.31795272231101989746093750000000f,-0.06337166577577590942382812500000f,0.58110982179641723632812500000000f,0.16140605509281158447265625000000f,-0.05919557437300682067871093750000f,-0.18405726552009582519531250000000f,-0.82005965709686279296875000000000f,-0.29842799901962280273437500000000f,0.17326788604259490966796875000000f,-0.15239787101745605468750000000000f,-0.16177208721637725830078125000000f,0.69400119781494140625000000000000f,-0.19357760250568389892578125000000f,-0.12065934389829635620117187500000f,0.11866538226604461669921875000000f,0.37920811772346496582031250000000f,0.93297702074050903320312500000000f,0.05475662276148796081542968750000f,0.13700127601623535156250000000000f,0.38918134570121765136718750000000f,0.19822043180465698242187500000000f,0.06139166653156280517578125000000f,0.21712496876716613769531250000000f,0.60436803102493286132812500000000f,0.19483458995819091796875000000000f,-0.33013987541198730468750000000000f,-0.18257494270801544189453125000000f,0.58173292875289916992187500000000f,0.20109401643276214599609375000000f,0.17242735624313354492187500000000f,-0.32735395431518554687500000000000f,-0.04683076962828636169433593750000f,0.37205946445465087890625000000000f,0.02214177697896957397460937500000f,-0.02441381476819515228271484375000f,0.12319476157426834106445312500000f,0.32591906189918518066406250000000f,0.12657764554023742675781250000000f,0.15612447261810302734375000000000f,0.07046233862638473510742187500000f,-0.21728329360485076904296875000000f,-0.03763279318809509277343750000000f,0.34225142002105712890625000000000f,-0.30906349420547485351562500000000f,0.13552598655223846435546875000000f,0.27469068765640258789062500000000f,0.19933794438838958740234375000000f,1.45226061344146728515625000000000f,0.17033816874027252197265625000000f,-0.14018425345420837402343750000000f,-0.02654054760932922363281250000000f,0.22404727339744567871093750000000f,0.40906000137329101562500000000000f,0.14899663627147674560546875000000f,-0.22547435760498046875000000000000f,0.09268260002136230468750000000000f,0.13520307838916778564453125000000f,0.80059868097305297851562500000000f,0.25030928850173950195312500000000f,-0.12581814825534820556640625000000f,-0.08206561952829360961914062500000f,-0.27847582101821899414062500000000f,0.08332661539316177368164062500000f,0.12454482167959213256835937500000f,-0.15265803039073944091796875000000f,0.06550768017768859863281250000000f,0.18308368325233459472656250000000f,0.12185451388359069824218750000000f,-0.36698535084724426269531250000000f,0.33709797263145446777343750000000f,0.13564129173755645751953125000000f,0.29146501421928405761718750000000f,-0.28294038772583007812500000000000f,0.26287725567817687988281250000000f,0.13610124588012695312500000000000f,-0.25789132714271545410156250000000f,0.01317908428609371185302734375000f,-0.22298862040042877197265625000000f,-0.12696816027164459228515625000000f,-0.07197639346122741699218750000000f,0.27841413021087646484375000000000f,0.20272399485111236572265625000000f,-0.49672272801399230957031250000000f,0.00027583781047724187374114990234f,0.38147473335266113281250000000000f,0.07672313600778579711914062500000f,0.31650954484939575195312500000000f,0.02958703972399234771728515625000f,0.04788570478558540344238281250000f,0.06034955754876136779785156250000f,-0.11908385157585144042968750000000f,-0.31704744696617126464843750000000f,0.04712158814072608947753906250000f,-0.43256619572639465332031250000000f,0.88247734308242797851562500000000f,0.15422905981540679931640625000000f,0.26394745707511901855468750000000f,0.18149682879447937011718750000000f,0.02361922711133956909179687500000f,0.28541535139083862304687500000000f,0.25436407327651977539062500000000f,-0.19243992865085601806640625000000f,0.03642796725034713745117187500000f,-0.32105234265327453613281250000000f,0.03548222407698631286621093750000f,0.17961089313030242919921875000000f,-0.16387026011943817138671875000000f,-0.02856134809553623199462890625000f,0.10849304497241973876953125000000f,0.09729330986738204956054687500000f,-0.25434446334838867187500000000000f,0.07838625460863113403320312500000f,0.06078834459185600280761718750000f,0.60653614997863769531250000000000f,0.28329113125801086425781250000000f,0.06357708573341369628906250000000f,-0.01209469139575958251953125000000f,-0.05782795324921607971191406250000f,0.21881361305713653564453125000000f,-0.39036062359809875488281250000000f,-0.28078246116638183593750000000000f,0.10499698668718338012695312500000f,-0.05104662850499153137207031250000f,0.09017022699117660522460937500000f,-0.10221115499734878540039062500000f,0.26968210935592651367187500000000f,-0.46665489673614501953125000000000f,0.56415820121765136718750000000000f,-0.22166118025779724121093750000000f,0.09631717950105667114257812500000f,0.22617684304714202880859375000000f,-0.01139349304139614105224609375000f,0.01795874349772930145263671875000f,0.40072655677795410156250000000000f,0.30269807577133178710937500000000f,-0.30071428418159484863281250000000f,0.33433076739311218261718750000000f,0.04589525610208511352539062500000f,-0.21689189970493316650390625000000f,0.02267765626311302185058593750000f,0.18371917307376861572265625000000f,0.27347910404205322265625000000000f,0.19603748619556427001953125000000f,0.03958901390433311462402343750000f,-0.48577016592025756835937500000000f,0.07327552139759063720703125000000f,-0.39450496435165405273437500000000f,0.30605408549308776855468750000000f,-0.24768136441707611083984375000000f,0.13460940122604370117187500000000f,-0.03616296499967575073242187500000f,-0.02318109571933746337890625000000f,0.13445073366165161132812500000000f,-0.06420205533504486083984375000000f,-0.32507380843162536621093750000000f,-0.76847308874130249023437500000000f,-0.32637843489646911621093750000000f,-0.27256783843040466308593750000000f,0.22080813348293304443359375000000f,0.05825246497988700866699218750000f,0.30551257729530334472656250000000f,-0.39140477776527404785156250000000f,0.46213993430137634277343750000000f,0.61421728134155273437500000000000f,-0.09619283676147460937500000000000f,-0.23525111377239227294921875000000f,-0.19758416712284088134765625000000f,0.05157509818673133850097656250000f,0.23039971292018890380859375000000f,0.31248390674591064453125000000000f,0.29437616467475891113281250000000f,-0.23389248549938201904296875000000f,-0.40560680627822875976562500000000f,0.30530884861946105957031250000000f,-0.37756878137588500976562500000000f,0.58804517984390258789062500000000f,-0.44807821512222290039062500000000f,0.04114058986306190490722656250000f,0.06738254427909851074218750000000f,0.51986640691757202148437500000000f,0.19438704848289489746093750000000f,-0.23832970857620239257812500000000f,0.22577542066574096679687500000000f,0.13507951796054840087890625000000f,-0.39627900719642639160156250000000f,-0.10949729382991790771484375000000f,-0.06599409878253936767578125000000f,-0.19494795799255371093750000000000f,-0.02891113609075546264648437500000f,-0.43056064844131469726562500000000f,0.03938335180282592773437500000000f,-0.28213572502136230468750000000000f,0.04495990648865699768066406250000f,-0.10854599624872207641601562500000f,0.20426435768604278564453125000000f,-0.04500298947095870971679687500000f,0.02345062233507633209228515625000f,-0.22550773620605468750000000000000f,-0.33263471722602844238281250000000f,0.25910371541976928710937500000000f,0.02508246712386608123779296875000f,0.37405553460121154785156250000000f,0.48350790143013000488281250000000f,-0.30624708533287048339843750000000f,-0.05534299090504646301269531250000f,0.21836060285568237304687500000000f,0.12916406989097595214843750000000f,0.60223960876464843750000000000000f,-0.08833525329828262329101562500000f,-0.35845455527305603027343750000000f,0.31604269146919250488281250000000f,0.12385135143995285034179687500000f,-0.01193347480148077011108398437500f,0.11417232453823089599609375000000f,0.23482635617256164550781250000000f,-0.29416814446449279785156250000000f,0.31341689825057983398437500000000f,0.40358069539070129394531250000000f,-0.31556028127670288085937500000000f,-0.24204683303833007812500000000000f,-0.39652088284492492675781250000000f,-0.19829718768596649169921875000000f,-0.33748656511306762695312500000000f,0.15515664219856262207031250000000f,0.20017161965370178222656250000000f,-0.12008446455001831054687500000000f,0.12328269332647323608398437500000f,-0.09272477030754089355468750000000f,-0.21995152533054351806640625000000f,0.43384334444999694824218750000000f,-0.23086969554424285888671875000000f,0.13812108337879180908203125000000f,-0.42648133635520935058593750000000f,0.04852067306637763977050781250000f,-0.22015878558158874511718750000000f,0.28096282482147216796875000000000f,-0.17863006889820098876953125000000f,0.16108089685440063476562500000000f,-0.03004635870456695556640625000000f,0.03888653218746185302734375000000f,-0.03561034426093101501464843750000f,0.20382003486156463623046875000000f,0.00296944309957325458526611328125f,-0.19635024666786193847656250000000f,-0.14012372493743896484375000000000f,0.40289598703384399414062500000000f,-0.27955931425094604492187500000000f,0.13350291550159454345703125000000f,-0.35825580358505249023437500000000f,0.01059943158179521560668945312500f,0.08804949373006820678710937500000f,0.49749350547790527343750000000000f,-0.39904078841209411621093750000000f,-0.13319590687751770019531250000000f,-0.12856847047805786132812500000000f,-0.17725303769111633300781250000000f,0.20168334245681762695312500000000f,0.19268733263015747070312500000000f,0.11201882362365722656250000000000f,-0.20207343995571136474609375000000f,0.26611012220382690429687500000000f,0.05439288914203643798828125000000f,0.40604564547538757324218750000000f,-0.08431059122085571289062500000000f,0.20641051232814788818359375000000f,-0.28984767198562622070312500000000f,-0.44105711579322814941406250000000f,0.06966459751129150390625000000000f,-0.09069553017616271972656250000000f,-0.17696103453636169433593750000000f,0.17933510243892669677734375000000f,0.02256662584841251373291015625000f,0.56317609548568725585937500000000f,0.12335148453712463378906250000000f,0.03017662279307842254638671875000f,0.11615232378244400024414062500000f,-0.25128355622291564941406250000000f,0.09287820011377334594726562500000f,0.10994970798492431640625000000000f,0.32364028692245483398437500000000f,0.13491801917552947998046875000000f,0.13876022398471832275390625000000f,-0.24253065884113311767578125000000f,-0.12224407494068145751953125000000f,0.08791396766901016235351562500000f,0.27428853511810302734375000000000f,-0.10434459894895553588867187500000f,0.07614201307296752929687500000000f,-0.03203583136200904846191406250000f,-0.22410057485103607177734375000000f,-0.31353837251663208007812500000000f,-0.30756169557571411132812500000000f,0.07835877686738967895507812500000f,0.13051380217075347900390625000000f,-0.01370058301836252212524414062500f,0.44733715057373046875000000000000f,0.13025510311126708984375000000000f,0.47905746102333068847656250000000f,0.46145871281623840332031250000000f,0.20820166170597076416015625000000f,0.06584572046995162963867187500000f,0.09623061120510101318359375000000f,-0.08649518340826034545898437500000f,0.08516426384449005126953125000000f,-0.02796471863985061645507812500000f,0.42786556482315063476562500000000f,-0.04840346798300743103027343750000f,1.10031080245971679687500000000000f,0.06215972080826759338378906250000f,0.25848856568336486816406250000000f,-0.15078212320804595947265625000000f,-0.20477746427059173583984375000000f,0.26448750495910644531250000000000f,-0.21724404394626617431640625000000f,-0.00425727898254990577697753906250f,-0.06565532088279724121093750000000f,-0.38454025983810424804687500000000f,0.30461481213569641113281250000000f,-0.18234282732009887695312500000000f,0.14354267716407775878906250000000f,-0.01192203350365161895751953125000f,0.29919040203094482421875000000000f,0.10041247308254241943359375000000f,-0.08039662986993789672851562500000f,0.09216047823429107666015625000000f,0.32970106601715087890625000000000f,0.07732503116130828857421875000000f,0.38917356729507446289062500000000f,0.36406093835830688476562500000000f,-0.32784056663513183593750000000000f,0.08539685606956481933593750000000f,-0.20790755748748779296875000000000f,-0.28209605813026428222656250000000f,0.08463257551193237304687500000000f,0.97432303428649902343750000000000f,-0.29997357726097106933593750000000f,0.14005674421787261962890625000000f,0.05275655537843704223632812500000f,-0.53072476387023925781250000000000f,0.14692793786525726318359375000000f,0.33210891485214233398437500000000f,0.11997494846582412719726562500000f,0.13611918687820434570312500000000f,-0.28952732682228088378906250000000f,0.39810439944267272949218750000000f,0.08318658173084259033203125000000f,-0.71803063154220581054687500000000f,-0.38942369818687438964843750000000f,0.46015292406082153320312500000000f,0.09012627601623535156250000000000f,-0.11215473711490631103515625000000f,0.24467502534389495849609375000000f,0.00079474545782431960105895996094f,0.30620440840721130371093750000000f,0.18096019327640533447265625000000f,0.07412749528884887695312500000000f,-0.41024655103683471679687500000000f,0.09306743741035461425781250000000f,-0.53117650747299194335937500000000f,0.36615180969238281250000000000000f,0.14584365487098693847656250000000f,-0.11617273092269897460937500000000f,-0.07618255913257598876953125000000f,0.14727319777011871337890625000000f,0.10338600724935531616210937500000f,-0.23990681767463684082031250000000f,0.09585661441087722778320312500000f,-0.08042126893997192382812500000000f,-0.37857696413993835449218750000000f,0.26326736807823181152343750000000f,-0.44654229283332824707031250000000f,-0.00264778593555092811584472656250f,-0.15379740297794342041015625000000f,0.12172142416238784790039062500000f,0.13073842227458953857421875000000f,-0.26257184147834777832031250000000f,0.16227281093597412109375000000000f,-0.21108406782150268554687500000000f,0.73018604516983032226562500000000f,-0.28541752696037292480468750000000f,0.44822350144386291503906250000000f,-0.19994124770164489746093750000000f,-0.02479902654886245727539062500000f,0.15936917066574096679687500000000f,-0.14997312426567077636718750000000f,-0.90484631061553955078125000000000f,0.92552751302719116210937500000000f,0.52916985750198364257812500000000f,-0.51263713836669921875000000000000f,-0.12420234084129333496093750000000f,-0.40170985460281372070312500000000f,-0.34315031766891479492187500000000f,0.31445661187171936035156250000000f,1.35575687885284423828125000000000f,-1.13578820228576660156250000000000f,-0.26271665096282958984375000000000f,-0.40767052769660949707031250000000f,0.54064947366714477539062500000000f,0.27181431651115417480468750000000f,0.40401351451873779296875000000000f,0.22092798352241516113281250000000f,-0.26198405027389526367187500000000f,-0.14160275459289550781250000000000f,-0.27098718285560607910156250000000f,-0.68155944347381591796875000000000f,0.25223010778427124023437500000000f,0.07057743519544601440429687500000f,-0.36770310997962951660156250000000f,0.34859418869018554687500000000000f,-0.15485699474811553955078125000000f,-1.41572713851928710937500000000000f,-0.31673365831375122070312500000000f,0.81112778186798095703125000000000f,0.92488592863082885742187500000000f,-1.05453693866729736328125000000000f,-0.03537370637059211730957031250000f,-0.20561873912811279296875000000000f,0.43949922919273376464843750000000f,-1.08043766021728515625000000000000f,0.21282935142517089843750000000000f,-0.09411517530679702758789062500000f,-0.09015674144029617309570312500000f,-0.65785062313079833984375000000000f,0.40213438868522644042968750000000f,0.56420397758483886718750000000000f,-0.43159982562065124511718750000000f,-0.00625721178948879241943359375000f,-0.01099246554076671600341796875000f,-0.34286746382713317871093750000000f,-0.00200436962768435478210449218750f,-0.01097794063389301300048828125000f,0.05866666510701179504394531250000f,-0.19880717992782592773437500000000f,0.31307539343833923339843750000000f,-0.24356040358543395996093750000000f,-0.07821372896432876586914062500000f,-0.23583595454692840576171875000000f,-0.30768892168998718261718750000000f,0.20751242339611053466796875000000f,-0.05066626891493797302246093750000f,1.78520071506500244140625000000000f,0.12675154209136962890625000000000f,-0.46597310900688171386718750000000f,0.87782067060470581054687500000000f,0.05402065441012382507324218750000f,0.59586542844772338867187500000000f,0.32347747683525085449218750000000f,0.62246572971343994140625000000000f,0.82014113664627075195312500000000f,-0.03609334677457809448242187500000f,-0.27932220697402954101562500000000f,-0.44236361980438232421875000000000f,-0.26100933551788330078125000000000f,-0.04627032950520515441894531250000f,0.82538604736328125000000000000000f,1.42375314235687255859375000000000f,-0.30027228593826293945312500000000f,-0.72350376844406127929687500000000f,0.57252591848373413085937500000000f,-0.20994278788566589355468750000000f,-0.08867318928241729736328125000000f,-1.05515432357788085937500000000000f,1.17398571968078613281250000000000f,0.40241372585296630859375000000000f,-0.19381748139858245849609375000000f,0.02771532721817493438720703125000f,0.79564070701599121093750000000000f,-0.13403986394405364990234375000000f,-0.87048608064651489257812500000000f,-0.10356954485177993774414062500000f,0.11920481920242309570312500000000f,0.09871431440114974975585937500000f,-0.23628768324851989746093750000000f,-0.17485073208808898925781250000000f,-0.77732354402542114257812500000000f,0.25922819972038269042968750000000f,-0.18678146600723266601562500000000f,0.60801762342453002929687500000000f,1.35262978076934814453125000000000f,-0.56660693883895874023437500000000f,-0.17603032290935516357421875000000f,-0.92615169286727905273437500000000f,-0.27978172898292541503906250000000f,1.41338872909545898437500000000000f,-0.38699007034301757812500000000000f,-0.13175903260707855224609375000000f,0.28848493099212646484375000000000f,-0.30888041853904724121093750000000f,-0.10978778451681137084960937500000f,0.32467150688171386718750000000000f,0.29689061641693115234375000000000f,0.39073556661605834960937500000000f,-0.34271439909934997558593750000000f,-0.11331467330455780029296875000000f,-0.68054884672164916992187500000000f,-0.17127884924411773681640625000000f,-0.34354656934738159179687500000000f,0.50442600250244140625000000000000f,0.14104989171028137207031250000000f,1.15267336368560791015625000000000f,-0.29604771733283996582031250000000f,-0.24036650359630584716796875000000f,1.73782658576965332031250000000000f,-0.01301759015768766403198242187500f,-0.55324643850326538085937500000000f,-0.43870031833648681640625000000000f,0.80411952733993530273437500000000f,-0.17193244397640228271484375000000f,-0.16934084892272949218750000000000f,0.44676920771598815917968750000000f,2.55211734771728515625000000000000f,0.92419433593750000000000000000000f,-0.22786337137222290039062500000000f,-0.23396153748035430908203125000000f,0.09014093130826950073242187500000f,0.53382241725921630859375000000000f,-0.19429203867912292480468750000000f,-0.21957895159721374511718750000000f,-0.34330719709396362304687500000000f,-0.65854644775390625000000000000000f,0.31478396058082580566406250000000f,0.02904629521071910858154296875000f,-0.30623632669448852539062500000000f,0.24412171542644500732421875000000f,-0.56401509046554565429687500000000f,-0.10260523110628128051757812500000f,-0.20009252429008483886718750000000f,0.12254536151885986328125000000000f,0.82642108201980590820312500000000f,0.16493594646453857421875000000000f,1.47482085227966308593750000000000f,0.75476491451263427734375000000000f,-0.29695042967796325683593750000000f,0.07592619955539703369140625000000f,0.27653557062149047851562500000000f,1.05917537212371826171875000000000f,-0.27565205097198486328125000000000f,0.18412296473979949951171875000000f,-0.26712152361869812011718750000000f,0.11586041748523712158203125000000f,0.82927107810974121093750000000000f,0.26045769453048706054687500000000f,-0.15923170745372772216796875000000f,0.03269444033503532409667968750000f,0.81600379943847656250000000000000f,0.54434365034103393554687500000000f,-0.28886723518371582031250000000000f,-0.05724721774458885192871093750000f,-0.51325356960296630859375000000000f,-0.53579729795455932617187500000000f,-1.20986318588256835937500000000000f,-0.87187922000885009765625000000000f,0.48338836431503295898437500000000f,-0.44285207986831665039062500000000f,0.22781988978385925292968750000000f,-0.37864202260971069335937500000000f,-0.02561099454760551452636718750000f,-0.02945912070572376251220703125000f,-0.18596217036247253417968750000000f,-0.16328984498977661132812500000000f,-0.27799773216247558593750000000000f,-0.49770578742027282714843750000000f,-0.50574451684951782226562500000000f,0.02063811011612415313720703125000f,0.48232701420783996582031250000000f,0.27056345343589782714843750000000f,1.54905259609222412109375000000000f,-0.47227936983108520507812500000000f,-0.30658781528472900390625000000000f,0.23411984741687774658203125000000f,-0.72475492954254150390625000000000f,0.22978059947490692138671875000000f,-0.58950203657150268554687500000000f,-0.33076360821723937988281250000000f,0.06698767840862274169921875000000f,0.24293574690818786621093750000000f,-0.65416622161865234375000000000000f,0.51514655351638793945312500000000f,-0.07507163286209106445312500000000f,0.21324300765991210937500000000000f,-0.20065309107303619384765625000000f,1.24512398242950439453125000000000f,0.11530426889657974243164062500000f,0.35448366403579711914062500000000f,-0.41188269853591918945312500000000f,0.06019905209541320800781250000000f,0.13028244674205780029296875000000f,-0.21988438069820404052734375000000f,-0.07705688476562500000000000000000f,-0.73127126693725585937500000000000f,1.05382883548736572265625000000000f,0.00209246180020272731781005859375f,0.29012441635131835937500000000000f,0.10007110238075256347656250000000f,-0.11213991791009902954101562500000f,0.38716694712638854980468750000000f,0.07516691088676452636718750000000f,-0.00026364391669631004333496093750f,0.87464457750320434570312500000000f,-0.00810142792761325836181640625000f,-0.97718763351440429687500000000000f,0.14590941369533538818359375000000f,-0.11596865206956863403320312500000f,0.20274822413921356201171875000000f,-0.54509764909744262695312500000000f,-0.41664579510688781738281250000000f,0.58173781633377075195312500000000f,0.19801531732082366943359375000000f,0.58138918876647949218750000000000f,0.21190208196640014648437500000000f,0.22594180703163146972656250000000f,0.12726111710071563720703125000000f,-0.01718800142407417297363281250000f,-0.31496542692184448242187500000000f,-0.21975737810134887695312500000000f,-0.01854559034109115600585937500000f,-0.25735896825790405273437500000000f,-0.48616743087768554687500000000000f,-0.36505684256553649902343750000000f,0.32978484034538269042968750000000f,-0.92751169204711914062500000000000f,0.28712749481201171875000000000000f,0.60502243041992187500000000000000f,0.08967926353216171264648437500000f,-0.29083451628684997558593750000000f,-0.19017989933490753173828125000000f,-1.03742527961730957031250000000000f,-0.09245276451110839843750000000000f,-0.46075421571731567382812500000000f,-0.14699555933475494384765625000000f,-0.10484000295400619506835937500000f,-0.04893315583467483520507812500000f,-0.40936031937599182128906250000000f,-0.60828465223312377929687500000000f,-0.78190582990646362304687500000000f,-0.42213830351829528808593750000000f,0.22790309786796569824218750000000f,0.34120604395866394042968750000000f,-0.67759525775909423828125000000000f,0.18506631255149841308593750000000f,-0.57529807090759277343750000000000f,0.09011917561292648315429687500000f,1.42967152595520019531250000000000f,1.24517476558685302734375000000000f,0.41436859965324401855468750000000f,0.36645054817199707031250000000000f,0.09125635772943496704101562500000f,-0.25820994377136230468750000000000f,0.08197421580553054809570312500000f,0.35504800081253051757812500000000f,-0.68430775403976440429687500000000f,0.04768378287553787231445312500000f,-0.05733401700854301452636718750000f,0.76934385299682617187500000000000f,0.10400216281414031982421875000000f,0.10665389895439147949218750000000f,0.28940212726593017578125000000000f,-0.28699648380279541015625000000000f,0.04763978347182273864746093750000f,0.68144208192825317382812500000000f,-0.59826540946960449218750000000000f,-0.05193666368722915649414062500000f,-0.26382145285606384277343750000000f,0.17353208363056182861328125000000f,-0.66988974809646606445312500000000f,-0.30537492036819458007812500000000f,-0.35560634732246398925781250000000f,-0.56798666715621948242187500000000f,-0.26423576474189758300781250000000f,-0.21992331743240356445312500000000f,0.12619046866893768310546875000000f,-0.35258087515830993652343750000000f,1.32523226737976074218750000000000f,-0.05290163680911064147949218750000f,-0.67135125398635864257812500000000f,1.41093146800994873046875000000000f,0.29552397131919860839843750000000f,-0.24620315432548522949218750000000f,-0.41254922747611999511718750000000f,-0.28995653986930847167968750000000f,0.32985639572143554687500000000000f,0.65524578094482421875000000000000f,-0.43179222941398620605468750000000f,-0.24220106005668640136718750000000f,-0.49078553915023803710937500000000f,0.44685986638069152832031250000000f,-0.40933415293693542480468750000000f,-0.36351490020751953125000000000000f,0.01054084300994873046875000000000f,1.37703537940979003906250000000000f,0.18808951973915100097656250000000f,0.50176143646240234375000000000000f,0.37735080718994140625000000000000f,-0.13335129618644714355468750000000f,0.26351943612098693847656250000000f,0.34718421101570129394531250000000f,-0.20292326807975769042968750000000f,0.31166797876358032226562500000000f,0.70524597167968750000000000000000f,1.88458073139190673828125000000000f,-0.19823098182678222656250000000000f,-1.23402082920074462890625000000000f,0.50407326221466064453125000000000f,0.18119983375072479248046875000000f,0.26743650436401367187500000000000f,1.60933446884155273437500000000000f,0.26210993528366088867187500000000f,-0.05796403810381889343261718750000f,-0.05896330997347831726074218750000f,-0.32739624381065368652343750000000f,0.46433126926422119140625000000000f,0.20191366970539093017578125000000f,-0.13438351452350616455078125000000f,0.05335576087236404418945312500000f,0.70394200086593627929687500000000f,0.37934172153472900390625000000000f,-0.07540301233530044555664062500000f,0.32336238026618957519531250000000f,0.03454591706395149230957031250000f,0.20779302716255187988281250000000f,-0.22436285018920898437500000000000f,-0.48496598005294799804687500000000f,1.22181165218353271484375000000000f,0.06529712677001953125000000000000f,0.07564327120780944824218750000000f,-0.36513075232505798339843750000000f,0.23553894460201263427734375000000f,-0.48470425605773925781250000000000f,-0.03395061567425727844238281250000f,0.34025672078132629394531250000000f,-0.33336314558982849121093750000000f,-0.34978845715522766113281250000000f,-0.40104541182518005371093750000000f,0.42985492944717407226562500000000f,-0.53760308027267456054687500000000f,0.05340626835823059082031250000000f,0.76878011226654052734375000000000f,0.02600869908928871154785156250000f,-0.17662282288074493408203125000000f,-0.28479549288749694824218750000000f,-0.29064121842384338378906250000000f,0.26075240969657897949218750000000f,-0.31534492969512939453125000000000f,-0.59858858585357666015625000000000f,-0.23701299726963043212890625000000f,-0.08608825504779815673828125000000f,-0.31867840886116027832031250000000f,0.06014889851212501525878906250000f,-0.23305560648441314697265625000000f,0.93747931718826293945312500000000f,1.01828813552856445312500000000000f,0.15545831620693206787109375000000f,-0.31764182448387145996093750000000f,0.25316160917282104492187500000000f,-0.19000746309757232666015625000000f,-0.17788586020469665527343750000000f,-0.58263826370239257812500000000000f,0.18889273703098297119140625000000f,0.02708485536277294158935546875000f,-0.31484448909759521484375000000000f,-0.25496718287467956542968750000000f,-0.22335630655288696289062500000000f,-0.58483660221099853515625000000000f,-0.26825606822967529296875000000000f,-0.64814782142639160156250000000000f,0.03950834646821022033691406250000f,-0.23974743485450744628906250000000f,-0.32989227771759033203125000000000f,0.23936477303504943847656250000000f,0.03189580142498016357421875000000f,-0.11858157813549041748046875000000f,-0.66004550457000732421875000000000f,0.06763881444931030273437500000000f,-0.16091765463352203369140625000000f,-1.09409749507904052734375000000000f,-0.02909432351589202880859375000000f,0.48732644319534301757812500000000f,0.56328260898590087890625000000000f,-0.21111129224300384521484375000000f,-0.46229937672615051269531250000000f,-0.30046737194061279296875000000000f,0.12136769294738769531250000000000f,1.25964009761810302734375000000000f,-0.33163130283355712890625000000000f,0.36671730875968933105468750000000f,-0.01769590750336647033691406250000f,-1.14108467102050781250000000000000f,-0.03766896575689315795898437500000f,-0.26887145638465881347656250000000f,-0.61320638656616210937500000000000f,-0.42155891656875610351562500000000f,0.72682183980941772460937500000000f,-0.53270047903060913085937500000000f,-0.31077182292938232421875000000000f,-0.44203701615333557128906250000000f,0.19197808206081390380859375000000f,-0.68222534656524658203125000000000f,-0.50608575344085693359375000000000f,-0.45798432826995849609375000000000f,0.14999593794345855712890625000000f,0.71261292695999145507812500000000f,-0.16272459924221038818359375000000f,-0.17537987232208251953125000000000f,-0.27736127376556396484375000000000f,-0.66444593667984008789062500000000f,-0.10479646921157836914062500000000f,0.11122073978185653686523437500000f,0.17431610822677612304687500000000f,0.11297582089900970458984375000000f,0.61681181192398071289062500000000f,0.98302716016769409179687500000000f,-0.27014285326004028320312500000000f,0.08730980008840560913085937500000f,-0.61983317136764526367187500000000f,-0.32059425115585327148437500000000f,0.02984929457306861877441406250000f,-0.35253021121025085449218750000000f,-0.01590613089501857757568359375000f,-0.38676673173904418945312500000000f,0.59665191173553466796875000000000f,0.21435964107513427734375000000000f,0.85593193769454956054687500000000f,0.43254092335700988769531250000000f,-0.43210732936859130859375000000000f,0.32906937599182128906250000000000f,-0.32347971200942993164062500000000f,-0.01951336115598678588867187500000f,-0.40307220816612243652343750000000f,-0.24398188292980194091796875000000f,0.20367118716239929199218750000000f,-0.57100027799606323242187500000000f,0.08936315774917602539062500000000f,0.65804100036621093750000000000000f,0.18391415476799011230468750000000f,-0.27051690220832824707031250000000f,-0.07319467514753341674804687500000f,-0.13688243925571441650390625000000f,-0.42610529065132141113281250000000f,-0.27205833792686462402343750000000f,0.18912608921527862548828125000000f,-0.00347818690352141857147216796875f,-0.21385656297206878662109375000000f,0.08208972960710525512695312500000f,-0.23725382983684539794921875000000f,-0.14795723557472229003906250000000f,0.13283747434616088867187500000000f,1.04533874988555908203125000000000f,0.43557965755462646484375000000000f,-0.62681591510772705078125000000000f,0.36866858601570129394531250000000f,0.04649372398853302001953125000000f,1.55668842792510986328125000000000f,-0.56479477882385253906250000000000f,0.10492350161075592041015625000000f,0.95249170064926147460937500000000f,0.04626491293311119079589843750000f,0.42709270119667053222656250000000f,-1.29329955577850341796875000000000f,-0.52489632368087768554687500000000f,-0.09024250507354736328125000000000f,1.57762098312377929687500000000000f,0.12120570987462997436523437500000f,-0.35578113794326782226562500000000f,-0.15827605128288269042968750000000f,-0.19697631895542144775390625000000f,-0.31136167049407958984375000000000f,1.36643600463867187500000000000000f,0.48091635107994079589843750000000f,-0.62026351690292358398437500000000f,-0.28717347979545593261718750000000f,-0.40825176239013671875000000000000f,1.16002476215362548828125000000000f,-0.32243329286575317382812500000000f,-0.25686991214752197265625000000000f,-0.69472724199295043945312500000000f,0.06592985242605209350585937500000f,0.23328143358230590820312500000000f,-0.36774450540542602539062500000000f,-0.64035749435424804687500000000000f,0.33280956745147705078125000000000f,-1.43308722972869873046875000000000f,-0.36009812355041503906250000000000f,-0.74172890186309814453125000000000f,-0.38392630219459533691406250000000f,1.19920825958251953125000000000000f,-0.32266414165496826171875000000000f,0.38698783516883850097656250000000f,-0.37951433658599853515625000000000f,0.17084158957004547119140625000000f,0.04965990781784057617187500000000f,0.21011649072170257568359375000000f,-0.02010534144937992095947265625000f,0.26180934906005859375000000000000f,-0.21587711572647094726562500000000f,-0.30574721097946166992187500000000f,0.07341421395540237426757812500000f,0.16882438957691192626953125000000f,-0.06472174823284149169921875000000f,0.36070841550827026367187500000000f,0.05615190044045448303222656250000f,-0.34407040476799011230468750000000f,-0.12789843976497650146484375000000f,-0.01742283441126346588134765625000f,-0.29107108712196350097656250000000f,0.07995171844959259033203125000000f,0.03444082662463188171386718750000f,-0.53799086809158325195312500000000f,-0.21023488044738769531250000000000f,-0.33811947703361511230468750000000f,0.25847488641738891601562500000000f,0.22287483513355255126953125000000f,0.46553897857666015625000000000000f,0.31134659051895141601562500000000f,-0.15481355786323547363281250000000f,-0.40364736318588256835937500000000f,-0.02506580762565135955810546875000f,-0.08891378343105316162109375000000f,-0.55902338027954101562500000000000f,0.43082982301712036132812500000000f,-0.26422896981239318847656250000000f,0.13476873934268951416015625000000f,0.01131663098931312561035156250000f,-0.37983855605125427246093750000000f,-0.25281026959419250488281250000000f,0.19581729173660278320312500000000f,0.28308603167533874511718750000000f,-0.16580320894718170166015625000000f,-0.04203183203935623168945312500000f,0.14515623450279235839843750000000f,0.20291782915592193603515625000000f,-0.67152518033981323242187500000000f,0.18395943939685821533203125000000f,-0.24646243453025817871093750000000f,0.02258472889661788940429687500000f,0.53812879323959350585937500000000f,0.06015982106328010559082031250000f,0.42392888665199279785156250000000f,-0.26763737201690673828125000000000f,-0.00227028550580143928527832031250f,0.24580797553062438964843750000000f,-0.06850204616785049438476562500000f,0.24830718338489532470703125000000f,-0.28409260511398315429687500000000f,0.33824092149734497070312500000000f,-0.23004253208637237548828125000000f,0.20892232656478881835937500000000f,-0.30305212736129760742187500000000f,0.04702485725283622741699218750000f,0.03652140125632286071777343750000f,-0.36855351924896240234375000000000f,0.19373798370361328125000000000000f,-0.30909067392349243164062500000000f,0.59216713905334472656250000000000f,-0.07820618152618408203125000000000f,0.27803573012351989746093750000000f,0.33235654234886169433593750000000f,-0.03164593502879142761230468750000f,0.17214390635490417480468750000000f,0.15862764418125152587890625000000f,0.53364956378936767578125000000000f,0.12654495239257812500000000000000f,0.07687433809041976928710937500000f,-0.31712955236434936523437500000000f,0.03052901290357112884521484375000f,-0.11671113222837448120117187500000f,-0.30227476358413696289062500000000f,0.47193238139152526855468750000000f,0.09681868553161621093750000000000f,-0.31629401445388793945312500000000f,-0.07995480298995971679687500000000f,-0.28743463754653930664062500000000f,0.04658477753400802612304687500000f,-0.33461138606071472167968750000000f,-0.13277037441730499267578125000000f,0.13596156239509582519531250000000f,0.44269508123397827148437500000000f,0.22329828143119812011718750000000f,0.15019080042839050292968750000000f,0.46548640727996826171875000000000f,-0.13337583839893341064453125000000f,-0.17361728847026824951171875000000f,-0.24601814150810241699218750000000f,0.08623933792114257812500000000000f,0.18890012800693511962890625000000f,-0.01696067303419113159179687500000f,-0.31212711334228515625000000000000f,0.00208425079472362995147705078125f,0.03495627269148826599121093750000f,0.22113074362277984619140625000000f,0.21156318485736846923828125000000f,0.41981381177902221679687500000000f,-0.21432188153266906738281250000000f,-0.29445567727088928222656250000000f,0.08108452707529067993164062500000f,-0.44150516390800476074218750000000f,0.06850372999906539916992187500000f,-0.18263296782970428466796875000000f,0.19710446894168853759765625000000f,0.38735601305961608886718750000000f,-0.10367184877395629882812500000000f,0.07106479257345199584960937500000f,0.07055231928825378417968750000000f,0.12026393413543701171875000000000f,0.37609875202178955078125000000000f,-0.06148872897028923034667968750000f,-0.19096164405345916748046875000000f,-0.13126872479915618896484375000000f,-0.20431481301784515380859375000000f,-0.17695632576942443847656250000000f,0.16625098884105682373046875000000f,0.20626468956470489501953125000000f,0.64612501859664916992187500000000f,-0.03007098473608493804931640625000f,0.19901247322559356689453125000000f,0.26527014374732971191406250000000f,0.06070444360375404357910156250000f,-0.30362591147422790527343750000000f,-0.08915615081787109375000000000000f,0.18466265499591827392578125000000f,-0.07566639780998229980468750000000f,-0.05294395983219146728515625000000f,-0.28206339478492736816406250000000f,-0.25144040584564208984375000000000f,0.43967387080192565917968750000000f,-0.34494978189468383789062500000000f,-0.14356490969657897949218750000000f,0.28791123628616333007812500000000f,0.11042606830596923828125000000000f,0.46186020970344543457031250000000f,-0.18768328428268432617187500000000f,0.12172646820545196533203125000000f,-0.37009033560752868652343750000000f,-0.17312750220298767089843750000000f,0.08218224346637725830078125000000f,0.21767966449260711669921875000000f,-0.40870490670204162597656250000000f,-0.21311637759208679199218750000000f,-0.15879282355308532714843750000000f,0.14571262896060943603515625000000f,0.28466942906379699707031250000000f,0.50528949499130249023437500000000f,-0.12697586417198181152343750000000f,0.28893601894378662109375000000000f,0.04586263746023178100585937500000f,0.18846434354782104492187500000000f,0.06387414038181304931640625000000f,0.14738588035106658935546875000000f,0.43185675144195556640625000000000f,0.10570486634969711303710937500000f,0.08418254554271697998046875000000f,-0.19287100434303283691406250000000f,-0.30570358037948608398437500000000f,0.13267637789249420166015625000000f,0.19285936653614044189453125000000f,-0.31937739253044128417968750000000f,-0.30821099877357482910156250000000f,0.45625326037406921386718750000000f,0.03197356685996055603027343750000f,-0.05726873129606246948242187500000f,0.09551881253719329833984375000000f,-0.05724528431892395019531250000000f,0.17485071718692779541015625000000f,-0.11401437222957611083984375000000f,-0.17067606747150421142578125000000f,-0.01102581340819597244262695312500f,-0.13228788971900939941406250000000f,0.25144404172897338867187500000000f,-0.28082853555679321289062500000000f,0.09469621628522872924804687500000f,0.03267193958163261413574218750000f,0.27560877799987792968750000000000f,-0.15265990793704986572265625000000f,0.09085467457771301269531250000000f,-0.84755390882492065429687500000000f,-0.09430968761444091796875000000000f,0.10844798386096954345703125000000f,0.22396071255207061767578125000000f,-0.03587472066283226013183593750000f,0.69119983911514282226562500000000f,-1.19922935962677001953125000000000f,0.16399028897285461425781250000000f,0.40360116958618164062500000000000f,-0.04453425854444503784179687500000f,0.12574324011802673339843750000000f,-0.07040806859731674194335937500000f,-0.33312302827835083007812500000000f,-0.46522814035415649414062500000000f,0.46861860156059265136718750000000f,-0.12207924574613571166992187500000f,0.02479468286037445068359375000000f,0.18263392150402069091796875000000f,0.10688250511884689331054687500000f,-0.33302703499794006347656250000000f,0.36549505591392517089843750000000f,0.13099709153175354003906250000000f,0.02388023585081100463867187500000f,-0.34009841084480285644531250000000f,0.15225848555564880371093750000000f,0.09852330386638641357421875000000f,-0.18192341923713684082031250000000f,-0.02457975782454013824462890625000f,-0.21243764460086822509765625000000f,0.27738505601882934570312500000000f,0.01078205741941928863525390625000f,0.24750676751136779785156250000000f,0.37800717353820800781250000000000f,0.54098719358444213867187500000000f,-0.01922578737139701843261718750000f,0.02729460410773754119873046875000f,0.08304531127214431762695312500000f,0.31587418913841247558593750000000f,-0.01393098942935466766357421875000f,-0.08809705823659896850585937500000f,0.31645259261131286621093750000000f,0.58614939451217651367187500000000f,0.15118573606014251708984375000000f,-0.05278897285461425781250000000000f,-0.47020599246025085449218750000000f,0.01929615810513496398925781250000f,0.14939548075199127197265625000000f,0.35159301757812500000000000000000f,0.13663305342197418212890625000000f,-0.02405831776559352874755859375000f,0.24408979713916778564453125000000f,0.47428724169731140136718750000000f,0.13535919785499572753906250000000f,0.03027089685201644897460937500000f,0.67726451158523559570312500000000f,0.03267299756407737731933593750000f,0.06680510938167572021484375000000f,-0.22048404812812805175781250000000f,-0.07344702631235122680664062500000f,0.02509604766964912414550781250000f,0.12472622096538543701171875000000f,0.46580648422241210937500000000000f,0.00807494577020406723022460937500f,-0.01261950656771659851074218750000f,-0.18087661266326904296875000000000f,0.15811745822429656982421875000000f,0.07501403242349624633789062500000f,-0.02083905041217803955078125000000f,-0.12318035215139389038085937500000f,0.06191971153020858764648437500000f,-0.38823175430297851562500000000000f,-0.21126616001129150390625000000000f,-0.00971815548837184906005859375000f,-0.14543417096138000488281250000000f,-0.98099428415298461914062500000000f,-0.06850589811801910400390625000000f,0.06789653003215789794921875000000f,-0.42932340502738952636718750000000f,0.23666590452194213867187500000000f,-0.24670557677745819091796875000000f,0.07095197588205337524414062500000f,0.33109071850776672363281250000000f,0.05687753111124038696289062500000f,0.00669087888672947883605957031250f,0.32422977685928344726562500000000f,0.27380183339118957519531250000000f,-0.21931695938110351562500000000000f,-0.64708632230758666992187500000000f,0.07554332166910171508789062500000f,-0.21918295323848724365234375000000f,0.03839666023850440979003906250000f,0.20548027753829956054687500000000f,0.25808355212211608886718750000000f,0.11951679736375808715820312500000f,0.04747720807790756225585937500000f,-0.40949946641921997070312500000000f,0.20971167087554931640625000000000f,0.16291673481464385986328125000000f,0.37807703018188476562500000000000f,-0.24897933006286621093750000000000f,0.12361726909875869750976562500000f,0.00240987376309931278228759765625f,-0.66865599155426025390625000000000f,0.13036705553531646728515625000000f,-0.10082092136144638061523437500000f,-0.94527679681777954101562500000000f,0.05287041142582893371582031250000f,-0.25722122192382812500000000000000f,-0.36640575528144836425781250000000f,0.25125986337661743164062500000000f,-0.13155822455883026123046875000000f,0.38385772705078125000000000000000f,-0.42945218086242675781250000000000f,-0.53697144985198974609375000000000f,0.42892774939537048339843750000000f,0.46056562662124633789062500000000f,0.54367911815643310546875000000000f,-0.20063591003417968750000000000000f,0.04212312027812004089355468750000f,0.25346720218658447265625000000000f,0.24369281530380249023437500000000f,-0.17213472723960876464843750000000f,-0.15699097514152526855468750000000f,-0.11020944267511367797851562500000f,0.33970433473587036132812500000000f,-0.47505900263786315917968750000000f,-0.17021749913692474365234375000000f,1.93820071220397949218750000000000f,0.30909845232963562011718750000000f,-0.22586217522621154785156250000000f,0.23155599832534790039062500000000f,0.18218623101711273193359375000000f,0.47587886452674865722656250000000f,0.18469375371932983398437500000000f,0.27070242166519165039062500000000f,-0.26687455177307128906250000000000f,0.42161419987678527832031250000000f,0.01267775148153305053710937500000f,-0.04866033047437667846679687500000f,0.12477435171604156494140625000000f,-0.41354313492774963378906250000000f,0.34781628847122192382812500000000f,0.20473535358905792236328125000000f,0.23222956061363220214843750000000f,-0.06350475549697875976562500000000f,0.21713796257972717285156250000000f,0.11143215000629425048828125000000f,-0.02025304734706878662109375000000f,-0.21597066521644592285156250000000f,-0.35834437608718872070312500000000f,0.25176095962524414062500000000000f,0.04547819122672080993652343750000f,-0.25253909826278686523437500000000f,0.31132051348686218261718750000000f,0.54788249731063842773437500000000f,-0.07022985070943832397460937500000f,0.00323082436807453632354736328125f,0.28039002418518066406250000000000f,0.09531330317258834838867187500000f,-0.28295493125915527343750000000000f,-0.35525754094123840332031250000000f,0.18310904502868652343750000000000f,0.14003507792949676513671875000000f,0.00375343509949743747711181640625f,0.02338535897433757781982421875000f,0.37757006287574768066406250000000f,-0.29638382792472839355468750000000f,0.31357067823410034179687500000000f,-0.03106615878641605377197265625000f,-0.06263808906078338623046875000000f,-0.26997756958007812500000000000000f,-0.36676120758056640625000000000000f,1.31482791900634765625000000000000f,-0.26699182391166687011718750000000f,0.09809905290603637695312500000000f,0.10483068972826004028320312500000f,-0.15638868510723114013671875000000f,0.02468106709420680999755859375000f,-0.13360856473445892333984375000000f,-0.58492118120193481445312500000000f,0.10996058583259582519531250000000f,-0.29677885770797729492187500000000f,-0.05482940003275871276855468750000f,0.31105548143386840820312500000000f,0.03636876493692398071289062500000f,-0.29373502731323242187500000000000f,-0.71316123008728027343750000000000f,-0.17455990612506866455078125000000f,0.14303626120090484619140625000000f,1.05372142791748046875000000000000f,0.24207302927970886230468750000000f,-0.13462366163730621337890625000000f,0.16994173824787139892578125000000f,-0.06006146222352981567382812500000f,-0.23260995745658874511718750000000f,-0.27365633845329284667968750000000f,0.61862528324127197265625000000000f,0.46908143162727355957031250000000f,0.05482473596930503845214843750000f,-0.04934547469019889831542968750000f,-0.06643296778202056884765625000000f,0.03123788535594940185546875000000f,0.08196439594030380249023437500000f,0.45718291401863098144531250000000f,-0.16562800109386444091796875000000f,0.08079292625188827514648437500000f,0.04101812839508056640625000000000f,0.15211343765258789062500000000000f,0.13566346466541290283203125000000f,0.22851173579692840576171875000000f,-0.23832273483276367187500000000000f,0.16515606641769409179687500000000f,0.05485945194959640502929687500000f,0.24881401658058166503906250000000f,-0.09838184714317321777343750000000f,0.23483519256114959716796875000000f,-0.04960295930504798889160156250000f,-0.42938217520713806152343750000000f,-0.03643972054123878479003906250000f,-0.10948732495307922363281250000000f,-0.14745824038982391357421875000000f,0.12859715521335601806640625000000f,0.01799992285668849945068359375000f,0.21907700598239898681640625000000f,0.06304976344108581542968750000000f,-0.15710791945457458496093750000000f,0.05241895839571952819824218750000f,-0.26959887146949768066406250000000f,-0.03046256117522716522216796875000f,0.00982555840164422988891601562500f,0.13916759192943572998046875000000f,0.09851923584938049316406250000000f,0.02416572347283363342285156250000f,-0.23776030540466308593750000000000f,-0.21967220306396484375000000000000f,0.05305594578385353088378906250000f,0.14588396251201629638671875000000f,-0.08692887425422668457031250000000f,0.20253804326057434082031250000000f,0.08214972168207168579101562500000f,-0.22961533069610595703125000000000f,-0.33594211935997009277343750000000f,-0.35732015967369079589843750000000f,-0.04350839182734489440917968750000f,0.11602772772312164306640625000000f,0.00246675941161811351776123046875f,0.37423646450042724609375000000000f,0.17156964540481567382812500000000f,0.01674929633736610412597656250000f,0.31595605611801147460937500000000f,0.07456332445144653320312500000000f,0.11027957499027252197265625000000f,0.05616345256567001342773437500000f,-0.01267370209097862243652343750000f,0.18426850438117980957031250000000f,-0.00758542027324438095092773437500f,0.15390259027481079101562500000000f,-0.08744356781244277954101562500000f,-0.25043785572052001953125000000000f,0.44466093182563781738281250000000f,0.37400266528129577636718750000000f,0.30104005336761474609375000000000f,0.01296940259635448455810546875000f,0.18952408432960510253906250000000f,-0.28333640098571777343750000000000f,0.17961803078651428222656250000000f,-0.12758088111877441406250000000000f,-0.31732743978500366210937500000000f,0.15854610502719879150390625000000f,-0.25966137647628784179687500000000f,0.11387437582015991210937500000000f,0.20294028520584106445312500000000f,0.26591938734054565429687500000000f,0.06141389906406402587890625000000f,-0.12228735536336898803710937500000f,0.01544474717229604721069335937500f,-0.29568880796432495117187500000000f,0.08116018772125244140625000000000f,0.39957705140113830566406250000000f,0.34562647342681884765625000000000f,-0.20470921695232391357421875000000f,0.04510576650500297546386718750000f,-0.26022648811340332031250000000000f,-0.29597002267837524414062500000000f,0.13042046129703521728515625000000f,0.71840482950210571289062500000000f,0.87377822399139404296875000000000f,0.06806488335132598876953125000000f,-0.57622224092483520507812500000000f,0.17755866050720214843750000000000f,0.11529082059860229492187500000000f,0.35645854473114013671875000000000f,0.08051294833421707153320312500000f,0.22595104575157165527343750000000f,-0.00616358313709497451782226562500f,0.37818312644958496093750000000000f,-0.00696482369676232337951660156250f,-0.43509614467620849609375000000000f,-0.05726865306496620178222656250000f,0.53018349409103393554687500000000f,0.08041743189096450805664062500000f,-0.14561083912849426269531250000000f,-0.00757918879389762878417968750000f,-0.16493521630764007568359375000000f,-0.49788847565650939941406250000000f,0.28364428877830505371093750000000f,0.11382155120372772216796875000000f,-0.48851722478866577148437500000000f,0.05858336016535758972167968750000f,0.15791937708854675292968750000000f,0.41564178466796875000000000000000f,-0.14367021620273590087890625000000f,-0.01897467300295829772949218750000f,-0.08093802630901336669921875000000f,0.06402985751628875732421875000000f,0.01705140620470046997070312500000f,-0.28619143366813659667968750000000f,-0.00511812791228294372558593750000f,0.45946478843688964843750000000000f,-0.45595732331275939941406250000000f,-0.14183861017227172851562500000000f,-0.36812406778335571289062500000000f,-0.08923475444316864013671875000000f,-0.04315629601478576660156250000000f,0.05434782430529594421386718750000f,0.08963931351900100708007812500000f,-0.81591385602951049804687500000000f,0.12156058847904205322265625000000f,1.15538191795349121093750000000000f,-0.00152946088928729295730590820312f,-0.28371232748031616210937500000000f,0.22821947932243347167968750000000f,-0.45085841417312622070312500000000f,-0.34367841482162475585937500000000f,1.34571444988250732421875000000000f,0.20147535204887390136718750000000f,-0.01852357387542724609375000000000f,0.00524302572011947631835937500000f,-1.39737963676452636718750000000000f,-1.15996026992797851562500000000000f,-0.40237110853195190429687500000000f,-0.16858169436454772949218750000000f,0.78031212091445922851562500000000f,0.25888553261756896972656250000000f,0.16244767606258392333984375000000f,-0.17625698447227478027343750000000f,-0.27955633401870727539062500000000f,-0.52901411056518554687500000000000f,0.47664767503738403320312500000000f,0.14127011597156524658203125000000f,0.32107535004615783691406250000000f,0.02879090048372745513916015625000f,-0.58347004652023315429687500000000f,-0.20122417807579040527343750000000f,-0.14995886385440826416015625000000f,-0.48582705855369567871093750000000f,1.26070797443389892578125000000000f,0.95823860168457031250000000000000f,0.83485782146453857421875000000000f,0.29174655675888061523437500000000f,0.14879269897937774658203125000000f,-0.46780490875244140625000000000000f,1.98271477222442626953125000000000f,0.11315529048442840576171875000000f,0.15364755690097808837890625000000f,-0.01041341200470924377441406250000f,-0.23863546550273895263671875000000f,0.01090842299163341522216796875000f,0.03998589888215065002441406250000f,0.47768589854240417480468750000000f,0.02807257883250713348388671875000f,-0.79743808507919311523437500000000f,-0.19135887920856475830078125000000f,-1.30350315570831298828125000000000f,0.33202251791954040527343750000000f,0.71736609935760498046875000000000f,-0.09302635490894317626953125000000f,0.95541614294052124023437500000000f,0.81258434057235717773437500000000f,-0.19769847393035888671875000000000f,0.03876075893640518188476562500000f,1.24313032627105712890625000000000f,1.06649816036224365234375000000000f,-0.10892729461193084716796875000000f,0.08047025650739669799804687500000f,-0.35431879758834838867187500000000f,0.24443303048610687255859375000000f,0.91711485385894775390625000000000f,-0.07153135538101196289062500000000f,-0.02079470083117485046386718750000f,-0.53785777091979980468750000000000f,-0.29165902733802795410156250000000f,-0.02031594328582286834716796875000f,-0.27858713269233703613281250000000f,0.19827069342136383056640625000000f,-0.36242637038230895996093750000000f,-0.22567452490329742431640625000000f,0.14577056467533111572265625000000f,-0.48697897791862487792968750000000f,-0.36101269721984863281250000000000f,-0.61291193962097167968750000000000f,-0.26676332950592041015625000000000f,0.17477452754974365234375000000000f,-0.39430129528045654296875000000000f,-0.20764926075935363769531250000000f,-0.50196981430053710937500000000000f,-0.19885113835334777832031250000000f,-0.11040341854095458984375000000000f,0.36528244614601135253906250000000f,0.28876671195030212402343750000000f,0.76819688081741333007812500000000f,-0.00075954583007842302322387695312f,-0.22888684272766113281250000000000f,0.16792026162147521972656250000000f,0.09139660000801086425781250000000f,0.19921530783176422119140625000000f,0.00153783429414033889770507812500f,0.06523101776838302612304687500000f,1.27734804153442382812500000000000f,0.29572236537933349609375000000000f,-0.29395246505737304687500000000000f,0.10985749214887619018554687500000f,0.11057554185390472412109375000000f,0.53525739908218383789062500000000f,-0.81440079212188720703125000000000f,-0.00702093681320548057556152343750f,0.06771185249090194702148437500000f,0.37125948071479797363281250000000f,1.31817305088043212890625000000000f,0.21118777990341186523437500000000f,-0.22798694670200347900390625000000f,1.29264616966247558593750000000000f,0.16555014252662658691406250000000f,-0.19370369613170623779296875000000f,-0.18736577033996582031250000000000f,-0.31356939673423767089843750000000f,0.66893708705902099609375000000000f,0.47530424594879150390625000000000f,0.30851808190345764160156250000000f,-0.11157069355249404907226562500000f,0.07484587281942367553710937500000f,0.82093530893325805664062500000000f,0.12858372926712036132812500000000f,-0.51866888999938964843750000000000f,1.20834076404571533203125000000000f,-0.48211163282394409179687500000000f,-0.32928302884101867675781250000000f,-0.29153701663017272949218750000000f,0.84322690963745117187500000000000f,0.04170688986778259277343750000000f,-0.26025179028511047363281250000000f,-0.43646690249443054199218750000000f,0.21290390193462371826171875000000f,0.05317528545856475830078125000000f,0.19039915502071380615234375000000f,-0.21042536199092864990234375000000f,-0.46736928820610046386718750000000f,0.10644301027059555053710937500000f,-0.52747637033462524414062500000000f,-0.38191360235214233398437500000000f,0.08543989062309265136718750000000f,-0.20559050142765045166015625000000f,0.19256240129470825195312500000000f,-0.13418890535831451416015625000000f,-0.15688042342662811279296875000000f,0.03991080448031425476074218750000f,0.17213611304759979248046875000000f,-0.16258266568183898925781250000000f,-0.33351966738700866699218750000000f,-0.20248572528362274169921875000000f,0.08417700231075286865234375000000f,-0.21544356644153594970703125000000f,-0.04704077541828155517578125000000f,-0.19710195064544677734375000000000f,0.93563491106033325195312500000000f,-0.20365914702415466308593750000000f,-0.54232215881347656250000000000000f,0.04617030546069145202636718750000f,-0.12514357268810272216796875000000f,-0.08784205466508865356445312500000f,0.60042983293533325195312500000000f,-0.12530560791492462158203125000000f,-0.01493529696017503738403320312500f,0.16427448391914367675781250000000f,-0.03869369626045227050781250000000f,-0.00091780629009008407592773437500f,0.29385185241699218750000000000000f,0.08421690762042999267578125000000f,-0.22401663661003112792968750000000f,-0.32141959667205810546875000000000f,1.95732033252716064453125000000000f,0.83924889564514160156250000000000f,0.06583353132009506225585937500000f,-0.54089707136154174804687500000000f,-0.46403658390045166015625000000000f,0.10873581469058990478515625000000f,0.36668574810028076171875000000000f,-0.25431379675865173339843750000000f,0.02106538042426109313964843750000f,0.63302034139633178710937500000000f,0.75632965564727783203125000000000f,-0.64297127723693847656250000000000f,-0.83540934324264526367187500000000f,-0.68059360980987548828125000000000f,-0.45210206508636474609375000000000f,0.17197151482105255126953125000000f,-0.34929177165031433105468750000000f,-0.06976202875375747680664062500000f,1.16310679912567138671875000000000f,0.05123398452997207641601562500000f,-0.18019111454486846923828125000000f,-0.09720145910978317260742187500000f,-0.01458911038935184478759765625000f,-0.45650956034660339355468750000000f,0.20992577075958251953125000000000f,0.99104261398315429687500000000000f,1.62576770782470703125000000000000f,-0.08383448421955108642578125000000f,0.44661122560501098632812500000000f,1.06299495697021484375000000000000f,-0.13941390812397003173828125000000f,0.71988046169281005859375000000000f,-1.00806403160095214843750000000000f,-0.12924602627754211425781250000000f,-0.38965314626693725585937500000000f,0.20740546286106109619140625000000f,-0.14958477020263671875000000000000f,-0.20498242974281311035156250000000f,0.37153911590576171875000000000000f,-0.15490348637104034423828125000000f,0.14221061766147613525390625000000f,-0.33878633379936218261718750000000f,0.00538311991840600967407226562500f,0.48310682177543640136718750000000f,-0.00184415688272565603256225585938f,-0.20045441389083862304687500000000f,0.31089571118354797363281250000000f,0.04073162004351615905761718750000f,-0.29971629381179809570312500000000f,0.06733268499374389648437500000000f,-0.27804386615753173828125000000000f,-0.47919571399688720703125000000000f,-0.04855638742446899414062500000000f,1.24913251399993896484375000000000f,0.74086201190948486328125000000000f,-0.89207231998443603515625000000000f,0.06001426279544830322265625000000f,0.10346823185682296752929687500000f,0.06801307201385498046875000000000f,0.26331400871276855468750000000000f,0.08863220363855361938476562500000f,-0.58791536092758178710937500000000f,-0.28214398026466369628906250000000f,-0.98536860942840576171875000000000f,-0.32175433635711669921875000000000f,-0.45188966393470764160156250000000f,-0.49123644828796386718750000000000f,0.17593942582607269287109375000000f,0.02375554293394088745117187500000f,0.14785416424274444580078125000000f,0.05465942248702049255371093750000f,-0.09460549801588058471679687500000f,0.12972864508628845214843750000000f,0.23821973800659179687500000000000f,-1.07485628128051757812500000000000f,0.01150622218847274780273437500000f,-0.18883733451366424560546875000000f,-0.18768346309661865234375000000000f,-0.21628293395042419433593750000000f,-0.55437910556793212890625000000000f,-0.05177043378353118896484375000000f,-0.37474796175956726074218750000000f,0.40548965334892272949218750000000f,-0.61864101886749267578125000000000f,-0.09509378671646118164062500000000f,-0.17395448684692382812500000000000f,-0.29009938240051269531250000000000f,-0.90086215734481811523437500000000f,-0.06402485072612762451171875000000f,0.40051716566085815429687500000000f,0.16054619848728179931640625000000f,0.54622226953506469726562500000000f,-0.04000166431069374084472656250000f,-0.19748088717460632324218750000000f,-0.59437292814254760742187500000000f,-0.55460292100906372070312500000000f,0.16371557116508483886718750000000f,0.10577451437711715698242187500000f,0.35585960745811462402343750000000f,-0.14142476022243499755859375000000f,1.13737404346466064453125000000000f,-0.17946907877922058105468750000000f,0.09455097466707229614257812500000f,-0.03554360568523406982421875000000f,0.43357229232788085937500000000000f,0.07447452843189239501953125000000f,0.11153043806552886962890625000000f,0.58733898401260375976562500000000f,-0.16694855690002441406250000000000f,0.55370920896530151367187500000000f,-0.20312106609344482421875000000000f,-0.22882688045501708984375000000000f,-0.01535142771899700164794921875000f,1.17627477645874023437500000000000f,-0.14811637997627258300781250000000f,0.02697979845106601715087890625000f,0.39024099707603454589843750000000f,-0.26551118493080139160156250000000f,-0.30047553777694702148437500000000f,-1.56177508831024169921875000000000f,0.10337851196527481079101562500000f,-0.01935673691332340240478515625000f,0.03751307725906372070312500000000f,-0.87017548084259033203125000000000f,-0.34169730544090270996093750000000f,-0.01559860538691282272338867187500f,-0.26750910282135009765625000000000f,0.65674281120300292968750000000000f,-0.85190474987030029296875000000000f,-0.09746538102626800537109375000000f,-0.22942326962947845458984375000000f,0.12317368388175964355468750000000f,2.00443840026855468750000000000000f,0.33993285894393920898437500000000f,-0.14807364344596862792968750000000f,0.32609060406684875488281250000000f,-0.46493777632713317871093750000000f,-0.34479796886444091796875000000000f,-0.36915174126625061035156250000000f,-0.06666962057352066040039062500000f,-0.27098265290260314941406250000000f,0.10694965720176696777343750000000f,-0.85546404123306274414062500000000f,0.40699926018714904785156250000000f,0.44225224852561950683593750000000f,-0.84151434898376464843750000000000f,0.39095962047576904296875000000000f,-0.29498443007469177246093750000000f,0.35080605745315551757812500000000f,-0.47905766963958740234375000000000f,-0.48404473066329956054687500000000f,1.31560564041137695312500000000000f,0.20890891551971435546875000000000f,0.56501489877700805664062500000000f,-1.20200204849243164062500000000000f,0.13318410515785217285156250000000f,-0.45840322971343994140625000000000f,-0.50009757280349731445312500000000f,-0.35186761617660522460937500000000f,-0.19587132334709167480468750000000f,-0.03033575974404811859130859375000f,-0.94446969032287597656250000000000f,0.12969721853733062744140625000000f,-0.07544522732496261596679687500000f,1.69460248947143554687500000000000f,0.36336281895637512207031250000000f,0.35000899434089660644531250000000f,0.22865316271781921386718750000000f,1.47231197357177734375000000000000f,0.06138236448168754577636718750000f,-0.35745286941528320312500000000000f,-0.86502009630203247070312500000000f,0.17072799801826477050781250000000f,-0.09180036187171936035156250000000f,0.71231836080551147460937500000000f,0.67177826166152954101562500000000f,-0.44425663352012634277343750000000f,0.22041237354278564453125000000000f,1.04328298568725585937500000000000f,1.30634081363677978515625000000000f,0.14172622561454772949218750000000f,-0.63272428512573242187500000000000f,-0.43246626853942871093750000000000f,-0.02834688127040863037109375000000f,0.07125618308782577514648437500000f,-0.24586839973926544189453125000000f,-0.87165445089340209960937500000000f,0.81420159339904785156250000000000f,-0.29217737913131713867187500000000f,1.20421457290649414062500000000000f,-0.00565730547532439231872558593750f,-0.33930543065071105957031250000000f,-0.07005895674228668212890625000000f,-0.12331416457891464233398437500000f,-0.12520308792591094970703125000000f,-0.15112163126468658447265625000000f,-0.49046853184700012207031250000000f,0.15113894641399383544921875000000f,0.20831802487373352050781250000000f,-0.58851051330566406250000000000000f,-0.42820063233375549316406250000000f,-0.08873780816793441772460937500000f,0.76250624656677246093750000000000f,-0.30731812119483947753906250000000f,-0.55972850322723388671875000000000f,-0.20535571873188018798828125000000f,-0.08504158258438110351562500000000f,-0.33578726649284362792968750000000f,-0.22657066583633422851562500000000f,-0.55616921186447143554687500000000f,-0.07746259123086929321289062500000f,-0.46528109908103942871093750000000f,-0.58204519748687744140625000000000f,1.11452138423919677734375000000000f,0.10464443266391754150390625000000f,-0.20324388146400451660156250000000f,-0.75226354598999023437500000000000f,-0.64539402723312377929687500000000f,0.33368828892707824707031250000000f,-0.41731041669845581054687500000000f,-0.10642844438552856445312500000000f,1.86467683315277099609375000000000f,-0.04987160116434097290039062500000f,0.01602230966091156005859375000000f,1.40788745880126953125000000000000f,-0.70024275779724121093750000000000f,-0.36714753508567810058593750000000f,-1.27733385562896728515625000000000f,-0.17217636108398437500000000000000f,0.15804325044155120849609375000000f,0.15253305435180664062500000000000f,0.03291966766119003295898437500000f,-0.21836736798286437988281250000000f,0.06748639047145843505859375000000f,0.29275611042976379394531250000000f,0.20705112814903259277343750000000f,0.04145118221640586853027343750000f,0.13304424285888671875000000000000f,-0.16620433330535888671875000000000f,-0.10036935657262802124023437500000f,-1.02659809589385986328125000000000f,-0.38821256160736083984375000000000f,-0.12609925866127014160156250000000f,-0.08602106571197509765625000000000f,-0.45653042197227478027343750000000f,0.65512484312057495117187500000000f,-0.03463421389460563659667968750000f,-1.08660006523132324218750000000000f,-0.12888953089714050292968750000000f,-0.47081959247589111328125000000000f,-0.63429540395736694335937500000000f,-0.85520720481872558593750000000000f,0.81820344924926757812500000000000f,0.04780570045113563537597656250000f,1.08584833145141601562500000000000f,-0.07132069766521453857421875000000f,-0.16463771462440490722656250000000f,0.10554238408803939819335937500000f,0.65649014711380004882812500000000f,-0.74394869804382324218750000000000f,0.59180271625518798828125000000000f,-0.35858717560768127441406250000000f,-0.15205758810043334960937500000000f,-0.28992414474487304687500000000000f,-0.26589334011077880859375000000000f,-0.82018542289733886718750000000000f,-0.13072293996810913085937500000000f,0.59212261438369750976562500000000f,-0.00856572389602661132812500000000f,1.07131016254425048828125000000000f,0.71481162309646606445312500000000f,0.19329375028610229492187500000000f,-0.24389384686946868896484375000000f,0.13250267505645751953125000000000f,-0.20194080471992492675781250000000f,0.04125440120697021484375000000000f,-0.09065578132867813110351562500000f,-0.33543053269386291503906250000000f,0.33021393418312072753906250000000f,-0.39084017276763916015625000000000f,0.11392769217491149902343750000000f,-0.57944965362548828125000000000000f,-0.38650602102279663085937500000000f,0.31882250308990478515625000000000f,0.99178123474121093750000000000000f,0.40466848015785217285156250000000f,-0.29787638783454895019531250000000f,-0.11620660871267318725585937500000f,-0.90571498870849609375000000000000f,-0.18848200142383575439453125000000f,0.10517263412475585937500000000000f,-0.06390684843063354492187500000000f,0.17935495078563690185546875000000f,-0.18011496961116790771484375000000f,0.10800229012966156005859375000000f,-0.20969159901142120361328125000000f,-0.12228595465421676635742187500000f,0.01664699241518974304199218750000f,0.66362214088439941406250000000000f,-0.30165240168571472167968750000000f,-0.33350023627281188964843750000000f,0.66524142026901245117187500000000f,-0.48452189564704895019531250000000f,0.04964987933635711669921875000000f,-0.37229114770889282226562500000000f,-0.80443638563156127929687500000000f,0.02458649687469005584716796875000f,-0.47501188516616821289062500000000f,-0.34412002563476562500000000000000f,-0.35427141189575195312500000000000f,-0.02461649663746356964111328125000f,-1.03758549690246582031250000000000f,0.17411993443965911865234375000000f,0.25177052617073059082031250000000f,-0.02624345943331718444824218750000f,0.02736128866672515869140625000000f,0.14207698404788970947265625000000f,0.32829269766807556152343750000000f,-0.29223144054412841796875000000000f,0.04387770593166351318359375000000f,-0.07781249284744262695312500000000f,0.08730783313512802124023437500000f,0.02249902859330177307128906250000f,-0.40528225898742675781250000000000f,-0.14349624514579772949218750000000f,0.53779256343841552734375000000000f,0.88692522048950195312500000000000f,0.26878580451011657714843750000000f,0.12942168116569519042968750000000f,-0.12523207068443298339843750000000f,-0.41207626461982727050781250000000f,-0.20500676333904266357421875000000f,-0.07299234718084335327148437500000f,0.45422571897506713867187500000000f,0.13569885492324829101562500000000f,-0.07271288335323333740234375000000f,0.04618997499346733093261718750000f,0.18115697801113128662109375000000f,-0.18470545113086700439453125000000f,-0.39413425326347351074218750000000f,0.69303768873214721679687500000000f,-1.22341442108154296875000000000000f,0.85781776905059814453125000000000f,0.00592363579198718070983886718750f,-0.43679869174957275390625000000000f,0.04365310817956924438476562500000f,0.09774126857519149780273437500000f,0.06182387843728065490722656250000f,0.23146545886993408203125000000000f,0.10225258022546768188476562500000f,-1.02316558361053466796875000000000f,1.20372188091278076171875000000000f,1.83582842350006103515625000000000f,1.05961060523986816406250000000000f,-0.42962613701820373535156250000000f,-0.34500193595886230468750000000000f,0.18814352154731750488281250000000f,1.03357064723968505859375000000000f,-0.59530502557754516601562500000000f,0.95842629671096801757812500000000f,0.65810996294021606445312500000000f,0.28554809093475341796875000000000f,-0.65841937065124511718750000000000f,-0.70453715324401855468750000000000f,0.48089715838432312011718750000000f,0.91311258077621459960937500000000f,1.18199324607849121093750000000000f,1.38227665424346923828125000000000f,-0.33131468296051025390625000000000f,1.10806453227996826171875000000000f,0.76114624738693237304687500000000f,1.30549120903015136718750000000000f,1.36035716533660888671875000000000f,0.81136631965637207031250000000000f,1.84767484664916992187500000000000f,0.13988281786441802978515625000000f,-1.32868111133575439453125000000000f,-0.42771050333976745605468750000000f,-0.47486168146133422851562500000000f,0.99941253662109375000000000000000f,-0.58170688152313232421875000000000f,0.99442726373672485351562500000000f,1.68810856342315673828125000000000f,1.13927364349365234375000000000000f,0.07953102141618728637695312500000f,1.20358920097351074218750000000000f,0.29752475023269653320312500000000f,-0.23215322196483612060546875000000f,2.32712340354919433593750000000000f,1.40860199928283691406250000000000f,1.26605713367462158203125000000000f,0.86723721027374267578125000000000f,0.86349821090698242187500000000000f,-0.21231408417224884033203125000000f,1.97143352031707763671875000000000f,-0.64291912317276000976562500000000f,1.02494776248931884765625000000000f,-0.57842218875885009765625000000000f,-0.62823992967605590820312500000000f,0.48654890060424804687500000000000f,-0.04577904939651489257812500000000f,-0.80661475658416748046875000000000f,1.11001563072204589843750000000000f,-0.29506036639213562011718750000000f,0.61112940311431884765625000000000f,-0.10158415138721466064453125000000f,1.46562480926513671875000000000000f,-0.51075941324234008789062500000000f,-1.80253994464874267578125000000000f,-1.29023742675781250000000000000000f,-0.21390745043754577636718750000000f,1.37081456184387207031250000000000f,-0.25012537837028503417968750000000f,-0.34704443812370300292968750000000f,-1.19840848445892333984375000000000f,-0.79806780815124511718750000000000f,0.51264625787734985351562500000000f,-0.94598257541656494140625000000000f,1.06759262084960937500000000000000f,1.02648723125457763671875000000000f,-0.53010582923889160156250000000000f,0.51588255167007446289062500000000f,0.08231467008590698242187500000000f,-0.23877230286598205566406250000000f,1.25892651081085205078125000000000f,-0.50864309072494506835937500000000f,-0.26462617516517639160156250000000f,-0.27159976959228515625000000000000f,0.93281972408294677734375000000000f,-0.59581446647644042968750000000000f,1.04450130462646484375000000000000f,0.87896579504013061523437500000000f,-0.78636968135833740234375000000000f,-0.82610279321670532226562500000000f,0.29073622822761535644531250000000f,0.15725630521774291992187500000000f,0.89057928323745727539062500000000f,0.71233791112899780273437500000000f,1.86675143241882324218750000000000f,-0.34457498788833618164062500000000f,-0.37431451678276062011718750000000f,1.40721356868743896484375000000000f,-0.33439919352531433105468750000000f,1.47921216487884521484375000000000f,1.36269533634185791015625000000000f,0.75134050846099853515625000000000f,-0.61107558012008666992187500000000f,1.56669914722442626953125000000000f,1.10974645614624023437500000000000f,0.88857513666152954101562500000000f,-0.97595536708831787109375000000000f,-0.04255175217986106872558593750000f,-0.33504134416580200195312500000000f,-0.55696654319763183593750000000000f,-1.26676177978515625000000000000000f,0.24421906471252441406250000000000f,-1.06865239143371582031250000000000f,-0.61760735511779785156250000000000f,1.03675687313079833984375000000000f,0.85455822944641113281250000000000f,-1.61521768569946289062500000000000f,1.33748543262481689453125000000000f,1.23812031745910644531250000000000f,0.67773395776748657226562500000000f,0.90572685003280639648437500000000f,1.45169174671173095703125000000000f,0.27889046072959899902343750000000f,2.92942857742309570312500000000000f,-0.47202685475349426269531250000000f,-0.46842896938323974609375000000000f,-1.67139136791229248046875000000000f,1.30449867248535156250000000000000f,-0.43969357013702392578125000000000f,2.44450902938842773437500000000000f,1.04508388042449951171875000000000f,-0.33878225088119506835937500000000f,1.29994118213653564453125000000000f,-0.27532544732093811035156250000000f,-0.75813800096511840820312500000000f,1.25205695629119873046875000000000f,2.37984085083007812500000000000000f,-0.59737390279769897460937500000000f,-0.70673990249633789062500000000000f,0.03909544646739959716796875000000f,0.56208115816116333007812500000000f,-0.65182191133499145507812500000000f,-0.82520020008087158203125000000000f,0.82729095220565795898437500000000f,1.20691156387329101562500000000000f,-0.71247375011444091796875000000000f,-0.44254550337791442871093750000000f,-0.08720167726278305053710937500000f,-0.49734240770339965820312500000000f,1.25953245162963867187500000000000f,0.95139050483703613281250000000000f,-0.91008543968200683593750000000000f,-0.93762820959091186523437500000000f,-0.51901257038116455078125000000000f,-0.79218250513076782226562500000000f,1.53555011749267578125000000000000f,1.22403538227081298828125000000000f,-0.59156543016433715820312500000000f,1.28165531158447265625000000000000f,-0.04920496419072151184082031250000f,0.78271019458770751953125000000000f,1.04013347625732421875000000000000f,1.35273396968841552734375000000000f,1.46522402763366699218750000000000f,0.01189326681196689605712890625000f,0.46812623739242553710937500000000f,-1.15960741043090820312500000000000f,-0.44725725054740905761718750000000f,-0.03330407664179801940917968750000f,0.00269385217688977718353271484375f,1.13039362430572509765625000000000f,-0.27824711799621582031250000000000f,-0.32435223460197448730468750000000f,1.06868124008178710937500000000000f,1.18754029273986816406250000000000f,1.99449968338012695312500000000000f,1.95342624187469482421875000000000f,0.69918113946914672851562500000000f,0.43118664622306823730468750000000f,2.49135184288024902343750000000000f,1.73571777343750000000000000000000f,1.70945739746093750000000000000000f,2.17419791221618652343750000000000f,1.13853621482849121093750000000000f,-0.21508276462554931640625000000000f,1.61905872821807861328125000000000f,-1.11006915569305419921875000000000f,0.07970381528139114379882812500000f,-0.36821860074996948242187500000000f,1.77046358585357666015625000000000f,-0.33977621793746948242187500000000f,2.47878170013427734375000000000000f,1.52013611793518066406250000000000f,0.37473672628402709960937500000000f,-0.66269212961196899414062500000000f,-0.57066291570663452148437500000000f,-0.34025207161903381347656250000000f,-1.79714107513427734375000000000000f,0.91144335269927978515625000000000f,-1.40548348426818847656250000000000f,1.33069562911987304687500000000000f,-0.14504446089267730712890625000000f,-0.17594443261623382568359375000000f,0.37266162037849426269531250000000f,1.08165371417999267578125000000000f,-0.55385446548461914062500000000000f,0.93995696306228637695312500000000f,0.23302662372589111328125000000000f,1.23545384407043457031250000000000f,-0.34715810418128967285156250000000f,-0.01603206247091293334960937500000f,-0.16946810483932495117187500000000f,1.16920459270477294921875000000000f,0.96838551759719848632812500000000f,1.18640589714050292968750000000000f,1.56892645359039306640625000000000f,-0.37455621361732482910156250000000f,-1.26736783981323242187500000000000f,-0.64989024400711059570312500000000f,-0.88944309949874877929687500000000f,1.99618840217590332031250000000000f,0.89941781759262084960937500000000f,1.14791369438171386718750000000000f,-0.26693809032440185546875000000000f,1.26977741718292236328125000000000f,1.65493559837341308593750000000000f,1.63609445095062255859375000000000f,-1.33800244331359863281250000000000f,1.50966298580169677734375000000000f,2.08918094635009765625000000000000f,-0.87989747524261474609375000000000f,-0.32454359531402587890625000000000f,-0.01272256113588809967041015625000f,2.56520342826843261718750000000000f,0.22048425674438476562500000000000f,0.02214562334120273590087890625000f,1.45317018032073974609375000000000f,1.04631757736206054687500000000000f,1.44824600219726562500000000000000f,1.56358182430267333984375000000000f,0.99364769458770751953125000000000f,0.89017039537429809570312500000000f,1.49873518943786621093750000000000f,-0.43910706043243408203125000000000f,-0.74494791030883789062500000000000f,1.80962562561035156250000000000000f,1.46262645721435546875000000000000f,-0.39328908920288085937500000000000f,1.26965534687042236328125000000000f,2.91352868080139160156250000000000f,1.03603601455688476562500000000000f,1.27799081802368164062500000000000f,1.45938658714294433593750000000000f,-0.88771176338195800781250000000000f,-1.44332623481750488281250000000000f,2.85737133026123046875000000000000f,1.39423465728759765625000000000000f,-1.06035983562469482421875000000000f,-1.97753238677978515625000000000000f,0.12414816766977310180664062500000f,-0.53412729501724243164062500000000f,-0.35491606593132019042968750000000f,2.72458243370056152343750000000000f,1.96306025981903076171875000000000f,0.90373498201370239257812500000000f,-0.45854187011718750000000000000000f,1.32098758220672607421875000000000f,-0.13753886520862579345703125000000f,-0.14181156456470489501953125000000f,-0.71606260538101196289062500000000f,1.45326554775238037109375000000000f,-0.76139014959335327148437500000000f,-0.41205850243568420410156250000000f,1.52518737316131591796875000000000f,1.08106625080108642578125000000000f,0.65039426088333129882812500000000f,-0.17775222659111022949218750000000f,-0.17306426167488098144531250000000f,-0.98873615264892578125000000000000f,-0.46562904119491577148437500000000f,1.21113777160644531250000000000000f,0.43991222977638244628906250000000f,0.74533212184906005859375000000000f,1.60686790943145751953125000000000f,1.52351045608520507812500000000000f,-0.51378208398818969726562500000000f,0.58996701240539550781250000000000f,0.24234919250011444091796875000000f,0.96692723035812377929687500000000f,-0.41126036643981933593750000000000f,1.17699015140533447265625000000000f,0.24620950222015380859375000000000f,-0.42044824361801147460937500000000f,-1.45875394344329833984375000000000f,-0.70216196775436401367187500000000f,-0.38610610365867614746093750000000f,-0.14212357997894287109375000000000f,-0.29332470893859863281250000000000f,-0.10322400927543640136718750000000f,1.40222978591918945312500000000000f,-0.78472626209259033203125000000000f,-0.55423259735107421875000000000000f,0.30437266826629638671875000000000f,-0.66034710407257080078125000000000f,-0.73381048440933227539062500000000f,-1.13761472702026367187500000000000f,0.15049672126770019531250000000000f,-0.83821058273315429687500000000000f,-0.73297369480133056640625000000000f,0.80842673778533935546875000000000f,-0.85224306583404541015625000000000f,1.13437998294830322265625000000000f,-0.93391698598861694335937500000000f,1.89891529083251953125000000000000f,0.88003581762313842773437500000000f,-0.71495246887207031250000000000000f,-0.72616863250732421875000000000000f,0.25270310044288635253906250000000f,-0.61475223302841186523437500000000f,-0.32494640350341796875000000000000f,0.10240075737237930297851562500000f,-2.24470853805541992187500000000000f,0.52993184328079223632812500000000f,1.13028109073638916015625000000000f,1.80327522754669189453125000000000f,-0.35338041186332702636718750000000f,-0.33655124902725219726562500000000f,1.51512324810028076171875000000000f,-0.57425338029861450195312500000000f,1.59072411060333251953125000000000f,-0.16506753861904144287109375000000f,0.48761901259422302246093750000000f,0.06792161613702774047851562500000f,1.41202306747436523437500000000000f,-0.98417913913726806640625000000000f,1.57615399360656738281250000000000f,0.32544690370559692382812500000000f,1.74104547500610351562500000000000f,-0.63165557384490966796875000000000f,0.63588947057723999023437500000000f,1.09475147724151611328125000000000f,1.82609951496124267578125000000000f,-1.11178696155548095703125000000000f,-0.60217195749282836914062500000000f,-0.47931870818138122558593750000000f,0.68525362014770507812500000000000f,-1.47704100608825683593750000000000f,0.57776987552642822265625000000000f,1.49339854717254638671875000000000f,1.69040858745574951171875000000000f,0.16599917411804199218750000000000f,0.08098080009222030639648437500000f,1.32091164588928222656250000000000f,0.07797380536794662475585937500000f,2.46341419219970703125000000000000f,0.58234918117523193359375000000000f,-0.33468914031982421875000000000000f,-0.24822829663753509521484375000000f,1.54620206356048583984375000000000f,-0.38017007708549499511718750000000f,-0.24894893169403076171875000000000f,-0.19318288564682006835937500000000f,-0.05578476935625076293945312500000f,-0.44557821750640869140625000000000f,1.39858818054199218750000000000000f,1.53440499305725097656250000000000f,-0.33165368437767028808593750000000f,-0.65861558914184570312500000000000f,2.31822824478149414062500000000000f,-0.40042796730995178222656250000000f,-1.26058697700500488281250000000000f,-0.24748519062995910644531250000000f,3.12355709075927734375000000000000f,-0.53647482395172119140625000000000f,1.60141026973724365234375000000000f,-0.28474166989326477050781250000000f,0.65832525491714477539062500000000f,-0.74215596914291381835937500000000f,0.98409426212310791015625000000000f,-0.46735665202140808105468750000000f,1.66482782363891601562500000000000f,-0.06368430703878402709960937500000f,1.14577865600585937500000000000000f,1.90775263309478759765625000000000f,-0.44773709774017333984375000000000f,3.20596408843994140625000000000000f,0.15274588763713836669921875000000f,-1.29652631282806396484375000000000f,1.54631793498992919921875000000000f,-0.36847072839736938476562500000000f,1.56780815124511718750000000000000f,0.53696066141128540039062500000000f,-0.15686824917793273925781250000000f,-0.63626867532730102539062500000000f,-0.36616039276123046875000000000000f,0.78467094898223876953125000000000f,1.47565054893493652343750000000000f,1.26190423965454101562500000000000f,1.50960612297058105468750000000000f,0.10418512672185897827148437500000f,-0.36095646023750305175781250000000f,1.17800796031951904296875000000000f,1.49225831031799316406250000000000f,1.07141602039337158203125000000000f,-0.21938169002532958984375000000000f,1.12583398818969726562500000000000f,0.35437625646591186523437500000000f,-0.06396319717168807983398437500000f,2.25126338005065917968750000000000f,-0.90476548671722412109375000000000f,-0.85982096195220947265625000000000f,0.08163164556026458740234375000000f,2.59528779983520507812500000000000f,-1.01569139957427978515625000000000f,1.68417704105377197265625000000000f,2.84700393676757812500000000000000f,2.09316468238830566406250000000000f,-0.13260008394718170166015625000000f,2.61884522438049316406250000000000f,2.12748336791992187500000000000000f,0.35966417193412780761718750000000f,1.44334316253662109375000000000000f,0.82167661190032958984375000000000f,-0.32892352342605590820312500000000f,-0.10019810497760772705078125000000f,2.04705071449279785156250000000000f,-1.27538478374481201171875000000000f,2.93444156646728515625000000000000f,1.18376326560974121093750000000000f,1.74415075778961181640625000000000f,-0.45927444100379943847656250000000f,-0.42125844955444335937500000000000f,-0.15958437323570251464843750000000f,1.59289968013763427734375000000000f,2.24784016609191894531250000000000f,1.55869293212890625000000000000000f,1.03755927085876464843750000000000f,1.25645577907562255859375000000000f,-0.06346602737903594970703125000000f,0.18156194686889648437500000000000f,1.51603519916534423828125000000000f,1.10127329826354980468750000000000f,1.83114552497863769531250000000000f,-1.12823724746704101562500000000000f,-0.78699856996536254882812500000000f,-0.68518310785293579101562500000000f,1.37142014503479003906250000000000f,2.23707389831542968750000000000000f,1.17912077903747558593750000000000f,1.75275468826293945312500000000000f,-1.40375840663909912109375000000000f,1.38369977474212646484375000000000f,-0.05218646302819252014160156250000f,0.36734914779663085937500000000000f,-0.30141755938529968261718750000000f,-0.35295361280441284179687500000000f,1.11615252494812011718750000000000f,-0.05680588632822036743164062500000f,1.12899327278137207031250000000000f,-0.43239438533782958984375000000000f,1.43273341655731201171875000000000f,1.56176483631134033203125000000000f,0.92319339513778686523437500000000f,1.63408005237579345703125000000000f,-0.95947200059890747070312500000000f,1.52126026153564453125000000000000f,-1.03977048397064208984375000000000f,2.10479784011840820312500000000000f,1.87436378002166748046875000000000f,1.31610190868377685546875000000000f,-0.14716552197933197021484375000000f,1.46374762058258056640625000000000f,-0.25078809261322021484375000000000f,-0.28577858209609985351562500000000f,1.77393782138824462890625000000000f,-0.24530540406703948974609375000000f,-0.92871975898742675781250000000000f,2.43211936950683593750000000000000f,1.50401246547698974609375000000000f,0.92933702468872070312500000000000f,0.34293225407600402832031250000000f,1.07808327674865722656250000000000f,1.78000807762145996093750000000000f,-1.31875431537628173828125000000000f,0.31596377491950988769531250000000f,1.14220416545867919921875000000000f,1.73888564109802246093750000000000f,-0.29861465096473693847656250000000f,-0.60196316242218017578125000000000f,-0.95810508728027343750000000000000f,1.19335651397705078125000000000000f,-0.78805279731750488281250000000000f,1.97299933433532714843750000000000f,1.41854584217071533203125000000000f,-0.72652328014373779296875000000000f,-1.28760445117950439453125000000000f,1.30317890644073486328125000000000f,-0.17422780394554138183593750000000f,1.70051777362823486328125000000000f,-0.93385332822799682617187500000000f,0.34096258878707885742187500000000f,-1.12195849418640136718750000000000f,1.51832580566406250000000000000000f,-0.65778356790542602539062500000000f,1.39221549034118652343750000000000f,1.03738069534301757812500000000000f,-0.52479082345962524414062500000000f,2.60918188095092773437500000000000f,1.48738479614257812500000000000000f,1.16437613964080810546875000000000f,-1.17183935642242431640625000000000f,-1.14455378055572509765625000000000f,2.29426980018615722656250000000000f,-0.66877985000610351562500000000000f,0.97184056043624877929687500000000f,1.65348529815673828125000000000000f,-0.71534341573715209960937500000000f,1.32902443408966064453125000000000f,-0.49517646431922912597656250000000f,0.23323911428451538085937500000000f,-0.01018242165446281433105468750000f,0.19779744744300842285156250000000f,-0.17703986167907714843750000000000f,0.06419023871421813964843750000000f,0.09441513568162918090820312500000f,0.38377562165260314941406250000000f,0.29668697714805603027343750000000f,0.01941445656120777130126953125000f,0.24924199283123016357421875000000f,0.14885027706623077392578125000000f,-0.35819870233535766601562500000000f,-0.16146574914455413818359375000000f,-0.55447983741760253906250000000000f,0.28883773088455200195312500000000f,-0.02092943154275417327880859375000f,-0.04245942085981369018554687500000f,-0.25885167717933654785156250000000f,-0.54089468717575073242187500000000f,0.39197349548339843750000000000000f,0.25636342167854309082031250000000f,-0.00515573471784591674804687500000f,0.84968799352645874023437500000000f,-0.47136521339416503906250000000000f,-0.22007951140403747558593750000000f,-0.03341601043939590454101562500000f,-0.45749357342720031738281250000000f,-0.63904392719268798828125000000000f,0.07820993661880493164062500000000f,-0.26044419407844543457031250000000f,0.25682300329208374023437500000000f,-0.02237638644874095916748046875000f,0.05424663797020912170410156250000f,-0.95773768424987792968750000000000f,0.25179186463356018066406250000000f,0.10628940910100936889648437500000f,-0.06154732406139373779296875000000f,-0.10490816086530685424804687500000f,-0.04523937776684761047363281250000f,0.14338463544845581054687500000000f,0.28220418095588684082031250000000f,0.41048061847686767578125000000000f,-0.05254568159580230712890625000000f,-0.04673423245549201965332031250000f,1.15755021572113037109375000000000f,0.06875690817832946777343750000000f,-0.25442031025886535644531250000000f,-0.05648309364914894104003906250000f,-0.06633639335632324218750000000000f,-0.09113378077745437622070312500000f,-0.23986922204494476318359375000000f,0.14710675179958343505859375000000f,-0.11630075424909591674804687500000f,-0.13695360720157623291015625000000f,-0.26775357127189636230468750000000f,0.13930137455463409423828125000000f,-0.48191446065902709960937500000000f,0.15144728124141693115234375000000f,0.40963083505630493164062500000000f,-0.12340380996465682983398437500000f,0.20087440311908721923828125000000f,-0.55324542522430419921875000000000f,-0.53703224658966064453125000000000f,-0.10717941820621490478515625000000f,-0.09239418804645538330078125000000f,0.16211606562137603759765625000000f,-0.57445484399795532226562500000000f,-0.04463117569684982299804687500000f,0.26117295026779174804687500000000f,0.60018330812454223632812500000000f,0.71809959411621093750000000000000f,0.18375429511070251464843750000000f,-0.20378553867340087890625000000000f,0.24743068218231201171875000000000f,-0.45425093173980712890625000000000f,-0.57933819293975830078125000000000f,0.85625267028808593750000000000000f,-0.01724947616457939147949218750000f,-0.13726221024990081787109375000000f,-0.33638483285903930664062500000000f,0.22211097180843353271484375000000f,-0.62323701381683349609375000000000f,-0.18844421207904815673828125000000f,-0.23966810107231140136718750000000f,0.05278704315423965454101562500000f,-0.28417906165122985839843750000000f,0.17145112156867980957031250000000f,0.18033103644847869873046875000000f,0.66479521989822387695312500000000f,0.06828412413597106933593750000000f,0.51733696460723876953125000000000f,-0.33375731110572814941406250000000f,0.17646971344947814941406250000000f,0.15698136389255523681640625000000f,0.09009692817926406860351562500000f,-0.67974311113357543945312500000000f,0.11749555915594100952148437500000f,0.12026377767324447631835937500000f,0.03187792375683784484863281250000f,0.01846307143568992614746093750000f,0.63455188274383544921875000000000f,-0.18465144932270050048828125000000f,-0.63717871904373168945312500000000f,0.19289936125278472900390625000000f,-0.17839956283569335937500000000000f,-0.27996465563774108886718750000000f,0.08552075177431106567382812500000f,0.42549020051956176757812500000000f,0.06721707433462142944335937500000f,0.02900652028620243072509765625000f,0.08897732198238372802734375000000f,0.07990980893373489379882812500000f,-0.28009161353111267089843750000000f,0.25286293029785156250000000000000f,0.56321495771408081054687500000000f,-0.61411291360855102539062500000000f,-0.16655631363391876220703125000000f,-0.37897858023643493652343750000000f,-0.33639991283416748046875000000000f,-0.39759528636932373046875000000000f,0.12561371922492980957031250000000f,-0.28173938393592834472656250000000f,-0.26418581604957580566406250000000f,0.10412820428609848022460937500000f,-0.07500922679901123046875000000000f,0.31885784864425659179687500000000f,-0.20985551178455352783203125000000f,-0.28013417124748229980468750000000f,0.30824574828147888183593750000000f,-0.18387413024902343750000000000000f,-0.33811423182487487792968750000000f,-0.06018956378102302551269531250000f,-0.19636847078800201416015625000000f,0.25975331664085388183593750000000f,-0.08137373626232147216796875000000f,-0.27062982320785522460937500000000f,0.62407487630844116210937500000000f,0.17040517926216125488281250000000f,2.22863411903381347656250000000000f,-0.24566364288330078125000000000000f,0.06843315064907073974609375000000f,0.09068141877651214599609375000000f,-0.48005059361457824707031250000000f,0.59375929832458496093750000000000f,1.26796734333038330078125000000000f,-0.37360075116157531738281250000000f,-0.16980618238449096679687500000000f,-0.51062697172164916992187500000000f,0.05533873289823532104492187500000f,0.06190112978219985961914062500000f,-0.54966682195663452148437500000000f,-0.37881883978843688964843750000000f,-0.18435467779636383056640625000000f,-0.17341960966587066650390625000000f,0.35728231072425842285156250000000f,0.09782139956951141357421875000000f,0.12774808704853057861328125000000f,0.34269693493843078613281250000000f,0.14412780106067657470703125000000f,0.23171554505825042724609375000000f,-0.42894920706748962402343750000000f,-1.28369486331939697265625000000000f,-0.50555336475372314453125000000000f,0.15264792740345001220703125000000f,-0.53323060274124145507812500000000f,1.97729527950286865234375000000000f,0.24662135541439056396484375000000f,0.33528265357017517089843750000000f,-0.20165839791297912597656250000000f,-0.01455145329236984252929687500000f,-0.19141417741775512695312500000000f,0.71900451183319091796875000000000f,-0.21002767980098724365234375000000f,0.35801166296005249023437500000000f,0.10759529471397399902343750000000f,-0.26451846957206726074218750000000f,