#include <polimidl/layers/alignment.hpp>
alignas(polimidl::layers::buffer_alignment::byte_alignment) const float weight35[] = {-0.00105428905226290225982666015625f,0.06405358016490936279296875000000f,0.35323885083198547363281250000000f,-0.08023984730243682861328125000000f,-0.31401583552360534667968750000000f,-0.44917687773704528808593750000000f,0.06146050989627838134765625000000f,-0.08400915563106536865234375000000f,-0.37051528692245483398437500000000f,0.34041267633438110351562500000000f,-0.26712107658386230468750000000000f,0.05920849740505218505859375000000f,0.25831231474876403808593750000000f,0.44486925005912780761718750000000f,0.90859764814376831054687500000000f,-0.05785524845123291015625000000000f,0.17329736053943634033203125000000f,0.18564562499523162841796875000000f,0.13191932439804077148437500000000f,0.19059611856937408447265625000000f,-0.33911859989166259765625000000000f,0.14616538584232330322265625000000f,-0.18760824203491210937500000000000f,-0.05870005115866661071777343750000f,-0.27252885699272155761718750000000f,0.47074687480926513671875000000000f,0.09454995393753051757812500000000f,-0.11727184802293777465820312500000f,-0.01158734597265720367431640625000f,0.10476216673851013183593750000000f,0.11454297602176666259765625000000f,-0.15564477443695068359375000000000f,0.12851381301879882812500000000000f,-0.63628137111663818359375000000000f,-0.50016701221466064453125000000000f,0.25635772943496704101562500000000f,-0.25302374362945556640625000000000f,0.00168825674336403608322143554688f,0.67039537429809570312500000000000f,-0.18857870995998382568359375000000f,0.54451578855514526367187500000000f,0.13449844717979431152343750000000f,0.04356884583830833435058593750000f,-0.19433756172657012939453125000000f,-0.34744289517402648925781250000000f,-0.16580626368522644042968750000000f,0.09135155379772186279296875000000f,-0.08118761330842971801757812500000f,0.02036432549357414245605468750000f,-0.05350989103317260742187500000000f,-0.28828275203704833984375000000000f,-0.25788673758506774902343750000000f,0.37301117181777954101562500000000f,-0.07826025784015655517578125000000f,-0.16289447247982025146484375000000f,0.00536220660433173179626464843750f,0.13992884755134582519531250000000f,-0.01671015657484531402587890625000f,0.30982476472854614257812500000000f,0.19540116190910339355468750000000f,-0.30061814188957214355468750000000f,-0.31258219480514526367187500000000f,-0.11557980626821517944335937500000f,-0.52422058582305908203125000000000f,-0.37054467201232910156250000000000f,-1.05031895637512207031250000000000f,-0.34030771255493164062500000000000f,0.59831589460372924804687500000000f,-0.25686752796173095703125000000000f,-0.32994252443313598632812500000000f,-0.39535808563232421875000000000000f,0.50899589061737060546875000000000f,0.24430651962757110595703125000000f,0.11566132307052612304687500000000f,-0.28068235516548156738281250000000f,0.11172110587358474731445312500000f,-0.08139603585004806518554687500000f,-0.43510213494300842285156250000000f,0.63354462385177612304687500000000f,-0.29159048199653625488281250000000f,-0.07399655878543853759765625000000f,0.43738022446632385253906250000000f,0.20670174062252044677734375000000f,-0.03377621620893478393554687500000f,0.20847241580486297607421875000000f,0.35728037357330322265625000000000f,0.08236368745565414428710937500000f,0.26398989558219909667968750000000f,-0.19997982680797576904296875000000f,-0.39929035305976867675781250000000f,0.05957686156034469604492187500000f,0.19916896522045135498046875000000f,-0.27866411209106445312500000000000f,0.15131175518035888671875000000000f,-0.15160934627056121826171875000000f,0.48104861378669738769531250000000f,0.48473006486892700195312500000000f,-0.34079352021217346191406250000000f,-0.58438128232955932617187500000000f,0.27127683162689208984375000000000f,-0.11058356612920761108398437500000f,0.35070356726646423339843750000000f,0.53631353378295898437500000000000f,-0.12772969901561737060546875000000f,0.48659849166870117187500000000000f,0.20740766823291778564453125000000f,0.35807946324348449707031250000000f,0.18978573381900787353515625000000f,0.64271336793899536132812500000000f,0.04875014722347259521484375000000f,-0.32608741521835327148437500000000f,-0.50408858060836791992187500000000f,0.11263176053762435913085937500000f,0.14418977499008178710937500000000f,-0.16189141571521759033203125000000f,-0.31875729560852050781250000000000f,-0.07561571896076202392578125000000f,0.30720308423042297363281250000000f,0.14362919330596923828125000000000f,-0.22460366785526275634765625000000f,0.61061048507690429687500000000000f,0.10005847364664077758789062500000f,0.21493928134441375732421875000000f,-0.11032772064208984375000000000000f,-0.33447211980819702148437500000000f,-0.13909867405891418457031250000000f,0.12788283824920654296875000000000f,0.26590761542320251464843750000000f,-0.17106680572032928466796875000000f,-0.01747111417353153228759765625000f,0.09829762578010559082031250000000f,-0.43312904238700866699218750000000f,0.03297734260559082031250000000000f,-0.24013556540012359619140625000000f,0.28282541036605834960937500000000f,0.04635402560234069824218750000000f,0.14045377075672149658203125000000f,-0.06218841299414634704589843750000f,0.02726795151829719543457031250000f,0.53275424242019653320312500000000f,0.29000508785247802734375000000000f,0.03026097454130649566650390625000f,0.08560795336961746215820312500000f,-0.16955235600471496582031250000000f,-0.06095509231090545654296875000000f,-0.31998175382614135742187500000000f,0.14201752841472625732421875000000f,-0.05129086226224899291992187500000f,0.39451286196708679199218750000000f,0.13116234540939331054687500000000f,0.15703456103801727294921875000000f,0.05745233222842216491699218750000f,-0.04740258678793907165527343750000f,0.56036901473999023437500000000000f,0.27071988582611083984375000000000f,0.34961277246475219726562500000000f,0.10900656133890151977539062500000f,0.14744752645492553710937500000000f,0.27226161956787109375000000000000f,0.08914706856012344360351562500000f,0.07989971339702606201171875000000f,-0.15756015479564666748046875000000f,-0.25007939338684082031250000000000f,-0.32437208294868469238281250000000f,0.16131745278835296630859375000000f,-0.11496299505233764648437500000000f,0.00849914457648992538452148437500f,0.16980786621570587158203125000000f,-0.13466662168502807617187500000000f,-0.27822092175483703613281250000000f,-0.10168570280075073242187500000000f,0.27837842702865600585937500000000f,0.07576784491539001464843750000000f,0.94171923398971557617187500000000f,-0.07076282054185867309570312500000f,-0.96133822202682495117187500000000f,0.09285697340965270996093750000000f,0.05516867339611053466796875000000f,-0.33717343211174011230468750000000f,0.18956229090690612792968750000000f,0.02847444638609886169433593750000f,0.14104531705379486083984375000000f,0.05494177713990211486816406250000f,0.28741151094436645507812500000000f,-0.30183368921279907226562500000000f,-0.27947074174880981445312500000000f,0.16334164142608642578125000000000f,-0.31113520264625549316406250000000f,-0.43424943089485168457031250000000f,-0.32584816217422485351562500000000f,0.14899517595767974853515625000000f,-0.43647703528404235839843750000000f,0.23940603435039520263671875000000f,-0.45678472518920898437500000000000f,-0.20820924639701843261718750000000f,-0.00063779536867514252662658691406f,0.18306884169578552246093750000000f,-0.22711394727230072021484375000000f,-0.26272150874137878417968750000000f,0.45966392755508422851562500000000f,-0.44107404351234436035156250000000f,0.02283186092972755432128906250000f,0.09820894896984100341796875000000f,-0.00131138274446129798889160156250f,-0.26585590839385986328125000000000f,0.28111651539802551269531250000000f,-0.25694912672042846679687500000000f,0.77409982681274414062500000000000f,0.08160718530416488647460937500000f,0.28645339608192443847656250000000f,-0.27092951536178588867187500000000f,0.48731896281242370605468750000000f,0.14506347477436065673828125000000f,0.28127375245094299316406250000000f,0.20478758215904235839843750000000f,0.14716704189777374267578125000000f,-0.01353092025965452194213867187500f,0.14250230789184570312500000000000f,-0.27870240807533264160156250000000f,0.19486632943153381347656250000000f,0.18344269692897796630859375000000f,-0.13718801736831665039062500000000f,0.09756910055875778198242187500000f,0.04871595278382301330566406250000f,-0.42765346169471740722656250000000f,-0.34747508168220520019531250000000f,-0.34279650449752807617187500000000f,0.01709336042404174804687500000000f,0.03833749145269393920898437500000f,0.47926050424575805664062500000000f,-0.00244405074045062065124511718750f,-0.31978234648704528808593750000000f,0.08352500200271606445312500000000f,-0.20912142097949981689453125000000f,-0.01977347396314144134521484375000f,-0.02827513962984085083007812500000f,-0.16520988941192626953125000000000f,-0.19697146117687225341796875000000f,-0.23089885711669921875000000000000f,0.14626552164554595947265625000000f,-0.43284472823143005371093750000000f,0.05532085150480270385742187500000f,-0.02908169478178024291992187500000f,0.09653852134943008422851562500000f,0.45615392923355102539062500000000f,-0.11073949933052062988281250000000f,0.11408764868974685668945312500000f,0.40938594937324523925781250000000f,0.57617169618606567382812500000000f,-0.13047198951244354248046875000000f,0.03484353423118591308593750000000f,-0.23654899001121520996093750000000f,-0.01175295747816562652587890625000f,0.05512761697173118591308593750000f,-0.19358927011489868164062500000000f,-0.52716392278671264648437500000000f,0.52175325155258178710937500000000f,-0.26131150126457214355468750000000f,0.23239356279373168945312500000000f,0.15457150340080261230468750000000f,0.04394924268126487731933593750000f,0.29431360960006713867187500000000f,0.20648612082004547119140625000000f,-0.37156134843826293945312500000000f,0.37701141834259033203125000000000f,-0.40544188022613525390625000000000f,-0.01787517406046390533447265625000f,0.33787766098976135253906250000000f,0.09400153160095214843750000000000f,-0.32876926660537719726562500000000f,0.07941298931837081909179687500000f,-0.29979974031448364257812500000000f,0.23501755297183990478515625000000f,0.14859955012798309326171875000000f,-0.40965121984481811523437500000000f,0.28660085797309875488281250000000f,0.13964700698852539062500000000000f,-0.63331764936447143554687500000000f,0.25532102584838867187500000000000f,-0.08823759108781814575195312500000f,0.25313323736190795898437500000000f,-0.02348030917346477508544921875000f,-0.46986809372901916503906250000000f,0.75520414113998413085937500000000f,-0.24856168031692504882812500000000f,0.51587486267089843750000000000000f,0.28990024328231811523437500000000f,0.18471027910709381103515625000000f,0.18476973474025726318359375000000f,0.50334513187408447265625000000000f,-0.70107370615005493164062500000000f,0.10991392284631729125976562500000f,0.55753546953201293945312500000000f,0.12968276441097259521484375000000f,-0.27479511499404907226562500000000f,0.14096516370773315429687500000000f,0.18376487493515014648437500000000f,0.52569210529327392578125000000000f,0.46343964338302612304687500000000f,-0.17157353460788726806640625000000f,0.11919258534908294677734375000000f,0.15542948246002197265625000000000f,0.37032943964004516601562500000000f,-0.21799387037754058837890625000000f,-0.46054878830909729003906250000000f,0.23926018178462982177734375000000f,-0.35921993851661682128906250000000f,0.13363686203956604003906250000000f,-0.04978444799780845642089843750000f,-0.31288412213325500488281250000000f,-0.25577676296234130859375000000000f,0.19582694768905639648437500000000f,0.40395817160606384277343750000000f,-0.26940119266510009765625000000000f,0.29515317082405090332031250000000f,-0.30592888593673706054687500000000f,-0.32382524013519287109375000000000f,-0.64939564466476440429687500000000f,-0.04953408241271972656250000000000f,0.76958966255187988281250000000000f,-0.34295913577079772949218750000000f,0.14676094055175781250000000000000f,0.73858171701431274414062500000000f,-0.15003243088722229003906250000000f,0.15089394152164459228515625000000f,-0.35614690184593200683593750000000f,0.38723567128181457519531250000000f,-0.31789433956146240234375000000000f,0.24475777149200439453125000000000f,-0.33510470390319824218750000000000f,0.09451527148485183715820312500000f,-0.31993305683135986328125000000000f,-0.37815216183662414550781250000000f,0.78991246223449707031250000000000f,0.31724023818969726562500000000000f,-0.33253824710845947265625000000000f,-0.22100761532783508300781250000000f,0.02588310092687606811523437500000f,0.18674908578395843505859375000000f,1.49447023868560791015625000000000f,0.76635128259658813476562500000000f,-0.28834465146064758300781250000000f,-0.11183324456214904785156250000000f,0.00943727232515811920166015625000f,0.52787500619888305664062500000000f,-0.44160309433937072753906250000000f,0.27095025777816772460937500000000f,0.32907915115356445312500000000000f,0.31204777956008911132812500000000f,0.15484499931335449218750000000000f,-0.41184258460998535156250000000000f,0.13810370862483978271484375000000f,-0.14212086796760559082031250000000f,0.30808627605438232421875000000000f,-0.34712308645248413085937500000000f,0.20627319812774658203125000000000f,0.62294846773147583007812500000000f,0.75404071807861328125000000000000f,0.21443280577659606933593750000000f,0.42118194699287414550781250000000f,0.54042732715606689453125000000000f,0.11367031186819076538085937500000f,0.03377017378807067871093750000000f,0.03117389231920242309570312500000f,-0.11998505890369415283203125000000f,0.20334354043006896972656250000000f,-0.15543296933174133300781250000000f,-0.11161181330680847167968750000000f,-0.09791545569896697998046875000000f,-0.11692576110363006591796875000000f,-0.23276504874229431152343750000000f,0.18503800034523010253906250000000f,-0.71891766786575317382812500000000f,-0.12215600162744522094726562500000f,0.20551425218582153320312500000000f,1.25310420989990234375000000000000f,0.87694150209426879882812500000000f,0.28291121125221252441406250000000f,-0.27532848715782165527343750000000f,-0.23183768987655639648437500000000f,0.16462177038192749023437500000000f,0.01559312548488378524780273437500f,-0.38838702440261840820312500000000f,-0.03268905356526374816894531250000f,-0.22994358837604522705078125000000f,0.19834266602993011474609375000000f,0.13344322144985198974609375000000f,0.34505555033683776855468750000000f,0.01736471056938171386718750000000f,-0.00784720666706562042236328125000f,0.14189708232879638671875000000000f,0.14589327573776245117187500000000f,0.06259015202522277832031250000000f,0.31592130661010742187500000000000f,-0.26337513327598571777343750000000f,0.35547876358032226562500000000000f,-0.36957642436027526855468750000000f,-0.08241618424654006958007812500000f,0.51066219806671142578125000000000f,-0.01811807230114936828613281250000f,-0.86566793918609619140625000000000f,-0.06816122680902481079101562500000f,0.77985739707946777343750000000000f,-0.35072225332260131835937500000000f,0.31907346844673156738281250000000f,0.33531039953231811523437500000000f,0.17347045242786407470703125000000f,0.17779676616191864013671875000000f,0.51047933101654052734375000000000f,0.08426261693239212036132812500000f,0.64630872011184692382812500000000f,0.19518759846687316894531250000000f,-0.37300965189933776855468750000000f,-0.22106947004795074462890625000000f,0.18515327572822570800781250000000f,0.11296080797910690307617187500000f,0.13246314227581024169921875000000f,-0.08764079213142395019531250000000f,-0.28805974125862121582031250000000f,0.13036471605300903320312500000000f,-0.49806341528892517089843750000000f,0.28468322753906250000000000000000f,0.14955919981002807617187500000000f,0.00584189593791961669921875000000f,0.49871984124183654785156250000000f,0.10401564836502075195312500000000f,-0.41885930299758911132812500000000f,-0.15222667157649993896484375000000f,0.10056522488594055175781250000000f,0.33899047970771789550781250000000f,-0.27504417300224304199218750000000f,-0.32019451260566711425781250000000f,-0.37045148015022277832031250000000f,0.11284707486629486083984375000000f,0.15476495027542114257812500000000f,-0.21562707424163818359375000000000f,-0.24671816825866699218750000000000f,0.01723442599177360534667968750000f,-0.04190241545438766479492187500000f,-0.34275987744331359863281250000000f,-0.15535910427570343017578125000000f,-0.00972450897097587585449218750000f,-0.58712089061737060546875000000000f,0.08160845935344696044921875000000f,-0.08553546667098999023437500000000f,-0.48670852184295654296875000000000f,-0.40238481760025024414062500000000f,0.06840807944536209106445312500000f,-0.35187795758247375488281250000000f,0.07898674905300140380859375000000f,0.62754148244857788085937500000000f,0.15622052550315856933593750000000f,-0.24509947001934051513671875000000f,0.19405013322830200195312500000000f,-0.07045326381921768188476562500000f,-0.35981371998786926269531250000000f,0.27853202819824218750000000000000f,0.57440441846847534179687500000000f,0.34840309619903564453125000000000f,0.15161946415901184082031250000000f,0.55539393424987792968750000000000f,-0.26161694526672363281250000000000f,0.13983972370624542236328125000000f,0.37061220407485961914062500000000f,-0.06640183925628662109375000000000f,0.31896939873695373535156250000000f,-0.12648351490497589111328125000000f,0.33843487501144409179687500000000f,0.55773669481277465820312500000000f,-0.41301679611206054687500000000000f,-0.45064300298690795898437500000000f,-0.55216842889785766601562500000000f,-0.03264856711030006408691406250000f,0.54933965206146240234375000000000f,0.42587026953697204589843750000000f,0.22681327164173126220703125000000f,0.18257577717304229736328125000000f,-0.19933062791824340820312500000000f,-0.28450176119804382324218750000000f,0.00166591198649257421493530273438f,1.03635001182556152343750000000000f,0.24887867271900177001953125000000f,-0.19834122061729431152343750000000f,0.45635300874710083007812500000000f,0.62883061170578002929687500000000f,-0.20848642289638519287109375000000f,-0.02242670208215713500976562500000f,0.17520521581172943115234375000000f,-0.48663643002510070800781250000000f,0.14082998037338256835937500000000f,0.27638149261474609375000000000000f,0.06759276986122131347656250000000f,-0.01750336401164531707763671875000f,0.03746806830167770385742187500000f,-0.02247200347483158111572265625000f,0.08854762464761734008789062500000f,-0.38663968443870544433593750000000f,0.17581962049007415771484375000000f,0.07872396707534790039062500000000f,-0.35793220996856689453125000000000f,-0.20878843963146209716796875000000f,0.05913176387548446655273437500000f,0.20971933007240295410156250000000f,-0.09038908034563064575195312500000f,0.54129248857498168945312500000000f,-0.24552626907825469970703125000000f,0.09576782584190368652343750000000f,0.58137488365173339843750000000000f,0.16091819107532501220703125000000f,-0.82040774822235107421875000000000f,-0.67645329236984252929687500000000f,0.11518282443284988403320312500000f,-0.35150942206382751464843750000000f,0.21132092177867889404296875000000f,1.27331829071044921875000000000000f,0.51114284992218017578125000000000f,-0.29849243164062500000000000000000f,-0.46422147750854492187500000000000f,0.27673181891441345214843750000000f,-0.25361225008964538574218750000000f,-0.14763958752155303955078125000000f,0.84477072954177856445312500000000f,-0.55702525377273559570312500000000f,0.11964457482099533081054687500000f,0.48215165734291076660156250000000f,0.50600117444992065429687500000000f,0.55738317966461181640625000000000f,-0.54225873947143554687500000000000f,-0.24018487334251403808593750000000f,0.24761405587196350097656250000000f,0.17236751317977905273437500000000f,-0.33725449442863464355468750000000f,-0.33856755495071411132812500000000f,0.15744750201702117919921875000000f,0.21490691602230072021484375000000f,-0.03632590919733047485351562500000f,-0.36832278966903686523437500000000f,0.59931826591491699218750000000000f,0.32493504881858825683593750000000f,-0.23749415576457977294921875000000f,0.26174068450927734375000000000000f,0.88854700326919555664062500000000f,0.36078441143035888671875000000000f,0.13010947406291961669921875000000f,-0.28261044621467590332031250000000f,-0.14626991748809814453125000000000f,-0.43173626065254211425781250000000f,0.19041085243225097656250000000000f,-0.18932099640369415283203125000000f,-0.40800678730010986328125000000000f,1.24968099594116210937500000000000f,-0.28907775878906250000000000000000f,0.02216477133333683013916015625000f,0.22932870686054229736328125000000f,0.38498631119728088378906250000000f,-0.41955921053886413574218750000000f,-0.43442317843437194824218750000000f,0.08007199317216873168945312500000f,0.12313050776720046997070312500000f,0.42130160331726074218750000000000f,0.06606438010931015014648437500000f,-0.10639300197362899780273437500000f,-0.41125607490539550781250000000000f,-0.44788274168968200683593750000000f,0.07386253029108047485351562500000f,0.41955989599227905273437500000000f,-0.14477869868278503417968750000000f,-0.16361111402511596679687500000000f,0.19011287391185760498046875000000f,-0.05664256587624549865722656250000f,0.04750770330429077148437500000000f,0.29379633069038391113281250000000f,-0.35059314966201782226562500000000f,-0.38005185127258300781250000000000f,0.07097932696342468261718750000000f,-0.47030222415924072265625000000000f,-0.22873280942440032958984375000000f,-0.47163358330726623535156250000000f,-0.27382874488830566406250000000000f,0.44576367735862731933593750000000f,-0.41731086373329162597656250000000f,-0.26472800970077514648437500000000f,-0.66849678754806518554687500000000f,-0.12461462616920471191406250000000f,0.53032791614532470703125000000000f,-0.13196244835853576660156250000000f,-0.27880588173866271972656250000000f,0.14153923094272613525390625000000f,-0.22477453947067260742187500000000f,-1.29285216331481933593750000000000f,1.59788393974304199218750000000000f,-0.47930955886840820312500000000000f,-0.22030480206012725830078125000000f,0.14315585792064666748046875000000f,0.31924471259117126464843750000000f,0.35324400663375854492187500000000f,0.22790569067001342773437500000000f,0.08216008543968200683593750000000f,-0.58641749620437622070312500000000f,1.21180915832519531250000000000000f,-0.22779820859432220458984375000000f,-0.92106437683105468750000000000000f,0.21345815062522888183593750000000f,0.31149944663047790527343750000000f,-0.26696678996086120605468750000000f,0.08260875940322875976562500000000f,-0.18390078842639923095703125000000f,0.73661720752716064453125000000000f,0.93282037973403930664062500000000f,-0.07185570150613784790039062500000f,-0.05861943587660789489746093750000f,0.21892067790031433105468750000000f,0.05527881532907485961914062500000f,0.29155367612838745117187500000000f,0.38279789686203002929687500000000f,-0.06697347760200500488281250000000f,-0.36744794249534606933593750000000f,0.23026606440544128417968750000000f,0.13874451816082000732421875000000f,0.76994836330413818359375000000000f,0.75271880626678466796875000000000f,0.19683842360973358154296875000000f,-0.32993540167808532714843750000000f,-0.22709015011787414550781250000000f,-0.03654291108250617980957031250000f,-0.61380660533905029296875000000000f,-0.03655256330966949462890625000000f,-0.37042573094367980957031250000000f,-0.38089430332183837890625000000000f,0.39684969186782836914062500000000f,0.15726064145565032958984375000000f,-0.22063623368740081787109375000000f,0.93631213903427124023437500000000f,0.16656132042407989501953125000000f,0.18035960197448730468750000000000f,-0.38330981135368347167968750000000f,-0.26528513431549072265625000000000f,-0.64546942710876464843750000000000f,-0.07129298150539398193359375000000f,0.31727883219718933105468750000000f,-0.35058239102363586425781250000000f,-0.52162849903106689453125000000000f,-0.19857797026634216308593750000000f,-1.11770951747894287109375000000000f,0.16041876375675201416015625000000f,-0.43283411860466003417968750000000f,0.36433467268943786621093750000000f,0.26363259553909301757812500000000f,0.46900671720504760742187500000000f,0.37210202217102050781250000000000f,0.17402391135692596435546875000000f,-0.25105753540992736816406250000000f,0.26057469844818115234375000000000f,-0.31962138414382934570312500000000f,0.13977734744548797607421875000000f,0.09068846702575683593750000000000f,0.37477952241897583007812500000000f,-0.28934401273727416992187500000000f,0.40817323327064514160156250000000f,-0.00611898954957723617553710937500f,0.10885114967823028564453125000000f,0.40738105773925781250000000000000f,-0.19321767985820770263671875000000f,0.23831555247306823730468750000000f,-0.13603356480598449707031250000000f,1.01450717449188232421875000000000f,0.29920569062232971191406250000000f,0.49865281581878662109375000000000f,0.21748375892639160156250000000000f,0.15144060552120208740234375000000f,0.51569694280624389648437500000000f,0.22832633554935455322265625000000f,0.04234642907977104187011718750000f,-0.23990187048912048339843750000000f,-0.00166323850862681865692138671875f,-0.25653827190399169921875000000000f,0.09165544807910919189453125000000f,-0.64299362897872924804687500000000f,0.10225329548120498657226562500000f,0.32129940390586853027343750000000f,-0.29211077094078063964843750000000f,-0.14756858348846435546875000000000f,-0.09935130178928375244140625000000f,0.48478800058364868164062500000000f,0.02784935943782329559326171875000f,0.30939438939094543457031250000000f,-0.74517720937728881835937500000000f,0.80781286954879760742187500000000f,-0.06711642444133758544921875000000f,0.72806423902511596679687500000000f,-0.37290275096893310546875000000000f,0.00604980299249291419982910156250f,0.22518102824687957763671875000000f,0.14429698884487152099609375000000f,-0.20916323363780975341796875000000f,0.47770980000495910644531250000000f,-0.13537564873695373535156250000000f,-0.30163598060607910156250000000000f,0.07356944680213928222656250000000f,-0.25687140226364135742187500000000f,-0.02886416576802730560302734375000f,-0.23003548383712768554687500000000f,0.36048388481140136718750000000000f,-0.52726960182189941406250000000000f,0.16803996264934539794921875000000f,-0.07173646241426467895507812500000f,-0.40283206105232238769531250000000f,-0.46767890453338623046875000000000f,0.36504632234573364257812500000000f,-0.45189645886421203613281250000000f,-0.27850306034088134765625000000000f,0.53851324319839477539062500000000f,-0.13120804727077484130859375000000f,0.34331819415092468261718750000000f,0.12123642861843109130859375000000f,0.28293624520301818847656250000000f,-0.58227771520614624023437500000000f,0.78513020277023315429687500000000f,-0.56460821628570556640625000000000f,0.01577787473797798156738281250000f,-0.04117662459611892700195312500000f,0.25211638212203979492187500000000f,-0.32706013321876525878906250000000f,0.83747375011444091796875000000000f,-0.11587053537368774414062500000000f,0.78549760580062866210937500000000f,-0.68021869659423828125000000000000f,0.09245564788579940795898437500000f,-0.07280633598566055297851562500000f,-0.45989900827407836914062500000000f,-0.01893424242734909057617187500000f,0.36045488715171813964843750000000f,0.48746713995933532714843750000000f,0.05820169672369956970214843750000f,0.32767978310585021972656250000000f,0.24567632377147674560546875000000f,0.28299263119697570800781250000000f,-0.39528509974479675292968750000000f,-0.21752481162548065185546875000000f,0.07892563194036483764648437500000f,0.06698489934206008911132812500000f,0.54760879278182983398437500000000f,0.09651711583137512207031250000000f,-0.36326095461845397949218750000000f,0.46404519677162170410156250000000f,-0.29877620935440063476562500000000f,0.08985230326652526855468750000000f,0.28273066878318786621093750000000f,-0.37790024280548095703125000000000f,-0.38530507683753967285156250000000f,-0.39454320073127746582031250000000f,0.31131502985954284667968750000000f,-0.15740251541137695312500000000000f,-0.27182602882385253906250000000000f,-0.21470406651496887207031250000000f,0.13120812177658081054687500000000f,0.82911181449890136718750000000000f,-0.11290034651756286621093750000000f,-0.07927232980728149414062500000000f,1.02639079093933105468750000000000f,-0.00728452904149889945983886718750f,-0.49361366033554077148437500000000f,-0.02316625788807868957519531250000f,-0.34163787961006164550781250000000f,-0.03771553188562393188476562500000f,0.28092885017395019531250000000000f,-0.48570910096168518066406250000000f,-0.30001637339591979980468750000000f,0.17429040372371673583984375000000f,-0.09430374205112457275390625000000f,0.68035078048706054687500000000000f,0.27422985434532165527343750000000f,-0.04272555187344551086425781250000f,0.05092546343803405761718750000000f,-0.01241073105484247207641601562500f,-0.27131327986717224121093750000000f,0.98367559909820556640625000000000f,-1.39034759998321533203125000000000f,-0.05569070950150489807128906250000f,0.11934054642915725708007812500000f,0.00869650114327669143676757812500f,0.14912298321723937988281250000000f,0.22141984105110168457031250000000f,-0.48325312137603759765625000000000f,0.96281582117080688476562500000000f,-0.13899405300617218017578125000000f,-0.72011137008666992187500000000000f,0.39463958144187927246093750000000f,-0.13642780482769012451171875000000f,-0.09737583249807357788085937500000f,0.46921569108963012695312500000000f,-0.26226320862770080566406250000000f,0.38898700475692749023437500000000f,-0.06289328634738922119140625000000f,-0.24580128490924835205078125000000f,0.66870081424713134765625000000000f,-0.34500089287757873535156250000000f,0.20940776169300079345703125000000f,0.26025536656379699707031250000000f,0.32708069682121276855468750000000f,-0.21074251830577850341796875000000f,-0.67082315683364868164062500000000f,-0.03695596009492874145507812500000f,0.28572550415992736816406250000000f,0.25683236122131347656250000000000f,0.25417491793632507324218750000000f,-0.36298450827598571777343750000000f,0.22320109605789184570312500000000f,0.76879751682281494140625000000000f,-0.20487801730632781982421875000000f,-0.02177355065941810607910156250000f,0.34090936183929443359375000000000f,-0.08195395022630691528320312500000f,-0.30277600884437561035156250000000f,0.59915566444396972656250000000000f,0.98825472593307495117187500000000f,0.07213958352804183959960937500000f,1.09765946865081787109375000000000f,-0.27149841189384460449218750000000f,0.15378555655479431152343750000000f,-0.35129347443580627441406250000000f,-0.34616419672966003417968750000000f,-0.21552576124668121337890625000000f,0.80599188804626464843750000000000f,0.88542640209197998046875000000000f,-0.67290169000625610351562500000000f,-0.00727759022265672683715820312500f,-0.18533210456371307373046875000000f,-0.31331411004066467285156250000000f,-0.21609418094158172607421875000000f,-0.25956287980079650878906250000000f,-0.03273631632328033447265625000000f,-0.31253975629806518554687500000000f,-0.36455532908439636230468750000000f,0.01050748024135828018188476562500f,-0.17848291993141174316406250000000f,-0.26226159930229187011718750000000f,-0.57691234350204467773437500000000f,1.16988110542297363281250000000000f,-0.40322515368461608886718750000000f,0.10547179728746414184570312500000f,-0.39093005657196044921875000000000f,-0.18448013067245483398437500000000f,-0.31819298863410949707031250000000f,-0.16201305389404296875000000000000f,-0.29862341284751892089843750000000f,-0.39208441972732543945312500000000f,-0.49862295389175415039062500000000f,-0.35240259766578674316406250000000f,0.09367027133703231811523437500000f,-0.08798213303089141845703125000000f,0.05483160912990570068359375000000f,0.77323222160339355468750000000000f,-0.23027954995632171630859375000000f,-0.45073464512825012207031250000000f,0.22695226967334747314453125000000f,-0.37792319059371948242187500000000f,-0.33690014481544494628906250000000f,0.77679258584976196289062500000000f,0.26011785864830017089843750000000f,0.29651674628257751464843750000000f,-0.04469339549541473388671875000000f,-0.75305706262588500976562500000000f,0.72341996431350708007812500000000f,-0.14862543344497680664062500000000f,1.36613011360168457031250000000000f,0.99835300445556640625000000000000f,0.37111839652061462402343750000000f,0.68311029672622680664062500000000f,-0.12927442789077758789062500000000f,1.04398822784423828125000000000000f,0.10610979050397872924804687500000f,0.28896605968475341796875000000000f,0.19419871270656585693359375000000f,0.38242864608764648437500000000000f,-0.16786952316761016845703125000000f,0.42771744728088378906250000000000f,0.03497171774506568908691406250000f,0.05216370522975921630859375000000f,-0.15130458772182464599609375000000f,-0.15677529573440551757812500000000f,0.37260568141937255859375000000000f,-0.30785536766052246093750000000000f,0.11820454895496368408203125000000f,-0.96069282293319702148437500000000f,-0.18671050667762756347656250000000f,0.33588844537734985351562500000000f,-0.02657997794449329376220703125000f,1.05523264408111572265625000000000f,1.30170071125030517578125000000000f,-0.28065615892410278320312500000000f,-0.33322030305862426757812500000000f,0.08248579502105712890625000000000f,0.08046153187751770019531250000000f,-0.29093220829963684082031250000000f,-0.27221623063087463378906250000000f,-0.30935269594192504882812500000000f,0.09435115009546279907226562500000f,-0.04164214804768562316894531250000f,-0.29454529285430908203125000000000f,-0.38986071944236755371093750000000f,-0.16918319463729858398437500000000f,-0.03809031844139099121093750000000f,-0.40149399638175964355468750000000f,0.02263263054192066192626953125000f,0.27523928880691528320312500000000f,-0.36131390929222106933593750000000f,0.99514245986938476562500000000000f,-0.27121615409851074218750000000000f,-0.20852451026439666748046875000000f,-0.07587313652038574218750000000000f,0.24766206741333007812500000000000f,-0.47299498319625854492187500000000f,-0.38878014683723449707031250000000f,1.34478747844696044921875000000000f,-0.42285078763961791992187500000000f,0.24165932834148406982421875000000f,0.23719161748886108398437500000000f,0.00971670635044574737548828125000f,0.35531261563301086425781250000000f,0.06831798702478408813476562500000f,0.29704007506370544433593750000000f,1.63383257389068603515625000000000f,0.09254331141710281372070312500000f,-0.23882630467414855957031250000000f,-0.51588684320449829101562500000000f,0.17496599256992340087890625000000f,0.25191792845726013183593750000000f,0.26426362991333007812500000000000f,1.01106166839599609375000000000000f,-0.65214264392852783203125000000000f,0.18295128643512725830078125000000f,-0.34102016687393188476562500000000f,-0.42765101790428161621093750000000f,0.31529244780540466308593750000000f,0.10065588355064392089843750000000f,0.44865861535072326660156250000000f,-0.00751172611489892005920410156250f,-0.49255037307739257812500000000000f,-0.49426621198654174804687500000000f,0.03424036875367164611816406250000f,0.34494787454605102539062500000000f,-0.39580538868904113769531250000000f,-0.15258298814296722412109375000000f,-0.31303328275680541992187500000000f,0.23288799822330474853515625000000f,-0.32248729467391967773437500000000f,-0.30381098389625549316406250000000f,-0.40730968117713928222656250000000f,-0.12136130034923553466796875000000f,-0.20709855854511260986328125000000f,-0.25383937358856201171875000000000f,-0.24648143351078033447265625000000f,-0.10404332727193832397460937500000f,0.33427283167839050292968750000000f,1.26206851005554199218750000000000f,-1.17199373245239257812500000000000f,-0.23724491894245147705078125000000f,-0.15877592563629150390625000000000f,0.25159040093421936035156250000000f,0.78601270914077758789062500000000f,-0.46561762690544128417968750000000f,0.31416538357734680175781250000000f,0.10912554711103439331054687500000f,-0.32016360759735107421875000000000f,0.23374409973621368408203125000000f,-0.37000316381454467773437500000000f,-0.83856910467147827148437500000000f,0.74245673418045043945312500000000f,0.08759414404630661010742187500000f,0.11360356956720352172851562500000f,0.19972877204418182373046875000000f,0.37618356943130493164062500000000f,-0.58858144283294677734375000000000f,0.54790610074996948242187500000000f,1.10079526901245117187500000000000f,-0.57431536912918090820312500000000f,-0.16920252144336700439453125000000f,-0.29887539148330688476562500000000f,-0.15088678896427154541015625000000f,0.17324033379554748535156250000000f,0.26538720726966857910156250000000f,-0.84678453207015991210937500000000f,-0.89018988609313964843750000000000f,0.43796753883361816406250000000000f,-1.03986144065856933593750000000000f,1.07046449184417724609375000000000f,1.37585675716400146484375000000000f,0.22023478150367736816406250000000f,-0.27140864729881286621093750000000f,-0.29090633988380432128906250000000f,-0.17688235640525817871093750000000f,0.02467034198343753814697265625000f,0.36677205562591552734375000000000f,0.51335942745208740234375000000000f,0.12871339917182922363281250000000f,0.25213566422462463378906250000000f,-0.30112573504447937011718750000000f,-0.42106589674949645996093750000000f,0.14236265420913696289062500000000f,-0.69362467527389526367187500000000f,0.33267202973365783691406250000000f,0.22790010273456573486328125000000f,0.06324075162410736083984375000000f,-0.21381762623786926269531250000000f,-0.10021460801362991333007812500000f,-0.60345518589019775390625000000000f,0.36871552467346191406250000000000f,-0.17588925361633300781250000000000f,0.34959268569946289062500000000000f,0.32875883579254150390625000000000f,-0.28979000449180603027343750000000f,-0.31273275613784790039062500000000f,-0.25148481130599975585937500000000f,0.22754143178462982177734375000000f,-0.77511912584304809570312500000000f,0.31856638193130493164062500000000f,0.28808358311653137207031250000000f,-0.55025100708007812500000000000000f,-0.10736566781997680664062500000000f,-0.43254175782203674316406250000000f,-0.55662435293197631835937500000000f,0.51836580038070678710937500000000f,0.25039556622505187988281250000000f,0.38143995404243469238281250000000f,0.03618055954575538635253906250000f,0.22581173479557037353515625000000f,-0.06450511515140533447265625000000f,-0.32284545898437500000000000000000f,-0.43174561858177185058593750000000f,0.07386449724435806274414062500000f,-0.45624098181724548339843750000000f,-0.31799247860908508300781250000000f,0.25901383161544799804687500000000f,-0.19620092213153839111328125000000f,0.05418002232909202575683593750000f,0.19191990792751312255859375000000f,0.39796835184097290039062500000000f,0.73852968215942382812500000000000f,-0.00143819721415638923645019531250f,0.17430527508258819580078125000000f,0.70158642530441284179687500000000f,0.10841169953346252441406250000000f,-0.24912898242473602294921875000000f,-0.32582801580429077148437500000000f,0.09736478328704833984375000000000f,-0.15439997613430023193359375000000f,0.01640681922435760498046875000000f,-0.22470210492610931396484375000000f,0.56226676702499389648437500000000f,0.08957475423812866210937500000000f,-0.15926532447338104248046875000000f,0.01327592693269252777099609375000f,0.12714916467666625976562500000000f,0.12825910747051239013671875000000f,0.55312329530715942382812500000000f,-0.02610197849571704864501953125000f,0.57966768741607666015625000000000f,-0.38177591562271118164062500000000f,0.27532574534416198730468750000000f,-0.19559425115585327148437500000000f,-0.02062187902629375457763671875000f,0.33272385597229003906250000000000f,-0.16718897223472595214843750000000f,1.57389187812805175781250000000000f,0.05414342135190963745117187500000f,0.01760604791343212127685546875000f,-0.15669657289981842041015625000000f,-0.34992587566375732421875000000000f,1.30823838710784912109375000000000f,0.05142387375235557556152343750000f,0.44072642922401428222656250000000f,0.04520042613148689270019531250000f,-0.05690507963299751281738281250000f,-0.28925642371177673339843750000000f,-0.18839839100837707519531250000000f,0.25789386034011840820312500000000f,-0.16957791149616241455078125000000f,-0.10180576145648956298828125000000f,-0.04455115646123886108398437500000f,0.12204784154891967773437500000000f,-0.02953315526247024536132812500000f,-0.69047003984451293945312500000000f,0.11305839568376541137695312500000f,-0.25597500801086425781250000000000f,-0.28447693586349487304687500000000f,-0.06559429317712783813476562500000f,-0.47374629974365234375000000000000f,-0.31705173850059509277343750000000f,-0.13803121447563171386718750000000f,-0.14383935928344726562500000000000f,0.00619686814025044441223144531250f,-0.19083914160728454589843750000000f,-0.28960853815078735351562500000000f,-0.37841227650642395019531250000000f,-0.46285337209701538085937500000000f,0.20957697927951812744140625000000f,0.11749042570590972900390625000000f,-0.23242603242397308349609375000000f,0.06672654300928115844726562500000f,-0.12415961921215057373046875000000f,-0.38762241601943969726562500000000f,0.61190587282180786132812500000000f,-0.36085465550422668457031250000000f,0.08482043445110321044921875000000f,0.33707621693611145019531250000000f,0.14103597402572631835937500000000f,0.00524978945031762123107910156250f,0.56094223260879516601562500000000f,0.43323621153831481933593750000000f,-0.01798321679234504699707031250000f,0.26787656545639038085937500000000f,-0.10702760517597198486328125000000f,-0.33279207348823547363281250000000f,0.13984178006649017333984375000000f,0.19593656063079833984375000000000f,-0.26548784971237182617187500000000f,0.14660997688770294189453125000000f,-0.13159802556037902832031250000000f,0.55133652687072753906250000000000f,0.45443132519721984863281250000000f,-0.17162971198558807373046875000000f,-0.05335089936852455139160156250000f,0.23792566359043121337890625000000f,-0.12389127165079116821289062500000f,0.30845156311988830566406250000000f,0.14243243634700775146484375000000f,-0.10791642963886260986328125000000f,0.03324332088232040405273437500000f,0.18936657905578613281250000000000f,-0.02528256736695766448974609375000f,0.11969353258609771728515625000000f,-0.47256571054458618164062500000000f,0.02613699436187744140625000000000f,-0.28871333599090576171875000000000f,0.71697479486465454101562500000000f,0.09437773376703262329101562500000f,0.23791038990020751953125000000000f,-0.14617182314395904541015625000000f,-0.31664714217185974121093750000000f,-0.07301548868417739868164062500000f,0.35324582457542419433593750000000f,0.05623883008956909179687500000000f,-0.19636783003807067871093750000000f,0.52305382490158081054687500000000f,0.09900938719511032104492187500000f,0.14753423631191253662109375000000f,0.20016840100288391113281250000000f,-0.26743414998054504394531250000000f,-0.06574223190546035766601562500000f,0.17678202688694000244140625000000f,0.21275579929351806640625000000000f,-0.15866090357303619384765625000000f,0.00885430723428726196289062500000f,0.08047346025705337524414062500000f,-0.46525603532791137695312500000000f,0.06296914070844650268554687500000f,-0.18605209887027740478515625000000f,0.31741839647293090820312500000000f,0.02433691732585430145263671875000f,0.13485550880432128906250000000000f,-0.08773117512464523315429687500000f,0.09910650551319122314453125000000f,-0.35548767447471618652343750000000f,0.25355318188667297363281250000000f,-0.25912499427795410156250000000000f,0.08597945421934127807617187500000f,-0.19167105853557586669921875000000f,-0.06117966398596763610839843750000f,-0.26785111427307128906250000000000f,0.15142707526683807373046875000000f,-0.03135651722550392150878906250000f,-0.69874674081802368164062500000000f,0.05816347524523735046386718750000f,0.16255362331867218017578125000000f,0.09623450040817260742187500000000f,-0.07618957757949829101562500000000f,0.48674291372299194335937500000000f,0.28618988394737243652343750000000f,0.35346439480781555175781250000000f,0.14785739779472351074218750000000f,0.16051119565963745117187500000000f,0.28787627816200256347656250000000f,0.06693607568740844726562500000000f,0.00524922413751482963562011718750f,-0.17049735784530639648437500000000f,-0.12606780230998992919921875000000f,-0.27808800339698791503906250000000f,0.09002507477998733520507812500000f,-0.04683363437652587890625000000000f,-0.01633219048380851745605468750000f,0.08236839622259140014648437500000f,-0.12948897480964660644531250000000f,-0.21905328333377838134765625000000f,-0.08945587277412414550781250000000f,0.24549014866352081298828125000000f,0.09591769427061080932617187500000f,-0.10790592432022094726562500000000f,-0.08192558586597442626953125000000f,0.30350437760353088378906250000000f,0.04237638413906097412109375000000f,0.63710105419158935546875000000000f,-0.31327763199806213378906250000000f,0.09929780662059783935546875000000f,0.03049090504646301269531250000000f,0.15897510945796966552734375000000f,0.01067571155726909637451171875000f,0.21046081185340881347656250000000f,-0.29099133610725402832031250000000f,-0.22319385409355163574218750000000f,0.14581079781055450439453125000000f,-0.27702221274375915527343750000000f,0.26467871665954589843750000000000f,-0.30482095479965209960937500000000f,0.17582567036151885986328125000000f,-0.43419301509857177734375000000000f,0.25005942583084106445312500000000f,-0.44785425066947937011718750000000f,-0.10022734105587005615234375000000f,0.01106416247785091400146484375000f,0.19280326366424560546875000000000f,-0.13234588503837585449218750000000f,-0.19359047710895538330078125000000f,0.37021717429161071777343750000000f,-0.44974872469902038574218750000000f,0.06378985196352005004882812500000f,0.10696113109588623046875000000000f,0.00487232301384210586547851562500f,-0.26524972915649414062500000000000f,0.23374463617801666259765625000000f,-0.15389697253704071044921875000000f,0.23194824159145355224609375000000f,0.08310790359973907470703125000000f,0.28164055943489074707031250000000f,-0.28024011850357055664062500000000f,0.40828576683998107910156250000000f,0.11726932227611541748046875000000f,0.18254484236240386962890625000000f,0.03709188848733901977539062500000f,0.09320479631423950195312500000000f,-0.08108260482549667358398437500000f,0.23169159889221191406250000000000f,0.05506514757871627807617187500000f,0.28218424320220947265625000000000f,0.14710819721221923828125000000000f,-0.20504549145698547363281250000000f,-0.39030459523200988769531250000000f,0.03257950767874717712402343750000f,-0.10871601104736328125000000000000f,-0.31529602408409118652343750000000f,-0.34616240859031677246093750000000f,0.02468087710440158843994140625000f,0.04336310550570487976074218750000f,0.47187608480453491210937500000000f,0.25132253766059875488281250000000f,-0.21921215951442718505859375000000f,0.11477330327033996582031250000000f,-0.19186060130596160888671875000000f,-0.10086663812398910522460937500000f,-0.03573238849639892578125000000000f,-0.13531196117401123046875000000000f,-0.23995587229728698730468750000000f,-0.22118796408176422119140625000000f,0.16660660505294799804687500000000f,-0.47065302729606628417968750000000f,0.08980957418680191040039062500000f,-0.05249679461121559143066406250000f,0.11068823188543319702148437500000f,0.27812674641609191894531250000000f,-0.12126914411783218383789062500000f,0.82582831382751464843750000000000f,0.47755348682403564453125000000000f,-0.81694805622100830078125000000000f,-0.17590551078319549560546875000000f,0.02519838325679302215576171875000f,-0.26870957016944885253906250000000f,-0.04946313053369522094726562500000f,0.04923145473003387451171875000000f,-0.17358876764774322509765625000000f,-0.45677036046981811523437500000000f,-0.31414604187011718750000000000000f,0.45652768015861511230468750000000f,0.25429987907409667968750000000000f,0.09988447278738021850585937500000f,0.01050443388521671295166015625000f,0.33652678132057189941406250000000f,0.23076409101486206054687500000000f,-0.34046578407287597656250000000000f,0.31587663292884826660156250000000f,-0.28004395961761474609375000000000f,0.83683747053146362304687500000000f,0.30504703521728515625000000000000f,0.10998311638832092285156250000000f,-0.27506992220878601074218750000000f,0.05839171260595321655273437500000f,-0.25294649600982666015625000000000f,0.19672116637229919433593750000000f,0.04385128617286682128906250000000f,-0.43595772981643676757812500000000f,0.27122685313224792480468750000000f,0.03109880350530147552490234375000f,-0.66093951463699340820312500000000f,0.14219573140144348144531250000000f,-0.09088643640279769897460937500000f,0.20603507757186889648437500000000f,0.89806216955184936523437500000000f,0.43998563289642333984375000000000f,0.59098351001739501953125000000000f,-0.25608119368553161621093750000000f,0.44683063030242919921875000000000f,0.30223149061203002929687500000000f,0.14326265454292297363281250000000f,0.05818461626768112182617187500000f,-0.56955683231353759765625000000000f,0.09888172894716262817382812500000f,0.16866509616374969482421875000000f,-0.04680650308728218078613281250000f,0.08218958228826522827148437500000f,-0.23155753314495086669921875000000f,0.09299238771200180053710937500000f,0.12667973339557647705078125000000f,-0.34094837307929992675781250000000f,-0.06670808047056198120117187500000f,0.05273906886577606201171875000000f,0.13347463309764862060546875000000f,0.07353548705577850341796875000000f,0.31098192930221557617187500000000f,-0.31401085853576660156250000000000f,-0.24065530300140380859375000000000f,0.24760594964027404785156250000000f,-0.33872431516647338867187500000000f,0.16081671416759490966796875000000f,-0.02859856560826301574707031250000f,-0.26637530326843261718750000000000f,-0.30126878619194030761718750000000f,0.08621136099100112915039062500000f,0.42005529999732971191406250000000f,-0.28276228904724121093750000000000f,-0.67765504121780395507812500000000f,-0.26246020197868347167968750000000f,-0.25191307067871093750000000000000f,-0.07287278771400451660156250000000f,-0.00356579013168811798095703125000f,-0.03282808139920234680175781250000f,-0.27610567212104797363281250000000f,0.20817241072654724121093750000000f,-0.43388622999191284179687500000000f,-0.10360875725746154785156250000000f,-0.00096122524701058864593505859375f,-0.27318781614303588867187500000000f,0.46308735013008117675781250000000f,-0.26565465331077575683593750000000f,0.19719816744327545166015625000000f,-0.27817824482917785644531250000000f,0.03001391515135765075683593750000f,-0.34220257401466369628906250000000f,-0.29083749651908874511718750000000f,-0.37212914228439331054687500000000f,0.73310005664825439453125000000000f,-0.25789806246757507324218750000000f,-0.17089784145355224609375000000000f,-0.02936560288071632385253906250000f,0.15259791910648345947265625000000f,0.05260988324880599975585937500000f,0.64320307970046997070312500000000f,-0.25820055603981018066406250000000f,-0.11516808718442916870117187500000f,0.00057704409118741750717163085938f,-0.36287999153137207031250000000000f,-0.38392436504364013671875000000000f,0.23714336752891540527343750000000f,0.07100008428096771240234375000000f,0.24353860318660736083984375000000f,0.09994869679212570190429687500000f,-0.24838817119598388671875000000000f,0.10283157229423522949218750000000f,-0.13578912615776062011718750000000f,0.24819406867027282714843750000000f,0.43322539329528808593750000000000f,0.15084230899810791015625000000000f,0.07229721546173095703125000000000f,-0.00466907117515802383422851562500f,0.08731213212013244628906250000000f,0.04495773464441299438476562500000f,0.49870243668556213378906250000000f,0.08137103170156478881835937500000f,0.53884238004684448242187500000000f,-0.45640319585800170898437500000000f,0.61905568838119506835937500000000f,0.30170723795890808105468750000000f,0.66957932710647583007812500000000f,-0.09971782565116882324218750000000f,-0.06452073156833648681640625000000f,-0.09863946586847305297851562500000f,-0.21696574985980987548828125000000f,0.33510851860046386718750000000000f,-0.18604624271392822265625000000000f,-0.09572862833738327026367187500000f,0.22569926083087921142578125000000f,0.01443614345043897628784179687500f,0.74988222122192382812500000000000f,0.17027376592159271240234375000000f,-0.27648937702178955078125000000000f,-0.15489995479583740234375000000000f,0.16578128933906555175781250000000f,0.35831430554389953613281250000000f,-0.37608620524406433105468750000000f,-0.06364339590072631835937500000000f,-0.19431944191455841064453125000000f,0.18527688086032867431640625000000f,0.13345269858837127685546875000000f,-0.08188719302415847778320312500000f,-0.05056110396981239318847656250000f,-0.01297296769917011260986328125000f,0.17568960785865783691406250000000f,0.03080033510923385620117187500000f,-0.01030614227056503295898437500000f,0.26866990327835083007812500000000f,-0.20516468584537506103515625000000f,-1.05272579193115234375000000000000f,-0.33250978589057922363281250000000f,-0.07492329180240631103515625000000f,0.42776063084602355957031250000000f,-0.03364135324954986572265625000000f,0.48599454760551452636718750000000f,-0.02886394783854484558105468750000f,0.70549422502517700195312500000000f,-0.24755762517452239990234375000000f,0.31761494278907775878906250000000f,0.29722288250923156738281250000000f,0.18688455224037170410156250000000f,0.19970992207527160644531250000000f,-0.54357010126113891601562500000000f,0.10230132937431335449218750000000f,0.53763914108276367187500000000000f,0.13671770691871643066406250000000f,-0.33295258879661560058593750000000f,-0.10487326234579086303710937500000f,0.05697423219680786132812500000000f,0.19926196336746215820312500000000f,0.06856129318475723266601562500000f,-0.21683180332183837890625000000000f,0.26444995403289794921875000000000f,0.19127354025840759277343750000000f,0.54734385013580322265625000000000f,0.32925486564636230468750000000000f,0.17408378422260284423828125000000f,-0.01951844990253448486328125000000f,0.36395624279975891113281250000000f,0.12215336412191390991210937500000f,-0.31754904985427856445312500000000f,-0.15716207027435302734375000000000f,0.11510160565376281738281250000000f,0.28682738542556762695312500000000f,-0.16757047176361083984375000000000f,-0.34812486171722412109375000000000f,-0.37347793579101562500000000000000f,0.05410821735858917236328125000000f,0.39324644207954406738281250000000f,-0.20471979677677154541015625000000f,-0.22798801958560943603515625000000f,-0.01625814288854598999023437500000f,-0.03140148147940635681152343750000f,-0.24286216497421264648437500000000f,-0.10806762427091598510742187500000f,-0.05157945305109024047851562500000f,0.25790742039680480957031250000000f,0.06288955360651016235351562500000f,-0.08999487757682800292968750000000f,-0.40684092044830322265625000000000f,-0.02290763333439826965332031250000f,0.04260046407580375671386718750000f,0.57646340131759643554687500000000f,0.04046751558780670166015625000000f,-0.85089963674545288085937500000000f,0.20805966854095458984375000000000f,-0.21887996792793273925781250000000f,0.20134899020195007324218750000000f,-0.03954761847853660583496093750000f,-0.34739413857460021972656250000000f,0.30391621589660644531250000000000f,0.56122416257858276367187500000000f,0.29359248280525207519531250000000f,0.11406752467155456542968750000000f,-0.11755789071321487426757812500000f,-0.28465622663497924804687500000000f,0.12151122838258743286132812500000f,0.34299620985984802246093750000000f,-0.14006569981575012207031250000000f,0.32234206795692443847656250000000f,-0.07321039587259292602539062500000f,0.20348571240901947021484375000000f,0.53143930435180664062500000000000f,0.83484190702438354492187500000000f,-0.54707133769989013671875000000000f,-0.48262965679168701171875000000000f,-0.12712118029594421386718750000000f,0.72846692800521850585937500000000f,0.35682928562164306640625000000000f,0.19622159004211425781250000000000f,0.18271367251873016357421875000000f,-0.21097132563591003417968750000000f,-0.32904377579689025878906250000000f,0.12498727440834045410156250000000f,-0.09612020850181579589843750000000f,0.19064654409885406494140625000000f,-0.15617796778678894042968750000000f,-0.15383882820606231689453125000000f,0.11141933500766754150390625000000f,-0.39646103978157043457031250000000f,-0.05570697784423828125000000000000f,0.19115599989891052246093750000000f,-0.50965213775634765625000000000000f,0.12850928306579589843750000000000f,0.25421044230461120605468750000000f,0.01276186574250459671020507812500f,-0.05857698991894721984863281250000f,1.68710970878601074218750000000000f,-0.15097253024578094482421875000000f,0.04402165114879608154296875000000f,-0.41257569193840026855468750000000f,0.07078374177217483520507812500000f,0.05627951025962829589843750000000f,-0.33935660123825073242187500000000f,-0.21518407762050628662109375000000f,0.12056018412113189697265625000000f,0.27376332879066467285156250000000f,-0.06731278449296951293945312500000f,0.49630889296531677246093750000000f,0.11209078878164291381835937500000f,0.24009512364864349365234375000000f,-0.36155277490615844726562500000000f,0.23823869228363037109375000000000f,-0.63628357648849487304687500000000f,0.39367696642875671386718750000000f,0.08012861013412475585937500000000f,-0.46919715404510498046875000000000f,0.28098148107528686523437500000000f,-0.13737019896507263183593750000000f,0.34815832972526550292968750000000f,-0.18610568344593048095703125000000f,-0.39651370048522949218750000000000f,0.33516073226928710937500000000000f,-0.32823452353477478027343750000000f,-0.14430692791938781738281250000000f,0.39288073778152465820312500000000f,-0.12197726964950561523437500000000f,-0.07485146075487136840820312500000f,0.23701021075248718261718750000000f,0.33311948180198669433593750000000f,0.08979586511850357055664062500000f,0.11659823358058929443359375000000f,0.42715996503829956054687500000000f,0.16539219021797180175781250000000f,0.51459616422653198242187500000000f,0.29288730025291442871093750000000f,-0.31066644191741943359375000000000f,0.11792839318513870239257812500000f,-0.01420796662569046020507812500000f,0.24554219841957092285156250000000f,-0.29854118824005126953125000000000f,0.03676221519708633422851562500000f,0.31429353356361389160156250000000f,-0.66737067699432373046875000000000f,0.39196047186851501464843750000000f,0.45536378026008605957031250000000f,0.18314006924629211425781250000000f,-0.34168893098831176757812500000000f,0.55696058273315429687500000000000f,-0.31867805123329162597656250000000f,-0.14687913656234741210937500000000f,0.30117022991180419921875000000000f,-0.21490842103958129882812500000000f,-0.45532786846160888671875000000000f,-0.22050893306732177734375000000000f,-0.45279899239540100097656250000000f,-0.19023454189300537109375000000000f,0.20391233265399932861328125000000f,0.06249307841062545776367187500000f,-0.28179836273193359375000000000000f,-0.19183668494224548339843750000000f,-0.24102269113063812255859375000000f,0.18199887871742248535156250000000f,-0.10521540045738220214843750000000f,0.19677092134952545166015625000000f,-0.26850444078445434570312500000000f,-0.21203064918518066406250000000000f,-0.37620109319686889648437500000000f,0.50500899553298950195312500000000f,0.04627975448966026306152343750000f,-0.20128783583641052246093750000000f,-0.34056437015533447265625000000000f,0.26411297917366027832031250000000f,0.20374535024166107177734375000000f,0.62734329700469970703125000000000f,0.26297861337661743164062500000000f,-0.35863250494003295898437500000000f,-0.29910394549369812011718750000000f,0.41909450292587280273437500000000f,-0.24847562611103057861328125000000f,-0.24816514551639556884765625000000f,-0.09815195947885513305664062500000f,-0.24596408009529113769531250000000f,-0.18234133720397949218750000000000f,-0.29893225431442260742187500000000f,-0.30543136596679687500000000000000f,-0.36771753430366516113281250000000f,0.76027125120162963867187500000000f,0.51965868473052978515625000000000f,0.23423193395137786865234375000000f,-0.31401541829109191894531250000000f,0.14064532518386840820312500000000f,-0.12075178325176239013671875000000f,-0.17134976387023925781250000000000f,-0.39444932341575622558593750000000f,-0.18762078881263732910156250000000f,0.06308828294277191162109375000000f,0.25545239448547363281250000000000f,0.23107957839965820312500000000000f,-0.31468287110328674316406250000000f,-0.23019927740097045898437500000000f,0.50956815481185913085937500000000f,0.58459091186523437500000000000000f,-0.03612665086984634399414062500000f,-0.33434635400772094726562500000000f,0.61326098442077636718750000000000f,-0.19211733341217041015625000000000f,-0.20609265565872192382812500000000f,-0.20183143019676208496093750000000f,0.20558401942253112792968750000000f,-0.26102745532989501953125000000000f,0.16578815877437591552734375000000f,0.40556401014328002929687500000000f,-0.31860613822937011718750000000000f,-0.71677345037460327148437500000000f,0.19843532145023345947265625000000f,-0.27342176437377929687500000000000f,0.29980441927909851074218750000000f,0.25115406513214111328125000000000f,-0.07065041363239288330078125000000f,1.09398663043975830078125000000000f,0.34654247760772705078125000000000f,0.23673816025257110595703125000000f,0.00578278163447976112365722656250f,-0.27480512857437133789062500000000f,0.17610339820384979248046875000000f,-0.25661987066268920898437500000000f,-0.33640217781066894531250000000000f,0.06397938728332519531250000000000f,0.28158324956893920898437500000000f,0.23938030004501342773437500000000f,-0.12119945138692855834960937500000f,-0.17066185176372528076171875000000f,-0.09482901543378829956054687500000f,0.22220388054847717285156250000000f,-0.45976808667182922363281250000000f,0.32872301340103149414062500000000f,0.22230277955532073974609375000000f,0.17824663221836090087890625000000f,-0.25504368543624877929687500000000f,-0.17418290674686431884765625000000f,-0.44639301300048828125000000000000f,0.17947891354560852050781250000000f,0.37970760464668273925781250000000f,-0.30554214119911193847656250000000f,-0.19311000406742095947265625000000f,0.18744751811027526855468750000000f,-0.10945841670036315917968750000000f,0.19654648005962371826171875000000f,-0.37307766079902648925781250000000f,0.30633404850959777832031250000000f,0.21798820793628692626953125000000f,0.18433181941509246826171875000000f,0.25355571508407592773437500000000f,0.23675039410591125488281250000000f,1.03221964836120605468750000000000f,0.32628893852233886718750000000000f,1.05281269550323486328125000000000f,-0.03293097019195556640625000000000f,-0.22988532483577728271484375000000f,-0.31462913751602172851562500000000f,-0.30355438590049743652343750000000f,0.48740699887275695800781250000000f,0.03008088283240795135498046875000f,1.10463416576385498046875000000000f,-0.31722480058670043945312500000000f,0.75330436229705810546875000000000f,0.35228976607322692871093750000000f,-0.06994048506021499633789062500000f,0.02314151450991630554199218750000f,0.03699710220098495483398437500000f,0.14857301115989685058593750000000f,0.24118626117706298828125000000000f,0.21356774866580963134765625000000f,0.21393384039402008056640625000000f,0.14228382706642150878906250000000f,0.10685830563306808471679687500000f,-0.29337778687477111816406250000000f,0.34525802731513977050781250000000f,-0.38288393616676330566406250000000f,0.14844614267349243164062500000000f,0.05118028074502944946289062500000f,-0.05504458025097846984863281250000f,0.26297858357429504394531250000000f,-0.30213356018066406250000000000000f,-0.16383254528045654296875000000000f,-0.03810941800475120544433593750000f,0.46114110946655273437500000000000f,0.13230839371681213378906250000000f,0.59238916635513305664062500000000f,0.20761029422283172607421875000000f,0.73386031389236450195312500000000f,0.11707871407270431518554687500000f,-0.41834861040115356445312500000000f,-0.34743645787239074707031250000000f,0.03965965658426284790039062500000f,0.10789663344621658325195312500000f,0.60841703414916992187500000000000f,0.09137967228889465332031250000000f,0.32601150870323181152343750000000f,-0.43116080760955810546875000000000f,-0.28686124086380004882812500000000f,0.11016552150249481201171875000000f,-0.33322361111640930175781250000000f,-0.61533463001251220703125000000000f,-0.49899172782897949218750000000000f,0.11849048733711242675781250000000f,-0.07138624042272567749023437500000f,0.28321766853332519531250000000000f,-0.21925111114978790283203125000000f,-0.33465105295181274414062500000000f,-0.15544618666172027587890625000000f,0.37065756320953369140625000000000f,-0.38015645742416381835937500000000f,-0.35221746563911437988281250000000f,0.28526163101196289062500000000000f,-0.13835248351097106933593750000000f,0.24667143821716308593750000000000f,0.22628518939018249511718750000000f,0.22772699594497680664062500000000f,-0.37805122137069702148437500000000f,0.60562515258789062500000000000000f,-0.12178012728691101074218750000000f,0.95095527172088623046875000000000f,-0.13570918142795562744140625000000f,0.09341228753328323364257812500000f,-0.30701532959938049316406250000000f,0.07048644870519638061523437500000f,0.15555615723133087158203125000000f,0.24797812104225158691406250000000f,0.66782319545745849609375000000000f,0.06946454942226409912109375000000f,0.05071328207850456237792968750000f,0.27100864052772521972656250000000f,-0.24122022092342376708984375000000f,0.42033055424690246582031250000000f,0.23463186621665954589843750000000f,-0.16801129281520843505859375000000f,1.26175951957702636718750000000000f,0.26311498880386352539062500000000f,-0.34666523337364196777343750000000f,-0.22829453647136688232421875000000f,-0.24366529285907745361328125000000f,0.06459756940603256225585937500000f,0.15590061247348785400390625000000f,-0.07492859661579132080078125000000f,-0.08207768201828002929687500000000f,-0.35388296842575073242187500000000f,0.50261616706848144531250000000000f,-0.25220358371734619140625000000000f,-1.06189787387847900390625000000000f,-0.10126505047082901000976562500000f,-0.30366569757461547851562500000000f,-0.39027330279350280761718750000000f,-0.30280756950378417968750000000000f,0.18691857159137725830078125000000f,-0.18865792453289031982421875000000f,0.00910961534827947616577148437500f,-0.59102034568786621093750000000000f,-0.02768494747579097747802734375000f,0.65324163436889648437500000000000f,-0.08346589654684066772460937500000f,0.17508274316787719726562500000000f,0.02963591739535331726074218750000f,0.66064417362213134765625000000000f,0.10471116751432418823242187500000f,0.33447757363319396972656250000000f,-0.27621886134147644042968750000000f,-0.06697079539299011230468750000000f,0.18615265190601348876953125000000f,-0.33809000253677368164062500000000f,-0.33410561084747314453125000000000f,1.18449592590332031250000000000000f,-1.08764684200286865234375000000000f,0.30822429060935974121093750000000f,-0.21799290180206298828125000000000f,0.06777650117874145507812500000000f,0.27439340949058532714843750000000f,0.16900449991226196289062500000000f,-0.29848220944404602050781250000000f,0.07579044252634048461914062500000f,0.10327333956956863403320312500000f,-0.74923956394195556640625000000000f,0.16532586514949798583984375000000f,0.37303611636161804199218750000000f,-0.34661883115768432617187500000000f,0.05958943814039230346679687500000f,-0.38572752475738525390625000000000f,-0.15331412851810455322265625000000f,-0.47363114356994628906250000000000f,0.00480544706806540489196777343750f,0.25859495997428894042968750000000f,0.84561192989349365234375000000000f,-0.20505334436893463134765625000000f,0.28018918633460998535156250000000f,-0.15514390170574188232421875000000f,0.15133059024810791015625000000000f,0.00668846862390637397766113281250f,0.47193950414657592773437500000000f,0.01621656864881515502929687500000f,-0.31153023242950439453125000000000f,0.03661975637078285217285156250000f,0.37169715762138366699218750000000f,0.37213924527168273925781250000000f,0.07340079545974731445312500000000f,0.91302400827407836914062500000000f,-1.07989656925201416015625000000000f,-0.28624635934829711914062500000000f,0.73255175352096557617187500000000f,0.03143721818923950195312500000000f,-0.40908351540565490722656250000000f,0.21450397372245788574218750000000f,-0.37631717324256896972656250000000f,1.06975698471069335937500000000000f,0.73972153663635253906250000000000f,-0.23737449944019317626953125000000f,0.15861712396144866943359375000000f,0.07851412147283554077148437500000f,-0.03635355085134506225585937500000f,-0.62736928462982177734375000000000f,0.43735274672508239746093750000000f,-0.04360806196928024291992187500000f,-0.28714334964752197265625000000000f,0.17612396180629730224609375000000f,0.11998726427555084228515625000000f,-0.18864972889423370361328125000000f,-0.35893410444259643554687500000000f,-0.10477185249328613281250000000000f,0.73705279827117919921875000000000f,0.16674484312534332275390625000000f,-0.37279155850410461425781250000000f,-0.26491260528564453125000000000000f,-0.26541072130203247070312500000000f,-0.94249355792999267578125000000000f,-0.18677949905395507812500000000000f,0.82160711288452148437500000000000f,-0.32621088624000549316406250000000f,0.85824143886566162109375000000000f,0.75223273038864135742187500000000f,-0.19690386950969696044921875000000f,-0.09599473327398300170898437500000f,-0.04788422212004661560058593750000f,0.16153076291084289550781250000000f,-0.35892072319984436035156250000000f,0.07611729949712753295898437500000f,-0.38029143214225769042968750000000f,0.06942540407180786132812500000000f,-0.30411264300346374511718750000000f,-0.53236049413681030273437500000000f,1.35151028633117675781250000000000f,-0.30612200498580932617187500000000f,-0.30683869123458862304687500000000f,-0.14629352092742919921875000000000f,0.26088139414787292480468750000000f,0.23027437925338745117187500000000f,0.61699765920639038085937500000000f,-0.23219685256481170654296875000000f,-0.27224576473236083984375000000000f,-0.18639208376407623291015625000000f,0.29170203208923339843750000000000f,0.94602459669113159179687500000000f,-0.27201575040817260742187500000000f,0.15095438063144683837890625000000f,0.94881623983383178710937500000000f,0.41072177886962890625000000000000f,0.20490826666355133056640625000000f,0.35427644848823547363281250000000f,-0.17219357192516326904296875000000f,-0.07843110710382461547851562500000f,0.24338512122631072998046875000000f,-0.46635079383850097656250000000000f,0.24121196568012237548828125000000f,0.23851367831230163574218750000000f,1.21660280227661132812500000000000f,-0.10963915288448333740234375000000f,0.86034500598907470703125000000000f,-0.15574258565902709960937500000000f,-0.00340796401724219322204589843750f,0.41888090968132019042968750000000f,-0.03997728601098060607910156250000f,0.00277557969093322753906250000000f,0.44237250089645385742187500000000f,-0.38889393210411071777343750000000f,-0.11485884338617324829101562500000f,-0.18325257301330566406250000000000f,0.42401760816574096679687500000000f,-0.36559486389160156250000000000000f,0.64385712146759033203125000000000f,-0.35359498858451843261718750000000f,-0.29005712270736694335937500000000f,0.50657445192337036132812500000000f,0.73564583063125610351562500000000f,0.10429108142852783203125000000000f,-0.50595748424530029296875000000000f,-0.36086165904998779296875000000000f,-0.43407669663429260253906250000000f,0.35790911316871643066406250000000f,0.06399911642074584960937500000000f,-0.41126114130020141601562500000000f,-0.01450226083397865295410156250000f,-0.45341843366622924804687500000000f,0.17310881614685058593750000000000f,0.03019905835390090942382812500000f,1.47122740745544433593750000000000f,0.05395227670669555664062500000000f,0.05206922814249992370605468750000f,0.19574172794818878173828125000000f,0.30630406737327575683593750000000f,0.00442254031077027320861816406250f,0.28378066420555114746093750000000f,-0.35122430324554443359375000000000f,-0.23321741819381713867187500000000f,-0.33869281411170959472656250000000f,-0.19272498786449432373046875000000f,0.08864250779151916503906250000000f,0.71632254123687744140625000000000f,-0.57494914531707763671875000000000f,-0.38252615928649902343750000000000f,0.31490999460220336914062500000000f,0.14792571961879730224609375000000f,0.40747851133346557617187500000000f,0.47200670838356018066406250000000f,0.17306059598922729492187500000000f,0.14346338808536529541015625000000f,0.98909068107604980468750000000000f,0.14395427703857421875000000000000f,-0.15898057818412780761718750000000f,0.12591551244258880615234375000000f,-0.24621467292308807373046875000000f,0.23948344588279724121093750000000f,-0.39825916290283203125000000000000f,0.28967323899269104003906250000000f,0.30777764320373535156250000000000f,-0.21468785405158996582031250000000f,-0.40364915132522583007812500000000f,0.23345540463924407958984375000000f,-0.36319124698638916015625000000000f,0.55921292304992675781250000000000f,0.31016126275062561035156250000000f,0.16328613460063934326171875000000f,0.40455058217048645019531250000000f,0.11682502180337905883789062500000f,-0.32457777857780456542968750000000f,-0.20827044546604156494140625000000f,0.25161090493202209472656250000000f,0.29537096619606018066406250000000f,-0.35367703437805175781250000000000f,-0.30041429400444030761718750000000f,-0.18791308999061584472656250000000f,0.19513303041458129882812500000000f,-0.37597391009330749511718750000000f,-0.33917406201362609863281250000000f,-0.25343281030654907226562500000000f,0.11636964231729507446289062500000f,-0.10239381343126296997070312500000f,-0.24626620113849639892578125000000f,-0.36983644962310791015625000000000f,-0.20073270797729492187500000000000f,-1.45697951316833496093750000000000f,0.29559990763664245605468750000000f,-0.30188331007957458496093750000000f,-0.22790615260601043701171875000000f,-0.71544963121414184570312500000000f,0.21659687161445617675781250000000f,0.85343271493911743164062500000000f,-0.21544563770294189453125000000000f,0.82610946893692016601562500000000f,0.22930957376956939697265625000000f,-0.27782103419303894042968750000000f,0.23328669369220733642578125000000f,-0.27460828423500061035156250000000f,0.09262491017580032348632812500000f,0.33357071876525878906250000000000f,0.36629387736320495605468750000000f,0.57099896669387817382812500000000f,0.10610943287611007690429687500000f,1.24525272846221923828125000000000f,-0.62252748012542724609375000000000f,0.10111916065216064453125000000000f,0.05767481029033660888671875000000f,0.08481184393167495727539062500000f,1.04322254657745361328125000000000f,0.07948327809572219848632812500000f,0.92441254854202270507812500000000f,-0.01794556900858879089355468750000f,-0.73119461536407470703125000000000f,0.13746050000190734863281250000000f,0.32725805044174194335937500000000f,0.09546221792697906494140625000000f,0.46383485198020935058593750000000f,0.28018322587013244628906250000000f,-0.13671305775642395019531250000000f,0.17624326050281524658203125000000f,-0.13081319630146026611328125000000f,-0.19538146257400512695312500000000f,0.18421156704425811767578125000000f,0.08936722576618194580078125000000f,0.50189417600631713867187500000000f,-0.02346792444586753845214843750000f,0.36526769399642944335937500000000f,0.60639756917953491210937500000000f,0.33385112881660461425781250000000f,0.25344970822334289550781250000000f,0.18210287392139434814453125000000f,-0.26789531111717224121093750000000f,0.19448646903038024902343750000000f,1.34407281875610351562500000000000f,0.11136422306299209594726562500000f,0.03954122588038444519042968750000f,-0.16258521378040313720703125000000f,0.44426348805427551269531250000000f,0.22576045989990234375000000000000f,-0.36264204978942871093750000000000f,-0.00221739360131323337554931640625f,0.22908435761928558349609375000000f,-0.24514879286289215087890625000000f,-0.30099517107009887695312500000000f,0.23007734119892120361328125000000f,0.25739687681198120117187500000000f,-0.18847046792507171630859375000000f,-0.09998965263366699218750000000000f,-0.54568159580230712890625000000000f,0.58899629116058349609375000000000f,1.18683123588562011718750000000000f,0.41661676764488220214843750000000f,0.08392029255628585815429687500000f,-1.01739466190338134765625000000000f,0.34700238704681396484375000000000f,-0.03842325881123542785644531250000f,1.01932394504547119140625000000000f,-0.70125734806060791015625000000000f,1.80200207233428955078125000000000f,-0.13106234371662139892578125000000f,-0.43506965041160583496093750000000f,0.98545640707015991210937500000000f,-0.27557894587516784667968750000000f,-0.26211062073707580566406250000000f,0.47171562910079956054687500000000f,-0.48356351256370544433593750000000f,1.34534037113189697265625000000000f,0.92271029949188232421875000000000f,0.51535254716873168945312500000000f,-0.33875602483749389648437500000000f,1.80520164966583251953125000000000f,1.40379106998443603515625000000000f,0.81508648395538330078125000000000f,0.97784370183944702148437500000000f,-1.13237833976745605468750000000000f,-0.02795447595417499542236328125000f,0.85374683141708374023437500000000f,1.66963970661163330078125000000000f,1.02775561809539794921875000000000f,-0.17861478030681610107421875000000f,-0.07265811413526535034179687500000f,1.07085669040679931640625000000000f,-0.24207502603530883789062500000000f,1.04182600975036621093750000000000f,0.41030976176261901855468750000000f,1.25150775909423828125000000000000f,-0.26856011152267456054687500000000f,-0.77329140901565551757812500000000f,-0.55421012639999389648437500000000f,-0.01190044078975915908813476562500f,-0.59042990207672119140625000000000f,-0.39727655053138732910156250000000f,-0.25010532140731811523437500000000f,-0.35340157151222229003906250000000f,-0.47598049044609069824218750000000f,-0.39842054247856140136718750000000f,1.12061703205108642578125000000000f,1.61882781982421875000000000000000f,-0.52700883150100708007812500000000f,-0.46801903843879699707031250000000f,-0.23005701601505279541015625000000f,1.20213401317596435546875000000000f,-1.51984834671020507812500000000000f,1.13462543487548828125000000000000f,-0.40119841694831848144531250000000f,-0.14618915319442749023437500000000f,-0.19452974200248718261718750000000f,0.72671085596084594726562500000000f,0.85822725296020507812500000000000f,-0.74301779270172119140625000000000f,-0.88461017608642578125000000000000f,1.16885638236999511718750000000000f,1.27610015869140625000000000000000f,0.40117800235748291015625000000000f,1.37010502815246582031250000000000f,-0.48788091540336608886718750000000f,-0.25078880786895751953125000000000f,0.95736712217330932617187500000000f,-0.24591368436813354492187500000000f,-0.17079472541809082031250000000000f,0.48370495438575744628906250000000f,-0.09391722828149795532226562500000f,1.08170783519744873046875000000000f,-0.45792272686958312988281250000000f,-0.44356420636177062988281250000000f,-0.19753780961036682128906250000000f,-0.11631918698549270629882812500000f,0.81696546077728271484375000000000f,1.08085465431213378906250000000000f,-0.27916112542152404785156250000000f,1.23520290851593017578125000000000f,2.49396681785583496093750000000000f,1.38642632961273193359375000000000f,-0.20612740516662597656250000000000f,-0.18139319121837615966796875000000f,0.09338968992233276367187500000000f,1.18067526817321777343750000000000f,0.85534250736236572265625000000000f,1.40814268589019775390625000000000f,0.06092626973986625671386718750000f,0.24822393059730529785156250000000f,0.48547077178955078125000000000000f,0.07699428498744964599609375000000f,2.72227931022644042968750000000000f,-0.45465287566184997558593750000000f,1.21623992919921875000000000000000f,1.15351355075836181640625000000000f,-0.18637302517890930175781250000000f,1.18725681304931640625000000000000f,-0.29709389805793762207031250000000f,0.38097006082534790039062500000000f,-0.44590795040130615234375000000000f,0.30301320552825927734375000000000f,-1.00809633731842041015625000000000f,1.64036130905151367187500000000000f,2.12992477416992187500000000000000f,0.81718093156814575195312500000000f,0.76997762918472290039062500000000f,1.71708822250366210937500000000000f,0.26976943016052246093750000000000f,1.47325241565704345703125000000000f,1.41171145439147949218750000000000f,1.22274851799011230468750000000000f,0.48805660009384155273437500000000f,1.09265160560607910156250000000000f,-0.37918874621391296386718750000000f,-0.71035605669021606445312500000000f,1.52077329158782958984375000000000f,1.15377247333526611328125000000000f,0.81329339742660522460937500000000f,-0.33505851030349731445312500000000f,3.07020330429077148437500000000000f,0.21835380792617797851562500000000f,1.42015445232391357421875000000000f,-0.35931792855262756347656250000000f,-0.56684458255767822265625000000000f,1.24646079540252685546875000000000f,1.08962190151214599609375000000000f,-0.54603928327560424804687500000000f,-0.32720288634300231933593750000000f,-0.05504722148180007934570312500000f,1.66535937786102294921875000000000f,1.25879812240600585937500000000000f,-0.60026431083679199218750000000000f,2.39258980751037597656250000000000f,-0.95459342002868652343750000000000f,0.96924936771392822265625000000000f,1.60374152660369873046875000000000f,-0.42253988981246948242187500000000f,1.10124552249908447265625000000000f,1.70452201366424560546875000000000f,0.95565587282180786132812500000000f,1.14422762393951416015625000000000f,1.13327825069427490234375000000000f,-0.86116087436676025390625000000000f,0.99918359518051147460937500000000f,-0.67138081789016723632812500000000f,2.20446968078613281250000000000000f,0.00649888720363378524780273437500f,2.00298285484313964843750000000000f,-0.17345841228961944580078125000000f,0.70373308658599853515625000000000f,1.94690895080566406250000000000000f,-0.48542532324790954589843750000000f,0.13146862387657165527343750000000f,0.63211923837661743164062500000000f,1.69586431980133056640625000000000f,1.64152741432189941406250000000000f,0.09958894550800323486328125000000f,1.12563288211822509765625000000000f,1.10442769527435302734375000000000f,1.15019333362579345703125000000000f,1.39556300640106201171875000000000f,0.65923273563385009765625000000000f,1.27086913585662841796875000000000f,1.40892839431762695312500000000000f,-0.67746984958648681640625000000000f,0.87578612565994262695312500000000f,-0.25659352540969848632812500000000f,1.78602159023284912109375000000000f,-0.19697955250740051269531250000000f,1.70613229274749755859375000000000f,1.09979462623596191406250000000000f,-0.88833051919937133789062500000000f,-0.61322921514511108398437500000000f,-1.50519227981567382812500000000000f,-0.63101762533187866210937500000000f,1.24772179126739501953125000000000f,0.81348866224288940429687500000000f,1.17727637290954589843750000000000f,0.44518452882766723632812500000000f,1.24207234382629394531250000000000f,-0.46964925527572631835937500000000f,-0.06822510808706283569335937500000f,1.47994208335876464843750000000000f,-1.91448497772216796875000000000000f,0.75319695472717285156250000000000f,-1.03184592723846435546875000000000f,1.02597951889038085937500000000000f,-0.32128211855888366699218750000000f,-0.62244927883148193359375000000000f,1.23980581760406494140625000000000f,-0.25275075435638427734375000000000f,0.61500960588455200195312500000000f,-0.35514479875564575195312500000000f,1.53818023204803466796875000000000f,-0.45376795530319213867187500000000f,0.98725253343582153320312500000000f,0.91164964437484741210937500000000f,-0.62219321727752685546875000000000f,-1.42465853691101074218750000000000f,0.88744729757308959960937500000000f,-1.05758500099182128906250000000000f,-0.20648013055324554443359375000000f,-0.55928957462310791015625000000000f,0.23273414373397827148437500000000f,1.56505405902862548828125000000000f,1.34854054450988769531250000000000f,1.36443710327148437500000000000000f,1.65804231166839599609375000000000f,-0.97064858675003051757812500000000f,-0.35612899065017700195312500000000f,0.08359374850988388061523437500000f,2.39201283454895019531250000000000f,1.43932282924652099609375000000000f,-0.16449986398220062255859375000000f,-1.43345654010772705078125000000000f,1.20251619815826416015625000000000f,1.23295903205871582031250000000000f,0.77070331573486328125000000000000f,1.45600175857543945312500000000000f,0.88214343786239624023437500000000f,-0.55135065317153930664062500000000f,-0.93525969982147216796875000000000f,1.15911197662353515625000000000000f,1.04987215995788574218750000000000f,-0.91554623842239379882812500000000f,0.24106267094612121582031250000000f,1.33457624912261962890625000000000f,0.44176205992698669433593750000000f,-0.13711519539356231689453125000000f,-0.04368206113576889038085937500000f,-1.40779924392700195312500000000000f,1.25311362743377685546875000000000f,0.66376376152038574218750000000000f,0.17313946783542633056640625000000f,-0.42464861273765563964843750000000f,0.95506900548934936523437500000000f,-0.37418389320373535156250000000000f,-0.05760466307401657104492187500000f,1.84469735622406005859375000000000f,-0.62035357952117919921875000000000f,-0.38178527355194091796875000000000f,1.90004754066467285156250000000000f,1.41386497020721435546875000000000f,-0.54187721014022827148437500000000f,1.71920537948608398437500000000000f,-0.59886777400970458984375000000000f,1.65669143199920654296875000000000f,1.10256838798522949218750000000000f,2.34007883071899414062500000000000f,0.83453053236007690429687500000000f,-0.91616266965866088867187500000000f,0.76714289188385009765625000000000f,-0.70967984199523925781250000000000f,1.51102948188781738281250000000000f,-0.20920477807521820068359375000000f,2.33338642120361328125000000000000f,1.54703438282012939453125000000000f,-0.53111404180526733398437500000000f,-0.80190330743789672851562500000000f,-0.92380374670028686523437500000000f,0.27216205000877380371093750000000f,0.74813246726989746093750000000000f,1.65772724151611328125000000000000f,1.49939286708831787109375000000000f,1.16156411170959472656250000000000f,1.61657071113586425781250000000000f,-0.27792584896087646484375000000000f,-0.38048070669174194335937500000000f,0.70114064216613769531250000000000f,0.66703212261199951171875000000000f,1.74585402011871337890625000000000f,1.07708179950714111328125000000000f,-0.18021182715892791748046875000000f,1.70763528347015380859375000000000f,-0.57438957691192626953125000000000f,0.59101718664169311523437500000000f,-0.17203199863433837890625000000000f,-0.42448943853378295898437500000000f,0.59996187686920166015625000000000f,1.11690282821655273437500000000000f,-0.89930808544158935546875000000000f,1.08359110355377197265625000000000f,2.39777445793151855468750000000000f,1.43711793422698974609375000000000f,-0.30874297022819519042968750000000f,1.09145092964172363281250000000000f,-0.27725666761398315429687500000000f,-0.45325103402137756347656250000000f,0.18465989828109741210937500000000f,1.17450857162475585937500000000000f,0.92304372787475585937500000000000f,1.13588845729827880859375000000000f,-0.68221294879913330078125000000000f,0.58898210525512695312500000000000f,0.68863797187805175781250000000000f,-0.52754110097885131835937500000000f,1.76161992549896240234375000000000f,-0.33703306317329406738281250000000f,1.60449492931365966796875000000000f,0.64089602231979370117187500000000f,-0.33706620335578918457031250000000f,-0.96056234836578369140625000000000f,1.69278860092163085937500000000000f,1.44628369808197021484375000000000f,1.54796063899993896484375000000000f,0.74721294641494750976562500000000f,-0.77580785751342773437500000000000f,0.98733258247375488281250000000000f,0.34011161327362060546875000000000f,-0.28547096252441406250000000000000f,1.06406188011169433593750000000000f,-1.14316594600677490234375000000000f,-0.40849038958549499511718750000000f,-0.25654327869415283203125000000000f,1.04926335811614990234375000000000f,-1.85823154449462890625000000000000f,-0.75702446699142456054687500000000f,-0.34657466411590576171875000000000f,-0.19693709909915924072265625000000f,-0.07680923491716384887695312500000f,0.04889995604753494262695312500000f,-0.81589651107788085937500000000000f,-1.11261129379272460937500000000000f,-0.24091893434524536132812500000000f,0.01555193774402141571044921875000f,0.21952471137046813964843750000000f,2.11341238021850585937500000000000f,-1.15962016582489013671875000000000f,-0.31841433048248291015625000000000f,-0.65687376260757446289062500000000f,-0.21279169619083404541015625000000f,1.58626830577850341796875000000000f,-0.54827660322189331054687500000000f,2.31705617904663085937500000000000f,-0.24978095293045043945312500000000f,-0.33372679352760314941406250000000f,-0.69344484806060791015625000000000f,-0.89547151327133178710937500000000f,-0.69807136058807373046875000000000f,-0.07491080462932586669921875000000f,1.08350551128387451171875000000000f,1.38867783546447753906250000000000f,-0.22738350927829742431640625000000f,0.13885737955570220947265625000000f,-0.39871436357498168945312500000000f,-0.83069115877151489257812500000000f,1.39713108539581298828125000000000f,-0.55438727140426635742187500000000f,-0.35168454051017761230468750000000f,0.85337728261947631835937500000000f,0.45724907517433166503906250000000f,1.27558434009552001953125000000000f,1.02580273151397705078125000000000f,0.26848760247230529785156250000000f,-0.17372083663940429687500000000000f,1.78873717784881591796875000000000f,-0.18340331315994262695312500000000f,0.94759541749954223632812500000000f,0.90621918439865112304687500000000f,-0.43137574195861816406250000000000f,0.04843231663107872009277343750000f,-0.88829404115676879882812500000000f,1.17034304141998291015625000000000f,-0.30045825242996215820312500000000f,0.06470654159784317016601562500000f,1.08496248722076416015625000000000f,0.75254666805267333984375000000000f,0.78073787689208984375000000000000f,0.97122716903686523437500000000000f,-0.91020733118057250976562500000000f,-1.46011531352996826171875000000000f,2.56353569030761718750000000000000f,1.32133316993713378906250000000000f,-0.05668891593813896179199218750000f,0.33894744515419006347656250000000f,0.61290621757507324218750000000000f,-0.94883632659912109375000000000000f,1.09008955955505371093750000000000f,0.48071900010108947753906250000000f,-0.57311040163040161132812500000000f,0.67190909385681152343750000000000f,-0.23071649670600891113281250000000f,-0.33932098746299743652343750000000f,0.88985496759414672851562500000000f,0.82191067934036254882812500000000f,-0.26554313302040100097656250000000f,2.05786013603210449218750000000000f,-0.37969368696212768554687500000000f,1.45279049873352050781250000000000f,1.23892021179199218750000000000000f,-0.43787410855293273925781250000000f,-0.43195429444313049316406250000000f,1.42844057083129882812500000000000f,1.03929877281188964843750000000000f,-1.36654961109161376953125000000000f,1.90994834899902343750000000000000f,1.23251020908355712890625000000000f,-0.37722477316856384277343750000000f,0.60979646444320678710937500000000f,-0.38114470243453979492187500000000f,2.50397348403930664062500000000000f,0.97450959682464599609375000000000f,0.89263582229614257812500000000000f,-0.99776428937911987304687500000000f,-0.53496497869491577148437500000000f,-1.13678848743438720703125000000000f,-0.98570603132247924804687500000000f,-2.07345819473266601562500000000000f,1.27179133892059326171875000000000f,0.98090237379074096679687500000000f,-1.18518531322479248046875000000000f,-1.29109227657318115234375000000000f,1.19757390022277832031250000000000f,-0.05505965277552604675292968750000f,0.79405981302261352539062500000000f,-0.31295520067214965820312500000000f,1.13193869590759277343750000000000f,-0.80292886495590209960937500000000f,1.44072854518890380859375000000000f,0.90875381231307983398437500000000f,1.00671768188476562500000000000000f,-0.69877374172210693359375000000000f,1.18099772930145263671875000000000f,-0.95536470413208007812500000000000f,-0.47128924727439880371093750000000f,1.56960868835449218750000000000000f,1.65054225921630859375000000000000f,0.72054249048233032226562500000000f,1.56251859664916992187500000000000f,-0.09094641357660293579101562500000f,2.05947804450988769531250000000000f,1.49152565002441406250000000000000f,1.32536184787750244140625000000000f,-0.39890813827514648437500000000000f,-0.35802507400512695312500000000000f,-0.39657920598983764648437500000000f,1.69264638423919677734375000000000f,-0.87738639116287231445312500000000f,-0.80436778068542480468750000000000f,-0.33909100294113159179687500000000f,0.80128687620162963867187500000000f,1.95260751247406005859375000000000f,-0.29115799069404602050781250000000f,-0.48563659191131591796875000000000f,2.16461777687072753906250000000000f,1.09834039211273193359375000000000f,0.22010722756385803222656250000000f,-0.61426711082458496093750000000000f,-0.61472785472869873046875000000000f,0.42897218465805053710937500000000f,1.42691791057586669921875000000000f,0.36150148510932922363281250000000f,1.63928747177124023437500000000000f,-0.35069084167480468750000000000000f,1.11479926109313964843750000000000f,-0.10439695417881011962890625000000f,1.31060981750488281250000000000000f,2.39812374114990234375000000000000f,-0.12445005029439926147460937500000f,0.73380225896835327148437500000000f,0.66502088308334350585937500000000f,0.90471100807189941406250000000000f,1.81135582923889160156250000000000f,-0.49747473001480102539062500000000f,0.89152884483337402343750000000000f,1.02776634693145751953125000000000f,-1.31640410423278808593750000000000f,1.37627637386322021484375000000000f,0.24013189971446990966796875000000f,1.49566018581390380859375000000000f,0.51494526863098144531250000000000f,0.17853632569313049316406250000000f,-0.11044542491436004638671875000000f,-0.40536141395568847656250000000000f,-0.21636474132537841796875000000000f,-0.94011795520782470703125000000000f,1.04082870483398437500000000000000f,-0.40905296802520751953125000000000f,-0.17728203535079956054687500000000f,1.26681029796600341796875000000000f,1.97045993804931640625000000000000f,-0.30387625098228454589843750000000f,1.32067203521728515625000000000000f,-0.28341409564018249511718750000000f,1.08383381366729736328125000000000f,0.66062229871749877929687500000000f,1.13877546787261962890625000000000f,0.84387826919555664062500000000000f,-0.93725168704986572265625000000000f,-1.07697486877441406250000000000000f,1.09332764148712158203125000000000f,-0.51362639665603637695312500000000f,1.19019925594329833984375000000000f,0.63961559534072875976562500000000f,1.43955028057098388671875000000000f,0.99544656276702880859375000000000f,-0.50876307487487792968750000000000f,0.87531524896621704101562500000000f,1.48419475555419921875000000000000f,-0.26147571206092834472656250000000f,-0.15035933256149291992187500000000f,1.07405304908752441406250000000000f,-0.40870705246925354003906250000000f,-0.75336933135986328125000000000000f,1.10857534408569335937500000000000f,1.31833982467651367187500000000000f,2.00872445106506347656250000000000f,0.03519678115844726562500000000000f,1.77681291103363037109375000000000f,-1.45761620998382568359375000000000f,-0.15544651448726654052734375000000f,0.40820252895355224609375000000000f,0.61395686864852905273437500000000f,0.73535156250000000000000000000000f,1.53426170349121093750000000000000f,1.40300416946411132812500000000000f,0.19332954287528991699218750000000f,-0.04839503020048141479492187500000f,0.13871605694293975830078125000000f,-0.12635542452335357666015625000000f,-0.31163221597671508789062500000000f,0.27517247200012207031250000000000f,-0.34122660756111145019531250000000f,-0.51101446151733398437500000000000f,0.41428789496421813964843750000000f,-0.20144823193550109863281250000000f,0.02375914715230464935302734375000f,0.15721452236175537109375000000000f,0.22233749926090240478515625000000f,0.15394383668899536132812500000000f,-0.03341343626379966735839843750000f,0.33867880702018737792968750000000f,0.48900279402732849121093750000000f,0.39549294114112854003906250000000f,0.03422977030277252197265625000000f,-0.31091067194938659667968750000000f,0.14704678952693939208984375000000f,0.00282596284523606300354003906250f,0.07411275058984756469726562500000f,-0.29002454876899719238281250000000f,0.06271184235811233520507812500000f,0.13794216513633728027343750000000f,-0.51808601617813110351562500000000f,0.27786001563072204589843750000000f,0.37571024894714355468750000000000f,0.09979315847158432006835937500000f,1.23514151573181152343750000000000f,0.05541181936860084533691406250000f,0.62680685520172119140625000000000f,-0.10654305666685104370117187500000f,0.29932552576065063476562500000000f,-0.24399904906749725341796875000000f,-0.38026612997055053710937500000000f,-0.21472106873989105224609375000000f,-0.39822420477867126464843750000000f,-0.34583956003189086914062500000000f,0.10257657617330551147460937500000f,0.04364333301782608032226562500000f,-0.25369611382484436035156250000000f,-0.24839463829994201660156250000000f,0.53179144859313964843750000000000f,0.11733729392290115356445312500000f,1.01704347133636474609375000000000f,0.10371275991201400756835937500000f,-0.23934863507747650146484375000000f,-0.15978442132472991943359375000000f,-0.34463360905647277832031250000000f,0.54257267713546752929687500000000f,-0.13797071576118469238281250000000f,-0.19259704649448394775390625000000f,-0.11149112880229949951171875000000f,0.15975086390972137451171875000000f,0.08532616496086120605468750000000f,-1.02181124687194824218750000000000f,0.18246048688888549804687500000000f,-0.26906126737594604492187500000000f,-0.23765894770622253417968750000000f,0.25438407063484191894531250000000f,-0.19394370913505554199218750000000f,-0.22757396101951599121093750000000f,-0.07055684924125671386718750000000f,-0.21660088002681732177734375000000f,-0.10772075504064559936523437500000f,-0.25978374481201171875000000000000f,-0.25324669480323791503906250000000f,-0.28531375527381896972656250000000f,-0.64104330539703369140625000000000f,0.32908278703689575195312500000000f,0.18102063238620758056640625000000f,-0.25474765896797180175781250000000f,0.11075071245431900024414062500000f,-0.42857089638710021972656250000000f,-0.25857791304588317871093750000000f,-0.33023121953010559082031250000000f,-0.20281693339347839355468750000000f,-0.04470464587211608886718750000000f,0.33711120486259460449218750000000f,0.19779826700687408447265625000000f,-0.32801368832588195800781250000000f,1.00838482379913330078125000000000f,0.79707509279251098632812500000000f,0.54168474674224853515625000000000f,-0.04814506694674491882324218750000f,-0.47345620393753051757812500000000f,0.67264527082443237304687500000000f,0.03518168628215789794921875000000f,-0.18595696985721588134765625000000f,-0.19207464158535003662109375000000f,0.03634212911128997802734375000000f,-0.27397176623344421386718750000000f,0.07182412594556808471679687500000f,0.50092786550521850585937500000000f,1.47233355045318603515625000000000f,0.33588990569114685058593750000000f,0.04319952800869941711425781250000f,-0.41692307591438293457031250000000f,0.24317412078380584716796875000000f,0.45741534233093261718750000000000f,-0.00339855090714991092681884765625f,-0.27035889029502868652343750000000f,0.22147282958030700683593750000000f,-0.20197041332721710205078125000000f,-0.11384659260511398315429687500000f,0.73589789867401123046875000000000f,0.11600948870182037353515625000000f,-0.25368976593017578125000000000000f,0.33815044164657592773437500000000f,-0.05627500638365745544433593750000f,0.20378169417381286621093750000000f,0.18911911547183990478515625000000f,-0.19024664163589477539062500000000f,-0.29196867346763610839843750000000f,-0.04616854339838027954101562500000f,0.14637672901153564453125000000000f,-0.42475572228431701660156250000000f,0.35217902064323425292968750000000f,0.01994106546044349670410156250000f,0.18579995632171630859375000000000f,-0.12825062870979309082031250000000f,-0.13153985142707824707031250000000f,-0.41703325510025024414062500000000f,-0.00559065444394946098327636718750f,0.30610445141792297363281250000000f,-0.33976021409034729003906250000000f,-0.32013168931007385253906250000000f,0.24364039301872253417968750000000f,-0.04507090523838996887207031250000f,0.03403278067708015441894531250000f,-0.32290378212928771972656250000000f,0.20062923431396484375000000000000f,0.27450719475746154785156250000000f,0.10210194438695907592773437500000f,0.21391230821609497070312500000000f,0.10398378968238830566406250000000f,-0.37423586845397949218750000000000f,0.22984488308429718017578125000000f,-0.44036346673965454101562500000000f,-0.10324313491582870483398437500000f,-0.22263461351394653320312500000000f,-0.30555450916290283203125000000000f,-0.28546774387359619140625000000000f,0.46142387390136718750000000000000f,-0.06836412101984024047851562500000f,-0.61484056711196899414062500000000f,-0.32204109430313110351562500000000f,0.78947556018829345703125000000000f,0.10640295594930648803710937500000f,-0.17759461700916290283203125000000f,0.07100754231214523315429687500000f,0.08797419816255569458007812500000f,0.10403633862733840942382812500000f,0.13389696180820465087890625000000f,0.11652775853872299194335937500000f,0.16305792331695556640625000000000f,-0.05744636803865432739257812500000f,-0.00257848482578992843627929687500f,-0.20933540165424346923828125000000f,0.23359926044940948486328125000000f,-0.36955079436302185058593750000000f,-0.01246523763984441757202148437500f,0.02898294106125831604003906250000f,-0.19438919425010681152343750000000f,0.13738273084163665771484375000000f,-0.18121442198753356933593750000000f,-0.15685543417930603027343750000000f,0.11607190221548080444335937500000f,0.47136390209197998046875000000000f,0.10853518545627593994140625000000f,-0.74186813831329345703125000000000f,0.09828829020261764526367187500000f,-0.12159386277198791503906250000000f,0.09718339145183563232421875000000f,0.49006485939025878906250000000000f,-0.36850312352180480957031250000000f,