#include <polimidl/layers/alignment.hpp>
alignas(polimidl::layers::buffer_alignment::byte_alignment) const float weight39[] = {-0.45848622918128967285156250000000f,-0.09074532240629196166992187500000f,0.53071850538253784179687500000000f,0.86305564641952514648437500000000f,-0.28752821683883666992187500000000f,-1.01572358608245849609375000000000f,0.13916324079036712646484375000000f,-0.00646547367796301841735839843750f,0.08225657790899276733398437500000f,0.10396552830934524536132812500000f,0.58330792188644409179687500000000f,-0.04211948812007904052734375000000f,0.22502820193767547607421875000000f,-0.45336326956748962402343750000000f,0.45716649293899536132812500000000f,-0.34682354331016540527343750000000f,0.00642588222399353981018066406250f,-0.05406040698289871215820312500000f,0.29639765620231628417968750000000f,0.02356068976223468780517578125000f,1.49169754981994628906250000000000f,0.98099780082702636718750000000000f,-0.31744143366813659667968750000000f,0.57607853412628173828125000000000f,0.74739736318588256835937500000000f,0.13043335080146789550781250000000f,0.15817044675350189208984375000000f,-0.39438867568969726562500000000000f,0.10019525140523910522460937500000f,-0.06441273540258407592773437500000f,0.06188042834401130676269531250000f,-0.59411662817001342773437500000000f,-0.05697080865502357482910156250000f,-0.02301993779838085174560546875000f,0.07035201787948608398437500000000f,0.15384969115257263183593750000000f,0.03462143614888191223144531250000f,-0.29960677027702331542968750000000f,0.23987029492855072021484375000000f,-0.00628210278227925300598144531250f,0.41488105058670043945312500000000f,0.30419328808784484863281250000000f,-0.09699774533510208129882812500000f,-0.68889939785003662109375000000000f,-0.31343051791191101074218750000000f,0.32387986779212951660156250000000f,-0.06572264432907104492187500000000f,-0.55746865272521972656250000000000f,-0.27239611744880676269531250000000f,0.40216886997222900390625000000000f,0.13363751769065856933593750000000f,0.36040666699409484863281250000000f,0.14679321646690368652343750000000f,0.37929871678352355957031250000000f,-0.30678153038024902343750000000000f,-0.48740783333778381347656250000000f,-0.32825714349746704101562500000000f,-0.43989381194114685058593750000000f,-0.40634778141975402832031250000000f,-0.33737963438034057617187500000000f,-0.37552624940872192382812500000000f,0.03502427786588668823242187500000f,-0.34362974762916564941406250000000f,-0.42553928494453430175781250000000f,0.26709339022636413574218750000000f,-0.23513211309909820556640625000000f,0.10951590538024902343750000000000f,0.24375788867473602294921875000000f,-0.04648878052830696105957031250000f,0.50529301166534423828125000000000f,0.27308627963066101074218750000000f,-0.42544889450073242187500000000000f,-0.32692071795463562011718750000000f,0.24531304836273193359375000000000f,0.60994344949722290039062500000000f,0.52363079786300659179687500000000f,-0.35341653227806091308593750000000f,0.55340677499771118164062500000000f,-0.03403361514210700988769531250000f,0.03740771859884262084960937500000f,-0.35345882177352905273437500000000f,0.30610725283622741699218750000000f,-0.22429907321929931640625000000000f,-0.60000175237655639648437500000000f,-0.19163075089454650878906250000000f,-0.38453704118728637695312500000000f,0.06417555361986160278320312500000f,-0.26687169075012207031250000000000f,0.10652898252010345458984375000000f,0.03353464230895042419433593750000f,0.27883192896842956542968750000000f,0.10676371306180953979492187500000f,0.05708744749426841735839843750000f,0.21539348363876342773437500000000f,0.30834633111953735351562500000000f,-0.54136484861373901367187500000000f,-0.37211108207702636718750000000000f,0.65767621994018554687500000000000f,0.35830187797546386718750000000000f,0.15255127847194671630859375000000f,0.24789972603321075439453125000000f,0.32070013880729675292968750000000f,0.90370953083038330078125000000000f,0.04598827287554740905761718750000f,0.14464665949344635009765625000000f,0.24742443859577178955078125000000f,-0.36275872588157653808593750000000f,-0.06279159337282180786132812500000f,-0.30375492572784423828125000000000f,0.43212684988975524902343750000000f,-0.30440542101860046386718750000000f,-0.14805626869201660156250000000000f,0.07419589906930923461914062500000f,0.40157669782638549804687500000000f,-0.04904851689934730529785156250000f,1.39004206657409667968750000000000f,-0.36612457036972045898437500000000f,-0.30241101980209350585937500000000f,0.18045257031917572021484375000000f,-0.19566960632801055908203125000000f,0.03479053825139999389648437500000f,0.31492811441421508789062500000000f,0.36268669366836547851562500000000f,0.04112144932150840759277343750000f,0.34672397375106811523437500000000f,0.38371244072914123535156250000000f,0.17125633358955383300781250000000f,0.37180411815643310546875000000000f,0.41691234707832336425781250000000f,0.03040648810565471649169921875000f,-0.31448096036911010742187500000000f,0.42771661281585693359375000000000f,0.10766901820898056030273437500000f,0.06667948514223098754882812500000f,-0.11848856508731842041015625000000f,0.17691336572170257568359375000000f,-0.01802079379558563232421875000000f,-0.40696513652801513671875000000000f,0.08654237538576126098632812500000f,-0.23752707242965698242187500000000f,0.19418829679489135742187500000000f,-0.00852059852331876754760742187500f,-0.63666653633117675781250000000000f,-0.03962339088320732116699218750000f,-0.17941111326217651367187500000000f,-0.11091714352369308471679687500000f,-0.32721462845802307128906250000000f,-0.03371505066752433776855468750000f,0.18330723047256469726562500000000f,0.19987817108631134033203125000000f,0.11036170274019241333007812500000f,-0.05864341184496879577636718750000f,0.11829844117164611816406250000000f,0.07266934216022491455078125000000f,0.15464094281196594238281250000000f,0.00917853880673646926879882812500f,-0.25132873654365539550781250000000f,0.15624000132083892822265625000000f,0.13587601482868194580078125000000f,0.13060331344604492187500000000000f,0.30881255865097045898437500000000f,-0.21270249783992767333984375000000f,-0.00661363964900374412536621093750f,0.00554586667567491531372070312500f,-0.37820035219192504882812500000000f,0.31072282791137695312500000000000f,0.07616978138685226440429687500000f,-0.35545912384986877441406250000000f,-0.06747676432132720947265625000000f,-0.14691297709941864013671875000000f,0.08697552233934402465820312500000f,0.17664520442485809326171875000000f,0.26094469428062438964843750000000f,0.14531892538070678710937500000000f,-0.16039212048053741455078125000000f,-0.34188774228096008300781250000000f,-0.42916244268417358398437500000000f,-0.30705308914184570312500000000000f,0.91665887832641601562500000000000f,-0.18061167001724243164062500000000f,-0.43914753198623657226562500000000f,0.50384014844894409179687500000000f,-0.12424491345882415771484375000000f,0.17371748387813568115234375000000f,-0.14920629560947418212890625000000f,-0.32154637575149536132812500000000f,-0.33093869686126708984375000000000f,0.06736807525157928466796875000000f,0.04691567644476890563964843750000f,0.07973366975784301757812500000000f,0.59475189447402954101562500000000f,0.03086698986589908599853515625000f,-0.23985856771469116210937500000000f,0.01704784668982028961181640625000f,0.47164136171340942382812500000000f,-0.26535412669181823730468750000000f,-0.06966961175203323364257812500000f,-0.08296901732683181762695312500000f,-0.39786326885223388671875000000000f,-0.05140291899442672729492187500000f,0.06519743800163269042968750000000f,-0.09962920099496841430664062500000f,-0.21581171452999114990234375000000f,-0.25284904241561889648437500000000f,0.07178041338920593261718750000000f,-0.04426459595561027526855468750000f,0.30717286467552185058593750000000f,-0.40697148442268371582031250000000f,-0.12506230175495147705078125000000f,-0.11213211715221405029296875000000f,0.02870123460888862609863281250000f,-0.21249550580978393554687500000000f,-0.90686148405075073242187500000000f,0.16582779586315155029296875000000f,0.05567980930209159851074218750000f,0.45960649847984313964843750000000f,-0.26276639103889465332031250000000f,-0.31337127089500427246093750000000f,-0.21332240104675292968750000000000f,-0.33282005786895751953125000000000f,-0.35380393266677856445312500000000f,0.15389978885650634765625000000000f,0.29276990890502929687500000000000f,0.47879725694656372070312500000000f,0.49368536472320556640625000000000f,-0.28865781426429748535156250000000f,0.13246621191501617431640625000000f,-0.18505123257637023925781250000000f,-0.05616469308733940124511718750000f,0.30248197913169860839843750000000f,-0.29388555884361267089843750000000f,-0.05897963047027587890625000000000f,-0.38624972105026245117187500000000f,-0.33834022283554077148437500000000f,0.19753642380237579345703125000000f,-0.05601042509078979492187500000000f,0.17767922580242156982421875000000f,-0.58896046876907348632812500000000f,-0.08627273142337799072265625000000f,-0.13919053971767425537109375000000f,0.17393608391284942626953125000000f,0.45757776498794555664062500000000f,0.17212988436222076416015625000000f,-0.37760806083679199218750000000000f,0.48543015122413635253906250000000f,-0.44399890303611755371093750000000f,0.11931122839450836181640625000000f,-0.23503272235393524169921875000000f,0.62473237514495849609375000000000f,-0.39273560047149658203125000000000f,0.03400696814060211181640625000000f,-0.40526285767555236816406250000000f,0.22384011745452880859375000000000f,0.07546461373567581176757812500000f,-0.35456281900405883789062500000000f,-0.10165431350469589233398437500000f,-0.23391099274158477783203125000000f,0.37764576077461242675781250000000f,-0.32548549771308898925781250000000f,-0.04081524908542633056640625000000f,0.23412308096885681152343750000000f,0.15056821703910827636718750000000f,-0.59425985813140869140625000000000f,0.36051058769226074218750000000000f,-0.39230591058731079101562500000000f,0.02191919647157192230224609375000f,0.35471794009208679199218750000000f,-0.77207851409912109375000000000000f,0.18018007278442382812500000000000f,-0.72610682249069213867187500000000f,0.00937983859330415725708007812500f,0.07721848040819168090820312500000f,-0.29503661394119262695312500000000f,-0.22323352098464965820312500000000f,0.01678978092968463897705078125000f,-0.43549111485481262207031250000000f,-0.37096038460731506347656250000000f,0.00834375154227018356323242187500f,0.20724348723888397216796875000000f,0.62778538465499877929687500000000f,-0.31925675272941589355468750000000f,-0.38567578792572021484375000000000f,-1.03689801692962646484375000000000f,0.10697853565216064453125000000000f,-0.19650939106941223144531250000000f,0.19476024806499481201171875000000f,0.23601688444614410400390625000000f,1.17520630359649658203125000000000f,0.03780772536993026733398437500000f,-0.39198413491249084472656250000000f,0.56804889440536499023437500000000f,-0.31231999397277832031250000000000f,0.14964474737644195556640625000000f,-0.24189022183418273925781250000000f,-0.21462094783782958984375000000000f,-0.34635242819786071777343750000000f,0.10480474680662155151367187500000f,-0.29660853743553161621093750000000f,-0.03021950274705886840820312500000f,-0.19060233235359191894531250000000f,-0.31733593344688415527343750000000f,-0.06251541525125503540039062500000f,-0.47729581594467163085937500000000f,-0.32412517070770263671875000000000f,0.18801942467689514160156250000000f,0.22929194569587707519531250000000f,-0.60299509763717651367187500000000f,-0.21633590757846832275390625000000f,-0.30476620793342590332031250000000f,-0.24294377863407135009765625000000f,-0.31937527656555175781250000000000f,0.15815612673759460449218750000000f,0.31471854448318481445312500000000f,-0.21753665804862976074218750000000f,-0.27560785412788391113281250000000f,0.25758150219917297363281250000000f,-0.26418578624725341796875000000000f,0.65986019372940063476562500000000f,-0.24857401847839355468750000000000f,-0.41466683149337768554687500000000f,0.18674738705158233642578125000000f,-0.23620146512985229492187500000000f,-0.08921078592538833618164062500000f,0.10059841722249984741210937500000f,-0.31947273015975952148437500000000f,-0.59470242261886596679687500000000f,-0.37608700990676879882812500000000f,0.01292800530791282653808593750000f,0.20497497916221618652343750000000f,0.11193881928920745849609375000000f,-0.43630796670913696289062500000000f,-0.25453406572341918945312500000000f,-0.27840030193328857421875000000000f,0.19215343892574310302734375000000f,0.56788104772567749023437500000000f,-0.09778919816017150878906250000000f,-0.11150272190570831298828125000000f,-0.39274811744689941406250000000000f,0.02921175770461559295654296875000f,-0.31616815924644470214843750000000f,0.36855602264404296875000000000000f,0.20548166334629058837890625000000f,-0.00627691531553864479064941406250f,0.10696304589509963989257812500000f,0.13663883507251739501953125000000f,-0.52668178081512451171875000000000f,-0.64040756225585937500000000000000f,-0.34977710247039794921875000000000f,0.38712218403816223144531250000000f,-0.14194640517234802246093750000000f,-0.21780884265899658203125000000000f,0.19628253579139709472656250000000f,-0.32558402419090270996093750000000f,-0.17927646636962890625000000000000f,-0.55212849378585815429687500000000f,0.18005593121051788330078125000000f,-0.09708224236965179443359375000000f,-0.26934573054313659667968750000000f,-0.06755235046148300170898437500000f,-0.10091279447078704833984375000000f,-0.15636488795280456542968750000000f,0.09005571901798248291015625000000f,-0.22623470425605773925781250000000f,0.02361477166414260864257812500000f,0.71679037809371948242187500000000f,-0.15088109672069549560546875000000f,0.10431444644927978515625000000000f,0.15445463359355926513671875000000f,-0.00841044448316097259521484375000f,-0.33437421917915344238281250000000f,0.03217988461256027221679687500000f,0.09766735136508941650390625000000f,0.12693579494953155517578125000000f,1.18007051944732666015625000000000f,0.20184054970741271972656250000000f,0.14702247083187103271484375000000f,-0.23396609723567962646484375000000f,-0.17876140773296356201171875000000f,-0.37596806883811950683593750000000f,-0.27842855453491210937500000000000f,-0.35572269558906555175781250000000f,-0.40632969141006469726562500000000f,-0.07138337939977645874023437500000f,0.83210092782974243164062500000000f,0.30814692378044128417968750000000f,0.05198973044753074645996093750000f,-0.23328259587287902832031250000000f,-0.33399766683578491210937500000000f,0.27061536908149719238281250000000f,0.27873712778091430664062500000000f,-1.04560077190399169921875000000000f,0.25484046339988708496093750000000f,0.12899015843868255615234375000000f,0.06907195597887039184570312500000f,-0.01196720357984304428100585937500f,-0.04549830034375190734863281250000f,0.35133439302444458007812500000000f,0.08545492589473724365234375000000f,0.25267645716667175292968750000000f,0.13777290284633636474609375000000f,-0.25858524441719055175781250000000f,0.14663240313529968261718750000000f,0.04287031665444374084472656250000f,0.10946778208017349243164062500000f,-0.11899399757385253906250000000000f,-0.28212988376617431640625000000000f,0.19499759376049041748046875000000f,0.15096345543861389160156250000000f,0.29869121313095092773437500000000f,0.36015787720680236816406250000000f,-0.18729788064956665039062500000000f,0.10231579095125198364257812500000f,0.08837464451789855957031250000000f,-0.33990249037742614746093750000000f,-0.21867817640304565429687500000000f,-0.56659662723541259765625000000000f,0.13323593139648437500000000000000f,-0.23448432981967926025390625000000f,-0.31760576367378234863281250000000f,0.98223268985748291015625000000000f,-0.51067930459976196289062500000000f,-0.32335522770881652832031250000000f,-0.19361619651317596435546875000000f,-0.25057515501976013183593750000000f,0.41257259249687194824218750000000f,-0.15631732344627380371093750000000f,-0.18257713317871093750000000000000f,-0.48101675510406494140625000000000f,0.91836309432983398437500000000000f,-0.16545814275741577148437500000000f,-0.31458878517150878906250000000000f,-0.27092248201370239257812500000000f,-0.43409681320190429687500000000000f,-0.42853441834449768066406250000000f,-0.32199770212173461914062500000000f,0.67885941267013549804687500000000f,0.48237082362174987792968750000000f,-0.28815215826034545898437500000000f,-0.42356565594673156738281250000000f,0.22909811139106750488281250000000f,0.02275143377482891082763671875000f,-0.29178816080093383789062500000000f,0.23941348493099212646484375000000f,0.11620155721902847290039062500000f,-0.42021459341049194335937500000000f,-0.09193765372037887573242187500000f,-0.03932014107704162597656250000000f,0.14053048193454742431640625000000f,0.07676950842142105102539062500000f,1.19611632823944091796875000000000f,-0.07363603264093399047851562500000f,0.26249089837074279785156250000000f,-0.02693945541977882385253906250000f,0.24647617340087890625000000000000f,0.09623655676841735839843750000000f,0.26478734612464904785156250000000f,0.41621688008308410644531250000000f,0.31725871562957763671875000000000f,0.51387983560562133789062500000000f,-0.32209137082099914550781250000000f,-0.47170403599739074707031250000000f,0.03421701118350028991699218750000f,-0.24972663819789886474609375000000f,-0.71586495637893676757812500000000f,-0.37722629308700561523437500000000f,0.07313890755176544189453125000000f,0.09711675345897674560546875000000f,-0.39750769734382629394531250000000f,-0.35744258761405944824218750000000f,0.21152462065219879150390625000000f,-0.27711576223373413085937500000000f,-0.44133129715919494628906250000000f,0.30849048495292663574218750000000f,-0.15849286317825317382812500000000f,0.12207855284214019775390625000000f,-0.11676905304193496704101562500000f,0.38824644684791564941406250000000f,-0.86271405220031738281250000000000f,0.12143362313508987426757812500000f,-0.33027887344360351562500000000000f,-0.06575825065374374389648437500000f,0.12728245556354522705078125000000f,-0.40614804625511169433593750000000f,-0.62310481071472167968750000000000f,0.13409127295017242431640625000000f,-0.07762526720762252807617187500000f,-0.52986240386962890625000000000000f,0.31579446792602539062500000000000f,0.15829426050186157226562500000000f,-0.34099388122558593750000000000000f,0.32539206743240356445312500000000f,0.49417313933372497558593750000000f,-0.35543766617774963378906250000000f,-0.14825715124607086181640625000000f,0.15016822516918182373046875000000f,0.21541316807270050048828125000000f,-0.36940822005271911621093750000000f,-0.21005636453628540039062500000000f,-0.23759005963802337646484375000000f,-0.17769418656826019287109375000000f,0.29535365104675292968750000000000f,0.29565945267677307128906250000000f,-0.38160780072212219238281250000000f,-0.24222417175769805908203125000000f,-0.28747293353080749511718750000000f,-0.31561753153800964355468750000000f,0.15022435784339904785156250000000f,-0.25506129860877990722656250000000f,-0.28771540522575378417968750000000f,-0.19990323483943939208984375000000f,-0.28757560253143310546875000000000f,0.30018875002861022949218750000000f,-0.16481198370456695556640625000000f,-0.41342419385910034179687500000000f,0.07791744917631149291992187500000f,0.89008688926696777343750000000000f,-0.21716663241386413574218750000000f,0.26406121253967285156250000000000f,0.51385021209716796875000000000000f,0.07817690819501876831054687500000f,0.32823744416236877441406250000000f,0.04457475990056991577148437500000f,-0.01423268299549818038940429687500f,-0.31829616427421569824218750000000f,0.39330324530601501464843750000000f,-0.37478616833686828613281250000000f,0.40447962284088134765625000000000f,-0.21464668214321136474609375000000f,0.21686868369579315185546875000000f,0.13912445306777954101562500000000f,0.20015737414360046386718750000000f,0.43456330895423889160156250000000f,-0.13368527591228485107421875000000f,0.03630979731678962707519531250000f,-0.27287146449089050292968750000000f,-0.28001785278320312500000000000000f,0.01771556027233600616455078125000f,0.35442098975181579589843750000000f,0.35608151555061340332031250000000f,-0.23829099535942077636718750000000f,0.24631650745868682861328125000000f,0.46699160337448120117187500000000f,0.13321018218994140625000000000000f,-0.58196645975112915039062500000000f,-0.15620279312133789062500000000000f,0.21936602890491485595703125000000f,0.43014964461326599121093750000000f,-1.42346692085266113281250000000000f,-0.08691661804914474487304687500000f,-0.27973428368568420410156250000000f,1.71170568466186523437500000000000f,-0.70748090744018554687500000000000f,0.06887295097112655639648437500000f,0.44045710563659667968750000000000f,0.41312322020530700683593750000000f,1.06691122055053710937500000000000f,-0.18694524466991424560546875000000f,1.20504498481750488281250000000000f,-0.27627086639404296875000000000000f,0.00173022726085036993026733398438f,-0.28713542222976684570312500000000f,-0.09343750774860382080078125000000f,0.02509277313947677612304687500000f,0.44038844108581542968750000000000f,0.14557626843452453613281250000000f,1.33272898197174072265625000000000f,-0.07557402551174163818359375000000f,-0.19006739556789398193359375000000f,-0.50666946172714233398437500000000f,-0.23452930152416229248046875000000f,-1.07950055599212646484375000000000f,-0.25887790322303771972656250000000f,-0.08009617775678634643554687500000f,-0.22909918427467346191406250000000f,-0.28692546486854553222656250000000f,-0.06744682788848876953125000000000f,0.08095831423997879028320312500000f,0.52228981256484985351562500000000f,-0.04752728715538978576660156250000f,0.45515969395637512207031250000000f,-0.07183136790990829467773437500000f,-0.00334225408732891082763671875000f,0.20381058752536773681640625000000f,-0.46950465440750122070312500000000f,-0.26020625233650207519531250000000f,-0.80867391824722290039062500000000f,1.29627931118011474609375000000000f,0.57750213146209716796875000000000f,-0.89649230241775512695312500000000f,0.73682838678359985351562500000000f,0.41027614474296569824218750000000f,-0.48434329032897949218750000000000f,-0.71680951118469238281250000000000f,-0.25136533379554748535156250000000f,-0.25580176711082458496093750000000f,-0.80093097686767578125000000000000f,0.58193880319595336914062500000000f,-0.19713164865970611572265625000000f,0.27345475554466247558593750000000f,-0.16996109485626220703125000000000f,0.56705427169799804687500000000000f,0.51057881116867065429687500000000f,0.68637377023696899414062500000000f,0.21054711937904357910156250000000f,0.39436480402946472167968750000000f,0.19644096493721008300781250000000f,1.09420919418334960937500000000000f,-1.09134852886199951171875000000000f,-0.32036778330802917480468750000000f,0.39924293756484985351562500000000f,0.75043326616287231445312500000000f,-0.53056412935256958007812500000000f,0.23165978491306304931640625000000f,0.47481077909469604492187500000000f,0.59460300207138061523437500000000f,0.02758749574422836303710937500000f,-0.21770937740802764892578125000000f,-0.11587651073932647705078125000000f,-0.20850604772567749023437500000000f,0.34360471367835998535156250000000f,-0.33198386430740356445312500000000f,0.26379823684692382812500000000000f,-0.33042168617248535156250000000000f,-0.10404481738805770874023437500000f,-0.08880282938480377197265625000000f,0.48418894410133361816406250000000f,-0.12105863541364669799804687500000f,-0.37329137325286865234375000000000f,-0.31650841236114501953125000000000f,-0.25607809424400329589843750000000f,0.53507548570632934570312500000000f,-0.77197009325027465820312500000000f,0.12211932241916656494140625000000f,0.78745383024215698242187500000000f,0.15562064945697784423828125000000f,0.74353575706481933593750000000000f,0.20471720397472381591796875000000f,0.76463800668716430664062500000000f,-0.52757120132446289062500000000000f,0.90202248096466064453125000000000f,-0.49139529466629028320312500000000f,0.04517416283488273620605468750000f,0.19438922405242919921875000000000f,0.79677772521972656250000000000000f,0.36830654740333557128906250000000f,0.47746512293815612792968750000000f,-0.74115276336669921875000000000000f,0.44696480035781860351562500000000f,0.77457213401794433593750000000000f,-0.87291431427001953125000000000000f,-0.51327395439147949218750000000000f,-0.48440578579902648925781250000000f,1.29649937152862548828125000000000f,0.22816732525825500488281250000000f,0.15715643763542175292968750000000f,-0.19361460208892822265625000000000f,-0.41612285375595092773437500000000f,0.31246155500411987304687500000000f,-0.56696492433547973632812500000000f,0.17538452148437500000000000000000f,-0.05344391614198684692382812500000f,0.39445590972900390625000000000000f,0.02617681026458740234375000000000f,-0.25301477313041687011718750000000f,0.34998941421508789062500000000000f,0.13607735931873321533203125000000f,0.02686880715191364288330078125000f,0.22293519973754882812500000000000f,-0.37464660406112670898437500000000f,0.23043458163738250732421875000000f,0.31157189607620239257812500000000f,0.95224392414093017578125000000000f,-0.42646536231040954589843750000000f,-0.13426952064037322998046875000000f,0.50890725851058959960937500000000f,0.58339464664459228515625000000000f,-0.18316671252250671386718750000000f,0.48036608099937438964843750000000f,-0.46130999922752380371093750000000f,-0.17913968861103057861328125000000f,-0.34741130471229553222656250000000f,-0.02879721857607364654541015625000f,0.32990786433219909667968750000000f,0.11292945593595504760742187500000f,0.26600351929664611816406250000000f,0.13712050020694732666015625000000f,-0.48055356740951538085937500000000f,-0.10396309942007064819335937500000f,-0.28805097937583923339843750000000f,-0.34335038065910339355468750000000f,0.14215660095214843750000000000000f,-0.14218343794345855712890625000000f,-0.34483420848846435546875000000000f,-0.12612992525100708007812500000000f,-0.10730607062578201293945312500000f,0.57595539093017578125000000000000f,-0.12417921423912048339843750000000f,-0.34336149692535400390625000000000f,-0.19082713127136230468750000000000f,0.47765028476715087890625000000000f,0.26334434747695922851562500000000f,-0.02855998463928699493408203125000f,-0.02997321821749210357666015625000f,0.11321739852428436279296875000000f,-0.36860415339469909667968750000000f,0.01217264216393232345581054687500f,0.56875878572463989257812500000000f,-0.41203138232231140136718750000000f,-0.20027011632919311523437500000000f,0.11231122165918350219726562500000f,-0.28197732567787170410156250000000f,0.41912624239921569824218750000000f,-0.30668362975120544433593750000000f,-0.00098910112865269184112548828125f,-0.01678265817463397979736328125000f,-0.33959376811981201171875000000000f,0.22262673079967498779296875000000f,0.11656745523214340209960937500000f,1.76411223411560058593750000000000f,-0.16991335153579711914062500000000f,-0.05042407289147377014160156250000f,-0.15795812010765075683593750000000f,-0.17071002721786499023437500000000f,-0.23978005349636077880859375000000f,-0.90799373388290405273437500000000f,0.25826042890548706054687500000000f,0.02547137811779975891113281250000f,0.11101582646369934082031250000000f,-1.05779945850372314453125000000000f,-0.23298509418964385986328125000000f,-0.13477709889411926269531250000000f,-0.19436679780483245849609375000000f,-0.58093619346618652343750000000000f,0.55719196796417236328125000000000f,0.37310698628425598144531250000000f,0.29235646128654479980468750000000f,-0.16764287650585174560546875000000f,-0.20329974591732025146484375000000f,0.36790156364440917968750000000000f,-0.06545538455247879028320312500000f,0.34129142761230468750000000000000f,-0.20341621339321136474609375000000f,-0.48371148109436035156250000000000f,-0.30588102340698242187500000000000f,-0.35483527183532714843750000000000f,-1.38097798824310302734375000000000f,0.04067919775843620300292968750000f,0.03527387976646423339843750000000f,0.46232903003692626953125000000000f,-0.51952236890792846679687500000000f,0.25412866473197937011718750000000f,-0.26002731919288635253906250000000f,-0.40723955631256103515625000000000f,1.03603541851043701171875000000000f,-0.12183691561222076416015625000000f,-0.93844199180603027343750000000000f,-0.39857029914855957031250000000000f,-0.80161762237548828125000000000000f,0.55345916748046875000000000000000f,-0.24632674455642700195312500000000f,0.32668963074684143066406250000000f,-0.30786976218223571777343750000000f,0.03561843931674957275390625000000f,0.10548934340476989746093750000000f,0.28786391019821166992187500000000f,0.28511649370193481445312500000000f,-0.25956404209136962890625000000000f,-0.33914297819137573242187500000000f,-0.41316011548042297363281250000000f,0.48613440990447998046875000000000f,-0.73937153816223144531250000000000f,0.43736588954925537109375000000000f,0.38385421037673950195312500000000f,0.38386049866676330566406250000000f,-0.83641058206558227539062500000000f,0.58307081460952758789062500000000f,-0.47265774011611938476562500000000f,0.43319207429885864257812500000000f,0.11204048991203308105468750000000f,-0.87018573284149169921875000000000f,0.35113742947578430175781250000000f,0.08724749088287353515625000000000f,0.17422926425933837890625000000000f,-0.10140176117420196533203125000000f,-0.29987931251525878906250000000000f,-0.44810488820075988769531250000000f,-0.49581474065780639648437500000000f,-0.13155142962932586669921875000000f,-0.08477960526943206787109375000000f,0.65514808893203735351562500000000f,0.80271250009536743164062500000000f,0.93997931480407714843750000000000f,-0.25779134035110473632812500000000f,-0.07225845754146575927734375000000f,-1.16592419147491455078125000000000f,-0.66779822111129760742187500000000f,-0.02742933854460716247558593750000f,0.37751224637031555175781250000000f,0.65964460372924804687500000000000f,0.18976509571075439453125000000000f,0.09834757447242736816406250000000f,-0.24403555691242218017578125000000f,0.24626977741718292236328125000000f,-0.30722180008888244628906250000000f,-0.92332917451858520507812500000000f,0.50585055351257324218750000000000f,-0.72579330205917358398437500000000f,-0.16730357706546783447265625000000f,0.20958967506885528564453125000000f,-0.25492784380912780761718750000000f,-0.14475649595260620117187500000000f,-0.29006788134574890136718750000000f,-0.30993828177452087402343750000000f,1.20669794082641601562500000000000f,0.40182936191558837890625000000000f,-0.49314206838607788085937500000000f,0.56364893913269042968750000000000f,0.82507497072219848632812500000000f,-0.35218614339828491210937500000000f,0.23890554904937744140625000000000f,-0.23249933123588562011718750000000f,-0.34056526422500610351562500000000f,-0.85498750209808349609375000000000f,0.43810999393463134765625000000000f,0.19559490680694580078125000000000f,-0.32158654928207397460937500000000f,-0.22575075924396514892578125000000f,-0.19259351491928100585937500000000f,-0.40258932113647460937500000000000f,0.24433338642120361328125000000000f,-0.34593218564987182617187500000000f,-0.14245325326919555664062500000000f,0.30614677071571350097656250000000f,0.02486592717468738555908203125000f,0.52900332212448120117187500000000f,-0.00833246391266584396362304687500f,-0.87317526340484619140625000000000f,-0.36895218491554260253906250000000f,-0.21114107966423034667968750000000f,-0.26428443193435668945312500000000f,0.10217608511447906494140625000000f,1.42834758758544921875000000000000f,-0.37689796090126037597656250000000f,-0.30594098567962646484375000000000f,-0.74168211221694946289062500000000f,0.16556003689765930175781250000000f,0.34748223423957824707031250000000f,-0.28735795617103576660156250000000f,0.29656767845153808593750000000000f,-0.22597420215606689453125000000000f,0.36453908681869506835937500000000f,-0.25372883677482604980468750000000f,0.39880076050758361816406250000000f,-0.71753269433975219726562500000000f,-0.31487664580345153808593750000000f,0.31854754686355590820312500000000f,0.13990040123462677001953125000000f,0.53008991479873657226562500000000f,-0.07145144045352935791015625000000f,-0.27096894383430480957031250000000f,0.42771637439727783203125000000000f,0.50630277395248413085937500000000f,-0.24181827902793884277343750000000f,0.13564825057983398437500000000000f,-0.37018033862113952636718750000000f,-0.64218223094940185546875000000000f,-0.74112647771835327148437500000000f,0.37950435280799865722656250000000f,0.37523588538169860839843750000000f,-0.30058062076568603515625000000000f,-0.43360602855682373046875000000000f,-0.27800104022026062011718750000000f,-0.24422745406627655029296875000000f,-0.23805890977382659912109375000000f,-0.36592948436737060546875000000000f,-0.13659444451332092285156250000000f,-0.34587055444717407226562500000000f,-0.57391697168350219726562500000000f,0.17937406897544860839843750000000f,0.69614464044570922851562500000000f,0.21758899092674255371093750000000f,-0.42023217678070068359375000000000f,-0.05914013832807540893554687500000f,0.74487560987472534179687500000000f,-0.05185554549098014831542968750000f,0.59168535470962524414062500000000f,0.17077663540840148925781250000000f,0.46459421515464782714843750000000f,-0.38081246614456176757812500000000f,-0.60307508707046508789062500000000f,-0.39759135246276855468750000000000f,-0.23355551064014434814453125000000f,-0.11398237943649291992187500000000f,-0.05215515196323394775390625000000f,0.40714627504348754882812500000000f,0.60313296318054199218750000000000f,0.70571637153625488281250000000000f,0.31001958250999450683593750000000f,-0.17239657044410705566406250000000f,-0.06297940015792846679687500000000f,0.04220362380146980285644531250000f,-0.16463871300220489501953125000000f,-1.05420649051666259765625000000000f,0.48579362034797668457031250000000f,0.19784247875213623046875000000000f,0.33984380960464477539062500000000f,0.08360198140144348144531250000000f,-0.10099852830171585083007812500000f,-0.07017984241247177124023437500000f,1.22198975086212158203125000000000f,-0.10288862138986587524414062500000f,0.30040833353996276855468750000000f,-0.32386437058448791503906250000000f,0.19637750089168548583984375000000f,0.38236087560653686523437500000000f,0.42770212888717651367187500000000f,-0.08282838761806488037109375000000f,-0.38573506474494934082031250000000f,-0.30897587537765502929687500000000f,0.70627683401107788085937500000000f,0.50273710489273071289062500000000f,0.95313405990600585937500000000000f,-0.25033149123191833496093750000000f,0.06856326758861541748046875000000f,0.19477488100528717041015625000000f,-1.06227362155914306640625000000000f,0.29572963714599609375000000000000f,0.12049879878759384155273437500000f,0.27428948879241943359375000000000f,-0.61449086666107177734375000000000f,-0.20439819991588592529296875000000f,0.35221433639526367187500000000000f,-0.32088050246238708496093750000000f,-0.15215209126472473144531250000000f,-0.34421443939208984375000000000000f,-0.42866048216819763183593750000000f,0.26250737905502319335937500000000f,-0.40593689680099487304687500000000f,-0.42914262413978576660156250000000f,0.24219346046447753906250000000000f,0.57749831676483154296875000000000f,-0.40334120392799377441406250000000f,-0.44044628739356994628906250000000f,-0.29354056715965270996093750000000f,-0.67600953578948974609375000000000f,-0.16669499874114990234375000000000f,-0.16871584951877593994140625000000f,1.24432909488677978515625000000000f,0.78016370534896850585937500000000f,-0.21712832152843475341796875000000f,-0.13605573773384094238281250000000f,-0.31035000085830688476562500000000f,-0.23819048702716827392578125000000f,-0.35698202252388000488281250000000f,0.31328728795051574707031250000000f,0.06977837532758712768554687500000f,-0.26525539159774780273437500000000f,-0.74897992610931396484375000000000f,0.34607174992561340332031250000000f,0.35398557782173156738281250000000f,0.22695527970790863037109375000000f,-0.31050434708595275878906250000000f,0.50112235546112060546875000000000f,0.98606562614440917968750000000000f,0.32194527983665466308593750000000f,-0.28296697139739990234375000000000f,0.26545986533164978027343750000000f,0.71106213331222534179687500000000f,0.81528222560882568359375000000000f,0.81689453125000000000000000000000f,-0.51707178354263305664062500000000f,-0.49513393640518188476562500000000f,-0.42651399970054626464843750000000f,-0.30544573068618774414062500000000f,-0.04265806823968887329101562500000f,-0.14031051099300384521484375000000f,-0.39200061559677124023437500000000f,0.11054398864507675170898437500000f,-0.39290192723274230957031250000000f,-0.25138285756111145019531250000000f,-0.21936874091625213623046875000000f,0.17119283974170684814453125000000f,-0.19352738559246063232421875000000f,-0.13105735182762145996093750000000f,0.56812322139739990234375000000000f,-0.35274443030357360839843750000000f,0.02559478580951690673828125000000f,0.98437160253524780273437500000000f,0.48300600051879882812500000000000f,0.05307781323790550231933593750000f,0.32248255610466003417968750000000f,-0.21104121208190917968750000000000f,-0.06546963751316070556640625000000f,0.39911830425262451171875000000000f,-0.14641542732715606689453125000000f,-0.49083149433135986328125000000000f,0.26369583606719970703125000000000f,-0.21215564012527465820312500000000f,-0.25925260782241821289062500000000f,0.15542021393775939941406250000000f,-0.36352825164794921875000000000000f,-0.23164048790931701660156250000000f,0.20661978423595428466796875000000f,0.56536942720413208007812500000000f,-0.72686034440994262695312500000000f,0.02300705201923847198486328125000f,0.36181777715682983398437500000000f,1.33471500873565673828125000000000f,-0.29064071178436279296875000000000f,-0.10189520567655563354492187500000f,-0.34372162818908691406250000000000f,-0.31628894805908203125000000000000f,0.94362819194793701171875000000000f,1.23186075687408447265625000000000f,-0.02076094783842563629150390625000f,-0.26228538155555725097656250000000f,-0.21594718098640441894531250000000f,0.05640573799610137939453125000000f,0.11659587919712066650390625000000f,0.04503651708364486694335937500000f,-0.30675542354583740234375000000000f,-0.27714657783508300781250000000000f,-0.30011638998985290527343750000000f,0.93606781959533691406250000000000f,0.37962046265602111816406250000000f,-0.00013746945478487759828567504883f,0.42133948206901550292968750000000f,0.78670650720596313476562500000000f,-0.26463750004768371582031250000000f,-0.07695852220058441162109375000000f,0.10457999259233474731445312500000f,-0.08242288231849670410156250000000f,0.03857534006237983703613281250000f,0.11138670146465301513671875000000f,-0.32845345139503479003906250000000f,-0.00162272714078426361083984375000f,0.25181239843368530273437500000000f,-0.35001143813133239746093750000000f,0.38108012080192565917968750000000f,-0.30292353034019470214843750000000f,-0.00092386105097830295562744140625f,-0.09999112039804458618164062500000f,0.25986632704734802246093750000000f,-0.06175384297966957092285156250000f,0.04057599976658821105957031250000f,0.07261665910482406616210937500000f,-0.29038223624229431152343750000000f,-0.12010076642036437988281250000000f,-0.93990278244018554687500000000000f,0.03862605243921279907226562500000f,0.11592176556587219238281250000000f,-0.29986417293548583984375000000000f,0.11332656443119049072265625000000f,-0.08324220031499862670898437500000f,0.01731596514582633972167968750000f,-0.59738337993621826171875000000000f,-0.06461210548877716064453125000000f,-0.06160499900579452514648437500000f,-0.04076193645596504211425781250000f,0.19557848572731018066406250000000f,0.00497941253706812858581542968750f,-0.20985892415046691894531250000000f,0.16393889486789703369140625000000f,0.00962495710700750350952148437500f,0.37565642595291137695312500000000f,0.26183092594146728515625000000000f,0.10721077024936676025390625000000f,0.21396388113498687744140625000000f,-0.24567414820194244384765625000000f,0.31230381131172180175781250000000f,-0.03680010512471199035644531250000f,0.51317048072814941406250000000000f,-0.26070055365562438964843750000000f,0.36896261572837829589843750000000f,0.16935263574123382568359375000000f,0.34241315722465515136718750000000f,0.07701633125543594360351562500000f,0.20515230298042297363281250000000f,-0.26352563500404357910156250000000f,-0.48133736848831176757812500000000f,-0.28842401504516601562500000000000f,-0.27555704116821289062500000000000f,-0.41134145855903625488281250000000f,-0.27578651905059814453125000000000f,-0.37675157189369201660156250000000f,0.07594747841358184814453125000000f,-0.33520558476448059082031250000000f,-0.41340330243110656738281250000000f,0.17368882894515991210937500000000f,-0.21336634457111358642578125000000f,0.13083639740943908691406250000000f,0.16762335598468780517578125000000f,0.03015354461967945098876953125000f,0.18382430076599121093750000000000f,0.28924268484115600585937500000000f,-0.39797553420066833496093750000000f,-0.24947607517242431640625000000000f,0.24628795683383941650390625000000f,0.66608691215515136718750000000000f,0.45236277580261230468750000000000f,-0.36079159379005432128906250000000f,0.50491589307785034179687500000000f,-0.03107344545423984527587890625000f,0.04963120073080062866210937500000f,-0.32470017671585083007812500000000f,0.33888635039329528808593750000000f,-0.22821453213691711425781250000000f,-0.52918696403503417968750000000000f,-0.20487865805625915527343750000000f,-0.30810508131980895996093750000000f,0.00158091401681303977966308593750f,-0.21660371124744415283203125000000f,0.10201423615217208862304687500000f,-0.05429844558238983154296875000000f,0.22711947560310363769531250000000f,0.01037203893065452575683593750000f,-0.11951679736375808715820312500000f,0.13802224397659301757812500000000f,0.27060195803642272949218750000000f,-0.36460873484611511230468750000000f,-0.35742789506912231445312500000000f,0.60327059030532836914062500000000f,0.25702613592147827148437500000000f,0.12557712197303771972656250000000f,0.29532232880592346191406250000000f,0.29726415872573852539062500000000f,0.86944007873535156250000000000000f,0.05025583133101463317871093750000f,0.11441432684659957885742187500000f,0.18720240890979766845703125000000f,-0.32762262225151062011718750000000f,-0.09568949788808822631835937500000f,-0.28206107020378112792968750000000f,0.07070630788803100585937500000000f,-0.25850054621696472167968750000000f,-0.14885574579238891601562500000000f,0.07000240683555603027343750000000f,0.38708603382110595703125000000000f,-0.08366168290376663208007812500000f,-0.66058826446533203125000000000000f,-0.26512500643730163574218750000000f,-0.30768939852714538574218750000000f,0.11305740475654602050781250000000f,-0.17892198264598846435546875000000f,-0.00507316039875149726867675781250f,0.24427682161331176757812500000000f,0.43154829740524291992187500000000f,0.11738828569650650024414062500000f,0.39942008256912231445312500000000f,0.32721427083015441894531250000000f,0.20221702754497528076171875000000f,0.29650983214378356933593750000000f,0.40440729260444641113281250000000f,-0.03682352975010871887207031250000f,-0.30196732282638549804687500000000f,0.60364186763763427734375000000000f,0.01062457449734210968017578125000f,0.07529302686452865600585937500000f,-0.06349392980337142944335937500000f,0.11722793430089950561523437500000f,-0.05615143850445747375488281250000f,-0.39140012860298156738281250000000f,0.13222184777259826660156250000000f,-0.24296721816062927246093750000000f,0.17079712450504302978515625000000f,-0.04291865602135658264160156250000f,0.48530194163322448730468750000000f,0.06897033005952835083007812500000f,-0.15377214550971984863281250000000f,-0.17355372011661529541015625000000f,-0.31611016392707824707031250000000f,-0.15310074388980865478515625000000f,0.41629034280776977539062500000000f,0.19119547307491302490234375000000f,0.13031344115734100341796875000000f,-0.00732656428590416908264160156250f,0.06411112099885940551757812500000f,0.08725034445524215698242187500000f,0.17520783841609954833984375000000f,0.01350319199264049530029296875000f,-0.20056568086147308349609375000000f,0.14103454351425170898437500000000f,0.13058722019195556640625000000000f,0.04859700426459312438964843750000f,0.33265942335128784179687500000000f,-0.22189468145370483398437500000000f,-0.06315430998802185058593750000000f,-0.08009251207113265991210937500000f,-0.36177071928977966308593750000000f,0.30191391706466674804687500000000f,0.12525753676891326904296875000000f,-0.31538176536560058593750000000000f,-0.02394379116594791412353515625000f,-0.12069119513034820556640625000000f,0.07229591161012649536132812500000f,0.56275218725204467773437500000000f,0.19726823270320892333984375000000f,0.13917291164398193359375000000000f,-0.12291209399700164794921875000000f,0.52413374185562133789062500000000f,-0.34145361185073852539062500000000f,-0.24871574342250823974609375000000f,-0.33778384327888488769531250000000f,-0.20765550434589385986328125000000f,-0.35855153203010559082031250000000f,0.42595332860946655273437500000000f,-0.12196938693523406982421875000000f,0.07995908707380294799804687500000f,0.67358958721160888671875000000000f,-0.29109176993370056152343750000000f,-0.28082036972045898437500000000000f,0.11229109764099121093750000000000f,0.03530476614832878112792968750000f,0.01773797720670700073242187500000f,0.21783646941184997558593750000000f,0.02353325858712196350097656250000f,-0.14363755285739898681640625000000f,0.06487815082073211669921875000000f,0.13777512311935424804687500000000f,-0.22708669304847717285156250000000f,-0.09987118095159530639648437500000f,0.59756976366043090820312500000000f,-0.35104012489318847656250000000000f,-0.09366726875305175781250000000000f,0.08814933151006698608398437500000f,0.50148695707321166992187500000000f,-0.20859012007713317871093750000000f,-0.17748264968395233154296875000000f,0.02411417849361896514892578125000f,-0.06420060992240905761718750000000f,0.18291944265365600585937500000000f,-1.42521476745605468750000000000000f,-0.11344401538372039794921875000000f,-0.12391072511672973632812500000000f,0.03282294422388076782226562500000f,-0.20248088240623474121093750000000f,-0.87136900424957275390625000000000f,0.10712628811597824096679687500000f,0.02644501999020576477050781250000f,0.36625263094902038574218750000000f,-0.18688249588012695312500000000000f,-0.29988619685173034667968750000000f,0.79347938299179077148437500000000f,-0.28001448512077331542968750000000f,-0.19987361133098602294921875000000f,0.45848703384399414062500000000000f,0.25610587000846862792968750000000f,0.49402344226837158203125000000000f,0.40219581127166748046875000000000f,-0.28294503688812255859375000000000f,-0.02747739665210247039794921875000f,-0.17536453902721405029296875000000f,0.70366901159286499023437500000000f,0.32391759753227233886718750000000f,-0.25066381692886352539062500000000f,-0.02612249925732612609863281250000f,-0.33825221657752990722656250000000f,-0.19685736298561096191406250000000f,-0.37558221817016601562500000000000f,-0.09557081758975982666015625000000f,0.09174918383359909057617187500000f,-0.55438286066055297851562500000000f,0.48005005717277526855468750000000f,-0.05672699213027954101562500000000f,0.15297643840312957763671875000000f,0.35368859767913818359375000000000f,0.19014720618724822998046875000000f,-0.33568772673606872558593750000000f,0.48299831151962280273437500000000f,-0.35288289189338684082031250000000f,0.13844233751296997070312500000000f,-0.27379027009010314941406250000000f,0.04187579825520515441894531250000f,-0.32993945479393005371093750000000f,-0.93599277734756469726562500000000f,0.64548027515411376953125000000000f,0.20185956358909606933593750000000f,-0.01710627973079681396484375000000f,-0.32171151041984558105468750000000f,-0.12818050384521484375000000000000f,-0.16237556934356689453125000000000f,0.35474711656570434570312500000000f,-0.27046865224838256835937500000000f,0.12283842265605926513671875000000f,0.23349116742610931396484375000000f,0.04951750859618186950683593750000f,-0.55141305923461914062500000000000f,0.38636812567710876464843750000000f,-0.34255179762840270996093750000000f,0.51976323127746582031250000000000f,0.25562250614166259765625000000000f,-0.72146493196487426757812500000000f,0.15544424951076507568359375000000f,0.58761763572692871093750000000000f,0.00652319192886352539062500000000f,0.06570278108119964599609375000000f,-0.21978577971458435058593750000000f,-0.21131795644760131835937500000000f,0.05549481138586997985839843750000f,-0.33319056034088134765625000000000f,0.26434913277626037597656250000000f,-0.03150279447436332702636718750000f,0.14769676327705383300781250000000f,0.49985286593437194824218750000000f,-0.27014455199241638183593750000000f,-0.73062127828598022460937500000000f,-0.81613636016845703125000000000000f,0.16773934662342071533203125000000f,0.73354983329772949218750000000000f,0.13907371461391448974609375000000f,0.12352292984724044799804687500000f,-0.50595980882644653320312500000000f,-0.00316317798569798469543457031250f,-0.35601383447647094726562500000000f,0.53729563951492309570312500000000f,-0.27223256230354309082031250000000f,0.11954095214605331420898437500000f,0.94078677892684936523437500000000f,-0.10295996069908142089843750000000f,-0.30961343646049499511718750000000f,0.07492372393608093261718750000000f,-0.22576807439327239990234375000000f,-0.01486821472644805908203125000000f,0.59169936180114746093750000000000f,-0.25429493188858032226562500000000f,-0.16398914158344268798828125000000f,0.61666327714920043945312500000000f,-0.26332437992095947265625000000000f,0.20490881800651550292968750000000f,0.26925581693649291992187500000000f,-0.23672519624233245849609375000000f,-0.18500807881355285644531250000000f,-0.26921314001083374023437500000000f,-0.23028321564197540283203125000000f,-0.24922151863574981689453125000000f,0.09376077353954315185546875000000f,0.19144141674041748046875000000000f,-0.21465834975242614746093750000000f,-0.22478656470775604248046875000000f,0.23027320206165313720703125000000f,-0.23513904213905334472656250000000f,0.58576542139053344726562500000000f,-0.20311561226844787597656250000000f,-0.39018690586090087890625000000000f,0.13413919508457183837890625000000f,-0.19333262741565704345703125000000f,-0.13177637755870819091796875000000f,0.48647207021713256835937500000000f,-0.31537872552871704101562500000000f,-0.54233157634735107421875000000000f,-0.31008851528167724609375000000000f,0.00786882732063531875610351562500f,0.23340670764446258544921875000000f,0.08668848872184753417968750000000f,-0.32068866491317749023437500000000f,-0.22033260762691497802734375000000f,-0.22107513248920440673828125000000f,0.11851056665182113647460937500000f,1.10780465602874755859375000000000f,-0.07453776150941848754882812500000f,-0.18387678265571594238281250000000f,-0.29987236857414245605468750000000f,0.01034655794501304626464843750000f,-0.28181770443916320800781250000000f,0.32392543554306030273437500000000f,0.21752239763736724853515625000000f,-0.03306958079338073730468750000000f,0.10762500017881393432617187500000f,0.12049345672130584716796875000000f,-0.43735933303833007812500000000000f,0.75772547721862792968750000000000f,-0.31924763321876525878906250000000f,0.37141793966293334960937500000000f,-0.17475265264511108398437500000000f,-0.17736285924911499023437500000000f,0.17237809300422668457031250000000f,-0.26003149151802062988281250000000f,-0.16848383843898773193359375000000f,-0.48275572061538696289062500000000f,-1.61896860599517822265625000000000f,0.45108431577682495117187500000000f,-0.24127066135406494140625000000000f,0.33761161565780639648437500000000f,-0.08877296000719070434570312500000f,-0.12995983660221099853515625000000f,0.08209086209535598754882812500000f,-0.16241680085659027099609375000000f,0.15934978425502777099609375000000f,0.64803957939147949218750000000000f,-0.13714832067489624023437500000000f,0.04514575004577636718750000000000f,0.04539455100893974304199218750000f,0.04053399711847305297851562500000f,-0.32123970985412597656250000000000f,-0.01398761477321386337280273437500f,0.01693534106016159057617187500000f,0.09117546677589416503906250000000f,1.05481684207916259765625000000000f,0.10762714594602584838867187500000f,0.06770510226488113403320312500000f,-0.21285900473594665527343750000000f,-0.21559426188468933105468750000000f,-0.35954645276069641113281250000000f,-0.21659947931766510009765625000000f,-0.33129847049713134765625000000000f,-0.37091785669326782226562500000000f,-0.04455911368131637573242187500000f,0.39537146687507629394531250000000f,0.23449163138866424560546875000000f,0.01285711582750082015991210937500f,-0.17553988099098205566406250000000f,0.21354474127292633056640625000000f,0.25983664393424987792968750000000f,0.27369341254234313964843750000000f,-0.90983742475509643554687500000000f,0.20037111639976501464843750000000f,0.07901374995708465576171875000000f,0.03464269638061523437500000000000f,-0.07513387501239776611328125000000f,-1.37617266178131103515625000000000f,0.28562000393867492675781250000000f,-0.39736044406890869140625000000000f,0.28174024820327758789062500000000f,0.04112995415925979614257812500000f,-0.25963658094406127929687500000000f,0.07690579444169998168945312500000f,-0.03027508035302162170410156250000f,0.08924199640750885009765625000000f,-0.10952346026897430419921875000000f,-0.27218696475028991699218750000000f,0.16666136682033538818359375000000f,0.14680986106395721435546875000000f,0.29268354177474975585937500000000f,0.29833096265792846679687500000000f,-0.10207059234380722045898437500000f,0.08180905878543853759765625000000f,0.12299866229295730590820312500000f,-0.29743826389312744140625000000000f,-0.20642405748367309570312500000000f,-0.54059875011444091796875000000000f,0.11006969958543777465820312500000f,-0.20174814760684967041015625000000f,-0.27464330196380615234375000000000f,-0.12743189930915832519531250000000f,-0.49953746795654296875000000000000f,-0.31575411558151245117187500000000f,-0.21308848261833190917968750000000f,-0.23004004359245300292968750000000f,0.36968725919723510742187500000000f,-0.15956752002239227294921875000000f,-0.16775773465633392333984375000000f,0.51198798418045043945312500000000f,0.20711664855480194091796875000000f,-0.15675742924213409423828125000000f,-0.29243358969688415527343750000000f,-0.26504155993461608886718750000000f,-0.39192786812782287597656250000000f,-0.36016270518302917480468750000000f,-0.29984086751937866210937500000000f,0.50887084007263183593750000000000f,0.40370765328407287597656250000000f,-0.24852064251899719238281250000000f,-0.39824002981185913085937500000000f,0.24308094382286071777343750000000f,0.02626853622496128082275390625000f,-0.21460224688053131103515625000000f,0.17421433329582214355468750000000f,0.12618857622146606445312500000000f,-0.33381965756416320800781250000000f,-0.16042034327983856201171875000000f,-0.03437734022736549377441406250000f,0.09870053082704544067382812500000f,0.03146458417177200317382812500000f,-0.14563490450382232666015625000000f,-0.11905504018068313598632812500000f,0.18665648996829986572265625000000f,-0.07795525342226028442382812500000f,0.28755429387092590332031250000000f,0.07403426617383956909179687500000f,0.06287948042154312133789062500000f,0.29710420966148376464843750000000f,0.27231305837631225585937500000000f,0.45337414741516113281250000000000f,-0.21389563381671905517578125000000f,-0.41715082526206970214843750000000f,0.05961676314473152160644531250000f,-0.20738904178142547607421875000000f,-0.37391605973243713378906250000000f,-0.32592031359672546386718750000000f,0.04133811220526695251464843750000f,0.12455479055643081665039062500000f,-0.36989837884902954101562500000000f,-0.32006222009658813476562500000000f,0.12868516147136688232421875000000f,-0.15619698166847229003906250000000f,-0.35824361443519592285156250000000f,0.20152717828750610351562500000000f,-0.15266625583171844482421875000000f,0.06962639093399047851562500000000f,-0.18483522534370422363281250000000f,0.35315084457397460937500000000000f,0.68551641702651977539062500000000f,0.10054622590541839599609375000000f,-0.35102075338363647460937500000000f,0.02227739430963993072509765625000f,0.10860810428857803344726562500000f,-0.34898966550827026367187500000000f,-0.54546213150024414062500000000000f,0.03521176427602767944335937500000f,-0.05928204953670501708984375000000f,-0.52338099479675292968750000000000f,0.37327644228935241699218750000000f,0.20947664976119995117187500000000f,-0.32197749614715576171875000000000f,0.27892258763313293457031250000000f,0.47957527637481689453125000000000f,-0.25593224167823791503906250000000f,-0.13487516343593597412109375000000f,0.18047299981117248535156250000000f,0.31481793522834777832031250000000f,-0.25987166166305541992187500000000f,-0.24948500096797943115234375000000f,-0.20969277620315551757812500000000f,-0.14867500960826873779296875000000f,0.28332838416099548339843750000000f,0.18369327485561370849609375000000f,-0.36718222498893737792968750000000f,-0.19561645388603210449218750000000f,-0.23677191138267517089843750000000f,1.31177413463592529296875000000000f,0.16610576212406158447265625000000f,-0.31873202323913574218750000000000f,-0.18144313991069793701171875000000f,-0.23045131564140319824218750000000f,-0.28452721238136291503906250000000f,0.24074830114841461181640625000000f,-0.64556527137756347656250000000000f,0.24204933643341064453125000000000f,0.43716090917587280273437500000000f,0.17462866008281707763671875000000f,-0.31726190447807312011718750000000f,-1.11469185352325439453125000000000f,0.21008168160915374755859375000000f,-0.03815234079957008361816406250000f,0.17509883642196655273437500000000f,0.12337113916873931884765625000000f,1.63251090049743652343750000000000f,-0.22674962878227233886718750000000f,0.42327859997749328613281250000000f,-0.29388839006423950195312500000000f,0.60351771116256713867187500000000f,-0.21553121507167816162109375000000f,0.03652841597795486450195312500000f,0.06433287262916564941406250000000f,0.08235130459070205688476562500000f,0.23336656391620635986328125000000f,-0.11464300006628036499023437500000f,0.46135604381561279296875000000000f,-0.40858817100524902343750000000000f,1.09115779399871826171875000000000f,1.05366814136505126953125000000000f,-0.14739072322845458984375000000000f,-0.01176893245428800582885742187500f,-0.16558356583118438720703125000000f,-0.00028940392076037824153900146484f,0.43086546659469604492187500000000f,0.10865662246942520141601562500000f,0.00088454724755138158798217773438f,-0.20150119066238403320312500000000f,-0.13771936297416687011718750000000f,0.42762744426727294921875000000000f,0.54362362623214721679687500000000f,0.09381492435932159423828125000000f,-0.32149121165275573730468750000000f,-0.49162968993186950683593750000000f,-0.48860764503479003906250000000000f,0.36041831970214843750000000000000f,0.41534534096717834472656250000000f,0.48562759160995483398437500000000f,-0.01083142310380935668945312500000f,-0.28473308682441711425781250000000f,-0.24666558206081390380859375000000f,-0.36612766981124877929687500000000f,-0.71437323093414306640625000000000f,-0.23568470776081085205078125000000f,0.51154917478561401367187500000000f,-0.36696669459342956542968750000000f,0.17823906242847442626953125000000f,0.04646277055144309997558593750000f,0.00033294086460955440998077392578f,-0.38352763652801513671875000000000f,-0.14698082208633422851562500000000f,-0.57215970754623413085937500000000f,-0.15453682839870452880859375000000f,-0.23195834457874298095703125000000f,-0.29730695486068725585937500000000f,-0.25639459490776062011718750000000f,1.14136564731597900390625000000000f,-0.15117309987545013427734375000000f,-0.34235984086990356445312500000000f,0.07334483414888381958007812500000f,-0.29864841699600219726562500000000f,0.34522920846939086914062500000000f,0.23533783853054046630859375000000f,0.24163095653057098388671875000000f,0.91620177030563354492187500000000f,0.07242571562528610229492187500000f,0.13937421143054962158203125000000f,-0.21849130094051361083984375000000f,0.61862218379974365234375000000000f,-0.41485399007797241210937500000000f,0.27736526727676391601562500000000f,-0.43770766258239746093750000000000f,0.39151400327682495117187500000000f,-0.06806703656911849975585937500000f,-0.50559163093566894531250000000000f,-0.06362973153591156005859375000000f,0.18307486176490783691406250000000f,-0.32102063298225402832031250000000f,0.18738988041877746582031250000000f,-0.14832460880279541015625000000000f,-0.08227951079607009887695312500000f,0.10382373631000518798828125000000f,-0.18044266104698181152343750000000f,0.20002730190753936767578125000000f,0.11723834276199340820312500000000f,0.19457422196865081787109375000000f,0.22740459442138671875000000000000f,0.15308690071105957031250000000000f,0.08371399343013763427734375000000f,-0.08515053242444992065429687500000f,-0.22277896106243133544921875000000f,-0.35085880756378173828125000000000f,0.21655666828155517578125000000000f,0.26581928133964538574218750000000f,0.20198529958724975585937500000000f,0.66291636228561401367187500000000f,0.32596909999847412109375000000000f,0.17275905609130859375000000000000f,-0.11207915842533111572265625000000f,0.07160457968711853027343750000000f,0.18841868638992309570312500000000f,-0.19150111079216003417968750000000f,-0.21208645403385162353515625000000f,-0.35211363434791564941406250000000f,0.88213199377059936523437500000000f,-0.23985938727855682373046875000000f,-0.15091300010681152343750000000000f,0.13978920876979827880859375000000f,0.48724982142448425292968750000000f,0.06977299600839614868164062500000f,0.71325784921646118164062500000000f,-0.24465991556644439697265625000000f,-0.17484164237976074218750000000000f,0.22055271267890930175781250000000f,-0.05557703226804733276367187500000f,0.13384927809238433837890625000000f,0.31666246056556701660156250000000f,0.26650726795196533203125000000000f,1.17563855648040771484375000000000f,0.39949283003807067871093750000000f,0.29650431871414184570312500000000f,0.50126183032989501953125000000000f,0.23405572772026062011718750000000f,0.53394711017608642578125000000000f,0.53782099485397338867187500000000f,-0.39540073275566101074218750000000f,-0.59507691860198974609375000000000f,0.11164197325706481933593750000000f,0.49518844485282897949218750000000f,0.17484369874000549316406250000000f,-0.36278975009918212890625000000000f,-0.35116463899612426757812500000000f,-0.20385877788066864013671875000000f,0.38590279221534729003906250000000f,-0.36214697360992431640625000000000f,0.04562790691852569580078125000000f,0.24040190875530242919921875000000f,-1.46842634677886962890625000000000f,-0.31723800301551818847656250000000f,-0.34537133574485778808593750000000f,-0.36066475510597229003906250000000f,-0.47641518712043762207031250000000f,0.14815500378608703613281250000000f,0.43251329660415649414062500000000f,0.26713794469833374023437500000000f,0.11630177497863769531250000000000f,-0.20409658551216125488281250000000f,0.39570945501327514648437500000000f,0.26720899343490600585937500000000f,0.18649291992187500000000000000000f,0.06008847057819366455078125000000f,-0.33939921855926513671875000000000f,0.26135018467903137207031250000000f,0.15362483263015747070312500000000f,0.08390155434608459472656250000000f,0.16552731394767761230468750000000f,-0.34120070934295654296875000000000f,0.05281171575188636779785156250000f,0.26927039027214050292968750000000f,-0.12111576646566390991210937500000f,0.71101480722427368164062500000000f,-0.37062031030654907226562500000000f,-0.16386735439300537109375000000000f,-0.32926106452941894531250000000000f,-0.37520277500152587890625000000000f,-0.02961319126188755035400390625000f,-0.15582811832427978515625000000000f,0.29992026090621948242187500000000f,0.24196727573871612548828125000000f,-0.36535260081291198730468750000000f,-0.21162518858909606933593750000000f,-0.32038268446922302246093750000000f,-0.23563329875469207763671875000000f,1.12795245647430419921875000000000f,-0.08593706041574478149414062500000f,-0.45743039250373840332031250000000f,0.48887374997138977050781250000000f,-0.18839709460735321044921875000000f,0.11694817245006561279296875000000f,-0.49502661824226379394531250000000f,-0.28123667836189270019531250000000f,-0.22028973698616027832031250000000f,0.27935373783111572265625000000000f,0.17339400947093963623046875000000f,0.08835150301456451416015625000000f,0.22090235352516174316406250000000f,0.10639262944459915161132812500000f,-0.31177034974098205566406250000000f,0.02367938309907913208007812500000f,0.85570621490478515625000000000000f,-0.10459603369235992431640625000000f,-0.10970630496740341186523437500000f,-0.60663092136383056640625000000000f,-0.18712924420833587646484375000000f,-0.19549593329429626464843750000000f,0.29885822534561157226562500000000f,-0.32046195864677429199218750000000f,-0.27543830871582031250000000000000f,-0.33805486559867858886718750000000f,0.03261686116456985473632812500000f,0.21561323106288909912109375000000f,-0.30463936924934387207031250000000f,0.11856371909379959106445312500000f,-0.03188307955861091613769531250000f,-0.23152039945125579833984375000000f,-0.07821860909461975097656250000000f,-0.34009817242622375488281250000000f,0.08622372150421142578125000000000f,0.15286135673522949218750000000000f,-0.05550970509648323059082031250000f,0.49633273482322692871093750000000f,0.08294352889060974121093750000000f,-0.36451733112335205078125000000000f,-0.49658796191215515136718750000000f,-0.36354598402976989746093750000000f,0.87999653816223144531250000000000f,0.40031844377517700195312500000000f,0.26389139890670776367187500000000f,0.10032781958580017089843750000000f,0.32185861468315124511718750000000f,-0.30414307117462158203125000000000f,0.70727157592773437500000000000000f,-0.29258832335472106933593750000000f,-0.45834785699844360351562500000000f,0.12236757576465606689453125000000f,-0.33015635609626770019531250000000f,0.19784478843212127685546875000000f,-0.19509609043598175048828125000000f,0.01456517726182937622070312500000f,-0.46462243795394897460937500000000f,-0.07113840430974960327148437500000f,0.17207387089729309082031250000000f,0.32177162170410156250000000000000f,-0.48915353417396545410156250000000f,-0.15288664400577545166015625000000f,0.41638556122779846191406250000000f,0.42610764503479003906250000000000f,0.04493300244212150573730468750000f,-0.17730750143527984619140625000000f,0.29114961624145507812500000000000f,-0.08600709587335586547851562500000f,0.46893519163131713867187500000000f,-0.30406403541564941406250000000000f,0.98271793127059936523437500000000f,-0.28048539161682128906250000000000f,0.39814510941505432128906250000000f,-0.41492864489555358886718750000000f,0.20771847665309906005859375000000f,0.24497756361961364746093750000000f,-0.23893851041793823242187500000000f,-0.04545565694570541381835937500000f,-0.09551036357879638671875000000000f,0.47855183482170104980468750000000f,-0.54323571920394897460937500000000f,0.47859975695610046386718750000000f,0.29970130324363708496093750000000f,0.20298579335212707519531250000000f,-0.10350626707077026367187500000000f,0.21336546540260314941406250000000f,-0.35185733437538146972656250000000f,-1.08540260791778564453125000000000f,0.00803245324641466140747070312500f,-0.14142623543739318847656250000000f,0.16809728741645812988281250000000f,-0.87222957611083984375000000000000f,0.19136916100978851318359375000000f,0.17137010395526885986328125000000f,-0.27768066525459289550781250000000f,-0.28878340125083923339843750000000f,0.06546788662672042846679687500000f,-0.22886265814304351806640625000000f,-0.03182822465896606445312500000000f,-0.17193676531314849853515625000000f,0.43008977174758911132812500000000f,-0.06757410615682601928710937500000f,-0.32439276576042175292968750000000f,-0.02608579024672508239746093750000f,0.31548899412155151367187500000000f,0.26140058040618896484375000000000f,-0.54234641790390014648437500000000f,0.14035139977931976318359375000000f,0.50135082006454467773437500000000f,1.22803175449371337890625000000000f,0.20317415893077850341796875000000f,-0.23190225660800933837890625000000f,0.06884599477052688598632812500000f,-0.28255176544189453125000000000000f,0.03787470981478691101074218750000f,-0.41724279522895812988281250000000f,-0.66130238771438598632812500000000f,-0.17194478213787078857421875000000f,0.16951338946819305419921875000000f,-0.23476517200469970703125000000000f,0.02624395489692687988281250000000f,-1.07902991771697998046875000000000f,-0.26266586780548095703125000000000f,0.59359651803970336914062500000000f,-0.47643914818763732910156250000000f,-0.29607272148132324218750000000000f,0.43680807948112487792968750000000f,0.48897531628608703613281250000000f,-0.50375348329544067382812500000000f,-0.03441890329122543334960937500000f,-0.38328412175178527832031250000000f,-0.26966547966003417968750000000000f,-0.02094093710184097290039062500000f,0.35010692477226257324218750000000f,0.06504894047975540161132812500000f,-0.27904307842254638671875000000000f,-0.37695118784904479980468750000000f,0.49356377124786376953125000000000f,-0.37522786855697631835937500000000f,0.50287675857543945312500000000000f,-0.35760423541069030761718750000000f,-0.14024826884269714355468750000000f,0.22152441740036010742187500000000f,-0.42038697004318237304687500000000f,-0.07981689274311065673828125000000f,0.29808115959167480468750000000000f,-0.15445242822170257568359375000000f,-0.15599042177200317382812500000000f,-0.19266711175441741943359375000000f,-0.17702095210552215576171875000000f,0.17745448648929595947265625000000f,-0.21399626135826110839843750000000f,-0.29458010196685791015625000000000f,-0.22202222049236297607421875000000f,-0.14270164072513580322265625000000f,0.04970756173133850097656250000000f,0.01468579005450010299682617187500f,-0.23027351498603820800781250000000f,0.35457587242126464843750000000000f,-0.26369038224220275878906250000000f,0.22705759108066558837890625000000f,-0.29913893342018127441406250000000f,-0.37387207150459289550781250000000f,0.04519490152597427368164062500000f,-0.37865850329399108886718750000000f,0.06321123987436294555664062500000f,0.17801056802272796630859375000000f,-0.21292570233345031738281250000000f,-0.51256680488586425781250000000000f,-0.21886117756366729736328125000000f,0.50863051414489746093750000000000f,-0.30000132322311401367187500000000f,-0.41398811340332031250000000000000f,0.85757279396057128906250000000000f,0.10108741372823715209960937500000f,-0.21132890880107879638671875000000f,-0.03292323276400566101074218750000f,-0.00148109381552785634994506835938f,-0.36047410964965820312500000000000f,-0.29718920588493347167968750000000f,-0.17039556801319122314453125000000f,-0.40850323438644409179687500000000f,-0.22783757746219635009765625000000f,0.03686796873807907104492187500000f,-0.28705543279647827148437500000000f,-0.30962106585502624511718750000000f,0.49793812632560729980468750000000f,-0.35099181532859802246093750000000f,0.17277197539806365966796875000000f,0.15455898642539978027343750000000f,0.35195955634117126464843750000000f,-0.28387677669525146484375000000000f,0.07271544635295867919921875000000f,0.51901495456695556640625000000000f,-0.03033753670752048492431640625000f,-0.23595361411571502685546875000000f,0.15478222072124481201171875000000f,0.25838291645050048828125000000000f,-0.22915792465209960937500000000000f,-0.03036301769316196441650390625000f,-0.26538670063018798828125000000000f,-0.27656549215316772460937500000000f,-0.16556991636753082275390625000000f,-0.04756845161318778991699218750000f,-0.19131463766098022460937500000000f,0.41988003253936767578125000000000f,0.05756292864680290222167968750000f,0.17473135888576507568359375000000f,-0.11535412073135375976562500000000f,-0.65359187126159667968750000000000f,0.28766596317291259765625000000000f,0.12448298931121826171875000000000f,-0.31568944454193115234375000000000f,0.18296647071838378906250000000000f,0.16347748041152954101562500000000f,0.37409263849258422851562500000000f,0.04483178630471229553222656250000f,0.01674324460327625274658203125000f,-0.02126053348183631896972656250000f,-0.07955617457628250122070312500000f,0.12074742466211318969726562500000f,0.19344365596771240234375000000000f,-0.40000256896018981933593750000000f,0.06649451702833175659179687500000f,0.25486549735069274902343750000000f,0.13877502083778381347656250000000f,-0.27991572022438049316406250000000f,-0.27893865108489990234375000000000f,0.04552982375025749206542968750000f,0.31329047679901123046875000000000f,-0.08045215159654617309570312500000f,0.19985477626323699951171875000000f,-0.16450642049312591552734375000000f,0.11771696805953979492187500000000f,0.27709308266639709472656250000000f,-0.04686450213193893432617187500000f,-0.29817551374435424804687500000000f,0.11458116769790649414062500000000f,0.02910328097641468048095703125000f,0.00507189147174358367919921875000f,-0.29059115052223205566406250000000f,0.60736370086669921875000000000000f,-0.30040520429611206054687500000000f,-0.29119330644607543945312500000000f,-0.39210447669029235839843750000000f,-0.31305328011512756347656250000000f,0.05469524115324020385742187500000f,-0.39504128694534301757812500000000f,-0.34116226434707641601562500000000f,-0.88157975673675537109375000000000f,0.65588796138763427734375000000000f,-0.15766964852809906005859375000000f,-0.33723199367523193359375000000000f,-0.28286749124526977539062500000000f,-0.29577749967575073242187500000000f,-0.17168892920017242431640625000000f,-0.25235897302627563476562500000000f,-0.09573680907487869262695312500000f,-0.21781012415885925292968750000000f,-0.27509614825248718261718750000000f,-0.19157882034778594970703125000000f,-0.09772174805402755737304687500000f,-0.11716492474079132080078125000000f,-0.38965886831283569335937500000000f,0.30535066127777099609375000000000f,0.07182741910219192504882812500000f,-0.28606536984443664550781250000000f,-0.46755799651145935058593750000000f,0.25280210375785827636718750000000f,0.25585633516311645507812500000000f,0.09278541058301925659179687500000f,0.79527533054351806640625000000000f,0.43075072765350341796875000000000f,0.30670365691184997558593750000000f,0.06247127428650856018066406250000f,-0.11080152541399002075195312500000f,0.20102708041667938232421875000000f,-0.21191377937793731689453125000000f,0.12933154404163360595703125000000f,0.36119133234024047851562500000000f,0.27359807491302490234375000000000f,-0.30926728248596191406250000000000f,-0.32796788215637207031250000000000f,-0.31783223152160644531250000000000f,-0.12831223011016845703125000000000f,0.16378402709960937500000000000000f,-0.14785002171993255615234375000000f,0.14278753101825714111328125000000f,0.28386455774307250976562500000000f,-0.18774537742137908935546875000000f,-0.29866725206375122070312500000000f,0.26037257909774780273437500000000f,-0.25930452346801757812500000000000f,-0.16260983049869537353515625000000f,0.27624243497848510742187500000000f,-0.33783882856369018554687500000000f,0.29638868570327758789062500000000f,0.37971296906471252441406250000000f,-0.51747316122055053710937500000000f,-1.06645476818084716796875000000000f,0.31889408826828002929687500000000f,-0.42929127812385559082031250000000f,1.00788104534149169921875000000000f,0.53583264350891113281250000000000f,-0.05884698405861854553222656250000f,-0.42437013983726501464843750000000f,0.24632161855697631835937500000000f,-0.09636627137660980224609375000000f,-0.23850193619728088378906250000000f,0.21683146059513092041015625000000f,0.34248608350753784179687500000000f,-0.25256401300430297851562500000000f,0.09595011919736862182617187500000f,0.13475222885608673095703125000000f,0.26326546072959899902343750000000f,-0.38056170940399169921875000000000f,0.17822307348251342773437500000000f,0.48258981108665466308593750000000f,-0.33094301819801330566406250000000f,-0.17424564063549041748046875000000f,-0.28578093647956848144531250000000f,-0.28895911574363708496093750000000f,0.00254284031689167022705078125000f,0.01560020726174116134643554687500f,-0.02026406861841678619384765625000f,-0.41114643216133117675781250000000f,-0.24818319082260131835937500000000f,-0.18546658754348754882812500000000f,0.13096663355827331542968750000000f,-0.33939796686172485351562500000000f,-0.28387305140495300292968750000000f,-0.24599818885326385498046875000000f,-0.20709644258022308349609375000000f,0.21970675885677337646484375000000f,-0.55852991342544555664062500000000f,-1.19643020629882812500000000000000f,0.96253323554992675781250000000000f,-1.18147659301757812500000000000000f,-0.15871793031692504882812500000000f,0.39146962761878967285156250000000f,0.95604997873306274414062500000000f,1.76081228256225585937500000000000f,1.31766843795776367187500000000000f,1.48755788803100585937500000000000f,-0.80805462598800659179687500000000f,-0.71640253067016601562500000000000f,1.31740999221801757812500000000000f,-0.28476786613464355468750000000000f,0.21274152398109436035156250000000f,-0.03514449670910835266113281250000f,1.33139908313751220703125000000000f,1.51310229301452636718750000000000f,1.21122467517852783203125000000000f,1.30102586746215820312500000000000f,-0.04687881469726562500000000000000f,-0.13970160484313964843750000000000f,-0.04232035204768180847167968750000f,0.43482664227485656738281250000000f,0.26143935322761535644531250000000f,-0.51538252830505371093750000000000f,1.78915071487426757812500000000000f,-0.03536953032016754150390625000000f,-0.61867564916610717773437500000000f,0.74899035692214965820312500000000f,1.98919820785522460937500000000000f,-0.52373731136322021484375000000000f,0.74657231569290161132812500000000f,2.22309589385986328125000000000000f,1.12488067150115966796875000000000f,-0.34169188141822814941406250000000f,1.80121421813964843750000000000000f,-0.33649665117263793945312500000000f,-0.18182905018329620361328125000000f,-0.75141936540603637695312500000000f,0.81457906961441040039062500000000f,1.02401340007781982421875000000000f,0.84356594085693359375000000000000f,0.90198570489883422851562500000000f,-0.32793402671813964843750000000000f,0.27540785074234008789062500000000f,-0.87119591236114501953125000000000f,0.24413204193115234375000000000000f,-0.22810572385787963867187500000000f,0.27115711569786071777343750000000f,-0.83319461345672607421875000000000f,0.88708144426345825195312500000000f,1.68518090248107910156250000000000f,0.13382114470005035400390625000000f,2.04769396781921386718750000000000f,-0.22518683969974517822265625000000f,2.13117027282714843750000000000000f,-0.46018907427787780761718750000000f,-0.13287203013896942138671875000000f,-0.40767458081245422363281250000000f,0.01854984834790229797363281250000f,0.07830585539340972900390625000000f,0.02561444416642189025878906250000f,-0.01236001774668693542480468750000f,1.09878063201904296875000000000000f,0.63166642189025878906250000000000f,0.93624079227447509765625000000000f,0.80517363548278808593750000000000f,0.80526083707809448242187500000000f,0.41420099139213562011718750000000f,0.83125090599060058593750000000000f,-0.79694795608520507812500000000000f,-0.32914355397224426269531250000000f,-0.28722468018531799316406250000000f,-0.47553113102912902832031250000000f,0.84266674518585205078125000000000f,2.56378102302551269531250000000000f,1.05599939823150634765625000000000f,0.98910313844680786132812500000000f,0.40246537327766418457031250000000f,1.53959310054779052734375000000000f,0.53326135873794555664062500000000f,-0.38704577088356018066406250000000f,-0.46818330883979797363281250000000f,1.78080999851226806640625000000000f,-0.34715011715888977050781250000000f,1.17324864864349365234375000000000f,-0.21862727403640747070312500000000f,0.92471730709075927734375000000000f,1.52991449832916259765625000000000f,1.19858634471893310546875000000000f,1.36641752719879150390625000000000f,0.98511052131652832031250000000000f,1.60025227069854736328125000000000f,-0.55982536077499389648437500000000f,-0.56329762935638427734375000000000f,-0.17223873734474182128906250000000f,-1.58434247970581054687500000000000f,1.08144748210906982421875000000000f,-1.65751445293426513671875000000000f,0.08559790998697280883789062500000f,0.39892613887786865234375000000000f,-0.80321383476257324218750000000000f,-1.45015978813171386718750000000000f,0.73192697763442993164062500000000f,1.38784205913543701171875000000000f,0.06048795208334922790527343750000f,1.75968003273010253906250000000000f,-0.10446696728467941284179687500000f,-0.01068816054612398147583007812500f,-0.18461556732654571533203125000000f,1.88353002071380615234375000000000f,1.51036179065704345703125000000000f,0.55296272039413452148437500000000f,1.77586483955383300781250000000000f,-0.49634739756584167480468750000000f,-0.12515535950660705566406250000000f,2.25718855857849121093750000000000f,1.21615898609161376953125000000000f,-0.79791301488876342773437500000000f,1.55041134357452392578125000000000f,0.18506373465061187744140625000000f,0.24119223654270172119140625000000f,0.39784991741180419921875000000000f,0.75454264879226684570312500000000f,0.81882101297378540039062500000000f,0.28465449810028076171875000000000f,0.34274387359619140625000000000000f,0.52042579650878906250000000000000f,0.93652725219726562500000000000000f,2.51360225677490234375000000000000f,0.36090120673179626464843750000000f,1.54462170600891113281250000000000f,0.87166422605514526367187500000000f,-1.00152397155761718750000000000000f,-0.43887019157409667968750000000000f,-0.39019989967346191406250000000000f,0.33402800559997558593750000000000f,0.36142417788505554199218750000000f,-0.38977378606796264648437500000000f,0.69163721799850463867187500000000f,1.33439159393310546875000000000000f,0.62501978874206542968750000000000f,-0.56070113182067871093750000000000f,-0.35756790637969970703125000000000f,2.05410361289978027343750000000000f,0.67136275768280029296875000000000f,1.50755381584167480468750000000000f,0.85972160100936889648437500000000f,0.89565098285675048828125000000000f,0.90902024507522583007812500000000f,-0.80693495273590087890625000000000f,0.71526426076889038085937500000000f,1.44860804080963134765625000000000f,1.52205181121826171875000000000000f,1.79225313663482666015625000000000f,0.02132367528975009918212890625000f,0.82067799568176269531250000000000f,1.31559836864471435546875000000000f,1.03753089904785156250000000000000f,-2.29130601882934570312500000000000f,-0.15160596370697021484375000000000f,1.31067395210266113281250000000000f,0.87498885393142700195312500000000f,-0.25062504410743713378906250000000f,0.53962129354476928710937500000000f,-0.49785831570625305175781250000000f,-0.03204491734504699707031250000000f,-0.46237039566040039062500000000000f,0.24527923762798309326171875000000f,1.64235615730285644531250000000000f,0.15281368792057037353515625000000f,1.25339663028717041015625000000000f,1.22255492210388183593750000000000f,-0.44922176003456115722656250000000f,-0.70690244436264038085937500000000f,-0.22344551980495452880859375000000f,-0.28152537345886230468750000000000f,-0.67207986116409301757812500000000f,1.99685800075531005859375000000000f,-0.34045341610908508300781250000000f,0.53004330396652221679687500000000f,2.06414246559143066406250000000000f,1.67614495754241943359375000000000f,-0.51723128557205200195312500000000f,-0.36441960930824279785156250000000f,-0.13708771765232086181640625000000f,1.41919279098510742187500000000000f,0.83892667293548583984375000000000f,1.47447061538696289062500000000000f,0.17546905577182769775390625000000f,1.87170863151550292968750000000000f,-0.19306816160678863525390625000000f,1.81800520420074462890625000000000f,-0.22992575168609619140625000000000f,-0.75639516115188598632812500000000f,2.04486465454101562500000000000000f,-0.80445450544357299804687500000000f,-0.21116816997528076171875000000000f,2.15889883041381835937500000000000f,-1.81902503967285156250000000000000f,-0.94306182861328125000000000000000f,-0.43212559819221496582031250000000f,-0.27532893419265747070312500000000f,1.04135274887084960937500000000000f,1.32662987709045410156250000000000f,-0.88433271646499633789062500000000f,0.11347540467977523803710937500000f,-1.22357368469238281250000000000000f,-0.11384232342243194580078125000000f,2.02467608451843261718750000000000f,-0.26158347725868225097656250000000f,0.03258349001407623291015625000000f,1.35888457298278808593750000000000f,2.08635830879211425781250000000000f,1.08706665039062500000000000000000f,-0.15703931450843811035156250000000f,-0.15118953585624694824218750000000f,-0.96133631467819213867187500000000f,-0.48382484912872314453125000000000f,-0.57892674207687377929687500000000f,-0.00292472913861274719238281250000f,1.08512699604034423828125000000000f,-1.04720461368560791015625000000000f,0.99125152826309204101562500000000f,-0.42562392354011535644531250000000f,0.93233209848403930664062500000000f,1.81133270263671875000000000000000f,-0.91953957080841064453125000000000f,-0.45483496785163879394531250000000f,-0.12579478323459625244140625000000f,1.07664549350738525390625000000000f,-0.19665458798408508300781250000000f,-0.13215102255344390869140625000000f,-0.47728058695793151855468750000000f,2.37674665451049804687500000000000f,1.03182840347290039062500000000000f,-0.02253242209553718566894531250000f,0.10892248153686523437500000000000f,-0.06837458163499832153320312500000f,-0.77771985530853271484375000000000f,-0.12616202235221862792968750000000f,1.23681664466857910156250000000000f,-0.38764271140098571777343750000000f,1.02106094360351562500000000000000f,1.66417002677917480468750000000000f,0.68336606025695800781250000000000f,-0.28042259812355041503906250000000f,-1.40301954746246337890625000000000f,-0.35732677578926086425781250000000f,0.60329121351242065429687500000000f,-0.64622503519058227539062500000000f,0.92512845993041992187500000000000f,1.02708554267883300781250000000000f,-0.23651349544525146484375000000000f,1.94266390800476074218750000000000f,-0.96664196252822875976562500000000f,0.68448394536972045898437500000000f,1.80605769157409667968750000000000f,0.50466352701187133789062500000000f,0.91125780344009399414062500000000f,0.92884486913681030273437500000000f,0.59839928150177001953125000000000f,0.90515458583831787109375000000000f,-0.31663650274276733398437500000000f,0.21857723593711853027343750000000f,0.79712826013565063476562500000000f,1.01591873168945312500000000000000f,1.00757062435150146484375000000000f,0.49530884623527526855468750000000f,1.29323744773864746093750000000000f,-2.10200142860412597656250000000000f,-0.33195015788078308105468750000000f,-0.34711074829101562500000000000000f,-1.47071182727813720703125000000000f,0.11830628663301467895507812500000f,-0.36091589927673339843750000000000f,0.85946351289749145507812500000000f,0.99335461854934692382812500000000f,-0.49908596277236938476562500000000f,-0.36979946494102478027343750000000f,-0.01529842056334018707275390625000f,0.59009009599685668945312500000000f,-1.28418827056884765625000000000000f,-0.37951737642288208007812500000000f,1.57224476337432861328125000000000f,0.91315615177154541015625000000000f,-0.19798000156879425048828125000000f,1.11843597888946533203125000000000f,-0.49075251817703247070312500000000f,-1.80292427539825439453125000000000f,-0.26108375191688537597656250000000f,-1.16512513160705566406250000000000f,-0.24241842329502105712890625000000f,-0.25763502717018127441406250000000f,-0.23919840157032012939453125000000f,1.32787549495697021484375000000000f,-0.29491382837295532226562500000000f,1.47849237918853759765625000000000f,0.23465780913829803466796875000000f,-0.30514785647392272949218750000000f,0.45277583599090576171875000000000f,0.70303094387054443359375000000000f,-0.27522376179695129394531250000000f,0.91066843271255493164062500000000f,-0.56633788347244262695312500000000f,0.30435135960578918457031250000000f,0.17041495442390441894531250000000f,-0.56089562177658081054687500000000f,-0.37381869554519653320312500000000f,-0.19178797304630279541015625000000f,1.00416183471679687500000000000000f,0.94516712427139282226562500000000f,-0.32371506094932556152343750000000f,-0.29475787281990051269531250000000f,1.28744995594024658203125000000000f,2.59341979026794433593750000000000f,0.12906792759895324707031250000000f,-0.01053198613226413726806640625000f,-0.04347801953554153442382812500000f,1.20047283172607421875000000000000f,-0.07823989540338516235351562500000f,1.99459648132324218750000000000000f,0.26169538497924804687500000000000f,1.77645754814147949218750000000000f,0.75122761726379394531250000000000f,0.01461731176823377609252929687500f,2.09168887138366699218750000000000f,1.15940093994140625000000000000000f,0.25070488452911376953125000000000f,-0.27389758825302124023437500000000f,-0.53933274745941162109375000000000f,-0.84772408008575439453125000000000f,1.16310775279998779296875000000000f,0.30071407556533813476562500000000f,-0.91721183061599731445312500000000f,1.28679537773132324218750000000000f,-0.33963540196418762207031250000000f,1.88125061988830566406250000000000f,-0.21095231175422668457031250000000f,0.89162135124206542968750000000000f,-1.09090888500213623046875000000000f,-0.44653803110122680664062500000000f,1.15106856822967529296875000000000f,1.42969620227813720703125000000000f,1.49580597877502441406250000000000f,-0.24450898170471191406250000000000f,-0.35421150922775268554687500000000f,0.59177738428115844726562500000000f,0.93754768371582031250000000000000f,-0.35047492384910583496093750000000f,0.54425173997879028320312500000000f,1.83426940441131591796875000000000f,-0.63602715730667114257812500000000f,1.02226924896240234375000000000000f,1.24876272678375244140625000000000f,0.53819650411605834960937500000000f,-0.28410762548446655273437500000000f,-0.00565156526863574981689453125000f,-0.48552441596984863281250000000000f,-0.18022111058235168457031250000000f,1.43977928161621093750000000000000f,-0.64793384075164794921875000000000f,-0.19501611590385437011718750000000f,0.16460269689559936523437500000000f,-0.30567318201065063476562500000000f,1.57901704311370849609375000000000f,0.88624846935272216796875000000000f,1.24400269985198974609375000000000f,-0.79066056013107299804687500000000f,1.79982233047485351562500000000000f,0.63498002290725708007812500000000f,2.01272320747375488281250000000000f,-0.64734530448913574218750000000000f,1.08192753791809082031250000000000f,1.01817476749420166015625000000000f,-0.11406408995389938354492187500000f,-0.16984456777572631835937500000000f,-0.70624399185180664062500000000000f,-0.36501449346542358398437500000000f,-0.47489070892333984375000000000000f,0.03546960651874542236328125000000f,0.05774251744151115417480468750000f,-0.50578469038009643554687500000000f,1.04173827171325683593750000000000f,1.48208940029144287109375000000000f,0.47617530822753906250000000000000f,0.40536895394325256347656250000000f,-2.21492362022399902343750000000000f,1.15054070949554443359375000000000f,0.56486606597900390625000000000000f,0.77051365375518798828125000000000f,1.39215087890625000000000000000000f,1.84988617897033691406250000000000f,2.06865930557250976562500000000000f,0.62481451034545898437500000000000f,-1.42897284030914306640625000000000f,0.14755901694297790527343750000000f,-2.33571457862854003906250000000000f,0.81813573837280273437500000000000f,-0.17267882823944091796875000000000f,1.42878234386444091796875000000000f,1.18807184696197509765625000000000f,0.99321490526199340820312500000000f,-0.71290236711502075195312500000000f,-0.24902643263339996337890625000000f,1.05086266994476318359375000000000f,0.57689106464385986328125000000000f,0.89373266696929931640625000000000f,0.58149343729019165039062500000000f,-0.89381021261215209960937500000000f,1.76832664012908935546875000000000f,1.25021028518676757812500000000000f,0.41302874684333801269531250000000f,2.14902520179748535156250000000000f,0.18878184258937835693359375000000f,1.23965954780578613281250000000000f,1.19148981571197509765625000000000f,-0.20914946496486663818359375000000f,-0.60827225446701049804687500000000f,-1.02622234821319580078125000000000f,-0.25041168928146362304687500000000f,-0.32631266117095947265625000000000f,2.69807124137878417968750000000000f,0.81700354814529418945312500000000f,-0.34940946102142333984375000000000f,-0.22991591691970825195312500000000f,-0.52183365821838378906250000000000f,-0.26514464616775512695312500000000f,-0.63022619485855102539062500000000f,-0.38052421808242797851562500000000f,-0.54528564214706420898437500000000f,0.37692055106163024902343750000000f,0.01473352871835231781005859375000f,-0.27151536941528320312500000000000f,-0.33348760008811950683593750000000f,0.89198714494705200195312500000000f,-0.27169683575630187988281250000000f,0.09288530796766281127929687500000f,-1.26789760589599609375000000000000f,-1.33989953994750976562500000000000f,-0.36412769556045532226562500000000f,1.25540161132812500000000000000000f,1.76203405857086181640625000000000f,-0.18592591583728790283203125000000f,-0.31129595637321472167968750000000f,1.63808858394622802734375000000000f,0.87739026546478271484375000000000f,1.56096446514129638671875000000000f,-0.70777153968811035156250000000000f,0.68649941682815551757812500000000f,-1.39870190620422363281250000000000f,1.43410670757293701171875000000000f,-0.05821704864501953125000000000000f,1.25273978710174560546875000000000f,0.64428144693374633789062500000000f,1.12329685688018798828125000000000f,1.11056172847747802734375000000000f,-2.17822194099426269531250000000000f,-0.37752348184585571289062500000000f,0.01328694168478250503540039062500f,0.89553660154342651367187500000000f,1.85664415359497070312500000000000f,0.16935490071773529052734375000000f,-0.20005755126476287841796875000000f,1.33160746097564697265625000000000f,1.43808674812316894531250000000000f,-0.17955987155437469482421875000000f,-0.25993728637695312500000000000000f,1.20156836509704589843750000000000f,0.83127683401107788085937500000000f,-0.26297155022621154785156250000000f,0.86705505847930908203125000000000f,-0.47782230377197265625000000000000f,1.29600250720977783203125000000000f,1.04611301422119140625000000000000f,0.63785946369171142578125000000000f,0.28943431377410888671875000000000f,1.18452572822570800781250000000000f,1.99475264549255371093750000000000f,0.70934855937957763671875000000000f,0.53532958030700683593750000000000f,-0.58194184303283691406250000000000f,0.11217480152845382690429687500000f,1.32523787021636962890625000000000f,-0.85146605968475341796875000000000f,-0.11507088690996170043945312500000f,0.70090669393539428710937500000000f,0.27661043405532836914062500000000f,-0.12980915606021881103515625000000f,0.73110318183898925781250000000000f,-1.06252372264862060546875000000000f,-0.92505264282226562500000000000000f,-0.48014581203460693359375000000000f,1.15059900283813476562500000000000f,-0.62331211566925048828125000000000f,-0.33923953771591186523437500000000f,-0.34672692418098449707031250000000f,-0.21975165605545043945312500000000f,-0.23031918704509735107421875000000f,0.48965197801589965820312500000000f,-0.47689834237098693847656250000000f,0.06833729147911071777343750000000f,-0.68920123577117919921875000000000f,-0.11188734322786331176757812500000f,-0.05208266153931617736816406250000f,1.42823755741119384765625000000000f,-0.12597811222076416015625000000000f,0.03880533576011657714843750000000f,-0.20173025131225585937500000000000f,-0.44349947571754455566406250000000f,0.63367044925689697265625000000000f,0.55973476171493530273437500000000f,0.29696333408355712890625000000000f,0.70606929063796997070312500000000f,0.21723270416259765625000000000000f,-0.24814902245998382568359375000000f,0.23778626322746276855468750000000f,0.06573297828435897827148437500000f,-0.05851877480745315551757812500000f,0.03878904134035110473632812500000f,0.09942694008350372314453125000000f,-0.36113488674163818359375000000000f,-0.23354861140251159667968750000000f,0.39031803607940673828125000000000f,-0.18106266856193542480468750000000f,0.60235726833343505859375000000000f,-0.20716086030006408691406250000000f,0.02287064865231513977050781250000f,-0.02833267301321029663085937500000f,-0.00823097955435514450073242187500f,0.16561494767665863037109375000000f,0.08347916603088378906250000000000f,-0.12313094735145568847656250000000f,-0.30668795108795166015625000000000f,-0.77050739526748657226562500000000f,-1.37911140918731689453125000000000f,-0.05597925558686256408691406250000f,-0.04808868840336799621582031250000f,-0.16946990787982940673828125000000f,0.06561718136072158813476562500000f,0.36195746064186096191406250000000f,0.13786795735359191894531250000000f,0.07834012806415557861328125000000f,-0.17811627686023712158203125000000f,-0.22931519150733947753906250000000f,0.31695920228958129882812500000000f,0.54075026512145996093750000000000f,-0.00195992854423820972442626953125f,-0.28636613488197326660156250000000f,-0.50433260202407836914062500000000f,-0.42614698410034179687500000000000f,0.28998726606369018554687500000000f,0.29084163904190063476562500000000f,0.14304389059543609619140625000000f,-0.07668901234865188598632812500000f,-0.26773303747177124023437500000000f,-0.22744812071323394775390625000000f,-0.31897523999214172363281250000000f,0.61047881841659545898437500000000f,-0.20453575253486633300781250000000f,0.51824891567230224609375000000000f,-0.28773766756057739257812500000000f,-0.02224078401923179626464843750000f,-0.02351772226393222808837890625000f,-0.02283315174281597137451171875000f,-0.48431766033172607421875000000000f,-0.15045252442359924316406250000000f,-0.56498008966445922851562500000000f,-0.18578660488128662109375000000000f,-0.18250995874404907226562500000000f,-0.20249164104461669921875000000000f,-0.27790254354476928710937500000000f,-0.23426906764507293701171875000000f,-0.12081312388181686401367187500000f,-0.29455804824829101562500000000000f,0.06450609117746353149414062500000f,-0.24996176362037658691406250000000f,-0.31024003028869628906250000000000f,0.11923902481794357299804687500000f,0.12412059307098388671875000000000f,-0.00553108798339962959289550781250f,0.01540478318929672241210937500000f,0.10209868103265762329101562500000f,-0.20088323950767517089843750000000f,0.61201536655426025390625000000000f,-0.41902351379394531250000000000000f,0.23472188413143157958984375000000f,-0.43825328350067138671875000000000f,0.03581824153661727905273437500000f,-0.07135581970214843750000000000000f,1.15222036838531494140625000000000f,-0.15838384628295898437500000000000f,0.17321752011775970458984375000000f,-0.24690949916839599609375000000000f,0.22131550312042236328125000000000f,-0.26776662468910217285156250000000f,-0.14625117182731628417968750000000f,0.08488431572914123535156250000000f,-0.15972959995269775390625000000000f,0.05805654823780059814453125000000f,0.00831851270049810409545898437500f,0.14119429886341094970703125000000f,0.12633700668811798095703125000000f,0.24663881957530975341796875000000f,-0.01808143034577369689941406250000f,-0.07050924748182296752929687500000f,-0.31076353788375854492187500000000f,-0.30685299634933471679687500000000f,0.23643338680267333984375000000000f,0.31304380297660827636718750000000f,0.24083921313285827636718750000000f,0.54940354824066162109375000000000f,0.33143743872642517089843750000000f,0.15042106807231903076171875000000f,-0.02973886393010616302490234375000f,0.07936577498912811279296875000000f,0.06370591372251510620117187500000f,-0.21452341973781585693359375000000f,-0.30913954973220825195312500000000f,-0.28610903024673461914062500000000f,-0.42738905549049377441406250000000f,-0.22546954452991485595703125000000f,-0.16208189725875854492187500000000f,0.04835828766226768493652343750000f,0.35510569810867309570312500000000f,-0.07565847039222717285156250000000f,-0.59021520614624023437500000000000f,-0.26356256008148193359375000000000f,-0.25760087370872497558593750000000f,0.12105519324541091918945312500000f,-0.02925389260053634643554687500000f,0.06541076302528381347656250000000f,0.24268579483032226562500000000000f,0.07344041764736175537109375000000f,-0.23476666212081909179687500000000f,0.31391888856887817382812500000000f,0.28258746862411499023437500000000f,0.49141603708267211914062500000000f,0.17842584848403930664062500000000f,0.51694250106811523437500000000000f,0.54486554861068725585937500000000f,-0.46885311603546142578125000000000f,0.34193819761276245117187500000000f,0.06222889199852943420410156250000f,0.39782664179801940917968750000000f,0.18706522881984710693359375000000f,-0.35115602612495422363281250000000f,-0.27749699354171752929687500000000f,-0.16566616296768188476562500000000f,0.35715812444686889648437500000000f,-0.26400503516197204589843750000000f,-0.09302303194999694824218750000000f,0.15719579160213470458984375000000f,0.52193123102188110351562500000000f,-0.30716720223426818847656250000000f,-0.30109947919845581054687500000000f,-0.43023177981376647949218750000000f,-0.57090872526168823242187500000000f,0.05854000523686408996582031250000f,0.20818328857421875000000000000000f,0.20164218544960021972656250000000f,0.02647191472351551055908203125000f,-0.13889555633068084716796875000000f,0.31745359301567077636718750000000f,0.20412552356719970703125000000000f,0.04299344122409820556640625000000f,-0.02610154822468757629394531250000f,-0.34063449501991271972656250000000f,0.13103652000427246093750000000000f,0.12544125318527221679687500000000f,0.07204768061637878417968750000000f,0.31154391169548034667968750000000f,-0.33562055230140686035156250000000f,0.01502644084393978118896484375000f,0.24507939815521240234375000000000f,-0.14432862401008605957031250000000f,0.55197250843048095703125000000000f,-0.34868016839027404785156250000000f,-0.17840038239955902099609375000000f,-0.34758502244949340820312500000000f,-0.37092301249504089355468750000000f,-0.09687314927577972412109375000000f,1.21321547031402587890625000000000f,0.27109777927398681640625000000000f,0.12043549865484237670898437500000f,-0.35528901219367980957031250000000f,1.32512569427490234375000000000000f,