#include <polimidl/layers/alignment.hpp>
alignas(polimidl::layers::buffer_alignment::byte_alignment) const float weight3[] = {1.93024361133575439453125000000000f,3.46614789962768554687500000000000f,-1.14780676364898681640625000000000f,-2.64638948440551757812500000000000f,-2.83333635330200195312500000000000f,6.97334194183349609375000000000000f,-2.81064105033874511718750000000000f,0.03846465051174163818359375000000f,1.24339807033538818359375000000000f,2.76022696495056152343750000000000f,0.86474698781967163085937500000000f,-0.48398455977439880371093750000000f,0.06547798961400985717773437500000f,1.01291000843048095703125000000000f,-0.81027340888977050781250000000000f,-0.15551960468292236328125000000000f,-0.53838634490966796875000000000000f,0.42079484462738037109375000000000f,0.47776517271995544433593750000000f,0.66856926679611206054687500000000f,-0.48234558105468750000000000000000f,-2.62607789039611816406250000000000f,1.61522960662841796875000000000000f,0.04122178256511688232421875000000f,-1.33169698715209960937500000000000f,-0.35052260756492614746093750000000f,0.41405549645423889160156250000000f,0.22399717569351196289062500000000f,-0.27276924252510070800781250000000f,-1.60071694850921630859375000000000f,-1.35330986976623535156250000000000f,0.75745344161987304687500000000000f,1.36245214939117431640625000000000f,5.71846342086791992187500000000000f,1.16366636753082275390625000000000f,-2.55040025711059570312500000000000f,1.13770365715026855468750000000000f,-5.53686714172363281250000000000000f,-1.72352957725524902343750000000000f,-0.31366690993309020996093750000000f,1.46471560001373291015625000000000f,2.29591178894042968750000000000000f,-0.41241398453712463378906250000000f,1.12348747253417968750000000000000f,-0.29042822122573852539062500000000f,-1.66892254352569580078125000000000f,0.63709586858749389648437500000000f,-13.25796413421630859375000000000000f,1.15402364730834960937500000000000f,-0.72276932001113891601562500000000f,-1.46162152290344238281250000000000f,4.44250869750976562500000000000000f,-1.44005203247070312500000000000000f,-2.76565527915954589843750000000000f,1.52975559234619140625000000000000f,0.16852384805679321289062500000000f,-1.30105829238891601562500000000000f,0.56406760215759277343750000000000f,-0.60770505666732788085937500000000f,0.04608992114663124084472656250000f,-1.66144120693206787109375000000000f,-2.18291115760803222656250000000000f,-1.60443925857543945312500000000000f,-0.79694646596908569335937500000000f,2.14025521278381347656250000000000f,2.08665180206298828125000000000000f,-0.58654618263244628906250000000000f,-2.97123265266418457031250000000000f,0.07645661383867263793945312500000f,-0.70629817247390747070312500000000f,-1.63863551616668701171875000000000f,0.18842428922653198242187500000000f,1.50147831439971923828125000000000f,2.14742207527160644531250000000000f,0.13180837035179138183593750000000f,0.03303115814924240112304687500000f,-0.43635013699531555175781250000000f,0.56023734807968139648437500000000f,0.30803427100181579589843750000000f,1.15076816082000732421875000000000f,-0.20863299071788787841796875000000f,0.43829342722892761230468750000000f,0.19365705549716949462890625000000f,-0.22644409537315368652343750000000f,-2.00255775451660156250000000000000f,-0.11553879082202911376953125000000f,1.11498034000396728515625000000000f,-0.16933807730674743652343750000000f,-1.05053818225860595703125000000000f,-0.29263368248939514160156250000000f,-0.11141163110733032226562500000000f,-0.84559756517410278320312500000000f,0.04752665013074874877929687500000f,0.01965450868010520935058593750000f,-0.69005453586578369140625000000000f,0.37528753280639648437500000000000f,0.45900493860244750976562500000000f,1.24617171287536621093750000000000f,1.07781457901000976562500000000000f,-1.21535384654998779296875000000000f,3.02989053726196289062500000000000f,2.55420732498168945312500000000000f,-2.92797112464904785156250000000000f,0.54068619012832641601562500000000f,1.67787468433380126953125000000000f,2.36002540588378906250000000000000f,0.31775113940238952636718750000000f,3.31351351737976074218750000000000f,0.32152876257896423339843750000000f,-3.07707571983337402343750000000000f,-0.39553031325340270996093750000000f,0.92901003360748291015625000000000f,3.04860758781433105468750000000000f,-1.94435524940490722656250000000000f,-1.14313924312591552734375000000000f,-0.66542416810989379882812500000000f,-0.50805526971817016601562500000000f,-2.12107181549072265625000000000000f,1.92007303237915039062500000000000f,15.08308601379394531250000000000000f,0.66770505905151367187500000000000f,-3.51159548759460449218750000000000f,-2.05635643005371093750000000000000f,-0.56460762023925781250000000000000f,-2.74075746536254882812500000000000f,-0.97219318151473999023437500000000f,-1.61743056774139404296875000000000f,-9.04750919342041015625000000000000f,0.99429416656494140625000000000000f,1.20843076705932617187500000000000f,3.92477631568908691406250000000000f,-2.26707959175109863281250000000000f,-1.48579943180084228515625000000000f,-4.23922252655029296875000000000000f,-1.26774251461029052734375000000000f,5.42314624786376953125000000000000f,1.18345236778259277343750000000000f,2.01636695861816406250000000000000f,1.19028055667877197265625000000000f,-8.02567291259765625000000000000000f,-3.60726332664489746093750000000000f,6.57238626480102539062500000000000f,-0.10905993729829788208007812500000f,10.43340492248535156250000000000000f,4.67086315155029296875000000000000f,-6.59367656707763671875000000000000f,-2.25816917419433593750000000000000f,-3.53797101974487304687500000000000f,-0.35156047344207763671875000000000f,-1.80804061889648437500000000000000f,1.40213525295257568359375000000000f,0.42290815711021423339843750000000f,1.38664388656616210937500000000000f,-2.03733921051025390625000000000000f,-4.30520915985107421875000000000000f,-0.75806581974029541015625000000000f,6.63064193725585937500000000000000f,-1.69887816905975341796875000000000f,-2.42965745925903320312500000000000f,-10.87677192687988281250000000000000f,1.55037879943847656250000000000000f,2.18171310424804687500000000000000f,0.38450750708580017089843750000000f,-1.73252928256988525390625000000000f,-0.06020291149616241455078125000000f,0.83063352108001708984375000000000f,-0.50394654273986816406250000000000f,-0.15331597626209259033203125000000f,1.71631217002868652343750000000000f,1.47593474388122558593750000000000f,0.15901130437850952148437500000000f,0.93903547525405883789062500000000f,0.55654191970825195312500000000000f,-1.75436329841613769531250000000000f,-0.23735418915748596191406250000000f,-0.13396820425987243652343750000000f,1.45466041564941406250000000000000f,-1.60954976081848144531250000000000f,0.03169764205813407897949218750000f,0.04117412120103836059570312500000f,-0.78403353691101074218750000000000f,-0.52735602855682373046875000000000f,0.85968828201293945312500000000000f,-15.90760993957519531250000000000000f,-0.08192624896764755249023437500000f,0.52409958839416503906250000000000f,0.54106879234313964843750000000000f,-1.26595842838287353515625000000000f,-0.95461750030517578125000000000000f,-0.45702633261680603027343750000000f,-1.82681059837341308593750000000000f,1.01171231269836425781250000000000f,1.75036168098449707031250000000000f,-4.53477859497070312500000000000000f,-0.53739750385284423828125000000000f,-1.53931808471679687500000000000000f,0.10914516448974609375000000000000f,-1.02086067199707031250000000000000f,-2.60045123100280761718750000000000f,-0.28029587864875793457031250000000f,0.33644250035285949707031250000000f,0.44810476899147033691406250000000f,0.29137450456619262695312500000000f,-0.53701663017272949218750000000000f,-0.45867559313774108886718750000000f,0.65605992078781127929687500000000f,1.45459699630737304687500000000000f,-0.73655307292938232421875000000000f,1.45498108863830566406250000000000f,1.22718751430511474609375000000000f,0.03331337496638298034667968750000f,0.00714086834341287612915039062500f,0.98904788494110107421875000000000f,-0.90783226490020751953125000000000f,0.90923947095870971679687500000000f,5.68947219848632812500000000000000f,1.66885924339294433593750000000000f,-0.33531546592712402343750000000000f,0.74332517385482788085937500000000f,-0.72908753156661987304687500000000f,0.37342455983161926269531250000000f,1.02933955192565917968750000000000f,-2.28748154640197753906250000000000f,8.88095092773437500000000000000000f,0.65617895126342773437500000000000f,-6.94016170501708984375000000000000f,-0.08406573534011840820312500000000f,-2.28134489059448242187500000000000f,0.08170516788959503173828125000000f,1.27910661697387695312500000000000f,-2.39025306701660156250000000000000f,0.32187122106552124023437500000000f,0.80083096027374267578125000000000f,0.12496076524257659912109375000000f,1.90576314926147460937500000000000f,1.71239709854125976562500000000000f,0.77778035402297973632812500000000f,-0.02609121240675449371337890625000f,0.00031523761572316288948059082031f,2.62086081504821777343750000000000f,3.86609601974487304687500000000000f,-3.00430631637573242187500000000000f,-0.62566465139389038085937500000000f,-0.20920278131961822509765625000000f,0.07279843091964721679687500000000f,-0.80568683147430419921875000000000f,0.80287271738052368164062500000000f,1.15603172779083251953125000000000f,1.47346532344818115234375000000000f,0.78627741336822509765625000000000f,0.62158685922622680664062500000000f,-1.30640673637390136718750000000000f,-0.97385275363922119140625000000000f,0.03916915133595466613769531250000f,-2.72516036033630371093750000000000f,10.94798755645751953125000000000000f,1.32164478302001953125000000000000f,-4.35000610351562500000000000000000f,-0.94395804405212402343750000000000f,-1.46831774711608886718750000000000f,-0.01836765184998512268066406250000f,-0.03958608582615852355957031250000f,-1.41259479522705078125000000000000f,0.53945106267929077148437500000000f,1.19333720207214355468750000000000f,-0.33640041947364807128906250000000f,0.23858632147312164306640625000000f,0.21608240902423858642578125000000f,-0.91915208101272583007812500000000f,0.04482737556099891662597656250000f,0.26636064052581787109375000000000f,-0.97988355159759521484375000000000f,1.67936646938323974609375000000000f,0.20849676430225372314453125000000f,-0.22326382994651794433593750000000f,-0.00192807056009769439697265625000f,0.15387369692325592041015625000000f,0.55664622783660888671875000000000f,-0.07686060667037963867187500000000f,-6.52790212631225585937500000000000f,-0.56742191314697265625000000000000f,-0.24871391057968139648437500000000f,-1.10397350788116455078125000000000f,-0.17099376022815704345703125000000f,-0.15782915055751800537109375000000f,0.82320588827133178710937500000000f,-1.37935423851013183593750000000000f,-1.10410320758819580078125000000000f}; 
