#include <polimidl/layers/alignment.hpp>
alignas(polimidl::layers::buffer_alignment::byte_alignment) const float weight51[] = {0.04772388935089111328125000000000f,0.06132192537188529968261718750000f,0.31952351331710815429687500000000f,0.27284136414527893066406250000000f,0.04290997609496116638183593750000f,0.05130552500486373901367187500000f,0.04457770287990570068359375000000f,0.36206951737403869628906250000000f,-0.32912293076515197753906250000000f,-0.26213589310646057128906250000000f,-0.22767354547977447509765625000000f,0.32456982135772705078125000000000f,0.04386010766029357910156250000000f,0.28068563342094421386718750000000f,0.49254921078681945800781250000000f,-0.26222079992294311523437500000000f,0.58333241939544677734375000000000f,0.05056202784180641174316406250000f,-0.25696614384651184082031250000000f,0.06315715610980987548828125000000f,0.05289894714951515197753906250000f,0.27659019827842712402343750000000f,0.29227352142333984375000000000000f,-0.31069496273994445800781250000000f,0.47053861618041992187500000000000f,-0.26754575967788696289062500000000f,0.06675906479358673095703125000000f,0.05851930379867553710937500000000f,0.04923467710614204406738281250000f,-0.22725726664066314697265625000000f,-1.22593259811401367187500000000000f,-0.25267523527145385742187500000000f,-0.23844952881336212158203125000000f,0.05390054732561111450195312500000f,-0.27067175507545471191406250000000f,0.10983603447675704956054687500000f,0.16334615647792816162109375000000f,0.05312329158186912536621093750000f,-1.07383096218109130859375000000000f,0.14400480687618255615234375000000f,-0.28190520405769348144531250000000f,0.26222398877143859863281250000000f,0.19246546924114227294921875000000f,0.25157219171524047851562500000000f,0.56858694553375244140625000000000f,-0.24346886575222015380859375000000f,0.05419002473354339599609375000000f,-0.28324663639068603515625000000000f,0.53340989351272583007812500000000f,-0.28895971179008483886718750000000f,0.28526204824447631835937500000000f,-0.24505764245986938476562500000000f,0.62952482700347900390625000000000f,-0.26001182198524475097656250000000f,0.05161882564425468444824218750000f,-0.27571487426757812500000000000000f,0.05399402603507041931152343750000f,0.05441839620471000671386718750000f,-0.26365214586257934570312500000000f,-0.25653654336929321289062500000000f,0.18745882809162139892578125000000f,0.08029095828533172607421875000000f,0.04937227070331573486328125000000f,0.04964439198374748229980468750000f,-0.27377814054489135742187500000000f,-0.23611748218536376953125000000000f,-0.28760790824890136718750000000000f,0.24925531446933746337890625000000f,0.05774238705635070800781250000000f,0.05736550316214561462402343750000f,0.04253944754600524902343750000000f,-0.28305578231811523437500000000000f,0.04977734759449958801269531250000f,0.20380266010761260986328125000000f,0.29171594977378845214843750000000f,-0.25594577193260192871093750000000f,0.27562993764877319335937500000000f,0.06050269305706024169921875000000f,-0.26350098848342895507812500000000f,-0.25620418787002563476562500000000f,-0.33281922340393066406250000000000f,-0.26492097973823547363281250000000f,0.06347483396530151367187500000000f,-0.26604866981506347656250000000000f,-0.48414841294288635253906250000000f,0.19048352539539337158203125000000f,0.30656489729881286621093750000000f,-0.28487738966941833496093750000000f,-0.26098346710205078125000000000000f,0.04771609231829643249511718750000f,0.77032923698425292968750000000000f,0.31632605195045471191406250000000f,-0.25614407658576965332031250000000f,-0.59621590375900268554687500000000f,0.05335484817624092102050781250000f,-0.23338370025157928466796875000000f,0.17414821684360504150390625000000f,0.19444386661052703857421875000000f,0.04857943207025527954101562500000f,0.76359903812408447265625000000000f,0.04478441923856735229492187500000f,0.25119766592979431152343750000000f,0.05092826485633850097656250000000f,-0.58007448911666870117187500000000f,-0.26538828015327453613281250000000f,0.28762039542198181152343750000000f,0.27372005581855773925781250000000f,0.72881335020065307617187500000000f,-0.25049936771392822265625000000000f,-0.29561924934387207031250000000000f,0.29488781094551086425781250000000f,-0.27423638105392456054687500000000f,0.04647864401340484619140625000000f,0.29407516121864318847656250000000f,0.13270582258701324462890625000000f,0.04453890770673751831054687500000f,0.20667295157909393310546875000000f,0.04752026498317718505859375000000f,0.04689718410372734069824218750000f,-0.26778694987297058105468750000000f,-0.26037770509719848632812500000000f,0.26031669974327087402343750000000f,-0.30109921097755432128906250000000f,-0.24011504650115966796875000000000f,0.05263184010982513427734375000000f,-0.26748296618461608886718750000000f,0.73540794849395751953125000000000f,0.18185739219188690185546875000000f,0.68739968538284301757812500000000f,-1.02633714675903320312500000000000f,0.68590599298477172851562500000000f,-0.23528288304805755615234375000000f,-0.25497552752494812011718750000000f,-0.31510794162750244140625000000000f,0.25783699750900268554687500000000f,-0.28356319665908813476562500000000f,-0.26925474405288696289062500000000f,0.05177451670169830322265625000000f,-0.22218361496925354003906250000000f,0.31674551963806152343750000000000f,-0.26792147755622863769531250000000f,-0.29761114716529846191406250000000f,-0.27124786376953125000000000000000f,-0.26363983750343322753906250000000f,0.05263851210474967956542968750000f,-0.27993744611740112304687500000000f,0.56518375873565673828125000000000f,0.74418646097183227539062500000000f,0.43953901529312133789062500000000f,0.05348861962556838989257812500000f,-0.23625837266445159912109375000000f,0.29603263735771179199218750000000f,0.04608446359634399414062500000000f,-0.27553775906562805175781250000000f,-0.30035063624382019042968750000000f,0.29594987630844116210937500000000f,-0.25957700610160827636718750000000f,0.05742763355374336242675781250000f,-0.27937552332878112792968750000000f,0.09975192695856094360351562500000f,-0.25098326802253723144531250000000f,0.05530648306012153625488281250000f,0.18276764452457427978515625000000f,-0.25554767251014709472656250000000f,-0.25318869948387145996093750000000f,0.24021491408348083496093750000000f,0.67514842748641967773437500000000f,-0.26280656456947326660156250000000f,-0.29960286617279052734375000000000f,-0.28031361103057861328125000000000f,0.06714545935392379760742187500000f,-0.26667067408561706542968750000000f,-0.26162499189376831054687500000000f,-0.28333491086959838867187500000000f,0.23836190998554229736328125000000f,-0.12823112308979034423828125000000f,0.17366492748260498046875000000000f,-0.23512154817581176757812500000000f,-0.24523039162158966064453125000000f,0.05349212512373924255371093750000f,-0.26599079370498657226562500000000f,-0.24839945137500762939453125000000f,0.25027233362197875976562500000000f,-0.27768957614898681640625000000000f,-0.26316770911216735839843750000000f,-0.27878287434577941894531250000000f,-0.27799242734909057617187500000000f,0.04654077067971229553222656250000f,-0.24390561878681182861328125000000f,-0.44765853881835937500000000000000f,0.04741900414228439331054687500000f,0.29738971590995788574218750000000f,-0.24089777469635009765625000000000f,-0.92004704475402832031250000000000f,0.04936315119266510009765625000000f,-0.41969621181488037109375000000000f,-0.29805114865303039550781250000000f,0.30918675661087036132812500000000f,0.04886363074183464050292968750000f,0.04615349695086479187011718750000f,-0.27657356858253479003906250000000f,-0.24899967014789581298828125000000f,-0.25774228572845458984375000000000f,-0.27198359370231628417968750000000f,0.33702832460403442382812500000000f,-0.22521318495273590087890625000000f,-0.28135696053504943847656250000000f,0.06143958121538162231445312500000f,0.04621144756674766540527343750000f,0.22339202463626861572265625000000f,0.14110475778579711914062500000000f,0.32116255164146423339843750000000f,0.24807189404964447021484375000000f,0.31616693735122680664062500000000f,0.25501266121864318847656250000000f,0.33673995733261108398437500000000f,-0.26053136587142944335937500000000f,0.04689858481287956237792968750000f,-0.25582864880561828613281250000000f,0.04711594805121421813964843750000f,-0.23440255224704742431640625000000f,0.22219356894493103027343750000000f,0.05622329190373420715332031250000f,-0.69518363475799560546875000000000f,-0.23729993402957916259765625000000f,-0.26365312933921813964843750000000f,0.04460373520851135253906250000000f,-0.61384588479995727539062500000000f,-0.20378635823726654052734375000000f,0.25013646483421325683593750000000f,0.24600036442279815673828125000000f,-0.24856175482273101806640625000000f,0.33330154418945312500000000000000f,0.15921695530414581298828125000000f,-0.28521803021430969238281250000000f,0.31269806623458862304687500000000f,0.05084200948476791381835937500000f,0.28839203715324401855468750000000f,-0.30913496017456054687500000000000f,-0.01780213788151741027832031250000f,-0.27254414558410644531250000000000f,-0.86144554615020751953125000000000f,0.48739221692085266113281250000000f,-0.35454708337783813476562500000000f,0.05899854376912117004394531250000f,-0.78806334733963012695312500000000f,-0.26180455088615417480468750000000f,0.05596245080232620239257812500000f,0.14617694914340972900390625000000f,0.17519134283065795898437500000000f,0.05250705406069755554199218750000f,-0.26341572403907775878906250000000f,-0.24999028444290161132812500000000f,-0.23167526721954345703125000000000f,-0.26109844446182250976562500000000f,-0.26405140757560729980468750000000f,-0.27315342426300048828125000000000f,-0.23190024495124816894531250000000f,0.33881536126136779785156250000000f,0.20233759284019470214843750000000f,0.28218525648117065429687500000000f,0.27234828472137451171875000000000f,0.28806853294372558593750000000000f,0.34483966231346130371093750000000f,0.33530825376510620117187500000000f,-0.25791272521018981933593750000000f,-0.22596621513366699218750000000000f,-0.24940139055252075195312500000000f,0.31019738316535949707031250000000f,-0.29180428385734558105468750000000f,0.14723749458789825439453125000000f,0.04953368753194808959960937500000f,0.05314861983060836791992187500000f,-0.26166403293609619140625000000000f,0.05396028235554695129394531250000f,0.23113450407981872558593750000000f,-0.26516157388687133789062500000000f,0.67377299070358276367187500000000f,0.04343066364526748657226562500000f,-0.27175989747047424316406250000000f,0.70196795463562011718750000000000f,-0.24976521730422973632812500000000f,-0.33452233672142028808593750000000f,-0.23682370781898498535156250000000f,-0.55136722326278686523437500000000f,-0.24584704637527465820312500000000f,0.05687347054481506347656250000000f,0.06416380405426025390625000000000f,0.04526077583432197570800781250000f,0.23845286667346954345703125000000f,-0.26159778237342834472656250000000f,0.29194521903991699218750000000000f,-0.23571182787418365478515625000000f,0.05009888112545013427734375000000f,0.35752815008163452148437500000000f,-0.24070550501346588134765625000000f,-0.26854917407035827636718750000000f,-0.26486587524414062500000000000000f,-0.24647806584835052490234375000000f,-0.23984114825725555419921875000000f,0.27246284484863281250000000000000f,-0.29583314061164855957031250000000f,0.04595938324928283691406250000000f,-0.28671082854270935058593750000000f,-0.23668111860752105712890625000000f,0.18586544692516326904296875000000f,0.34614387154579162597656250000000f,-0.24985520541667938232421875000000f,-0.26010057330131530761718750000000f,-0.23822665214538574218750000000000f,-0.26376467943191528320312500000000f,0.27712893486022949218750000000000f,0.32526823878288269042968750000000f,-0.26040625572204589843750000000000f,-1.12147295475006103515625000000000f,-0.28565686941146850585937500000000f,-0.24066244065761566162109375000000f,0.45457342267036437988281250000000f,0.23050364851951599121093750000000f,0.29620954394340515136718750000000f,0.35754248499870300292968750000000f,-0.26946410536766052246093750000000f,0.67543596029281616210937500000000f,-0.37288388609886169433593750000000f,0.33795577287673950195312500000000f,0.30837789177894592285156250000000f,0.35431894659996032714843750000000f,0.04342580586671829223632812500000f,-0.25186711549758911132812500000000f,-0.29350554943084716796875000000000f,-0.31272149085998535156250000000000f,0.75904929637908935546875000000000f,0.04397723451256752014160156250000f,-0.26763743162155151367187500000000f,0.05310826003551483154296875000000f,0.22450748085975646972656250000000f,-0.26451814174652099609375000000000f,-0.52976256608963012695312500000000f,-0.29475125670433044433593750000000f,0.31722921133041381835937500000000f,0.05279346182942390441894531250000f,-0.24484488368034362792968750000000f,-0.25832206010818481445312500000000f,0.04341553151607513427734375000000f,0.05092343315482139587402343750000f,0.05588046833872795104980468750000f,-0.23969854414463043212890625000000f,0.27833250164985656738281250000000f,0.22179640829563140869140625000000f,-0.26364552974700927734375000000000f,0.05488283187150955200195312500000f,0.04974705353379249572753906250000f,0.05796642974019050598144531250000f,-0.27899089455604553222656250000000f,-0.24720470607280731201171875000000f,0.04668672382831573486328125000000f,0.05909831449389457702636718750000f,0.23382656276226043701171875000000f,0.23268692195415496826171875000000f,-0.25161874294281005859375000000000f,0.05059766396880149841308593750000f,-0.29157146811485290527343750000000f,0.05240999162197113037109375000000f,0.04402363300323486328125000000000f,0.04470070078969001770019531250000f,0.27168282866477966308593750000000f,-0.32851579785346984863281250000000f,-1.33447623252868652343750000000000f,-0.30756264925003051757812500000000f,-0.26184615492820739746093750000000f,-0.95897722244262695312500000000000f,0.25929525494575500488281250000000f,-0.25701788067817687988281250000000f,0.32482981681823730468750000000000f,0.36721998453140258789062500000000f,-1.00186872482299804687500000000000f,-0.24219493567943572998046875000000f,0.29749038815498352050781250000000f,0.62071090936660766601562500000000f,-0.22842511534690856933593750000000f,0.04674265533685684204101562500000f,0.05441442877054214477539062500000f,0.38259744644165039062500000000000f,0.07082198560237884521484375000000f,0.69643157720565795898437500000000f,-0.26920837163925170898437500000000f,-0.30101826786994934082031250000000f,-0.22900028526782989501953125000000f,-0.47432821989059448242187500000000f,0.05303064733743667602539062500000f,-0.24343916773796081542968750000000f,-0.26682418584823608398437500000000f,0.06828019767999649047851562500000f,0.85883313417434692382812500000000f,-0.24733747541904449462890625000000f,-0.22181779146194458007812500000000f,0.04835320264101028442382812500000f,0.06436360627412796020507812500000f,0.09579588472843170166015625000000f,0.21943937242031097412109375000000f,-0.25396850705146789550781250000000f,-0.29923844337463378906250000000000f,0.27728155255317687988281250000000f,-0.26613149046897888183593750000000f,-0.46167257428169250488281250000000f,0.29561766982078552246093750000000f,-0.24580690264701843261718750000000f,0.69086968898773193359375000000000f,-0.24045047163963317871093750000000f,0.05228052288293838500976562500000f,-0.25450012087821960449218750000000f,-0.23883397877216339111328125000000f,0.17734816670417785644531250000000f,-0.24641923606395721435546875000000f,-0.25155889987945556640625000000000f,0.21877340972423553466796875000000f,-0.29462951421737670898437500000000f,-0.40989169478416442871093750000000f,-0.24558705091476440429687500000000f,-0.26524564623832702636718750000000f,0.06473625451326370239257812500000f,0.60316866636276245117187500000000f,-0.28400549292564392089843750000000f,0.05071271583437919616699218750000f,-0.27623429894447326660156250000000f,0.19283297657966613769531250000000f,0.45776367187500000000000000000000f,-0.35212385654449462890625000000000f,0.37357273697853088378906250000000f,0.33239117264747619628906250000000f,-0.26522830128669738769531250000000f,-0.26793238520622253417968750000000f,-0.26477360725402832031250000000000f,-0.24832174181938171386718750000000f,0.22018326818943023681640625000000f,-0.27278345823287963867187500000000f,0.19705395400524139404296875000000f,-0.25234687328338623046875000000000f,0.31135013699531555175781250000000f,-0.25754353404045104980468750000000f,0.05247386917471885681152343750000f,0.25597754120826721191406250000000f,0.05300384759902954101562500000000f,-0.28562179207801818847656250000000f,0.05707462131977081298828125000000f,0.45156687498092651367187500000000f,0.07950420677661895751953125000000f,-0.90450590848922729492187500000000f,-0.26741605997085571289062500000000f,0.27110409736633300781250000000000f,-0.45019710063934326171875000000000f,-1.97690629959106445312500000000000f,-0.28115195035934448242187500000000f,-0.27113932371139526367187500000000f,0.28980040550231933593750000000000f,-0.23346377909183502197265625000000f,0.21803550422191619873046875000000f,0.04998945072293281555175781250000f,0.32761281728744506835937500000000f,0.37773051857948303222656250000000f,0.25273907184600830078125000000000f,0.05619527399539947509765625000000f,0.75694477558135986328125000000000f,0.26738259196281433105468750000000f,-0.27770590782165527343750000000000f,0.20462688803672790527343750000000f,-0.48220646381378173828125000000000f,-0.27209085226058959960937500000000f,-0.21589079499244689941406250000000f,0.13601928949356079101562500000000f,0.05060694739222526550292968750000f,0.07277409732341766357421875000000f,0.49494978785514831542968750000000f,0.66463744640350341796875000000000f,0.22006613016128540039062500000000f,-0.25274780392646789550781250000000f,-0.24576970934867858886718750000000f,0.23831684887409210205078125000000f,-0.30825838446617126464843750000000f,0.22628833353519439697265625000000f,-0.30121895670890808105468750000000f,-0.22891174256801605224609375000000f,-0.27896788716316223144531250000000f,0.06135113164782524108886718750000f,0.06442370265722274780273437500000f,-0.25690361857414245605468750000000f,-0.25877827405929565429687500000000f,-0.30734157562255859375000000000000f,-0.31448417901992797851562500000000f,0.05473644658923149108886718750000f,-0.30427098274230957031250000000000f,-0.34241488575935363769531250000000f,0.23739838600158691406250000000000f,-0.25982367992401123046875000000000f,0.27115723490715026855468750000000f,-0.28681242465972900390625000000000f,0.54216319322586059570312500000000f,-0.26557141542434692382812500000000f,-0.28511142730712890625000000000000f,0.06808901578187942504882812500000f,0.18834450840950012207031250000000f,-1.07556247711181640625000000000000f,0.04963041841983795166015625000000f,-0.24870710074901580810546875000000f,-0.27423298358917236328125000000000f,-0.23724611103534698486328125000000f,0.59871906042098999023437500000000f,0.27489665150642395019531250000000f,0.42411196231842041015625000000000f,0.26121464371681213378906250000000f,-0.22820702195167541503906250000000f,0.15210121870040893554687500000000f,0.09333228319883346557617187500000f,0.27281624078750610351562500000000f,-0.26020801067352294921875000000000f,-0.24639411270618438720703125000000f,0.22912654280662536621093750000000f,-0.26026466488838195800781250000000f,0.04099447652697563171386718750000f,-0.25685486197471618652343750000000f,-0.72569715976715087890625000000000f,-0.23272711038589477539062500000000f,0.04748220741748809814453125000000f,0.04997679218649864196777343750000f,-0.25760039687156677246093750000000f,-0.24023799598217010498046875000000f,0.05421106517314910888671875000000f,0.05370061844587326049804687500000f,-0.25553584098815917968750000000000f,-0.28145754337310791015625000000000f,-0.24285435676574707031250000000000f,0.17972913384437561035156250000000f,-0.28489962220191955566406250000000f,0.22259752452373504638671875000000f,-0.24753440916538238525390625000000f,0.36472433805465698242187500000000f,0.05063465610146522521972656250000f,0.32689487934112548828125000000000f,0.05244893208146095275878906250000f,-0.24200160801410675048828125000000f,-0.25215691328048706054687500000000f,0.05292845517396926879882812500000f,0.05055035650730133056640625000000f,0.29970905184745788574218750000000f,0.04620717838406562805175781250000f,0.27206537127494812011718750000000f,0.33340686559677124023437500000000f,-0.29078307747840881347656250000000f,-0.25865125656127929687500000000000f,0.25065323710441589355468750000000f,0.29894202947616577148437500000000f,-0.24624539911746978759765625000000f,-0.50323843955993652343750000000000f,-0.28060090541839599609375000000000f,-1.22325360774993896484375000000000f,-0.24935744702816009521484375000000f,-0.25152310729026794433593750000000f,0.29041942954063415527343750000000f,0.27226689457893371582031250000000f,-0.29690444469451904296875000000000f,-0.28347504138946533203125000000000f,0.26699370145797729492187500000000f,-0.72298133373260498046875000000000f,0.30997398495674133300781250000000f,-0.23661793768405914306640625000000f,0.05371892824769020080566406250000f,-0.28151404857635498046875000000000f,0.29229626059532165527343750000000f,0.27132326364517211914062500000000f,0.05715985596179962158203125000000f,0.05186458677053451538085937500000f,0.04595555737614631652832031250000f,0.31157994270324707031250000000000f,0.05830194428563117980957031250000f,0.37210777401924133300781250000000f,-0.25535982847213745117187500000000f,0.29771077632904052734375000000000f,-0.26733332872390747070312500000000f,-0.27013069391250610351562500000000f,0.70242077112197875976562500000000f,0.05749803781509399414062500000000f,-0.24136424064636230468750000000000f,-0.24737438559532165527343750000000f,-0.24740119278430938720703125000000f,0.20211885869503021240234375000000f,0.07086680084466934204101562500000f,0.42437529563903808593750000000000f,0.05840700492262840270996093750000f,0.32212340831756591796875000000000f,0.26842078566551208496093750000000f,-0.28244626522064208984375000000000f,-0.25152063369750976562500000000000f,0.04408260434865951538085937500000f,-0.45470684766769409179687500000000f,-0.25683337450027465820312500000000f,0.06063514575362205505371093750000f,-0.29288995265960693359375000000000f,0.04430330544710159301757812500000f,-0.24464327096939086914062500000000f,-0.91023218631744384765625000000000f,-0.21807916462421417236328125000000f,-1.14304280281066894531250000000000f,0.35032925009727478027343750000000f,-0.26590061187744140625000000000000f,0.25839945673942565917968750000000f,0.05010945722460746765136718750000f,-0.30374756455421447753906250000000f,0.05149912089109420776367187500000f,0.74911785125732421875000000000000f,-0.22992052137851715087890625000000f,-0.26513564586639404296875000000000f,0.05686433240771293640136718750000f,-0.24067598581314086914062500000000f,-0.31000953912734985351562500000000f,-0.27821117639541625976562500000000f,-0.22480833530426025390625000000000f,0.06784795224666595458984375000000f,-0.27337500452995300292968750000000f,-0.25746795535087585449218750000000f,-0.96461039781570434570312500000000f,0.31606924533843994140625000000000f,0.27880239486694335937500000000000f,0.24747991561889648437500000000000f,0.04506773501634597778320312500000f,-0.26492086052894592285156250000000f,0.04723085463047027587890625000000f,0.07100977748632431030273437500000f,0.30501115322113037109375000000000f,0.04819590598344802856445312500000f,-0.25401976704597473144531250000000f,0.23941726982593536376953125000000f,-0.76622486114501953125000000000000f,-0.25963744521141052246093750000000f,0.28172326087951660156250000000000f,0.05330917984247207641601562500000f,0.22326500713825225830078125000000f,-0.26737558841705322265625000000000f,0.27327570319175720214843750000000f,-0.25154355168342590332031250000000f,0.44419178366661071777343750000000f,-0.29035514593124389648437500000000f,0.29401260614395141601562500000000f,-0.27741506695747375488281250000000f,0.54542016983032226562500000000000f,0.06019552052021026611328125000000f,0.31099805235862731933593750000000f,0.04962465539574623107910156250000f,-0.23975817859172821044921875000000f,-0.99775314331054687500000000000000f,0.80614417791366577148437500000000f,0.05548516660928726196289062500000f,1.21941375732421875000000000000000f,0.28197556734085083007812500000000f,0.05124290660023689270019531250000f,0.31444877386093139648437500000000f,0.89381188154220581054687500000000f,0.68200618028640747070312500000000f,-0.24858301877975463867187500000000f,-0.27731093764305114746093750000000f,0.32362285256385803222656250000000f,-0.28899022936820983886718750000000f,0.24365520477294921875000000000000f,-0.27007725834846496582031250000000f,0.35313555598258972167968750000000f,0.31477838754653930664062500000000f,0.70736390352249145507812500000000f,0.06006098538637161254882812500000f,0.23398940265178680419921875000000f,-0.25204306840896606445312500000000f,0.26440143585205078125000000000000f,0.30309629440307617187500000000000f,0.20203202962875366210937500000000f,0.29991379380226135253906250000000f,0.04932971298694610595703125000000f,-0.26723197102546691894531250000000f,-0.26000541448593139648437500000000f,-0.26732453703880310058593750000000f,-0.28936436772346496582031250000000f,-0.24433752894401550292968750000000f,0.04189877584576606750488281250000f,0.05340500175952911376953125000000f,-0.27624323964118957519531250000000f,-0.26180550456047058105468750000000f,-0.58157432079315185546875000000000f,-0.26202455163002014160156250000000f,-0.84871655702590942382812500000000f,-0.25741705298423767089843750000000f,0.07624845951795578002929687500000f,-0.25882887840270996093750000000000f,0.49354529380798339843750000000000f,0.05044448748230934143066406250000f,-0.23977427184581756591796875000000f,-0.24756766855716705322265625000000f,0.33017066121101379394531250000000f,-0.30937838554382324218750000000000f,0.33194807171821594238281250000000f,-0.22936394810676574707031250000000f,0.23422181606292724609375000000000f,-0.50691694021224975585937500000000f,0.32100325822830200195312500000000f,-0.77654272317886352539062500000000f,0.05808644741773605346679687500000f,-0.23115149140357971191406250000000f,0.22383089363574981689453125000000f,0.05960288643836975097656250000000f,-0.56076258420944213867187500000000f,0.21236680448055267333984375000000f,0.70238327980041503906250000000000f,0.57841622829437255859375000000000f,-0.56218838691711425781250000000000f,0.06003157421946525573730468750000f,-0.26835080981254577636718750000000f,-0.25223380327224731445312500000000f,-0.32872346043586730957031250000000f,-0.22902268171310424804687500000000f,-0.25875928997993469238281250000000f,-0.28118169307708740234375000000000f,0.11743973940610885620117187500000f,-0.24142250418663024902343750000000f,-0.26743870973587036132812500000000f,0.50264549255371093750000000000000f,-0.24285793304443359375000000000000f,0.70906895399093627929687500000000f,-0.28399443626403808593750000000000f,-0.45771425962448120117187500000000f,0.05132989212870597839355468750000f,-0.24008210003376007080078125000000f,-0.14960044622421264648437500000000f,-0.24083067476749420166015625000000f,-0.26153558492660522460937500000000f,0.27423661947250366210937500000000f,0.16559606790542602539062500000000f,0.25378513336181640625000000000000f,0.05719750374555587768554687500000f,-0.25743994116783142089843750000000f,-0.26554673910140991210937500000000f,0.21136973798274993896484375000000f,-0.57283514738082885742187500000000f,-0.68155944347381591796875000000000f,-0.23578339815139770507812500000000f,-0.24092146754264831542968750000000f,-0.26812353730201721191406250000000f,0.18988440930843353271484375000000f,0.05716622620820999145507812500000f,0.33365452289581298828125000000000f,0.04920956492424011230468750000000f,0.20639777183532714843750000000000f,-0.59079158306121826171875000000000f,-0.45197814702987670898437500000000f,-0.22620621323585510253906250000000f,0.06309238076210021972656250000000f,-0.46903139352798461914062500000000f,0.20409400761127471923828125000000f,-0.29988715052604675292968750000000f,0.23273891210556030273437500000000f,0.33160400390625000000000000000000f,0.12902677059173583984375000000000f,0.19098640978336334228515625000000f,0.71949726343154907226562500000000f,0.21207731962203979492187500000000f,-0.25875532627105712890625000000000f,-0.29437348246574401855468750000000f,0.33822497725486755371093750000000f,0.34567517042160034179687500000000f,0.04702196642756462097167968750000f,0.42113158106803894042968750000000f,-0.26334992051124572753906250000000f,-0.27634689211845397949218750000000f,-0.44553676247596740722656250000000f,-0.26256555318832397460937500000000f,0.05856904760003089904785156250000f,0.05598369240760803222656250000000f,-0.73495876789093017578125000000000f,-0.26000607013702392578125000000000f,-0.31132093071937561035156250000000f,0.31069108843803405761718750000000f,0.22078077495098114013671875000000f,0.30375373363494873046875000000000f,0.29062807559967041015625000000000f,-0.24564561247825622558593750000000f,0.04893893748521804809570312500000f,-0.27655020356178283691406250000000f,-0.27505326271057128906250000000000f,-0.76528984308242797851562500000000f,-0.28691732883453369140625000000000f,0.17314596474170684814453125000000f,0.05238587781786918640136718750000f,-0.28035274147987365722656250000000f,-0.50152915716171264648437500000000f,0.04920389130711555480957031250000f,0.04916751012206077575683593750000f,-0.25662302970886230468750000000000f,-0.25769206881523132324218750000000f,0.05596558377146720886230468750000f,-0.26438242197036743164062500000000f,0.04255037754774093627929687500000f,0.05118957161903381347656250000000f,-0.28000470995903015136718750000000f,-0.28478875756263732910156250000000f,0.27346038818359375000000000000000f,-0.25522717833518981933593750000000f,0.05099658668041229248046875000000f,-0.28598681092262268066406250000000f,-0.80579507350921630859375000000000f,0.26232519745826721191406250000000f,-0.27846693992614746093750000000000f,0.05536141246557235717773437500000f,-0.35732737183570861816406250000000f,-0.24274006485939025878906250000000f,0.26963713765144348144531250000000f,-0.26235648989677429199218750000000f,0.28301483392715454101562500000000f,-0.23003734648227691650390625000000f,0.04771428555250167846679687500000f,-0.23480112850666046142578125000000f,-0.25656417012214660644531250000000f,0.04595594853162765502929687500000f,0.28240677714347839355468750000000f,-0.33799269795417785644531250000000f,-0.24869905412197113037109375000000f,-0.27126404643058776855468750000000f,-0.26255595684051513671875000000000f,0.04983697086572647094726562500000f,0.22053076326847076416015625000000f,-0.25144544243812561035156250000000f,-0.26818612217903137207031250000000f,-0.24085542559623718261718750000000f,0.05687246099114418029785156250000f,0.27165275812149047851562500000000f,0.21125148236751556396484375000000f,-0.28828313946723937988281250000000f,-0.30240166187286376953125000000000f,-0.59616184234619140625000000000000f,-0.27848383784294128417968750000000f,-0.25926479697227478027343750000000f,-0.27536877989768981933593750000000f,-0.23427018523216247558593750000000f,-0.27608183026313781738281250000000f,0.32890725135803222656250000000000f,0.23239757120609283447265625000000f,0.22293429076671600341796875000000f,-0.25407636165618896484375000000000f,-0.19775407016277313232421875000000f,-0.25061196088790893554687500000000f,-0.29030922055244445800781250000000f,0.29791557788848876953125000000000f,-0.26448172330856323242187500000000f,-0.26624247431755065917968750000000f,-0.60276085138320922851562500000000f,-0.23027333617210388183593750000000f,-0.27022162079811096191406250000000f,0.29681816697120666503906250000000f,0.30096989870071411132812500000000f,-0.24861986935138702392578125000000f,-0.26874256134033203125000000000000f,0.27892389893531799316406250000000f,-0.24673828482627868652343750000000f,0.31300115585327148437500000000000f,-0.27474862337112426757812500000000f,0.60771125555038452148437500000000f,-0.30240583419799804687500000000000f,-0.24708096683025360107421875000000f,-0.21693804860115051269531250000000f,0.05916097015142440795898437500000f,-0.25787058472633361816406250000000f,0.30050432682037353515625000000000f,0.61609709262847900390625000000000f,0.04589889198541641235351562500000f,0.28383931517601013183593750000000f,0.25518456101417541503906250000000f,0.24357673525810241699218750000000f,-0.28122708201408386230468750000000f,0.04948554933071136474609375000000f,0.25376090407371520996093750000000f,-0.24383834004402160644531250000000f,0.91655039787292480468750000000000f,-0.23612913489341735839843750000000f,-0.77775210142135620117187500000000f,-0.27375403046607971191406250000000f,-0.25383937358856201171875000000000f,0.04637680575251579284667968750000f,-0.28385615348815917968750000000000f,-0.31853747367858886718750000000000f,0.05357507616281509399414062500000f,-0.24360863864421844482421875000000f,0.04564553499221801757812500000000f,-0.27054014801979064941406250000000f,-0.22229725122451782226562500000000f,-0.24566417932510375976562500000000f,-0.25591540336608886718750000000000f,0.32443645596504211425781250000000f,0.26653563976287841796875000000000f,-0.28370589017868041992187500000000f,-0.26176628470420837402343750000000f,-0.29612264037132263183593750000000f,0.65356284379959106445312500000000f,0.31180474162101745605468750000000f,0.10279447585344314575195312500000f,-0.25001800060272216796875000000000f,0.30691093206405639648437500000000f,-0.26171511411666870117187500000000f,-0.21873728930950164794921875000000f,0.05314691737294197082519531250000f,-0.28794091939926147460937500000000f,0.04806353896856307983398437500000f,-0.28011378645896911621093750000000f,0.71341854333877563476562500000000f,-0.24085922539234161376953125000000f,-0.25781235098838806152343750000000f,-0.24162127077579498291015625000000f,0.67526435852050781250000000000000f,0.20065230131149291992187500000000f,-0.28140029311180114746093750000000f,0.37250539660453796386718750000000f,0.05128445848822593688964843750000f,0.79779243469238281250000000000000f,0.34988412261009216308593750000000f,0.32727938890457153320312500000000f,-0.23635512590408325195312500000000f,-0.26975452899932861328125000000000f,0.05749497562646865844726562500000f,0.31409880518913269042968750000000f,0.05171452835202217102050781250000f,0.31817737221717834472656250000000f,0.05180551484227180480957031250000f,0.05727860331535339355468750000000f,0.12641756236553192138671875000000f,-0.27953344583511352539062500000000f,-0.26713293790817260742187500000000f,0.30432868003845214843750000000000f,-0.25992766022682189941406250000000f,0.28774565458297729492187500000000f,0.84097373485565185546875000000000f,-0.29215836524963378906250000000000f,0.04604114219546318054199218750000f,0.05000749602913856506347656250000f,0.21561950445175170898437500000000f,-0.26277276873588562011718750000000f,0.33065244555473327636718750000000f,-1.01429367065429687500000000000000f,-0.29133856296539306640625000000000f,0.28817471861839294433593750000000f,-0.35207936167716979980468750000000f,0.29093322157859802246093750000000f,-0.21777409315109252929687500000000f,-0.24990816414356231689453125000000f,0.05383419990539550781250000000000f,-0.28606131672859191894531250000000f,0.31465864181518554687500000000000f,-0.26761600375175476074218750000000f,0.20852109789848327636718750000000f,-0.26920464634895324707031250000000f,-0.22020298242568969726562500000000f,0.26887184381484985351562500000000f,0.23358526825904846191406250000000f,-0.28745672106742858886718750000000f,-0.26045286655426025390625000000000f,0.32085713744163513183593750000000f,-0.24129526317119598388671875000000f,0.19035919010639190673828125000000f,0.09506660699844360351562500000000f,0.22644419968128204345703125000000f,-1.08481657505035400390625000000000f,0.05143289268016815185546875000000f,0.63099771738052368164062500000000f,-0.25915527343750000000000000000000f,0.05182091891765594482421875000000f,0.22259511053562164306640625000000f,-0.25169038772583007812500000000000f,0.28586521744728088378906250000000f,-0.62606227397918701171875000000000f,0.23765042424201965332031250000000f,0.04730727523565292358398437500000f,0.28840842843055725097656250000000f,0.88936686515808105468750000000000f,0.12878125905990600585937500000000f,-0.28675284981727600097656250000000f,0.23975592851638793945312500000000f,-0.28409773111343383789062500000000f,-0.26018682122230529785156250000000f,-0.25974297523498535156250000000000f,0.04903986677527427673339843750000f,-0.29237753152847290039062500000000f,0.68697315454483032226562500000000f,-0.22630089521408081054687500000000f,0.05134643614292144775390625000000f,0.65097033977508544921875000000000f,0.30556961894035339355468750000000f,0.04994212463498115539550781250000f,-0.27351281046867370605468750000000f,-0.23232577741146087646484375000000f,-0.26307472586631774902343750000000f,0.30743780732154846191406250000000f,0.05893269181251525878906250000000f,-0.25885987281799316406250000000000f,0.19819577038288116455078125000000f,-0.26635029911994934082031250000000f,0.05125215277075767517089843750000f,-0.25979742407798767089843750000000f,0.05192907527089118957519531250000f,0.27398091554641723632812500000000f,-0.22925786674022674560546875000000f,0.23859092593193054199218750000000f,0.04953250661492347717285156250000f,-0.25720682740211486816406250000000f,0.05196945369243621826171875000000f,0.16602857410907745361328125000000f,-0.27111133933067321777343750000000f,-0.25528919696807861328125000000000f,-0.32770493626594543457031250000000f,0.05245273187756538391113281250000f,-0.29626068472862243652343750000000f,-1.00714445114135742187500000000000f,0.62012875080108642578125000000000f,0.04731786996126174926757812500000f,0.05323419347405433654785156250000f,0.54664009809494018554687500000000f,0.05690101906657218933105468750000f,-0.27636498212814331054687500000000f,-0.24411629140377044677734375000000f,-0.23351414501667022705078125000000f,-0.28225138783454895019531250000000f,-0.26687678694725036621093750000000f,-0.24587768316268920898437500000000f,0.03017907030880451202392578125000f,0.04497059807181358337402343750000f,0.26735559105873107910156250000000f,0.19894298911094665527343750000000f,0.03406536206603050231933593750000f,0.03466842696070671081542968750000f,0.03027673065662384033203125000000f,0.23512569069862365722656250000000f,-0.19101823866367340087890625000000f,-0.15764705836772918701171875000000f,-0.14186479151248931884765625000000f,0.23454029858112335205078125000000f,0.03480634465813636779785156250000f,0.21377594769001007080078125000000f,0.28650027513504028320312500000000f,-0.17780199646949768066406250000000f,-0.40092092752456665039062500000000f,0.04037262499332427978515625000000f,-0.14697219431400299072265625000000f,0.05616419762372970581054687500000f,0.03782933950424194335937500000000f,0.23154948651790618896484375000000f,0.19129601120948791503906250000000f,-0.15482246875762939453125000000000f,0.40981048345565795898437500000000f,-0.15066765248775482177734375000000f,0.04368868470191955566406250000000f,0.04263648018240928649902343750000f,0.03402598202228546142578125000000f,-0.15014843642711639404296875000000f,-0.06831564754247665405273437500000f,-0.18122188746929168701171875000000f,-0.21087677776813507080078125000000f,0.03398094326257705688476562500000f,-0.17724040150642395019531250000000f,0.07823505997657775878906250000000f,0.10483366250991821289062500000000f,0.03545295074582099914550781250000f,0.13243119418621063232421875000000f,0.08552670478820800781250000000000f,-0.18640212714672088623046875000000f,0.17865751683712005615234375000000f,0.14767852425575256347656250000000f,0.33907681703567504882812500000000f,0.34870702028274536132812500000000f,-0.15283641219139099121093750000000f,0.03711898252367973327636718750000f,-0.16764213144779205322265625000000f,-0.08415985107421875000000000000000f,-0.16284835338592529296875000000000f,0.18103308975696563720703125000000f,-0.17495942115783691406250000000000f,-0.48782104253768920898437500000000f,-0.16968098282814025878906250000000f,0.03277121856808662414550781250000f,-0.14431114494800567626953125000000f,0.03099530190229415893554687500000f,0.04076662287116050720214843750000f,-0.16036289930343627929687500000000f,-0.16961063444614410400390625000000f,0.13369311392307281494140625000000f,0.05151788517832756042480468750000f,0.04035358503460884094238281250000f,0.04020075127482414245605468750000f,-0.19128650426864624023437500000000f,-0.15746763348579406738281250000000f,-0.16475817561149597167968750000000f,0.17256087064743041992187500000000f,0.03927295655012130737304687500000f,0.03712642192840576171875000000000f,0.02956563793122768402099609375000f,-0.17998601496219635009765625000000f,0.03145311772823333740234375000000f,0.14148123562335968017578125000000f,0.16740500926971435546875000000000f,-0.17509962618350982666015625000000f,0.20828501880168914794921875000000f,0.04251596704125404357910156250000f,-0.18578085303306579589843750000000f,-0.16210988163948059082031250000000f,-0.18604119122028350830078125000000f,-0.16683667898178100585937500000000f,0.05623634532094001770019531250000f,-0.20979908108711242675781250000000f,-0.30075708031654357910156250000000f,0.11857153475284576416015625000000f,0.19186487793922424316406250000000f,-0.16197662055492401123046875000000f,-0.17147822678089141845703125000000f,0.03677403554320335388183593750000f,0.51693284511566162109375000000000f,0.19392757117748260498046875000000f,-0.15888765454292297363281250000000f,-0.20881520211696624755859375000000f,0.03388509899377822875976562500000f,-0.15609610080718994140625000000000f,0.13061688840389251708984375000000f,0.15084852278232574462890625000000f,0.03988982364535331726074218750000f,0.41350805759429931640625000000000f,0.03301259875297546386718750000000f,0.47130507230758666992187500000000f,0.03807152807712554931640625000000f,-0.38817709684371948242187500000000f,-0.16195222735404968261718750000000f,0.20638202130794525146484375000000f,0.20211179554462432861328125000000f,0.42159578204154968261718750000000f,-0.17226393520832061767578125000000f,-0.19304642081260681152343750000000f,0.34408879280090332031250000000000f,-0.16547939181327819824218750000000f,0.03472815826535224914550781250000f,0.19349452853202819824218750000000f,0.09562721103429794311523437500000f,0.03339765593409538269042968750000f,0.14560544490814208984375000000000f,0.03532903268933296203613281250000f,0.03355178236961364746093750000000f,-0.15198175609111785888671875000000f,-0.16689020395278930664062500000000f,0.18205572664737701416015625000000f,-0.19281330704689025878906250000000f,-0.17052532732486724853515625000000f,0.03530324250459671020507812500000f,-0.18940594792366027832031250000000f,0.55763548612594604492187500000000f,0.17063523828983306884765625000000f,0.40031886100769042968750000000000f,-0.50106436014175415039062500000000f,-0.21333862841129302978515625000000f,-0.14390634000301361083984375000000f,-0.15884786844253540039062500000000f,-0.16965328156948089599609375000000f,0.15532286465167999267578125000000f,-0.16478067636489868164062500000000f,-0.16405446827411651611328125000000f,0.02897831611335277557373046875000f,-0.17025753855705261230468750000000f,0.28456088900566101074218750000000f,-0.15627905726432800292968750000000f,-0.17383959889411926269531250000000f,-0.18328586220741271972656250000000f,-0.15848816931247711181640625000000f,0.03655681014060974121093750000000f,-0.18030574917793273925781250000000f,0.38803952932357788085937500000000f,0.40073388814926147460937500000000f,0.37334540486335754394531250000000f,0.03680458664894104003906250000000f,-0.16935054957866668701171875000000f,0.20147912204265594482421875000000f,0.03157962858676910400390625000000f,-0.16703794896602630615234375000000f,-0.16514837741851806640625000000000f,0.23000003397464752197265625000000f,-0.18096578121185302734375000000000f,0.04195309430360794067382812500000f,-0.19866052269935607910156250000000f,0.07486521452665328979492187500000f,-0.17502897977828979492187500000000f,0.04017243161797523498535156250000f,0.13459751009941101074218750000000f,-0.16932137310504913330078125000000f,-0.17428511381149291992187500000000f,0.17893655598163604736328125000000f,-0.27177581191062927246093750000000f,-0.17167906463146209716796875000000f,-0.18524090945720672607421875000000f,-0.16716919839382171630859375000000f,0.04218941181898117065429687500000f,-0.18235571682453155517578125000000f,-0.18424464762210845947265625000000f,-0.14053189754486083984375000000000f,0.15081828832626342773437500000000f,-0.90095466375350952148437500000000f,0.13408277928829193115234375000000f,-0.17740027606487274169921875000000f,-0.17597725987434387207031250000000f,0.03261921927332878112792968750000f,-0.21489048004150390625000000000000f,-0.15950153768062591552734375000000f,0.20559506118297576904296875000000f,-0.16660252213478088378906250000000f,-0.14549580216407775878906250000000f,-0.15507996082305908203125000000000f,-0.18751651048660278320312500000000f,0.03324610739946365356445312500000f,-0.16890756785869598388671875000000f,-0.22504532337188720703125000000000f,0.03763044998049736022949218750000f,0.18164078891277313232421875000000f,-0.17774991691112518310546875000000f,-0.13554513454437255859375000000000f,0.03322673216462135314941406250000f,-0.18632382154464721679687500000000f,-0.09470306336879730224609375000000f,0.23381544649600982666015625000000f,0.03645034879446029663085937500000f,0.03252142667770385742187500000000f,-0.15472570061683654785156250000000f,-0.17691422998905181884765625000000f,-0.18119536340236663818359375000000f,-0.17028684914112091064453125000000f,0.20378325879573822021484375000000f,-0.16138277947902679443359375000000f,-0.17081022262573242187500000000000f,0.04025368019938468933105468750000f,0.03163312375545501708984375000000f,0.14455486834049224853515625000000f,0.09707488864660263061523437500000f,0.39924806356430053710937500000000f,0.15105472505092620849609375000000f,0.23259344696998596191406250000000f,0.18103903532028198242187500000000f,0.25049775838851928710937500000000f,-0.14827369153499603271484375000000f,0.03594248369336128234863281250000f,-0.15539795160293579101562500000000f,0.03157340735197067260742187500000f,-0.24330677092075347900390625000000f,0.15538559854030609130859375000000f,0.04035247489809989929199218750000f,-0.30263197422027587890625000000000f,-0.18262945115566253662109375000000f,-0.16313482820987701416015625000000f,0.03180234879255294799804687500000f,0.30823248624801635742187500000000f,-0.20125739276409149169921875000000f,0.18671375513076782226562500000000f,0.14733578264713287353515625000000f,-0.15070417523384094238281250000000f,0.23828363418579101562500000000000f,0.09789420664310455322265625000000f,-0.14242303371429443359375000000000f,0.23497147858142852783203125000000f,0.03523619472980499267578125000000f,0.18395847082138061523437500000000f,-0.18007288873195648193359375000000f,-0.28150501847267150878906250000000f,-0.18660266697406768798828125000000f,0.45707544684410095214843750000000f,0.49924242496490478515625000000000f,-0.19788528978824615478515625000000f,0.03981388360261917114257812500000f,0.39398565888404846191406250000000f,-0.16531904041767120361328125000000f,0.03596635162830352783203125000000f,0.10375397652387619018554687500000f,0.42109811305999755859375000000000f,0.03750841692090034484863281250000f,-0.15898549556732177734375000000000f,-0.13812220096588134765625000000000f,-0.14373989403247833251953125000000f,-0.16687712073326110839843750000000f,-0.16974619030952453613281250000000f,-0.18428020179271697998046875000000f,-0.14377139508724212646484375000000f,0.36250388622283935546875000000000f,0.14733175933361053466796875000000f,0.20683969557285308837890625000000f,0.16947571933269500732421875000000f,0.17638438940048217773437500000000f,0.24226754903793334960937500000000f,0.40285950899124145507812500000000f,-0.15744625031948089599609375000000f,-0.13989515602588653564453125000000f,-0.13914999365806579589843750000000f,0.26309621334075927734375000000000f,-0.17253848910331726074218750000000f,0.11414255946874618530273437500000f,0.03139881044626235961914062500000f,0.03497720137238502502441406250000f,-0.17001757025718688964843750000000f,0.03811785206198692321777343750000f,0.42466098070144653320312500000000f,-0.17187994718551635742187500000000f,0.47864344716072082519531250000000f,0.03389635682106018066406250000000f,-0.15638718008995056152343750000000f,0.37682175636291503906250000000000f,-0.14711932837963104248046875000000f,-0.17140811681747436523437500000000f,-0.15498925745487213134765625000000f,-0.35668820142745971679687500000000f,-0.17750523984432220458984375000000f,0.04287211969494819641113281250000f,0.03980103135108947753906250000000f,0.02943509258329868316650390625000f,0.17625495791435241699218750000000f,-0.15050049126148223876953125000000f,0.19572597742080688476562500000000f,-0.12770879268646240234375000000000f,0.03701167926192283630371093750000f,0.25514128804206848144531250000000f,-0.18053188920021057128906250000000f,-0.16519567370414733886718750000000f,-0.16499112546443939208984375000000f,-0.15297964215278625488281250000000f,-0.15801836550235748291015625000000f,0.19415135681629180908203125000000f,-0.16930675506591796875000000000000f,0.03190673515200614929199218750000f,-0.17020812630653381347656250000000f,-0.14366267621517181396484375000000f,0.10759036988019943237304687500000f,0.26515239477157592773437500000000f,-0.16491752862930297851562500000000f,-0.18129910528659820556640625000000f,-0.15162859857082366943359375000000f,-0.15542474389076232910156250000000f,0.19861546158790588378906250000000f,0.21812057495117187500000000000000f,-0.17939007282257080078125000000000f,0.16209357976913452148437500000000f,-0.17250138521194458007812500000000f,-0.19724012911319732666015625000000f,0.32185980677604675292968750000000f,0.19083017110824584960937500000000f,0.28301167488098144531250000000000f,0.29868078231811523437500000000000f,-0.18747392296791076660156250000000f,0.37571820616722106933593750000000f,-0.18384535610675811767578125000000f,0.22743624448776245117187500000000f,0.19730672240257263183593750000000f,0.27223330736160278320312500000000f,0.03129567578434944152832031250000f,-0.19436508417129516601562500000000f,-0.17404000461101531982421875000000f,-0.15278910100460052490234375000000f,0.50388640165328979492187500000000f,0.03002288378775119781494140625000f,-0.16809999942779541015625000000000f,0.03578850999474525451660156250000f,0.14488635957241058349609375000000f,-0.16417951881885528564453125000000f,-0.40092104673385620117187500000000f,-0.16851656138896942138671875000000f,0.24353432655334472656250000000000f,0.03617029637098312377929687500000f,-0.18625892698764801025390625000000f,-0.17327694594860076904296875000000f,0.03309613093733787536621093750000f,0.03490163758397102355957031250000f,0.03753709048032760620117187500000f,-0.14109542965888977050781250000000f,0.17171248793601989746093750000000f,0.14891433715820312500000000000000f,-0.18150949478149414062500000000000f,0.03726487979292869567871093750000f,0.03545960783958435058593750000000f,0.03838328272104263305664062500000f,-0.18200223147869110107421875000000f,-0.18329033255577087402343750000000f,0.03056060895323753356933593750000f,0.04004675522446632385253906250000f,0.14346991479396820068359375000000f,0.15360562503337860107421875000000f,-0.19686284661293029785156250000000f,0.03417639434337615966796875000000f,-0.16232497990131378173828125000000f,0.03540290892124176025390625000000f,0.02935641817748546600341796875000f,0.03571266308426856994628906250000f,0.20816406607627868652343750000000f,-0.21263828873634338378906250000000f,0.11778665333986282348632812500000f,-0.16978055238723754882812500000000f,-0.15519171953201293945312500000000f,0.26784566044807434082031250000000f,0.17478197813034057617187500000000f,-0.14977608621120452880859375000000f,0.34022068977355957031250000000000f,0.26587104797363281250000000000000f,-0.35522839426994323730468750000000f,-0.17504864931106567382812500000000f,0.21436764299869537353515625000000f,-0.21671041846275329589843750000000f,-0.17855307459831237792968750000000f,0.03657572716474533081054687500000f,0.03631938621401786804199218750000f,0.46847844123840332031250000000000f,0.05188398435711860656738281250000f,0.35410568118095397949218750000000f,-0.17071229219436645507812500000000f,-0.20660516619682312011718750000000f,-0.16854913532733917236328125000000f,-0.59395080804824829101562500000000f,0.03880353271961212158203125000000f,-0.15956714749336242675781250000000f,-0.17124204337596893310546875000000f,0.04436355456709861755371093750000f,0.48825436830520629882812500000000f,-0.17123691737651824951171875000000f,-0.17638726532459259033203125000000f,0.03820684924721717834472656250000f,0.04431667923927307128906250000000f,0.06356127560138702392578125000000f,0.36479866504669189453125000000000f,-0.15521018207073211669921875000000f,-0.18843850493431091308593750000000f,0.19236144423484802246093750000000f,-0.16338348388671875000000000000000f,-0.45790663361549377441406250000000f,0.16985085606575012207031250000000f,-0.16762457787990570068359375000000f,0.44800129532814025878906250000000f,-0.15604327619075775146484375000000f,0.03664238378405570983886718750000f,-0.16346502304077148437500000000000f,-0.16705749928951263427734375000000f,0.14034207165241241455078125000000f,-0.15830397605895996093750000000000f,-0.14033110439777374267578125000000f,0.16121982038021087646484375000000f,-0.20180739462375640869140625000000f,-0.23531660437583923339843750000000f,-0.20256407558917999267578125000000f,-0.22467237710952758789062500000000f,0.03985047712922096252441406250000f,0.41036453843116760253906250000000f,-0.17833082377910614013671875000000f,0.03366589918732643127441406250000f,-0.15814179182052612304687500000000f,0.18102864921092987060546875000000f,-0.38120901584625244140625000000000f,-0.23940323293209075927734375000000f,0.25567328929901123046875000000000f,0.37896341085433959960937500000000f,-0.14694632589817047119140625000000f,-0.16273063421249389648437500000000f,-0.15260340273380279541015625000000f,-0.16291821002960205078125000000000f,0.07811321318149566650390625000000f,-0.18842740356922149658203125000000f,0.15221732854843139648437500000000f,-0.16880334913730621337890625000000f,0.26185965538024902343750000000000f,-0.18032999336719512939453125000000f,0.04167591407895088195800781250000f,0.24278318881988525390625000000000f,0.03528029099106788635253906250000f,-0.15400411188602447509765625000000f,0.04101481661200523376464843750000f,-0.51759964227676391601562500000000f,0.34521836042404174804687500000000f,0.17530229687690734863281250000000f,-0.17276489734649658203125000000000f,0.17614227533340454101562500000000f,-0.14241765439510345458984375000000f,0.24084062874317169189453125000000f,-0.15111924707889556884765625000000f,-0.16780370473861694335937500000000f,0.21402871608734130859375000000000f,-0.13992831110954284667968750000000f,0.12908844649791717529296875000000f,0.03686814010143280029296875000000f,0.24789801239967346191406250000000f,0.22437921166419982910156250000000f,0.18174257874488830566406250000000f,0.04189817234873771667480468750000f,0.66992491483688354492187500000000f,0.16768682003021240234375000000000f,-0.16716535389423370361328125000000f,0.14493826031684875488281250000000f,-0.30552303791046142578125000000000f,-0.16850492358207702636718750000000f,-0.24903197586536407470703125000000f,0.11748003214597702026367187500000f,0.03390607982873916625976562500000f,0.05643690004944801330566406250000f,0.30677911639213562011718750000000f,0.51137310266494750976562500000000f,0.14978532493114471435546875000000f,-0.15432688593864440917968750000000f,-0.15216664969921112060546875000000f,0.19606783986091613769531250000000f,-0.18487562239170074462890625000000f,0.15557190775871276855468750000000f,-0.18995195627212524414062500000000f,-0.16325931251049041748046875000000f,-0.15062281489372253417968750000000f,0.04221760481595993041992187500000f,0.04260189831256866455078125000000f,-0.15402935445308685302734375000000f,-0.17692972719669342041015625000000f,-0.15774752199649810791015625000000f,-0.19548539817333221435546875000000f,0.03778777644038200378417968750000f,-0.16228272020816802978515625000000f,-0.15450899302959442138671875000000f,0.19493773579597473144531250000000f,-0.15847152471542358398437500000000f,0.14670173823833465576171875000000f,-0.19963960349559783935546875000000f,-0.53193038702011108398437500000000f,-0.14094574749469757080078125000000f,-0.16992972791194915771484375000000f,0.04793854802846908569335937500000f,0.12267204374074935913085937500000f,0.16690808534622192382812500000000f,0.03565023094415664672851562500000f,-0.16169492900371551513671875000000f,-0.17363785207271575927734375000000f,-0.17994287610054016113281250000000f,-0.52124375104904174804687500000000f,0.22326304018497467041015625000000f,0.35142430663108825683593750000000f,0.20117931067943572998046875000000f,-0.14815033972263336181640625000000f,0.10699909180402755737304687500000f,0.05816598609089851379394531250000f,0.18700884282588958740234375000000f,-0.14563283324241638183593750000000f,-0.14533455669879913330078125000000f,0.15403501689434051513671875000000f,-0.18046583235263824462890625000000f,0.02966488152742385864257812500000f,-0.15832762420177459716796875000000f,0.21220357716083526611328125000000f,-0.16337981820106506347656250000000f,0.03176765888929367065429687500000f,0.03811661154031753540039062500000f,-0.24751116335391998291015625000000f,-0.16516749560832977294921875000000f,0.03761373832821846008300781250000f,0.03754366189241409301757812500000f,-0.15408742427825927734375000000000f,-0.16119025647640228271484375000000f,-0.15647867321968078613281250000000f,0.11175718158483505249023437500000f,-0.17708992958068847656250000000000f,0.17627878487110137939453125000000f,-0.17642445862293243408203125000000f,0.21598047018051147460937500000000f,0.03586462140083312988281250000000f,0.18770115077495574951171875000000f,0.03489838913083076477050781250000f,-0.20242050290107727050781250000000f,-0.18058423697948455810546875000000f,0.03504451364278793334960937500000f,0.03808972239494323730468750000000f,0.19660377502441406250000000000000f,0.03247335553169250488281250000000f,0.18528638780117034912109375000000f,0.22766254842281341552734375000000f,-0.19288346171379089355468750000000f,-0.17124702036380767822265625000000f,0.17580842971801757812500000000000f,0.23902784287929534912109375000000f,-0.15655177831649780273437500000000f,0.26904496550559997558593750000000f,-0.18342736363410949707031250000000f,0.14318835735321044921875000000000f,-0.15065020322799682617187500000000f,-0.15680947899818420410156250000000f,0.20124903321266174316406250000000f,0.20372523367404937744140625000000f,-0.17736954987049102783203125000000f,-0.17690248787403106689453125000000f,0.14584897458553314208984375000000f,0.48710742592811584472656250000000f,0.22284635901451110839843750000000f,-0.16280740499496459960937500000000f,0.03453261777758598327636718750000f,-0.17821842432022094726562500000000f,0.21570864319801330566406250000000f,0.16611374914646148681640625000000f,0.04169162362813949584960937500000f,0.03559866175055503845214843750000f,0.03499885275959968566894531250000f,0.26966288685798645019531250000000f,0.04131046310067176818847656250000f,0.27733394503593444824218750000000f,-0.15531574189662933349609375000000f,0.25241523981094360351562500000000f,-0.15035791695117950439453125000000f,-0.17237195372581481933593750000000f,0.40365967154502868652343750000000f,0.04208017885684967041015625000000f,-0.17271652817726135253906250000000f,-0.15412089228630065917968750000000f,-0.18099951744079589843750000000000f,0.20530045032501220703125000000000f,0.05191867426037788391113281250000f,-0.88724815845489501953125000000000f,0.03534305840730667114257812500000f,0.23786081373691558837890625000000f,0.19278562068939208984375000000000f,-0.18342632055282592773437500000000f,-0.18376274406909942626953125000000f,0.03782979026436805725097656250000f,-0.56685268878936767578125000000000f,-0.17179188132286071777343750000000f,0.04024215415120124816894531250000f,-0.15891665220260620117187500000000f,0.03232696652412414550781250000000f,-0.17160962522029876708984375000000f,0.07137855887413024902343750000000f,-0.20629209280014038085937500000000f,-0.39543348550796508789062500000000f,0.21740892529487609863281250000000f,-0.16260890662670135498046875000000f,0.17280259728431701660156250000000f,0.03178666532039642333984375000000f,-0.18657006323337554931640625000000f,0.03677376359701156616210937500000f,0.43573319911956787109375000000000f,-0.15806841850280761718750000000000f,-0.15080703794956207275390625000000f,0.04436082392930984497070312500000f,-0.14843937754631042480468750000000f,-0.14804080128669738769531250000000f,-0.16379399597644805908203125000000f,-0.13459073007106781005859375000000f,0.04675449803471565246582031250000f,-0.16581568121910095214843750000000f,-0.14835880696773529052734375000000f,-0.41486117243766784667968750000000f,0.21535198390483856201171875000000f,0.19256611168384552001953125000000f,0.19732943177223205566406250000000f,0.02872581593692302703857421875000f,-0.17372451722621917724609375000000f,0.03516868501901626586914062500000f,0.05568235740065574645996093750000f,0.20057322084903717041015625000000f,0.03350760042667388916015625000000f,-0.15579500794410705566406250000000f,0.15106748044490814208984375000000f,-0.52044564485549926757812500000000f,-0.16003210842609405517578125000000f,0.19868884980678558349609375000000f,0.04095019027590751647949218750000f,0.10025073587894439697265625000000f,-0.17993602156639099121093750000000f,0.17584984004497528076171875000000f,-0.18208892643451690673828125000000f,0.33686178922653198242187500000000f,-0.16049195826053619384765625000000f,0.27835875749588012695312500000000f,-0.14615580439567565917968750000000f,-0.39949846267700195312500000000000f,0.03918902948498725891113281250000f,0.23105163872241973876953125000000f,0.03518281131982803344726562500000f,-0.15032996237277984619140625000000f,0.13850508630275726318359375000000f,0.38732227683067321777343750000000f,0.04048614576458930969238281250000f,0.40367621183395385742187500000000f,0.16888990998268127441406250000000f,0.03554431721568107604980468750000f,0.27355843782424926757812500000000f,0.64162629842758178710937500000000f,0.35458019375801086425781250000000f,-0.14500813186168670654296875000000f,-0.17331174015998840332031250000000f,0.06603250652551651000976562500000f,-0.15640965104103088378906250000000f,0.20129720866680145263671875000000f,-0.15205076336860656738281250000000f,0.20089660584926605224609375000000f,0.21121871471405029296875000000000f,0.36724513769149780273437500000000f,0.04247850552201271057128906250000f,0.16160814464092254638671875000000f,-0.16123487055301666259765625000000f,0.16277861595153808593750000000000f,0.17549949884414672851562500000000f,0.17386190593242645263671875000000f,0.20681552588939666748046875000000f,0.03666345402598381042480468750000f,-0.16289778053760528564453125000000f,-0.15999585390090942382812500000000f,-0.16559302806854248046875000000000f,-0.18563540279865264892578125000000f,-0.14781835675239562988281250000000f,0.02850611135363578796386718750000f,0.03987276554107666015625000000000f,-0.16600739955902099609375000000000f,-0.16150100529193878173828125000000f,-0.30949494242668151855468750000000f,-0.16335363686084747314453125000000f,-0.12876778841018676757812500000000f,-0.16580450534820556640625000000000f,0.04566239938139915466308593750000f,-0.15900208055973052978515625000000f,0.42926123738288879394531250000000f,0.03584585338830947875976562500000f,-0.20892713963985443115234375000000f,-0.15612213313579559326171875000000f,0.23701186478137969970703125000000f,-0.16888776421546936035156250000000f,0.23539738357067108154296875000000f,-0.15880224108695983886718750000000f,0.18153132498264312744140625000000f,-0.14899924397468566894531250000000f,0.22703158855438232421875000000000f,-0.32199147343635559082031250000000f,0.04048116877675056457519531250000f,-0.13954682648181915283203125000000f,0.14052602648735046386718750000000f,0.04566457495093345642089843750000f,-0.15948145091533660888671875000000f,0.17284239828586578369140625000000f,0.46681898832321166992187500000000f,-0.41384813189506530761718750000000f,0.28971058130264282226562500000000f,0.03977539017796516418457031250000f,-0.16167522966861724853515625000000f,-0.15843847393989562988281250000000f,-0.23092165589332580566406250000000f,-0.13837106525897979736328125000000f,-0.17167901992797851562500000000000f,-0.15685223042964935302734375000000f,0.07665785402059555053710937500000f,-0.15019123256206512451171875000000f,-0.16168370842933654785156250000000f,0.34215265512466430664062500000000f,-0.15160457789897918701171875000000f,0.37706288695335388183593750000000f,-0.15752267837524414062500000000000f,-0.37300798296928405761718750000000f,0.03624287247657775878906250000000f,-0.16118387877941131591796875000000f,-0.14919807016849517822265625000000f,-0.18888711929321289062500000000000f,-0.18094398081302642822265625000000f,0.17895323038101196289062500000000f,0.11209797114133834838867187500000f,0.18584704399108886718750000000000f,0.03928707167506217956542968750000f,-0.16816917061805725097656250000000f,-0.16882649064064025878906250000000f,0.15363714098930358886718750000000f,-0.30092704296112060546875000000000f,0.26533722877502441406250000000000f,-0.16252799332141876220703125000000f,-0.13634954392910003662109375000000f,-0.17703096568584442138671875000000f,0.13080739974975585937500000000000f,0.03806610405445098876953125000000f,0.20597584545612335205078125000000f,0.03386729210615158081054687500000f,0.06623418629169464111328125000000f,-0.14614103734493255615234375000000f,-0.20774316787719726562500000000000f,-0.17017871141433715820312500000000f,0.04255886748433113098144531250000f,-0.07820694148540496826171875000000f,0.14736501872539520263671875000000f,-0.14800064265727996826171875000000f,0.16232357919216156005859375000000f,0.19651368260383605957031250000000f,0.08824583888053894042968750000000f,0.12891508638858795166015625000000f,0.51767957210540771484375000000000f,0.14499892294406890869140625000000f,-0.17351414263248443603515625000000f,-0.17379243671894073486328125000000f,0.27169343829154968261718750000000f,0.20180179178714752197265625000000f,0.03205910697579383850097656250000f,0.28715404868125915527343750000000f,-0.16676700115203857421875000000000f,-0.18120603263378143310546875000000f,0.46423664689064025878906250000000f,-0.20082932710647583007812500000000f,0.04137987643480300903320312500000f,0.03628836944699287414550781250000f,0.33749184012413024902343750000000f,-0.14962576329708099365234375000000f,-0.16082693636417388916015625000000f,0.18399396538734436035156250000000f,0.17920100688934326171875000000000f,0.21882560849189758300781250000000f,0.20264320075511932373046875000000f,-0.14688828587532043457031250000000f,0.03398341685533523559570312500000f,-0.18124951422214508056640625000000f,-0.16984747350215911865234375000000f,0.21656481921672821044921875000000f,-0.17274858057498931884765625000000f,0.11291348934173583984375000000000f,0.03490319103002548217773437500000f,-0.20026136934757232666015625000000f,-0.22859494388103485107421875000000f,0.03969743847846984863281250000000f,0.03457511588931083679199218750000f,-0.17288152873516082763671875000000f,-0.19677709043025970458984375000000f,0.04011004790663719177246093750000f,-0.17274568974971771240234375000000f,0.03319111466407775878906250000000f,0.03493708372116088867187500000000f,-0.15175248682498931884765625000000f,-0.14680746197700500488281250000000f,0.18655388057231903076171875000000f,-0.17620784044265747070312500000000f,0.03604613617062568664550781250000f,-0.16167744994163513183593750000000f,-0.14586304128170013427734375000000f,0.21582530438899993896484375000000f,-0.16008694469928741455078125000000f,0.03887668251991271972656250000000f,-0.18456918001174926757812500000000f,-0.14285483956336975097656250000000f,0.17731010913848876953125000000000f,-0.19095325469970703125000000000000f,0.19337150454521179199218750000000f,-0.14655743539333343505859375000000f,0.03059406578540802001953125000000f,-0.15664038062095642089843750000000f,-0.15465477108955383300781250000000f,0.03538671880960464477539062500000f,0.14782071113586425781250000000000f,-0.18607962131500244140625000000000f,-0.15665443241596221923828125000000f,-0.18561473488807678222656250000000f,-0.16542889177799224853515625000000f,0.03548501431941986083984375000000f,0.15428175032138824462890625000000f,-0.17736874520778656005859375000000f,-0.13747903704643249511718750000000f,-0.15174007415771484375000000000000f,0.04157971218228340148925781250000f,0.19491218030452728271484375000000f,0.15349766612052917480468750000000f,-0.15445481240749359130859375000000f,-0.17986467480659484863281250000000f,-0.26643446087837219238281250000000f,-0.17678278684616088867187500000000f,-0.16175837814807891845703125000000f,-0.14387287199497222900390625000000f,-0.15745531022548675537109375000000f,-0.16719307005405426025390625000000f,0.17689119279384613037109375000000f,0.13703972101211547851562500000000f,0.14226779341697692871093750000000f,-0.16225993633270263671875000000000f,0.44390022754669189453125000000000f,-0.15099439024925231933593750000000f,-0.15106260776519775390625000000000f,0.18393629789352416992187500000000f,-0.14258538186550140380859375000000f,-0.16107854247093200683593750000000f,-0.26256856322288513183593750000000f,-0.15171656012535095214843750000000f,-0.16800999641418457031250000000000f,0.20170156657695770263671875000000f,0.23386783897876739501953125000000f,-0.14406763017177581787109375000000f,-0.16540229320526123046875000000000f,0.20409817993640899658203125000000f,-0.23790992796421051025390625000000f,0.20920030772686004638671875000000f,-0.17266523838043212890625000000000f,0.35427954792976379394531250000000f,-0.17901426553726196289062500000000f,-0.14898306131362915039062500000000f,-0.16583539545536041259765625000000f,0.04038680344820022583007812500000f,-0.15414477884769439697265625000000f,0.25933200120925903320312500000000f,0.26317709684371948242187500000000f,0.03419868275523185729980468750000f,0.21948488056659698486328125000000f,-0.59508049488067626953125000000000f,0.17287229001522064208984375000000f,-0.16465668380260467529296875000000f,0.03730263561010360717773437500000f,0.18384453654289245605468750000000f,-0.17004169523715972900390625000000f,0.57618087530136108398437500000000f,-0.14390823245048522949218750000000f,0.41151493787765502929687500000000f,-0.16047841310501098632812500000000f,-0.14881555736064910888671875000000f,0.03099546022713184356689453125000f,-0.17002613842487335205078125000000f,-0.17438106238842010498046875000000f,0.03845443949103355407714843750000f,-0.14320228993892669677734375000000f,0.03493047878146171569824218750000f,-0.16767151653766632080078125000000f,-0.13964240252971649169921875000000f,-0.14945252239704132080078125000000f,-0.19867242872714996337890625000000f,0.19972175359725952148437500000000f,0.18482066690921783447265625000000f,-0.18830470740795135498046875000000f,-0.14753532409667968750000000000000f,-0.17531710863113403320312500000000f,0.40233775973320007324218750000000f,0.21127618849277496337890625000000f,0.06966219842433929443359375000000f,-0.17740145325660705566406250000000f,0.23289997875690460205078125000000f,-0.21502840518951416015625000000000f,-0.17924675345420837402343750000000f,0.03646063804626464843750000000000f,-0.15922738611698150634765625000000f,0.03445186093449592590332031250000f,-0.16144765913486480712890625000000f,0.51156932115554809570312500000000f,-0.14884030818939208984375000000000f,-0.16912871599197387695312500000000f,-0.16234251856803894042968750000000f,0.40387484431266784667968750000000f,0.13911120593547821044921875000000f,-0.20420998334884643554687500000000f,0.24482548236846923828125000000000f,0.03714107722043991088867187500000f,0.56870579719543457031250000000000f,0.35094299912452697753906250000000f,0.21976886689662933349609375000000f,-0.17901380360126495361328125000000f,-0.17491863667964935302734375000000f,0.03860350325703620910644531250000f,0.23084859549999237060546875000000f,0.03909754008054733276367187500000f,0.22075822949409484863281250000000f,0.03249292075634002685546875000000f,0.03986095637083053588867187500000f,0.07763498276472091674804687500000f,-0.17243450880050659179687500000000f,-0.15210114419460296630859375000000f,0.19086545705795288085937500000000f,-0.15655843913555145263671875000000f,0.19762285053730010986328125000000f,0.53539109230041503906250000000000f,-0.17603567242622375488281250000000f,0.03080676496028900146484375000000f,0.03190743550658226013183593750000f,0.16373561322689056396484375000000f,-0.17319472134113311767578125000000f,0.25014814734458923339843750000000f,0.24523727595806121826171875000000f,-0.14459861814975738525390625000000f,0.19975037872791290283203125000000f,-0.15643201768398284912109375000000f,0.23692227900028228759765625000000f,-0.13980130851268768310546875000000f,-0.15993037819862365722656250000000f,0.04091437906026840209960937500000f,-0.16504415869712829589843750000000f,0.18042439222335815429687500000000f,-0.16780950129032135009765625000000f,0.14142090082168579101562500000000f,-0.19023050367832183837890625000000f,-0.15662741661071777343750000000000f,0.30368360877037048339843750000000f,0.15857480466365814208984375000000f,-0.15085875988006591796875000000000f,-0.15634281933307647705078125000000f,0.21787096560001373291015625000000f,-0.17431607842445373535156250000000f,0.18198493123054504394531250000000f,0.06239245459437370300292968750000f,0.13981817662715911865234375000000f,-0.52846658229827880859375000000000f,0.03800449892878532409667968750000f,0.36992937326431274414062500000000f,-0.16445308923721313476562500000000f,0.03936764225363731384277343750000f,0.14668716490268707275390625000000f,-0.21397548913955688476562500000000f,0.30419978499412536621093750000000f,-0.15743371844291687011718750000000f,0.17329384386539459228515625000000f,0.03324430435895919799804687500000f,0.20001533627510070800781250000000f,0.34787905216217041015625000000000f,0.10094024986028671264648437500000f,-0.18397119641304016113281250000000f,0.15319322049617767333984375000000f,-0.17418022453784942626953125000000f,-0.13706131279468536376953125000000f,-0.16940432786941528320312500000000f,0.04032722115516662597656250000000f,-0.18230745196342468261718750000000f,0.37883841991424560546875000000000f,-0.15613339841365814208984375000000f,0.03791765123605728149414062500000f,0.36069074273109436035156250000000f,0.22098718583583831787109375000000f,0.03404411673545837402343750000000f,-0.18931239843368530273437500000000f,-0.13759543001651763916015625000000f,-0.19258257746696472167968750000000f,0.20368938148021697998046875000000f,0.03813284263014793395996093750000f,-0.20347587764263153076171875000000f,0.13510619103908538818359375000000f,-0.18075123429298400878906250000000f,0.03589510172605514526367187500000f,-0.16082514822483062744140625000000f,0.03464320674538612365722656250000f,0.23638708889484405517578125000000f,-0.23936872184276580810546875000000f,0.17534753680229187011718750000000f,0.03895028308033943176269531250000f,-0.15802460908889770507812500000000f,0.03862904012203216552734375000000f,0.11308116465806961059570312500000f,-0.17215815186500549316406250000000f,-0.14988397061824798583984375000000f,-0.13763849437236785888671875000000f,0.03757205232977867126464843750000f,-0.16785724461078643798828125000000f,0.14661538600921630859375000000000f,0.32288876175880432128906250000000f,0.03341178223490715026855468750000f,0.03600081428885459899902343750000f,0.30798923969268798828125000000000f,0.03847485408186912536621093750000f,-0.17346483469009399414062500000000f,-0.14723865687847137451171875000000f,-0.16241107881069183349609375000000f,-0.18931844830513000488281250000000f,-0.15270559489727020263671875000000f,-0.18483196198940277099609375000000f,0.04496591910719871520996093750000f,0.05672927945852279663085937500000f,0.28453192114830017089843750000000f,0.25155770778656005859375000000000f,0.03963433951139450073242187500000f,0.04792220517992973327636718750000f,0.04162528365850448608398437500000f,0.33083692193031311035156250000000f,-0.29250797629356384277343750000000f,-0.24828225374221801757812500000000f,-0.20681187510490417480468750000000f,0.31430676579475402832031250000000f,0.04041015356779098510742187500000f,0.25404971837997436523437500000000f,0.45859697461128234863281250000000f,-0.24351836740970611572265625000000f,-0.81065285205841064453125000000000f,0.04741294309496879577636718750000f,-0.22103978693485260009765625000000f,0.05707536637783050537109375000000f,0.05020575597882270812988281250000f,0.25320571660995483398437500000000f,0.27341815829277038574218750000000f,-0.27972078323364257812500000000000f,-0.28498733043670654296875000000000f,-0.23600691556930541992187500000000f,0.06193582341074943542480468750000f,0.05422245711088180541992187500000f,0.04680338874459266662597656250000f,-0.21317476034164428710937500000000f,0.33332782983779907226562500000000f,-0.22151459753513336181640625000000f,-0.21007326245307922363281250000000f,0.05041737109422683715820312500000f,-0.23535890877246856689453125000000f,0.10220423340797424316406250000000f,0.15544030070304870605468750000000f,0.05110022053122520446777343750000f,0.17044402658939361572265625000000f,0.13555477559566497802734375000000f,-0.25441080331802368164062500000000f,0.23866620659828186035156250000000f,0.18046332895755767822265625000000f,0.21475064754486083984375000000000f,0.53847217559814453125000000000000f,-0.20287542045116424560546875000000f,0.05235950276255607604980468750000f,-0.25703009963035583496093750000000f,-0.69752889871597290039062500000000f,-0.25849747657775878906250000000000f,0.26606804132461547851562500000000f,-0.21372827887535095214843750000000f,-0.57435745000839233398437500000000f,-0.24093881249427795410156250000000f,0.04902796074748039245605468750000f,-0.25524926185607910156250000000000f,0.05111242458224296569824218750000f,0.05230634659528732299804687500000f,-0.24429582059383392333984375000000f,-0.23414379358291625976562500000000f,0.17871896922588348388671875000000f,0.07423331588506698608398437500000f,0.04699455574154853820800781250000f,0.04848246276378631591796875000000f,-0.23697260022163391113281250000000f,-0.20880380272865295410156250000000f,-0.26762422919273376464843750000000f,0.23180037736892700195312500000000f,0.05490992218255996704101562500000f,0.05283953994512557983398437500000f,0.03974220156669616699218750000000f,-0.27049016952514648437500000000000f,0.04698304831981658935546875000000f,0.19178731739521026611328125000000f,0.27581748366355895996093750000000f,-0.23907724022865295410156250000000f,0.25867888331413269042968750000000f,0.05638608336448669433593750000000f,-0.23324823379516601562500000000000f,-0.23281848430633544921875000000000f,-0.29030749201774597167968750000000f,-0.24126145243644714355468750000000f,0.05924934521317481994628906250000f,-0.22963194549083709716796875000000f,-0.44372600317001342773437500000000f,0.17532852292060852050781250000000f,0.29174044728279113769531250000000f,-0.25517532229423522949218750000000f,-0.22537644207477569580078125000000f,0.04404224082827568054199218750000f,0.68354833126068115234375000000000f,0.29778254032135009765625000000000f,-0.24407623708248138427734375000000f,-0.53585010766983032226562500000000f,0.05025028437376022338867187500000f,-0.22940133512020111083984375000000f,0.16639862954616546630859375000000f,0.17456924915313720703125000000000f,0.04597276076674461364746093750000f,0.71717894077301025390625000000000f,0.04151131585240364074707031250000f,0.17736969888210296630859375000000f,0.04695228114724159240722656250000f,-0.52596169710159301757812500000000f,-0.23391969501972198486328125000000f,0.26728561520576477050781250000000f,0.26267710328102111816406250000000f,0.66953963041305541992187500000000f,-0.22169022262096405029296875000000f,-0.27086916565895080566406250000000f,0.28366336226463317871093750000000f,-0.24633961915969848632812500000000f,0.04420871660113334655761718750000f,0.27258455753326416015625000000000f,0.12594924867153167724609375000000f,0.04082160443067550659179687500000f,0.19907431304454803466796875000000f,0.04636172950267791748046875000000f,0.04247884452342987060546875000000f,-0.24797390401363372802734375000000f,-0.22981132566928863525390625000000f,0.24636666476726531982421875000000f,-0.25915604829788208007812500000000f,-0.22620211541652679443359375000000f,0.04925611242651939392089843750000f,-0.24232035875320434570312500000000f,0.67275607585906982421875000000000f,0.14080107212066650390625000000000f,0.65852934122085571289062500000000f,-1.09410583972930908203125000000000f,-0.95144963264465332031250000000000f,-0.20863012969493865966796875000000f,-0.23877701163291931152343750000000f,-0.27623814344406127929687500000000f,0.23522976040840148925781250000000f,-0.26354193687438964843750000000000f,-0.24267628788948059082031250000000f,0.04838494583964347839355468750000f,-0.20969429612159729003906250000000f,0.28555977344512939453125000000000f,-0.24112100899219512939453125000000f,-0.27501463890075683593750000000000f,-0.25245940685272216796875000000000f,-0.24094404280185699462890625000000f,0.04995001107454299926757812500000f,-0.25063183903694152832031250000000f,0.53196328878402709960937500000000f,0.70763647556304931640625000000000f,0.37719929218292236328125000000000f,0.05030796304345130920410156250000f,-0.21302703022956848144531250000000f,0.28527066111564636230468750000000f,0.04420376569032669067382812500000f,-0.25265836715698242187500000000000f,-0.27668213844299316406250000000000f,0.26972979307174682617187500000000f,-0.23075635731220245361328125000000f,0.05402401834726333618164062500000f,-0.25156879425048828125000000000000f,0.09242403507232666015625000000000f,-0.22661194205284118652343750000000f,0.05200940370559692382812500000000f,0.17121545970439910888671875000000f,-0.22612676024436950683593750000000f,-0.24084891378879547119140625000000f,0.22540621459484100341796875000000f,-0.48137366771697998046875000000000f,-0.23387831449508666992187500000000f,-0.27131286263465881347656250000000f,-0.25775399804115295410156250000000f,0.06190945580601692199707031250000f,-0.24364601075649261474609375000000f,-0.24603909254074096679687500000000f,-0.25631552934646606445312500000000f,0.22606521844863891601562500000000f,0.09288729727268218994140625000000f,-0.93478953838348388671875000000000f,-0.21656298637390136718750000000000f,-0.21367937326431274414062500000000f,0.05005267262458801269531250000000f,-0.23754477500915527343750000000000f,-0.22481215000152587890625000000000f,0.23508889973163604736328125000000f,-0.26224732398986816406250000000000f,-0.23383852839469909667968750000000f,-0.25599828362464904785156250000000f,-0.26692223548889160156250000000000f,0.04566208273172378540039062500000f,-0.22475874423980712890625000000000f,-0.40154778957366943359375000000000f,0.04430490732192993164062500000000f,0.28146156668663024902343750000000f,-0.22616912424564361572265625000000f,-0.76739257574081420898437500000000f,0.04663130268454551696777343750000f,-0.40016096830368041992187500000000f,-0.26342669129371643066406250000000f,0.28711786866188049316406250000000f,0.04457144439220428466796875000000f,0.04258042946457862854003906250000f,-0.24940280616283416748046875000000f,-0.23727364838123321533203125000000f,-0.23831386864185333251953125000000f,-0.24293337762355804443359375000000f,0.31457248330116271972656250000000f,-0.21078054606914520263671875000000f,-0.25198763608932495117187500000000f,0.05721030011773109436035156250000f,0.04517574980854988098144531250000f,0.21722084283828735351562500000000f,0.13266442716121673583984375000000f,-0.31596609950065612792968750000000f,0.23073118925094604492187500000000f,0.30598238110542297363281250000000f,0.23560978472232818603515625000000f,0.32218626141548156738281250000000f,-0.21954029798507690429687500000000f,0.04373533651232719421386718750000f,-0.22995479404926300048828125000000f,0.04475470632314682006835937500000f,-0.22093388438224792480468750000000f,0.20865121483802795410156250000000f,0.05228158831596374511718750000000f,0.46170765161514282226562500000000f,-0.21860180795192718505859375000000f,-0.21780349314212799072265625000000f,0.04235536605119705200195312500000f,-0.61782979965209960937500000000000f,-0.19834499061107635498046875000000f,0.23307059705257415771484375000000f,0.22952413558959960937500000000000f,-0.22630763053894042968750000000000f,0.28371939063072204589843750000000f,0.14846856892108917236328125000000f,-0.25813740491867065429687500000000f,0.29174605011940002441406250000000f,0.04806305095553398132324218750000f,0.26623657345771789550781250000000f,-0.27310529351234436035156250000000f,-0.02062026038765907287597656250000f,-0.25342613458633422851562500000000f,-0.84978884458541870117187500000000f,0.39832481741905212402343750000000f,-0.31318914890289306640625000000000f,0.05407817661762237548828125000000f,-0.78338932991027832031250000000000f,-0.24344091117382049560546875000000f,0.05273260921239852905273437500000f,0.13629029691219329833984375000000f,0.35260003805160522460937500000000f,0.04945171251893043518066406250000f,-0.23150956630706787109375000000000f,-0.23205393552780151367187500000000f,-0.21261180937290191650390625000000f,-0.24205181002616882324218750000000f,-0.23976606130599975585937500000000f,-0.24501332640647888183593750000000f,-0.21081168949604034423828125000000f,0.35405975580215454101562500000000f,0.18763133883476257324218750000000f,0.26051491498947143554687500000000f,0.25064179301261901855468750000000f,0.27079042792320251464843750000000f,0.32309082150459289550781250000000f,0.19379366934299468994140625000000f,-0.23575413227081298828125000000000f,-0.22527171671390533447265625000000f,-0.22194454073905944824218750000000f,0.28141191601753234863281250000000f,-0.25252532958984375000000000000000f,0.13437207043170928955078125000000f,0.04718601703643798828125000000000f,0.04906819015741348266601562500000f,-0.23604564368724822998046875000000f,0.05121615901589393615722656250000f,0.27695104479789733886718750000000f,-0.23260027170181274414062500000000f,0.61861920356750488281250000000000f,0.04197721183300018310546875000000f,-0.24974270164966583251953125000000f,0.68098789453506469726562500000000f,-0.22524115443229675292968750000000f,-0.30417504906654357910156250000000f,-0.21813240647315979003906250000000f,0.48847115039825439453125000000000f,-0.22711390256881713867187500000000f,0.05358450859785079956054687500000f,0.06012393161654472351074218750000f,0.04270825162529945373535156250000f,0.22494505345821380615234375000000f,-0.23405809700489044189453125000000f,0.26689979434013366699218750000000f,-0.21689938008785247802734375000000f,0.04689698666334152221679687500000f,0.31881117820739746093750000000000f,-0.20377574861049652099609375000000f,-0.24178060889244079589843750000000f,-0.25124743580818176269531250000000f,-0.22055058181285858154296875000000f,-0.21446830034255981445312500000000f,0.26022750139236450195312500000000f,-0.26360464096069335937500000000000f,0.04394349455833435058593750000000f,-0.26118344068527221679687500000000f,-0.20558772981166839599609375000000f,0.17119854688644409179687500000000f,0.31474089622497558593750000000000f,-0.21920539438724517822265625000000f,-0.22321170568466186523437500000000f,-0.21435193717479705810546875000000f,-0.25039416551589965820312500000000f,0.25850236415863037109375000000000f,0.31158018112182617187500000000000f,-0.24274337291717529296875000000000f,0.20264664292335510253906250000000f,-0.26011958718299865722656250000000f,-0.22138708829879760742187500000000f,0.42026522755622863769531250000000f,0.20981536805629730224609375000000f,0.27627879381179809570312500000000f,0.34288290143013000488281250000000f,-0.24643772840499877929687500000000f,0.60194724798202514648437500000000f,-0.32537710666656494140625000000000f,0.30651858448982238769531250000000f,0.29534730315208435058593750000000f,0.32904493808746337890625000000000f,0.04145162552595138549804687500000f,-0.22077147662639617919921875000000f,-0.25819471478462219238281250000000f,-0.27597361803054809570312500000000f,0.70068401098251342773437500000000f,0.04202835261821746826171875000000f,-0.24457331001758575439453125000000f,0.04981478676199913024902343750000f,0.20194043219089508056640625000000f,-0.22832529246807098388671875000000f,0.47623896598815917968750000000000f,-0.26690298318862915039062500000000f,0.29179412126541137695312500000000f,0.05009227246046066284179687500000f,-0.23156274855136871337890625000000f,-0.24039711058139801025390625000000f,0.04171556234359741210937500000000f,0.04831925407052040100097656250000f,0.05377704650163650512695312500000f,-0.21892428398132324218750000000000f,0.25778436660766601562500000000000f,0.21507738530635833740234375000000f,-0.24230621755123138427734375000000f,0.05231066420674324035644531250000f,0.04771653935313224792480468750000f,0.05556254088878631591796875000000f,-0.23700302839279174804687500000000f,-0.23239976167678833007812500000000f,0.04468324780464172363281250000000f,0.05544155463576316833496093750000f,0.22254182398319244384765625000000f,0.21911604702472686767578125000000f,-0.22289507091045379638671875000000f,0.04726461693644523620605468750000f,-0.26582136750221252441406250000000f,0.04858525842428207397460937500000f,0.04209327697753906250000000000000f,0.04226380214095115661621093750000f,-1.16703581809997558593750000000000f,-0.31019350886344909667968750000000f,0.28049910068511962890625000000000f,-0.24901460111141204833984375000000f,-0.24712236225605010986328125000000f,0.24957448244094848632812500000000f,0.23679494857788085937500000000000f,-0.23418161273002624511718750000000f,0.10648348182439804077148437500000f,-0.20847347378730773925781250000000f,-0.96996527910232543945312500000000f,-0.21390546858310699462890625000000f,0.28056865930557250976562500000000f,-0.62443357706069946289062500000000f,-0.20441895723342895507812500000000f,0.04416720196604728698730468750000f,0.05192731693387031555175781250000f,-0.17254376411437988281250000000000f,0.06451671570539474487304687500000f,0.65592813491821289062500000000000f,-0.23257832229137420654296875000000f,-0.25571098923683166503906250000000f,-0.20392538607120513916015625000000f,0.63080525398254394531250000000000f,0.04938831552863121032714843750000f,-0.21886694431304931640625000000000f,-0.24008692800998687744140625000000f,0.06454114615917205810546875000000f,0.80158716440200805664062500000000f,-0.22591146826744079589843750000000f,-0.20542824268341064453125000000000f,0.04521116241812705993652343750000f,0.06021912023425102233886718750000f,0.09315076470375061035156250000000f,0.18023200333118438720703125000000f,-0.23268845677375793457031250000000f,-0.28649792075157165527343750000000f,0.25558513402938842773437500000000f,-0.24373456835746765136718750000000f,0.59112584590911865234375000000000f,0.27160659432411193847656250000000f,-0.22494687139987945556640625000000f,0.64428514242172241210937500000000f,-0.22897776961326599121093750000000f,0.04885763674974441528320312500000f,-0.22329719364643096923828125000000f,-0.20994791388511657714843750000000f,0.16611348092555999755859375000000f,-0.23633901774883270263671875000000f,-0.23025755584239959716796875000000f,0.20452311635017395019531250000000f,-0.25672134757041931152343750000000f,-0.36308169364929199218750000000000f,-0.20680628716945648193359375000000f,-0.24330405890941619873046875000000f,0.06051539257168769836425781250000f,0.57060635089874267578125000000000f,-0.24696181714534759521484375000000f,0.04792405292391777038574218750000f,-0.25068667531013488769531250000000f,0.17462520301342010498046875000000f,-0.37189927697181701660156250000000f,-0.33493489027023315429687500000000f,0.35242256522178649902343750000000f,0.30715468525886535644531250000000f,-0.23758789896965026855468750000000f,-0.24598847329616546630859375000000f,-0.23821198940277099609375000000000f,-0.23278073966503143310546875000000f,-1.62424778938293457031250000000000f,-0.25724396109580993652343750000000f,0.18992213904857635498046875000000f,-0.23674587905406951904296875000000f,0.27454876899719238281250000000000f,-0.23698760569095611572265625000000f,0.04887925088405609130859375000000f,-0.78205990791320800781250000000000f,0.04912071302533149719238281250000f,-0.26367989182472229003906250000000f,0.05233744904398918151855468750000f,-0.78936427831649780273437500000000f,0.05548273772001266479492187500000f,0.22492232918739318847656250000000f,-0.24899594485759735107421875000000f,0.26412251591682434082031250000000f,-0.40560767054557800292968750000000f,0.25573426485061645507812500000000f,-0.24567691981792449951171875000000f,-0.23439525067806243896484375000000f,0.27979138493537902832031250000000f,-0.21260978281497955322265625000000f,0.20504330098628997802734375000000f,0.04788261279463768005371093750000f,0.31124392151832580566406250000000f,0.35930687189102172851562500000000f,0.23560708761215209960937500000000f,0.05223256722092628479003906250000f,0.73385089635848999023437500000000f,0.25122198462486267089843750000000f,-0.25072881579399108886718750000000f,0.19054913520812988281250000000000f,-0.43790149688720703125000000000000f,-0.25038230419158935546875000000000f,-0.18755386769771575927734375000000f,0.12475760281085968017578125000000f,0.04716795310378074645996093750000f,0.06712830066680908203125000000000f,0.46435412764549255371093750000000f,0.61960548162460327148437500000000f,0.20373815298080444335937500000000f,-0.23805196583271026611328125000000f,-0.22835466265678405761718750000000f,0.21509598195552825927734375000000f,-0.27324509620666503906250000000000f,0.21598105132579803466796875000000f,-0.27079328894615173339843750000000f,-0.21635065972805023193359375000000f,-0.23957915604114532470703125000000f,0.05840944871306419372558593750000f,0.06067894399166107177734375000000f,-0.23941829800605773925781250000000f,-0.24336458742618560791015625000000f,-0.25701981782913208007812500000000f,-0.29238763451576232910156250000000f,0.05134912207722663879394531250000f,-0.25651207566261291503906250000000f,-0.28817349672317504882812500000000f,0.22175458073616027832031250000000f,-0.23291105031967163085937500000000f,0.25649723410606384277343750000000f,-0.26313614845275878906250000000000f,-0.32124778628349304199218750000000f,-0.24419786036014556884765625000000f,-0.25027140974998474121093750000000f,0.06351025402545928955078125000000f,0.17700093984603881835937500000000f,0.23549413681030273437500000000000f,0.04531800746917724609375000000000f,-0.22728064656257629394531250000000f,-0.25564527511596679687500000000000f,-0.22626034915447235107421875000000f,-0.76315546035766601562500000000000f,0.25858631730079650878906250000000f,0.36324930191040039062500000000000f,0.24008955061435699462890625000000f,-0.19681552052497863769531250000000f,0.13646997511386871337890625000000f,0.08699295669794082641601562500000f,0.25848093628883361816406250000000f,-0.24199129641056060791015625000000f,-0.22760072350502014160156250000000f,0.21794313192367553710937500000000f,-0.24573329091072082519531250000000f,0.03795806691050529479980468750000f,-0.23003208637237548828125000000000f,0.20390658080577850341796875000000f,-0.21741279959678649902343750000000f,0.04519981890916824340820312500000f,0.04680230841040611267089843750000f,-0.22913083434104919433593750000000f,-0.22524861991405487060546875000000f,0.05056530982255935668945312500000f,0.05043332651257514953613281250000f,-0.22738993167877197265625000000000f,-0.26437172293663024902343750000000f,-0.23134449124336242675781250000000f,0.17234168946743011474609375000000f,-0.25830078125000000000000000000000f,0.20622806251049041748046875000000f,-0.21595390141010284423828125000000f,0.35145214200019836425781250000000f,0.04660989716649055480957031250000f,0.30926746129989624023437500000000f,0.04827494919300079345703125000000f,-0.21364066004753112792968750000000f,-0.21962003409862518310546875000000f,0.04971652850508689880371093750000f,0.04815239086747169494628906250000f,0.27792167663574218750000000000000f,0.04179745540022850036621093750000f,0.25594514608383178710937500000000f,0.30523601174354553222656250000000f,-0.26133421063423156738281250000000f,-0.24619026482105255126953125000000f,0.23196391761302947998046875000000f,0.28756406903266906738281250000000f,-0.22666871547698974609375000000000f,0.24322578310966491699218750000000f,-0.24524790048599243164062500000000f,0.14039373397827148437500000000000f,-0.23179976642131805419921875000000f,-0.23973678052425384521484375000000f,0.26740646362304687500000000000000f,0.24641107022762298583984375000000f,-0.27265194058418273925781250000000f,-0.25659003853797912597656250000000f,0.25933718681335449218750000000000f,-0.47209072113037109375000000000000f,0.28725695610046386718750000000000f,-0.22396822273731231689453125000000f,0.04940068349242210388183593750000f,-0.24844227731227874755859375000000f,0.27868732810020446777343750000000f,0.25242042541503906250000000000000f,0.05604708567261695861816406250000f,0.04823668673634529113769531250000f,0.04274588078260421752929687500000f,0.30263972282409667968750000000000f,0.05342394858598709106445312500000f,0.34594771265983581542968750000000f,-0.24243913590908050537109375000000f,0.26779422163963317871093750000000f,-0.23940064013004302978515625000000f,-0.24167877435684204101562500000000f,0.66697728633880615234375000000000f,0.05292900279164314270019531250000f,-0.21355637907981872558593750000000f,-0.21193672716617584228515625000000f,-0.22529543936252593994140625000000f,0.17905473709106445312500000000000f,0.06836879998445510864257812500000f,0.37450328469276428222656250000000f,0.05488624423742294311523437500000f,0.29105859994888305664062500000000f,0.24834965169429779052734375000000f,-0.25598320364952087402343750000000f,-0.23865269124507904052734375000000f,0.04120324179530143737792968750000f,-0.40832966566085815429687500000000f,-0.22743687033653259277343750000000f,0.05531900003552436828613281250000f,-0.25098612904548645019531250000000f,0.04189918562769889831542968750000f,-0.22560317814350128173828125000000f,0.17756080627441406250000000000000f,-0.20196621119976043701171875000000f,-1.17513203620910644531250000000000f,0.32520759105682373046875000000000f,-0.25500231981277465820312500000000f,0.24306167662143707275390625000000f,0.04747945442795753479003906250000f,-0.27585425972938537597656250000000f,0.04762496054172515869140625000000f,0.75416982173919677734375000000000f,-0.21331149339675903320312500000000f,-0.23618665337562561035156250000000f,0.05343719571828842163085937500000f,-0.22083985805511474609375000000000f,-0.28367358446121215820312500000000f,-0.25577053427696228027343750000000f,-0.20165678858757019042968750000000f,0.06340537965297698974609375000000f,-0.25043064355850219726562500000000f,-0.23117195069789886474609375000000f,-0.87490427494049072265625000000000f,0.29305693507194519042968750000000f,0.26129710674285888671875000000000f,0.22866156697273254394531250000000f,0.04230493679642677307128906250000f,-0.23606522381305694580078125000000f,0.04365714266896247863769531250000f,0.06669847667217254638671875000000f,-1.14066517353057861328125000000000f,0.04339373484253883361816406250000f,-0.23069787025451660156250000000000f,0.22078834474086761474609375000000f,0.57142078876495361328125000000000f,-0.22760236263275146484375000000000f,0.26743841171264648437500000000000f,0.05150360241532325744628906250000f,-1.31269884109497070312500000000000f,-0.24138943850994110107421875000000f,0.26080954074859619140625000000000f,-0.22831889986991882324218750000000f,0.42026177048683166503906250000000f,-0.25567498803138732910156250000000f,0.28137117624282836914062500000000f,-0.25154787302017211914062500000000f,-0.44768431782722473144531250000000f,0.05579689517617225646972656250000f,0.28169393539428710937500000000000f,0.04775597900152206420898437500000f,-0.22544361650943756103515625000000f,0.24262498319149017333984375000000f,0.73735040426254272460937500000000f,0.05239532515406608581542968750000f,1.02219033241271972656250000000000f,0.26081255078315734863281250000000f,0.04864614456892013549804687500000f,0.28263956308364868164062500000000f,0.81672877073287963867187500000000f,0.60999381542205810546875000000000f,-0.23045389354228973388671875000000f,-0.26423361897468566894531250000000f,-1.03437209129333496093750000000000f,-0.26782840490341186523437500000000f,0.23336510360240936279296875000000f,-0.24901360273361206054687500000000f,0.32060867547988891601562500000000f,0.29282510280609130859375000000000f,0.65409815311431884765625000000000f,0.05383418127894401550292968750000f,0.21416963636875152587890625000000f,-0.22506047785282135009765625000000f,0.24357487261295318603515625000000f,0.29671740531921386718750000000000f,0.18560653924942016601562500000000f,0.27787667512893676757812500000000f,0.04489014670252799987792968750000f,-0.23999284207820892333984375000000f,-0.24530974030494689941406250000000f,-0.24483974277973175048828125000000f,-0.26837849617004394531250000000000f,-0.22108581662178039550781250000000f,0.03924344480037689208984375000000f,0.05195422098040580749511718750000f,-0.24928480386734008789062500000000f,-0.22087039053440093994140625000000f,-0.50400859117507934570312500000000f,-0.22353239357471466064453125000000f,-0.77676969766616821289062500000000f,-0.23679904639720916748046875000000f,0.07125875353813171386718750000000f,-0.24515117704868316650390625000000f,0.43022879958152770996093750000000f,