#include <polimidl/layers/alignment.hpp>
alignas(polimidl::layers::buffer_alignment::byte_alignment) const float weight56[] = {-0.54580450057983398437500000000000f,-0.19220811128616333007812500000000f,0.07053692638874053955078125000000f,-0.55804806947708129882812500000000f,-0.52960091829299926757812500000000f,0.01650099828839302062988281250000f,0.00948934070765972137451171875000f,-0.30333805084228515625000000000000f,0.08492337167263031005859375000000f,-0.20055720210075378417968750000000f,-0.21256056427955627441406250000000f,-0.28217640519142150878906250000000f,-0.43746942281723022460937500000000f,-0.22640247642993927001953125000000f,-0.19164171814918518066406250000000f,-0.26069673895835876464843750000000f,-0.22369374334812164306640625000000f,-0.10085695981979370117187500000000f,-0.17444919049739837646484375000000f,0.06327054649591445922851562500000f,-0.22191652655601501464843750000000f,-0.16720108687877655029296875000000f,0.20775082707405090332031250000000f,-0.08229447901248931884765625000000f,0.07775381207466125488281250000000f,0.09158460050821304321289062500000f,-0.12305752187967300415039062500000f,0.07264754921197891235351562500000f,-0.13611325621604919433593750000000f,0.18231432139873504638671875000000f,0.10096096992492675781250000000000f,0.05258087813854217529296875000000f,-0.03494634479284286499023437500000f,0.11589142680168151855468750000000f,-0.37993931770324707031250000000000f,0.16348108649253845214843750000000f,-0.32442048192024230957031250000000f,0.14549586176872253417968750000000f,-0.34771886467933654785156250000000f,0.15711541473865509033203125000000f,-0.02841794677078723907470703125000f,-0.05339559540152549743652343750000f,0.02571285143494606018066406250000f,0.03540682047605514526367187500000f,-0.34762737154960632324218750000000f,0.11980785429477691650390625000000f,0.12527687847614288330078125000000f,0.16094243526458740234375000000000f,-0.13972848653793334960937500000000f,-0.41943836212158203125000000000000f,0.00543797435238957405090332031250f,0.23252369463443756103515625000000f,-0.37047338485717773437500000000000f,0.17189857363700866699218750000000f,0.35180756449699401855468750000000f,-0.05454355105757713317871093750000f,-0.13246208429336547851562500000000f,0.00446766661480069160461425781250f,-0.10976500809192657470703125000000f,0.19830085337162017822265625000000f,0.18823423981666564941406250000000f,-0.00947405956685543060302734375000f,0.35102939605712890625000000000000f,-0.06624776870012283325195312500000f,0.35423752665519714355468750000000f,0.21506965160369873046875000000000f,0.03438019379973411560058593750000f,-0.23028738796710968017578125000000f,-0.18325617909431457519531250000000f,0.04284900054335594177246093750000f,0.11345441639423370361328125000000f,-0.27388817071914672851562500000000f,-0.00497100641950964927673339843750f,-0.14282964169979095458984375000000f,0.04882569238543510437011718750000f,-0.17152111232280731201171875000000f,0.36296060681343078613281250000000f,0.12345998734235763549804687500000f,0.46086609363555908203125000000000f,0.24538898468017578125000000000000f,0.41229492425918579101562500000000f,-0.36945924162864685058593750000000f,-0.05805350095033645629882812500000f,-0.00045674823923036456108093261719f,-0.64252978563308715820312500000000f,-0.34927749633789062500000000000000f,-0.00615535955876111984252929687500f,-0.27838304638862609863281250000000f,0.13900338113307952880859375000000f,-0.02352335490286350250244140625000f,0.30246189236640930175781250000000f,-0.21895273029804229736328125000000f,-0.39551809430122375488281250000000f,-0.01970070227980613708496093750000f,-0.02623890899121761322021484375000f,-0.11508321017026901245117187500000f,-0.49116477370262145996093750000000f,0.10764449834823608398437500000000f,-0.49458420276641845703125000000000f,-0.61978995800018310546875000000000f,-0.19897624850273132324218750000000f,-0.29875344038009643554687500000000f,-0.43818494677543640136718750000000f,0.02272336184978485107421875000000f,0.49599233269691467285156250000000f,0.22561800479888916015625000000000f,-0.24572898447513580322265625000000f,0.27627015113830566406250000000000f,-0.21931640803813934326171875000000f,-0.50163692235946655273437500000000f,-0.69926118850708007812500000000000f,-0.40274816751480102539062500000000f,0.83909541368484497070312500000000f,0.20065329968929290771484375000000f,-0.13350984454154968261718750000000f,0.10674435645341873168945312500000f,-0.68173533678054809570312500000000f,-0.37942788004875183105468750000000f,-0.29894989728927612304687500000000f,0.03012159280478954315185546875000f,-0.19871023297309875488281250000000f,-0.41132259368896484375000000000000f,-0.19020496308803558349609375000000f,-0.13428005576133728027343750000000f,-0.50155091285705566406250000000000f,-0.03577199578285217285156250000000f,-0.32995864748954772949218750000000f,-0.01698954030871391296386718750000f,-0.29425621032714843750000000000000f,-0.25129991769790649414062500000000f,-0.16565811634063720703125000000000f,-0.37380394339561462402343750000000f,-0.29332667589187622070312500000000f,-0.18607977032661437988281250000000f,0.07145790010690689086914062500000f,-0.50921458005905151367187500000000f,-0.78451758623123168945312500000000f,-0.32231977581977844238281250000000f,-0.53211593627929687500000000000000f,-0.23836402595043182373046875000000f,-0.41490501165390014648437500000000f,-0.51281386613845825195312500000000f,-0.31323334574699401855468750000000f,-0.50626456737518310546875000000000f,-0.41005966067314147949218750000000f,-0.40657994151115417480468750000000f,-0.10067439824342727661132812500000f,-0.04915695264935493469238281250000f,-0.61829948425292968750000000000000f,-0.23979531228542327880859375000000f,-0.21933622658252716064453125000000f,0.06293504685163497924804687500000f,0.35908317565917968750000000000000f,-0.71704202890396118164062500000000f,0.32712939381599426269531250000000f,-0.06104935333132743835449218750000f,0.10070784389972686767578125000000f,0.12982095777988433837890625000000f,-0.25266444683074951171875000000000f,-0.33354568481445312500000000000000f,-0.09142442047595977783203125000000f,0.03484538942575454711914062500000f,0.33436962962150573730468750000000f,0.54251837730407714843750000000000f,0.08884513378143310546875000000000f,-0.04935114458203315734863281250000f,-0.25351366400718688964843750000000f,-0.33472228050231933593750000000000f,-0.57738041877746582031250000000000f,0.05536304786801338195800781250000f,-0.07996110618114471435546875000000f,0.18130925297737121582031250000000f,0.60157281160354614257812500000000f,-0.01966565847396850585937500000000f,0.08888815343379974365234375000000f,0.42347380518913269042968750000000f,-0.30103152990341186523437500000000f,-0.17528614401817321777343750000000f,-0.06859800219535827636718750000000f,0.46006020903587341308593750000000f,0.17080147564411163330078125000000f,0.16339217126369476318359375000000f,-0.14247025549411773681640625000000f,0.21605931222438812255859375000000f,-0.22697722911834716796875000000000f,0.14030271768569946289062500000000f,0.41473814845085144042968750000000f,0.09029142558574676513671875000000f,0.10587415099143981933593750000000f,-0.07120632380247116088867187500000f,0.16623808443546295166015625000000f,-0.08556883782148361206054687500000f,0.34258422255516052246093750000000f,0.30926784873008728027343750000000f,-0.19576819241046905517578125000000f,-0.06126946210861206054687500000000f,0.55295401811599731445312500000000f,0.18680673837661743164062500000000f,0.01177565474063158035278320312500f,-0.07586771994829177856445312500000f,0.37162581086158752441406250000000f,-0.28885406255722045898437500000000f,0.17432667315006256103515625000000f,0.09213717281818389892578125000000f,0.42662099003791809082031250000000f,0.34800231456756591796875000000000f,0.08163542300462722778320312500000f,-0.31283348798751831054687500000000f,0.07202530652284622192382812500000f,-0.01092810928821563720703125000000f,0.17290611565113067626953125000000f,-0.08351564407348632812500000000000f,0.12423489242792129516601562500000f,0.07439416646957397460937500000000f,-0.26728883385658264160156250000000f,0.12606607377529144287109375000000f,-0.01555164530873298645019531250000f,0.05386787652969360351562500000000f,0.54025024175643920898437500000000f,0.17436195909976959228515625000000f,0.14246429502964019775390625000000f,-0.05896051973104476928710937500000f,-0.22192747890949249267578125000000f,0.02282881177961826324462890625000f,0.66059827804565429687500000000000f,-0.47265055775642395019531250000000f,0.31304112076759338378906250000000f,-0.08389943093061447143554687500000f,0.03499026596546173095703125000000f,-0.44813722372055053710937500000000f,0.27694565057754516601562500000000f,-0.03565340489149093627929687500000f,-0.14904098212718963623046875000000f,0.17377060651779174804687500000000f,0.06648920476436614990234375000000f,0.11243716627359390258789062500000f,-0.14364810287952423095703125000000f,0.19194750487804412841796875000000f,0.34131589531898498535156250000000f,0.19850465655326843261718750000000f,0.50787758827209472656250000000000f,-0.01908344216644763946533203125000f,-0.19887357950210571289062500000000f,0.07754333317279815673828125000000f,0.04457834735512733459472656250000f,0.04076859354972839355468750000000f,0.28553059697151184082031250000000f,-0.32688981294631958007812500000000f,0.21882253885269165039062500000000f,-0.09824652969837188720703125000000f,-0.19134426116943359375000000000000f,0.12299775332212448120117187500000f,0.20543095469474792480468750000000f,-0.00074181018862873315811157226562f,-0.09752060472965240478515625000000f,0.44365817308425903320312500000000f,-0.11806147545576095581054687500000f,0.07743687182664871215820312500000f,0.21395014226436614990234375000000f,0.05301064997911453247070312500000f,0.03640716522932052612304687500000f,0.19073683023452758789062500000000f,0.04288047924637794494628906250000f,-0.18595053255558013916015625000000f,0.15616820752620697021484375000000f,0.14633449912071228027343750000000f,0.04492496326565742492675781250000f,0.25496432185173034667968750000000f,-0.21300505101680755615234375000000f,-0.41649267077445983886718750000000f,-0.08587901294231414794921875000000f,0.28694447875022888183593750000000f,-0.20084428787231445312500000000000f,0.09975781291723251342773437500000f,0.06431217491626739501953125000000f,-0.34958839416503906250000000000000f,-0.26048934459686279296875000000000f,-0.01377489138394594192504882812500f,-0.08730337768793106079101562500000f,-0.36846876144409179687500000000000f,0.06732413917779922485351562500000f,-0.19099375605583190917968750000000f,0.53106105327606201171875000000000f,-0.19925594329833984375000000000000f,-0.15244059264659881591796875000000f,0.54844194650650024414062500000000f,0.21322041749954223632812500000000f,0.13056531548500061035156250000000f,-0.09933982044458389282226562500000f,-0.21224527060985565185546875000000f,-0.06528293341398239135742187500000f,-0.15452204644680023193359375000000f,-0.15210440754890441894531250000000f,-0.16042973101139068603515625000000f,-0.34440532326698303222656250000000f,-0.16030088067054748535156250000000f,-0.10987471044063568115234375000000f,0.06499878317117691040039062500000f,0.16110683977603912353515625000000f,0.12806296348571777343750000000000f,0.28356650471687316894531250000000f,-0.44850236177444458007812500000000f,-0.12045782059431076049804687500000f,-0.31863951683044433593750000000000f,-0.18157102167606353759765625000000f,-0.46236136555671691894531250000000f,0.39181980490684509277343750000000f,0.27467694878578186035156250000000f,-0.20081254839897155761718750000000f,-0.25091299414634704589843750000000f,-0.36304086446762084960937500000000f,-0.08288097381591796875000000000000f,-0.04931323602795600891113281250000f,0.16104882955551147460937500000000f,0.59518015384674072265625000000000f,0.47977295517921447753906250000000f,0.16641470789909362792968750000000f,-0.04135716706514358520507812500000f,-0.29958087205886840820312500000000f,0.12793421745300292968750000000000f,-0.18471293151378631591796875000000f,-0.39791351556777954101562500000000f,-0.67601269483566284179687500000000f,-0.84045785665512084960937500000000f,-0.58218306303024291992187500000000f,-0.35233247280120849609375000000000f,-0.67896431684494018554687500000000f,-0.65369558334350585937500000000000f,-0.27559834718704223632812500000000f,-0.25392863154411315917968750000000f,-0.24546164274215698242187500000000f,0.05382474139332771301269531250000f,-0.17701682448387145996093750000000f,0.06971520930528640747070312500000f,0.05317007377743721008300781250000f,-0.05550180748105049133300781250000f,-0.25985106825828552246093750000000f,0.27601060271263122558593750000000f,-0.15174257755279541015625000000000f,-0.35993790626525878906250000000000f,-0.41631433367729187011718750000000f,-0.14848475158214569091796875000000f,-0.03992094099521636962890625000000f,0.02234289795160293579101562500000f,-0.12806388735771179199218750000000f,-0.07623079419136047363281250000000f,-0.07851220667362213134765625000000f,0.13511170446872711181640625000000f,-0.00537856854498386383056640625000f,0.06648440659046173095703125000000f,-0.17911849915981292724609375000000f,-0.11748713254928588867187500000000f,-0.36334875226020812988281250000000f,-0.44342136383056640625000000000000f,0.06503170728683471679687500000000f,0.00937788654118776321411132812500f,-0.17613494396209716796875000000000f,-0.00537593476474285125732421875000f,-0.30178511142730712890625000000000f,-0.00843139924108982086181640625000f,0.39436122775077819824218750000000f,-0.02469841763377189636230468750000f,0.20801480114459991455078125000000f,0.18457652628421783447265625000000f,0.08237501978874206542968750000000f,0.18542042374610900878906250000000f,-0.04997969791293144226074218750000f,-0.05846090614795684814453125000000f,0.30401980876922607421875000000000f,-0.29374036192893981933593750000000f,0.27411577105522155761718750000000f,-0.15621097385883331298828125000000f,-0.23535764217376708984375000000000f,-0.16431552171707153320312500000000f,0.18905162811279296875000000000000f,-0.10407607257366180419921875000000f,-0.30249908566474914550781250000000f,-0.05346022918820381164550781250000f,-0.14301408827304840087890625000000f,0.10750138759613037109375000000000f,0.01624030433595180511474609375000f,-0.15020018815994262695312500000000f,0.00216831779107451438903808593750f,0.10107669234275817871093750000000f,0.03823233023285865783691406250000f,-0.51635879278182983398437500000000f,-0.20425020158290863037109375000000f,-0.24255585670471191406250000000000f,-0.24565191566944122314453125000000f,-0.28081053495407104492187500000000f,-0.27933213114738464355468750000000f,-0.27167883515357971191406250000000f,0.17851038277149200439453125000000f,-0.49765112996101379394531250000000f,-0.61885869503021240234375000000000f,-0.15221156179904937744140625000000f,-0.14907982945442199707031250000000f,-0.71589773893356323242187500000000f,-0.38099324703216552734375000000000f,0.05097752809524536132812500000000f,0.44633609056472778320312500000000f,-0.17900127172470092773437500000000f,0.28572735190391540527343750000000f,0.17126737534999847412109375000000f,-0.24017615616321563720703125000000f,-0.64798289537429809570312500000000f,0.05346156284213066101074218750000f,-0.17253333330154418945312500000000f,-0.18867763876914978027343750000000f,-0.32678338885307312011718750000000f,-0.32620227336883544921875000000000f,-0.10401333123445510864257812500000f,-0.14983110129833221435546875000000f,0.25882774591445922851562500000000f,0.26324254274368286132812500000000f,0.28939491510391235351562500000000f,-0.10052762180566787719726562500000f,0.59237241744995117187500000000000f,-0.25656342506408691406250000000000f,0.32038635015487670898437500000000f,0.39452400803565979003906250000000f,-0.06456402689218521118164062500000f,0.39624196290969848632812500000000f,0.15879543125629425048828125000000f,0.60554015636444091796875000000000f,0.40289354324340820312500000000000f,0.03650410473346710205078125000000f,-0.64378482103347778320312500000000f,-0.30216556787490844726562500000000f,0.25000378489494323730468750000000f,0.07633864879608154296875000000000f,-0.20220866799354553222656250000000f,0.13814005255699157714843750000000f,-0.12805132567882537841796875000000f,0.05393384024500846862792968750000f,-0.02847998589277267456054687500000f,-0.04206967726349830627441406250000f,0.22656901180744171142578125000000f,-0.14476789534091949462890625000000f,-0.05871704593300819396972656250000f,-0.09158632159233093261718750000000f,0.36075574159622192382812500000000f,0.10261847078800201416015625000000f,0.04707239940762519836425781250000f,0.04465332254767417907714843750000f,0.13748434185981750488281250000000f,0.45649313926696777343750000000000f,0.31191751360893249511718750000000f,0.19335755705833435058593750000000f,0.60349851846694946289062500000000f,0.06652533262968063354492187500000f,0.20326739549636840820312500000000f,0.00231727072969079017639160156250f,-0.09633789956569671630859375000000f,0.14488619565963745117187500000000f,0.08409832417964935302734375000000f,0.05527367442846298217773437500000f,0.29419040679931640625000000000000f,0.20676529407501220703125000000000f,0.03716418892145156860351562500000f,0.43732106685638427734375000000000f,-0.02324694581329822540283203125000f,0.39550039172172546386718750000000f,0.03321273624897003173828125000000f,0.04791627824306488037109375000000f,0.49258542060852050781250000000000f,-0.01806249283254146575927734375000f,-0.18793667852878570556640625000000f,-0.22550038993358612060546875000000f,0.44183269143104553222656250000000f,-0.13090460002422332763671875000000f,0.27882230281829833984375000000000f,-0.13391643762588500976562500000000f,-0.04154149070382118225097656250000f,0.04780932888388633728027343750000f,-0.22712862491607666015625000000000f,0.11886848509311676025390625000000f,-0.73711448907852172851562500000000f,0.20270514488220214843750000000000f,0.21338875591754913330078125000000f,-0.09656319022178649902343750000000f,0.06088407710194587707519531250000f,0.07146428525447845458984375000000f,-0.10967700183391571044921875000000f,-0.14266324043273925781250000000000f,-0.45781260728836059570312500000000f,0.06634758412837982177734375000000f,0.05330964177846908569335937500000f,0.37243440747261047363281250000000f,0.01389705855399370193481445312500f,0.11485613137483596801757812500000f,-0.47848778963088989257812500000000f,0.22656293213367462158203125000000f,0.32175233960151672363281250000000f,-0.26101362705230712890625000000000f,0.03997463732957839965820312500000f,-0.17561756074428558349609375000000f,0.18319749832153320312500000000000f,-0.31757658720016479492187500000000f,0.11528133600950241088867187500000f,0.06558762490749359130859375000000f,-0.20311461389064788818359375000000f,0.10852503776550292968750000000000f,0.01388349942862987518310546875000f,0.04165675863623619079589843750000f,0.35238954424858093261718750000000f,-0.03867611289024353027343750000000f,0.41882243752479553222656250000000f,-0.08042716979980468750000000000000f,-0.06020902842283248901367187500000f,-0.17943078279495239257812500000000f,-0.29527229070663452148437500000000f,0.09227184951305389404296875000000f,0.00836425554007291793823242187500f,0.16317698359489440917968750000000f,0.00238742702640593051910400390625f,0.27778485417366027832031250000000f,-0.00127738667652010917663574218750f,-0.24577997624874114990234375000000f,-0.10569665580987930297851562500000f,0.21071165800094604492187500000000f,-0.23474644124507904052734375000000f,-0.12791340053081512451171875000000f,0.17890839278697967529296875000000f,0.79921120405197143554687500000000f,-0.23684717714786529541015625000000f,-0.09769576042890548706054687500000f,0.21204848587512969970703125000000f,-0.07647017389535903930664062500000f,-0.32146757841110229492187500000000f,0.39903810620307922363281250000000f,0.25742173194885253906250000000000f,-0.15131948888301849365234375000000f,-0.03372588753700256347656250000000f,0.17845371365547180175781250000000f,0.20937822759151458740234375000000f,-0.18024593591690063476562500000000f,-0.16840247809886932373046875000000f,0.12598127126693725585937500000000f,0.11986432224512100219726562500000f,0.51065438985824584960937500000000f,-0.49450764060020446777343750000000f,0.00279674818739295005798339843750f,0.17220076918601989746093750000000f,0.27650579810142517089843750000000f,-0.10862524062395095825195312500000f,0.11453846842050552368164062500000f,-0.13807767629623413085937500000000f,-0.72127568721771240234375000000000f,-0.38499146699905395507812500000000f,0.15904168784618377685546875000000f,-0.13021278381347656250000000000000f,0.27075096964836120605468750000000f,0.01713266782462596893310546875000f,-0.16198328137397766113281250000000f,-0.47566300630569458007812500000000f,-0.19469304382801055908203125000000f,-0.13685682415962219238281250000000f,0.29032894968986511230468750000000f,0.07160869240760803222656250000000f,0.14524342119693756103515625000000f,-0.13384453952312469482421875000000f,-0.03216813132166862487792968750000f,-0.15507182478904724121093750000000f,0.53308421373367309570312500000000f,-0.36340048909187316894531250000000f,-0.20049700140953063964843750000000f,-0.23734316229820251464843750000000f,0.28631281852722167968750000000000f,0.05903675407171249389648437500000f,0.00595008349046111106872558593750f,0.08165382593870162963867187500000f,0.00858905073255300521850585937500f,0.12262319028377532958984375000000f,0.04234011098742485046386718750000f,0.10385834425687789916992187500000f,0.20787197351455688476562500000000f,-0.19638617336750030517578125000000f,0.06342037767171859741210937500000f,-0.00442913826555013656616210937500f,0.33933836221694946289062500000000f,-0.23164726793766021728515625000000f,-0.20444375276565551757812500000000f,-0.11016238480806350708007812500000f,-0.01440240535885095596313476562500f,0.40108045935630798339843750000000f,0.07532020658254623413085937500000f,-0.33783096075057983398437500000000f,0.50200009346008300781250000000000f,-0.00308332452550530433654785156250f,0.31100589036941528320312500000000f,-0.11573924869298934936523437500000f,-0.11452712118625640869140625000000f,-0.23241086304187774658203125000000f,0.23293408751487731933593750000000f,0.06047628447413444519042968750000f,-0.32293260097503662109375000000000f,0.20220369100570678710937500000000f,0.38269987702369689941406250000000f,-0.27996855974197387695312500000000f,0.30833208560943603515625000000000f,0.24331994354724884033203125000000f,-0.02526357956230640411376953125000f,0.16543388366699218750000000000000f,0.21101880073547363281250000000000f,-0.00466156098991632461547851562500f,0.23510733246803283691406250000000f,0.44385722279548645019531250000000f,-0.17514148354530334472656250000000f,0.53621995449066162109375000000000f,0.03863273933529853820800781250000f,0.37876492738723754882812500000000f,-0.40665352344512939453125000000000f,0.01276725437492132186889648437500f,-0.08332598209381103515625000000000f,0.17923167347908020019531250000000f,-0.09970963746309280395507812500000f,0.03078597597777843475341796875000f,0.28065890073776245117187500000000f,0.16060060262680053710937500000000f,-0.32716944813728332519531250000000f,0.54788762331008911132812500000000f,0.17586563527584075927734375000000f,0.30352666974067687988281250000000f,0.84841185808181762695312500000000f,0.19206655025482177734375000000000f,-0.19972965121269226074218750000000f,0.50354814529418945312500000000000f,0.52807664871215820312500000000000f,-0.22896304726600646972656250000000f,0.39957264065742492675781250000000f,0.43062719702720642089843750000000f,-0.07143770903348922729492187500000f,0.32831653952598571777343750000000f,0.23287799954414367675781250000000f,0.12979559600353240966796875000000f,-0.32105860114097595214843750000000f,0.35495483875274658203125000000000f,0.00888290721923112869262695312500f,0.31592047214508056640625000000000f,-0.31107288599014282226562500000000f,-0.60457444190979003906250000000000f,-0.05809715390205383300781250000000f,0.07538497447967529296875000000000f,-0.06464979797601699829101562500000f,0.52570950984954833984375000000000f,-0.23244348168373107910156250000000f,0.59618234634399414062500000000000f,-0.30241680145263671875000000000000f,0.25568175315856933593750000000000f,0.12068153172731399536132812500000f,0.34120407700538635253906250000000f,-0.00063866277923807501792907714844f,0.12033468484878540039062500000000f,0.19381619989871978759765625000000f,0.14800065755844116210937500000000f,0.62050604820251464843750000000000f,0.18485179543495178222656250000000f,0.23297415673732757568359375000000f,0.33963829278945922851562500000000f,0.15916080772876739501953125000000f,0.20820476114749908447265625000000f,-0.54379200935363769531250000000000f,0.34650406241416931152343750000000f,-0.15831732749938964843750000000000f,0.36725077033042907714843750000000f,0.37288209795951843261718750000000f,0.02607418596744537353515625000000f,0.00063568970654159784317016601562f,-0.31729120016098022460937500000000f,-0.30857396125793457031250000000000f,0.22764167189598083496093750000000f,0.43243905901908874511718750000000f,0.20073398947715759277343750000000f,0.34417808055877685546875000000000f,0.37306040525436401367187500000000f,-0.29346671700477600097656250000000f,-0.37774294614791870117187500000000f,0.57144063711166381835937500000000f,0.37277242541313171386718750000000f,0.07011088728904724121093750000000f,0.09793852269649505615234375000000f,0.17072266340255737304687500000000f,0.24092705547809600830078125000000f,0.40733906626701354980468750000000f,0.15372613072395324707031250000000f,-0.30689311027526855468750000000000f,0.24107782542705535888671875000000f,-0.34827750921249389648437500000000f,-0.49832907319068908691406250000000f,-0.50397366285324096679687500000000f,-0.43607106804847717285156250000000f,-0.07357333600521087646484375000000f,0.48021090030670166015625000000000f,-0.20980958640575408935546875000000f,-0.18438819050788879394531250000000f,0.47459235787391662597656250000000f,0.23712435364723205566406250000000f,-0.01135183405131101608276367187500f,0.04516854509711265563964843750000f,0.02767612971365451812744140625000f,0.31746387481689453125000000000000f,-0.13270211219787597656250000000000f,0.02901368774473667144775390625000f,0.54251086711883544921875000000000f,0.58326804637908935546875000000000f,-0.36156669259071350097656250000000f,0.11619241535663604736328125000000f,0.05473573878407478332519531250000f,-0.05547744780778884887695312500000f,0.01438439730554819107055664062500f,-0.01696485280990600585937500000000f,0.52802050113677978515625000000000f,0.14842042326927185058593750000000f,-0.04930537939071655273437500000000f,0.22530058026313781738281250000000f,-0.22573427855968475341796875000000f,0.48328742384910583496093750000000f,-0.14169858396053314208984375000000f,0.22441267967224121093750000000000f,0.29743763804435729980468750000000f,0.06750871241092681884765625000000f,-0.24487964808940887451171875000000f,0.48805701732635498046875000000000f,-0.10033731907606124877929687500000f,-0.46306216716766357421875000000000f,-0.29238235950469970703125000000000f,0.23306171596050262451171875000000f,-0.23344981670379638671875000000000f,0.12679904699325561523437500000000f,0.15242624282836914062500000000000f,-0.08839888125658035278320312500000f,0.29305380582809448242187500000000f,0.09392445534467697143554687500000f,0.14393001794815063476562500000000f,-0.18772819638252258300781250000000f,-0.06050280109047889709472656250000f,0.11469414085149765014648437500000f,0.17392271757125854492187500000000f,0.30340126156806945800781250000000f,0.19980025291442871093750000000000f,0.06199230626225471496582031250000f,0.04104829579591751098632812500000f,-0.14963135123252868652343750000000f,0.42568361759185791015625000000000f,0.12419078499078750610351562500000f,0.09425332397222518920898437500000f,0.14098845422267913818359375000000f,-0.00004799014277523383498191833496f,0.17844587564468383789062500000000f,0.47225451469421386718750000000000f,0.02100170589983463287353515625000f,0.05693232640624046325683593750000f,0.32331731915473937988281250000000f,-0.00737264985218644142150878906250f,-0.08235090970993041992187500000000f,-0.23253715038299560546875000000000f,0.10446216166019439697265625000000f,-0.45189231634140014648437500000000f,0.22393886744976043701171875000000f,0.11957683414220809936523437500000f,0.25826850533485412597656250000000f,0.45417603850364685058593750000000f,-0.16677995026111602783203125000000f,0.01386418379843235015869140625000f,0.23834067583084106445312500000000f,0.22505605220794677734375000000000f,-0.31567481160163879394531250000000f,0.21363605558872222900390625000000f,-0.16905033588409423828125000000000f,0.31026604771614074707031250000000f,-0.09361048787832260131835937500000f,-0.32661315798759460449218750000000f,0.09363905340433120727539062500000f,0.18873053789138793945312500000000f,0.48792052268981933593750000000000f,0.01011417992413043975830078125000f,0.26363503932952880859375000000000f,0.74624359607696533203125000000000f,-0.32732319831848144531250000000000f,-0.18443864583969116210937500000000f,-0.26723125576972961425781250000000f,-0.15861983597278594970703125000000f,0.22066475450992584228515625000000f,0.16751138865947723388671875000000f,0.09053339809179306030273437500000f,0.31038421392440795898437500000000f,-0.03706138208508491516113281250000f,-0.25734794139862060546875000000000f,0.20892384648323059082031250000000f,-0.22886994481086730957031250000000f,-0.53632301092147827148437500000000f,0.46980369091033935546875000000000f,0.21579362452030181884765625000000f,-0.13640904426574707031250000000000f,0.20299750566482543945312500000000f,0.03123052231967449188232421875000f,0.14536733925342559814453125000000f,0.15412747859954833984375000000000f,-0.24914193153381347656250000000000f,0.31032687425613403320312500000000f,-0.26537477970123291015625000000000f,0.00702582858502864837646484375000f,-0.21926192939281463623046875000000f,0.00052640633657574653625488281250f,0.11000259220600128173828125000000f,0.19719699025154113769531250000000f,-0.05503356456756591796875000000000f,-0.13803271949291229248046875000000f,-0.09582265466451644897460937500000f,-0.10762802511453628540039062500000f,-0.49148097634315490722656250000000f,-0.27453964948654174804687500000000f,0.23120887577533721923828125000000f,0.10985434055328369140625000000000f,-0.25780889391899108886718750000000f,-0.20915940403938293457031250000000f,0.35058757662773132324218750000000f,0.03262055665254592895507812500000f,0.10372277349233627319335937500000f,0.04550791904330253601074218750000f,-0.36061084270477294921875000000000f,-0.06530410051345825195312500000000f,0.17534579336643218994140625000000f,0.40010401606559753417968750000000f,0.29719832539558410644531250000000f,-0.04600046202540397644042968750000f,-0.19107002019882202148437500000000f,-0.32971826195716857910156250000000f,0.27401071786880493164062500000000f,-0.05649103224277496337890625000000f,0.31828474998474121093750000000000f,0.13538305461406707763671875000000f,-0.16871549189090728759765625000000f,-0.22228918969631195068359375000000f,0.46086817979812622070312500000000f,-0.14254613220691680908203125000000f,0.36849462985992431640625000000000f,0.54925197362899780273437500000000f,0.47407603263854980468750000000000f,-0.17617708444595336914062500000000f,0.11617415398359298706054687500000f,0.09370698779821395874023437500000f,0.20797617733478546142578125000000f,0.24180203676223754882812500000000f,0.43084314465522766113281250000000f,0.57459193468093872070312500000000f,-0.11209178715944290161132812500000f,0.12368059903383255004882812500000f,0.14516741037368774414062500000000f,0.08422585576772689819335937500000f,0.37778890132904052734375000000000f,0.10145105421543121337890625000000f,0.11375866085290908813476562500000f,-0.25143378973007202148437500000000f,-0.18847405910491943359375000000000f,0.17958919703960418701171875000000f,-0.64247399568557739257812500000000f,-0.14257165789604187011718750000000f,0.39623138308525085449218750000000f,0.49073526263236999511718750000000f,-0.21558174490928649902343750000000f,0.32169449329376220703125000000000f,-0.05966878682374954223632812500000f,0.10326161235570907592773437500000f,-0.13021712005138397216796875000000f,-0.06707753986120223999023437500000f,-0.06728988885879516601562500000000f,0.00047903775703161954879760742188f,0.43539026379585266113281250000000f,0.02169311232864856719970703125000f,0.15756712853908538818359375000000f,-0.35897734761238098144531250000000f,0.34221792221069335937500000000000f,-0.34489762783050537109375000000000f,-0.84662258625030517578125000000000f,0.11010021716356277465820312500000f,0.18702204525470733642578125000000f,0.26032966375350952148437500000000f,-0.44293332099914550781250000000000f,0.61460441350936889648437500000000f,0.63729619979858398437500000000000f,0.07857687771320343017578125000000f,0.25002908706665039062500000000000f,0.04432798922061920166015625000000f,-0.03337252885103225708007812500000f,0.73935544490814208984375000000000f,-0.25415530800819396972656250000000f,-0.34321254491806030273437500000000f,0.05972503870725631713867187500000f,0.19153687357902526855468750000000f,-0.12198315560817718505859375000000f,-0.25179660320281982421875000000000f,0.24745444953441619873046875000000f,0.47008466720581054687500000000000f,0.00920046214014291763305664062500f,0.15651805698871612548828125000000f,0.26137450337409973144531250000000f,0.22489182651042938232421875000000f,0.32873287796974182128906250000000f,0.09184706211090087890625000000000f,-0.14917147159576416015625000000000f,-0.16403691470623016357421875000000f,0.24875125288963317871093750000000f,0.44048315286636352539062500000000f,0.35872894525527954101562500000000f,0.42229005694389343261718750000000f,0.21679203212261199951171875000000f,0.36082521080970764160156250000000f,-0.19967003166675567626953125000000f,0.03072041459381580352783203125000f,0.16416017711162567138671875000000f,0.35788959264755249023437500000000f,-0.17055308818817138671875000000000f,0.07832571119070053100585937500000f,-0.40408763289451599121093750000000f,-0.19198407232761383056640625000000f,-0.25565174221992492675781250000000f,-0.29945656657218933105468750000000f,-0.09029560536146163940429687500000f,0.77359104156494140625000000000000f,0.30133065581321716308593750000000f,-0.05194151774048805236816406250000f,0.00956382974982261657714843750000f,0.12344618886709213256835937500000f,-0.54631388187408447265625000000000f,-0.22463439404964447021484375000000f,-0.46118637919425964355468750000000f,-0.12616027891635894775390625000000f,-0.16318431496620178222656250000000f,0.52663332223892211914062500000000f,0.24386334419250488281250000000000f,-0.09405079483985900878906250000000f,-0.11254825443029403686523437500000f,-0.62458837032318115234375000000000f,0.05707522854208946228027343750000f,-0.14092467725276947021484375000000f,0.10486216843128204345703125000000f,-0.40726590156555175781250000000000f,-0.36995249986648559570312500000000f,-0.13606064021587371826171875000000f,-0.16675743460655212402343750000000f,-0.19308575987815856933593750000000f,-0.01033899560570716857910156250000f,-0.09859266132116317749023437500000f,-0.26331505179405212402343750000000f,-0.03412705659866333007812500000000f,-0.38058987259864807128906250000000f,-0.36754271388053894042968750000000f,-0.00280905491672456264495849609375f,-0.04798872023820877075195312500000f,-0.05902574211359024047851562500000f,-0.17791049182415008544921875000000f,-0.13724707067012786865234375000000f,-0.12204363197088241577148437500000f,0.11786817014217376708984375000000f,0.06006925553083419799804687500000f,-0.30570462346076965332031250000000f,-0.18086540699005126953125000000000f,0.08691406995058059692382812500000f,-0.58071732521057128906250000000000f,0.08270581066608428955078125000000f,0.17141605913639068603515625000000f,-0.24101743102073669433593750000000f,-0.39259141683578491210937500000000f,-0.38607716560363769531250000000000f,0.04448105022311210632324218750000f,0.45636475086212158203125000000000f,0.34537243843078613281250000000000f,0.10502678900957107543945312500000f,0.05171630531549453735351562500000f,-0.12745963037014007568359375000000f,0.34120807051658630371093750000000f,0.04846828058362007141113281250000f,-0.45624580979347229003906250000000f,0.14664864540100097656250000000000f,0.25725623965263366699218750000000f,0.15316374599933624267578125000000f,0.44938272237777709960937500000000f,0.17548863589763641357421875000000f,-0.24887621402740478515625000000000f,0.29718855023384094238281250000000f,0.11453986912965774536132812500000f,0.45869344472885131835937500000000f,-0.30049404501914978027343750000000f,-0.15218180418014526367187500000000f,0.10183116048574447631835937500000f,-0.44849148392677307128906250000000f,0.10507686436176300048828125000000f,-0.17416006326675415039062500000000f,-0.07457837462425231933593750000000f,-0.04561495780944824218750000000000f,-0.53492057323455810546875000000000f,-0.33328285813331604003906250000000f,-0.92352855205535888671875000000000f,-0.21566078066825866699218750000000f,-0.32435148954391479492187500000000f,-0.00656245788559317588806152343750f,-0.25950872898101806640625000000000f,0.10326258838176727294921875000000f,0.24676249921321868896484375000000f}; 
