#include <polimidl/layers/alignment.hpp>
alignas(polimidl::layers::buffer_alignment::byte_alignment) const float weight5[] = {0.00000719908803148427978157997131f,-0.02528560161590576171875000000000f,0.07820896804332733154296875000000f,0.00000514766497872187756001949310f,-0.03976256772875785827636718750000f,0.06148554012179374694824218750000f,-0.01017477363348007202148437500000f,0.10422137379646301269531250000000f,0.00004191705011180602014064788818f,0.00000936364995141047984361648560f,-0.00000259624994214391335844993591f,-0.04962661117315292358398437500000f,0.06787046790122985839843750000000f,-0.06526257097721099853515625000000f,0.00219482113607227802276611328125f,-0.31051963567733764648437500000000f,-0.01670024357736110687255859375000f,0.00789556745439767837524414062500f,0.01948454044759273529052734375000f,0.00372689403593540191650390625000f,0.00000132991317514097318053245544f,-0.17449146509170532226562500000000f,0.00004248679033480584621429443359f,0.04973282665014266967773437500000f,-0.00005126387986820191144943237305f,-0.01037455163896083831787109375000f,0.00525185372680425643920898437500f,0.00004715351315098814666271209717f,0.05676876753568649291992187500000f,-0.12331532686948776245117187500000f,0.00007650966290384531021118164062f,0.18302597105503082275390625000000f,0.00001683765549387317150831222534f,0.00620491337031126022338867187500f,-0.08154858648777008056640625000000f,0.00000255290751738357357680797577f,0.00408818339928984642028808593750f,0.92650395631790161132812500000000f,-0.01432999689131975173950195312500f,0.03997861221432685852050781250000f,-0.00002509373007342219352722167969f,0.00002780855720629915595054626465f,-0.00002697403215279337018728256226f,-0.05128095299005508422851562500000f,-0.05390393733978271484375000000000f,-0.10000544786453247070312500000000f,-0.00012214688467793166637420654297f,0.04806115850806236267089843750000f,-0.01320441719144582748413085937500f,-0.08540741354227066040039062500000f,-0.00423663994297385215759277343750f,-0.03260414302349090576171875000000f,0.00006597962055820971727371215820f,0.09771031886339187622070312500000f,0.00002728555227804463356733322144f,0.09101493656635284423828125000000f,0.00000890831961442017927765846252f,0.02643063478171825408935546875000f,-0.08664146065711975097656250000000f,-0.00001321267518505919724702835083f,0.13796731829643249511718750000000f,0.08632955700159072875976562500000f,-0.00001016097030515084043145179749f,-0.00620501535013318061828613281250f,-0.00001933171188284177333116531372f,-0.00415223045274615287780761718750f,-0.02515213005244731903076171875000f,-0.00000659062698105117306113243103f,-0.56793445348739624023437500000000f,-0.14672784507274627685546875000000f,-0.00570116937160491943359375000000f,0.01746315136551856994628906250000f,0.00005094489097245968878269195557f,-0.00003396108149900101125240325928f,-0.00007580407691420987248420715332f,-1.11764311790466308593750000000000f,0.00065911171259358525276184082031f,-0.03828879445791244506835937500000f,0.00311176921240985393524169921875f,0.19004973769187927246093750000000f,-0.00613575475290417671203613281250f,-0.01257764361798763275146484375000f,-0.00453322241082787513732910156250f,-0.07793956249952316284179687500000f,-0.00000248484093390288762748241425f,0.09298807382583618164062500000000f,-0.00002633439362398348748683929443f,-0.00947558414191007614135742187500f,-0.00028221932006999850273132324219f,-0.01097517088055610656738281250000f,-0.02655551210045814514160156250000f,0.00000956551320996368303894996643f,-0.63987666368484497070312500000000f,0.01953249052166938781738281250000f,-0.00003254901821492239832878112793f,0.12716402113437652587890625000000f,-0.00002738533112278673797845840454f,-0.03488207235932350158691406250000f,0.37057083845138549804687500000000f,-0.00003057246067328378558158874512f,0.01816433668136596679687500000000f,-0.02034705691039562225341796875000f,0.00021598210150841623544692993164f,0.43178796768188476562500000000000f,-0.00002772475636447779834270477295f,0.00003475547055131755769252777100f,-0.00004178676681476645171642303467f,-0.06178855150938034057617187500000f,-0.12252636253833770751953125000000f,-0.03601655364036560058593750000000f,-0.00027501833392307162284851074219f,0.02572066709399223327636718750000f,0.17561523616313934326171875000000f,-0.41408845782279968261718750000000f,0.11014772951602935791015625000000f,0.00582551024854183197021484375000f,0.00010771470260806381702423095703f,0.02876885049045085906982421875000f,0.00003074356573051773011684417725f,0.15882523357868194580078125000000f,-0.00000569631629332434386014938354f,-0.06824787706136703491210937500000f,0.31557291746139526367187500000000f,-0.00000583967948841745965182781219f,-0.01757444068789482116699218750000f,-0.03904667496681213378906250000000f,-0.00003990967888967134058475494385f,0.03388045728206634521484375000000f,0.00000005651308043752578669227660f,0.00079593085683882236480712890625f,-0.12068191915750503540039062500000f,-0.00000927540168049745261669158936f,0.01724623516201972961425781250000f,0.54604345560073852539062500000000f,0.00032486632699146866798400878906f,-0.07109829038381576538085937500000f,-0.00001778879777702968567609786987f,-0.00005843036342412233352661132812f,-0.00003934032429242506623268127441f,-0.13920634984970092773437500000000f,0.05177422612905502319335937500000f,0.09186206012964248657226562500000f,0.00043061212636530399322509765625f,-0.03764497116208076477050781250000f,0.03299327194690704345703125000000f,0.02501292712986469268798828125000f,-0.02171146683394908905029296875000f,-0.01773878559470176696777343750000f,0.00009232119919033721089363098145f,-0.02357652783393859863281250000000f,0.00006230830331332981586456298828f,0.08629163354635238647460937500000f,0.00002876813778129871934652328491f,0.06702478975057601928710937500000f,0.01775633916258811950683593750000f,-0.00002095335185003932565450668335f,0.07051578909158706665039062500000f,-0.03946238756179809570312500000000f,-0.00004950285438098944723606109619f,-0.01045856438577175140380859375000f,-0.00002332782423764001578092575073f,0.02979366853833198547363281250000f,-0.09450602531433105468750000000000f,0.00000017622686243612406542524695f,0.02923950180411338806152343750000f,-0.03186268359422683715820312500000f,0.01336051989346742630004882812500f,-0.01586645096540451049804687500000f,0.00000352351958099461626261472702f,-0.00002920210135926026850938796997f,-0.00004269892087904736399650573730f,0.01063955202698707580566406250000f,-0.14944715797901153564453125000000f,-0.27248346805572509765625000000000f,-0.00147575105074793100357055664062f,0.02717635035514831542968750000000f,-0.02863310277462005615234375000000f,0.64147466421127319335937500000000f,-0.31420174241065979003906250000000f,0.00281828944571316242218017578125f,-0.00016097672050818800926208496094f,-0.01445470191538333892822265625000f,-0.00000371681426258874125778675079f,-0.00706336321309208869934082031250f,0.00006878624117234721779823303223f,-0.02409411221742630004882812500000f,0.54962527751922607421875000000000f,0.00002308135844941716641187667847f,-0.07417505979537963867187500000000f,-0.14013148844242095947265625000000f,0.00002247521479148417711257934570f,0.02950256131589412689208984375000f,0.00001862773206084966659545898438f,0.01652765832841396331787109375000f,-0.30158185958862304687500000000000f,-0.00000303876049656537361443042755f,-0.04727912694215774536132812500000f,0.29225239157676696777343750000000f,0.00994638912379741668701171875000f,-0.14299540221691131591796875000000f,-0.00001894018168968614190816879272f,0.00000887976329977391287684440613f,-0.00005506656088982708752155303955f,0.06307436525821685791015625000000f,0.13958846032619476318359375000000f,0.00499529950320720672607421875000f,0.00051061093108728528022766113281f,0.00233380915597081184387207031250f,-0.15249912440776824951171875000000f,0.06350530683994293212890625000000f,0.11791446805000305175781250000000f,0.02388166822493076324462890625000f,-0.00006365740409819409251213073730f,0.03679402545094490051269531250000f,0.00000080534522339803515933454037f,-0.17027781903743743896484375000000f,-0.00003970939724240452051162719727f,0.03112814575433731079101562500000f,0.04297360032796859741210937500000f,-0.00000521739411851740442216396332f,0.08900556713342666625976562500000f,-0.05266646295785903930664062500000f,0.00002439396484987810254096984863f,0.02736624702811241149902343750000f,-0.00003987238960689865052700042725f,0.19331291317939758300781250000000f,-0.03705774247646331787109375000000f,0.00001994923695747274905443191528f,0.07188138365745544433593750000000f,0.06990014016628265380859375000000f,-0.01091649755835533142089843750000f,-0.03276709839701652526855468750000f,-0.00002308334296685643494129180908f,-0.00002312217111466452479362487793f,0.00000925963649933692067861557007f,-0.04428489878773689270019531250000f,-0.00508655235171318054199218750000f,0.00154918036423623561859130859375f,0.00480908295139670372009277343750f,1.02596879005432128906250000000000f,-0.00120395352132618427276611328125f,0.01533406507223844528198242187500f,-0.00857202336192131042480468750000f,-0.07390195131301879882812500000000f,0.00018523188191466033458709716797f,-0.08058124780654907226562500000000f,-0.00002963631777674891054630279541f,0.00535267451778054237365722656250f,0.00016559512005187571048736572266f,0.02044068649411201477050781250000f,-0.03139181807637214660644531250000f,-0.00004988178625353612005710601807f,0.20265720784664154052734375000000f,0.00780047010630369186401367187500f,-0.00003262374593759886920452117920f,0.53852087259292602539062500000000f,-0.00001233006514667067676782608032f,0.01214924734085798263549804687500f,-0.00458547426387667655944824218750f,-0.00000819139404484303668141365051f,0.01262622419744729995727539062500f,0.01344398502260446548461914062500f,0.00331064290367066860198974609375f,0.01353796944022178649902343750000f,-0.00002917516576417256146669387817f,-0.00000765389449952635914087295532f,0.00003504048072500154376029968262f,-0.00320523139089345932006835937500f,-0.02587409131228923797607421875000f,-0.00821625627577304840087890625000f,0.00035058235516771674156188964844f,-0.43107101321220397949218750000000f,0.00475447857752442359924316406250f,-0.02959434688091278076171875000000f,0.00875128246843814849853515625000f,0.02648287825286388397216796875000f,0.00018742073734756559133529663086f,-0.07509220391511917114257812500000f,-0.00002498100002412684261798858643f,-0.00007922453369246795773506164551f,-0.00010735299292718991637229919434f,0.00687063718214631080627441406250f,0.01164392009377479553222656250000f,-0.00002699659125937614589929580688f,-0.31130823493003845214843750000000f,-0.01516127958893775939941406250000f,-0.00001391579735354753211140632629f,-0.45411333441734313964843750000000f,-0.00000276251648756442591547966003f,0.00213207351043820381164550781250f,0.24029278755187988281250000000000f,0.00001639974652789533138275146484f,-0.05378836765885353088378906250000f,-0.08774627745151519775390625000000f,-0.01491276733577251434326171875000f,0.06707500666379928588867187500000f,-0.00001962467649718746542930603027f,0.00001483079631725559011101722717f,0.00003969781755586154758930206299f,0.01576951891183853149414062500000f,-0.00046948806266300380229949951172f,0.04083168134093284606933593750000f,0.00007034444570308551192283630371f,-0.45988005399703979492187500000000f,0.04156501218676567077636718750000f,0.12572775781154632568359375000000f,0.05372479930520057678222656250000f,-0.00206141173839569091796875000000f,-0.00003560529512469656765460968018f,-0.12725570797920227050781250000000f,0.00001548208638268988579511642456f,0.02490273490548133850097656250000f,-0.00007916124013718217611312866211f,-0.03526153787970542907714843750000f,0.09471949189901351928710937500000f,0.00001018234979710541665554046631f,0.01693736575543880462646484375000f,0.03235860168933868408203125000000f,0.00001276683087780838832259178162f,0.01461542118340730667114257812500f,-0.00002123868398484773933887481689f,-0.03383218497037887573242187500000f,-0.00287261093035340309143066406250f,0.00000281948609881510492414236069f,0.00276905368082225322723388671875f,-0.04696393013000488281250000000000f,-0.00160454935394227504730224609375f,0.00159313797485083341598510742188f,-0.00005016859722672961652278900146f,0.00000607515221417997963726520538f,-0.00001661157511989586055278778076f,0.00746845640242099761962890625000f,-0.00041405155207030475139617919922f,-0.00006704340921714901924133300781f,-0.00004331129457568749785423278809f,-0.00567781552672386169433593750000f,-0.01097726076841354370117187500000f,-0.00254869251511991024017333984375f,0.00377370649948716163635253906250f,-0.01089965365827083587646484375000f,0.00001984452865144703537225723267f,0.03760755807161331176757812500000f,-0.00000397231315218959935009479523f,-0.02238827757537364959716796875000f,-0.00002256655170640442520380020142f,0.01267061382532119750976562500000f,0.00867174006998538970947265625000f,-0.00004620294930646196007728576660f,-0.04187870025634765625000000000000f,-0.01200785301625728607177734375000f,-0.00003733264384209178388118743896f,0.01227980572730302810668945312500f,-0.00000959893441176973283290863037f,0.00941345654428005218505859375000f,-0.15974521636962890625000000000000f,0.00001240326855622697621583938599f,0.05452007800340652465820312500000f,-0.12737238407135009765625000000000f,0.01396867819130420684814453125000f,0.49161842465400695800781250000000f,-0.00001019904357235645875334739685f,-0.00002775347275019157677888870239f,-0.00001297430662816623225808143616f,0.08799976855516433715820312500000f,-0.29573112726211547851562500000000f,0.16653154790401458740234375000000f,-0.00294837937690317630767822265625f,-0.01541021466255187988281250000000f,0.21768108010292053222656250000000f,-0.13586792349815368652343750000000f,-0.14634607732295989990234375000000f,0.00431514019146561622619628906250f,0.00008505269943270832300186157227f,0.00006258897337829694151878356934f,-0.00003829460547422058880329132080f,-0.01002219133079051971435546875000f,-0.00003075845233979634940624237061f,-0.12317932397127151489257812500000f,0.15608394145965576171875000000000f,0.00001279368370887823402881622314f,-0.02794779278337955474853515625000f,-0.24914781749248504638671875000000f,0.00000777227796788793057203292847f,0.01692431047558784484863281250000f,0.00000804701630841009318828582764f,0.11522749066352844238281250000000f,-0.03854731842875480651855468750000f,0.00000225574876822065562009811401f,-0.11337565630674362182617187500000f,0.09364087134599685668945312500000f,-0.01392942201346158981323242187500f,-0.01923282071948051452636718750000f,0.00000597280086367391049861907959f,-0.00001677661930443719029426574707f,0.00000129546458538243314251303673f,0.41010421514511108398437500000000f,-0.00302500184625387191772460937500f,0.03663092479109764099121093750000f,0.00783473066985607147216796875000f,-0.29144552350044250488281250000000f,0.05319534987211227416992187500000f,-0.02030614018440246582031250000000f,-0.01031558681279420852661132812500f,-0.06150413304567337036132812500000f,-0.00005815720214741304516792297363f,0.12326915562152862548828125000000f,0.00003768285750993527472019195557f,-0.59211784601211547851562500000000f,0.00005476071964949369430541992188f,0.00366250146180391311645507812500f,0.03082093037664890289306640625000f,0.00001408480966347269713878631592f,0.30338627099990844726562500000000f,0.06588786095380783081054687500000f,0.00000768913560023065656423568726f,0.17078946530818939208984375000000f,0.00001156999769591493532061576843f,0.04815171286463737487792968750000f,-0.01660006865859031677246093750000f,0.00001742321182973682880401611328f,0.07081362605094909667968750000000f,-0.33231544494628906250000000000000f,0.00586350867524743080139160156250f,-0.02011887915432453155517578125000f,0.00001815083851397503167390823364f,0.00001428537325409706681966781616f,-0.00002488072095729876309633255005f,0.03379180282354354858398437500000f,0.02125435322523117065429687500000f,0.00518353329971432685852050781250f,0.00376994581893086433410644531250f,0.00661434140056371688842773437500f,0.04634318128228187561035156250000f,0.00462598074227571487426757812500f,-0.04568662121891975402832031250000f,-0.00140327319968491792678833007812f,0.00014102914428804069757461547852f,-0.00912542082369327545166015625000f,0.00001482909556216327473521232605f,1.40766859054565429687500000000000f,0.00005744565714849159121513366699f,0.04130689427256584167480468750000f,0.01468030083924531936645507812500f,-0.00003361202470841817557811737061f,0.08888693153858184814453125000000f,0.03375675156712532043457031250000f,-0.00000846754846861585974693298340f,-0.02239077351987361907958984375000f,0.00001300905114476336166262626648f,0.18146204948425292968750000000000f,0.01787024922668933868408203125000f,-0.00001489554233558010309934616089f,-0.06478600203990936279296875000000f,-0.01123008411377668380737304687500f,-0.00144580483902245759963989257812f,-0.08557393401861190795898437500000f,-0.00000207267316909565124660730362f,-0.00002589642463135533034801483154f,0.00003939494490623474121093750000f,-0.00711677270010113716125488281250f,0.00921071227639913558959960937500f,0.04654455184936523437500000000000f,-0.00054399436339735984802246093750f,0.06272887438535690307617187500000f,0.13356076180934906005859375000000f,0.03350714594125747680664062500000f,-0.03391464054584503173828125000000f,-0.00477160606533288955688476562500f,0.00015860583516769111156463623047f,0.20858958363533020019531250000000f,0.00001086343763745389878749847412f,-0.03625262901186943054199218750000f,-0.00004047337642987258732318878174f,0.11543009430170059204101562500000f,0.03378101810812950134277343750000f,0.00001804599378374405205249786377f,0.30064308643341064453125000000000f,0.07990799099206924438476562500000f,-0.00000848625131766311824321746826f,0.36786672472953796386718750000000f,-0.00004018801337224431335926055908f,-0.09798584878444671630859375000000f,0.02276098914444446563720703125000f,0.00000331701608047296758741140366f,0.11470551788806915283203125000000f,-0.40081328153610229492187500000000f,-0.00875642616301774978637695312500f,0.03940767422318458557128906250000f,-0.00002241971196781378239393234253f,0.00002039706123468931764364242554f,0.00000300621104543097317218780518f,-0.19535160064697265625000000000000f,-0.06136145815253257751464843750000f,-0.07323514670133590698242187500000f,0.00181075639557093381881713867188f,-0.06697661429643630981445312500000f,0.00886516645550727844238281250000f,-0.03795631229877471923828125000000f,0.01233905181288719177246093750000f,-0.03185787051916122436523437500000f,0.00000614533792031579650938510895f,0.07337222248315811157226562500000f,-0.00000369503345609700772911310196f,0.70702254772186279296875000000000f,-0.00033794928458519279956817626953f,0.03039421327412128448486328125000f,-0.02374903485178947448730468750000f,-0.00001338842866971390321850776672f,0.01766770705580711364746093750000f,0.16775384545326232910156250000000f,-0.00001649577461648732423782348633f,0.12804830074310302734375000000000f,0.00001618703754502348601818084717f,-0.43015134334564208984375000000000f,-0.07336076349020004272460937500000f,-0.00001875176167231984436511993408f,0.06249250099062919616699218750000f,0.00832314044237136840820312500000f,0.00689395889639854431152343750000f,-0.01063107326626777648925781250000f,0.00000307236928165366407483816147f,0.00003811643910012207925319671631f,0.00001404576414643088355660438538f,-0.09163510054349899291992187500000f,-0.00220703240483999252319335937500f,-0.05668554827570915222167968750000f,0.00017626305634621530771255493164f,0.22463531792163848876953125000000f,-0.06050988659262657165527343750000f,-0.02278530783951282501220703125000f,-0.00608760118484497070312500000000f,-0.00805689673870801925659179687500f,0.00021688347624149173498153686523f,-0.04695945605635643005371093750000f,-0.00000469938686364912427961826324f,0.11353616416454315185546875000000f,0.00011885000276379287242889404297f,0.09559414535760879516601562500000f,-0.07686865329742431640625000000000f,-0.00000543171972822165116667747498f,-0.04866582527756690979003906250000f,0.00973786413669586181640625000000f,-0.00000918835394259076565504074097f,-0.11033961176872253417968750000000f,-0.00000603269427301711402833461761f,0.00049277074867859482765197753906f,0.03288700431585311889648437500000f,0.00000772434759710449725389480591f,0.04243401810526847839355468750000f,-0.02347302623093128204345703125000f,0.00646203570067882537841796875000f,-0.02979865670204162597656250000000f,-0.00001068924757419154047966003418f,0.00005141921792528592050075531006f,-0.00001563261503179091960191726685f,-0.02919014170765876770019531250000f,-0.03028539940714836120605468750000f,0.03462512791156768798828125000000f,0.00339687266387045383453369140625f,-0.03173340857028961181640625000000f,0.03450153395533561706542968750000f,-0.00557757262140512466430664062500f,-0.00877629779279232025146484375000f,-0.82912284135818481445312500000000f,-0.00008242433978011831641197204590f,0.06057068705558776855468750000000f,0.00000616796296526445075869560242f,-0.00676062237471342086791992187500f,-0.00002402961581537965685129165649f,0.00160756765399128198623657226562f,0.04599373787641525268554687500000f,-0.00001098811299016233533620834351f,-0.00795264448970556259155273437500f,-0.00690535083413124084472656250000f,-0.00000791708407632540911436080933f,-0.03415269404649734497070312500000f,0.00004661787170334719121456146240f,-0.05441726371645927429199218750000f,-0.42640417814254760742187500000000f,-0.00001455439996789209544658660889f,-0.02518511191010475158691406250000f,0.06322177499532699584960937500000f,-0.03163335099816322326660156250000f,-0.27783674001693725585937500000000f,0.00001354927007923834025859832764f,-0.00000691648392603383399546146393f,0.00002807300552376545965671539307f,-0.07141451537609100341796875000000f,0.00018775816715788096189498901367f,0.13628958165645599365234375000000f,-0.00287620397284626960754394531250f,0.01172954868525266647338867187500f,0.34246075153350830078125000000000f,0.33550801873207092285156250000000f,-0.31753876805305480957031250000000f,0.01648410037159919738769531250000f,0.00034616250195540487766265869141f,-0.02629458904266357421875000000000f,-0.00002782826049951836466789245605f,-0.00211188965477049350738525390625f,-0.00005372678788262419402599334717f,0.01503676455467939376831054687500f,-0.12680332362651824951171875000000f,-0.00001946080010384321212768554688f,-0.00104142155032604932785034179688f,0.09050008654594421386718750000000f,-0.00002463048258505295962095260620f,0.01519784983247518539428710937500f,0.00000654725954518653452396392822f,-0.04766265302896499633789062500000f,0.05295855179429054260253906250000f,0.00000721613150744815357029438019f,-0.01601733267307281494140625000000f,0.05734441056847572326660156250000f,0.01866537146270275115966796875000f,-0.10179342329502105712890625000000f,0.00003756746082217432558536529541f,0.00001389386397931957617402076721f,0.00013433712592814117670059204102f,-0.08466923236846923828125000000000f,0.07901271432638168334960937500000f,-0.04034491255879402160644531250000f,0.00426024245098233222961425781250f,0.01108048669993877410888671875000f,0.11320579797029495239257812500000f,0.05507169291377067565917968750000f,-0.36283096671104431152343750000000f,0.02160837128758430480957031250000f,0.00033314825850538909435272216797f,-0.00222841859795153141021728515625f,0.00006558496534125879406929016113f,0.02717943303287029266357421875000f,0.00006828924961155280470848083496f,0.76809263229370117187500000000000f,-0.09580353647470474243164062500000f,0.00002693227543204557150602340698f,0.00051494082435965538024902343750f,-0.00690586818382143974304199218750f,-0.00000723414996173232793807983398f,-0.01206545252352952957153320312500f,0.00002836046951415482908487319946f,0.27394488453865051269531250000000f,0.00688426243141293525695800781250f,-0.00000310085079036070965230464935f,0.20859441161155700683593750000000f,0.02219798974692821502685546875000f,-0.00969285052269697189331054687500f,-0.03545823693275451660156250000000f,0.00000575757167098345234990119934f,0.00001152003187598893418908119202f,0.00000455155395684414543211460114f,-0.03156204521656036376953125000000f,0.00619355449452996253967285156250f,0.03756694123148918151855468750000f,-0.00329089467413723468780517578125f,1.11894166469573974609375000000000f,0.01221333630383014678955078125000f,0.03972141444683074951171875000000f,-0.00261562666855752468109130859375f,0.08978769183158874511718750000000f,0.00002084605330310296267271041870f,-0.07269753515720367431640625000000f,0.00001394968785461969673633575439f,-0.00486683566123247146606445312500f,-0.00010041624773293733596801757812f,0.01867903769016265869140625000000f,0.01126651465892791748046875000000f,-0.00002749791201495099812746047974f,-0.12313517183065414428710937500000f,0.01424491871148347854614257812500f,-0.00000457324449598672799766063690f,0.26121434569358825683593750000000f,-0.00003684035618789494037628173828f,-0.03372500091791152954101562500000f,0.04630609229207038879394531250000f,-0.00000370645557268289849162101746f,0.00502174394205212593078613281250f,-0.01762277632951736450195312500000f,-0.01075789984315633773803710937500f,0.11073349416255950927734375000000f,0.00000508474249727441929280757904f,-0.00000211283372664183843880891800f,-0.00003967918382841162383556365967f,-0.01123504713177680969238281250000f,0.08493687957525253295898437500000f,1.14255404472351074218750000000000f,0.00030031695496290922164916992188f,-0.00126485340297222137451171875000f,-0.19835463166236877441406250000000f,-0.17839284241199493408203125000000f,0.04964095726609230041503906250000f,-0.00512171722948551177978515625000f,-0.00000775279750087065622210502625f,0.04195852577686309814453125000000f,-0.00001001421696855686604976654053f,-0.00371221033856272697448730468750f,-0.00001203101783175952732563018799f,-0.27413830161094665527343750000000f,-0.17772103846073150634765625000000f,-0.00001575189708091784268617630005f,-0.00841941870748996734619140625000f,-0.13204431533813476562500000000000f,0.00000143661156926100375130772591f,0.01379816513508558273315429687500f,0.00000248539754466037265956401825f,0.02957454323768615722656250000000f,0.05412811040878295898437500000000f,-0.00000279724872598308138549327850f,0.00971524603664875030517578125000f,0.00568768987432122230529785156250f,-0.02508923783898353576660156250000f,-0.15956921875476837158203125000000f,-0.00000774095951783237978816032410f,0.00003412875230424106121063232422f,0.00003415783794480375945568084717f,-0.03056688793003559112548828125000f,-0.20662258565425872802734375000000f,-0.51853686571121215820312500000000f,-0.00011033908958779647946357727051f,-0.01033558510243892669677734375000f,0.10430493950843811035156250000000f,0.19721210002899169921875000000000f,0.11870799958705902099609375000000f,-0.01582734845578670501708984375000f,0.00003860499055008403956890106201f,-0.00331876031123101711273193359375f,0.00003144887887174263596534729004f,0.01422444079071283340454101562500f,0.00004766082929563708603382110596f,-0.04182397574186325073242187500000f,1.01080882549285888671875000000000f,0.00000540062274012598209083080292f,0.05043612793087959289550781250000f,0.21282546222209930419921875000000f,-0.00000100786348866677144542336464f,-0.03399979695677757263183593750000f,0.00002458501148794312030076980591f,-0.13137306272983551025390625000000f,-0.00851632468402385711669921875000f,0.00001275911836273735389113426208f,-0.15693877637386322021484375000000f,0.05454292893409729003906250000000f,0.03810732439160346984863281250000f,0.04728218913078308105468750000000f,0.00005454572237795218825340270996f,-0.00002421428325760643929243087769f,-0.00004201780029688961803913116455f,0.03153910115361213684082031250000f,-0.02092736028134822845458984375000f,-0.02457927167415618896484375000000f,0.00047106656711548566818237304688f,-0.99524199962615966796875000000000f,0.00580949662253260612487792968750f,-0.05060686916112899780273437500000f,0.01876418478786945343017578125000f,0.07373124361038208007812500000000f,0.00003066697900067083537578582764f,0.06432412564754486083984375000000f,0.00000695719018040108494460582733f,0.00479126162827014923095703125000f,-0.00010742145968833938241004943848f,0.00126645166892558336257934570312f,0.02552785724401473999023437500000f,0.00001271119890589034184813499451f,-0.55165421962738037109375000000000f,0.03873054310679435729980468750000f,0.00002309885167051106691360473633f,-0.81088197231292724609375000000000f,-0.00003656954504549503326416015625f,0.00331231765449047088623046875000f,0.14120434224605560302734375000000f,-0.00001483865980844711884856224060f,0.00467895716428756713867187500000f,-0.00099003338254988193511962890625f,0.01606420800089836120605468750000f,-0.83312767744064331054687500000000f,-0.00004247008473612368106842041016f,-0.00004542634633253328502178192139f,-0.00007493546581827104091644287109f,0.00085825676796957850456237792969f,-0.13765013217926025390625000000000f,-0.73473352193832397460937500000000f,-0.00010983121319441124796867370605f,-0.00920204352587461471557617187500f,0.01395417749881744384765625000000f,0.42150351405143737792968750000000f,0.01591958664357662200927734375000f,-0.00132128107361495494842529296875f,-0.00032655510585755109786987304688f,0.01003853697329759597778320312500f,0.00001115045051847118884325027466f,0.00861270539462566375732421875000f,-0.00001837819036154542118310928345f,0.01494614873081445693969726562500f,1.10916137695312500000000000000000f,-0.00000739837196306325495243072510f,0.00259355921298265457153320312500f,0.00395027594640851020812988281250f,0.00000452696940556052140891551971f,-0.00081922963727265596389770507812f,0.00000479690697829937562346458435f,-0.00168073002714663743972778320312f,-0.12420283257961273193359375000000f,-0.00000640783400740474462509155273f,-0.00236846716143190860748291015625f,0.01960390619933605194091796875000f,-0.00848741549998521804809570312500f,0.75955998897552490234375000000000f,-0.00001627232813916634768247604370f,-0.00001716818769637029618024826050f,0.00001144371253758436068892478943f,0.01198489312082529067993164062500f,-0.09500185400247573852539062500000f,0.88234877586364746093750000000000f,-0.00010487300460226833820343017578f,0.00143565668258816003799438476562f,0.15245048701763153076171875000000f,0.34428262710571289062500000000000f,-0.16791203618049621582031250000000f,-0.00167664140462875366210937500000f,-0.00007307546184165403246879577637f,-0.01512544043362140655517578125000f,0.00004024745794595219194889068604f,-0.00123989407438784837722778320312f,0.00005293429785524494946002960205f,0.16722589731216430664062500000000f,-0.41055253148078918457031250000000f,-0.00002512182982172816991806030273f,0.01152570452541112899780273437500f,0.11425338685512542724609375000000f,-0.00002495716216799337416887283325f,-0.01026034448295831680297851562500f,0.00003452911550994031131267547607f,-0.01397577766329050064086914062500f,0.07224635034799575805664062500000f,0.00003952392944484017789363861084f,0.02020712941884994506835937500000f,0.08126789331436157226562500000000f,-0.00547480629757046699523925781250f,0.09546980261802673339843750000000f,0.00001601989424671046435832977295f,-0.00001680843161011580377817153931f,0.00000905048909771721810102462769f,-0.73121494054794311523437500000000f,-0.06276438385248184204101562500000f,-0.13481594622135162353515625000000f,0.00079944147728383541107177734375f,-0.00581411411985754966735839843750f,0.06682184338569641113281250000000f,-0.01207303907722234725952148437500f,0.05026759207248687744140625000000f,-0.20693548023700714111328125000000f,-0.00005692781269317492842674255371f,-0.04355594143271446228027343750000f,-0.00000934280524234054610133171082f,0.01374388858675956726074218750000f,0.00002767089426924940198659896851f,-0.01484600920230150222778320312500f,-0.14052118360996246337890625000000f,0.00004482693111640401184558868408f,-0.07464784383773803710937500000000f,-0.02599281631410121917724609375000f,0.00002914977449108846485614776611f,0.02715192735195159912109375000000f,-0.00001358188183075981214642524719f,-0.00654353434219956398010253906250f,0.24749942123889923095703125000000f,0.00000685047189108445309102535248f,0.00474617490544915199279785156250f,-0.00083273946074768900871276855469f,0.02516902610659599304199218750000f,-0.30105164647102355957031250000000f,-0.00004029615956824272871017456055f,0.00003304163328721188008785247803f,0.00005009294181945733726024627686f,0.00383766391314566135406494140625f,0.53074198961257934570312500000000f,0.21435557305812835693359375000000f,-0.00003837778785964474081993103027f,-0.00261066551320254802703857421875f,0.04654158279299736022949218750000f,-1.28668463230133056640625000000000f,0.35625457763671875000000000000000f,0.00298728281632065773010253906250f,-0.00040143539081327617168426513672f,-0.00621079700067639350891113281250f,-0.00007402672781608998775482177734f,-0.00976185407489538192749023437500f,-0.00005697194501408375799655914307f,0.02582667022943496704101562500000f,-0.53533810377120971679687500000000f,-0.00000419370599047397263348102570f,0.01271214336156845092773437500000f,0.03270563110709190368652343750000f,0.00001482271909480914473533630371f,-0.00187857041601091623306274414062f,-0.00000695183462084969505667686462f,-0.62804055213928222656250000000000f,-0.00141312275081872940063476562500f,-0.00000347615514328936114907264709f,-0.10964801162481307983398437500000f,-0.00790785811841487884521484375000f,-0.00734567735344171524047851562500f,0.01188853196799755096435546875000f,0.00000351132280229649040848016739f,0.00001158413397206459194421768188f,0.00000184904820343945175409317017f,0.08609171211719512939453125000000f,-0.01791211776435375213623046875000f,-0.01133031118661165237426757812500f,-0.00146654527634382247924804687500f,0.06512234359979629516601562500000f,0.00637946231290698051452636718750f,-0.01125155575573444366455078125000f,0.02774512022733688354492187500000f,0.08960712701082229614257812500000f,0.00000863786772242747247219085693f,-0.15899638831615447998046875000000f,-0.00001172676002170192077755928040f,0.02021944895386695861816406250000f,0.00024955242406576871871948242188f,-0.01505669858306646347045898437500f,-0.00307551841251552104949951171875f,0.00001191011415357934311032295227f,-0.94230675697326660156250000000000f,-0.04056777805089950561523437500000f,0.00001405673629051307216286659241f,-0.83611935377120971679687500000000f,0.00000787877161201322451233863831f,0.01837682351469993591308593750000f,0.20670996606349945068359375000000f,0.00001116262228606501594185829163f,0.10612822324037551879882812500000f,-0.67543298006057739257812500000000f,-0.01418332103639841079711914062500f,0.11964230984449386596679687500000f,0.00001000383326754672452807426453f,-0.00001241451263922499492764472961f,-0.00000555250426259590312838554382f,0.15323145687580108642578125000000f,-0.15675507485866546630859375000000f,-0.15008144080638885498046875000000f,-0.00012632779544219374656677246094f,-0.00379853579215705394744873046875f,0.06984076648950576782226562500000f,-0.00065056164748966693878173828125f,0.05626204237341880798339843750000f,-0.02792838960886001586914062500000f,0.00020562716235872358083724975586f,0.06162049993872642517089843750000f,-0.00001396412517351564019918441772f,-0.03174618259072303771972656250000f,-0.00010229145846096798777580261230f,-0.04402935132384300231933593750000f,-0.16746066510677337646484375000000f,-0.00003766997542697936296463012695f,-0.07190455496311187744140625000000f,0.10347940772771835327148437500000f,0.00001594543573446571826934814453f,0.00372983817942440509796142578125f,0.00000122899405141652096062898636f,0.00129064789507538080215454101562f,0.01515721343457698822021484375000f,0.00000625301254331134259700775146f,0.02504120953381061553955078125000f,-0.01665493845939636230468750000000f,-0.00874165724962949752807617187500f,-0.01750004477798938751220703125000f,-0.00000738917151466012001037597656f,-0.00001589014573255553841590881348f,-0.00000576259753870544955134391785f,0.24788239598274230957031250000000f,-0.01238278020173311233520507812500f,0.01967876963317394256591796875000f,0.00252110534347593784332275390625f,0.11617688834667205810546875000000f,0.03788346052169799804687500000000f,-0.00761032570153474807739257812500f,-0.02336165308952331542968750000000f,-0.05933638289570808410644531250000f,-0.00007947794074425473809242248535f,-0.13925546407699584960937500000000f,0.00000597963753534713760018348694f,-0.48608297109603881835937500000000f,0.00002551367470005061477422714233f,-0.03713839501142501831054687500000f,0.01930558867752552032470703125000f,-0.00002172688255086541175842285156f,-0.12866373360157012939453125000000f,0.01112374197691679000854492187500f,-0.00000835709215607494115829467773f,-0.04975630342960357666015625000000f,0.00004542903843685053288936614990f,-0.00806972291320562362670898437500f,-0.18620271980762481689453125000000f,-0.00001127305131376488134264945984f,0.01617299765348434448242187500000f,0.00608383072540163993835449218750f,0.00111884402576833963394165039062f,0.14361423254013061523437500000000f,-0.00000039011158037283166777342558f,0.00000471952580483048222959041595f,-0.00000459605053038103505969047546f,-0.02623408660292625427246093750000f,-0.06295801699161529541015625000000f,1.10088527202606201171875000000000f,0.00287168403156101703643798828125f,0.00368650909513235092163085937500f,0.04470903053879737854003906250000f,0.03996452316641807556152343750000f,-0.04574324190616607666015625000000f,-0.00666707055643200874328613281250f,0.00024535597185604274272918701172f,0.00402352446690201759338378906250f,0.00002914065771619789302349090576f,0.00340008316561579704284667968750f,0.00012189122207928448915481567383f,-0.01722627319395542144775390625000f,-0.22368304431438446044921875000000f,-0.00000924230971577344462275505066f,0.01720403321087360382080078125000f,0.19447308778762817382812500000000f,-0.00001751174568198621273040771484f,-0.00958349462598562240600585937500f,-0.00002976397627207916229963302612f,-0.05880366265773773193359375000000f,0.00154443597421050071716308593750f,0.00001243133738171309232711791992f,-0.18670235574245452880859375000000f,-0.02723770588636398315429687500000f,-0.00363502535037696361541748046875f,0.06699325144290924072265625000000f,-0.00001907122350530698895454406738f,0.00001252549282071413472294807434f,0.00001581958895258139818906784058f,-0.05755959823727607727050781250000f,0.00643785437569022178649902343750f,-0.02472745813429355621337890625000f,-0.00126369146164506673812866210938f,-0.69964146614074707031250000000000f,-0.00697794742882251739501953125000f,-0.07167387008666992187500000000000f,-0.01703217066824436187744140625000f,0.00857240613549947738647460937500f,0.00029156837263144552707672119141f,-0.74536615610122680664062500000000f,0.00000560942407901166006922721863f,-0.01188301481306552886962890625000f,0.00014651003584731370210647583008f,-0.03186776116490364074707031250000f,0.02755316533148288726806640625000f,-0.00001956410778802819550037384033f,0.29836615920066833496093750000000f,-0.00658506341278553009033203125000f,-0.00003724006091943010687828063965f,-0.08591505885124206542968750000000f,-0.00002736750866461079567670822144f,-0.00124026788398623466491699218750f,-0.05243785306811332702636718750000f,0.00003350773840793408453464508057f,-0.00007306379848159849643707275391f,-0.06892047077417373657226562500000f,-0.00191125681158155202865600585938f,-0.04172148928046226501464843750000f,-0.00002901974221458658576011657715f,0.00001994064041355159133672714233f,0.00003182934960932470858097076416f,0.74684971570968627929687500000000f,-0.01519315224140882492065429687500f,0.07422930747270584106445312500000f,0.00141900789458304643630981445312f,0.00034403280005790293216705322266f,-0.04103002697229385375976562500000f,-0.02581378258764743804931640625000f,0.00880654715001583099365234375000f,0.12448086589574813842773437500000f,-0.00004147952495259232819080352783f,0.07056937366724014282226562500000f,-0.00002956527532660402357578277588f,-0.05093263462185859680175781250000f,0.00001886091740743722766637802124f,0.02165789343416690826416015625000f,0.07402044534683227539062500000000f,-0.00002955656236736103892326354980f,0.10752029716968536376953125000000f,0.08563561737537384033203125000000f,-0.00002375376607233192771673202515f,-0.02154080383479595184326171875000f,-0.00001062142382579622790217399597f,-0.00000208273286261828616261482239f,-0.00000504168247061898000538349152f,-0.00000658311819279333576560020447f,0.00000112090970105782616883516312f,-0.00001154100846179062500596046448f,-0.00001857814277173019945621490479f,-0.00000799669578555040061473846436f,-0.00000529520866621169261634349823f,0.00000212040458791307173669338226f,-0.00000921605715120676904916763306f,0.00001480226819694507867097854614f,0.00000543172063771635293960571289f,0.00000479433811051421798765659332f,-0.00000034365112355771998409181833f,0.00000037843747691113094333559275f,0.00006449907232308760285377502441f,-0.00001253309801541035994887351990f,-0.00003189087874488905072212219238f,-0.00000643314933768124319612979889f,-0.00000005121503932059567887336016f,-0.00000108806136722705559805035591f,-0.00000178929087724100099876523018f,0.00001064138905348954722285270691f,-0.00000454232213087379932403564453f,-0.00001288000385102350264787673950f,0.00003661761002149432897567749023f,0.00000484707061332301236689090729f,0.00000992825516732409596443176270f,-0.00001959187284228391945362091064f,0.00000717234570402069948613643646f,-0.00000805602394393645226955413818f,-0.00000112434713628317695111036301f,-0.01782073825597763061523437500000f,0.05477226898074150085449218750000f,-0.00000900598752195946872234344482f,-0.02306840568780899047851562500000f,0.06125082820653915405273437500000f,0.00649212719872593879699707031250f,0.20226348936557769775390625000000f,0.00000819223168946336954832077026f,0.00001526646883576177060604095459f,0.00002458905510138720273971557617f,0.20921093225479125976562500000000f,0.02423131652176380157470703125000f,-0.09921690821647644042968750000000f,0.00164489285089075565338134765625f,0.03312832862138748168945312500000f,0.01972304284572601318359375000000f,-0.17666429281234741210937500000000f,-0.03993929177522659301757812500000f,-0.00348295411095023155212402343750f,-0.00011794677993748337030410766602f,0.03204071521759033203125000000000f,0.00000881965570442844182252883911f,-0.41748097538948059082031250000000f,-0.00005419542139861732721328735352f,-0.03842949122190475463867187500000f,0.11941599100828170776367187500000f,0.00002042326377704739570617675781f,0.00485633593052625656127929687500f,-0.06162231415510177612304687500000f,0.00003544138598954305052757263184f,0.03686727210879325866699218750000f,-0.00001034099113894626498222351074f,0.39576593041419982910156250000000f,0.01819699443876743316650390625000f,-0.00000806723528512520715594291687f,-0.01930132322013378143310546875000f,-0.01028166804462671279907226562500f,-0.00177352258469909429550170898438f,0.06256570667028427124023437500000f,0.00000185684746156766777858138084f,0.00002342985499126370996236801147f,0.00009835622040554881095886230469f,-0.18514831364154815673828125000000f,-0.02696704864501953125000000000000f,-0.08113450556993484497070312500000f,0.00327149895019829273223876953125f,0.00409464864060282707214355468750f,0.01090107765048742294311523437500f,-0.02541707642376422882080078125000f,0.00025281007401645183563232421875f,0.04299546778202056884765625000000f,0.00011788127449108287692070007324f,0.09299530088901519775390625000000f,-0.00000489200010633794590830802917f,0.02554566599428653717041015625000f,0.00027053925441578030586242675781f,-0.00742421671748161315917968750000f,-0.04787008836865425109863281250000f,0.00003811957139987498521804809570f,0.74728614091873168945312500000000f,0.18753409385681152343750000000000f,0.00004152855399297550320625305176f,0.62331378459930419921875000000000f,0.00001849621367000509053468704224f,-0.00003142071363981813192367553711f,0.00008508028986398130655288696289f,-0.00001175614033854799345135688782f,0.00002117289659508969634771347046f,-0.00002713848516577854752540588379f,0.00001127839732362190261483192444f,-0.00010077052138512954115867614746f,-0.00000597747975916718132793903351f,0.00000603505623075761832296848297f,-0.00003387059041415341198444366455f,0.00003060469680349342525005340576f,-0.00004668729889090172946453094482f,-0.00007100385846570134162902832031f,0.00001639626316318754106760025024f,0.00004160124080954119563102722168f,0.00001921165312523953616619110107f,0.00016766898625064641237258911133f,-0.00002080993544950615614652633667f,0.00007679147529415786266326904297f,-0.00000260610818259010557085275650f,-0.00005551372305490076541900634766f,0.00003228062996640801429748535156f,-0.00004361020546639338135719299316f,0.00005723667709389701485633850098f,0.00016977809718810021877288818359f,-0.00003583626676118001341819763184f,-0.00001579773743287660181522369385f,0.00001465378772991243749856948853f,0.00003223050589440390467643737793f,0.00004075811375514604151248931885f,0.00004913012890028767287731170654f,0.00001338014590146485716104507446f,0.06637970358133316040039062500000f,0.14216135442256927490234375000000f,-0.00002490930637577548623085021973f,-0.00049463810864835977554321289062f,0.02761346101760864257812500000000f,0.00666887173429131507873535156250f,0.28530716896057128906250000000000f,0.00000521645142725901678204536438f,0.00001342413179372670128941535950f,-0.00006109115201979875564575195312f,-0.01113173738121986389160156250000f,0.13623397052288055419921875000000f,-0.07091375440359115600585937500000f,-0.00169258122332394123077392578125f,0.00935574527829885482788085937500f,0.45329159498214721679687500000000f,-1.17404091358184814453125000000000f,-0.04791905358433723449707031250000f,0.00813291780650615692138671875000f,-0.00019188171427231281995773315430f,-0.06261188536882400512695312500000f,-0.00001202499061037087813019752502f,0.02293853461742401123046875000000f,-0.00004763137621921487152576446533f,0.06151768565177917480468750000000f,0.11298443377017974853515625000000f,-0.00003732522600330412387847900391f,0.00378101691603660583496093750000f,0.09034244716167449951171875000000f,-0.00003257346179452724754810333252f,-0.00427192542701959609985351562500f,-0.00000119986657409754116088151932f,-0.02565125934779644012451171875000f,-0.02025672234594821929931640625000f,-0.00000370056704923626966774463654f,-0.55954116582870483398437500000000f,-0.28734171390533447265625000000000f,0.00319841038435697555541992187500f,0.01069133635610342025756835937500f,0.00001592859371157828718423843384f,-0.00001079151388694299384951591492f,0.00007349955558311194181442260742f,0.22773197293281555175781250000000f,-0.00245098513551056385040283203125f,-0.01354299858212471008300781250000f,0.00250754598528146743774414062500f,0.09143132716417312622070312500000f,-0.00902463309466838836669921875000f,-0.01565645821392536163330078125000f,0.00033395882928743958473205566406f,1.31774032115936279296875000000000f,-0.00012715456250589340925216674805f,0.07050402462482452392578125000000f,0.00000833534613775555044412612915f,-0.01976812258362770080566406250000f,-0.00025258422829210758209228515625f,0.00856490340083837509155273437500f,-0.01546406652778387069702148437500f,0.00003371588900336064398288726807f,-0.12003170698881149291992187500000f,0.02636864967644214630126953125000f,0.00000524552069691708311438560486f,0.04472761601209640502929687500000f,-0.00001481245544709963724017143250f,-0.09569551795721054077148437500000f,-0.01719724573194980621337890625000f,-0.00000382107600671588443219661713f,0.42809608578681945800781250000000f,-0.06224859133362770080566406250000f,0.01185013167560100555419921875000f,0.02452838048338890075683593750000f,0.00000256100270235037896782159805f,0.00001387555676046758890151977539f,0.00003819046469288878142833709717f,-1.10344862937927246093750000000000f,0.00352269108407199382781982421875f,-0.04681767150759696960449218750000f,-0.00147558294702321290969848632812f,-0.21120861172676086425781250000000f,-0.00580241251736879348754882812500f,-0.01900642924010753631591796875000f,0.00714897224679589271545410156250f,-0.31288227438926696777343750000000f,0.00001573718873260077089071273804f,-0.11296712607145309448242187500000f,0.00003392647340660914778709411621f,-0.03609251976013183593750000000000f,-0.00009471757948631420731544494629f,0.00284470641054213047027587890625f,-0.00031310447957366704940795898438f,0.00001399175107508199289441108704f,0.36832690238952636718750000000000f,0.04417246952652931213378906250000f,-0.00002123658669006545096635818481f,0.03432288393378257751464843750000f,-0.00000058185850093650515191257000f,-0.00004692053335020318627357482910f,0.00004345375782577320933341979980f,0.00001053488267643842846155166626f,0.00001570851236465387046337127686f,0.00001229452755069360136985778809f,-0.00000096028998086694628000259399f,-0.00005548575791181065142154693604f,-0.00006814461812609806656837463379f,-0.00002486714583938010036945343018f,-0.00001991391036426648497581481934f,-0.00000658696626487653702497482300f,0.00006822584691690281033515930176f,-0.00002366475382586941123008728027f,-0.00005510780101758427917957305908f,-0.00002173230132029857486486434937f,-0.00005240360042080283164978027344f,-0.00000346041474585945252329111099f,0.00003243678656872361898422241211f,-0.00003129361357423476874828338623f,-0.00000620467744738562032580375671f,-0.00000589010778639931231737136841f,-0.00001951026570168323814868927002f,-0.00000387839872928452678024768829f,0.00003394297164049930870532989502f,0.00004514216198003850877285003662f,-0.00007878469477873295545578002930f,-0.00000210120697374804876744747162f,-0.00001919619717227760702371597290f,0.00001941938535310328006744384766f,-0.00002373830284341238439083099365f,0.00003936189750675112009048461914f,-0.00000394799280911684036254882812f,-0.01636741124093532562255859375000f,0.10514070093631744384765625000000f,-0.00001405537841492332518100738525f,-0.00307157984934747219085693359375f,-0.00249554822221398353576660156250f,-0.01200750470161437988281250000000f,-0.52284896373748779296875000000000f,-0.00000585530960961477831006050110f,-0.00001187573252536822110414505005f,-0.00000132923457840661285445094109f,-0.01207063253968954086303710937500f,0.39744624495506286621093750000000f,-0.38680395483970642089843750000000f,0.00079173460835590958595275878906f,-0.00408153189346194267272949218750f,-0.04226846620440483093261718750000f,-0.03798784688115119934082031250000f,0.28348618745803833007812500000000f,-0.00047660095151513814926147460938f,-0.00008466000144835561513900756836f,0.00045732327271252870559692382812f,0.00003678361463244073092937469482f,0.02156520076096057891845703125000f,-0.00003049896076845470815896987915f,0.04072236642241477966308593750000f,0.59795308113098144531250000000000f,0.00000940486916078953072428703308f,-0.00445973267778754234313964843750f,-0.00450477702543139457702636718750f,0.00000356251143784902524203062057f,0.01246519759297370910644531250000f,-0.00001239175253431312739849090576f,-0.00829542987048625946044921875000f,-0.18289266526699066162109375000000f,0.00001020641866489313542842864990f,0.00163597660139203071594238281250f,0.01089833118021488189697265625000f,-0.02878238633275032043457031250000f,1.05857229232788085937500000000000f,-0.00000113951080038532381877303123f,-0.00000134920003347360761836171150f,0.00001651531601964961737394332886f,-0.01579789444804191589355468750000f,-0.63493072986602783203125000000000f,-0.06726406514644622802734375000000f,-0.00029660871950909495353698730469f,0.00094199401792138814926147460938f,-0.07660920917987823486328125000000f,0.96411025524139404296875000000000f,-0.49674037098884582519531250000000f,0.00361965782940387725830078125000f,-0.00043444125913083553314208984375f,0.00721146445721387863159179687500f,-0.00011896568321390077471733093262f,0.00383082870393991470336914062500f,-0.00004461650314624421298503875732f,-0.15190270543098449707031250000000f,0.05761573463678359985351562500000f,0.00002436537033645436167716979980f,0.00620351685211062431335449218750f,-0.09717895090579986572265625000000f,0.00001234619048773311078548431396f,0.00006154239963507279753684997559f,-0.00000020588697680068435147404671f,0.00005231714021647348999977111816f,-0.00000422898983742925338447093964f,-0.00000309235520035144872963428497f,-0.00002276394479849841445684432983f,0.00003102768459939397871494293213f,-0.00000712135897629195824265480042f,-0.00000118077718980202917009592056f,0.00001680920831859111785888671875f,-0.00001485000484535703435540199280f,-0.00003404059316380880773067474365f,-0.00000145905369208776392042636871f,-0.00000744790077078505419194698334f,0.00001286959832214051857590675354f,-0.00000543172063771635293960571289f,-0.00001735722071316558867692947388f,0.00001696323670330457389354705811f,0.00002043970380327664315700531006f,-0.00001602610063855536282062530518f,0.00006653641321463510394096374512f,-0.00001572056316945236176252365112f,-0.00000346774118042958434671163559f,0.00005622228491120040416717529297f,0.00001589380553923547267913818359f,0.00004934028402203693985939025879f,-0.00001480226637795567512512207031f,-0.00000422742050432134419679641724f,0.00000101482294212473789229989052f,-0.00006200759526109322905540466309f,-0.00000123280426578276092186570168f,0.00002378045246587134897708892822f,0.00000934203944780165329575538635f,-0.00004140257442486472427845001221f,0.02416338212788105010986328125000f,0.03226499632000923156738281250000f,-0.00002637436955410521477460861206f,-0.04651388153433799743652343750000f,-0.00763684324920177459716796875000f,-0.00571340834721922874450683593750f,-0.06395664066076278686523437500000f,-0.00001391413206874858587980270386f,0.00003141612614854238927364349365f,-0.00004860821718466468155384063721f,-0.60706651210784912109375000000000f,0.02289145626127719879150390625000f,0.01310023665428161621093750000000f,0.00062562595121562480926513671875f,-0.03365936130285263061523437500000f,0.09363476186990737915039062500000f,0.09607179462909698486328125000000f,-0.04142890125513076782226562500000f,-0.14635017514228820800781250000000f,0.00022416801948565989732742309570f,-0.01150639913976192474365234375000f,0.00006874976679682731628417968750f,0.03360278159379959106445312500000f,0.00004211094710626639425754547119f,0.04336325079202651977539062500000f,-0.02712275832891464233398437500000f,0.00000925786753214197233319282532f,0.00488441810011863708496093750000f,0.00176318874582648277282714843750f,0.00000630265185463940724730491638f,-0.03217809647321701049804687500000f,0.00005831033195136114954948425293f,0.08166448026895523071289062500000f,-0.03586785867810249328613281250000f,0.00000367751135854632593691349030f,0.00830561388283967971801757812500f,0.00374560849741101264953613281250f,-0.02877566963434219360351562500000f,1.10599255561828613281250000000000f,0.00001562376019137445837259292603f,-0.00002703156314964871853590011597f,-0.00003708464646479114890098571777f,0.00238210428506135940551757812500f,-0.14781491458415985107421875000000f,0.06285192072391510009765625000000f,-0.00020303862402215600013732910156f,0.00933924317359924316406250000000f,0.21275168657302856445312500000000f,-0.13911230862140655517578125000000f,-0.05822928994894027709960937500000f,0.00358501286245882511138916015625f,0.00016087490075733512639999389648f,-0.03986711800098419189453125000000f,-0.00000649112007522489875555038452f,0.00872099958360195159912109375000f,0.00004150522363488562405109405518f,0.16930422186851501464843750000000f,0.14354118704795837402343750000000f,0.00001919786882353946566581726074f,0.04650864377617835998535156250000f,-0.10918751358985900878906250000000f,0.00000566222388442838564515113831f,-0.03962387889623641967773437500000f,0.00000568132554690237157046794891f,-0.00383637077175080776214599609375f,-0.19146135449409484863281250000000f,0.00001139582309406250715255737305f,0.00918109808117151260375976562500f,-0.00740280933678150177001953125000f,-0.00832307338714599609375000000000f,0.68317592144012451171875000000000f,-0.00002268016942252870649099349976f,-0.00000839250515127787366509437561f,0.00003821433710982091724872589111f,-0.00082927127368748188018798828125f,-0.58693337440490722656250000000000f,-0.00677697407081723213195800781250f,0.00075696001295000314712524414062f,0.00561475194990634918212890625000f,-0.07925467193126678466796875000000f,1.27603828907012939453125000000000f,-0.41208115220069885253906250000000f,-0.00962526816874742507934570312500f,-0.00004874711885349825024604797363f,-0.00954853091388940811157226562500f,0.00005231714021647348999977111816f,0.00292418687604367733001708984375f,0.00003220476719434373080730438232f,-0.03432963043451309204101562500000f,0.21955329179763793945312500000000f,-0.00003859037678921595215797424316f,-0.00344645907171070575714111328125f,-0.14932776987552642822265625000000f,-0.00002082860191876534372568130493f,0.00758468592539429664611816406250f,0.00000833598005556268617510795593f,-0.02061510458588600158691406250000f,-0.00087401230121031403541564941406f,0.00000517197440785821527242660522f,0.19723390042781829833984375000000f,0.65581220388412475585937500000000f,-0.00558690773323178291320800781250f,0.01597942784428596496582031250000f,-0.00001580123171152081340551376343f,-0.00002172687891288660466670989990f,-0.00005384189353208057582378387451f,-0.81220042705535888671875000000000f,-0.01219532079994678497314453125000f,-0.03518813848495483398437500000000f,0.00145032443106174468994140625000f,0.02141934260725975036621093750000f,0.00910347513854503631591796875000f,-0.00045348028652369976043701171875f,-0.00774287851527333259582519531250f,0.44545307755470275878906250000000f,0.00002935073098342400044202804565f,-0.02065829932689666748046875000000f,-0.00001480226637795567512512207031f,0.08114045113325119018554687500000f,-0.00006850101635791361331939697266f,0.01181181706488132476806640625000f,-0.02062702737748622894287109375000f,-0.00000824377457320224493741989136f,0.37709298729896545410156250000000f,0.01689738593995571136474609375000f,-0.00001121688183047808706760406494f,0.11527550965547561645507812500000f,-0.00001791494287317618727684020996f,0.06043771654367446899414062500000f,-0.18244026601314544677734375000000f,0.00001751397940097376704216003418f,0.06153928488492965698242187500000f,-0.17370177805423736572265625000000f,-0.01565014570951461791992187500000f,0.14885410666465759277343750000000f,-0.00004735723996418528258800506592f,0.00003163834844599477946758270264f,-0.00001350606544292531907558441162f,0.21868242323398590087890625000000f,-0.01649694889783859252929687500000f,0.02075244858860969543457031250000f,0.00127092737238854169845581054688f,-0.02020499296486377716064453125000f,0.32447165250778198242187500000000f,-0.17585867643356323242187500000000f,-0.10077464580535888671875000000000f,-0.03325467929244041442871093750000f,0.00015174617874436080455780029297f,-0.04532044753432273864746093750000f,-0.00000967906453297473490238189697f,-0.04649146273732185363769531250000f,-0.00004726472252514213323593139648f,0.09904479235410690307617187500000f,0.46692055463790893554687500000000f,0.00001536178569949697703123092651f,0.02300936728715896606445312500000f,0.07841627299785614013671875000000f,-0.00002291755845362786203622817993f,-0.05207422748208045959472656250000f,0.00002768237936834339052438735962f,-0.14929644763469696044921875000000f,0.01158968266099691390991210937500f,0.00003614115121308714151382446289f,0.01046071667224168777465820312500f,0.18193262815475463867187500000000f,-0.00780019210651516914367675781250f,0.00179397221654653549194335937500f,0.00002928644789790268987417221069f,0.00000587593967793509364128112793f,-0.00003347656456753611564636230469f,0.31084075570106506347656250000000f,-0.01461401209235191345214843750000f,-0.02714440040290355682373046875000f,0.00591944437474012374877929687500f,0.13077548146247863769531250000000f,0.07136435806751251220703125000000f,-0.00136149919126182794570922851562f,-0.03200269863009452819824218750000f,-0.04593591392040252685546875000000f,-0.00024851615307852625846862792969f,-0.03609621897339820861816406250000f,-0.00000451682626589899882674217224f,-1.08050358295440673828125000000000f,-0.00030969997169449925422668457031f,0.07647170126438140869140625000000f,0.00502377469092607498168945312500f,0.00002910363400587812066078186035f,-0.12143652886152267456054687500000f,0.16031382977962493896484375000000f,0.00002073296855087392032146453857f,-0.08117406070232391357421875000000f,0.00001696323670330457389354705811f,0.00591792305931448936462402343750f,0.53250914812088012695312500000000f,-0.00003311091131763532757759094238f,-0.02621117606759071350097656250000f,-0.08562915027141571044921875000000f,-0.03132532536983489990234375000000f,0.60433977842330932617187500000000f,-0.00001385400355502497404813766479f,-0.00004435279697645455598831176758f,-0.00000812200232758186757564544678f,0.02849771454930305480957031250000f,-0.05127573013305664062500000000000f,-0.05727418884634971618652343750000f,-0.00125107693020254373550415039062f,-0.09561197459697723388671875000000f,0.14503188431262969970703125000000f,-0.38328483700752258300781250000000f,0.06417031586170196533203125000000f,-0.01380229182541370391845703125000f,0.00047611197805963456630706787109f,0.02250619232654571533203125000000f,-0.00001397268715663813054561614990f,-0.04403271153569221496582031250000f,-0.00003217975609004497528076171875f,-0.25236546993255615234375000000000f,0.70307236909866333007812500000000f,-0.00001344362044619629159569740295f,0.01640939898788928985595703125000f,-0.18404293060302734375000000000000f,-0.00002305328780494164675474166870f,-0.07468598335981369018554687500000f,0.00000285163582702807616442441940f,-0.02040842175483703613281250000000f,-0.04211294278502464294433593750000f,0.00001339874233963200822472572327f,-0.38614869117736816406250000000000f,-0.58093243837356567382812500000000f,0.00390050280839204788208007812500f,-0.05151595547795295715332031250000f,-0.00005565651372307911515235900879f,-0.00000604321576247457414865493774f,-0.00001158998475148109719157218933f,0.97886532545089721679687500000000f,0.00589687749743461608886718750000f,0.06163699924945831298828125000000f,0.00222234288230538368225097656250f,-0.02024088613688945770263671875000f,-0.00838211644440889358520507812500f,0.00530122080817818641662597656250f,-0.00772346416488289833068847656250f,-0.40587508678436279296875000000000f,-0.00003977806773036718368530273438f,0.08660567551851272583007812500000f,-0.00002260928522446192800998687744f,-0.05141068249940872192382812500000f,0.00030567389330826699733734130859f,-0.00242257025092840194702148437500f,0.01967923343181610107421875000000f,-0.00004118618744541890919208526611f,-0.68650740385055541992187500000000f,-0.04509074613451957702636718750000f,-0.00001118710770242614671587944031f,-0.00349736330099403858184814453125f,0.00000076354228895070264115929604f,-0.00003319262759760022163391113281f,0.00003667816417873837053775787354f,0.00000987589191936422139406204224f,0.00002367659726587589830160140991f,-0.00000345544390256691258400678635f,-0.00002137251067324541509151458740f,-0.00000276964829026837833225727081f,0.00000112787415673665236681699753f,0.00001155685458797961473464965820f,0.00000411660857935203239321708679f,-0.00000370056750398362055420875549f,-0.00001293219884246354922652244568f,0.00000033863022963487310335040092f,-0.00003569935506675392389297485352f,0.00000492820345243671908974647522f,0.00000715849637344945222139358521f,-0.00001396089646732434630393981934f,-0.00001621987212274689227342605591f,-0.00002811972808558493852615356445f,-0.00000644762030788115225732326508f,0.00000282836685983056668192148209f,0.00001135185266321059316396713257f,0.00004538107168627902865409851074f,-0.00002038858838204760104417800903f,0.00001548617365187965333461761475f,-0.00001086344127543270587921142578f,-0.00001274797523365123197436332703f,-0.00000765206095820758491754531860f,-0.00002890714131353888660669326782f,-0.00000775995522417360916733741760f,-0.00000079228021832022932358086109f,0.00000694107120580156333744525909f,-0.17238202691078186035156250000000f,0.00917617511004209518432617187500f,0.00001276661805604817345738410950f,0.59372520446777343750000000000000f,-0.22234100103378295898437500000000f,-0.00412683095782995223999023437500f,0.01756089739501476287841796875000f,-0.00000913555686565814539790153503f,-0.00001259797409147722646594047546f,-0.00001634975342312827706336975098f,-0.03366602212190628051757812500000f,-0.00847927667200565338134765625000f,-0.01507753785699605941772460937500f,0.00226229079999029636383056640625f,-0.24479380249977111816406250000000f,0.01086089294403791427612304687500f,-0.00996733736246824264526367187500f,0.00721608661115169525146484375000f,0.40474265813827514648437500000000f,0.00013388469233177602291107177734f,0.03578937798738479614257812500000f,-0.00000153512939959909999743103981f,-0.02837799303233623504638671875000f,-0.00034732368658296763896942138672f,0.00438908860087394714355468750000f,0.00407723244279623031616210937500f,0.00000219099024434399325400590897f,-0.80356931686401367187500000000000f,0.05672929063439369201660156250000f,-0.00000572324415770708583295345306f,0.07870543003082275390625000000000f,-0.00000144884108976839343085885048f,0.57236045598983764648437500000000f,0.02233132906258106231689453125000f,0.00000882898348208982497453689575f,0.12320255488157272338867187500000f,-0.02031540125608444213867187500000f,-0.01699446700513362884521484375000f,-0.01567714288830757141113281250000f,0.00000989748332358431071043014526f,-0.00002026549555012024939060211182f,-0.00000797043048805790022015571594f,0.00448385160416364669799804687500f,-0.00338161666877567768096923828125f,0.01835515163838863372802734375000f,-0.00025155028561130166053771972656f,-0.69414454698562622070312500000000f,0.02085531130433082580566406250000f,0.01179849542677402496337890625000f,0.02715334296226501464843750000000f,0.05991479381918907165527343750000f,0.00002320285057066939771175384521f,0.23552133142948150634765625000000f,0.00000265900234808214008808135986f,0.00259015359915792942047119140625f,-0.00038135354407131671905517578125f,0.02048361860215663909912109375000f,0.02375237457454204559326171875000f,-0.00000956231815507635474205017090f,0.16124372184276580810546875000000f,-0.04727753996849060058593750000000f,-0.00004345376510173082351684570312f,0.72282952070236206054687500000000f,0.00002771971958281937986612319946f,0.30742147564888000488281250000000f,0.09130254387855529785156250000000f,0.00000627557938059908337891101837f,0.07987616211175918579101562500000f,-0.01746329478919506072998046875000f,-0.11024628579616546630859375000000f,-0.15569517016410827636718750000000f,0.00000739666302251862362027168274f,-0.00000268040957962512038648128510f,0.00004472897853702306747436523438f,0.18100373446941375732421875000000f,-0.13104413449764251708984375000000f,-0.07956470549106597900390625000000f,-0.00235961610451340675354003906250f,0.13932907581329345703125000000000f,0.29786503314971923828125000000000f,0.28866001963615417480468750000000f,0.01088763866573572158813476562500f,-0.05968477576971054077148437500000f,0.00022299181728158146142959594727f,-0.23649568855762481689453125000000f,0.00000848046238388633355498313904f,0.01957094669342041015625000000000f,-0.00001094239451049361377954483032f,0.38271743059158325195312500000000f,-0.27311173081398010253906250000000f,-0.00000185028329724445939064025879f,0.22010068595409393310546875000000f,0.48623096942901611328125000000000f,0.00000486230055685155093669891357f,-0.07631473988294601440429687500000f,-0.00001189851172966882586479187012f,-0.00848619360476732254028320312500f,0.33358985185623168945312500000000f,0.00002172732092731166630983352661f,0.01665960997343063354492187500000f,-0.00427962606772780418395996093750f,0.03278711438179016113281250000000f,-0.74445909261703491210937500000000f,-0.00002124251113855279982089996338f,0.00003248069333494640886783599854f,-0.00000117229546958697028458118439f,-0.00012913858518004417419433593750f,0.63195753097534179687500000000000f,0.01136789657175540924072265625000f,-0.00123845529742538928985595703125f,0.00395141122862696647644042968750f,0.06176012009382247924804687500000f,-0.87057667970657348632812500000000f,0.40207630395889282226562500000000f,-0.01466186996549367904663085937500f,-0.00029765654471702873706817626953f,-0.00264454586431384086608886718750f,0.00007657990499865263700485229492f,-0.00731952302157878875732421875000f,0.00003336348163429647684097290039f,0.08543638885021209716796875000000f,-0.33392223715782165527343750000000f,-0.00001543748294352553784847259521f,-0.02505308575928211212158203125000f,0.05716338008642196655273437500000f,0.00000264887603407260030508041382f,0.00421764375641942024230957031250f,0.00000173773707956570433452725410f,-0.03159156069159507751464843750000f,-0.01636231876909732818603515625000f,-0.00001057486224453896284103393555f,0.03823752328753471374511718750000f,0.02855424210429191589355468750000f,-0.00882586278021335601806640625000f,-0.02970558404922485351562500000000f,-0.00001248037096956977620720863342f,-0.00000627905046712839975953102112f,-0.00000180060771981516154482960701f,0.02417131513357162475585937500000f,-0.00385424145497381687164306640625f,0.02280807681381702423095703125000f,0.00030286281253211200237274169922f,0.05880810692906379699707031250000f,0.03643573820590972900390625000000f,0.00172006164211779832839965820312f,0.01622599177062511444091796875000f,0.05433507636189460754394531250000f,0.00008604295726399868726730346680f,0.10861787199974060058593750000000f,-0.00000737797154215513728559017181f,-0.01615490950644016265869140625000f,0.00001311132291448302567005157471f,0.01060655433684587478637695312500f,0.03205503523349761962890625000000f,-0.00000143334716540266526862978935f,-0.40558612346649169921875000000000f,0.08094985038042068481445312500000f,0.00001051106937666190788149833679f,-0.45904338359832763671875000000000f,0.00000221743994188727810978889465f,-0.05586790293455123901367187500000f,0.05969651788473129272460937500000f,-0.00001477904334024060517549514771f,-0.10086487978696823120117187500000f,-0.15926460921764373779296875000000f,0.00152122811414301395416259765625f,-0.03351070731878280639648437500000f,-0.00001232103568327147513628005981f,-0.00000725107247490086592733860016f,-0.00000086623242623318219557404518f,0.48606839776039123535156250000000f,-0.05926853790879249572753906250000f,0.04046946391463279724121093750000f,-0.00101225788239389657974243164062f,0.07825636118650436401367187500000f,0.02522617764770984649658203125000f,0.01541428919881582260131835937500f,0.01356142852455377578735351562500f,0.27084052562713623046875000000000f,-0.00004344357148511335253715515137f,0.05194491147994995117187500000000f,0.00000828356132842600345611572266f,-0.09027642756700515747070312500000f,0.00003368413308635354042053222656f,-0.02564434334635734558105468750000f,0.04834869876503944396972656250000f,-0.00000799401186668546870350837708f,-0.13997870683670043945312500000000f,0.08383942395448684692382812500000f,-0.00002668734668986871838569641113f,-0.10034899413585662841796875000000f,0.00005174849866307340562343597412f,0.00000525054520039702765643596649f,-0.00002125698847521562129259109497f,-0.00001074761257768841460347175598f,0.00005516283999895676970481872559f,0.00000905564866116037592291831970f,0.00004946207263856194913387298584f,0.00004506437835516408085823059082f,0.00002193281397921964526176452637f,0.00001304039051319705322384834290f,0.00007397645094897598028182983398f,-0.00001546727617096621543169021606f,-0.00002715745904424693435430526733f,0.00002097774813591968268156051636f,0.00008214843546738848090171813965f,-0.00000848161835165228694677352905f,-0.00000420623518948559649288654327f,0.00004582051406032405793666839600f,0.00002887526716222055256366729736f,0.00013752818631473928689956665039f,0.00004428714237292297184467315674f,-0.00001869138759502675384283065796f,0.00004767792779603041708469390869f,-0.00000372128351955325342714786530f,0.00002450871579640079289674758911f,0.00009037175186676904559135437012f,-0.00001836463343352079391479492188f,-0.00003056836794712580740451812744f,0.00003685433694045059382915496826f,-0.00000469545921077951788902282715f,-0.00000791358161222888156771659851f,0.00003322998236399143934249877930f,0.00002665352076292037963867187500f,0.02555172704160213470458984375000f,-0.09589613974094390869140625000000f,0.00001291873741138260811567306519f,-0.08666021376848220825195312500000f,-0.02576302923262119293212890625000f,0.01909605227410793304443359375000f,-0.09388976544141769409179687500000f,-0.00001529051951365545392036437988f,-0.00001946234078786801546812057495f,-0.00000252310314863279927521944046f,-0.06275096535682678222656250000000f,-0.00034227967262268066406250000000f,-0.00913593359291553497314453125000f,-0.00028893881244584918022155761719f,0.24414639174938201904296875000000f,0.05053643509745597839355468750000f,0.02359724231064319610595703125000f,-0.04483537748456001281738281250000f,0.00215937918983399868011474609375f,0.00016221475380007177591323852539f,-0.05216518789529800415039062500000f,0.00008046923903748393058776855469f,0.01674810051918029785156250000000f,0.00007036919123493134975433349609f,0.13537183403968811035156250000000f,-0.08353424817323684692382812500000f,-0.00002541804315114859491586685181f,0.40412494540214538574218750000000f,-0.07089263200759887695312500000000f,-0.00004045790774398483335971832275f,0.44722053408622741699218750000000f,0.00000822048787085805088281631470f,-0.05205464735627174377441406250000f,-0.00896240584552288055419921875000f,-0.00000151770404954731930047273636f,0.97289818525314331054687500000000f,-0.22487224638462066650390625000000f,0.00514054903760552406311035156250f,-0.00563933188095688819885253906250f,-0.00000484879637951962649822235107f,-0.00000866900427354266867041587830f,0.00001970352059288416057825088501f,0.85196226835250854492187500000000f,-0.00663396343588829040527343750000f,0.02195833064615726470947265625000f,0.00481364317238330841064453125000f,-0.29281333088874816894531250000000f,0.00375372171401977539062500000000f,-0.01022493559867143630981445312500f,-0.00641576386988162994384765625000f,0.17792825400829315185546875000000f,-0.00001983520087378565222024917603f,0.08120317757129669189453125000000f,0.00000693942320140195079147815704f,-0.00931007415056228637695312500000f,0.00068568234564736485481262207031f,0.02117429301142692565917968750000f,0.01515471190214157104492187500000f,-0.00000568847281101625412702560425f,0.00027925107860937714576721191406f,-0.00977640412747859954833984375000f,-0.00002093852526741102337837219238f,-0.09802601486444473266601562500000f,0.00000976226147031411528587341309f,-1.35205399990081787109375000000000f,-0.00701268017292022705078125000000f,-0.00003599259798647835850715637207f,-0.10276685655117034912109375000000f,0.02177809365093708038330078125000f,-0.00218902248889207839965820312500f,-0.01978708431124687194824218750000f,0.00007019450276857241988182067871f,0.00001086343945644330233335494995f,0.00005565650644712150096893310547f,-0.04324351996183395385742187500000f,-0.01269668620079755783081054687500f,0.01516712922602891921997070312500f,-0.00020471379684749990701675415039f,0.25328755378723144531250000000000f,0.05172624811530113220214843750000f,0.00910833850502967834472656250000f,-0.03307445347309112548828125000000f,-0.06001890078186988830566406250000f,0.00012760232493747025728225708008f,0.02850918844342231750488281250000f,0.00003416844992898404598236083984f,0.01509319525212049484252929687500f,0.00010403573105577379465103149414f,0.05331354960799217224121093750000f,0.02580227889120578765869140625000f,0.00004264044400770217180252075195f,-0.23800387978553771972656250000000f,0.14213457703590393066406250000000f,0.00001530293229734525084495544434f,-0.62591010332107543945312500000000f}; 
