#include <polimidl/layers/alignment.hpp>
alignas(polimidl::layers::buffer_alignment::byte_alignment) const float weight7[] = {-0.56583088636398315429687500000000f,0.50200062990188598632812500000000f,1.02208030223846435546875000000000f,-0.99914562702178955078125000000000f,-0.69559705257415771484375000000000f,-0.68060016632080078125000000000000f,0.65666776895523071289062500000000f,0.32528817653656005859375000000000f,-1.25098609924316406250000000000000f,-0.11363457143306732177734375000000f,-0.43448349833488464355468750000000f,-0.65023940801620483398437500000000f,0.95800715684890747070312500000000f,-0.78912472724914550781250000000000f,-0.69057643413543701171875000000000f,1.06063652038574218750000000000000f,1.83496856689453125000000000000000f,1.17211127281188964843750000000000f,1.09022688865661621093750000000000f,0.33059641718864440917968750000000f,-0.73489505052566528320312500000000f,2.51850962638854980468750000000000f,0.35347896814346313476562500000000f,-0.33817610144615173339843750000000f,-1.83242487907409667968750000000000f,-1.90019655227661132812500000000000f,-1.38602888584136962890625000000000f,2.73975586891174316406250000000000f,-0.72699582576751708984375000000000f,-0.35758242011070251464843750000000f,-0.96817064285278320312500000000000f,0.29798787832260131835937500000000f,0.15365056693553924560546875000000f,-0.25246176123619079589843750000000f,-0.60388910770416259765625000000000f,2.26127123832702636718750000000000f,1.46961820125579833984375000000000f,0.81787067651748657226562500000000f,1.48990917205810546875000000000000f,0.64201521873474121093750000000000f,-0.62501847743988037109375000000000f,-0.05789646133780479431152343750000f,-0.28080362081527709960937500000000f,-3.41295790672302246093750000000000f,0.96789997816085815429687500000000f,1.67681121826171875000000000000000f,1.50336992740631103515625000000000f,-3.70904397964477539062500000000000f,-0.73434615135192871093750000000000f,0.44581395387649536132812500000000f,0.75527137517929077148437500000000f,1.25200939178466796875000000000000f,-0.70011818408966064453125000000000f,-2.17095303535461425781250000000000f,0.56367135047912597656250000000000f,-0.53284060955047607421875000000000f,-0.69870960712432861328125000000000f,3.26524186134338378906250000000000f,-0.17050759494304656982421875000000f,0.45698729157447814941406250000000f,-0.89581310749053955078125000000000f,1.75485932826995849609375000000000f,-0.62425404787063598632812500000000f,0.80490130186080932617187500000000f,-0.88857865333557128906250000000000f,0.59956568479537963867187500000000f,1.35699248313903808593750000000000f,0.05008622631430625915527343750000f,0.08762250840663909912109375000000f,-0.61234879493713378906250000000000f,-2.92762732505798339843750000000000f,0.29869782924652099609375000000000f,-0.92055326700210571289062500000000f,0.68473666906356811523437500000000f,-0.25001233816146850585937500000000f,-1.06036877632141113281250000000000f,1.16897881031036376953125000000000f,-0.85390448570251464843750000000000f,-1.72149682044982910156250000000000f,1.38917016983032226562500000000000f,1.21589350700378417968750000000000f,1.64784598350524902343750000000000f,1.40695631504058837890625000000000f,1.49943470954895019531250000000000f,-0.83379578590393066406250000000000f,2.30623173713684082031250000000000f,2.34782719612121582031250000000000f,-0.76933658123016357421875000000000f,-3.24623036384582519531250000000000f,-2.05666589736938476562500000000000f,1.37546944618225097656250000000000f,4.64823722839355468750000000000000f,-1.00807058811187744140625000000000f,0.78333181142807006835937500000000f,-0.58721035718917846679687500000000f,1.76877009868621826171875000000000f,0.10452050715684890747070312500000f,1.39228713512420654296875000000000f,-0.88526827096939086914062500000000f,-0.36689108610153198242187500000000f,1.97663319110870361328125000000000f,0.47011059522628784179687500000000f,1.98491573333740234375000000000000f,1.02895557880401611328125000000000f,-1.20710921287536621093750000000000f,0.97495043277740478515625000000000f,0.56138861179351806640625000000000f,-5.85805130004882812500000000000000f,0.10568289458751678466796875000000f,0.17265228927135467529296875000000f,3.05630564689636230468750000000000f,0.13033615052700042724609375000000f,-0.93570840358734130859375000000000f,0.63743692636489868164062500000000f,1.56833386421203613281250000000000f,2.05272388458251953125000000000000f,-0.89302128553390502929687500000000f,-1.47306823730468750000000000000000f,0.66188251972198486328125000000000f,-0.50517046451568603515625000000000f,-1.01808559894561767578125000000000f,0.21186907589435577392578125000000f,-2.35280966758728027343750000000000f,-2.21200585365295410156250000000000f,-0.07811895012855529785156250000000f,1.80333602428436279296875000000000f,-0.97241574525833129882812500000000f,0.77841389179229736328125000000000f,-0.24081741273403167724609375000000f,0.27546319365501403808593750000000f,0.47805556654930114746093750000000f,0.27919432520866394042968750000000f,-0.04165266454219818115234375000000f,0.12320870161056518554687500000000f,1.33568346500396728515625000000000f,0.02433574199676513671875000000000f,0.31161051988601684570312500000000f,0.29334995150566101074218750000000f,-0.90379196405410766601562500000000f,-0.46284657716751098632812500000000f,0.49068871140480041503906250000000f,-0.80492752790451049804687500000000f,-1.26736247539520263671875000000000f,0.62440878152847290039062500000000f,-0.12585228681564331054687500000000f,0.06188612803816795349121093750000f,0.29923728108406066894531250000000f,0.86575269699096679687500000000000f,-0.32706049084663391113281250000000f,-0.71817111968994140625000000000000f,0.95761340856552124023437500000000f,-0.51206719875335693359375000000000f,-0.31152856349945068359375000000000f,-0.12696298956871032714843750000000f,-0.07640862464904785156250000000000f,0.70311909914016723632812500000000f,-0.34117031097412109375000000000000f,-0.81512069702148437500000000000000f,-0.15915383398532867431640625000000f,1.87302768230438232421875000000000f,0.02620267309248447418212890625000f,-0.70689237117767333984375000000000f,-0.47661003470420837402343750000000f,-0.89587885141372680664062500000000f,1.20690011978149414062500000000000f,0.05569163709878921508789062500000f,-0.67705100774765014648437500000000f,0.53968727588653564453125000000000f,-0.64110976457595825195312500000000f,0.71688729524612426757812500000000f,0.10197283327579498291015625000000f,-2.11880016326904296875000000000000f,0.89810836315155029296875000000000f,-1.26053678989410400390625000000000f,-0.12295437604188919067382812500000f,3.66266679763793945312500000000000f,-0.51343601942062377929687500000000f,0.29835623502731323242187500000000f,0.95130640268325805664062500000000f,0.83423966169357299804687500000000f,-0.66921025514602661132812500000000f,-1.40063166618347167968750000000000f,0.20083133876323699951171875000000f,-0.26742440462112426757812500000000f,0.20471321046352386474609375000000f,-3.49495267868041992187500000000000f,-1.73902738094329833984375000000000f,0.24075599014759063720703125000000f,0.29295033216476440429687500000000f,0.05874668061733245849609375000000f,-0.57498288154602050781250000000000f,0.25193965435028076171875000000000f,-0.76167953014373779296875000000000f,0.88756960630416870117187500000000f,1.12013316154479980468750000000000f,-1.53445410728454589843750000000000f,-2.41043615341186523437500000000000f,-0.89672589302062988281250000000000f,2.19216632843017578125000000000000f,1.26799905300140380859375000000000f,-1.00949311256408691406250000000000f,3.16706895828247070312500000000000f,0.06724356114864349365234375000000f,-0.36418220400810241699218750000000f,1.04779839515686035156250000000000f,-1.10827338695526123046875000000000f,2.01985979080200195312500000000000f,1.10768747329711914062500000000000f,-1.45579290390014648437500000000000f,2.26346349716186523437500000000000f,0.79823249578475952148437500000000f,0.17891408503055572509765625000000f,-1.21905422210693359375000000000000f,0.82002890110015869140625000000000f,0.44499367475509643554687500000000f,-1.10019624233245849609375000000000f,1.60180592536926269531250000000000f,0.25243869423866271972656250000000f,-1.99437320232391357421875000000000f,-1.09704744815826416015625000000000f,-1.20784592628479003906250000000000f,-0.99172753095626831054687500000000f,0.53778284788131713867187500000000f,0.09299297630786895751953125000000f,1.22919571399688720703125000000000f,-0.64973282814025878906250000000000f,-0.05006716027855873107910156250000f,2.49405407905578613281250000000000f,1.57832491397857666015625000000000f,0.29025590419769287109375000000000f,1.00797080993652343750000000000000f,1.35579347610473632812500000000000f,-1.07029080390930175781250000000000f,0.97836786508560180664062500000000f,-1.80295121669769287109375000000000f,0.41783159971237182617187500000000f,0.51824265718460083007812500000000f,2.12190723419189453125000000000000f,0.95676672458648681640625000000000f,-4.96937513351440429687500000000000f,-1.06772887706756591796875000000000f,0.75167155265808105468750000000000f,0.49862682819366455078125000000000f,-0.83550876379013061523437500000000f,-1.11158585548400878906250000000000f,-3.11036968231201171875000000000000f,0.75552272796630859375000000000000f,-0.77530330419540405273437500000000f,-0.75013440847396850585937500000000f,4.80551004409790039062500000000000f,0.07664334028959274291992187500000f,-1.33861112594604492187500000000000f,0.89596438407897949218750000000000f,-1.05537474155426025390625000000000f,-0.97552812099456787109375000000000f,1.55322730541229248046875000000000f,2.53076148033142089843750000000000f,1.34718132019042968750000000000000f,1.81673336029052734375000000000000f,1.81251466274261474609375000000000f,0.76748436689376831054687500000000f,-0.70088547468185424804687500000000f,-1.91842782497406005859375000000000f,1.96705472469329833984375000000000f,-1.22099733352661132812500000000000f,1.09453761577606201171875000000000f,-0.15772865712642669677734375000000f,-0.70808202028274536132812500000000f,1.45359468460083007812500000000000f,-1.33545756340026855468750000000000f,3.84583377838134765625000000000000f,1.14502906799316406250000000000000f,0.48105180263519287109375000000000f,0.06120568886399269104003906250000f,0.62034344673156738281250000000000f,1.44111704826354980468750000000000f,-1.50735139846801757812500000000000f,-0.00218051322735846042633056640625f,1.43986737728118896484375000000000f,-1.62483644485473632812500000000000f,0.50271385908126831054687500000000f,0.29350915551185607910156250000000f,2.19873309135437011718750000000000f,-0.23942047357559204101562500000000f,-1.73401510715484619140625000000000f,2.67390322685241699218750000000000f,1.58641457557678222656250000000000f,0.84887117147445678710937500000000f,1.67669808864593505859375000000000f,2.65460896492004394531250000000000f,-0.58281594514846801757812500000000f,-0.44663313031196594238281250000000f,1.49344801902770996093750000000000f,0.21678301692008972167968750000000f,1.30124914646148681640625000000000f,1.84118652343750000000000000000000f,-1.71747326850891113281250000000000f,0.23997552692890167236328125000000f,-0.77186566591262817382812500000000f,0.71942061185836791992187500000000f,-0.13863465189933776855468750000000f,0.62492883205413818359375000000000f,1.57609975337982177734375000000000f,0.59957683086395263671875000000000f,-1.22058558464050292968750000000000f,1.16219317913055419921875000000000f,0.93709200620651245117187500000000f,-2.35574364662170410156250000000000f,-1.35267543792724609375000000000000f,-1.90989851951599121093750000000000f,1.18292808532714843750000000000000f,-0.96219903230667114257812500000000f,-1.70806396007537841796875000000000f,0.26906961202621459960937500000000f,0.66084575653076171875000000000000f,-1.33556151390075683593750000000000f,0.60454910993576049804687500000000f,-1.31309294700622558593750000000000f,-1.39061021804809570312500000000000f,1.85478055477142333984375000000000f,1.46429896354675292968750000000000f,0.58352118730545043945312500000000f,0.95385789871215820312500000000000f,0.99573957920074462890625000000000f,1.42988455295562744140625000000000f,0.16944848001003265380859375000000f,0.68665522336959838867187500000000f,0.80137628316879272460937500000000f,-0.45341816544532775878906250000000f,-0.84831565618515014648437500000000f,-0.24311496317386627197265625000000f,-0.25002360343933105468750000000000f,0.97218590974807739257812500000000f,-0.95324122905731201171875000000000f,1.32650220394134521484375000000000f,0.24644489586353302001953125000000f,1.03950166702270507812500000000000f,-1.38333678245544433593750000000000f,-0.04835726320743560791015625000000f,0.69457435607910156250000000000000f,-1.02638506889343261718750000000000f,0.01816238462924957275390625000000f,0.20473060011863708496093750000000f,-0.96654403209686279296875000000000f,-0.71320158243179321289062500000000f,-0.19093424081802368164062500000000f,0.01338279992341995239257812500000f,0.36037456989288330078125000000000f,-0.55640298128128051757812500000000f,-1.36752843856811523437500000000000f,0.16255412995815277099609375000000f,0.48822641372680664062500000000000f,0.47155144810676574707031250000000f,-1.39906609058380126953125000000000f,-0.02123631536960601806640625000000f,-1.36763632297515869140625000000000f,0.87260776758193969726562500000000f,0.06715830415487289428710937500000f,-0.39794135093688964843750000000000f,0.95405429601669311523437500000000f,-0.85166203975677490234375000000000f,0.19888490438461303710937500000000f,0.50832539796829223632812500000000f,0.21571892499923706054687500000000f,2.47775292396545410156250000000000f,-1.60618960857391357421875000000000f,-0.12119223177433013916015625000000f,4.43638467788696289062500000000000f,-0.79054230451583862304687500000000f,0.71827328205108642578125000000000f,0.90927147865295410156250000000000f,-0.74904763698577880859375000000000f,-0.92748838663101196289062500000000f,-1.71146285533905029296875000000000f,0.57878100872039794921875000000000f,-0.55035221576690673828125000000000f,-0.53923571109771728515625000000000f,-5.09748458862304687500000000000000f,0.74822634458541870117187500000000f,1.55418527126312255859375000000000f,1.12888205051422119140625000000000f,-0.50178807973861694335937500000000f,-1.05787968635559082031250000000000f,0.47713223099708557128906250000000f,-0.03253817930817604064941406250000f,0.71208578348159790039062500000000f,0.35646557807922363281250000000000f,-1.94464468955993652343750000000000f,-1.65760302543640136718750000000000f,-0.06379864364862442016601562500000f,0.03261503577232360839843750000000f,1.01649463176727294921875000000000f,0.57786798477172851562500000000000f,-2.24750137329101562500000000000000f,-0.42933258414268493652343750000000f,0.26983472704887390136718750000000f,0.53483313322067260742187500000000f,-0.40579327940940856933593750000000f,-0.55870974063873291015625000000000f,0.64358818531036376953125000000000f,-1.51253259181976318359375000000000f,0.00999568309634923934936523437500f,-0.82980179786682128906250000000000f,-0.40716633200645446777343750000000f,-0.63145756721496582031250000000000f,-1.64944982528686523437500000000000f,-0.26092213392257690429687500000000f,-1.10185623168945312500000000000000f,2.80483222007751464843750000000000f,1.74003970623016357421875000000000f,-0.92578482627868652343750000000000f,-2.23968410491943359375000000000000f,-0.51270526647567749023437500000000f,-0.52642273902893066406250000000000f,1.10458910465240478515625000000000f,-0.39453080296516418457031250000000f,0.66775983572006225585937500000000f,-0.49035617709159851074218750000000f,-0.53961080312728881835937500000000f,0.23634718358516693115234375000000f,0.41210699081420898437500000000000f,0.46782559156417846679687500000000f,-1.20943677425384521484375000000000f,0.80064505338668823242187500000000f,-0.48964399099349975585937500000000f,0.40985026955604553222656250000000f,-0.77891838550567626953125000000000f,2.64549922943115234375000000000000f,0.09821604937314987182617187500000f,0.65917533636093139648437500000000f,-1.07904160022735595703125000000000f,-1.14629518985748291015625000000000f,-0.61100000143051147460937500000000f,0.36541703343391418457031250000000f,0.13124747574329376220703125000000f,-0.12297560274600982666015625000000f,-0.66780060529708862304687500000000f,-2.06382441520690917968750000000000f,0.28956782817840576171875000000000f,-0.48187988996505737304687500000000f,0.08179882913827896118164062500000f,1.07190668582916259765625000000000f,0.06896621733903884887695312500000f,-0.86357837915420532226562500000000f,0.64749234914779663085937500000000f,-0.19121420383453369140625000000000f,-0.46999984979629516601562500000000f,0.87989336252212524414062500000000f,-1.11108279228210449218750000000000f,1.01087784767150878906250000000000f,0.83256101608276367187500000000000f,0.95614713430404663085937500000000f,0.38090273737907409667968750000000f,0.16619688272476196289062500000000f,0.05932734906673431396484375000000f,1.42009460926055908203125000000000f,0.78273099660873413085937500000000f,-2.02744317054748535156250000000000f,-0.02117300033569335937500000000000f,0.29726418852806091308593750000000f,0.85211026668548583984375000000000f,-0.32995268702507019042968750000000f,-0.63128584623336791992187500000000f,0.27813827991485595703125000000000f,-1.74547171592712402343750000000000f,-1.77947759628295898437500000000000f,-0.97746646404266357421875000000000f,-0.00005838680954184383153915405273f,-1.05630874633789062500000000000000f,-2.47899770736694335937500000000000f,-1.47972798347473144531250000000000f,-1.69685137271881103515625000000000f,1.78544580936431884765625000000000f,2.11804676055908203125000000000000f,0.90806788206100463867187500000000f,-4.06397581100463867187500000000000f,-0.79686880111694335937500000000000f,1.41643786430358886718750000000000f,1.06297779083251953125000000000000f,-1.00482141971588134765625000000000f,1.09066951274871826171875000000000f,1.61970198154449462890625000000000f,-0.48538929224014282226562500000000f,-0.27581447362899780273437500000000f,0.36482733488082885742187500000000f,0.61039149761199951171875000000000f,-1.10653424263000488281250000000000f,1.12451803684234619140625000000000f,-0.71072816848754882812500000000000f,-0.45155832171440124511718750000000f,-0.25225496292114257812500000000000f,5.68004465103149414062500000000000f,-0.61086350679397583007812500000000f,0.41213905811309814453125000000000f,-1.51111257076263427734375000000000f,0.42371961474418640136718750000000f,-0.72032153606414794921875000000000f,0.59676873683929443359375000000000f,0.13969485461711883544921875000000f,-0.19459655880928039550781250000000f,-0.85231626033782958984375000000000f,-1.85654032230377197265625000000000f,0.62659859657287597656250000000000f,-0.95946168899536132812500000000000f,-0.45036607980728149414062500000000f,0.02594907768070697784423828125000f,0.23997598886489868164062500000000f,1.45857536792755126953125000000000f,1.21624279022216796875000000000000f,-0.13686648011207580566406250000000f,-0.91575717926025390625000000000000f,1.03299045562744140625000000000000f,-1.06392860412597656250000000000000f,0.48098871111869812011718750000000f,0.53020942211151123046875000000000f,0.77212846279144287109375000000000f,0.92597830295562744140625000000000f,0.17851546406745910644531250000000f,-0.14002016186714172363281250000000f,0.57597231864929199218750000000000f,0.34007513523101806640625000000000f,0.25527793169021606445312500000000f,-0.32435569167137145996093750000000f,0.27360489964485168457031250000000f,0.54353487491607666015625000000000f,-0.39091971516609191894531250000000f,-0.64464503526687622070312500000000f,0.03082158789038658142089843750000f,-0.36437904834747314453125000000000f,-0.66686701774597167968750000000000f,-0.29613524675369262695312500000000f,-0.14235979318618774414062500000000f,-0.70604407787322998046875000000000f,0.21173149347305297851562500000000f,-0.83264756202697753906250000000000f,-0.72378504276275634765625000000000f,-0.24031063914299011230468750000000f,0.11746285110712051391601562500000f,0.05852827057242393493652343750000f,-0.94469755887985229492187500000000f,-0.26153686642646789550781250000000f,-0.88497358560562133789062500000000f,-0.74407231807708740234375000000000f,-1.19118750095367431640625000000000f,0.56888896226882934570312500000000f,-1.03374576568603515625000000000000f,-0.75217181444168090820312500000000f,-0.71789270639419555664062500000000f,0.10775638371706008911132812500000f,0.13297055661678314208984375000000f,0.21915298700332641601562500000000f,0.50931894779205322265625000000000f,-0.30637443065643310546875000000000f,0.49732697010040283203125000000000f,0.36759078502655029296875000000000f,1.77142560482025146484375000000000f,0.55340886116027832031250000000000f,-0.85334634780883789062500000000000f,-0.03653210774064064025878906250000f,0.63222575187683105468750000000000f,-0.25410586595535278320312500000000f,0.30693012475967407226562500000000f,0.48098748922348022460937500000000f,0.04840376973152160644531250000000f,-0.37619423866271972656250000000000f,-1.11403667926788330078125000000000f,0.39598101377487182617187500000000f,-0.38252648711204528808593750000000f,-0.36914575099945068359375000000000f,-1.01209795475006103515625000000000f,0.59896516799926757812500000000000f,0.17980945110321044921875000000000f,-0.02676356211304664611816406250000f,0.19518543779850006103515625000000f,-0.73105597496032714843750000000000f,0.36928769946098327636718750000000f}; 
