#include <polimidl/layers/alignment.hpp>
alignas(polimidl::layers::buffer_alignment::byte_alignment) const float weight9[] = {0.06678024679422378540039062500000f,-0.02734555676579475402832031250000f,-0.28221192955970764160156250000000f,0.01174141187220811843872070312500f,-0.05657703801989555358886718750000f,-0.00678340112790465354919433593750f,-0.01566461101174354553222656250000f,0.43473172187805175781250000000000f,-0.10568311065435409545898437500000f,-0.03490911051630973815917968750000f,-0.00857828091830015182495117187500f,0.01003378164023160934448242187500f,-0.18751576542854309082031250000000f,-0.09314722567796707153320312500000f,-0.00808536913245916366577148437500f,-0.03379509598016738891601562500000f,-0.04372424259781837463378906250000f,0.02017673105001449584960937500000f,-0.01051206234842538833618164062500f,0.04189728945493698120117187500000f,-0.14370146393775939941406250000000f,0.06128095835447311401367187500000f,-0.01918810978531837463378906250000f,-0.19702629745006561279296875000000f,-0.02075479552149772644042968750000f,0.04555315896868705749511718750000f,-0.08638069033622741699218750000000f,-0.02262960933148860931396484375000f,-0.13476881384849548339843750000000f,0.01683301851153373718261718750000f,0.16695050895214080810546875000000f,-0.04491638764739036560058593750000f,0.49683105945587158203125000000000f,-0.05724224820733070373535156250000f,0.00000878877654031384736299514771f,0.01673447713255882263183593750000f,0.37903073430061340332031250000000f,-0.00000072095070891009527258574963f,-0.10068255662918090820312500000000f,0.22120593488216400146484375000000f,-0.38328453898429870605468750000000f,0.00000168403028055763570591807365f,-0.02255639992654323577880859375000f,-0.02809984050691127777099609375000f,0.00005090840204502455890178680420f,-0.07338707149028778076171875000000f,0.01418841909617185592651367187500f,-0.07785587757825851440429687500000f,-0.26005482673645019531250000000000f,0.12146269530057907104492187500000f,0.09204120188951492309570312500000f,0.12226481735706329345703125000000f,-0.43028759956359863281250000000000f,0.00000234366325457813218235969543f,-0.17508760094642639160156250000000f,-0.19750370085239410400390625000000f,-0.21096499264240264892578125000000f,0.09461240470409393310546875000000f,-0.00833350140601396560668945312500f,0.05069033801555633544921875000000f,0.00004989168883184902369976043701f,0.06102535501122474670410156250000f,0.24786825478076934814453125000000f,0.19941319525241851806640625000000f,-0.05964594706892967224121093750000f,0.18985162675380706787109375000000f,-0.00558538874611258506774902343750f,0.03258810937404632568359375000000f,-0.12102227658033370971679687500000f,0.00953345932066440582275390625000f,-0.14002282917499542236328125000000f,-0.29567405581474304199218750000000f,0.09586034715175628662109375000000f,0.01154793519526720046997070312500f,0.00542431045323610305786132812500f,0.04295270889997482299804687500000f,0.21602617204189300537109375000000f,-0.18315868079662322998046875000000f,0.03784764558076858520507812500000f,0.03043003007769584655761718750000f,-0.11806724220514297485351562500000f,-0.00387592473998665809631347656250f,-0.08437426388263702392578125000000f,0.05839568004012107849121093750000f,-0.00567372050136327743530273437500f,0.00105103477835655212402343750000f,-0.05894546955823898315429687500000f,0.00067654234590008854866027832031f,0.01751841790974140167236328125000f,-0.02747665345668792724609375000000f,0.11415040493011474609375000000000f,0.03246740251779556274414062500000f,0.00158344069495797157287597656250f,0.02479185536503791809082031250000f,0.14606261253356933593750000000000f,0.03184195607900619506835937500000f,0.35997894406318664550781250000000f,0.06293880194425582885742187500000f,-0.00000425368125434033572673797607f,-0.08494760096073150634765625000000f,0.13168440759181976318359375000000f,0.00001307347247347934171557426453f,-0.07397927343845367431640625000000f,-0.12319887429475784301757812500000f,-0.06433346122503280639648437500000f,-0.00000059285008546794415451586246f,0.00483190873637795448303222656250f,-0.00619893847033381462097167968750f,0.00000101199236723914509639143944f,-0.01882300712168216705322265625000f,-0.06047182902693748474121093750000f,0.04230336844921112060546875000000f,-0.12310221791267395019531250000000f,0.18383005261421203613281250000000f,0.04927457123994827270507812500000f,0.01619539223611354827880859375000f,0.10273718088865280151367187500000f,0.00000038416351344494614750146866f,-0.08704423904418945312500000000000f,0.01200070977210998535156250000000f,0.18106515705585479736328125000000f,-0.04850269109010696411132812500000f,-0.01704539731144905090332031250000f,0.02955190837383270263671875000000f,-0.00000025014676907630928326398134f,-0.00026585601153783500194549560547f,-0.04774440824985504150390625000000f,0.09811880439519882202148437500000f,0.02937348373234272003173828125000f,0.00533653190359473228454589843750f,-0.01151537522673606872558593750000f,-0.06409702450037002563476562500000f,-0.00346375093795359134674072265625f,-0.19010882079601287841796875000000f,0.01717623509466648101806640625000f,-0.00926199927926063537597656250000f,0.01751772128045558929443359375000f,0.01045756414532661437988281250000f,0.00315350037999451160430908203125f,0.01783978193998336791992187500000f,0.05490266531705856323242187500000f,0.00047949029249139130115509033203f,0.01430717296898365020751953125000f,0.10158596932888031005859375000000f,-0.05438786000013351440429687500000f,0.01373725011944770812988281250000f,0.07056864351034164428710937500000f,0.01175494212657213211059570312500f,-0.04236859455704689025878906250000f,0.00349332764744758605957031250000f,0.00789952836930751800537109375000f,0.04659944400191307067871093750000f,0.13262057304382324218750000000000f,0.00815464928746223449707031250000f,0.00256304536014795303344726562500f,0.05395634099841117858886718750000f,-0.03815485164523124694824218750000f,-0.01258427556604146957397460937500f,-0.03011774271726608276367187500000f,-0.11919228732585906982421875000000f,-0.02358535863459110260009765625000f,0.01077053230255842208862304687500f,-0.00000476911554869730025529861450f,-0.11540109664201736450195312500000f,0.03243047744035720825195312500000f,-0.00000539738903171382844448089600f,-0.07624199986457824707031250000000f,-0.02265196852385997772216796875000f,-0.02082404494285583496093750000000f,-0.00002082276478176936507225036621f,0.29231920838356018066406250000000f,0.00262938253581523895263671875000f,0.00001143474855780368670821189880f,0.02243432030081748962402343750000f,0.39166641235351562500000000000000f,0.04266941547393798828125000000000f,0.04057179391384124755859375000000f,0.07833287864923477172851562500000f,0.02983576804399490356445312500000f,0.05350362882018089294433593750000f,-0.01643010973930358886718750000000f,0.00000339181019626266788691282272f,-0.01592329330742359161376953125000f,0.01017507165670394897460937500000f,-0.01259971410036087036132812500000f,0.03846970945596694946289062500000f,0.05601738765835762023925781250000f,0.00274320738390088081359863281250f,-0.00001134792000812012702226638794f,0.01675836741924285888671875000000f,-0.02817931957542896270751953125000f,0.00792028196156024932861328125000f,0.01254281308501958847045898437500f,-0.04664957523345947265625000000000f,0.17203469574451446533203125000000f,-0.04839656874537467956542968750000f,0.13639239966869354248046875000000f,-0.03116714209318161010742187500000f,-0.61072611808776855468750000000000f,0.00730120064690709114074707031250f,0.00174601655453443527221679687500f,-0.02418418228626251220703125000000f,-0.00995126180350780487060546875000f,0.01897765696048736572265625000000f,-0.02125026844441890716552734375000f,0.04962321370840072631835937500000f,-0.01351288054138422012329101562500f,-0.00933416280895471572875976562500f,-0.03061531670391559600830078125000f,-0.01389872934669256210327148437500f,0.00330988992936909198760986328125f,-0.01666581258177757263183593750000f,0.03699170425534248352050781250000f,0.02911503426730632781982421875000f,0.00146401335950940847396850585938f,0.04048345983028411865234375000000f,-0.00308636249974370002746582031250f,0.00888887327164411544799804687500f,-0.23589399456977844238281250000000f,-0.00524192862212657928466796875000f,0.01730404980480670928955078125000f,0.09675517678260803222656250000000f,-0.09222909808158874511718750000000f,0.01031675934791564941406250000000f,0.00539930444210767745971679687500f,0.18972621858119964599609375000000f,-0.00000892595016921404749155044556f,-0.07142949849367141723632812500000f,-0.04611360654234886169433593750000f,-0.00002238834349554963409900665283f,0.02498709596693515777587890625000f,0.00926576927304267883300781250000f,0.06031964346766471862792968750000f,-0.00001381981655868003144860267639f,-0.04112150892615318298339843750000f,0.00508079258725047111511230468750f,0.00002487367055437061935663223267f,-0.12831744551658630371093750000000f,0.02087224833667278289794921875000f,-0.02991491742432117462158203125000f,-0.00352516374550759792327880859375f,-0.01625692471861839294433593750000f,0.07521863281726837158203125000000f,0.00364649808034300804138183593750f,-0.05748244002461433410644531250000f,-0.00000875714977155439555644989014f,-0.04897571727633476257324218750000f,-0.01041925139725208282470703125000f,-0.07411938905715942382812500000000f,-0.00600789533928036689758300781250f,-0.01767613179981708526611328125000f,0.15088286995887756347656250000000f,-0.00000425386224378598853945732117f,-0.03723296895623207092285156250000f,-0.03395597636699676513671875000000f,-0.00373298814520239830017089843750f,0.04886813461780548095703125000000f,-0.09875363111495971679687500000000f,0.20808653533458709716796875000000f,0.01976422592997550964355468750000f,0.20176659524440765380859375000000f,-0.00299678090959787368774414062500f,-0.05195897817611694335937500000000f,-0.03781613335013389587402343750000f,-0.01438872702419757843017578125000f,0.01862729340791702270507812500000f,-0.02355148084461688995361328125000f,0.01029876060783863067626953125000f,-0.00469796452671289443969726562500f,0.06646658480167388916015625000000f,0.00019525423704180866479873657227f,-0.16310113668441772460937500000000f,0.04103400930762290954589843750000f,-0.00469967629760503768920898437500f,0.02179475128650665283203125000000f,0.01788548193871974945068359375000f,0.03723762184381484985351562500000f,-0.00120054825674742460250854492188f,-0.00447967322543263435363769531250f,-0.02516945078969001770019531250000f,0.01026135124266147613525390625000f,0.01084833778440952301025390625000f,0.47842836380004882812500000000000f,-0.01908438652753829956054687500000f,0.06069810315966606140136718750000f,0.90115970373153686523437500000000f,-0.06088870018720626831054687500000f,0.00000361384968528000172227621078f,0.00478771375492215156555175781250f,0.42774233222007751464843750000000f,-0.00001886217614810448139905929565f,-0.19347853958606719970703125000000f,0.02757008746266365051269531250000f,0.00002958097684313543140888214111f,0.00366699160076677799224853515625f,-0.18570820987224578857421875000000f,-0.28651943802833557128906250000000f,0.00000258347972703631967306137085f,-0.00268460693769156932830810546875f,0.02030133455991744995117187500000f,-0.00000381668951376923359930515289f,-0.27163147926330566406250000000000f,0.00910515058785676956176757812500f,-0.01172455400228500366210937500000f,-0.00582079263404011726379394531250f,0.02052031457424163818359375000000f,-0.08362708240747451782226562500000f,0.01685965433716773986816406250000f,0.12671664357185363769531250000000f,-0.00000168140252299053827300667763f,-0.12462405115365982055664062500000f,0.07316152751445770263671875000000f,-0.02010277099907398223876953125000f,0.01891168579459190368652343750000f,0.03896715119481086730957031250000f,-0.16423851251602172851562500000000f,0.00002042327469098381698131561279f,0.01182164158672094345092773437500f,0.07946062833070755004882812500000f,0.04465091973543167114257812500000f,-0.08333963155746459960937500000000f,-0.25316169857978820800781250000000f,-0.26044267416000366210937500000000f,0.00637229811400175094604492187500f,0.05839064344763755798339843750000f,-0.01726444810628890991210937500000f,0.08155460655689239501953125000000f,0.00766358291730284690856933593750f,0.01671215146780014038085937500000f,0.06253611296415328979492187500000f,0.00549666257575154304504394531250f,-0.00685152085497975349426269531250f,0.07551813125610351562500000000000f,-0.02012341842055320739746093750000f,0.00981793459504842758178710937500f,0.02057725004851818084716796875000f,-0.02115299552679061889648437500000f,-0.36288717389106750488281250000000f,0.00013130641309544444084167480469f,0.00292039732448756694793701171875f,-0.02959471195936203002929687500000f,-0.00719623127952218055725097656250f,0.00281146541237831115722656250000f,-0.05150388553738594055175781250000f,-0.01134753879159688949584960937500f,-0.02079800888895988464355468750000f,0.07311002165079116821289062500000f,0.00329813268035650253295898437500f,-0.01311177387833595275878906250000f,0.02974198944866657257080078125000f,0.01783989369869232177734375000000f,-0.00088836677605286240577697753906f,-0.05061838775873184204101562500000f,0.05983714759349822998046875000000f,0.00000955022915150038897991180420f,-0.01785408519208431243896484375000f,0.00633919937536120414733886718750f,0.00000458992099083843640983104706f,0.02253640070557594299316406250000f,1.02210104465484619140625000000000f,-0.06629842519760131835937500000000f,-0.00000575154808757361024618148804f,0.00922082085162401199340820312500f,0.00498070428147912025451660156250f,0.00000578115805183188058435916901f,0.01360625121742486953735351562500f,-0.00077272870112210512161254882812f,-0.00076378427911549806594848632812f,-0.06689163297414779663085937500000f,-0.01090938691049814224243164062500f,-0.02033991180360317230224609375000f,0.02461708523333072662353515625000f,0.05512158200144767761230468750000f,-0.00000044335070015222299844026566f,-0.27724149823188781738281250000000f,-0.01629198528826236724853515625000f,0.00104174122679978609085083007812f,0.00422503845766186714172363281250f,-0.07256483286619186401367187500000f,-0.04017537832260131835937500000000f,0.00001427615916327340528368949890f,0.03672404587268829345703125000000f,0.18593551218509674072265625000000f,-0.00684489123523235321044921875000f,-0.02238284610211849212646484375000f,-0.05851589888334274291992187500000f,-0.02666353248059749603271484375000f,0.04862223193049430847167968750000f,-0.04828642308712005615234375000000f,-0.04368672892451286315917968750000f,-0.00641049211844801902770996093750f,0.02419124171137809753417968750000f,-0.02436188980937004089355468750000f,-0.03288277983665466308593750000000f,0.01773096434772014617919921875000f,-0.18679851293563842773437500000000f,0.02947841398417949676513671875000f,-0.03925367072224617004394531250000f,0.01026635617017745971679687500000f,-0.03640566021203994750976562500000f,0.08673486858606338500976562500000f,0.01417178008705377578735351562500f,-0.04265994206070899963378906250000f,-0.01984788477420806884765625000000f,0.02874042466282844543457031250000f,-0.00396258709952235221862792968750f,0.16747827827930450439453125000000f,0.01787946559488773345947265625000f,-0.00218989024870097637176513671875f,-0.01615351811051368713378906250000f,-0.01343904156237840652465820312500f,0.02382137626409530639648437500000f,-0.02425460517406463623046875000000f,-0.00840325281023979187011718750000f,0.04349863529205322265625000000000f,-0.04823950305581092834472656250000f,0.04847577959299087524414062500000f,-0.01552617456763982772827148437500f,0.00000491555147164035588502883911f,0.02806478179991245269775390625000f,0.09905125945806503295898437500000f,-0.00000056541676940469187684357166f,0.42791005969047546386718750000000f,0.00522748287767171859741210937500f,-0.04938104376196861267089843750000f,0.00000599028544456814415752887726f,-0.10953812301158905029296875000000f,-0.02592069841921329498291015625000f,0.00001236076968780253082513809204f,0.00063656887505203485488891601562f,0.34828564524650573730468750000000f,-0.01326700113713741302490234375000f,-0.08685142546892166137695312500000f,0.03906604275107383728027343750000f,-0.02635625563561916351318359375000f,-0.03001269511878490447998046875000f,0.06725075840950012207031250000000f,0.00002443147968733683228492736816f,-0.04773651435971260070800781250000f,0.05672308802604675292968750000000f,0.37737649679183959960937500000000f,0.00116264610551297664642333984375f,-0.07018836587667465209960937500000f,0.01126216631382703781127929687500f,0.00001861905911937355995178222656f,-0.02064261399209499359130859375000f,0.07210898399353027343750000000000f,0.00898058339953422546386718750000f,0.00453796191141009330749511718750f,-0.01814457215368747711181640625000f,0.00147937529254704713821411132812f,-0.02385465241968631744384765625000f,0.05230649188160896301269531250000f,-0.18088200688362121582031250000000f,0.01716694608330726623535156250000f,0.02234661579132080078125000000000f,0.01428504008799791336059570312500f,-0.00968177337199449539184570312500f,0.00152008386794477701187133789062f,-0.01707034744322299957275390625000f,-0.04850790277123451232910156250000f,0.05514207482337951660156250000000f,-0.00103646621573716402053833007812f,-0.02709137648344039916992187500000f,-0.00228331726975739002227783203125f,-0.00218282686546444892883300781250f,-0.10055381059646606445312500000000f,-0.02361259423196315765380859375000f,-0.03604641929268836975097656250000f,-0.26663133502006530761718750000000f,0.58631396293640136718750000000000f,-0.06392035633325576782226562500000f,0.09369352459907531738281250000000f,0.26164743304252624511718750000000f,0.00671217637136578559875488281250f,-0.05255797877907752990722656250000f,-0.00576942879706621170043945312500f,0.00279740663245320320129394531250f,0.01706158183515071868896484375000f,-0.42990225553512573242187500000000f,0.01029150281101465225219726562500f,0.00864283740520477294921875000000f,0.00000100771910638286499306559563f,0.05575267598032951354980468750000f,-0.03705538809299468994140625000000f,0.00006785296136513352394104003906f,-0.11844156682491302490234375000000f,-0.00464557483792304992675781250000f,0.01961749605834484100341796875000f,0.00000815322164271492511034011841f,-0.27741435170173645019531250000000f,0.01003832463175058364868164062500f,-0.00001024926496029365807771682739f,0.02715888805687427520751953125000f,-0.25927227735519409179687500000000f,0.01405621971935033798217773437500f,0.02818707935512065887451171875000f,0.03401835262775421142578125000000f,-0.06685510277748107910156250000000f,0.00389144849032163619995117187500f,0.00567181268706917762756347656250f,-0.00000063822710671956883743405342f,0.00308059202507138252258300781250f,0.06515146791934967041015625000000f,-0.10356601327657699584960937500000f,-0.01831237040460109710693359375000f,0.04887715727090835571289062500000f,-0.02422832325100898742675781250000f,-0.00000571217151446035131812095642f,-0.00985432974994182586669921875000f,0.02068918198347091674804687500000f,-0.07320315390825271606445312500000f,-0.00546682160347700119018554687500f,-0.01591448858380317687988281250000f,0.07343448698520660400390625000000f,0.10444878041744232177734375000000f,-0.00275211897678673267364501953125f,-0.00652956683188676834106445312500f,-0.04515175521373748779296875000000f,-0.02271376736462116241455078125000f,-0.00570921180769801139831542968750f,-0.00896956771612167358398437500000f,0.00698996288701891899108886718750f,0.04375131800770759582519531250000f,-0.12332403659820556640625000000000f,-0.19027654826641082763671875000000f,0.02277230285108089447021484375000f,0.02997674793004989624023437500000f,0.00689161615446209907531738281250f,0.01604247465729713439941406250000f,0.02500431612133979797363281250000f,0.00072500080568715929985046386719f,0.01309023145586252212524414062500f,0.05647053942084312438964843750000f,-0.00159176148008555173873901367188f,0.03759212791919708251953125000000f,-0.04746647924184799194335937500000f,-0.03932444751262664794921875000000f,0.00133433274459093809127807617188f,0.21607081592082977294921875000000f,0.06613349169492721557617187500000f,0.03101480938494205474853515625000f,-0.04852060601115226745605468750000f,-0.02961150743067264556884765625000f,0.06768990308046340942382812500000f,-0.02882315032184123992919921875000f,0.00000265015728473372291773557663f,-0.00895040296018123626708984375000f,0.09475453943014144897460937500000f,-0.00000462963998870691284537315369f,-0.00038226888864301145076751708984f,-0.01907325908541679382324218750000f,0.02372870035469532012939453125000f,-0.00000026307205303055525291711092f,0.02630247175693511962890625000000f,0.15265835821628570556640625000000f,0.00001330581198999425396323204041f,-0.03134933114051818847656250000000f,-0.02995835244655609130859375000000f,0.36106979846954345703125000000000f,-0.00646160310134291648864746093750f,-0.03831888362765312194824218750000f,-0.20351910591125488281250000000000f,-0.00223864521831274032592773437500f,-0.00100700801704078912734985351562f,0.00000080065808560902951285243034f,-0.01724803633987903594970703125000f,-0.04475366696715354919433593750000f,-0.01335528120398521423339843750000f,0.76021790504455566406250000000000f,0.00386389484629034996032714843750f,-0.02519969455897808074951171875000f,-0.00001018231978378025814890861511f,-0.00460429070517420768737792968750f,-0.04770078510046005249023437500000f,-0.07832409441471099853515625000000f,-0.13884088397026062011718750000000f,-0.02278271876275539398193359375000f,-0.03104505501687526702880859375000f,-0.05428205057978630065917968750000f,0.04190139099955558776855468750000f,-0.05537838116288185119628906250000f,0.00736820138990879058837890625000f,-0.15845200419425964355468750000000f,-0.05706795677542686462402343750000f,-0.09064199775457382202148437500000f,-0.02021057531237602233886718750000f,0.03813155740499496459960937500000f,-0.28445029258728027343750000000000f,0.13166753947734832763671875000000f,-0.10372409969568252563476562500000f,0.01492232643067836761474609375000f,-0.11571067571640014648437500000000f,0.07297249883413314819335937500000f,0.01974823512136936187744140625000f,-0.01030487660318613052368164062500f,-0.12539376318454742431640625000000f,0.00560695119202136993408203125000f,-0.05720125138759613037109375000000f,0.03343990072607994079589843750000f,-0.01514383684843778610229492187500f,-0.00520913396030664443969726562500f,-0.01422630529850721359252929687500f,-0.02133836783468723297119140625000f,-0.14704667031764984130859375000000f,-0.04923912137746810913085937500000f,-0.02195608057081699371337890625000f,-0.01685803011059761047363281250000f,-0.06414323300123214721679687500000f,0.00537082599475979804992675781250f,-0.00001331635940005071461200714111f,0.12508313357830047607421875000000f,0.08358476310968399047851562500000f,-0.00000524467486684443429112434387f,0.07814385741949081420898437500000f,-0.02508593909442424774169921875000f,0.06968482583761215209960937500000f,0.00001881694151961710304021835327f,-0.02770787291228771209716796875000f,0.01824120245873928070068359375000f,-0.00000280911717709386721253395081f,-0.03937842324376106262207031250000f,-0.02132006175816059112548828125000f,-0.02539796195924282073974609375000f,0.04880057647824287414550781250000f,-0.01947091519832611083984375000000f,0.24653257429599761962890625000000f,0.18207313120365142822265625000000f,-0.04388697445392608642578125000000f,-0.00002157447306672111153602600098f,-0.13429588079452514648437500000000f,0.00341318314895033836364746093750f,-0.15895994007587432861328125000000f,0.00545214535668492317199707031250f,-0.23710000514984130859375000000000f,-0.16515071690082550048828125000000f,0.00000451149844593601301312446594f,-0.07313050329685211181640625000000f,-0.00109039049129933118820190429688f,0.12184493988752365112304687500000f,0.01645735464990139007568359375000f,0.36422231793403625488281250000000f,0.18156850337982177734375000000000f,-0.02146914415061473846435546875000f,-0.00367608340457081794738769531250f,-0.00761913042515516281127929687500f,0.02633028104901313781738281250000f,0.00193890754599124193191528320312f,0.01147492695599794387817382812500f,0.05430779978632926940917968750000f,-0.00180629058741033077239990234375f,-0.12915563583374023437500000000000f,0.19086191058158874511718750000000f,-0.10152460634708404541015625000000f,-0.07672762125730514526367187500000f,0.26818981766700744628906250000000f,0.04014511778950691223144531250000f,0.00268725305795669555664062500000f,-0.06296477466821670532226562500000f,0.06683390587568283081054687500000f,-0.11742977797985076904296875000000f,-0.01824416778981685638427734375000f,0.01625636406242847442626953125000f,-0.03551195934414863586425781250000f,0.00799823272973299026489257812500f,0.00550320651382207870483398437500f,0.05290021374821662902832031250000f,0.03153092414140701293945312500000f,-0.02514882013201713562011718750000f,-0.02212071977555751800537109375000f,0.01683879643678665161132812500000f,-0.02407895028591156005859375000000f,-0.00001723732384562026709318161011f,0.06167357787489891052246093750000f,-0.00000113065323148475727066397667f,-0.05439219623804092407226562500000f,0.01640637405216693878173828125000f,0.00006731356552336364984512329102f,0.06948595494031906127929687500000f,0.10677134990692138671875000000000f,-0.15751719474792480468750000000000f,0.00000924336563912220299243927002f,0.03035007417201995849609375000000f,-0.01734784804284572601318359375000f,0.00002587779999885242432355880737f,0.01859155856072902679443359375000f,0.09609175473451614379882812500000f,0.11064446717500686645507812500000f,-0.21740534901618957519531250000000f,0.15484580397605895996093750000000f,0.11049243807792663574218750000000f,0.05260077491402626037597656250000f,-0.13933809101581573486328125000000f,-0.00000589623596169985830783843994f,0.16014218330383300781250000000000f,-0.01898225210607051849365234375000f,-0.27703946828842163085937500000000f,-0.13594320416450500488281250000000f,-0.03870861977338790893554687500000f,-0.01137399952858686447143554687500f,0.00000345055627803958486765623093f,0.02236163802444934844970703125000f,-0.17848773300647735595703125000000f,0.04103210195899009704589843750000f,0.02857746556401252746582031250000f,0.06220514327287673950195312500000f,-0.03183173015713691711425781250000f,-0.24247537553310394287109375000000f,-0.05497089400887489318847656250000f,0.01236533466726541519165039062500f,-0.07003632932901382446289062500000f,-0.00056037824833765625953674316406f,-0.00239193928427994251251220703125f,-0.01326824817806482315063476562500f,-0.00634219683706760406494140625000f,0.03323669359087944030761718750000f,-0.18701982498168945312500000000000f,0.45028632879257202148437500000000f,-0.00864297710359096527099609375000f,-0.02912681363523006439208984375000f,0.06217259913682937622070312500000f,0.01931645534932613372802734375000f,0.04105451703071594238281250000000f,0.01244527380913496017456054687500f,-0.00797003880143165588378906250000f,0.01965242810547351837158203125000f,0.04576289281249046325683593750000f,-0.03945256397128105163574218750000f,0.00813815370202064514160156250000f,0.02726114168763160705566406250000f,-0.03899802640080451965332031250000f,-0.02757209353148937225341796875000f,-0.01252997573465108871459960937500f,0.01707510650157928466796875000000f,0.15101048350334167480468750000000f,0.02810070477426052093505859375000f,0.03507311269640922546386718750000f,-0.07768245041370391845703125000000f,-0.00000908388028619810938835144043f,0.33538490533828735351562500000000f,0.14016845822334289550781250000000f,-0.00003169489355059340596199035645f,0.01080781687051057815551757812500f,-0.07289234548807144165039062500000f,0.05704643949866294860839843750000f,-0.00000699019392413902096450328827f,-0.01877307705581188201904296875000f,0.02346882596611976623535156250000f,-0.00002209485501225572079420089722f,-0.06780239939689636230468750000000f,0.04487377777695655822753906250000f,-0.07012035697698593139648437500000f,0.01024481374770402908325195312500f,0.05817762762308120727539062500000f,0.12551514804363250732421875000000f,0.00318921008147299289703369140625f,-0.03358339145779609680175781250000f,-0.00000092220847136559314094483852f,0.00468909833580255508422851562500f,-0.06224403530359268188476562500000f,0.01562485564500093460083007812500f,0.02400530688464641571044921875000f,-0.02850670926272869110107421875000f,-0.02715133130550384521484375000000f,-0.00000718282763045863248407840729f,-0.00114388437941670417785644531250f,0.08027880638837814331054687500000f,-0.07513079792261123657226562500000f,0.04517914727330207824707031250000f,-0.03271696716547012329101562500000f,0.78038257360458374023437500000000f,0.00094764382811263203620910644531f,-0.00443362444639205932617187500000f,-0.00274820346385240554809570312500f,-0.01436177734285593032836914062500f,0.06985747069120407104492187500000f,-0.09134865552186965942382812500000f,0.02715661190450191497802734375000f,0.04186394065618515014648437500000f,0.01514266990125179290771484375000f,0.12818630039691925048828125000000f,-0.07095988094806671142578125000000f,0.09218342602252960205078125000000f,-0.03643873706459999084472656250000f,0.09541037678718566894531250000000f,0.00539249647408723831176757812500f,0.01725485362112522125244140625000f,0.02721448615193367004394531250000f,0.00420384807512164115905761718750f,0.00392245315015316009521484375000f,-0.01972763054072856903076171875000f,0.04034615680575370788574218750000f,0.01011669356375932693481445312500f,0.00113458943087607622146606445312f,-0.01251416653394699096679687500000f,-0.01555405091494321823120117187500f,-0.07716767489910125732421875000000f,0.02433809638023376464843750000000f,0.02061732299625873565673828125000f,-0.00588840618729591369628906250000f,0.06953147798776626586914062500000f,-0.04477838426828384399414062500000f,-0.00000840324446471640840172767639f,-0.01102372631430625915527343750000f,0.11660134047269821166992187500000f,0.00000856231508805649355053901672f,-0.05513982847332954406738281250000f,-0.25992202758789062500000000000000f,0.74523949623107910156250000000000f,-0.00000110663529540033778175711632f,-0.00907246023416519165039062500000f,-0.00718242116272449493408203125000f,0.00002847010364348534494638442993f,0.01276866905391216278076171875000f,-0.02655334956943988800048828125000f,-0.01651688851416110992431640625000f,0.29820170998573303222656250000000f,0.03091291151940822601318359375000f,0.05705104023218154907226562500000f,0.07202050089836120605468750000000f,0.57534867525100708007812500000000f,-0.00000864423782331869006156921387f,0.80317586660385131835937500000000f,-0.06774063408374786376953125000000f,-0.00576825300231575965881347656250f,0.04249452427029609680175781250000f,-0.04599966481328010559082031250000f,-0.05338342860341072082519531250000f,0.00000390061541111208498477935791f,0.06695991754531860351562500000000f,-0.63639092445373535156250000000000f,0.15745127201080322265625000000000f,-0.00932904519140720367431640625000f,-0.04075126349925994873046875000000f,-0.08271642029285430908203125000000f,-0.37264385819435119628906250000000f,0.19087509810924530029296875000000f,-0.00108779943548142910003662109375f,-0.15348747372627258300781250000000f,0.06061088666319847106933593750000f,0.01571936719119548797607421875000f,-0.04848254099488258361816406250000f,-0.01359717920422554016113281250000f,-0.03955123573541641235351562500000f,0.07268065959215164184570312500000f,-0.05068168416619300842285156250000f,0.05753379687666893005371093750000f,0.10572739690542221069335937500000f,0.11405537277460098266601562500000f,0.01248197536915540695190429687500f,0.01008034963160753250122070312500f,-0.08054460585117340087890625000000f,-0.03398025780916213989257812500000f,-0.00099527754355221986770629882812f,0.04931966587901115417480468750000f,0.06473726779222488403320312500000f,0.01834088191390037536621093750000f,0.03420970216393470764160156250000f,-0.16297395527362823486328125000000f,-0.01592393964529037475585937500000f,0.01345201767981052398681640625000f,0.26677224040031433105468750000000f,0.08725874871015548706054687500000f,-0.00432035606354475021362304687500f,-0.02225674316287040710449218750000f,0.15115465223789215087890625000000f,-0.00000517417447554180398583412170f,-0.67750847339630126953125000000000f,-0.04151701927185058593750000000000f,-0.00001882347714854404330253601074f,0.07426930218935012817382812500000f,0.02855466678738594055175781250000f,0.06399001181125640869140625000000f,-0.00001299690939049469307065010071f,-0.01756664365530014038085937500000f,-0.01813661679625511169433593750000f,-0.00000579633478992036543786525726f,0.17941948771476745605468750000000f,0.06816720962524414062500000000000f,0.01088399160653352737426757812500f,0.23139350116252899169921875000000f,-0.04214365780353546142578125000000f,0.04537253454327583312988281250000f,-0.08223662525415420532226562500000f,-0.05444307625293731689453125000000f,-0.00000184533007541176630184054375f,0.03188831359148025512695312500000f,0.01041638385504484176635742187500f,-0.03533412143588066101074218750000f,-0.04236115887761116027832031250000f,-0.02303942851722240447998046875000f,0.05739071965217590332031250000000f,-0.00002245008181489538401365280151f,-0.00916697457432746887207031250000f,-0.04661623388528823852539062500000f,-0.02510766685009002685546875000000f,0.02979686856269836425781250000000f,-0.05349452421069145202636718750000f,-0.01807931624352931976318359375000f,0.04775105416774749755859375000000f,-0.00407067779451608657836914062500f,0.04937715828418731689453125000000f,0.00071503804065287113189697265625f,-0.01174433901906013488769531250000f,0.00052487582433968782424926757812f,0.01477845106273889541625976562500f,0.01681477203965187072753906250000f,0.43464484810829162597656250000000f,0.05872422084212303161621093750000f,-0.03049694374203681945800781250000f,-0.03830571845173835754394531250000f,0.08912289142608642578125000000000f,0.00699794059619307518005371093750f,-0.00049700849922373890876770019531f,0.02331581339240074157714843750000f,0.06216108426451683044433593750000f,0.00041956853237934410572052001953f,0.04317998886108398437500000000000f,0.21025072038173675537109375000000f,-0.01786254905164241790771484375000f,0.02245585806667804718017578125000f,0.07250585407018661499023437500000f,0.00811924505978822708129882812500f,-0.14166177809238433837890625000000f,-0.00065790762891992926597595214844f,0.00366184115409851074218750000000f,0.04295406490564346313476562500000f,-0.07308866828680038452148437500000f,-0.04486038535833358764648437500000f,0.00106110004708170890808105468750f,-0.00000319112587021663784980773926f,-0.00139472540467977523803710937500f,0.03455561399459838867187500000000f,0.00003443416790105402469635009766f,0.87110561132431030273437500000000f,0.02784908562898635864257812500000f,-0.00026081679970957338809967041016f,0.00001010210689855739474296569824f,-0.14913967251777648925781250000000f,-0.00546806305646896362304687500000f,-0.00000131289652927080169320106506f,0.03283207118511199951171875000000f,-0.73764872550964355468750000000000f,0.03908212855458259582519531250000f,0.03804112598299980163574218750000f,0.07653306424617767333984375000000f,0.04630494117736816406250000000000f,0.01953737251460552215576171875000f,0.00471213972195982933044433593750f,-0.00000773539795773103833198547363f,-0.02143673412501811981201171875000f,0.01176585443317890167236328125000f,-0.18349362909793853759765625000000f,-0.09737387299537658691406250000000f,-0.01590142399072647094726562500000f,-0.02032272145152091979980468750000f,0.00002274304097227286547422409058f,-0.01677657291293144226074218750000f,0.02638273872435092926025390625000f,0.01416184753179550170898437500000f,-0.01131973508745431900024414062500f,-0.08463507890701293945312500000000f,-0.00981443934142589569091796875000f,-0.19596110284328460693359375000000f,0.08876479417085647583007812500000f,-0.03062600269913673400878906250000f,-0.08742222934961318969726562500000f,0.07297229766845703125000000000000f,0.03962483629584312438964843750000f,0.00130445207469165325164794921875f,0.04317562282085418701171875000000f,-0.03694929555058479309082031250000f,-0.24139584600925445556640625000000f,-0.24872735142707824707031250000000f,0.03035296313464641571044921875000f,0.17889714241027832031250000000000f,-0.09252378344535827636718750000000f,0.03439205512404441833496093750000f,0.00302288262173533439636230468750f,-0.10227802395820617675781250000000f,-0.00588726298883557319641113281250f,-0.01362771540880203247070312500000f,0.06550510972738265991210937500000f,-0.03315674141049385070800781250000f,0.00634567346423864364624023437500f,-0.00088857306400313973426818847656f,-0.00389256165362894535064697265625f,-0.00776231754571199417114257812500f,-0.02911590225994586944580078125000f,-0.01583689637482166290283203125000f,-0.10262564569711685180664062500000f,0.06794180721044540405273437500000f,-0.06562668085098266601562500000000f,-0.09831269830465316772460937500000f,0.00000214724900615692604333162308f,-0.39457437396049499511718750000000f,-0.07572822272777557373046875000000f,0.00001940603578987065702676773071f,0.05594086274504661560058593750000f,0.00503121130168437957763671875000f,0.06981399655342102050781250000000f,-0.00001448151124350260943174362183f,0.04497360065579414367675781250000f,-0.00217546406202018260955810546875f,0.00000484881957163452170789241791f,-0.03614664077758789062500000000000f,0.00254136766307055950164794921875f,-0.01604647003114223480224609375000f,-0.01023978181183338165283203125000f,0.00937930401414632797241210937500f,-0.15920169651508331298828125000000f,-0.03647138923406600952148437500000f,0.02204119600355625152587890625000f,0.00000341628219757694751024246216f,0.03045755624771118164062500000000f,-0.07365901023149490356445312500000f,0.00206879107281565666198730468750f,0.02397239953279495239257812500000f,0.01895531453192234039306640625000f,0.00161718227900564670562744140625f,-0.00000951642596191959455609321594f,0.02596111968159675598144531250000f,0.07784751802682876586914062500000f,0.00046152650611475110054016113281f,0.00183199380990117788314819335938f,0.09246425330638885498046875000000f,-0.05900577828288078308105468750000f,0.07370428740978240966796875000000f,0.06412507593631744384765625000000f,-0.01434432808309793472290039062500f,-0.09517492353916168212890625000000f,-0.05245799198746681213378906250000f,0.07364720851182937622070312500000f,0.06423470377922058105468750000000f,-0.01089000329375267028808593750000f,0.03223023936152458190917968750000f,0.09778062254190444946289062500000f,0.07821146398782730102539062500000f,0.04879557713866233825683593750000f,-0.00794062297791242599487304687500f,0.03823320567607879638671875000000f,0.12803101539611816406250000000000f,0.02656619809567928314208984375000f,0.02731912583112716674804687500000f,0.05345822125673294067382812500000f,0.00455950014293193817138671875000f,-0.05580830574035644531250000000000f,-0.01631290279328823089599609375000f,0.00696115987375378608703613281250f,0.00237698620185256004333496093750f,0.01475103199481964111328125000000f,-0.00690996088087558746337890625000f,-0.01237524207681417465209960937500f,-0.35440456867218017578125000000000f,-0.05369212105870246887207031250000f,-0.02664021588861942291259765625000f,-0.09520334750413894653320312500000f,-0.18236930668354034423828125000000f,-0.00001031729425449157133698463440f,-0.02685969322919845581054687500000f,0.04523168876767158508300781250000f,0.00002242279333586338907480239868f,-0.03833023458719253540039062500000f,-0.09328597784042358398437500000000f,-0.08036152273416519165039062500000f,-0.00000349395509147143457084894180f,-0.00735925277695059776306152343750f,0.01359956525266170501708984375000f,-0.00000888468730408931151032447815f,0.06226008757948875427246093750000f,-0.01532468106597661972045898437500f,-0.04755228012800216674804687500000f,0.08487552404403686523437500000000f,0.01232332363724708557128906250000f,-0.16053117811679840087890625000000f,0.01667448505759239196777343750000f,0.01402003690600395202636718750000f,-0.00000040232538367490633390843868f,0.05010480806231498718261718750000f,-0.00597955193370580673217773437500f,0.10514914244413375854492187500000f,0.05252056196331977844238281250000f,0.05874630063772201538085937500000f,-0.70981532335281372070312500000000f,0.00002638132718857377767562866211f,0.02415732108056545257568359375000f,0.03045859746634960174560546875000f,0.03365455567836761474609375000000f,0.09105090051889419555664062500000f,-0.07698817551136016845703125000000f,-0.15533168613910675048828125000000f,0.24605776369571685791015625000000f,0.00113192212302237749099731445312f,-0.03598659485578536987304687500000f,-0.16170635819435119628906250000000f,0.00540773011744022369384765625000f,-0.03636846691370010375976562500000f,-0.07668669521808624267578125000000f,0.00536126038059592247009277343750f,-0.03529861196875572204589843750000f,-0.07424130290746688842773437500000f,-0.10763337463140487670898437500000f,-0.20368222892284393310546875000000f,0.02310652472078800201416015625000f,-0.11623366922140121459960937500000f,-0.00640992028638720512390136718750f,-0.02873737923800945281982421875000f,-0.10244629532098770141601562500000f,-0.02983585745096206665039062500000f,0.02523663640022277832031250000000f,0.04217082262039184570312500000000f,-0.02507077343761920928955078125000f,-0.03615642711520195007324218750000f,0.01367868296802043914794921875000f,-0.02241614647209644317626953125000f,0.00585735403001308441162109375000f,-0.12790466845035552978515625000000f,0.16678331792354583740234375000000f,-0.13804189860820770263671875000000f,0.03464469686150550842285156250000f,-0.19117705523967742919921875000000f,-0.00076102954335510730743408203125f,-0.00000495821677759522572159767151f,-0.24290415644645690917968750000000f,0.04934014007449150085449218750000f,-0.00004468457336770370602607727051f,0.07708092033863067626953125000000f,0.03372465446591377258300781250000f,-0.06215496733784675598144531250000f,0.00001357433757220860570669174194f,-0.08335005491971969604492187500000f,-0.00599620863795280456542968750000f,0.00000324904067383613437414169312f,0.09907117486000061035156250000000f,0.05885045602917671203613281250000f,-0.01023349165916442871093750000000f,-0.03097378648817539215087890625000f,-0.00487328181043267250061035156250f,0.08656799793243408203125000000000f,-0.00987082347273826599121093750000f,0.02171996980905532836914062500000f,-0.00000174650074313831282779574394f,-0.18938593566417694091796875000000f,0.06557072699069976806640625000000f,0.07759764790534973144531250000000f,0.01819347031414508819580078125000f,0.09215818345546722412109375000000f,-0.04265365749597549438476562500000f,-0.00000644802321403403766453266144f,-0.09769979864358901977539062500000f,-0.15425316989421844482421875000000f,0.24998521804809570312500000000000f,0.04633358493447303771972656250000f,0.03140912204980850219726562500000f,0.00280254450626671314239501953125f,0.00414860621094703674316406250000f,-0.00445346860215067863464355468750f,-0.14667652547359466552734375000000f,-0.01967103406786918640136718750000f,-0.06695631146430969238281250000000f,-0.01266456209123134613037109375000f,0.00689865741878747940063476562500f,0.00087335298303514719009399414062f,-0.05922698974609375000000000000000f,0.00153300538659095764160156250000f,-0.04004509001970291137695312500000f,-0.04945109412074089050292968750000f,0.01561412028968334197998046875000f,0.04600596800446510314941406250000f,-0.02405132725834846496582031250000f,0.06795869022607803344726562500000f,0.03182742744684219360351562500000f,-0.00989073514938354492187500000000f,-0.24032975733280181884765625000000f,0.45173025131225585937500000000000f,-0.01181520335376262664794921875000f,0.04853584244847297668457031250000f,0.13392932713031768798828125000000f,0.01127523276954889297485351562500f,-0.05752595886588096618652343750000f,-0.07059027999639511108398437500000f,0.00270500499755144119262695312500f,0.04767974838614463806152343750000f,-0.26745319366455078125000000000000f,-0.00611528428271412849426269531250f,-0.01354012079536914825439453125000f,-0.00000182618782673671375960111618f,-0.03667362034320831298828125000000f,0.04403440654277801513671875000000f,0.00002775629036477766931056976318f,-0.47390976548194885253906250000000f,-0.02506576292216777801513671875000f,0.02850578911602497100830078125000f,0.00001922722549352329224348068237f,-0.15102171897888183593750000000000f,-0.06060801446437835693359375000000f,0.00000558250212634447962045669556f,-0.02193072997033596038818359375000f,0.30903199315071105957031250000000f,0.00828078575432300567626953125000f,-0.04023614525794982910156250000000f,0.01384470053017139434814453125000f,0.06194612383842468261718750000000f,0.01435187272727489471435546875000f,0.02270081266760826110839843750000f,0.00000042105995134988916106522083f,-0.05124889686703681945800781250000f,-0.04443248733878135681152343750000f,-0.10202968120574951171875000000000f,-0.05131981521844863891601562500000f,0.01654241792857646942138671875000f,-0.02282291837036609649658203125000f,0.00000743148711990215815603733063f,-0.04611745849251747131347656250000f,0.01772243157029151916503906250000f,0.00292474427260458469390869140625f,-0.01373297814279794692993164062500f,-0.01274505909532308578491210937500f,-0.07866089046001434326171875000000f,-0.14772886037826538085937500000000f,0.04086981341242790222167968750000f,-0.03466898947954177856445312500000f,-0.02782558090984821319580078125000f,0.07753971219062805175781250000000f,0.04179742187261581420898437500000f,-0.02059040032327175140380859375000f,-0.00394744565710425376892089843750f,0.03158231079578399658203125000000f,0.08390984684228897094726562500000f,0.23434227705001831054687500000000f,0.00255305483005940914154052734375f,-0.02729198709130287170410156250000f,-0.00714386813342571258544921875000f,0.00180062407162040472030639648438f,0.05823872610926628112792968750000f,-0.14372687041759490966796875000000f,0.00688403705134987831115722656250f,0.01774663478136062622070312500000f,0.17014691233634948730468750000000f,0.00426812050864100456237792968750f,0.00180580001324415206909179687500f,0.02483191713690757751464843750000f,0.01644947938621044158935546875000f,-0.00931793823838233947753906250000f,0.05367819592356681823730468750000f,0.02222840674221515655517578125000f,0.01963743753731250762939453125000f,0.06755658239126205444335937500000f,-0.03039059229195117950439453125000f,-0.01636202447116374969482421875000f,-0.00000284947395812196191400289536f,-0.13075192272663116455078125000000f,0.03222464025020599365234375000000f,-0.00002119583223247900605201721191f,0.28678017854690551757812500000000f,0.03769113868474960327148437500000f,0.04474666714668273925781250000000f,0.00000789717887528240680694580078f,-0.07960874587297439575195312500000f,0.00050929159624502062797546386719f,0.00000174296667410089867189526558f,0.01969583705067634582519531250000f,0.21434469521045684814453125000000f,-0.07023332267999649047851562500000f,0.05329244211316108703613281250000f,0.06372020393610000610351562500000f,0.35583144426345825195312500000000f,-0.06308954954147338867187500000000f,-0.01950778253376483917236328125000f,-0.00000181037012225715443491935730f,-0.00179772078990936279296875000000f,-0.08151563256978988647460937500000f,0.21982611715793609619140625000000f,0.08109433948993682861328125000000f,0.06238666176795959472656250000000f,-0.01383303292095661163330078125000f,0.00000647213892079889774322509766f,-0.03855329006910324096679687500000f,-0.06825157999992370605468750000000f,-0.04365732520818710327148437500000f,0.01357772387564182281494140625000f,-0.00767394062131643295288085937500f,0.01404694560915231704711914062500f,-0.04356168210506439208984375000000f,0.01949865184724330902099609375000f,0.23732481896877288818359375000000f,0.01624421589076519012451171875000f,-0.00328535772860050201416015625000f,-0.01534100063145160675048828125000f,0.02930487878620624542236328125000f,0.00087094609625637531280517578125f,-0.18720236420631408691406250000000f,-0.00032627015025354921817779541016f,0.01438613235950469970703125000000f,-0.00725641800090670585632324218750f,0.04384297877550125122070312500000f,0.02458189427852630615234375000000f,0.01021677814424037933349609375000f,0.09446219354867935180664062500000f,0.01470853947103023529052734375000f,-0.05214103311300277709960937500000f,0.06543691456317901611328125000000f,-0.38985973596572875976562500000000f,-0.03995485976338386535644531250000f,0.04137236252427101135253906250000f,0.15333646535873413085937500000000f,-0.00866826996207237243652343750000f,-0.09835115075111389160156250000000f,0.06040368601679801940917968750000f,0.00203945930115878582000732421875f,0.03145581111311912536621093750000f,0.74221444129943847656250000000000f,0.00324530503712594509124755859375f,0.00163777533452957868576049804688f,-0.00000840386110212421044707298279f,0.02902173437178134918212890625000f,-0.00418513827025890350341796875000f,-0.00004242223076289519667625427246f,0.23168915510177612304687500000000f,0.01287264283746480941772460937500f,-0.00480837561190128326416015625000f,0.00001821924888645298779010772705f,0.40171957015991210937500000000000f,-0.02784238383173942565917968750000f,0.00001386795702273957431316375732f,0.03497618064284324645996093750000f,0.24245129525661468505859375000000f,0.00630558980628848075866699218750f,-0.02319515123963356018066406250000f,-0.05963612720370292663574218750000f,-0.04591779038310050964355468750000f,0.05494580045342445373535156250000f,-0.02281505800783634185791015625000f,0.00000577674973101238720118999481f,0.00633760727941989898681640625000f,0.04603846743702888488769531250000f,-0.03018563985824584960937500000000f,0.00324793462641537189483642578125f,0.03155737742781639099121093750000f,0.00433208886533975601196289062500f,-0.00001200009410240454599261283875f,-0.00389801664277911186218261718750f,0.00475192489102482795715332031250f,0.00238424725830554962158203125000f,0.33556681871414184570312500000000f,0.04226132482290267944335937500000f,-0.02776662819087505340576171875000f,0.13453713059425354003906250000000f,-0.02373233810067176818847656250000f,0.02983107231557369232177734375000f,-0.01423107739537954330444335937500f,-0.09200541675090789794921875000000f,-0.14033019542694091796875000000000f,0.49112239480018615722656250000000f,0.00119565392378717660903930664062f,-0.00855808425694704055786132812500f,0.03859650716185569763183593750000f,0.03134918957948684692382812500000f,-0.02440883964300155639648437500000f,-0.01762102730572223663330078125000f,-0.43508163094520568847656250000000f,-0.04090633243322372436523437500000f,0.01303758565336465835571289062500f,-0.02854182384908199310302734375000f,0.14293050765991210937500000000000f,0.02517133578658103942871093750000f,0.01158758625388145446777343750000f,0.14333188533782958984375000000000f,0.00454175472259521484375000000000f,0.00659350538626313209533691406250f,-0.00982345640659332275390625000000f,-0.02424147538840770721435546875000f,0.14315101504325866699218750000000f,0.01523447502404451370239257812500f,0.04856706783175468444824218750000f,0.01766569539904594421386718750000f,-0.08157796412706375122070312500000f,0.01698278076946735382080078125000f,-0.00000844205260364105924963951111f,0.04061892256140708923339843750000f,-0.00499679241329431533813476562500f,0.00000252224572250270284712314606f,-0.05599775910377502441406250000000f,0.08122598379850387573242187500000f,0.02335887588560581207275390625000f,0.00000732162015992798842489719391f,-0.02890654467046260833740234375000f,0.01026860717684030532836914062500f,0.00000302927514894690830260515213f,0.00125868618488311767578125000000f,-0.02409360371530055999755859375000f,-0.01461343746632337570190429687500f,-0.06373533606529235839843750000000f,0.02284025028347969055175781250000f,-0.02800177037715911865234375000000f,-0.41227561235427856445312500000000f,-0.00234307767823338508605957031250f,0.00000208196138373750727623701096f,-0.06705970317125320434570312500000f,0.10609109699726104736328125000000f,0.00620333757251501083374023437500f,0.00138335814699530601501464843750f,0.11423044651746749877929687500000f,-0.05403744056820869445800781250000f,-0.00003697046849993057548999786377f,0.43969982862472534179687500000000f,-0.02214073948562145233154296875000f,0.07995364069938659667968750000000f,-0.06022097542881965637207031250000f,0.01398987416177988052368164062500f,0.06733831018209457397460937500000f,0.01906286738812923431396484375000f,-0.10730127245187759399414062500000f,0.10662396252155303955078125000000f,-0.04050087183713912963867187500000f,0.03569863736629486083984375000000f,-0.01105618569999933242797851562500f,-0.03501635417342185974121093750000f,0.01693520322442054748535156250000f,-0.18568415939807891845703125000000f,0.01752856932580471038818359375000f,-0.00019163756223861128091812133789f,0.06260688602924346923828125000000f,0.15221883356571197509765625000000f,0.11031632125377655029296875000000f,0.03247683867812156677246093750000f,-0.05645752325654029846191406250000f,-0.06068386510014533996582031250000f,0.01638209261000156402587890625000f,-0.17686881124973297119140625000000f,0.12029131501913070678710937500000f,0.07042151689529418945312500000000f,0.10033015906810760498046875000000f,0.10580407828092575073242187500000f,-0.00331771420314908027648925781250f,-0.06356690078973770141601562500000f,-0.03507557138800621032714843750000f,-0.00065965123940259218215942382812f,0.02232653647661209106445312500000f,-0.15402773022651672363281250000000f,-0.09313431382179260253906250000000f,-0.01611407287418842315673828125000f,-0.00000090141662667519995011389256f,-0.01560601405799388885498046875000f,0.00975709594786167144775390625000f,-0.00001858450195868499577045440674f,0.31039854884147644042968750000000f,-0.07497706264257431030273437500000f,-0.04494293034076690673828125000000f,-0.00000650295578452642075717449188f,-0.02875612676143646240234375000000f,0.07724881917238235473632812500000f,-0.00000479813843412557616829872131f,0.04977795481681823730468750000000f,0.17572718858718872070312500000000f,0.00170528702437877655029296875000f,-0.01648889668285846710205078125000f,-0.04342482611536979675292968750000f,0.04312245175242424011230468750000f,0.02479206398129463195800781250000f,-0.08320204913616180419921875000000f,0.00000622390462012845091521739960f,0.06630080938339233398437500000000f,-0.01939690858125686645507812500000f,0.25277486443519592285156250000000f,-0.04806277900934219360351562500000f,-0.13520272076129913330078125000000f,-0.06363340467214584350585937500000f,-0.00000542910402145935222506523132f,0.05752714350819587707519531250000f,0.01292637456208467483520507812500f,0.12939909100532531738281250000000f,0.01071913540363311767578125000000f,0.13510435819625854492187500000000f,-0.01620429754257202148437500000000f,0.05664528161287307739257812500000f,-0.17167344689369201660156250000000f,0.00757284834980964660644531250000f,0.10180784016847610473632812500000f,-0.04054174944758415222167968750000f,0.02850171923637390136718750000000f,0.00321174110285937786102294921875f,-0.01626604609191417694091796875000f,0.01039629429578781127929687500000f,0.05063354596495628356933593750000f,-0.01710099168121814727783203125000f,0.00923950038850307464599609375000f,-0.00984776020050048828125000000000f,-0.01120124477893114089965820312500f,0.02247896231710910797119140625000f,0.00909319519996643066406250000000f,0.00816654507070779800415039062500f,-0.00422607921063899993896484375000f,-0.02646278776228427886962890625000f,0.02462764643132686614990234375000f,0.01710979826748371124267578125000f,0.01680235005915164947509765625000f,0.00022486734087578952312469482422f,-0.00826125126332044601440429687500f,0.01277499739080667495727539062500f,-0.00241127144545316696166992187500f,0.45970740914344787597656250000000f,-0.01474867481738328933715820312500f,0.01629083231091499328613281250000f,-0.05028323829174041748046875000000f,-0.25605586171150207519531250000000f,-0.00000055470263760071247816085815f,-0.16451437771320343017578125000000f,0.02391366101801395416259765625000f,-0.00000280176300293533131480216980f,-0.03965055197477340698242187500000f,0.02417765930294990539550781250000f,-0.02868440933525562286376953125000f,0.00001353844436380313709378242493f,0.01891661435365676879882812500000f,0.00100820756051689386367797851562f,-0.00001283692381548462435603141785f,0.08245409280061721801757812500000f,-0.00420432351529598236083984375000f,0.00625506229698657989501953125000f,-0.00499754678457975387573242187500f,-0.01803077198565006256103515625000f,0.02538747154176235198974609375000f,0.00130373099818825721740722656250f,-0.06827506422996520996093750000000f,-0.00000059842056998604675754904747f,-0.01534739602357149124145507812500f,0.00888371653854846954345703125000f,0.09758070856332778930664062500000f,-0.01035712007433176040649414062500f,0.03020276315510272979736328125000f,-0.19921703636646270751953125000000f,0.00000318302022606076207011938095f,-0.03059572353959083557128906250000f,-0.02146824263036251068115234375000f,-0.01640543714165687561035156250000f,0.03963620588183403015136718750000f,-0.26430776715278625488281250000000f,-0.02969594672322273254394531250000f,0.06014854460954666137695312500000f,-0.02409977279603481292724609375000f,0.06608379632234573364257812500000f,-0.03402280807495117187500000000000f,0.36391034722328186035156250000000f,-0.09416993707418441772460937500000f,-0.04965553805232048034667968750000f,0.02250931411981582641601562500000f,0.02645272761583328247070312500000f,0.16745223104953765869140625000000f,0.03260265663266181945800781250000f,0.12953895330429077148437500000000f,-0.17310693860054016113281250000000f,0.05393232405185699462890625000000f,-0.00454479129984974861145019531250f,0.02611767873167991638183593750000f,-0.02916036918759346008300781250000f,-0.21517151594161987304687500000000f,0.01906586997210979461669921875000f,-0.01175343897193670272827148437500f,-0.17739896476268768310546875000000f,0.03267752006649971008300781250000f,0.04376298934221267700195312500000f,-0.08825702220201492309570312500000f,-0.07970226556062698364257812500000f,-0.05593812838196754455566406250000f,-0.00150194705929607152938842773438f,0.00106600869912654161453247070312f,-0.06283910572528839111328125000000f,0.31161630153656005859375000000000f,-0.11297677457332611083984375000000f,0.00001116985731641761958599090576f,-0.05344044417142868041992187500000f,0.28105887770652770996093750000000f,-0.00002289286567247472703456878662f,-0.05265353247523307800292968750000f,-0.19304984807968139648437500000000f,0.13643959164619445800781250000000f,-0.00000548445905224070884287357330f,0.04629446938633918762207031250000f,0.06139593198895454406738281250000f,0.00000211648398362740408629179001f,-0.06194103509187698364257812500000f,0.00192652933765202760696411132812f,-0.06321286410093307495117187500000f,0.00346357841044664382934570312500f,-0.03860797733068466186523437500000f,-0.19330921769142150878906250000000f,0.06246374547481536865234375000000f,0.10689495503902435302734375000000f,-0.00000086628432427460211329162121f,0.05485208705067634582519531250000f,-0.15021838247776031494140625000000f,-0.04047274589538574218750000000000f,0.06927226483821868896484375000000f,0.02030144259333610534667968750000f,0.01434928085654973983764648437500f,-0.00001023824097501346841454505920f,0.07987229526042938232421875000000f,-0.03694739565253257751464843750000f,0.35644456744194030761718750000000f,0.02190962433815002441406250000000f,0.01993712596595287322998046875000f,0.03729348257184028625488281250000f,-0.02704919688403606414794921875000f,0.00703218765556812286376953125000f,-0.01490802504122257232666015625000f,-0.00307097076438367366790771484375f,-0.00062947446713224053382873535156f,0.02522937953472137451171875000000f,-0.02270012535154819488525390625000f,0.00812405347824096679687500000000f,-0.06642937660217285156250000000000f,-0.00870240107178688049316406250000f,0.05089608207345008850097656250000f,0.03699365258216857910156250000000f,-0.05176693573594093322753906250000f,0.12420491874217987060546875000000f,0.01907429657876491546630859375000f,-0.01081766188144683837890625000000f,-0.00409029703587293624877929687500f,0.01808892749249935150146484375000f,0.06045336276292800903320312500000f,-0.04503433033823966979980468750000f,0.03218220919370651245117187500000f,0.18295089900493621826171875000000f,-0.17647407948970794677734375000000f,-0.00645887944847345352172851562500f,-0.41599547863006591796875000000000f,0.06243352219462394714355468750000f,0.00481456657871603965759277343750f,0.01931849308311939239501953125000f,-0.02152187563478946685791015625000f,0.04127170145511627197265625000000f,-0.00524239847436547279357910156250f,0.00000445718387709348462522029877f,-0.01244233362376689910888671875000f,-0.01189532037824392318725585937500f,-0.00001295655420108232647180557251f,-0.06731917709112167358398437500000f,-0.00922592915594577789306640625000f,-0.00385415996424853801727294921875f,0.00002206194039899855852127075195f,0.02490955591201782226562500000000f,-0.92057603597640991210937500000000f,-0.00001457508187741041183471679688f,0.00099887943360954523086547851562f,0.10005298256874084472656250000000f,0.11334631592035293579101562500000f,0.01425959449261426925659179687500f,0.00089085241779685020446777343750f,0.07127208262681961059570312500000f,0.00208015553653240203857421875000f,-0.02692882716655731201171875000000f,-0.00001101988527807407081127166748f,-0.01557744666934013366699218750000f,-0.14101421833038330078125000000000f,-0.02605114318430423736572265625000f,0.23495784401893615722656250000000f,0.03185443952679634094238281250000f,0.01628362201154232025146484375000f,-0.00001896296271297615021467208862f,0.00765649462118744850158691406250f,-0.00518464064225554466247558593750f,-0.17154711484909057617187500000000f,-0.01900319010019302368164062500000f,0.04078182578086853027343750000000f,0.01198451872915029525756835937500f,-0.05509638041257858276367187500000f,-0.02012548223137855529785156250000f,0.08730663359165191650390625000000f,-0.01555273681879043579101562500000f,-0.03987206518650054931640625000000f,0.01282911282032728195190429687500f,-0.01586207188665866851806640625000f,0.00817142799496650695800781250000f,-0.16139660775661468505859375000000f,-0.00759015744552016258239746093750f,-0.02876535803079605102539062500000f,0.00095878634601831436157226562500f,0.06977153569459915161132812500000f,-0.01204904727637767791748046875000f,0.01871165819466114044189453125000f,0.09555310010910034179687500000000f,0.04206418991088867187500000000000f,0.04409599304199218750000000000000f,0.13289806246757507324218750000000f,-0.07616253197193145751953125000000f,0.00731907086446881294250488281250f,0.32727602124214172363281250000000f,-0.39531946182250976562500000000000f,0.00015495801926590502262115478516f,-0.08450955897569656372070312500000f,0.05771487951278686523437500000000f,-0.00467590568587183952331542968750f,0.03538309410214424133300781250000f,-0.00336377345956861972808837890625f,-0.02578705921769142150878906250000f,0.01192648801952600479125976562500f,0.00000057655694263303303159773350f,0.00991170946508646011352539062500f,-0.00884357653558254241943359375000f,0.00001903437805594876408576965332f,-0.00538817280903458595275878906250f,0.01337090786546468734741210937500f,-0.00896508339792490005493164062500f,0.00001127199720940552651882171631f,0.15837977826595306396484375000000f,-0.26642739772796630859375000000000f,0.00000429773035648395307362079620f,0.01009119674563407897949218750000f,0.12489996105432510375976562500000f,0.00005822157618240453302860260010f,-0.04744575917720794677734375000000f,-0.02963065542280673980712890625000f,-0.00233416678383946418762207031250f,-0.03326341509819030761718750000000f,-0.04469742253422737121582031250000f,0.00002086167296511121094226837158f,0.03425927832722663879394531250000f,-0.04102772846817970275878906250000f,0.09639773517847061157226562500000f,0.00345183419995009899139404296875f,-0.00765386736020445823669433593750f,-0.00693019200116395950317382812500f,0.00001065863216354046016931533813f,-0.04187306761741638183593750000000f,-0.00376526312902569770812988281250f,-0.03054922260344028472900390625000f,0.04277163743972778320312500000000f,-0.06659447401762008666992187500000f,-0.00710254209116101264953613281250f,-0.00206524343229830265045166015625f,-0.02414566278457641601562500000000f,-0.11174326390027999877929687500000f,0.02103605121374130249023437500000f,-0.02856308408081531524658203125000f,-0.00962601136416196823120117187500f,0.04166777804493904113769531250000f,-0.00382276857271790504455566406250f,-0.12075172364711761474609375000000f,-0.00329618016257882118225097656250f,0.00039501069113612174987792968750f,0.00366755458526313304901123046875f,-0.12669961154460906982421875000000f,-0.02265851944684982299804687500000f,-0.00270554050803184509277343750000f,0.14524193108081817626953125000000f,0.30333185195922851562500000000000f,-0.00864442996680736541748046875000f,0.00592608097940683364868164062500f,-0.01980593986809253692626953125000f,-0.00536732329055666923522949218750f,-0.01291272696107625961303710937500f,0.00650090444833040237426757812500f,-0.04765044897794723510742187500000f,0.00019698144751600921154022216797f,-0.05734646320343017578125000000000f,-0.01385862845927476882934570312500f,-0.02405392378568649291992187500000f,-0.09652534872293472290039062500000f,0.00664192810654640197753906250000f,0.02514586411416530609130859375000f,0.00000780801565269939601421356201f,0.02373852767050266265869140625000f,-0.04855003952980041503906250000000f,0.00017389892309438437223434448242f,-0.03440562263131141662597656250000f,0.00446785707026720046997070312500f,0.04029874876141548156738281250000f,-0.00000695706694386899471282958984f,-0.01420882996171712875366210937500f,0.00314270053058862686157226562500f,0.00000733945626052445732057094574f,0.00232703518122434616088867187500f,-0.05437803268432617187500000000000f,-0.00691897422075271606445312500000f,-0.03857618942856788635253906250000f,0.00479513173922896385192871093750f,-0.02373751066625118255615234375000f,-0.04916889965534210205078125000000f,-0.08644326031208038330078125000000f,-0.00001024023185891564935445785522f,-0.04081299901008605957031250000000f,-0.08021011948585510253906250000000f,0.14572259783744812011718750000000f,-0.00633193599060177803039550781250f,0.03522353619337081909179687500000f,0.00498045701533555984497070312500f,-0.00000697064979249262250959873199f,-0.05322286859154701232910156250000f,-0.05097069963812828063964843750000f,-0.10945940017700195312500000000000f,0.00894653424620628356933593750000f,-0.03272503986954689025878906250000f,-0.07615808397531509399414062500000f,-0.00448654033243656158447265625000f,0.03475496917963027954101562500000f,0.01202906761318445205688476562500f,0.00299863819964230060577392578125f,0.06542504578828811645507812500000f,-0.01541745197027921676635742187500f,0.13322733342647552490234375000000f,0.01724171638488769531250000000000f,0.03247954696416854858398437500000f,0.15652459859848022460937500000000f,0.02191947400569915771484375000000f,-0.28229933977127075195312500000000f,-0.02006363868713378906250000000000f,-0.23852735757827758789062500000000f,0.01498058345168828964233398437500f,-0.02089703269302845001220703125000f,-0.06776113063097000122070312500000f,-0.01864112168550491333007812500000f,0.01718100719153881072998046875000f,0.07846876978874206542968750000000f,0.05864551663398742675781250000000f,-0.02696171402931213378906250000000f,0.02199641801416873931884765625000f,-0.01556352246552705764770507812500f,0.04304450377821922302246093750000f,-0.18478153645992279052734375000000f,-0.01596024446189403533935546875000f,-0.02552852034568786621093750000000f,0.06464520096778869628906250000000f,-0.16218823194503784179687500000000f,-0.03231365978717803955078125000000f,-0.00001015521138469921424984931946f,0.03813577443361282348632812500000f,0.04496623948216438293457031250000f,-0.00002405782652203924953937530518f,0.19435569643974304199218750000000f,0.01016637682914733886718750000000f,0.02376765571534633636474609375000f,-0.00001733244971546810120344161987f,-0.03333315998315811157226562500000f,-0.02593105100095272064208984375000f,-0.00000767776691645849496126174927f,-0.03568873926997184753417968750000f,0.06935642659664154052734375000000f,-0.00450879288837313652038574218750f,0.03044361621141433715820312500000f,0.03613223508000373840332031250000f,-0.10992208868265151977539062500000f,-0.19215175509452819824218750000000f,0.04683491587638854980468750000000f,-0.00001030906969390343874692916870f,-0.00926553923636674880981445312500f,-0.03674574196338653564453125000000f,0.06866487115621566772460937500000f,0.00206514797173440456390380859375f,0.00147488969378173351287841796875f,0.00262852688319981098175048828125f,0.00001976879866560921072959899902f,-0.06637894362211227416992187500000f,0.01776755414903163909912109375000f,0.39624255895614624023437500000000f,-0.01649811118841171264648437500000f,0.04990456998348236083984375000000f,0.02098407223820686340332031250000f,0.09790541231632232666015625000000f,-0.04462315142154693603515625000000f,0.00678421370685100555419921875000f,0.00101215648464858531951904296875f,-0.19341252744197845458984375000000f,0.14554251730442047119140625000000f,0.15808559954166412353515625000000f,0.01041849143803119659423828125000f,-0.05014373734593391418457031250000f,-0.08024100959300994873046875000000f,-0.10975679755210876464843750000000f,-0.32413804531097412109375000000000f,0.06598761677742004394531250000000f,-0.03607164323329925537109375000000f,0.03034649416804313659667968750000f,-0.05171850323677062988281250000000f,-0.10962073504924774169921875000000f,0.02378367260098457336425781250000f,-0.00128296483308076858520507812500f,0.01188563089817762374877929687500f,0.04203569889068603515625000000000f,-0.01998705975711345672607421875000f,-0.02456795610487461090087890625000f,0.03020040690898895263671875000000f,0.04245954751968383789062500000000f,-0.04449367150664329528808593750000f,-0.02672206796705722808837890625000f,-0.05852853506803512573242187500000f,-0.04119786247611045837402343750000f,-0.27378123998641967773437500000000f,0.02600891143083572387695312500000f,0.00000945619467529468238353729248f,-0.01282410603016614913940429687500f,0.07715395092964172363281250000000f,-0.00000556128816242562606930732727f,0.06595506519079208374023437500000f,0.07911323010921478271484375000000f,-0.06681343168020248413085937500000f,-0.00001155782865680521354079246521f,-0.00579345319420099258422851562500f,-0.06914494931697845458984375000000f,-0.00002534143277443945407867431641f,0.04503914341330528259277343750000f,0.09208910167217254638671875000000f,0.04053712263703346252441406250000f,-0.06357659399509429931640625000000f,-0.12528224289417266845703125000000f,0.08103404939174652099609375000000f,0.05477526411414146423339843750000f,-0.00168525159824639558792114257812f,0.00000118794685022294288501143456f,-0.04336136206984519958496093750000f,0.22244642674922943115234375000000f,0.09983045607805252075195312500000f,0.01884338073432445526123046875000f,-0.17706474661827087402343750000000f,0.00487734796479344367980957031250f,-0.00004170133252046070992946624756f,-0.08799342811107635498046875000000f,0.02478219941258430480957031250000f,0.11386302858591079711914062500000f,0.01534614805132150650024414062500f,-0.01883516088128089904785156250000f,0.00355154322460293769836425781250f,-0.02251379750669002532958984375000f,0.00272815488278865814208984375000f,-0.03852324187755584716796875000000f,-0.00269718118943274021148681640625f,0.00785472337156534194946289062500f,-0.00119052443187683820724487304688f,-0.00100014719646424055099487304688f,-0.00102360744494944810867309570312f,-0.23109340667724609375000000000000f,-0.02435197681188583374023437500000f,-0.02294738031923770904541015625000f,-0.01639884896576404571533203125000f,-0.14286492764949798583984375000000f,-0.00879706628620624542236328125000f,-0.00035826556268148124217987060547f,-0.03722701966762542724609375000000f,-0.01553148683160543441772460937500f,-0.05541680008172988891601562500000f,-0.08479501307010650634765625000000f,-0.16754207015037536621093750000000f,-0.01074349693953990936279296875000f,0.25324574112892150878906250000000f,-0.13755004107952117919921875000000f,-0.01102848164737224578857421875000f,-0.14966578781604766845703125000000f,-0.01926848106086254119873046875000f,0.01081837434321641921997070312500f,-0.02661702409386634826660156250000f,0.24710880219936370849609375000000f,0.02909451350569725036621093750000f,-0.00608476111665368080139160156250f,0.00000093200316086949896998703480f,0.01393936015665531158447265625000f,0.04256768524646759033203125000000f,-0.00000495576659886864945292472839f,-0.12829744815826416015625000000000f,0.03047256171703338623046875000000f,0.00283492496237158775329589843750f,-0.00000119652327157382387667894363f,-0.24907526373863220214843750000000f,-0.20854222774505615234375000000000f,0.00001400767541781533509492874146f,0.00012445868924260139465332031250f,0.19561015069484710693359375000000f,0.10692083835601806640625000000000f,-0.00026573467766866087913513183594f,-0.09877684712409973144531250000000f,0.08978918194770812988281250000000f,0.00760837923735380172729492187500f,0.00107441027648746967315673828125f,-0.00000253538041761203203350305557f,-0.05349874123930931091308593750000f,-0.02809667214751243591308593750000f,0.00578558305278420448303222656250f,0.14856979250907897949218750000000f,-0.00986840575933456420898437500000f,0.02627065032720565795898437500000f,0.00003094391286140307784080505371f,0.01646855287253856658935546875000f,-0.00737868668511509895324707031250f,-0.04767473787069320678710937500000f,0.00060095294611528515815734863281f,-0.00605265609920024871826171875000f,0.00139506440609693527221679687500f,0.01144709158688783645629882812500f,0.00593311572447419166564941406250f,-0.38750076293945312500000000000000f,0.00661823060363531112670898437500f,0.00833965558558702468872070312500f,0.00757798692211508750915527343750f,-0.00025810138322412967681884765625f,0.02771414816379547119140625000000f,0.17718766629695892333984375000000f,0.02917247638106346130371093750000f,0.01786961778998374938964843750000f,0.00599258113652467727661132812500f,-0.00922526232898235321044921875000f,0.00401711463928222656250000000000f,0.01110058277845382690429687500000f,0.02605164982378482818603515625000f,-0.01143210474401712417602539062500f,0.00945347547531127929687500000000f,-0.14156262576580047607421875000000f,0.83453714847564697265625000000000f,0.00837357901036739349365234375000f,0.06000742688775062561035156250000f,-0.00183032138738781213760375976562f,-0.00180946534965187311172485351562f,0.05471010878682136535644531250000f,0.04823906347155570983886718750000f,-0.00344835966825485229492187500000f,-0.00475587742403149604797363281250f,-0.37215584516525268554687500000000f,0.00720057263970375061035156250000f,0.00538647361099720001220703125000f,-0.00000283130566458567045629024506f,0.01653726398944854736328125000000f,0.00752207636833190917968750000000f,0.00005795693869004026055335998535f,-0.30990418791770935058593750000000f,0.01239439751952886581420898437500f,-0.02415479160845279693603515625000f,0.00001545301711303181946277618408f,-0.41581171751022338867187500000000f,-0.01090791169553995132446289062500f,0.00002172688618884421885013580322f,-0.00442725885659456253051757812500f,-0.22520345449447631835937500000000f,-0.00129200820811092853546142578125f,0.04224157705903053283691406250000f,0.10780502855777740478515625000000f,0.00351589056663215160369873046875f,-0.01499218679964542388916015625000f,0.01728989370167255401611328125000f,0.00001079116645996691659092903137f,0.01539489906281232833862304687500f,0.00767843099310994148254394531250f,-0.04224392771720886230468750000000f,0.00177589745726436376571655273438f,0.00813094712793827056884765625000f,-0.02213729359209537506103515625000f,0.00000567744973523076623678207397f,0.00731060188263654708862304687500f,-0.00390702253207564353942871093750f,0.02071367390453815460205078125000f,-0.17813186347484588623046875000000f,0.01768253557384014129638671875000f,-0.00037985565722920000553131103516f,-0.06693508476018905639648437500000f,0.00878901407122611999511718750000f,-0.00107786140870302915573120117188f,-0.00837363675236701965332031250000f,0.06493441015481948852539062500000f,-0.10881241410970687866210937500000f,-0.21883580088615417480468750000000f,-0.00109150807838886976242065429688f,0.01238912437111139297485351562500f,0.09531214833259582519531250000000f,-0.02578288130462169647216796875000f,-0.18407335877418518066406250000000f,-0.01977723464369773864746093750000f,-0.05381191149353981018066406250000f,-0.01037050876766443252563476562500f,0.00105745391920208930969238281250f,-0.03467983379960060119628906250000f,-0.02940974943339824676513671875000f,0.02959770523011684417724609375000f,0.01376479305326938629150390625000f,-0.07220912724733352661132812500000f,-0.00924385711550712585449218750000f,-0.00460783112794160842895507812500f,-0.00491062039509415626525878906250f,-0.04252665489912033081054687500000f,-0.06773391366004943847656250000000f,0.01899352669715881347656250000000f,0.02746094390749931335449218750000f,0.01595131307840347290039062500000f,-0.17999051511287689208984375000000f,0.00628209812566637992858886718750f,0.00000567923143535153940320014954f,0.05909698083996772766113281250000f,-0.02878077886998653411865234375000f,0.00003585430386010557413101196289f,-0.00883157551288604736328125000000f,-0.00472417287528514862060546875000f,-0.07475826889276504516601562500000f,0.00000291108153760433197021484375f,-0.03048360534012317657470703125000f,0.02872668579220771789550781250000f,-0.00000116508181235985830426216125f,0.00803040433675050735473632812500f,0.01328270044177770614624023437500f,0.00765798846259713172912597656250f,0.00980802346020936965942382812500f,0.01891178637742996215820312500000f,-0.07679910212755203247070312500000f,0.21786655485630035400390625000000f,0.06041252240538597106933593750000f,0.00001120189972425578162074089050f,-0.02606082893908023834228515625000f,0.08883683383464813232421875000000f,-0.06538227200508117675781250000000f,-0.00559459254145622253417968750000f,0.22088220715522766113281250000000f,-0.04335396364331245422363281250000f,0.00000111872589059203164651989937f,-0.13677071034908294677734375000000f,-0.06710410118103027343750000000000f,-0.02452949061989784240722656250000f,0.01671699620783329010009765625000f,0.01190012041479349136352539062500f,0.06879337877035140991210937500000f,-0.16138786077499389648437500000000f,-0.00082074000965803861618041992188f,-0.00713636074215173721313476562500f,-0.01478848233819007873535156250000f,-0.03036425635218620300292968750000f,-0.00648824032396078109741210937500f,0.08292300999164581298828125000000f,-0.01738718338310718536376953125000f,0.03862240538001060485839843750000f,0.05214801058173179626464843750000f,0.19823965430259704589843750000000f,-0.01512007135897874832153320312500f,-0.15144741535186767578125000000000f,0.07312884926795959472656250000000f,0.01242483966052532196044921875000f,0.04116513207554817199707031250000f,0.00515804812312126159667968750000f,-0.04571051150560379028320312500000f,0.04089230298995971679687500000000f,0.07283603399991989135742187500000f,0.06076595932245254516601562500000f,-0.01011735200881958007812500000000f,-0.00287417857907712459564208984375f,0.00642537465319037437438964843750f,0.03249534964561462402343750000000f,-0.23677793145179748535156250000000f,0.02218253351747989654541015625000f,0.07904721051454544067382812500000f,0.02433027699589729309082031250000f,-0.05195827037096023559570312500000f,-0.01772940345108509063720703125000f,-0.00000066113602770201396197080612f,0.13468426465988159179687500000000f,-0.19684687256813049316406250000000f,-0.00000332655827151029370725154877f,0.00193173543084412813186645507812f,-0.01218802016228437423706054687500f,0.04375968873500823974609375000000f,-0.00001534178591100499033927917480f,0.02151536755263805389404296875000f,-0.03582272306084632873535156250000f,-0.00002782826413749717175960540771f,0.02584571205079555511474609375000f,0.02298728749155998229980468750000f,-0.06721108406782150268554687500000f,0.10222290456295013427734375000000f,-0.00229246146045625209808349609375f,0.15667703747749328613281250000000f,0.12143301963806152343750000000000f,0.08505000174045562744140625000000f,-0.00001391413934470620006322860718f,0.11696205288171768188476562500000f,0.20312005281448364257812500000000f,0.03476133942604064941406250000000f,0.03550234436988830566406250000000f,-0.08219808340072631835937500000000f,0.02041779085993766784667968750000f,-0.00003457960337982513010501861572f,0.01550398860126733779907226562500f,-0.02883974090218544006347656250000f,0.30254185199737548828125000000000f,0.19994975626468658447265625000000f,-0.04945841059088706970214843750000f,-0.04074505716562271118164062500000f,0.01581666059792041778564453125000f,-0.01798020489513874053955078125000f,-0.01602467708289623260498046875000f,-0.00619936035946011543273925781250f,0.50446778535842895507812500000000f,0.09211777895689010620117187500000f,0.18919523060321807861328125000000f,0.00866429321467876434326171875000f,0.04341973736882209777832031250000f,0.06042815744876861572265625000000f,0.01614974066615104675292968750000f,0.34786275029182434082031250000000f,0.00265690707601606845855712890625f,-0.14884820580482482910156250000000f,-0.02614613063633441925048828125000f,0.04787820205092430114746093750000f,0.02957530319690704345703125000000f,-0.12305482476949691772460937500000f,-0.07866970449686050415039062500000f,-0.07300822436809539794921875000000f,-0.55523079633712768554687500000000f,0.02787915803492069244384765625000f,-0.01938791759312152862548828125000f,0.01809709519147872924804687500000f,0.01403225492686033248901367187500f,0.01350764185190200805664062500000f,-0.00482666026800870895385742187500f,-0.06451693177223205566406250000000f,0.01114547345787286758422851562500f,0.16973724961280822753906250000000f,0.05104946717619895935058593750000f,-0.00000307370260088646318763494492f,-0.00898253545165061950683593750000f,-0.17139290273189544677734375000000f,0.00003696470230352133512496948242f,-0.04752917215228080749511718750000f,-0.21235476434230804443359375000000f,0.03476508334279060363769531250000f,0.00000509789970237761735916137695f,0.04314630106091499328613281250000f,0.01969667524099349975585937500000f,0.00003827552063739858567714691162f,0.00818477198481559753417968750000f,-0.05610721930861473083496093750000f,0.01545865647494792938232421875000f,0.01029416546225547790527343750000f,0.03667499870061874389648437500000f,-0.05357441306114196777343750000000f,-0.32156383991241455078125000000000f,-0.05977210402488708496093750000000f,0.00000122587118767114588990807533f,0.15647335350513458251953125000000f,-0.02973350510001182556152343750000f,0.16442835330963134765625000000000f,0.00685793999582529067993164062500f,-0.21810458600521087646484375000000f,0.03370956704020500183105468750000f,0.00000254859651249716989696025848f,-0.17061845958232879638671875000000f,-0.00700694881379604339599609375000f,-0.07732543349266052246093750000000f,0.22947029769420623779296875000000f,-0.03262711316347122192382812500000f,-0.02237653546035289764404296875000f,0.02071018144488334655761718750000f,0.05772612988948822021484375000000f,-0.01666470058262348175048828125000f,0.03594946488738059997558593750000f,-0.03838278353214263916015625000000f,-0.18941533565521240234375000000000f,0.02387226000428199768066406250000f,0.00324770621955394744873046875000f,0.00256047560833394527435302734375f,-0.01968296803534030914306640625000f,0.04406765475869178771972656250000f,0.09894486516714096069335937500000f,0.00670498237013816833496093750000f,0.01108732353895902633666992187500f,0.01972441934049129486083984375000f,-0.00628959340974688529968261718750f,0.02342947386205196380615234375000f,-0.11665140837430953979492187500000f,-0.12624105811119079589843750000000f,-0.07732615619897842407226562500000f,0.03797855600714683532714843750000f,0.03368405625224113464355468750000f,-0.03468063473701477050781250000000f,-0.01741421036422252655029296875000f,0.01282195653766393661499023437500f,-0.02298329211771488189697265625000f,0.02747149951756000518798828125000f,-0.01595268398523330688476562500000f,-0.01046926248818635940551757812500f,0.12337000668048858642578125000000f,0.04055244848132133483886718750000f,0.00000337821234097646083682775497f,-0.02707524225115776062011718750000f,-0.03383137658238410949707031250000f,0.00002316144491487648338079452515f,-0.00831453502178192138671875000000f,-0.02544255368411540985107421875000f,0.02183209173381328582763671875000f,0.00000017755002090780180878937244f,0.03682264685630798339843750000000f,-0.00494798179715871810913085937500f,0.00000549096330360043793916702271f,0.07357084751129150390625000000000f,-0.00896217580884695053100585937500f,0.00671527441591024398803710937500f,0.00641722092404961585998535156250f,0.00912502966821193695068359375000f,-0.01274863258004188537597656250000f,0.18073874711990356445312500000000f,-0.05144048109650611877441406250000f,0.00000253507187153445556759834290f,-0.05114018917083740234375000000000f,-0.01876697130501270294189453125000f,0.08000244945287704467773437500000f,-0.00424866052344441413879394531250f,-0.27407786250114440917968750000000f,-0.01601686701178550720214843750000f,0.00001066361710400087758898735046f,-0.11250988394021987915039062500000f,0.05167922005057334899902343750000f,-0.06553535908460617065429687500000f,-0.00584578188136219978332519531250f,0.04917022213339805603027343750000f,-0.00727455923333764076232910156250f,-0.01159843709319829940795898437500f,-0.01335731428116559982299804687500f,-0.51664072275161743164062500000000f,-0.02008536458015441894531250000000f,0.04916401952505111694335937500000f,-0.00276532559655606746673583984375f,0.00160782202146947383880615234375f,-0.00205930997617542743682861328125f,0.01413609273731708526611328125000f,0.05534269288182258605957031250000f,-0.01773960143327713012695312500000f,0.03378244116902351379394531250000f,0.06910495460033416748046875000000f,0.04785651341080665588378906250000f,0.03118903748691082000732421875000f,0.03479901701211929321289062500000f,0.06920617818832397460937500000000f,0.01705984584987163543701171875000f,-0.22840099036693572998046875000000f,0.37589263916015625000000000000000f,0.00148917862679809331893920898438f,-0.00501388218253850936889648437500f,-0.07459121942520141601562500000000f,-0.00349376001395285129547119140625f,0.01227306760847568511962890625000f,0.09144877642393112182617187500000f,-0.00469407718628644943237304687500f,-0.02189610712230205535888671875000f,-0.23211643099784851074218750000000f,0.04430076479911804199218750000000f,0.02151685208082199096679687500000f,0.00000448117179985274560749530792f,0.01428590063005685806274414062500f,0.02812899649143218994140625000000f,0.00007959418144309893250465393066f,-0.32560044527053833007812500000000f,0.04931700974702835083007812500000f,-0.04557717591524124145507812500000f,0.00000820750301500083878636360168f,-0.39231887459754943847656250000000f,0.01966203935444355010986328125000f,-0.00001531839188828598707914352417f,0.00322599732317030429840087890625f,-0.09281518310308456420898437500000f,-0.01424426678568124771118164062500f,0.03052926249802112579345703125000f,0.07095594704151153564453125000000f,0.03016839548945426940917968750000f,0.04283681139349937438964843750000f,-0.01491172797977924346923828125000f,-0.00000173746093423687852919101715f,0.01995073817670345306396484375000f,0.04867210984230041503906250000000f,0.09685470908880233764648437500000f,-0.02033330872654914855957031250000f,0.00199513812549412250518798828125f,-0.02081064879894256591796875000000f,0.00000293473249257658608257770538f,0.04521738737821578979492187500000f,-0.01619987376034259796142578125000f,0.04515349864959716796875000000000f,0.01557599194347858428955078125000f,-0.04797096550464630126953125000000f,-0.05496144294738769531250000000000f,-0.01765018142759799957275390625000f,0.02370178699493408203125000000000f,0.00889982376247644424438476562500f,0.01257983315736055374145507812500f,-0.11370375752449035644531250000000f,0.01726802624762058258056640625000f,0.07667809724807739257812500000000f,0.00231911032460629940032958984375f,0.01509085949510335922241210937500f,-0.09672475606203079223632812500000f,-0.17861202359199523925781250000000f,-0.07885242998600006103515625000000f,-0.00991746503859758377075195312500f,-0.02860834077000617980957031250000f,-0.01380540151149034500122070312500f,0.05413012579083442687988281250000f,-0.02403214760124683380126953125000f,0.01136585790663957595825195312500f,0.05997934937477111816406250000000f,0.04447362199425697326660156250000f,0.06495966017246246337890625000000f,-0.02943967096507549285888671875000f,-0.00307424785569310188293457031250f,-0.01602660492062568664550781250000f,0.10656849294900894165039062500000f,-0.30891185998916625976562500000000f,0.01232930086553096771240234375000f,-0.07081498950719833374023437500000f,0.05720005556941032409667968750000f,-0.05589251220226287841796875000000f,0.02801670320332050323486328125000f,0.00001096235882869223132729530334f,-0.03194808587431907653808593750000f,-0.16915889084339141845703125000000f,0.00001406651426805183291435241699f,0.01973849534988403320312500000000f,0.02215298824012279510498046875000f,-0.10873639583587646484375000000000f,-0.00000467530253445147536695003510f,0.02298139221966266632080078125000f,-0.06402240693569183349609375000000f,-0.00000802329850557725876569747925f,0.01875527389347553253173828125000f,-0.04736102372407913208007812500000f,-0.01461672969162464141845703125000f,-0.10466659069061279296875000000000f,-0.05427300557494163513183593750000f,-0.04962883517146110534667968750000f,0.10783337056636810302734375000000f,-0.05834755301475524902343750000000f,0.00000092872386403541895560920238f,-0.00109481648541986942291259765625f,0.24680797755718231201171875000000f,0.07579826563596725463867187500000f,0.00821098685264587402343750000000f,-0.05713585391640663146972656250000f,-0.00431831553578376770019531250000f,-0.00000314205772156128659844398499f,0.00201787147670984268188476562500f,0.04677783325314521789550781250000f,0.37355467677116394042968750000000f,0.08093520998954772949218750000000f,-0.02250025048851966857910156250000f,-0.14213088154792785644531250000000f,0.06302358955144882202148437500000f,-0.07208003848791122436523437500000f,0.00220716441981494426727294921875f,-0.06400158256292343139648437500000f,-0.07475958019495010375976562500000f,0.01915879920125007629394531250000f,-0.06119197607040405273437500000000f,0.00618582824245095252990722656250f,0.00659462669864296913146972656250f,0.02705933153629302978515625000000f,-0.00585773400962352752685546875000f,-0.00613644206896424293518066406250f,0.01311312336474657058715820312500f,0.07617673277854919433593750000000f,0.86775553226470947265625000000000f,0.00454501248896121978759765625000f,-0.01110858470201492309570312500000f,-0.02797411940991878509521484375000f,-0.00879799947142601013183593750000f,-0.01693499833345413208007812500000f,0.03375582024455070495605468750000f,-0.00586989894509315490722656250000f,-0.00138592172879725694656372070312f,0.07527673989534378051757812500000f,0.00552032142877578735351562500000f,0.01855931989848613739013671875000f,-0.06306099146604537963867187500000f,-0.03631217032670974731445312500000f,0.02497902512550354003906250000000f,-0.03859646245837211608886718750000f,0.06804057210683822631835937500000f,-0.00001997115396079607307910919189f,0.01556420885026454925537109375000f,-0.06779719889163970947265625000000f,-0.00001311025516770314425230026245f,-0.06194652989506721496582031250000f,0.21045227348804473876953125000000f,0.27337798476219177246093750000000f,0.00001239592893398366868495941162f,-0.01829118654131889343261718750000f,0.00751561764627695083618164062500f,0.00001343449821433750912547111511f,-0.10269942879676818847656250000000f,-0.02343329600989818572998046875000f,0.01093514263629913330078125000000f,0.10506418347358703613281250000000f,-0.00184318725951015949249267578125f,0.03699500858783721923828125000000f,0.00005104023148305714130401611328f,0.54777777194976806640625000000000f,-0.00001311648793489439412951469421f,-0.02950762771070003509521484375000f,0.03894574940204620361328125000000f,0.04409024119377136230468750000000f,0.00105408625677227973937988281250f,0.12804354727268218994140625000000f,0.53556120395660400390625000000000f,0.00001950490513991098850965499878f,-0.08370497077703475952148437500000f,-0.04241354390978813171386718750000f,-0.00418841466307640075683593750000f,-0.00382128870114684104919433593750f,-0.16986867785453796386718750000000f,-0.07096083462238311767578125000000f,0.07055751979351043701171875000000f,-0.02871054597198963165283203125000f,0.14360857009887695312500000000000f,-0.02275468409061431884765625000000f,0.22856803238391876220703125000000f,-0.15835437178611755371093750000000f,-0.04968734085559844970703125000000f,-0.00479656830430030822753906250000f,0.04298504441976547241210937500000f,-0.08352819085121154785156250000000f,-0.00789777003228664398193359375000f,0.14996275305747985839843750000000f,-0.06666788458824157714843750000000f,-0.00092816993128508329391479492188f,-0.02275926619768142700195312500000f,0.10483279079198837280273437500000f,0.13237036764621734619140625000000f,-0.19014684855937957763671875000000f,0.01740268059074878692626953125000f,0.09197433292865753173828125000000f,-0.20003272593021392822265625000000f,0.05707046017050743103027343750000f,0.05564585328102111816406250000000f,-0.02090449631214141845703125000000f,-0.07168678939342498779296875000000f,-0.09096243977546691894531250000000f,0.01556041091680526733398437500000f,0.05476463213562965393066406250000f,0.04253502190113067626953125000000f,0.25984841585159301757812500000000f,-0.02851743251085281372070312500000f,0.00000225810526899294927716255188f,-0.02828311547636985778808593750000f,0.30976796150207519531250000000000f,0.00000941415419219993054866790771f,0.13133957982063293457031250000000f,-0.09718208014965057373046875000000f,0.08161555230617523193359375000000f,0.00000104476896467531332746148109f,0.05071919038891792297363281250000f,0.04855491593480110168457031250000f,0.00000897068639460485428571701050f,-0.04631882533431053161621093750000f,0.05312922969460487365722656250000f,-0.01789130456745624542236328125000f,-0.07958029955625534057617187500000f,0.08113102614879608154296875000000f,0.04140824824571609497070312500000f,0.08346373587846755981445312500000f,-0.03489491716027259826660156250000f,0.00000982951769401552155613899231f,-0.04212476685643196105957031250000f,-0.17008428275585174560546875000000f,-0.29066619277000427246093750000000f,0.00618084007874131202697753906250f,0.05508843064308166503906250000000f,0.00055850879289209842681884765625f,-0.00001086591692001093178987503052f,0.05730511993169784545898437500000f,-0.01190437097102403640747070312500f,0.26578891277313232421875000000000f,0.07792722433805465698242187500000f,0.11775753647089004516601562500000f,-0.00175581278745085000991821289062f,0.18648211658000946044921875000000f,0.07962926477193832397460937500000f,0.00282333046197891235351562500000f,-0.01090184040367603302001953125000f,-0.00724077876657247543334960937500f,0.00869762524962425231933593750000f,-0.03569161146879196166992187500000f,-0.00075146899325773119926452636719f,-0.04731566831469535827636718750000f,-0.04714014381170272827148437500000f,-0.10432961583137512207031250000000f,-0.01798080466687679290771484375000f,-0.16002303361892700195312500000000f,-0.01599433459341526031494140625000f,-0.00431798398494720458984375000000f,-0.08510991185903549194335937500000f,0.19636937975883483886718750000000f,0.00947648938745260238647460937500f,0.05631936341524124145507812500000f,-0.15920437872409820556640625000000f,-0.05230034142732620239257812500000f,-0.02563377469778060913085937500000f,0.02971974201500415802001953125000f,0.00937407929450273513793945312500f,-0.00281723844818770885467529296875f,0.06140442937612533569335937500000f,-0.01945006847381591796875000000000f,-0.02763988822698593139648437500000f,0.01559558045119047164916992187500f,0.12673510611057281494140625000000f,0.05400276556611061096191406250000f,0.00000308217954625433776527643204f,0.16325417160987854003906250000000f,-0.09905791282653808593750000000000f,0.00004564473056234419345855712891f,-0.09026708453893661499023437500000f,0.04349702224135398864746093750000f,-0.05815548449754714965820312500000f,0.00000623308051217463798820972443f,0.01063404139131307601928710937500f,0.00668409466743469238281250000000f,0.00001806201908038929104804992676f,-0.08984664082527160644531250000000f,-0.10043933242559432983398437500000f,0.03180434927344322204589843750000f,-0.19701926410198211669921875000000f,0.02399950660765171051025390625000f,0.23794029653072357177734375000000f,0.05471063032746315002441406250000f,0.09478881955146789550781250000000f,0.00000196050200429453980177640915f,0.02339330688118934631347656250000f,-0.10002412647008895874023437500000f,-0.01267833076417446136474609375000f,0.00240939320065081119537353515625f,0.03139904513955116271972656250000f,-0.08427608758211135864257812500000f,0.00003224247484467923641204833984f,-0.05119664222002029418945312500000f,-0.06314090639352798461914062500000f,0.13581360876560211181640625000000f,0.02212660387158393859863281250000f,-0.11197976022958755493164062500000f,0.01230399683117866516113281250000f,0.09511268883943557739257812500000f,-0.02198076248168945312500000000000f,0.09096635133028030395507812500000f,0.02870075777173042297363281250000f,-0.06113560497760772705078125000000f,0.01765491627156734466552734375000f,0.01217344310134649276733398437500f,0.01157352514564990997314453125000f,0.01915046386420726776123046875000f,-0.00510786473751068115234375000000f,-0.17869281768798828125000000000000f,-0.01582571491599082946777343750000f,0.08277425915002822875976562500000f,0.03280363604426383972167968750000f,0.00070896692341193556785583496094f,0.02146888896822929382324218750000f,-0.03253513202071189880371093750000f,0.02184098400175571441650390625000f,0.03668018803000450134277343750000f,-0.06612309068441390991210937500000f,0.02344486489892005920410156250000f,-0.01381757762283086776733398437500f,0.01824855431914329528808593750000f,-0.01286773383617401123046875000000f,-0.13122643530368804931640625000000f,-0.07455104589462280273437500000000f,-0.02731036767363548278808593750000f,0.00449372595176100730895996093750f,-0.07806099951267242431640625000000f,-0.05607130005955696105957031250000f,-0.00712274666875600814819335937500f,-0.00000110972791844687890261411667f,-0.01694368757307529449462890625000f,-0.06553303450345993041992187500000f,0.00001906107718241401016712188721f,-0.05003027990460395812988281250000f,0.01387617364525794982910156250000f,0.00181891478132456541061401367188f,-0.00001779671947588212788105010986f,0.00981532130390405654907226562500f,-0.23553474247455596923828125000000f,0.00001474644068366615101695060730f,0.00742349261417984962463378906250f,0.04509425163269042968750000000000f,0.30458357930183410644531250000000f,-0.02046602591872215270996093750000f,0.00773688079789280891418457031250f,-0.08438926190137863159179687500000f,0.04953045770525932312011718750000f,-0.00901671499013900756835937500000f,0.00000902300052985083311796188354f,0.04678306728601455688476562500000f,0.06164730340242385864257812500000f,0.03262269124388694763183593750000f,0.23240281641483306884765625000000f,-0.03686934709548950195312500000000f,0.01374914776533842086791992187500f,0.00002763101292657665908336639404f,0.00464970013126730918884277343750f,0.02111854404211044311523437500000f,0.08541849255561828613281250000000f,0.49258592724800109863281250000000f,-0.01776492595672607421875000000000f,0.02319902367889881134033203125000f,-0.05213145539164543151855468750000f,0.06904098391532897949218750000000f,0.01870628260076045989990234375000f,0.03273855894804000854492187500000f,-0.05767219886183738708496093750000f,0.03337309882044792175292968750000f,-0.46664127707481384277343750000000f,-0.02125357091426849365234375000000f,-0.03489132598042488098144531250000f,-0.09123755991458892822265625000000f,0.05723509192466735839843750000000f,0.21475104987621307373046875000000f,-0.01142703555524349212646484375000f,-0.03205642849206924438476562500000f,0.04637404903769493103027343750000f,-0.00656591774895787239074707031250f,-0.00620165793225169181823730468750f,-0.00067369570024311542510986328125f,0.00574578251689672470092773437500f,0.02047271654009819030761718750000f,-0.11144972592592239379882812500000f,-0.00186051626224070787429809570312f,-0.00971493404358625411987304687500f,0.02568099647760391235351562500000f,-0.00676560169085860252380371093750f,-0.01121331192553043365478515625000f,0.02341355383396148681640625000000f,-0.31358727812767028808593750000000f,-0.00923492852598428726196289062500f,-0.06774823367595672607421875000000f,0.03534763306379318237304687500000f,0.00000025024041860888246446847916f,-0.04548135772347450256347656250000f,0.10758600383996963500976562500000f,0.00000283581516669073607772588730f,0.02149563841521739959716796875000f,-0.02767522446811199188232421875000f,0.02568213269114494323730468750000f,-0.00000137482197715144138783216476f,-0.01057310961186885833740234375000f,-0.00492455391213297843933105468750f,-0.00000087257694758591242134571075f,0.02829541265964508056640625000000f,0.04064069315791130065917968750000f,-0.00495186354964971542358398437500f,-0.01824404112994670867919921875000f,